svm_type c_svc
kernel_type polynomial
degree 2
gamma 1.0
coef0 1.0
nr_class 3
total_sv 873
rho 0.0842333438676422 -0.5171198522564503 -0.5810457230585864
label 2 1 0
nr_sv 434 379 60
SV
0.0014748051371699944 4.304960592586855E-5 730:1.0 2876:1.0 4621:1.0 4638:1.0 5795:1.0 5810:1.0 5866:1.0 9487:1.0 17761:1.0 18072:1.0 27202:1.0 27333:1.0 29453:1.0 32133:1.0 32828:1.0 36844:1.0 39185:1.0 41485:1.0 
4.103081312627629E-4 0.0 101:1.0 2876:1.0 4621:1.0 4621:1.0 4638:1.0 4638:1.0 5795:1.0 5795:1.0 5810:1.0 5810:1.0 8942:1.0 9487:1.0 16598:1.0 18072:1.0 22548:1.0 22548:1.0 22563:1.0 22563:1.0 24176:1.0 27340:1.0 29473:1.0 32129:1.0 34579:1.0 36852:1.0 37429:1.0 41480:1.0 
8.508279754416561E-4 0.0 1610:1.0 2373:1.0 3851:1.0 3851:1.0 3868:1.0 3868:1.0 4913:1.0 4913:1.0 4928:1.0 4928:1.0 6152:1.0 7807:1.0 10724:1.0 10739:1.0 13871:1.0 14416:1.0 19941:1.0 23001:1.0 27477:1.0 27492:1.0 32103:1.0 32258:1.0 33303:1.0 37054:1.0 41098:1.0 41775:1.0 43325:1.0 46413:1.0 
0.010229168730926346 0.0029123236998720406 2270:1.0 2375:1.0 7498:1.0 7816:1.0 11660:1.0 14416:1.0 22785:1.0 23005:1.0 28287:1.0 32271:1.0 
0.0033497888645610866 0.0014506316881584735 1949:1.0 2377:1.0 3851:1.0 3851:1.0 3868:1.0 3868:1.0 4913:1.0 4928:1.0 7623:1.0 7809:1.0 9550:1.0 9567:1.0 10724:1.0 10724:1.0 10724:1.0 10739:1.0 10739:1.0 10739:1.0 14261:1.0 14416:1.0 22785:1.0 23005:1.0 27477:1.0 27477:1.0 27492:1.0 27492:1.0 28287:1.0 32271:1.0 
7.89941470145238E-4 0.0 367:1.0 2373:1.0 3851:1.0 3851:1.0 3851:1.0 3851:1.0 3868:1.0 3868:1.0 3868:1.0 3868:1.0 6388:1.0 7817:1.0 12062:1.0 14416:1.0 19563:1.0 23001:1.0 32069:1.0 32268:1.0 35821:1.0 37057:1.0 38722:1.0 41779:1.0 44063:1.0 46416:1.0 
7.044170658833825E-5 0.0 95:1.0 2377:1.0 4913:1.0 4913:1.0 4928:1.0 4928:1.0 7448:1.0 7805:1.0 9550:1.0 9550:1.0 9567:1.0 9567:1.0 10724:1.0 10724:1.0 10724:1.0 10724:1.0 10724:1.0 10724:1.0 10724:1.0 10739:1.0 10739:1.0 10739:1.0 10739:1.0 10739:1.0 10739:1.0 10739:1.0 10795:1.0 14416:1.0 20587:1.0 23001:1.0 27477:1.0 27492:1.0 30724:1.0 32269:1.0 35149:1.0 37052:1.0 41289:1.0 41772:1.0 42512:1.0 46413:1.0 
2.5245305122931678E-5 1.0316427233035426E-4 1536:1.0 2876:1.0 5795:1.0 5795:1.0 5810:1.0 5810:1.0 5866:1.0 9487:1.0 16898:1.0 18072:1.0 24089:1.0 27339:1.0 29024:1.0 32134:1.0 34464:1.0 36843:1.0 38274:1.0 41474:1.0 
9.779072409787698E-4 0.0 2023:1.0 2379:1.0 6061:1.0 7805:1.0 10724:1.0 10739:1.0 10795:1.0 14416:1.0 20308:1.0 23001:1.0 27843:1.0 32270:1.0 35318:1.0 37062:1.0 38722:1.0 41779:1.0 43850:1.0 46405:1.0 
5.437923766062115E-4 0.0 1109:1.0 2377:1.0 4913:1.0 4913:1.0 4913:1.0 4913:1.0 4913:1.0 4913:1.0 4928:1.0 4928:1.0 4928:1.0 4928:1.0 4928:1.0 4928:1.0 5448:1.0 7805:1.0 10724:1.0 10739:1.0 13871:1.0 14416:1.0 19449:1.0 23001:1.0 31681:1.0 32262:1.0 34989:1.0 37052:1.0 40443:1.0 41778:1.0 44956:1.0 46414:1.0 
0.0016436589629759916 2.1048138556513664E-4 1492:1.0 2382:1.0 7388:1.0 7811:1.0 10795:1.0 14416:1.0 18550:1.0 23001:1.0 29542:1.0 32268:1.0 32977:1.0 37057:1.0 39645:1.0 41779:1.0 45971:1.0 46403:1.0 
7.879962362010911E-4 0.0 181:1.0 2377:1.0 3851:1.0 3868:1.0 4913:1.0 4913:1.0 4913:1.0 4928:1.0 4928:1.0 4928:1.0 6632:1.0 7805:1.0 9550:1.0 9567:1.0 10724:1.0 10724:1.0 10724:1.0 10724:1.0 10724:1.0 10724:1.0 10724:1.0 10739:1.0 10739:1.0 10739:1.0 10739:1.0 10739:1.0 10739:1.0 10739:1.0 13871:1.0 14416:1.0 20445:1.0 23001:1.0 27477:1.0 27477:1.0 27492:1.0 27492:1.0 28451:1.0 32260:1.0 36369:1.0 37055:1.0 41205:1.0 41773:1.0 45576:1.0 46407:1.0 
0.0012878269160844758 5.255812833803665E-4 512:1.0 2876:1.0 5795:1.0 5795:1.0 5795:1.0 5795:1.0 5810:1.0 5810:1.0 5810:1.0 5810:1.0 8942:1.0 9487:1.0 17145:1.0 18072:1.0 24219:1.0 27335:1.0 28169:1.0 32133:1.0 33607:1.0 36850:1.0 39703:1.0 41474:1.0 
1.2058009818079698E-4 1.8476237839456895E-4 371:1.0 2381:1.0 7388:1.0 7811:1.0 10795:1.0 14416:1.0 20184:1.0 23001:1.0 30063:1.0 32269:1.0 36350:1.0 37052:1.0 39143:1.0 41778:1.0 43224:1.0 46414:1.0 
0.0018794651175471585 0.001659256001991043 143:1.0 3676:1.0 6177:1.0 6194:1.0 9444:1.0 12261:1.0 16737:1.0 16737:1.0 16737:1.0 16737:1.0 16752:1.0 16752:1.0 16752:1.0 16752:1.0 19323:1.0 21529:1.0 25610:1.0 26312:1.0 28403:1.0 31038:1.0 32484:1.0 35674:1.0 
0.0013414306677838321 0.0 526:1.0 2373:1.0 3851:1.0 3868:1.0 4913:1.0 4913:1.0 4928:1.0 4928:1.0 7253:1.0 7817:1.0 13242:1.0 14416:1.0 20944:1.0 23004:1.0 28571:1.0 32258:1.0 34382:1.0 37062:1.0 39301:1.0 41768:1.0 43814:1.0 46416:1.0 
0.0074631509201485485 0.0021999331372676762 2634:1.0 3676:1.0 8321:1.0 12261:1.0 18278:1.0 21528:1.0 23025:1.0 26323:1.0 28880:1.0 31028:1.0 31292:1.0 35672:1.0 
0.005598070144846973 0.0 1150:1.0 2373:1.0 4913:1.0 4928:1.0 6388:1.0 7817:1.0 13871:1.0 14416:1.0 19253:1.0 22996:1.0 27477:1.0 27492:1.0 28611:1.0 32262:1.0 33040:1.0 37062:1.0 38091:1.0 41773:1.0 44731:1.0 46413:1.0 
0.0021103227132674646 5.041881310557984E-4 1022:1.0 2373:1.0 3851:1.0 3868:1.0 6163:1.0 7814:1.0 13242:1.0 14416:1.0 22784:1.0 23004:1.0 28571:1.0 32258:1.0 34382:1.0 37062:1.0 39301:1.0 41768:1.0 43224:1.0 46414:1.0 
0.001938315165512693 5.850543846987814E-4 112:1.0 2377:1.0 3851:1.0 3851:1.0 3851:1.0 3868:1.0 3868:1.0 3868:1.0 4913:1.0 4928:1.0 6406:1.0 7809:1.0 9550:1.0 9550:1.0 9567:1.0 9567:1.0 10724:1.0 10724:1.0 10739:1.0 10739:1.0 12284:1.0 14416:1.0 18547:1.0 23004:1.0 27855:1.0 32258:1.0 35716:1.0 37061:1.0 38729:1.0 41773:1.0 43325:1.0 46413:1.0 
0.0018085069959961073 1.5883787986077644E-4 744:1.0 2373:1.0 3851:1.0 3868:1.0 4913:1.0 4913:1.0 4928:1.0 4928:1.0 7253:1.0 7817:1.0 13242:1.0 14416:1.0 20622:1.0 23004:1.0 29706:1.0 32258:1.0 34370:1.0 37065:1.0 41589:1.0 41778:1.0 45105:1.0 46414:1.0 
5.729801081608068E-4 3.5045552519533715E-4 1984:1.0 2876:1.0 5795:1.0 5810:1.0 5866:1.0 9487:1.0 17602:1.0 18072:1.0 22548:1.0 22563:1.0 26297:1.0 27341:1.0 29453:1.0 32133:1.0 36169:1.0 36846:1.0 38850:1.0 41480:1.0 
6.523879360611676E-5 1.4010693305201396E-4 2023:1.0 2379:1.0 6133:1.0 7810:1.0 10795:1.0 14416:1.0 20158:1.0 23001:1.0 28917:1.0 32269:1.0 33698:1.0 37052:1.0 39143:1.0 41778:1.0 42370:1.0 46409:1.0 
0.0 2.98530503809457E-5 1248:1.0 2377:1.0 4913:1.0 4913:1.0 4913:1.0 4928:1.0 4928:1.0 4928:1.0 6454:1.0 7805:1.0 10724:1.0 10739:1.0 13871:1.0 14416:1.0 22845:1.0 23001:1.0 27477:1.0 27492:1.0 27796:1.0 32268:1.0 33765:1.0 37063:1.0 39654:1.0 41776:1.0 42772:1.0 46405:1.0 
1.7077819790453384E-4 1.0283221373254297E-4 1019:1.0 2883:1.0 4621:1.0 4621:1.0 4638:1.0 4638:1.0 5795:1.0 5795:1.0 5810:1.0 5810:1.0 5866:1.0 9487:1.0 13386:1.0 18072:1.0 25565:1.0 27339:1.0 30805:1.0 32129:1.0 32242:1.0 36851:1.0 38897:1.0 41484:1.0 
7.985561563914631E-5 0.0 72:1.0 2377:1.0 3851:1.0 3851:1.0 3868:1.0 3868:1.0 4913:1.0 4913:1.0 4928:1.0 4928:1.0 5257:1.0 7810:1.0 9550:1.0 9550:1.0 9550:1.0 9567:1.0 9567:1.0 9567:1.0 10724:1.0 10724:1.0 10739:1.0 10739:1.0 13871:1.0 14416:1.0 18142:1.0 18142:1.0 18157:1.0 18157:1.0 20017:1.0 23001:1.0 27477:1.0 27492:1.0 27949:1.0 32269:1.0 33591:1.0 37052:1.0 37433:1.0 41778:1.0 44322:1.0 46414:1.0 
0.0011821960060927398 0.0 895:1.0 2377:1.0 4913:1.0 4913:1.0 4928:1.0 4928:1.0 5666:1.0 7805:1.0 10724:1.0 10739:1.0 13871:1.0 14416:1.0 18142:1.0 18142:1.0 18157:1.0 18157:1.0 21972:1.0 23001:1.0 30063:1.0 32269:1.0 35334:1.0 37052:1.0 39143:1.0 41778:1.0 43409:1.0 46414:1.0 
7.378787309809844E-4 0.0 201:1.0 2377:1.0 4913:1.0 4928:1.0 6230:1.0 7805:1.0 10724:1.0 10739:1.0 13871:1.0 14416:1.0 21616:1.0 23001:1.0 29105:1.0 32269:1.0 33300:1.0 37056:1.0 37575:1.0 41768:1.0 45744:1.0 46406:1.0 
5.688754562814102E-4 1.638474166785571E-5 1691:1.0 2377:1.0 4913:1.0 4928:1.0 5186:1.0 7805:1.0 10724:1.0 10724:1.0 10739:1.0 10739:1.0 13871:1.0 14416:1.0 20399:1.0 23001:1.0 30494:1.0 32268:1.0 35024:1.0 37052:1.0 38536:1.0 41779:1.0 45148:1.0 46403:1.0 
9.39818573276502E-4 0.0 1657:1.0 2876:1.0 4621:1.0 4638:1.0 5795:1.0 5810:1.0 8942:1.0 9487:1.0 14763:1.0 18072:1.0 23988:1.0 27340:1.0 31249:1.0 32123:1.0 33793:1.0 36850:1.0 39513:1.0 41474:1.0 
9.378228638164245E-4 1.6077766315170206E-4 1927:1.0 2376:1.0 3851:1.0 3851:1.0 3851:1.0 3868:1.0 3868:1.0 3868:1.0 4913:1.0 4913:1.0 4928:1.0 4928:1.0 7465:1.0 7805:1.0 10724:1.0 10739:1.0 13871:1.0 14416:1.0 18142:1.0 18142:1.0 18157:1.0 18157:1.0 22089:1.0 23001:1.0 27477:1.0 27492:1.0 30002:1.0 32269:1.0 35449:1.0 37052:1.0 37915:1.0 41781:1.0 
3.173013040008034E-4 0.0 311:1.0 2373:1.0 3851:1.0 3868:1.0 6469:1.0 7815:1.0 13871:1.0 14416:1.0 19116:1.0 23001:1.0 30484:1.0 32258:1.0 32705:1.0 37062:1.0 38722:1.0 41779:1.0 42965:1.0 46407:1.0 
0.0010373198026050177 2.8378342487739977E-4 2716:1.0 2878:1.0 4621:1.0 4621:1.0 4638:1.0 4638:1.0 5866:1.0 9487:1.0 16872:1.0 18072:1.0 26632:1.0 27336:1.0 32104:1.0 32132:1.0 34179:1.0 36844:1.0 40379:1.0 41484:1.0 
0.0019262963821872585 0.0010477235173950662 3467:1.0 3676:1.0 6177:1.0 6177:1.0 6194:1.0 6194:1.0 11061:1.0 12261:1.0 16737:1.0 16752:1.0 20821:1.0 21525:1.0 26293:1.0 26321:1.0 28368:1.0 31033:1.0 34568:1.0 35673:1.0 
0.0022789804527297564 0.0 860:1.0 2378:1.0 3851:1.0 3851:1.0 3868:1.0 3868:1.0 4913:1.0 4913:1.0 4928:1.0 4928:1.0 6388:1.0 7817:1.0 12570:1.0 14416:1.0 21289:1.0 22996:1.0 29651:1.0 32267:1.0 34713:1.0 37061:1.0 37418:1.0 41780:1.0 45272:1.0 46408:1.0 
1.3133766370606106E-4 7.832204609869676E-5 1996:1.0 2378:1.0 3851:1.0 3868:1.0 4913:1.0 4928:1.0 5673:1.0 7805:1.0 10724:1.0 10739:1.0 13871:1.0 14416:1.0 19867:1.0 23001:1.0 28917:1.0 32269:1.0 33707:1.0 37058:1.0 40251:1.0 41774:1.0 43826:1.0 46413:1.0 
8.894034518634954E-5 0.0 1441:1.0 2377:1.0 4913:1.0 4928:1.0 6793:1.0 7805:1.0 9550:1.0 9550:1.0 9567:1.0 9567:1.0 10724:1.0 10724:1.0 10739:1.0 10739:1.0 13871:1.0 14416:1.0 20608:1.0 23001:1.0 28917:1.0 32269:1.0 34101:1.0 37058:1.0 40918:1.0 41774:1.0 42611:1.0 46416:1.0 
0.0013071296125656132 0.0 1792:1.0 2377:1.0 4913:1.0 4913:1.0 4928:1.0 4928:1.0 7209:1.0 7805:1.0 9550:1.0 9550:1.0 9567:1.0 9567:1.0 10724:1.0 10724:1.0 10739:1.0 10739:1.0 13871:1.0 14416:1.0 20343:1.0 23001:1.0 27477:1.0 27492:1.0 28654:1.0 32263:1.0 35576:1.0 37055:1.0 41743:1.0 41776:1.0 45875:1.0 46403:1.0 
0.0025374797956297553 0.0010026727455303165 1063:1.0 2377:1.0 4913:1.0 4913:1.0 4928:1.0 4928:1.0 5618:1.0 7809:1.0 13242:1.0 14416:1.0 22967:1.0 23004:1.0 31698:1.0 32258:1.0 35318:1.0 37062:1.0 37584:1.0 41779:1.0 44416:1.0 46403:1.0 
0.0 2.077563358116455E-4 158:1.0 2373:1.0 4913:1.0 4913:1.0 4913:1.0 4928:1.0 4928:1.0 4928:1.0 7209:1.0 7805:1.0 9550:1.0 9567:1.0 10724:1.0 10739:1.0 13871:1.0 14416:1.0 19041:1.0 23001:1.0 29921:1.0 32271:1.0 35318:1.0 37062:1.0 38570:1.0 41779:1.0 44491:1.0 46403:1.0 
0.0028350339130906034 0.0011731951529152503 3265:1.0 3676:1.0 6177:1.0 6194:1.0 7402:1.0 7417:1.0 8604:1.0 12261:1.0 16737:1.0 16752:1.0 18887:1.0 21529:1.0 25882:1.0 26312:1.0 28643:1.0 31041:1.0 32568:1.0 35667:1.0 
4.6679394137309576E-4 0.0 572:1.0 2377:1.0 4913:1.0 4913:1.0 4928:1.0 4928:1.0 7541:1.0 7805:1.0 9550:1.0 9550:1.0 9567:1.0 9567:1.0 10724:1.0 10739:1.0 13871:1.0 14416:1.0 18848:1.0 23001:1.0 30724:1.0 32269:1.0 35745:1.0 37052:1.0 39383:1.0 41781:1.0 46071:1.0 46407:1.0 
0.003428763766327956 6.270769537547446E-4 1211:1.0 2373:1.0 4913:1.0 4913:1.0 4928:1.0 4928:1.0 6388:1.0 7817:1.0 14170:1.0 14416:1.0 18142:1.0 18157:1.0 20236:1.0 22996:1.0 27477:1.0 27492:1.0 29542:1.0 32268:1.0 33017:1.0 37058:1.0 38078:1.0 41770:1.0 43999:1.0 46409:1.0 
9.156528453020047E-4 0.0 1492:1.0 2382:1.0 5641:1.0 7815:1.0 13871:1.0 14416:1.0 18482:1.0 23001:1.0 29018:1.0 32268:1.0 33953:1.0 37063:1.0 39312:1.0 41768:1.0 44063:1.0 46416:1.0 
3.028957783319373E-4 0.0 2023:1.0 2379:1.0 7143:1.0 7805:1.0 9550:1.0 9567:1.0 10724:1.0 10739:1.0 10795:1.0 14416:1.0 18944:1.0 23001:1.0 29018:1.0 32268:1.0 33659:1.0 37052:1.0 37915:1.0 41781:1.0 
0.0 4.015051877149691E-4 95:1.0 2377:1.0 3851:1.0 3868:1.0 4913:1.0 4928:1.0 7388:1.0 7811:1.0 13946:1.0 14416:1.0 20482:1.0 23001:1.0 27477:1.0 27492:1.0 30494:1.0 32268:1.0 34049:1.0 37052:1.0 38536:1.0 41779:1.0 42078:1.0 46403:1.0 
3.967502150601773E-5 4.513406010106294E-4 1013:1.0 2382:1.0 7388:1.0 7811:1.0 10795:1.0 14416:1.0 21499:1.0 23001:1.0 27477:1.0 27492:1.0 29790:1.0 32271:1.0 36369:1.0 37059:1.0 39949:1.0 41774:1.0 43929:1.0 46412:1.0 
0.005313447088950427 0.003138508556442927 3467:1.0 3676:1.0 6177:1.0 6194:1.0 8263:1.0 12261:1.0 21105:1.0 21518:1.0 23642:1.0 26322:1.0 28905:1.0 31039:1.0 35604:1.0 35663:1.0 
7.525092677782377E-4 3.219581490819915E-4 498:1.0 2880:1.0 4621:1.0 4621:1.0 4621:1.0 4638:1.0 4638:1.0 4638:1.0 5795:1.0 5810:1.0 6094:1.0 9487:1.0 13213:1.0 13228:1.0 15083:1.0 18072:1.0 22548:1.0 22548:1.0 22563:1.0 22563:1.0 26328:1.0 27340:1.0 28836:1.0 32134:1.0 35305:1.0 36839:1.0 38897:1.0 41484:1.0 
0.001342685287975317 4.420339862088641E-4 2361:1.0 2377:1.0 4913:1.0 4928:1.0 6829:1.0 7810:1.0 9550:1.0 9550:1.0 9550:1.0 9567:1.0 9567:1.0 9567:1.0 10724:1.0 10724:1.0 10724:1.0 10739:1.0 10739:1.0 10739:1.0 12941:1.0 14416:1.0 18142:1.0 18157:1.0 20034:1.0 22996:1.0 29542:1.0 32268:1.0 33953:1.0 37063:1.0 38552:1.0 41768:1.0 42611:1.0 46416:1.0 
2.5997598139245836E-4 0.0 1914:1.0 2373:1.0 4913:1.0 4928:1.0 6388:1.0 7817:1.0 13871:1.0 14416:1.0 20585:1.0 23001:1.0 27477:1.0 27492:1.0 31561:1.0 32265:1.0 35204:1.0 37058:1.0 41075:1.0 41773:1.0 44731:1.0 46413:1.0 
6.738920082678996E-5 0.0 691:1.0 2880:1.0 4621:1.0 4621:1.0 4638:1.0 4638:1.0 5795:1.0 5795:1.0 5810:1.0 5810:1.0 5866:1.0 9487:1.0 13576:1.0 18072:1.0 25565:1.0 27339:1.0 31769:1.0 32123:1.0 34214:1.0 36849:1.0 40750:1.0 41485:1.0 
0.0 7.684378046351693E-4 1209:1.0 2373:1.0 4913:1.0 4913:1.0 4928:1.0 4928:1.0 6028:1.0 7807:1.0 10724:1.0 10724:1.0 10739:1.0 10739:1.0 10795:1.0 14416:1.0 19060:1.0 23001:1.0 27477:1.0 27492:1.0 28287:1.0 32271:1.0 
0.0 0.0012768997909136752 1241:1.0 2373:1.0 3851:1.0 3868:1.0 4913:1.0 4913:1.0 4913:1.0 4913:1.0 4928:1.0 4928:1.0 4928:1.0 4928:1.0 6398:1.0 7805:1.0 10724:1.0 10724:1.0 10739:1.0 10739:1.0 12130:1.0 14416:1.0 18142:1.0 18142:1.0 18157:1.0 18157:1.0 19060:1.0 23001:1.0 27477:1.0 27477:1.0 27492:1.0 27492:1.0 28287:1.0 32271:1.0 
5.013234209684362E-5 0.0 1087:1.0 2386:1.0 3851:1.0 3851:1.0 3868:1.0 3868:1.0 5092:1.0 7816:1.0 10795:1.0 14416:1.0 20296:1.0 23001:1.0 27477:1.0 27492:1.0 29018:1.0 32268:1.0 32935:1.0 37057:1.0 39588:1.0 41779:1.0 46293:1.0 46403:1.0 
3.4343055834213046E-5 0.0 1666:1.0 2377:1.0 4913:1.0 4928:1.0 6856:1.0 7805:1.0 10724:1.0 10739:1.0 13871:1.0 14416:1.0 19200:1.0 23001:1.0 28951:1.0 32269:1.0 33795:1.0 37052:1.0 39508:1.0 41781:1.0 43000:1.0 46414:1.0 
9.265667449591872E-4 3.357057309090959E-4 1200:1.0 2385:1.0 5641:1.0 7815:1.0 11256:1.0 14416:1.0 21303:1.0 23001:1.0 28917:1.0 32269:1.0 34508:1.0 37052:1.0 39647:1.0 41772:1.0 43766:1.0 46414:1.0 
8.523803005439146E-4 4.150104844981656E-4 711:1.0 2876:1.0 5795:1.0 5795:1.0 5795:1.0 5795:1.0 5810:1.0 5810:1.0 5810:1.0 5810:1.0 8942:1.0 9487:1.0 13213:1.0 13213:1.0 13228:1.0 13228:1.0 13668:1.0 18072:1.0 27201:1.0 27341:1.0 29965:1.0 32134:1.0 33616:1.0 36839:1.0 38720:1.0 41478:1.0 
1.0156896939956392E-4 0.0 1138:1.0 2385:1.0 5870:1.0 7805:1.0 10724:1.0 10739:1.0 10795:1.0 14416:1.0 18947:1.0 23001:1.0 27477:1.0 27492:1.0 29270:1.0 32269:1.0 35820:1.0 37064:1.0 40667:1.0 41768:1.0 44882:1.0 46411:1.0 
0.0021820288395780303 4.364048816406057E-4 386:1.0 2378:1.0 4913:1.0 4913:1.0 4913:1.0 4928:1.0 4928:1.0 4928:1.0 6388:1.0 7817:1.0 11016:1.0 14416:1.0 21476:1.0 22996:1.0 30259:1.0 32263:1.0 37039:1.0 37052:1.0 38637:1.0 41778:1.0 46285:1.0 46408:1.0 
1.4361620954018084E-4 0.0 1578:1.0 2373:1.0 3851:1.0 3851:1.0 3851:1.0 3868:1.0 3868:1.0 3868:1.0 4913:1.0 4928:1.0 7555:1.0 7805:1.0 10724:1.0 10739:1.0 13871:1.0 14416:1.0 19824:1.0 23001:1.0 28951:1.0 32269:1.0 33629:1.0 37052:1.0 39839:1.0 41777:1.0 45486:1.0 46406:1.0 
1.8413680630793394E-4 0.0 2023:1.0 2379:1.0 5599:1.0 7805:1.0 9550:1.0 9567:1.0 10724:1.0 10739:1.0 10795:1.0 14416:1.0 18407:1.0 23001:1.0 27477:1.0 27492:1.0 32069:1.0 32268:1.0 34394:1.0 37052:1.0 39382:1.0 41772:1.0 42772:1.0 46405:1.0 
0.0 4.8083119092050685E-6 1062:1.0 2373:1.0 4913:1.0 4928:1.0 6898:1.0 7805:1.0 10724:1.0 10724:1.0 10739:1.0 10739:1.0 13871:1.0 14416:1.0 20409:1.0 23001:1.0 27477:1.0 27492:1.0 30063:1.0 32269:1.0 35868:1.0 37052:1.0 37915:1.0 41781:1.0 
0.0011715241725833616 0.0 1062:1.0 2373:1.0 4913:1.0 4928:1.0 6938:1.0 7805:1.0 9550:1.0 9550:1.0 9567:1.0 9567:1.0 10724:1.0 10724:1.0 10739:1.0 10739:1.0 13871:1.0 14416:1.0 18555:1.0 23001:1.0 31276:1.0 32263:1.0 35632:1.0 37052:1.0 41721:1.0 41772:1.0 46045:1.0 46413:1.0 
0.0012002271664972085 1.3090285437356947E-4 438:1.0 2377:1.0 4913:1.0 4913:1.0 4913:1.0 4928:1.0 4928:1.0 4928:1.0 6898:1.0 7805:1.0 10724:1.0 10724:1.0 10739:1.0 10739:1.0 13871:1.0 14416:1.0 22896:1.0 23001:1.0 28995:1.0 32269:1.0 36642:1.0 37052:1.0 40821:1.0 41773:1.0 45039:1.0 46403:1.0 
0.0 1.7979731703634676E-6 1225:1.0 2373:1.0 3851:1.0 3868:1.0 6468:1.0 7816:1.0 10795:1.0 14416:1.0 18557:1.0 23001:1.0 29105:1.0 32269:1.0 34010:1.0 37052:1.0 39143:1.0 41778:1.0 43409:1.0 46414:1.0 
9.874123871768128E-6 0.0 2023:1.0 2375:1.0 4975:1.0 7807:1.0 14344:1.0 14416:1.0 21188:1.0 23001:1.0 32069:1.0 32268:1.0 33953:1.0 37063:1.0 40588:1.0 41768:1.0 44063:1.0 46416:1.0 
0.0018290126441936655 0.0 615:1.0 2378:1.0 3851:1.0 3851:1.0 3868:1.0 3868:1.0 6388:1.0 7817:1.0 13871:1.0 14416:1.0 20163:1.0 22996:1.0 27477:1.0 27477:1.0 27492:1.0 27492:1.0 28287:1.0 32271:1.0 
7.134403907756433E-6 0.0 125:1.0 2377:1.0 6238:1.0 7805:1.0 9550:1.0 9567:1.0 10724:1.0 10724:1.0 10739:1.0 10739:1.0 13871:1.0 14416:1.0 22054:1.0 23001:1.0 30002:1.0 32269:1.0 32993:1.0 37052:1.0 40649:1.0 41778:1.0 45840:1.0 46412:1.0 
4.3588689191068774E-4 5.5258707810264446E-5 1970:1.0 2373:1.0 4913:1.0 4928:1.0 5186:1.0 7805:1.0 10724:1.0 10724:1.0 10739:1.0 10739:1.0 13871:1.0 14416:1.0 21420:1.0 23001:1.0 27920:1.0 32264:1.0 35913:1.0 37062:1.0 41195:1.0 41777:1.0 44528:1.0 46411:1.0 
7.72263927252627E-4 0.0 2371:1.0 2378:1.0 6388:1.0 7817:1.0 11161:1.0 14416:1.0 22266:1.0 23001:1.0 27477:1.0 27492:1.0 28951:1.0 32269:1.0 33957:1.0 37052:1.0 40617:1.0 41775:1.0 44956:1.0 46414:1.0 
1.4117301076463986E-4 0.0 27:1.0 2377:1.0 3851:1.0 3868:1.0 4913:1.0 4913:1.0 4913:1.0 4928:1.0 4928:1.0 4928:1.0 6815:1.0 7805:1.0 9550:1.0 9567:1.0 10724:1.0 10724:1.0 10739:1.0 10739:1.0 13871:1.0 14416:1.0 20414:1.0 23001:1.0 28917:1.0 32269:1.0 33250:1.0 37052:1.0 39448:1.0 41774:1.0 45683:1.0 46409:1.0 
4.675683829245452E-4 3.779357571722641E-5 27:1.0 2377:1.0 3851:1.0 3851:1.0 3868:1.0 3868:1.0 4913:1.0 4913:1.0 4913:1.0 4928:1.0 4928:1.0 4928:1.0 6427:1.0 7805:1.0 9550:1.0 9567:1.0 10724:1.0 10739:1.0 13871:1.0 14416:1.0 18142:1.0 18142:1.0 18157:1.0 18157:1.0 20661:1.0 23001:1.0 27477:1.0 27492:1.0 28917:1.0 32269:1.0 33356:1.0 37052:1.0 39143:1.0 41778:1.0 43409:1.0 46414:1.0 
9.017981522388465E-4 1.0476681813191212E-4 2023:1.0 2379:1.0 7750:1.0 7810:1.0 10724:1.0 10724:1.0 10739:1.0 10739:1.0 13871:1.0 14416:1.0 21198:1.0 23001:1.0 32256:1.0 32264:1.0 33765:1.0 37063:1.0 40301:1.0 41776:1.0 43826:1.0 46413:1.0 
7.656421477842874E-4 0.0 1544:1.0 2373:1.0 3851:1.0 3868:1.0 4913:1.0 4928:1.0 6388:1.0 7817:1.0 13871:1.0 14416:1.0 20893:1.0 23001:1.0 28521:1.0 32269:1.0 36557:1.0 37052:1.0 39143:1.0 41778:1.0 43224:1.0 46414:1.0 
6.693425084579614E-4 0.0 1476:1.0 2377:1.0 6816:1.0 7805:1.0 9550:1.0 9550:1.0 9567:1.0 9567:1.0 10724:1.0 10739:1.0 13871:1.0 14416:1.0 19707:1.0 23001:1.0 29627:1.0 32269:1.0 36796:1.0 37056:1.0 39503:1.0 41774:1.0 42772:1.0 46405:1.0 
3.838268816606203E-4 0.0 491:1.0 2377:1.0 3851:1.0 3868:1.0 4913:1.0 4913:1.0 4913:1.0 4928:1.0 4928:1.0 4928:1.0 7413:1.0 7805:1.0 9550:1.0 9567:1.0 10724:1.0 10739:1.0 13871:1.0 14416:1.0 20414:1.0 23001:1.0 32256:1.0 32264:1.0 33303:1.0 37054:1.0 37768:1.0 41768:1.0 45276:1.0 46413:1.0 
2.908302874744199E-4 0.0 1200:1.0 2385:1.0 7681:1.0 7807:1.0 10795:1.0 14416:1.0 21103:1.0 23001:1.0 28245:1.0 32268:1.0 33765:1.0 37063:1.0 38348:1.0 41768:1.0 42727:1.0 46407:1.0 
0.003492603481037083 2.9649804909935253E-4 1434:1.0 2377:1.0 3851:1.0 3868:1.0 4913:1.0 4913:1.0 4913:1.0 4928:1.0 4928:1.0 4928:1.0 5441:1.0 7805:1.0 13871:1.0 14416:1.0 21749:1.0 23000:1.0 27477:1.0 27492:1.0 28185:1.0 32268:1.0 34679:1.0 37063:1.0 41410:1.0 41768:1.0 44731:1.0 46413:1.0 
0.0 5.243852655425407E-5 558:1.0 2384:1.0 3851:1.0 3868:1.0 7150:1.0 7810:1.0 10795:1.0 14416:1.0 21103:1.0 23001:1.0 28245:1.0 32268:1.0 34287:1.0 37058:1.0 39508:1.0 41781:1.0 42512:1.0 46413:1.0 
6.333047418605474E-4 0.0 956:1.0 2378:1.0 6388:1.0 7817:1.0 13871:1.0 14416:1.0 18483:1.0 23001:1.0 27477:1.0 27492:1.0 30494:1.0 32268:1.0 33365:1.0 37058:1.0 40649:1.0 41778:1.0 43224:1.0 46414:1.0 
0.0012055713720714306 2.438099830533174E-5 1710:1.0 2876:1.0 5795:1.0 5795:1.0 5810:1.0 5810:1.0 8942:1.0 9487:1.0 17624:1.0 18072:1.0 24176:1.0 27340:1.0 27984:1.0 32123:1.0 34214:1.0 36849:1.0 40824:1.0 41480:1.0 
0.0014118392888549632 4.7370943245349733E-4 1524:1.0 2881:1.0 4621:1.0 4621:1.0 4638:1.0 4638:1.0 6232:1.0 9487:1.0 16923:1.0 18072:1.0 22548:1.0 22563:1.0 24176:1.0 27340:1.0 27984:1.0 32123:1.0 34579:1.0 36852:1.0 38114:1.0 41479:1.0 
1.6074677652361724E-5 0.0 2575:1.0 2876:1.0 4621:1.0 4638:1.0 5795:1.0 5795:1.0 5810:1.0 5810:1.0 5866:1.0 9487:1.0 15949:1.0 18072:1.0 24176:1.0 27340:1.0 29222:1.0 32123:1.0 34214:1.0 36849:1.0 37250:1.0 41486:1.0 
0.0027266558725857377 7.82509261091105E-4 383:1.0 2376:1.0 6163:1.0 7814:1.0 13242:1.0 14416:1.0 20200:1.0 23004:1.0 28137:1.0 32258:1.0 34755:1.0 37065:1.0 38309:1.0 41779:1.0 45216:1.0 46407:1.0 
4.726484797585941E-4 2.932320838288949E-4 1739:1.0 2384:1.0 4913:1.0 4928:1.0 7388:1.0 7811:1.0 12284:1.0 14416:1.0 18456:1.0 23001:1.0 31561:1.0 32265:1.0 35318:1.0 37062:1.0 39752:1.0 41768:1.0 43826:1.0 46413:1.0 
2.3150769074305929E-4 3.290691188337096E-5 1262:1.0 2377:1.0 3851:1.0 3851:1.0 3868:1.0 3868:1.0 4913:1.0 4913:1.0 4913:1.0 4913:1.0 4928:1.0 4928:1.0 4928:1.0 4928:1.0 7682:1.0 7813:1.0 10724:1.0 10724:1.0 10739:1.0 10739:1.0 12062:1.0 14416:1.0 18368:1.0 23001:1.0 31561:1.0 32265:1.0 33609:1.0 37058:1.0 38470:1.0 41780:1.0 45602:1.0 46412:1.0 
8.8523133207932E-4 0.0 622:1.0 2378:1.0 4913:1.0 4928:1.0 6388:1.0 7817:1.0 11161:1.0 14416:1.0 18142:1.0 18157:1.0 21569:1.0 23001:1.0 27477:1.0 27492:1.0 29385:1.0 32258:1.0 33371:1.0 37056:1.0 40063:1.0 41778:1.0 44322:1.0 46414:1.0 
7.614476689226157E-4 0.0 1255:1.0 2377:1.0 4913:1.0 4913:1.0 4928:1.0 4928:1.0 7120:1.0 7805:1.0 9550:1.0 9550:1.0 9567:1.0 9567:1.0 10724:1.0 10724:1.0 10739:1.0 10739:1.0 13871:1.0 14416:1.0 20409:1.0 23001:1.0 27477:1.0 27477:1.0 27492:1.0 27492:1.0 32069:1.0 32268:1.0 33609:1.0 37058:1.0 37915:1.0 41781:1.0 
1.9093551682031635E-4 1.452801372165507E-4 1945:1.0 2375:1.0 6672:1.0 7816:1.0 11660:1.0 14416:1.0 22673:1.0 23001:1.0 28759:1.0 32264:1.0 34755:1.0 37065:1.0 39922:1.0 41778:1.0 43409:1.0 46414:1.0 
0.004865652922624496 0.002954592162368454 3022:1.0 3676:1.0 11933:1.0 12261:1.0 16737:1.0 16737:1.0 16752:1.0 16752:1.0 18019:1.0 21524:1.0 24015:1.0 26325:1.0 29182:1.0 31038:1.0 32669:1.0 35674:1.0 
0.001316026093966321 4.6783743502310486E-4 169:1.0 2382:1.0 5253:1.0 7807:1.0 11525:1.0 14416:1.0 22349:1.0 23001:1.0 31745:1.0 32270:1.0 32807:1.0 37061:1.0 39467:1.0 41777:1.0 44350:1.0 46408:1.0 
6.847983581005989E-4 0.0 166:1.0 2373:1.0 4913:1.0 4928:1.0 5131:1.0 7814:1.0 11161:1.0 14416:1.0 22349:1.0 23001:1.0 27477:1.0 27492:1.0 31745:1.0 32270:1.0 32807:1.0 37061:1.0 39467:1.0 41777:1.0 44350:1.0 46408:1.0 
6.4554007187544695E-6 0.0 939:1.0 2373:1.0 3851:1.0 3851:1.0 3868:1.0 3868:1.0 4913:1.0 4913:1.0 4928:1.0 4928:1.0 6388:1.0 7817:1.0 13871:1.0 14416:1.0 20512:1.0 23001:1.0 27477:1.0 27492:1.0 28951:1.0 32269:1.0 35221:1.0 37052:1.0 39143:1.0 41778:1.0 43224:1.0 46414:1.0 
5.421304784112619E-4 3.037075697958094E-4 408:1.0 2378:1.0 6388:1.0 7817:1.0 11161:1.0 14416:1.0 18142:1.0 18157:1.0 20530:1.0 22996:1.0 27477:1.0 27477:1.0 27477:1.0 27477:1.0 27477:1.0 27492:1.0 27492:1.0 27492:1.0 27492:1.0 27492:1.0 29790:1.0 32271:1.0 34311:1.0 37059:1.0 40063:1.0 41778:1.0 44425:1.0 46403:1.0 
4.4973739079515364E-4 4.1438934153163216E-4 1106:1.0 2377:1.0 4913:1.0 4928:1.0 6356:1.0 7805:1.0 10724:1.0 10739:1.0 13871:1.0 14416:1.0 22896:1.0 23001:1.0 27477:1.0 27492:1.0 29534:1.0 32261:1.0 36369:1.0 37061:1.0 40167:1.0 41777:1.0 44188:1.0 46416:1.0 
0.0011854669290404087 6.686799174777249E-4 2087:1.0 2373:1.0 3851:1.0 3868:1.0 4913:1.0 4913:1.0 4928:1.0 4928:1.0 6388:1.0 7817:1.0 12570:1.0 14416:1.0 19050:1.0 22996:1.0 27477:1.0 27492:1.0 29790:1.0 32271:1.0 35716:1.0 37061:1.0 39645:1.0 41779:1.0 45582:1.0 46403:1.0 
9.424403327136494E-4 3.1781794376665843E-4 1867:1.0 2384:1.0 6312:1.0 7817:1.0 10795:1.0 14416:1.0 18494:1.0 23001:1.0 28521:1.0 32269:1.0 36190:1.0 37052:1.0 39383:1.0 41781:1.0 44188:1.0 46416:1.0 
4.942135123760569E-4 0.0 1200:1.0 2385:1.0 7388:1.0 7807:1.0 10795:1.0 14416:1.0 22205:1.0 23001:1.0 27477:1.0 27492:1.0 29808:1.0 32270:1.0 34382:1.0 37062:1.0 41098:1.0 41775:1.0 43179:1.0 46408:1.0 
0.0 1.8219377785708298E-4 949:1.0 2377:1.0 4913:1.0 4928:1.0 6046:1.0 7805:1.0 10724:1.0 10724:1.0 10739:1.0 10739:1.0 13871:1.0 14416:1.0 18142:1.0 18142:1.0 18157:1.0 18157:1.0 18438:1.0 23001:1.0 28917:1.0 32269:1.0 36114:1.0 37052:1.0 39143:1.0 41778:1.0 43224:1.0 46414:1.0 
0.0010949046130834961 0.0 1200:1.0 2385:1.0 5641:1.0 7815:1.0 13871:1.0 14416:1.0 19061:1.0 23001:1.0 29018:1.0 32268:1.0 34894:1.0 37063:1.0 40985:1.0 41768:1.0 44804:1.0 46408:1.0 
0.0014337096016176936 7.373560310995297E-4 438:1.0 2377:1.0 3851:1.0 3868:1.0 4913:1.0 4913:1.0 4913:1.0 4928:1.0 4928:1.0 4928:1.0 6791:1.0 7809:1.0 9550:1.0 9567:1.0 12620:1.0 14416:1.0 22025:1.0 22996:1.0 27477:1.0 27477:1.0 27492:1.0 27492:1.0 28716:1.0 32262:1.0 34382:1.0 37062:1.0 38722:1.0 41779:1.0 42827:1.0 46407:1.0 
2.046655143638651E-4 4.40006034545282E-4 2125:1.0 2373:1.0 4913:1.0 4928:1.0 7388:1.0 7807:1.0 12541:1.0 14416:1.0 18142:1.0 18157:1.0 20482:1.0 23001:1.0 28917:1.0 32269:1.0 35537:1.0 37052:1.0 39143:1.0 41778:1.0 43567:1.0 46414:1.0 
8.289182396779674E-4 0.0 754:1.0 2377:1.0 3851:1.0 3868:1.0 4913:1.0 4913:1.0 4913:1.0 4913:1.0 4928:1.0 4928:1.0 4928:1.0 4928:1.0 6388:1.0 7817:1.0 13871:1.0 14416:1.0 18142:1.0 18142:1.0 18157:1.0 18157:1.0 20600:1.0 23001:1.0 31761:1.0 32267:1.0 33272:1.0 37059:1.0 38536:1.0 41779:1.0 42311:1.0 46403:1.0 
7.424524070154197E-5 0.0 451:1.0 2379:1.0 5215:1.0 7805:1.0 9550:1.0 9550:1.0 9567:1.0 9567:1.0 10724:1.0 10739:1.0 10795:1.0 14416:1.0 19247:1.0 23001:1.0 28245:1.0 32268:1.0 33373:1.0 37063:1.0 40310:1.0 41772:1.0 43441:1.0 46403:1.0 
8.74273115956733E-4 9.300575505086064E-5 767:1.0 2373:1.0 4913:1.0 4913:1.0 4928:1.0 4928:1.0 5160:1.0 7805:1.0 9550:1.0 9567:1.0 10724:1.0 10739:1.0 13871:1.0 14416:1.0 21357:1.0 23001:1.0 28596:1.0 32263:1.0 34465:1.0 37063:1.0 41146:1.0 41768:1.0 45028:1.0 46407:1.0 
6.041007008498278E-4 4.501756698250407E-4 1737:1.0 2377:1.0 3851:1.0 3868:1.0 4913:1.0 4913:1.0 4913:1.0 4913:1.0 4928:1.0 4928:1.0 4928:1.0 4928:1.0 6764:1.0 7805:1.0 10724:1.0 10724:1.0 10739:1.0 10739:1.0 13871:1.0 14416:1.0 18142:1.0 18142:1.0 18157:1.0 18157:1.0 22381:1.0 23001:1.0 29921:1.0 32271:1.0 35177:1.0 37062:1.0 40288:1.0 41779:1.0 44106:1.0 46403:1.0 
0.001323363814597646 6.616464408217516E-4 95:1.0 2377:1.0 4913:1.0 4928:1.0 7388:1.0 7811:1.0 10895:1.0 14416:1.0 16917:1.0 16934:1.0 21887:1.0 23001:1.0 31176:1.0 32258:1.0 33098:1.0 37062:1.0 41706:1.0 41768:1.0 42772:1.0 46405:1.0 
7.768911876624115E-4 3.024311518289605E-4 95:1.0 2377:1.0 4913:1.0 4928:1.0 7134:1.0 7809:1.0 9550:1.0 9550:1.0 9550:1.0 9567:1.0 9567:1.0 9567:1.0 10724:1.0 10724:1.0 10739:1.0 10739:1.0 13256:1.0 14416:1.0 20187:1.0 23001:1.0 27477:1.0 27492:1.0 29065:1.0 32261:1.0 33040:1.0 37062:1.0 41098:1.0 41775:1.0 41960:1.0 46408:1.0 
0.0041698324221628716 0.0015280172486979535 451:1.0 3676:1.0 7402:1.0 7417:1.0 9439:1.0 12261:1.0 16737:1.0 16752:1.0 18729:1.0 21525:1.0 23213:1.0 26323:1.0 30822:1.0 31028:1.0 33086:1.0 35673:1.0 
0.0010388202182004102 2.80712446339157E-4 1417:1.0 2377:1.0 6816:1.0 7805:1.0 10724:1.0 10739:1.0 13871:1.0 14416:1.0 22610:1.0 23001:1.0 29921:1.0 32271:1.0 36369:1.0 37055:1.0 39780:1.0 41777:1.0 44147:1.0 46412:1.0 
2.5426229595303286E-4 1.817561677153465E-4 1545:1.0 2373:1.0 4913:1.0 4928:1.0 7583:1.0 7809:1.0 9550:1.0 9567:1.0 10724:1.0 10739:1.0 13871:1.0 14416:1.0 20198:1.0 23001:1.0 27477:1.0 27477:1.0 27492:1.0 27492:1.0 30570:1.0 32270:1.0 35318:1.0 37062:1.0 40075:1.0 41768:1.0 43826:1.0 46413:1.0 
9.534144262241149E-4 2.3408103741404148E-4 1170:1.0 2881:1.0 4621:1.0 4621:1.0 4638:1.0 4638:1.0 5866:1.0 9487:1.0 13329:1.0 18072:1.0 27201:1.0 27341:1.0 28110:1.0 32123:1.0 35134:1.0 36849:1.0 38295:1.0 41485:1.0 
2.820325188830456E-4 1.0706514730055029E-4 1841:1.0 2384:1.0 4913:1.0 4928:1.0 7276:1.0 7805:1.0 10724:1.0 10724:1.0 10739:1.0 10739:1.0 13871:1.0 14416:1.0 18142:1.0 18157:1.0 19172:1.0 23001:1.0 27477:1.0 27477:1.0 27492:1.0 27492:1.0 30494:1.0 32268:1.0 33856:1.0 37058:1.0 37915:1.0 41781:1.0 
5.084266761317045E-4 1.3480655158693816E-4 2023:1.0 2379:1.0 7150:1.0 7810:1.0 10795:1.0 14416:1.0 18565:1.0 23001:1.0 29477:1.0 32268:1.0 34287:1.0 37058:1.0 39143:1.0 41778:1.0 43409:1.0 46414:1.0 
3.83511502150085E-4 3.740099636342326E-4 653:1.0 2377:1.0 3851:1.0 3868:1.0 4913:1.0 4928:1.0 5413:1.0 7805:1.0 9550:1.0 9550:1.0 9567:1.0 9567:1.0 10724:1.0 10739:1.0 11161:1.0 14416:1.0 18142:1.0 18157:1.0 21776:1.0 23001:1.0 27477:1.0 27492:1.0 29542:1.0 32268:1.0 33765:1.0 37063:1.0 39549:1.0 41768:1.0 44188:1.0 46416:1.0 
4.967705777541556E-4 1.726821560194805E-4 851:1.0 2377:1.0 4913:1.0 4913:1.0 4928:1.0 4928:1.0 5361:1.0 7805:1.0 10724:1.0 10739:1.0 13871:1.0 14416:1.0 19066:1.0 23001:1.0 27477:1.0 27477:1.0 27492:1.0 27492:1.0 30494:1.0 32268:1.0 34224:1.0 37058:1.0 40154:1.0 41774:1.0 42611:1.0 46416:1.0 
0.002284137647400067 0.0011062594967494903 2221:1.0 2881:1.0 5866:1.0 9487:1.0 17386:1.0 18072:1.0 23316:1.0 27339:1.0 29358:1.0 32129:1.0 34343:1.0 36849:1.0 40470:1.0 41479:1.0 
2.1609340552269942E-4 0.0 1371:1.0 2378:1.0 6388:1.0 7817:1.0 11161:1.0 14416:1.0 22957:1.0 23001:1.0 27477:1.0 27492:1.0 28917:1.0 32269:1.0 36211:1.0 37052:1.0 41589:1.0 41778:1.0 43971:1.0 46403:1.0 
5.558705742177431E-4 0.0 1264:1.0 2377:1.0 3851:1.0 3868:1.0 4913:1.0 4913:1.0 4913:1.0 4913:1.0 4928:1.0 4928:1.0 4928:1.0 4928:1.0 4984:1.0 7805:1.0 10724:1.0 10739:1.0 13871:1.0 14416:1.0 18214:1.0 23001:1.0 28917:1.0 32269:1.0 34627:1.0 37065:1.0 40212:1.0 41768:1.0 44063:1.0 46416:1.0 
7.139593043780767E-4 2.2635436368908726E-4 2347:1.0 2876:1.0 4621:1.0 4638:1.0 5795:1.0 5795:1.0 5795:1.0 5810:1.0 5810:1.0 5810:1.0 5866:1.0 9487:1.0 14354:1.0 18072:1.0 24353:1.0 27329:1.0 28654:1.0 32131:1.0 34214:1.0 36849:1.0 41461:1.0 41474:1.0 
5.7316969055509575E-5 3.0809618803243603E-4 544:1.0 2377:1.0 3851:1.0 3851:1.0 3868:1.0 3868:1.0 4913:1.0 4913:1.0 4928:1.0 4928:1.0 5654:1.0 7809:1.0 9550:1.0 9550:1.0 9567:1.0 9567:1.0 10724:1.0 10724:1.0 10739:1.0 10739:1.0 14347:1.0 14416:1.0 18142:1.0 18157:1.0 19208:1.0 23001:1.0 28245:1.0 32268:1.0 34894:1.0 37063:1.0 38511:1.0 41768:1.0 44188:1.0 46416:1.0 
0.003579044381489393 0.0020959796130423786 2609:1.0 3676:1.0 6177:1.0 6194:1.0 7402:1.0 7402:1.0 7417:1.0 7417:1.0 8660:1.0 12261:1.0 16737:1.0 16752:1.0 18278:1.0 21528:1.0 24216:1.0 26312:1.0 28403:1.0 31038:1.0 35547:1.0 35675:1.0 
0.0012884567131766754 0.0 215:1.0 2373:1.0 4913:1.0 4928:1.0 6388:1.0 7817:1.0 13880:1.0 14416:1.0 22180:1.0 22996:1.0 27477:1.0 27477:1.0 27477:1.0 27477:1.0 27492:1.0 27492:1.0 27492:1.0 27492:1.0 30471:1.0 32262:1.0 34382:1.0 37062:1.0 38570:1.0 41779:1.0 42675:1.0 46403:1.0 
1.50725796863935E-4 1.1018637066383086E-4 215:1.0 2373:1.0 3851:1.0 3868:1.0 4913:1.0 4928:1.0 5890:1.0 7805:1.0 10724:1.0 10739:1.0 10795:1.0 14416:1.0 18814:1.0 23001:1.0 29542:1.0 32268:1.0 36124:1.0 37055:1.0 39143:1.0 41778:1.0 42839:1.0 46414:1.0 
0.0020597999500692916 4.3113375196261034E-4 2340:1.0 2373:1.0 3851:1.0 3851:1.0 3868:1.0 3868:1.0 6388:1.0 7817:1.0 11191:1.0 14416:1.0 18142:1.0 18157:1.0 21615:1.0 22996:1.0 27477:1.0 27477:1.0 27492:1.0 27492:1.0 27964:1.0 32262:1.0 34755:1.0 37065:1.0 38270:1.0 41774:1.0 46198:1.0 46409:1.0 
2.7791311162072397E-4 0.0 1833:1.0 2378:1.0 3851:1.0 3851:1.0 3868:1.0 3868:1.0 4913:1.0 4928:1.0 6388:1.0 7817:1.0 13871:1.0 14416:1.0 21957:1.0 23001:1.0 27477:1.0 27492:1.0 29260:1.0 32270:1.0 33866:1.0 37062:1.0 39529:1.0 41768:1.0 45744:1.0 46406:1.0 
1.1219777046719582E-4 8.406001381592226E-5 563:1.0 2373:1.0 5132:1.0 7805:1.0 10724:1.0 10724:1.0 10739:1.0 10739:1.0 13871:1.0 14416:1.0 22101:1.0 23001:1.0 28917:1.0 32269:1.0 33576:1.0 37052:1.0 39508:1.0 41781:1.0 42435:1.0 46403:1.0 
2.2017342794161126E-4 4.771897639273435E-4 2269:1.0 2373:1.0 4913:1.0 4913:1.0 4928:1.0 4928:1.0 6220:1.0 7810:1.0 9550:1.0 9567:1.0 10724:1.0 10724:1.0 10739:1.0 10739:1.0 13871:1.0 14416:1.0 18142:1.0 18142:1.0 18157:1.0 18157:1.0 21798:1.0 23001:1.0 27477:1.0 27492:1.0 29921:1.0 32271:1.0 34781:1.0 37055:1.0 40765:1.0 41777:1.0 43224:1.0 46414:1.0 
0.001742281652559935 6.679081518264562E-4 330:1.0 2377:1.0 4913:1.0 4913:1.0 4913:1.0 4913:1.0 4928:1.0 4928:1.0 4928:1.0 4928:1.0 5612:1.0 7805:1.0 9550:1.0 9550:1.0 9550:1.0 9550:1.0 9567:1.0 9567:1.0 9567:1.0 9567:1.0 12620:1.0 14416:1.0 19816:1.0 22996:1.0 27477:1.0 27477:1.0 27492:1.0 27492:1.0 31561:1.0 32261:1.0 33700:1.0 37057:1.0 38078:1.0 41770:1.0 45327:1.0 46406:1.0 
5.668665352358168E-4 0.0010685847700151452 330:1.0 2377:1.0 4913:1.0 4913:1.0 4913:1.0 4913:1.0 4928:1.0 4928:1.0 4928:1.0 4928:1.0 5612:1.0 7805:1.0 9550:1.0 9550:1.0 9550:1.0 9550:1.0 9550:1.0 9550:1.0 9567:1.0 9567:1.0 9567:1.0 9567:1.0 9567:1.0 9567:1.0 13512:1.0 14416:1.0 16917:1.0 16917:1.0 16934:1.0 16934:1.0 22243:1.0 23001:1.0 32111:1.0 32260:1.0 34387:1.0 37057:1.0 37915:1.0 41781:1.0 
6.712462384138854E-4 6.02711345585451E-5 1644:1.0 2373:1.0 4913:1.0 4913:1.0 4928:1.0 4928:1.0 7388:1.0 7807:1.0 10795:1.0 14416:1.0 21779:1.0 23001:1.0 31119:1.0 32261:1.0 33303:1.0 37054:1.0 39534:1.0 41771:1.0 45420:1.0 46412:1.0 
9.247694583480166E-4 1.6724566890615697E-4 2006:1.0 2876:1.0 5795:1.0 5795:1.0 5810:1.0 5810:1.0 8942:1.0 9487:1.0 16850:1.0 18072:1.0 22548:1.0 22563:1.0 26190:1.0 27332:1.0 28374:1.0 32125:1.0 34605:1.0 36842:1.0 40491:1.0 41483:1.0 
0.0026896873374755987 5.519472446824437E-4 1767:1.0 2377:1.0 4913:1.0 4913:1.0 4928:1.0 4928:1.0 7103:1.0 7807:1.0 9550:1.0 9567:1.0 12620:1.0 14416:1.0 18495:1.0 22996:1.0 27477:1.0 27477:1.0 27492:1.0 27492:1.0 27843:1.0 32270:1.0 35571:1.0 37056:1.0 37815:1.0 41778:1.0 44835:1.0 46408:1.0 
2.732615006296813E-4 4.0288294542001105E-5 1200:1.0 2385:1.0 7395:1.0 7811:1.0 10795:1.0 14416:1.0 20474:1.0 23001:1.0 29018:1.0 32268:1.0 33765:1.0 37063:1.0 41657:1.0 41768:1.0 43911:1.0 46411:1.0 
2.5427231666143414E-5 0.0 1185:1.0 2876:1.0 4621:1.0 4638:1.0 5795:1.0 5810:1.0 8942:1.0 9487:1.0 17507:1.0 18072:1.0 22548:1.0 22563:1.0 24176:1.0 27340:1.0 28503:1.0 32123:1.0 33610:1.0 36843:1.0 40181:1.0 41484:1.0 
4.7682809978909457E-4 0.0 1138:1.0 2385:1.0 7671:1.0 7805:1.0 9550:1.0 9550:1.0 9567:1.0 9567:1.0 10724:1.0 10739:1.0 13871:1.0 14416:1.0 19654:1.0 23001:1.0 27477:1.0 27492:1.0 29018:1.0 32268:1.0 33847:1.0 37058:1.0 37803:1.0 41777:1.0 42013:1.0 46412:1.0 
9.230749427691364E-5 1.2170235359058556E-4 2023:1.0 2379:1.0 6869:1.0 7810:1.0 10724:1.0 10739:1.0 11660:1.0 14416:1.0 19136:1.0 23001:1.0 27477:1.0 27477:1.0 27492:1.0 27492:1.0 29469:1.0 32265:1.0 34880:1.0 37063:1.0 39900:1.0 41768:1.0 44665:1.0 46408:1.0 
1.3495529332197188E-4 0.0 1078:1.0 2373:1.0 4913:1.0 4928:1.0 6304:1.0 7805:1.0 10724:1.0 10724:1.0 10739:1.0 10739:1.0 13871:1.0 14416:1.0 21922:1.0 23001:1.0 27477:1.0 27492:1.0 29018:1.0 32268:1.0 33847:1.0 37058:1.0 37209:1.0 41771:1.0 45779:1.0 46408:1.0 
2.50399732231531E-4 0.0 1809:1.0 2373:1.0 3851:1.0 3868:1.0 4913:1.0 4913:1.0 4928:1.0 4928:1.0 6243:1.0 7805:1.0 9550:1.0 9567:1.0 10724:1.0 10739:1.0 10795:1.0 14416:1.0 22323:1.0 23001:1.0 29457:1.0 32262:1.0 34755:1.0 37065:1.0 37565:1.0 41773:1.0 42611:1.0 46416:1.0 
7.883084531025343E-4 3.099865714283992E-4 512:1.0 2876:1.0 5795:1.0 5795:1.0 5810:1.0 5810:1.0 5866:1.0 9487:1.0 17892:1.0 18072:1.0 24427:1.0 27341:1.0 31440:1.0 32130:1.0 33793:1.0 36850:1.0 38727:1.0 41474:1.0 
3.3060335499074546E-4 1.2116546385194745E-4 2023:1.0 2379:1.0 5162:1.0 7816:1.0 10795:1.0 14416:1.0 22202:1.0 23001:1.0 27477:1.0 27492:1.0 27868:1.0 32269:1.0 32799:1.0 37052:1.0 38047:1.0 41775:1.0 43306:1.0 46409:1.0 
5.871591725483549E-4 0.0 642:1.0 2373:1.0 3851:1.0 3851:1.0 3868:1.0 3868:1.0 4913:1.0 4928:1.0 6388:1.0 7817:1.0 13871:1.0 14416:1.0 21889:1.0 23001:1.0 28917:1.0 32269:1.0 35009:1.0 37056:1.0 41398:1.0 41768:1.0 46070:1.0 46407:1.0 
3.438838545543604E-4 0.0 770:1.0 2876:1.0 4621:1.0 4621:1.0 4621:1.0 4638:1.0 4638:1.0 4638:1.0 5795:1.0 5810:1.0 5866:1.0 9487:1.0 13405:1.0 18072:1.0 24613:1.0 27339:1.0 28836:1.0 32134:1.0 34971:1.0 36839:1.0 36950:1.0 41482:1.0 
0.002340601716631701 9.57553455124721E-4 742:1.0 2881:1.0 5866:1.0 9487:1.0 16985:1.0 18072:1.0 23988:1.0 27340:1.0 30375:1.0 32123:1.0 33136:1.0 36839:1.0 39259:1.0 41487:1.0 
6.473066814512274E-4 1.7089321903796808E-4 1013:1.0 2382:1.0 7388:1.0 7811:1.0 10795:1.0 14416:1.0 18838:1.0 23001:1.0 30724:1.0 32269:1.0 34508:1.0 37052:1.0 37815:1.0 41778:1.0 44385:1.0 46408:1.0 
7.304188167862627E-4 1.0723960844324492E-4 259:1.0 2377:1.0 4913:1.0 4913:1.0 4928:1.0 4928:1.0 6427:1.0 7805:1.0 9550:1.0 9567:1.0 10724:1.0 10739:1.0 13871:1.0 14416:1.0 20561:1.0 23001:1.0 31974:1.0 32263:1.0 33953:1.0 37063:1.0 38949:1.0 41774:1.0 42600:1.0 46411:1.0 
1.2825452766539866E-4 0.0 289:1.0 2377:1.0 4913:1.0 4913:1.0 4928:1.0 4928:1.0 6985:1.0 7805:1.0 10724:1.0 10739:1.0 13871:1.0 14416:1.0 19813:1.0 23001:1.0 32070:1.0 32268:1.0 33473:1.0 37058:1.0 39080:1.0 41778:1.0 43409:1.0 46414:1.0 
3.806942821176217E-5 0.0 2023:1.0 2379:1.0 7245:1.0 7805:1.0 9550:1.0 9567:1.0 10724:1.0 10739:1.0 10795:1.0 14416:1.0 18413:1.0 23001:1.0 30494:1.0 32268:1.0 32860:1.0 37052:1.0 37815:1.0 41778:1.0 44518:1.0 46408:1.0 
7.155659291006778E-4 1.0219077259581421E-4 809:1.0 2377:1.0 7388:1.0 7811:1.0 10795:1.0 14416:1.0 20610:1.0 23001:1.0 29018:1.0 32268:1.0 34627:1.0 37065:1.0 39224:1.0 41779:1.0 46105:1.0 46407:1.0 
7.151296292172767E-5 0.0 1542:1.0 2377:1.0 4913:1.0 4928:1.0 6422:1.0 7805:1.0 9550:1.0 9567:1.0 10724:1.0 10739:1.0 13871:1.0 14416:1.0 18263:1.0 23001:1.0 29105:1.0 32269:1.0 36823:1.0 37052:1.0 40266:1.0 41772:1.0 44188:1.0 46416:1.0 
0.0 1.6874501844609778E-5 1412:1.0 2373:1.0 4913:1.0 4913:1.0 4928:1.0 4928:1.0 5788:1.0 7805:1.0 10724:1.0 10724:1.0 10739:1.0 10739:1.0 13871:1.0 14416:1.0 21926:1.0 23001:1.0 32070:1.0 32268:1.0 33765:1.0 37063:1.0 39036:1.0 41768:1.0 43826:1.0 46413:1.0 
9.537808098269658E-4 4.897889547561267E-4 1567:1.0 2373:1.0 4913:1.0 4928:1.0 7388:1.0 7807:1.0 12708:1.0 14416:1.0 21727:1.0 23001:1.0 31306:1.0 32263:1.0 35183:1.0 37052:1.0 39143:1.0 41778:1.0 46357:1.0 46409:1.0 
0.0011384127330587661 0.0 2023:1.0 2379:1.0 6840:1.0 7805:1.0 10724:1.0 10739:1.0 13871:1.0 14416:1.0 21727:1.0 23001:1.0 27477:1.0 27492:1.0 31306:1.0 32263:1.0 35183:1.0 37052:1.0 39143:1.0 41778:1.0 46357:1.0 46409:1.0 
2.4337458107195916E-4 0.0 2268:1.0 2373:1.0 4913:1.0 4928:1.0 5049:1.0 7805:1.0 9550:1.0 9550:1.0 9567:1.0 9567:1.0 10724:1.0 10724:1.0 10739:1.0 10739:1.0 13871:1.0 14416:1.0 20596:1.0 23001:1.0 29627:1.0 32269:1.0 35484:1.0 37056:1.0 39359:1.0 41768:1.0 43826:1.0 46413:1.0 
4.0387390975911257E-4 3.7618872846298925E-5 99:1.0 2373:1.0 3851:1.0 3851:1.0 3868:1.0 3868:1.0 4913:1.0 4913:1.0 4928:1.0 4928:1.0 6374:1.0 7809:1.0 9550:1.0 9550:1.0 9567:1.0 9567:1.0 10724:1.0 10739:1.0 13871:1.0 14416:1.0 22066:1.0 23001:1.0 27477:1.0 27492:1.0 31705:1.0 32262:1.0 33866:1.0 37062:1.0 40599:1.0 41774:1.0 42611:1.0 46416:1.0 
0.0017208713093121166 1.659736814379237E-4 1415:1.0 2377:1.0 4913:1.0 4913:1.0 4913:1.0 4928:1.0 4928:1.0 4928:1.0 4950:1.0 7816:1.0 9550:1.0 9567:1.0 13218:1.0 14416:1.0 20514:1.0 23004:1.0 28571:1.0 32258:1.0 34382:1.0 37062:1.0 38213:1.0 41768:1.0 45308:1.0 46413:1.0 
9.564392103990628E-4 0.0 796:1.0 2880:1.0 4621:1.0 4621:1.0 4638:1.0 4638:1.0 5795:1.0 5795:1.0 5810:1.0 5810:1.0 8942:1.0 9487:1.0 13213:1.0 13213:1.0 13228:1.0 13228:1.0 14591:1.0 18072:1.0 22548:1.0 22548:1.0 22563:1.0 22563:1.0 25565:1.0 27339:1.0 30402:1.0 32123:1.0 35134:1.0 36849:1.0 38295:1.0 41485:1.0 
3.811096155080873E-4 7.149346499795981E-4 477:1.0 2880:1.0 4621:1.0 4621:1.0 4638:1.0 4638:1.0 5795:1.0 5795:1.0 5795:1.0 5810:1.0 5810:1.0 5810:1.0 8942:1.0 9487:1.0 13213:1.0 13213:1.0 13228:1.0 13228:1.0 14591:1.0 18072:1.0 22548:1.0 22548:1.0 22563:1.0 22563:1.0 25565:1.0 27339:1.0 28836:1.0 32134:1.0 36408:1.0 36847:1.0 41300:1.0 41484:1.0 
0.0015757267904054884 0.0 1335:1.0 2377:1.0 3851:1.0 3868:1.0 4913:1.0 4913:1.0 4928:1.0 4928:1.0 6388:1.0 7817:1.0 13871:1.0 14416:1.0 18142:1.0 18142:1.0 18157:1.0 18157:1.0 22110:1.0 22996:1.0 27477:1.0 27477:1.0 27477:1.0 27492:1.0 27492:1.0 27492:1.0 28428:1.0 32262:1.0 33303:1.0 37054:1.0 38333:1.0 41776:1.0 43325:1.0 46413:1.0 
1.4886444879979216E-4 0.0 1578:1.0 2373:1.0 3851:1.0 3868:1.0 4913:1.0 4913:1.0 4913:1.0 4928:1.0 4928:1.0 4928:1.0 6388:1.0 7817:1.0 13871:1.0 14416:1.0 18142:1.0 18142:1.0 18157:1.0 18157:1.0 20989:1.0 23001:1.0 29301:1.0 32266:1.0 36161:1.0 37065:1.0 37517:1.0 41776:1.0 46229:1.0 46413:1.0 
0.0 2.0084202191955852E-4 2162:1.0 2373:1.0 4913:1.0 4928:1.0 6765:1.0 7805:1.0 10724:1.0 10724:1.0 10739:1.0 10739:1.0 13871:1.0 14416:1.0 21775:1.0 23001:1.0 29627:1.0 32269:1.0 32529:1.0 37052:1.0 39143:1.0 41778:1.0 42255:1.0 46403:1.0 
0.00480146342858098 0.001884121300646631 890:1.0 2885:1.0 7736:1.0 9487:1.0 17663:1.0 18075:1.0 25191:1.0 27329:1.0 29826:1.0 32136:1.0 33607:1.0 36850:1.0 40836:1.0 41478:1.0 
0.005125621188443446 0.001631360342499821 1878:1.0 3676:1.0 7810:1.0 12261:1.0 18802:1.0 21528:1.0 23725:1.0 26323:1.0 27898:1.0 31032:1.0 34885:1.0 35663:1.0 
3.5825412313493797E-4 0.0 419:1.0 2373:1.0 4913:1.0 4913:1.0 4928:1.0 4928:1.0 7388:1.0 7807:1.0 10795:1.0 14416:1.0 21209:1.0 23001:1.0 31066:1.0 32265:1.0 36599:1.0 37056:1.0 37915:1.0 41781:1.0 
1.2041940722259898E-5 0.0 943:1.0 2377:1.0 3851:1.0 3851:1.0 3868:1.0 3868:1.0 4913:1.0 4928:1.0 5441:1.0 7805:1.0 10724:1.0 10724:1.0 10739:1.0 10739:1.0 13871:1.0 14416:1.0 21209:1.0 23001:1.0 27477:1.0 27492:1.0 31066:1.0 32265:1.0 36599:1.0 37056:1.0 37915:1.0 41781:1.0 
5.47463449745037E-4 0.0 236:1.0 2373:1.0 4913:1.0 4928:1.0 6906:1.0 7805:1.0 9550:1.0 9550:1.0 9567:1.0 9567:1.0 10724:1.0 10724:1.0 10739:1.0 10739:1.0 13871:1.0 14416:1.0 20099:1.0 23001:1.0 27477:1.0 27492:1.0 30731:1.0 32270:1.0 33866:1.0 37062:1.0 38536:1.0 41779:1.0 45549:1.0 46403:1.0 
8.685867862640626E-6 0.0 1527:1.0 2377:1.0 4913:1.0 4913:1.0 4928:1.0 4928:1.0 6401:1.0 7805:1.0 10724:1.0 10724:1.0 10739:1.0 10739:1.0 13871:1.0 14416:1.0 19650:1.0 23001:1.0 28521:1.0 32269:1.0 36054:1.0 37052:1.0 39143:1.0 41778:1.0 43224:1.0 46414:1.0 
7.30166256916827E-4 0.0 386:1.0 2378:1.0 4913:1.0 4913:1.0 4928:1.0 4928:1.0 6388:1.0 7817:1.0 11016:1.0 14416:1.0 21476:1.0 22996:1.0 30259:1.0 32268:1.0 37039:1.0 37052:1.0 39383:1.0 41781:1.0 43325:1.0 46413:1.0 
6.670359077919865E-4 0.0 2309:1.0 2377:1.0 3851:1.0 3851:1.0 3868:1.0 3868:1.0 4913:1.0 4913:1.0 4928:1.0 4928:1.0 7708:1.0 7805:1.0 10724:1.0 10724:1.0 10739:1.0 10739:1.0 13871:1.0 14416:1.0 22718:1.0 23001:1.0 28917:1.0 32269:1.0 34710:1.0 37052:1.0 38637:1.0 41778:1.0 43224:1.0 46414:1.0 
0.005467578468828501 5.727435676624043E-4 1615:1.0 2373:1.0 3851:1.0 3868:1.0 4913:1.0 4928:1.0 5641:1.0 7815:1.0 13871:1.0 14416:1.0 20969:1.0 23006:1.0 32244:1.0 32258:1.0 33866:1.0 37062:1.0 38536:1.0 41779:1.0 44265:1.0 46403:1.0 
4.614366419342244E-5 0.0 1515:1.0 2378:1.0 4913:1.0 4913:1.0 4928:1.0 4928:1.0 7491:1.0 7805:1.0 10724:1.0 10739:1.0 13871:1.0 14416:1.0 21473:1.0 23001:1.0 30494:1.0 32268:1.0 34546:1.0 37058:1.0 38536:1.0 41779:1.0 42537:1.0 46403:1.0 
0.0010634874097558904 5.094713017916922E-4 2023:1.0 2375:1.0 4975:1.0 7807:1.0 10820:1.0 14416:1.0 20016:1.0 23001:1.0 28451:1.0 32260:1.0 33866:1.0 37062:1.0 39585:1.0 41768:1.0 43877:1.0 46407:1.0 
0.004766117854429202 0.004372050575339362 3565:1.0 3676:1.0 9054:1.0 12260:1.0 16737:1.0 16737:1.0 16752:1.0 16752:1.0 19181:1.0 21531:1.0 26270:1.0 26314:1.0 27796:1.0 31039:1.0 32912:1.0 35663:1.0 
2.927383304165341E-4 0.0 435:1.0 2373:1.0 4913:1.0 4913:1.0 4928:1.0 4928:1.0 5425:1.0 7805:1.0 9550:1.0 9567:1.0 10724:1.0 10724:1.0 10724:1.0 10739:1.0 10739:1.0 10739:1.0 13871:1.0 14416:1.0 21404:1.0 23001:1.0 28110:1.0 32270:1.0 34646:1.0 37065:1.0 39143:1.0 41778:1.0 43224:1.0 46414:1.0 
7.515129401353165E-4 1.7629368409005175E-4 1909:1.0 2385:1.0 5325:1.0 7807:1.0 10724:1.0 10724:1.0 10739:1.0 10739:1.0 10795:1.0 14416:1.0 20661:1.0 23001:1.0 30617:1.0 32267:1.0 34414:1.0 37057:1.0 41746:1.0 41776:1.0 44659:1.0 46403:1.0 
5.118593064897786E-4 3.076460787979035E-4 2312:1.0 2373:1.0 3851:1.0 3868:1.0 4913:1.0 4928:1.0 7253:1.0 7817:1.0 11256:1.0 14416:1.0 18142:1.0 18142:1.0 18157:1.0 18157:1.0 20661:1.0 23001:1.0 27477:1.0 27492:1.0 30617:1.0 32267:1.0 34414:1.0 37057:1.0 41746:1.0 41776:1.0 44659:1.0 46403:1.0 
0.0014912593371841035 4.5155594426815517E-4 440:1.0 2876:1.0 5795:1.0 5810:1.0 8942:1.0 9487:1.0 16433:1.0 18072:1.0 25565:1.0 27339:1.0 29024:1.0 32134:1.0 33816:1.0 36839:1.0 38897:1.0 41484:1.0 
5.922339093139251E-4 0.0 2094:1.0 2373:1.0 3851:1.0 3868:1.0 4913:1.0 4913:1.0 4928:1.0 4928:1.0 6778:1.0 7805:1.0 9550:1.0 9567:1.0 10724:1.0 10739:1.0 13871:1.0 14416:1.0 22024:1.0 23001:1.0 30063:1.0 32269:1.0 35082:1.0 37052:1.0 38637:1.0 41778:1.0 43224:1.0 46414:1.0 
0.0013351114196364666 0.0 841:1.0 2373:1.0 3851:1.0 3868:1.0 4913:1.0 4913:1.0 4928:1.0 4928:1.0 6388:1.0 7817:1.0 13871:1.0 14416:1.0 21151:1.0 23001:1.0 30494:1.0 32268:1.0 34307:1.0 37052:1.0 39143:1.0 41778:1.0 43224:1.0 46414:1.0 
3.2815562389707425E-4 0.0 841:1.0 2373:1.0 3851:1.0 3868:1.0 4913:1.0 4913:1.0 4928:1.0 4928:1.0 6707:1.0 7809:1.0 9550:1.0 9550:1.0 9567:1.0 9567:1.0 10724:1.0 10724:1.0 10739:1.0 10739:1.0 13871:1.0 14416:1.0 18350:1.0 23001:1.0 27477:1.0 27492:1.0 30494:1.0 32268:1.0 33765:1.0 37063:1.0 39803:1.0 41768:1.0 44571:1.0 46409:1.0 
0.001362424537128803 4.536056790550253E-5 701:1.0 2378:1.0 6388:1.0 7817:1.0 11161:1.0 14416:1.0 18806:1.0 23001:1.0 31561:1.0 32265:1.0 33953:1.0 37063:1.0 38552:1.0 41768:1.0 44435:1.0 46408:1.0 
6.798380924010604E-4 2.0939231183454072E-4 2198:1.0 2377:1.0 3851:1.0 3851:1.0 3868:1.0 3868:1.0 4913:1.0 4928:1.0 6388:1.0 7817:1.0 11256:1.0 14416:1.0 18142:1.0 18142:1.0 18157:1.0 18157:1.0 22446:1.0 23001:1.0 27477:1.0 27477:1.0 27492:1.0 27492:1.0 28451:1.0 32260:1.0 33802:1.0 37057:1.0 38637:1.0 41778:1.0 44879:1.0 46411:1.0 
3.464219014088449E-4 1.1741254816917759E-4 451:1.0 2379:1.0 7750:1.0 7810:1.0 10724:1.0 10739:1.0 10795:1.0 14416:1.0 18345:1.0 23001:1.0 32111:1.0 32260:1.0 36551:1.0 37064:1.0 40063:1.0 41778:1.0 43258:1.0 46414:1.0 
9.486457817466686E-4 2.3123027261157673E-4 1138:1.0 2385:1.0 7395:1.0 7811:1.0 10795:1.0 14416:1.0 21931:1.0 23001:1.0 29998:1.0 32258:1.0 32761:1.0 37056:1.0 40063:1.0 41778:1.0 43053:1.0 46403:1.0 
0.0032236206783920643 8.07546396075469E-4 1836:1.0 2377:1.0 3851:1.0 3868:1.0 4913:1.0 4913:1.0 4928:1.0 4928:1.0 5666:1.0 7805:1.0 10724:1.0 10739:1.0 13871:1.0 14416:1.0 18142:1.0 18142:1.0 18157:1.0 18157:1.0 22327:1.0 22996:1.0 27477:1.0 27477:1.0 27492:1.0 27492:1.0 30829:1.0 32258:1.0 32693:1.0 37056:1.0 38078:1.0 41770:1.0 42729:1.0 46407:1.0 
0.0 3.4640678993567846E-5 621:1.0 2376:1.0 7388:1.0 7807:1.0 10820:1.0 14416:1.0 20669:1.0 23001:1.0 27477:1.0 27492:1.0 29627:1.0 32269:1.0 34327:1.0 37052:1.0 41589:1.0 41778:1.0 44852:1.0 46412:1.0 
2.262531682137449E-5 2.4336877014545725E-5 1321:1.0 2373:1.0 5677:1.0 7808:1.0 13871:1.0 14416:1.0 20669:1.0 23001:1.0 27477:1.0 27477:1.0 27492:1.0 27492:1.0 29627:1.0 32269:1.0 34327:1.0 37052:1.0 41589:1.0 41778:1.0 44852:1.0 46412:1.0 
3.715134298260439E-4 0.0 2243:1.0 2876:1.0 4621:1.0 4638:1.0 5795:1.0 5795:1.0 5795:1.0 5795:1.0 5795:1.0 5810:1.0 5810:1.0 5810:1.0 5810:1.0 5810:1.0 8942:1.0 9487:1.0 13562:1.0 18072:1.0 22548:1.0 22563:1.0 26137:1.0 27336:1.0 28858:1.0 32123:1.0 36271:1.0 36843:1.0 37843:1.0 41476:1.0 
7.943086253536567E-5 2.6564593109972814E-4 1323:1.0 2373:1.0 4913:1.0 4913:1.0 4928:1.0 4928:1.0 7388:1.0 7807:1.0 10724:1.0 10739:1.0 10795:1.0 14416:1.0 20443:1.0 23001:1.0 29790:1.0 32271:1.0 34755:1.0 37065:1.0 38606:1.0 41773:1.0 43224:1.0 46414:1.0 
0.0 5.494155707203551E-4 1713:1.0 2377:1.0 3851:1.0 3868:1.0 4913:1.0 4913:1.0 4928:1.0 4928:1.0 6540:1.0 7805:1.0 10724:1.0 10724:1.0 10739:1.0 10739:1.0 13871:1.0 14416:1.0 18142:1.0 18157:1.0 20443:1.0 23001:1.0 27477:1.0 27492:1.0 29790:1.0 32271:1.0 34755:1.0 37065:1.0 38606:1.0 41773:1.0 43224:1.0 46414:1.0 
0.0028650613211519418 4.447736774438965E-4 1294:1.0 2375:1.0 6140:1.0 7805:1.0 10724:1.0 10724:1.0 10739:1.0 10739:1.0 13871:1.0 14416:1.0 18142:1.0 18142:1.0 18157:1.0 18157:1.0 22785:1.0 23005:1.0 27586:1.0 32258:1.0 35679:1.0 37061:1.0 40063:1.0 41778:1.0 43409:1.0 46414:1.0 
0.003989730759665805 0.0031265435538752077 2014:1.0 3676:1.0 6177:1.0 6194:1.0 7546:1.0 12256:1.0 16737:1.0 16737:1.0 16737:1.0 16752:1.0 16752:1.0 16752:1.0 18802:1.0 21528:1.0 23887:1.0 26325:1.0 27407:1.0 31039:1.0 33893:1.0 35663:1.0 
1.721579762928746E-4 0.0 1538:1.0 2373:1.0 4913:1.0 4913:1.0 4928:1.0 4928:1.0 5845:1.0 7805:1.0 10724:1.0 10724:1.0 10739:1.0 10739:1.0 13871:1.0 14416:1.0 20148:1.0 23001:1.0 27477:1.0 27492:1.0 28185:1.0 32268:1.0 34024:1.0 37057:1.0 38570:1.0 41779:1.0 43652:1.0 46403:1.0 
0.0019485517193758553 0.0010884305618256817 2271:1.0 2381:1.0 3851:1.0 3868:1.0 5131:1.0 7814:1.0 13635:1.0 14416:1.0 22533:1.0 23001:1.0 28687:1.0 32261:1.0 33140:1.0 37065:1.0 
0.0 3.022796095269386E-5 1013:1.0 2382:1.0 7388:1.0 7811:1.0 13624:1.0 14416:1.0 18700:1.0 23001:1.0 27477:1.0 27477:1.0 27492:1.0 27492:1.0 31928:1.0 32262:1.0 34627:1.0 37065:1.0 39508:1.0 41781:1.0 42928:1.0 46408:1.0 
7.749161004786266E-4 4.86015782955261E-4 1080:1.0 2381:1.0 7388:1.0 7811:1.0 10820:1.0 14416:1.0 21662:1.0 23001:1.0 29105:1.0 32269:1.0 36635:1.0 37052:1.0 39143:1.0 41778:1.0 44944:1.0 46409:1.0 
0.0 2.896907295418845E-4 945:1.0 2373:1.0 3851:1.0 3868:1.0 4913:1.0 4913:1.0 4913:1.0 4928:1.0 4928:1.0 4928:1.0 7254:1.0 7805:1.0 10724:1.0 10739:1.0 10795:1.0 14416:1.0 19909:1.0 23001:1.0 30494:1.0 32268:1.0 35068:1.0 37052:1.0 39143:1.0 41778:1.0 45971:1.0 46403:1.0 
0.0 4.105137044430899E-5 605:1.0 2373:1.0 3851:1.0 3868:1.0 4913:1.0 4913:1.0 4913:1.0 4913:1.0 4928:1.0 4928:1.0 4928:1.0 4928:1.0 7388:1.0 7807:1.0 10724:1.0 10724:1.0 10739:1.0 10739:1.0 10795:1.0 14416:1.0 19742:1.0 23001:1.0 27477:1.0 27492:1.0 28451:1.0 32260:1.0 35881:1.0 37059:1.0 40476:1.0 41768:1.0 42293:1.0 46408:1.0 
3.396244798067463E-5 0.0 509:1.0 2377:1.0 4913:1.0 4928:1.0 5659:1.0 7805:1.0 9550:1.0 9567:1.0 10724:1.0 10724:1.0 10724:1.0 10724:1.0 10739:1.0 10739:1.0 10739:1.0 10739:1.0 13871:1.0 14416:1.0 18142:1.0 18142:1.0 18157:1.0 18157:1.0 19742:1.0 23001:1.0 27477:1.0 27477:1.0 27492:1.0 27492:1.0 28451:1.0 32260:1.0 35881:1.0 37059:1.0 40476:1.0 41768:1.0 42293:1.0 46408:1.0 
7.809517024336356E-4 4.385013590933622E-5 596:1.0 2377:1.0 3851:1.0 3851:1.0 3868:1.0 3868:1.0 4913:1.0 4913:1.0 4928:1.0 4928:1.0 6167:1.0 7809:1.0 9550:1.0 9550:1.0 9567:1.0 9567:1.0 10724:1.0 10739:1.0 10820:1.0 14416:1.0 21846:1.0 23001:1.0 32069:1.0 32268:1.0 36551:1.0 37064:1.0 38105:1.0 41773:1.0 43224:1.0 46414:1.0 
2.7482211956731257E-4 0.0 1200:1.0 2385:1.0 7388:1.0 7807:1.0 10795:1.0 14416:1.0 22155:1.0 23001:1.0 32069:1.0 32268:1.0 33799:1.0 37063:1.0 38153:1.0 41772:1.0 42672:1.0 46403:1.0 
5.386665383056117E-4 1.5651501030453067E-4 1671:1.0 2876:1.0 5795:1.0 5810:1.0 5866:1.0 9487:1.0 15387:1.0 18072:1.0 23316:1.0 27339:1.0 28836:1.0 32134:1.0 34076:1.0 36839:1.0 38827:1.0 41481:1.0 
0.004565443070027597 0.001208354938811052 1200:1.0 2385:1.0 6745:1.0 7814:1.0 12570:1.0 14416:1.0 19942:1.0 22996:1.0 29539:1.0 32263:1.0 33803:1.0 37061:1.0 39508:1.0 41781:1.0 42772:1.0 46405:1.0 
6.45517055602103E-4 0.0 1138:1.0 2385:1.0 7718:1.0 7807:1.0 12988:1.0 14416:1.0 18507:1.0 23001:1.0 27477:1.0 27477:1.0 27492:1.0 27492:1.0 31561:1.0 32265:1.0 32656:1.0 37057:1.0 40063:1.0 41778:1.0 43907:1.0 46414:1.0 
7.977921810176541E-4 4.715409911676391E-4 1383:1.0 2888:1.0 9376:1.0 9487:1.0 13578:1.0 18072:1.0 22548:1.0 22548:1.0 22548:1.0 22563:1.0 22563:1.0 22563:1.0 26632:1.0 27336:1.0 27727:1.0 32128:1.0 35134:1.0 36849:1.0 38978:1.0 41485:1.0 
3.062871200001716E-4 0.0 1366:1.0 2880:1.0 4621:1.0 4621:1.0 4638:1.0 4638:1.0 5795:1.0 5795:1.0 5810:1.0 5810:1.0 5866:1.0 9487:1.0 13393:1.0 18072:1.0 23316:1.0 27339:1.0 31841:1.0 32123:1.0 33149:1.0 36841:1.0 40260:1.0 41474:1.0 
0.002129785201023884 1.9744851111487647E-4 2149:1.0 2373:1.0 3851:1.0 3851:1.0 3868:1.0 3868:1.0 4913:1.0 4928:1.0 6388:1.0 7817:1.0 11016:1.0 14416:1.0 20318:1.0 22996:1.0 29018:1.0 32268:1.0 33765:1.0 37063:1.0 40113:1.0 41768:1.0 44129:1.0 46407:1.0 
0.0014322459167581988 1.0965266097711951E-4 2455:1.0 2876:1.0 5795:1.0 5795:1.0 5810:1.0 5810:1.0 8942:1.0 9487:1.0 13614:1.0 18072:1.0 27201:1.0 27341:1.0 28836:1.0 32134:1.0 36631:1.0 36839:1.0 39514:1.0 41478:1.0 
0.0011079331536921141 9.100314081698108E-5 1366:1.0 2381:1.0 6469:1.0 7815:1.0 13871:1.0 14416:1.0 22896:1.0 23001:1.0 27477:1.0 27492:1.0 29921:1.0 32271:1.0 35318:1.0 37062:1.0 37377:1.0 41772:1.0 44188:1.0 46416:1.0 
5.692051661617507E-4 6.370321166616897E-4 938:1.0 2373:1.0 4913:1.0 4913:1.0 4928:1.0 4928:1.0 6079:1.0 7805:1.0 10724:1.0 10739:1.0 14261:1.0 14416:1.0 22448:1.0 23001:1.0 27477:1.0 27492:1.0 29921:1.0 32271:1.0 33699:1.0 37064:1.0 41573:1.0 41777:1.0 46055:1.0 46411:1.0 
7.434030023152759E-4 0.0 1200:1.0 2385:1.0 5641:1.0 7815:1.0 13871:1.0 14416:1.0 21628:1.0 23001:1.0 29018:1.0 32268:1.0 33765:1.0 37063:1.0 39042:1.0 41776:1.0 46229:1.0 46413:1.0 
3.301721048577701E-5 0.0 2001:1.0 2880:1.0 4621:1.0 4621:1.0 4621:1.0 4621:1.0 4638:1.0 4638:1.0 4638:1.0 4638:1.0 5795:1.0 5810:1.0 5866:1.0 9487:1.0 16967:1.0 18072:1.0 26803:1.0 27337:1.0 28165:1.0 32123:1.0 34579:1.0 36852:1.0 38897:1.0 41484:1.0 
0.002471557012471157 0.001386510985282506 372:1.0 2373:1.0 4913:1.0 4928:1.0 6388:1.0 7817:1.0 13871:1.0 14416:1.0 18142:1.0 18142:1.0 18157:1.0 18157:1.0 18660:1.0 23000:1.0 27477:1.0 27477:1.0 27492:1.0 27492:1.0 28287:1.0 32271:1.0 
0.003492950658512934 0.0029076170782392444 3265:1.0 3676:1.0 6177:1.0 6194:1.0 7402:1.0 7417:1.0 11879:1.0 12261:1.0 18365:1.0 21529:1.0 25714:1.0 26312:1.0 28403:1.0 31038:1.0 35004:1.0 35670:1.0 
4.051241590098694E-4 0.0 582:1.0 2376:1.0 4913:1.0 4913:1.0 4928:1.0 4928:1.0 5553:1.0 7805:1.0 9550:1.0 9567:1.0 13871:1.0 14416:1.0 21976:1.0 23001:1.0 31561:1.0 32265:1.0 32826:1.0 37058:1.0 39028:1.0 41777:1.0 45338:1.0 46408:1.0 
0.0 2.601837032789571E-4 447:1.0 2373:1.0 4913:1.0 4913:1.0 4928:1.0 4928:1.0 6105:1.0 7805:1.0 10724:1.0 10724:1.0 10739:1.0 10739:1.0 13871:1.0 14416:1.0 22132:1.0 23001:1.0 27477:1.0 27477:1.0 27492:1.0 27492:1.0 28287:1.0 32271:1.0 
0.0014818001317571333 0.0 97:1.0 2378:1.0 6388:1.0 7817:1.0 13871:1.0 14416:1.0 18925:1.0 23001:1.0 31561:1.0 32265:1.0 33843:1.0 37063:1.0 37822:1.0 41768:1.0 45045:1.0 46408:1.0 
6.369210685759535E-4 0.0 253:1.0 2373:1.0 3851:1.0 3868:1.0 4913:1.0 4928:1.0 6388:1.0 7817:1.0 13871:1.0 14416:1.0 18142:1.0 18142:1.0 18157:1.0 18157:1.0 19048:1.0 23001:1.0 27938:1.0 32269:1.0 34817:1.0 37052:1.0 39383:1.0 41781:1.0 44994:1.0 46407:1.0 
0.0016973416267405262 0.0 2347:1.0 2378:1.0 3851:1.0 3851:1.0 3851:1.0 3851:1.0 3851:1.0 3868:1.0 3868:1.0 3868:1.0 3868:1.0 3868:1.0 4913:1.0 4913:1.0 4928:1.0 4928:1.0 6388:1.0 7817:1.0 13871:1.0 14416:1.0 18142:1.0 18142:1.0 18157:1.0 18157:1.0 21913:1.0 22996:1.0 27477:1.0 27492:1.0 29018:1.0 32268:1.0 33765:1.0 37063:1.0 40143:1.0 41768:1.0 44443:1.0 46407:1.0 
8.535755096654957E-4 5.605269945966566E-5 994:1.0 2378:1.0 3851:1.0 3868:1.0 4913:1.0 4928:1.0 6388:1.0 7817:1.0 11161:1.0 14416:1.0 18142:1.0 18157:1.0 20572:1.0 23001:1.0 31401:1.0 32266:1.0 33422:1.0 37052:1.0 39143:1.0 41778:1.0 45339:1.0 46403:1.0 
4.655690206752436E-4 3.1905826563918946E-4 1138:1.0 2385:1.0 6317:1.0 7805:1.0 10724:1.0 10739:1.0 14344:1.0 14416:1.0 19459:1.0 23001:1.0 27477:1.0 27492:1.0 31561:1.0 32265:1.0 33765:1.0 37063:1.0 39982:1.0 41772:1.0 46130:1.0 46403:1.0 
0.0 9.746357091034866E-4 1344:1.0 2377:1.0 4913:1.0 4928:1.0 6156:1.0 7807:1.0 13871:1.0 14416:1.0 18977:1.0 23001:1.0 29790:1.0 32271:1.0 33140:1.0 37065:1.0 
0.0 5.08714480775432E-5 2023:1.0 2375:1.0 4913:1.0 4913:1.0 4928:1.0 4928:1.0 6501:1.0 7810:1.0 10724:1.0 10739:1.0 10820:1.0 14416:1.0 18334:1.0 23001:1.0 29105:1.0 32269:1.0 32978:1.0 37052:1.0 37815:1.0 41778:1.0 43612:1.0 46408:1.0 
5.254954236259592E-4 1.1763475618813411E-5 586:1.0 2373:1.0 3851:1.0 3851:1.0 3868:1.0 3868:1.0 4913:1.0 4913:1.0 4928:1.0 4928:1.0 7418:1.0 7805:1.0 9550:1.0 9567:1.0 10724:1.0 10739:1.0 13871:1.0 14416:1.0 18142:1.0 18142:1.0 18157:1.0 18157:1.0 18334:1.0 23001:1.0 27477:1.0 27477:1.0 27492:1.0 27492:1.0 29105:1.0 32269:1.0 32978:1.0 37052:1.0 37815:1.0 41778:1.0 43612:1.0 46408:1.0 
0.0 1.3120919912928768E-4 140:1.0 2377:1.0 4913:1.0 4928:1.0 6155:1.0 7805:1.0 9550:1.0 9567:1.0 10724:1.0 10739:1.0 13871:1.0 14416:1.0 20597:1.0 23001:1.0 28287:1.0 32271:1.0 
6.580492332268996E-5 0.0 1200:1.0 2385:1.0 5641:1.0 7815:1.0 13871:1.0 14416:1.0 20015:1.0 23001:1.0 30724:1.0 32269:1.0 32888:1.0 37052:1.0 39143:1.0 41778:1.0 43224:1.0 46414:1.0 
0.0011972305458677597 0.0 23:1.0 2378:1.0 6388:1.0 7817:1.0 13871:1.0 14416:1.0 21733:1.0 23001:1.0 27477:1.0 27492:1.0 28689:1.0 32264:1.0 33055:1.0 37058:1.0 38078:1.0 41770:1.0 44071:1.0 46408:1.0 
0.0018009612518987428 0.0012637260366720347 2884:1.0 3676:1.0 6177:1.0 6194:1.0 7402:1.0 7417:1.0 9547:1.0 12261:1.0 16737:1.0 16752:1.0 20821:1.0 21525:1.0 24939:1.0 26321:1.0 27800:1.0 31032:1.0 31853:1.0 35668:1.0 
8.055376627415764E-4 0.0 382:1.0 2377:1.0 3851:1.0 3851:1.0 3851:1.0 3868:1.0 3868:1.0 3868:1.0 6388:1.0 7817:1.0 13871:1.0 14416:1.0 18142:1.0 18142:1.0 18157:1.0 18157:1.0 19216:1.0 23001:1.0 28393:1.0 32262:1.0 36369:1.0 37059:1.0 39645:1.0 41779:1.0 44867:1.0 46403:1.0 
9.79073095348518E-4 1.531054482815071E-4 1959:1.0 2377:1.0 7388:1.0 7811:1.0 10795:1.0 14416:1.0 19222:1.0 23001:1.0 28919:1.0 32258:1.0 33040:1.0 37062:1.0 41169:1.0 41773:1.0 42570:1.0 46413:1.0 
0.002946230587936692 9.363108165085716E-4 1383:1.0 2888:1.0 7689:1.0 9487:1.0 13621:1.0 18072:1.0 24613:1.0 27339:1.0 29815:1.0 32128:1.0 33708:1.0 36849:1.0 37950:1.0 41474:1.0 
2.9025438859576634E-4 0.0 2017:1.0 2373:1.0 3851:1.0 3868:1.0 4913:1.0 4913:1.0 4928:1.0 4928:1.0 6388:1.0 7817:1.0 13871:1.0 14416:1.0 18563:1.0 23001:1.0 27477:1.0 27492:1.0 28917:1.0 32269:1.0 36357:1.0 37052:1.0 40416:1.0 41772:1.0 42772:1.0 46405:1.0 
8.126062104748952E-4 0.0 1959:1.0 2377:1.0 7388:1.0 7811:1.0 10795:1.0 14416:1.0 19222:1.0 23001:1.0 28919:1.0 32258:1.0 33040:1.0 37062:1.0 38423:1.0 41773:1.0 43224:1.0 46414:1.0 
0.0040638104032402105 0.0023350931571964823 2668:1.0 3676:1.0 6177:1.0 6194:1.0 7402:1.0 7417:1.0 8601:1.0 12261:1.0 20821:1.0 21525:1.0 22633:1.0 26323:1.0 30048:1.0 31028:1.0 33086:1.0 35673:1.0 
0.002178982745667308 0.0 486:1.0 2373:1.0 4913:1.0 4913:1.0 4928:1.0 4928:1.0 6388:1.0 7817:1.0 13871:1.0 14416:1.0 22275:1.0 22996:1.0 27477:1.0 27477:1.0 27492:1.0 27492:1.0 30856:1.0 32262:1.0 36214:1.0 37056:1.0 39508:1.0 41781:1.0 43590:1.0 46415:1.0 
3.0216708798599804E-4 0.0 1138:1.0 2385:1.0 7498:1.0 7816:1.0 10795:1.0 14416:1.0 20143:1.0 23001:1.0 27477:1.0 27492:1.0 30494:1.0 32268:1.0 34465:1.0 37055:1.0 39143:1.0 41778:1.0 42839:1.0 46414:1.0 
4.1675861402162585E-4 0.0 1138:1.0 2385:1.0 3851:1.0 3851:1.0 3851:1.0 3851:1.0 3868:1.0 3868:1.0 3868:1.0 3868:1.0 6797:1.0 7805:1.0 10724:1.0 10739:1.0 13871:1.0 14416:1.0 21473:1.0 23001:1.0 28687:1.0 32261:1.0 36634:1.0 37057:1.0 39143:1.0 41778:1.0 43409:1.0 46414:1.0 
7.815978800226186E-4 0.0 1200:1.0 2385:1.0 7388:1.0 7807:1.0 10795:1.0 14416:1.0 18343:1.0 23001:1.0 30494:1.0 32268:1.0 35209:1.0 37058:1.0 37915:1.0 41781:1.0 
4.224773120576852E-5 1.4345827017876863E-4 1773:1.0 2373:1.0 3851:1.0 3868:1.0 4913:1.0 4913:1.0 4928:1.0 4928:1.0 6874:1.0 7805:1.0 10724:1.0 10739:1.0 10795:1.0 14416:1.0 19002:1.0 23001:1.0 28245:1.0 32268:1.0 34270:1.0 37052:1.0 39884:1.0 41772:1.0 45744:1.0 46406:1.0 
3.645644990518398E-5 2.1615821804969736E-5 2353:1.0 2377:1.0 4913:1.0 4913:1.0 4928:1.0 4928:1.0 5627:1.0 7805:1.0 9550:1.0 9550:1.0 9567:1.0 9567:1.0 10724:1.0 10724:1.0 10739:1.0 10739:1.0 11161:1.0 14416:1.0 19035:1.0 23001:1.0 30494:1.0 32268:1.0 34627:1.0 37065:1.0 38722:1.0 41779:1.0 45543:1.0 46403:1.0 
7.014244368381923E-4 1.603469727283876E-5 1778:1.0 2373:1.0 6388:1.0 7817:1.0 13880:1.0 14416:1.0 22404:1.0 23001:1.0 27477:1.0 27492:1.0 31561:1.0 32265:1.0 33765:1.0 37063:1.0 40428:1.0 41768:1.0 43826:1.0 46413:1.0 
4.8443285662287216E-4 0.0 834:1.0 2876:1.0 4621:1.0 4638:1.0 5795:1.0 5795:1.0 5795:1.0 5795:1.0 5795:1.0 5795:1.0 5810:1.0 5810:1.0 5810:1.0 5810:1.0 5810:1.0 5810:1.0 8942:1.0 9487:1.0 13745:1.0 18072:1.0 27140:1.0 27339:1.0 28352:1.0 32123:1.0 33793:1.0 36850:1.0 37572:1.0 41474:1.0 
6.252783606173913E-4 0.0 1639:1.0 2377:1.0 3851:1.0 3851:1.0 3868:1.0 3868:1.0 4913:1.0 4928:1.0 5641:1.0 7815:1.0 13871:1.0 14416:1.0 19520:1.0 23001:1.0 28917:1.0 32269:1.0 34274:1.0 37052:1.0 39143:1.0 41778:1.0 44892:1.0 46403:1.0 
1.4356551223737038E-5 2.6726920096349437E-4 559:1.0 2373:1.0 3851:1.0 3851:1.0 3868:1.0 3868:1.0 4913:1.0 4928:1.0 6754:1.0 7805:1.0 10724:1.0 10739:1.0 10795:1.0 14416:1.0 20233:1.0 23001:1.0 31732:1.0 32266:1.0 33094:1.0 37052:1.0 39508:1.0 41781:1.0 43826:1.0 46413:1.0 
0.007366080752230449 4.722001793524772E-4 372:1.0 2373:1.0 4913:1.0 4928:1.0 6388:1.0 7817:1.0 13871:1.0 14416:1.0 18142:1.0 18142:1.0 18157:1.0 18157:1.0 20790:1.0 23004:1.0 30895:1.0 32267:1.0 34382:1.0 37062:1.0 40244:1.0 41768:1.0 44904:1.0 46407:1.0 
6.121513820579451E-5 0.0 664:1.0 2377:1.0 3851:1.0 3851:1.0 3868:1.0 3868:1.0 4913:1.0 4913:1.0 4928:1.0 4928:1.0 6388:1.0 7817:1.0 13871:1.0 14416:1.0 18142:1.0 18142:1.0 18157:1.0 18157:1.0 19520:1.0 23001:1.0 27477:1.0 27477:1.0 27492:1.0 27492:1.0 30494:1.0 32268:1.0 35331:1.0 37052:1.0 40063:1.0 41778:1.0 43224:1.0 46414:1.0 
5.053891285178018E-4 2.8959387009478943E-5 2583:1.0 2876:1.0 4621:1.0 4638:1.0 5795:1.0 5810:1.0 5866:1.0 9487:1.0 14250:1.0 18072:1.0 25565:1.0 27339:1.0 30387:1.0 32131:1.0 34600:1.0 36839:1.0 37843:1.0 41476:1.0 
5.453346182644789E-4 4.147198723608676E-5 1899:1.0 2880:1.0 4621:1.0 4621:1.0 4638:1.0 4638:1.0 5795:1.0 5810:1.0 5866:1.0 9487:1.0 17699:1.0 18072:1.0 25565:1.0 27339:1.0 31521:1.0 32131:1.0 34600:1.0 36839:1.0 39802:1.0 41484:1.0 
1.3722952414152662E-4 0.0 1200:1.0 2385:1.0 5641:1.0 7815:1.0 13871:1.0 14416:1.0 20015:1.0 23001:1.0 30724:1.0 32269:1.0 32388:1.0 37052:1.0 39143:1.0 41778:1.0 43193:1.0 46411:1.0 
9.422799778193553E-4 9.785666004381276E-5 1200:1.0 2385:1.0 7395:1.0 7811:1.0 10795:1.0 14416:1.0 21896:1.0 23001:1.0 29954:1.0 32266:1.0 34755:1.0 37065:1.0 38309:1.0 41779:1.0 45744:1.0 46406:1.0 
6.285372500722633E-4 0.0 1200:1.0 2385:1.0 5641:1.0 7815:1.0 13871:1.0 14416:1.0 20253:1.0 23001:1.0 28917:1.0 32269:1.0 33587:1.0 37060:1.0 41589:1.0 41778:1.0 42053:1.0 46411:1.0 
7.256890138264918E-4 7.189683870749416E-4 1490:1.0 2883:1.0 5795:1.0 5810:1.0 5866:1.0 9487:1.0 15986:1.0 18072:1.0 24089:1.0 27339:1.0 28836:1.0 32134:1.0 36116:1.0 36839:1.0 38897:1.0 41484:1.0 
0.0026336675285920023 0.001222999188770122 1627:1.0 2880:1.0 4621:1.0 4621:1.0 4638:1.0 4638:1.0 5795:1.0 5795:1.0 5810:1.0 5810:1.0 6262:1.0 9487:1.0 13213:1.0 13228:1.0 17181:1.0 18067:1.0 22548:1.0 22548:1.0 22548:1.0 22563:1.0 22563:1.0 22563:1.0 23499:1.0 27333:1.0 28374:1.0 32125:1.0 33404:1.0 36847:1.0 38396:1.0 41484:1.0 
3.247412392487385E-5 0.0 1623:1.0 2883:1.0 4621:1.0 4621:1.0 4621:1.0 4638:1.0 4638:1.0 4638:1.0 5795:1.0 5795:1.0 5810:1.0 5810:1.0 5866:1.0 9487:1.0 15037:1.0 18072:1.0 22548:1.0 22563:1.0 26123:1.0 27337:1.0 28165:1.0 32123:1.0 32690:1.0 36843:1.0 36957:1.0 41476:1.0 
0.0 1.963201353354666E-4 2288:1.0 2377:1.0 4913:1.0 4928:1.0 6288:1.0 7805:1.0 10724:1.0 10724:1.0 10739:1.0 10739:1.0 13871:1.0 14416:1.0 20587:1.0 23001:1.0 27477:1.0 27492:1.0 29426:1.0 32258:1.0 34627:1.0 37065:1.0 39508:1.0 41781:1.0 43472:1.0 46415:1.0 
2.617636253482022E-4 1.1113905429350428E-4 1350:1.0 2377:1.0 4913:1.0 4913:1.0 4928:1.0 4928:1.0 7388:1.0 7811:1.0 10820:1.0 14416:1.0 21950:1.0 23001:1.0 27477:1.0 27492:1.0 31561:1.0 32265:1.0 33552:1.0 37057:1.0 37480:1.0 41780:1.0 44188:1.0 46416:1.0 
2.615295026458631E-4 0.0 1431:1.0 2377:1.0 3851:1.0 3851:1.0 3851:1.0 3868:1.0 3868:1.0 3868:1.0 4913:1.0 4928:1.0 7498:1.0 7816:1.0 10795:1.0 14416:1.0 22176:1.0 23001:1.0 29018:1.0 32268:1.0 34559:1.0 37057:1.0 39143:1.0 41778:1.0 43907:1.0 46414:1.0 
0.0010888246122791154 2.4257952266039314E-4 1739:1.0 2379:1.0 7498:1.0 7816:1.0 10795:1.0 14416:1.0 18675:1.0 23001:1.0 29105:1.0 32269:1.0 35774:1.0 37056:1.0 38684:1.0 41768:1.0 44374:1.0 46407:1.0 
0.0 3.3935843298337577E-4 2244:1.0 2373:1.0 4913:1.0 4928:1.0 5126:1.0 7805:1.0 10724:1.0 10739:1.0 13871:1.0 14416:1.0 19328:1.0 23001:1.0 31561:1.0 32265:1.0 33537:1.0 37063:1.0 38913:1.0 41772:1.0 42512:1.0 46413:1.0 
4.7261699840914255E-4 0.0 2727:1.0 2876:1.0 4621:1.0 4621:1.0 4638:1.0 4638:1.0 5795:1.0 5810:1.0 5866:1.0 9487:1.0 14287:1.0 18072:1.0 26025:1.0 27333:1.0 31440:1.0 32130:1.0 33607:1.0 36850:1.0 39075:1.0 41474:1.0 
0.0016162245952346473 3.421228909935739E-4 32:1.0 2876:1.0 5795:1.0 5810:1.0 5866:1.0 9487:1.0 17299:1.0 18072:1.0 26923:1.0 27341:1.0 29715:1.0 32135:1.0 34214:1.0 36849:1.0 38295:1.0 41485:1.0 
0.0030490900511953483 1.7903502086737277E-4 1531:1.0 2378:1.0 3851:1.0 3851:1.0 3868:1.0 3868:1.0 4913:1.0 4913:1.0 4928:1.0 4928:1.0 6388:1.0 7817:1.0 11693:1.0 14416:1.0 22494:1.0 22996:1.0 30102:1.0 32263:1.0 35705:1.0 37062:1.0 39224:1.0 41779:1.0 41915:1.0 46403:1.0 
0.0024883987744997314 6.060345576590516E-4 696:1.0 2376:1.0 4913:1.0 4913:1.0 4928:1.0 4928:1.0 5027:1.0 7809:1.0 9550:1.0 9567:1.0 10724:1.0 10724:1.0 10724:1.0 10739:1.0 10739:1.0 10739:1.0 12570:1.0 14416:1.0 22377:1.0 22996:1.0 32238:1.0 32267:1.0 35326:1.0 37057:1.0 41589:1.0 41778:1.0 43224:1.0 46414:1.0 
8.817782546215552E-4 0.0 1583:1.0 2373:1.0 4913:1.0 4913:1.0 4928:1.0 4928:1.0 7681:1.0 7807:1.0 10795:1.0 14416:1.0 22228:1.0 23001:1.0 28917:1.0 32269:1.0 32410:1.0 37052:1.0 40287:1.0 41773:1.0 44730:1.0 46412:1.0 
0.0 2.1251665210898194E-4 586:1.0 2373:1.0 3851:1.0 3868:1.0 4913:1.0 4928:1.0 6861:1.0 7805:1.0 10724:1.0 10724:1.0 10739:1.0 10739:1.0 14261:1.0 14416:1.0 22228:1.0 23001:1.0 27477:1.0 27492:1.0 28917:1.0 32269:1.0 32410:1.0 37052:1.0 40287:1.0 41773:1.0 44730:1.0 46412:1.0 
4.1868619989348066E-4 0.0 1583:1.0 2373:1.0 4913:1.0 4913:1.0 4928:1.0 4928:1.0 6388:1.0 7817:1.0 13871:1.0 14416:1.0 19218:1.0 23001:1.0 29542:1.0 32268:1.0 37028:1.0 37060:1.0 40439:1.0 41768:1.0 42611:1.0 46416:1.0 
8.101301356281526E-4 3.9711399817245554E-4 2504:1.0 2876:1.0 5795:1.0 5795:1.0 5795:1.0 5795:1.0 5810:1.0 5810:1.0 5810:1.0 5810:1.0 9332:1.0 9487:1.0 16543:1.0 18072:1.0 23988:1.0 27340:1.0 29752:1.0 32123:1.0 34579:1.0 36852:1.0 39474:1.0 41481:1.0 
7.155635516426656E-4 6.656496094654291E-4 437:1.0 2876:1.0 5795:1.0 5795:1.0 5810:1.0 5810:1.0 5866:1.0 9487:1.0 13621:1.0 18072:1.0 24861:1.0 27342:1.0 29453:1.0 32133:1.0 35359:1.0 36850:1.0 41311:1.0 41474:1.0 
2.5099045146974053E-4 0.0 1669:1.0 2381:1.0 5641:1.0 7815:1.0 13871:1.0 14416:1.0 22429:1.0 23001:1.0 27477:1.0 27492:1.0 30724:1.0 32269:1.0 35774:1.0 37056:1.0 37168:1.0 41768:1.0 43826:1.0 46413:1.0 
0.0017602405670203477 4.4239124716883266E-5 1537:1.0 2377:1.0 4913:1.0 4913:1.0 4928:1.0 4928:1.0 7207:1.0 7805:1.0 13871:1.0 14416:1.0 20934:1.0 23001:1.0 32020:1.0 32263:1.0 35547:1.0 37063:1.0 39583:1.0 41772:1.0 43079:1.0 46403:1.0 
5.211490388934277E-5 0.0 730:1.0 2876:1.0 4621:1.0 4621:1.0 4621:1.0 4621:1.0 4638:1.0 4638:1.0 4638:1.0 4638:1.0 5795:1.0 5810:1.0 5866:1.0 9487:1.0 13329:1.0 18072:1.0 27201:1.0 27341:1.0 31939:1.0 32133:1.0 33739:1.0 36839:1.0 38897:1.0 41484:1.0 
0.0 3.316262041430786E-4 2348:1.0 2377:1.0 6852:1.0 7805:1.0 10724:1.0 10724:1.0 10739:1.0 10739:1.0 13871:1.0 14416:1.0 18142:1.0 18142:1.0 18157:1.0 18157:1.0 20551:1.0 23001:1.0 29790:1.0 32271:1.0 32569:1.0 37052:1.0 39383:1.0 41781:1.0 44188:1.0 46416:1.0 
0.0 1.912446600321288E-4 1324:1.0 2377:1.0 3851:1.0 3868:1.0 4913:1.0 4928:1.0 6917:1.0 7805:1.0 10724:1.0 10739:1.0 13871:1.0 14416:1.0 18142:1.0 18142:1.0 18157:1.0 18157:1.0 20108:1.0 23001:1.0 27477:1.0 27492:1.0 30002:1.0 32269:1.0 33716:1.0 37056:1.0 37695:1.0 41768:1.0 44188:1.0 46416:1.0 
2.804311706339043E-5 0.0 284:1.0 2373:1.0 4913:1.0 4913:1.0 4928:1.0 4928:1.0 6388:1.0 7817:1.0 13871:1.0 14416:1.0 18142:1.0 18142:1.0 18157:1.0 18157:1.0 20310:1.0 23001:1.0 27477:1.0 27492:1.0 31313:1.0 32261:1.0 34755:1.0 37065:1.0 39072:1.0 41775:1.0 44079:1.0 46415:1.0 
7.890716201760904E-4 3.9207515904043206E-4 974:1.0 2379:1.0 6323:1.0 7816:1.0 11525:1.0 14416:1.0 20288:1.0 23001:1.0 29018:1.0 32268:1.0 34894:1.0 37063:1.0 39938:1.0 41779:1.0 43034:1.0 46403:1.0 
3.250157195001645E-4 0.0 603:1.0 2373:1.0 4913:1.0 4913:1.0 4928:1.0 4928:1.0 5035:1.0 7805:1.0 10724:1.0 10724:1.0 10739:1.0 10739:1.0 13871:1.0 14416:1.0 19837:1.0 23001:1.0 28951:1.0 32269:1.0 32682:1.0 37052:1.0 37915:1.0 41781:1.0 
0.0026085840396181605 8.528411857552716E-4 2219:1.0 2377:1.0 5666:1.0 7805:1.0 10724:1.0 10724:1.0 10739:1.0 10739:1.0 13871:1.0 14416:1.0 22504:1.0 22996:1.0 27477:1.0 27477:1.0 27477:1.0 27492:1.0 27492:1.0 27492:1.0 29790:1.0 32271:1.0 33303:1.0 37054:1.0 40063:1.0 41778:1.0 44322:1.0 46414:1.0 
6.194170965536576E-4 3.6144894741135195E-4 611:1.0 2373:1.0 4913:1.0 4913:1.0 4928:1.0 4928:1.0 7519:1.0 7805:1.0 9550:1.0 9550:1.0 9567:1.0 9567:1.0 10724:1.0 10724:1.0 10724:1.0 10724:1.0 10739:1.0 10739:1.0 10739:1.0 10739:1.0 12130:1.0 14416:1.0 18142:1.0 18142:1.0 18157:1.0 18157:1.0 22584:1.0 23001:1.0 27477:1.0 27492:1.0 31461:1.0 32263:1.0 33866:1.0 37062:1.0 38570:1.0 41779:1.0 42623:1.0 46403:1.0 
9.016462947202522E-4 3.7812615068835503E-4 409:1.0 2878:1.0 4621:1.0 4638:1.0 5795:1.0 5795:1.0 5795:1.0 5810:1.0 5810:1.0 5810:1.0 8942:1.0 9487:1.0 16452:1.0 18072:1.0 23988:1.0 27340:1.0 27913:1.0 32123:1.0 32987:1.0 36843:1.0 39259:1.0 41487:1.0 
0.0 1.1390793883834362E-4 338:1.0 2375:1.0 4913:1.0 4928:1.0 4952:1.0 7812:1.0 10724:1.0 10724:1.0 10739:1.0 10739:1.0 13871:1.0 14416:1.0 18168:1.0 23001:1.0 28917:1.0 32269:1.0 35745:1.0 37052:1.0 41393:1.0 41772:1.0 42057:1.0 46407:1.0 
0.0038484454715066183 0.0015008352961568298 1878:1.0 3676:1.0 10138:1.0 12261:1.0 20821:1.0 21525:1.0 21691:1.0 26315:1.0 27754:1.0 31033:1.0 31439:1.0 35675:1.0 
2.1656167971692764E-4 3.5135514634476535E-5 1317:1.0 2377:1.0 4913:1.0 4928:1.0 7388:1.0 7811:1.0 10795:1.0 14416:1.0 19560:1.0 23001:1.0 27843:1.0 32270:1.0 34382:1.0 37062:1.0 37272:1.0 41776:1.0 44582:1.0 46403:1.0 
4.0950896821816964E-4 0.0 1200:1.0 2385:1.0 7388:1.0 7807:1.0 10795:1.0 14416:1.0 20531:1.0 23001:1.0 28917:1.0 32269:1.0 35820:1.0 37063:1.0 40426:1.0 41768:1.0 45744:1.0 46406:1.0 
5.608396318897259E-4 0.0 1154:1.0 2377:1.0 4913:1.0 4913:1.0 4913:1.0 4928:1.0 4928:1.0 4928:1.0 6972:1.0 7805:1.0 10724:1.0 10739:1.0 13871:1.0 14416:1.0 19260:1.0 23001:1.0 27477:1.0 27492:1.0 31669:1.0 32266:1.0 34951:1.0 37052:1.0 37915:1.0 41781:1.0 
3.9147288424319616E-4 1.611598043027039E-4 1079:1.0 2382:1.0 7487:1.0 7813:1.0 10724:1.0 10739:1.0 12770:1.0 14416:1.0 19489:1.0 23001:1.0 27477:1.0 27477:1.0 27477:1.0 27477:1.0 27492:1.0 27492:1.0 27492:1.0 27492:1.0 29105:1.0 32269:1.0 33643:1.0 37052:1.0 38536:1.0 41779:1.0 44528:1.0 46411:1.0 
0.0038825466256499452 0.0012483059092572282 1878:1.0 3676:1.0 10138:1.0 12261:1.0 20821:1.0 21525:1.0 24154:1.0 26323:1.0 29702:1.0 31036:1.0 32451:1.0 35663:1.0 
0.0 2.634892499824487E-4 1694:1.0 2377:1.0 4913:1.0 4913:1.0 4913:1.0 4928:1.0 4928:1.0 4928:1.0 6153:1.0 7805:1.0 9550:1.0 9567:1.0 10724:1.0 10724:1.0 10739:1.0 10739:1.0 13871:1.0 14416:1.0 21685:1.0 23001:1.0 27477:1.0 27492:1.0 28287:1.0 32271:1.0 
0.0023147872965940987 3.937582087139565E-4 1690:1.0 2373:1.0 4913:1.0 4913:1.0 4913:1.0 4928:1.0 4928:1.0 4928:1.0 6388:1.0 7817:1.0 11016:1.0 14416:1.0 22588:1.0 22996:1.0 29651:1.0 32267:1.0 32831:1.0 37057:1.0 40063:1.0 41778:1.0 42005:1.0 46403:1.0 
0.0018532651205051137 2.582596405193411E-4 1687:1.0 2377:1.0 3851:1.0 3868:1.0 4913:1.0 4928:1.0 5835:1.0 7814:1.0 13242:1.0 14416:1.0 18298:1.0 23004:1.0 28077:1.0 32258:1.0 34331:1.0 37056:1.0 41098:1.0 41771:1.0 44767:1.0 46408:1.0 
0.001357083419820348 4.5047148785309465E-4 1687:1.0 2377:1.0 4913:1.0 4913:1.0 4913:1.0 4928:1.0 4928:1.0 4928:1.0 5835:1.0 7814:1.0 11811:1.0 14416:1.0 18825:1.0 23004:1.0 29943:1.0 32258:1.0 34755:1.0 37065:1.0 38722:1.0 41779:1.0 45519:1.0 46407:1.0 
9.679687941892717E-4 0.0 1211:1.0 2373:1.0 4913:1.0 4913:1.0 4928:1.0 4928:1.0 6153:1.0 7805:1.0 9550:1.0 9567:1.0 10724:1.0 10724:1.0 10724:1.0 10739:1.0 10739:1.0 10739:1.0 13871:1.0 14416:1.0 22553:1.0 23001:1.0 27912:1.0 32263:1.0 33866:1.0 37062:1.0 38293:1.0 41774:1.0 43168:1.0 46409:1.0 
0.002201623469426627 9.060684308390817E-4 2080:1.0 2377:1.0 4913:1.0 4913:1.0 4928:1.0 4928:1.0 7388:1.0 7811:1.0 12770:1.0 14416:1.0 21598:1.0 22996:1.0 27477:1.0 27477:1.0 27492:1.0 27492:1.0 29487:1.0 32262:1.0 34755:1.0 37065:1.0 41589:1.0 41778:1.0 43000:1.0 46414:1.0 
4.6071116727428566E-4 0.0 2080:1.0 2377:1.0 3851:1.0 3868:1.0 4913:1.0 4913:1.0 4928:1.0 4928:1.0 6388:1.0 7817:1.0 13871:1.0 14416:1.0 18142:1.0 18142:1.0 18157:1.0 18157:1.0 20391:1.0 23001:1.0 27477:1.0 27492:1.0 28547:1.0 32258:1.0 33040:1.0 37062:1.0 39332:1.0 41773:1.0 43409:1.0 46414:1.0 
3.2427422865237594E-4 0.0 848:1.0 2377:1.0 4913:1.0 4913:1.0 4913:1.0 4928:1.0 4928:1.0 4928:1.0 5526:1.0 7805:1.0 9550:1.0 9550:1.0 9567:1.0 9567:1.0 10724:1.0 10739:1.0 13871:1.0 14416:1.0 21957:1.0 23001:1.0 27477:1.0 27492:1.0 30724:1.0 32269:1.0 35602:1.0 37052:1.0 39143:1.0 41778:1.0 42060:1.0 46403:1.0 
7.502734355689345E-4 4.00044812950093E-5 1627:1.0 2373:1.0 3851:1.0 3868:1.0 4913:1.0 4928:1.0 7388:1.0 7807:1.0 13256:1.0 14416:1.0 18555:1.0 23001:1.0 29051:1.0 32263:1.0 35318:1.0 37062:1.0 38147:1.0 41779:1.0 43529:1.0 46403:1.0 
9.595083338218795E-4 0.0 1845:1.0 2377:1.0 4913:1.0 4913:1.0 4928:1.0 4928:1.0 6917:1.0 7805:1.0 9550:1.0 9567:1.0 10724:1.0 10739:1.0 13871:1.0 14416:1.0 18555:1.0 23001:1.0 27477:1.0 27492:1.0 29051:1.0 32263:1.0 35318:1.0 37062:1.0 38147:1.0 41779:1.0 43529:1.0 46403:1.0 
1.5850239722477532E-4 2.612142716894321E-4 1200:1.0 2385:1.0 7388:1.0 7807:1.0 13451:1.0 14416:1.0 21889:1.0 23001:1.0 28287:1.0 32271:1.0 
0.001856201197899442 0.0 944:1.0 2378:1.0 3851:1.0 3868:1.0 4913:1.0 4928:1.0 6388:1.0 7817:1.0 11161:1.0 14416:1.0 22771:1.0 22996:1.0 27477:1.0 27477:1.0 27492:1.0 27492:1.0 30193:1.0 32262:1.0 34382:1.0 37062:1.0 38536:1.0 41779:1.0 42819:1.0 46403:1.0 
0.001970798007605558 6.094016949520742E-4 355:1.0 2373:1.0 3851:1.0 3868:1.0 4913:1.0 4913:1.0 4913:1.0 4928:1.0 4928:1.0 4928:1.0 6122:1.0 7814:1.0 11811:1.0 14416:1.0 18929:1.0 23004:1.0 28221:1.0 32266:1.0 34776:1.0 37052:1.0 41098:1.0 41771:1.0 45419:1.0 46408:1.0 
6.200141374549582E-4 0.0 355:1.0 2373:1.0 3851:1.0 3868:1.0 4913:1.0 4913:1.0 4913:1.0 4928:1.0 4928:1.0 4928:1.0 6401:1.0 7805:1.0 10724:1.0 10724:1.0 10739:1.0 10739:1.0 13871:1.0 14416:1.0 21936:1.0 23001:1.0 29197:1.0 32262:1.0 36560:1.0 37052:1.0 37915:1.0 41781:1.0 
0.0 7.619488317997614E-4 208:1.0 2377:1.0 4913:1.0 4928:1.0 5941:1.0 7809:1.0 9550:1.0 9550:1.0 9567:1.0 9567:1.0 10724:1.0 10724:1.0 10739:1.0 10739:1.0 14005:1.0 14416:1.0 18142:1.0 18157:1.0 22650:1.0 23001:1.0 29790:1.0 32271:1.0 35547:1.0 37063:1.0 39295:1.0 41768:1.0 44063:1.0 46416:1.0 
0.0020587505911131626 4.090245496363312E-4 1669:1.0 2381:1.0 5641:1.0 7815:1.0 13871:1.0 14416:1.0 22259:1.0 23001:1.0 28287:1.0 32271:1.0 
0.0012736694750001385 0.0 2008:1.0 2377:1.0 4913:1.0 4913:1.0 4913:1.0 4913:1.0 4928:1.0 4928:1.0 4928:1.0 4928:1.0 7753:1.0 7805:1.0 9550:1.0 9567:1.0 10724:1.0 10739:1.0 13871:1.0 14416:1.0 22222:1.0 23001:1.0 27477:1.0 27477:1.0 27492:1.0 27492:1.0 30494:1.0 32268:1.0 33799:1.0 37063:1.0 41590:1.0 41768:1.0 44731:1.0 46413:1.0 
5.207604150675129E-4 0.0 1200:1.0 2385:1.0 7388:1.0 7807:1.0 10795:1.0 14416:1.0 22337:1.0 23001:1.0 29542:1.0 32268:1.0 33765:1.0 37063:1.0 39900:1.0 41768:1.0 45427:1.0 46415:1.0 
0.0 1.356816409261187E-4 161:1.0 2377:1.0 4913:1.0 4928:1.0 5379:1.0 7805:1.0 10724:1.0 10724:1.0 10739:1.0 10739:1.0 13871:1.0 14416:1.0 22315:1.0 23001:1.0 30494:1.0 32268:1.0 33953:1.0 37063:1.0 38171:1.0 41774:1.0 43826:1.0 46413:1.0 
0.005037163359824115 0.0011294785627384543 719:1.0 2378:1.0 6388:1.0 7817:1.0 11693:1.0 14416:1.0 19266:1.0 22996:1.0 27501:1.0 32263:1.0 32917:1.0 37052:1.0 40063:1.0 41778:1.0 46230:1.0 46403:1.0 
0.002364349047356915 7.578102449396229E-4 1383:1.0 2888:1.0 8870:1.0 9487:1.0 13213:1.0 13228:1.0 17967:1.0 18072:1.0 24688:1.0 27329:1.0 28343:1.0 32130:1.0 35049:1.0 36844:1.0 40815:1.0 41481:1.0 
0.004392184357103117 0.0021898096191874496 3059:1.0 3676:1.0 7402:1.0 7417:1.0 12156:1.0 12261:1.0 18877:1.0 21518:1.0 23642:1.0 26322:1.0 28138:1.0 31033:1.0 33991:1.0 35673:1.0 
7.413542491493803E-4 5.009945629073525E-4 1998:1.0 2876:1.0 5795:1.0 5810:1.0 5891:1.0 9487:1.0 14926:1.0 18072:1.0 22548:1.0 22563:1.0 26569:1.0 27342:1.0 30120:1.0 32123:1.0 33440:1.0 36845:1.0 37806:1.0 41483:1.0 
2.802741142345974E-4 0.0 2160:1.0 2373:1.0 4913:1.0 4913:1.0 4928:1.0 4928:1.0 7433:1.0 7805:1.0 9550:1.0 9567:1.0 10724:1.0 10724:1.0 10739:1.0 10739:1.0 13871:1.0 14416:1.0 22911:1.0 23001:1.0 27477:1.0 27492:1.0 28521:1.0 32269:1.0 36560:1.0 37052:1.0 37949:1.0 41772:1.0 43224:1.0 46414:1.0 
0.0010382786236718307 1.8070034753251977E-4 2023:1.0 2379:1.0 7498:1.0 7816:1.0 10820:1.0 14416:1.0 21058:1.0 23001:1.0 27477:1.0 27477:1.0 27492:1.0 27492:1.0 30636:1.0 32263:1.0 33765:1.0 37063:1.0 37523:1.0 41768:1.0 42611:1.0 46416:1.0 
2.075687852304773E-4 0.0 356:1.0 2377:1.0 3851:1.0 3868:1.0 4913:1.0 4913:1.0 4913:1.0 4913:1.0 4928:1.0 4928:1.0 4928:1.0 4928:1.0 5485:1.0 7805:1.0 9550:1.0 9567:1.0 10724:1.0 10724:1.0 10739:1.0 10739:1.0 13871:1.0 14416:1.0 18608:1.0 23001:1.0 27477:1.0 27492:1.0 28917:1.0 32269:1.0 36426:1.0 37052:1.0 41393:1.0 41772:1.0 43826:1.0 46413:1.0 
0.001112551162965789 0.0 51:1.0 2378:1.0 3851:1.0 3868:1.0 6388:1.0 7817:1.0 13871:1.0 14416:1.0 21326:1.0 23001:1.0 30747:1.0 32262:1.0 33240:1.0 37052:1.0 39358:1.0 41772:1.0 46229:1.0 46413:1.0 
8.454483921011109E-4 5.56151815890518E-4 1138:1.0 2385:1.0 5568:1.0 7809:1.0 9550:1.0 9567:1.0 10724:1.0 10739:1.0 12988:1.0 14416:1.0 18301:1.0 23001:1.0 28451:1.0 32260:1.0 33272:1.0 37059:1.0 41275:1.0 41780:1.0 42881:1.0 46408:1.0 
8.070833213249088E-4 3.7622297617854225E-4 1641:1.0 2883:1.0 4621:1.0 4621:1.0 4638:1.0 4638:1.0 5795:1.0 5810:1.0 7063:1.0 9487:1.0 16242:1.0 18072:1.0 26632:1.0 27336:1.0 30996:1.0 32132:1.0 33607:1.0 36850:1.0 37232:1.0 41474:1.0 
7.270668288120805E-5 2.2260582399089243E-4 1809:1.0 2876:1.0 5795:1.0 5795:1.0 5810:1.0 5810:1.0 8942:1.0 9487:1.0 16311:1.0 18072:1.0 22548:1.0 22563:1.0 25565:1.0 27339:1.0 28444:1.0 32134:1.0 35299:1.0 36843:1.0 39787:1.0 41474:1.0 
0.001368414761524682 4.3950439212741187E-5 2023:1.0 2379:1.0 6312:1.0 7817:1.0 10795:1.0 14416:1.0 19363:1.0 23001:1.0 29542:1.0 32268:1.0 35547:1.0 37063:1.0 38744:1.0 41768:1.0 43826:1.0 46413:1.0 
8.717254211506885E-4 0.0 2023:1.0 2379:1.0 6972:1.0 7805:1.0 10724:1.0 10739:1.0 13871:1.0 14416:1.0 21372:1.0 23001:1.0 27477:1.0 27477:1.0 27492:1.0 27492:1.0 30494:1.0 32268:1.0 35833:1.0 37055:1.0 37209:1.0 41771:1.0 43592:1.0 46408:1.0 
9.263620402942401E-4 0.0 2023:1.0 2379:1.0 6972:1.0 7805:1.0 9550:1.0 9567:1.0 10724:1.0 10739:1.0 10795:1.0 14416:1.0 19990:1.0 23001:1.0 29790:1.0 32271:1.0 33866:1.0 37062:1.0 41530:1.0 41773:1.0 43325:1.0 46413:1.0 
8.166620575119586E-4 1.3979227619688913E-5 1200:1.0 2385:1.0 7388:1.0 7807:1.0 12078:1.0 14416:1.0 18176:1.0 23001:1.0 29790:1.0 32271:1.0 34755:1.0 37065:1.0 38078:1.0 41770:1.0 44623:1.0 46415:1.0 
2.018813045504761E-4 0.0 2023:1.0 2379:1.0 5659:1.0 7805:1.0 9550:1.0 9550:1.0 9567:1.0 9567:1.0 10724:1.0 10724:1.0 10739:1.0 10739:1.0 10820:1.0 14416:1.0 19378:1.0 23001:1.0 27672:1.0 32267:1.0 33571:1.0 37052:1.0 39143:1.0 41778:1.0 43409:1.0 46414:1.0 
7.893911074831172E-5 5.6974471701573946E-5 1929:1.0 2373:1.0 4913:1.0 4913:1.0 4928:1.0 4928:1.0 5849:1.0 7805:1.0 10724:1.0 10739:1.0 13871:1.0 14416:1.0 18819:1.0 23001:1.0 27477:1.0 27492:1.0 29790:1.0 32271:1.0 33160:1.0 37058:1.0 40971:1.0 41777:1.0 46394:1.0 46408:1.0 
0.004371161505765247 4.0432688025725537E-4 1941:1.0 2376:1.0 3851:1.0 3868:1.0 4913:1.0 4928:1.0 4948:1.0 7805:1.0 10724:1.0 10724:1.0 10739:1.0 10739:1.0 13871:1.0 14416:1.0 21208:1.0 23005:1.0 27477:1.0 27492:1.0 29542:1.0 32268:1.0 33953:1.0 37063:1.0 39280:1.0 41768:1.0 45308:1.0 46413:1.0 
4.466908720221733E-4 0.0 105:1.0 2377:1.0 5840:1.0 7805:1.0 9550:1.0 9567:1.0 10724:1.0 10739:1.0 13871:1.0 14416:1.0 18543:1.0 23001:1.0 28917:1.0 32269:1.0 33039:1.0 37052:1.0 38722:1.0 41779:1.0 46395:1.0 46403:1.0 
7.032630785011267E-4 0.0 179:1.0 2377:1.0 3851:1.0 3868:1.0 4913:1.0 4928:1.0 7798:1.0 7805:1.0 10724:1.0 10739:1.0 13871:1.0 14416:1.0 20307:1.0 23001:1.0 29542:1.0 32268:1.0 35768:1.0 37056:1.0 40624:1.0 41772:1.0 44574:1.0 46403:1.0 
0.0017518153179993821 0.0 1251:1.0 2373:1.0 4913:1.0 4913:1.0 4928:1.0 4928:1.0 6388:1.0 7817:1.0 13871:1.0 14416:1.0 22481:1.0 22996:1.0 27477:1.0 27477:1.0 27477:1.0 27492:1.0 27492:1.0 27492:1.0 30475:1.0 32262:1.0 35913:1.0 37062:1.0 38900:1.0 41768:1.0 43826:1.0 46413:1.0 
0.001005734464260839 1.273601722171321E-4 2098:1.0 2880:1.0 4621:1.0 4621:1.0 4621:1.0 4638:1.0 4638:1.0 4638:1.0 5795:1.0 5810:1.0 5866:1.0 9487:1.0 15949:1.0 18072:1.0 26632:1.0 27336:1.0 28768:1.0 32128:1.0 33793:1.0 36850:1.0 38882:1.0 41474:1.0 
0.0 1.1390793883834454E-4 338:1.0 2375:1.0 4913:1.0 4928:1.0 4952:1.0 7812:1.0 10724:1.0 10724:1.0 10739:1.0 10739:1.0 13871:1.0 14416:1.0 18168:1.0 23001:1.0 28917:1.0 32269:1.0 35745:1.0 37052:1.0 41393:1.0 41772:1.0 42612:1.0 46407:1.0 
2.8639605642388604E-5 4.968650762268014E-5 1710:1.0 2876:1.0 5795:1.0 5810:1.0 5866:1.0 9487:1.0 14044:1.0 18072:1.0 24089:1.0 27339:1.0 28444:1.0 32134:1.0 36355:1.0 36839:1.0 39259:1.0 41487:1.0 
0.003275221887100796 3.525251382719682E-4 2118:1.0 2373:1.0 4913:1.0 4913:1.0 4928:1.0 4928:1.0 6388:1.0 7817:1.0 11016:1.0 14416:1.0 19117:1.0 22996:1.0 28021:1.0 32263:1.0 33098:1.0 37062:1.0 39645:1.0 41779:1.0 45848:1.0 46411:1.0 
7.171469423474785E-5 0.0 261:1.0 2377:1.0 4913:1.0 4913:1.0 4928:1.0 4928:1.0 6502:1.0 7805:1.0 9550:1.0 9567:1.0 10724:1.0 10724:1.0 10739:1.0 10739:1.0 13871:1.0 14416:1.0 19260:1.0 23001:1.0 28917:1.0 32269:1.0 35009:1.0 37056:1.0 38543:1.0 41772:1.0 45122:1.0 46403:1.0 
0.0012920863088136346 0.0 2177:1.0 2378:1.0 4913:1.0 4928:1.0 6388:1.0 7817:1.0 11161:1.0 14416:1.0 22335:1.0 23001:1.0 29627:1.0 32269:1.0 33256:1.0 37052:1.0 40511:1.0 41772:1.0 43826:1.0 46413:1.0 
8.320644919908424E-4 3.249518070146242E-4 1517:1.0 2378:1.0 6672:1.0 7816:1.0 10795:1.0 14416:1.0 21103:1.0 23001:1.0 28245:1.0 32268:1.0 34894:1.0 37063:1.0 39348:1.0 41768:1.0 43826:1.0 46413:1.0 
8.089597020347971E-4 8.090736870488194E-5 1210:1.0 2373:1.0 4913:1.0 4928:1.0 7413:1.0 7805:1.0 9550:1.0 9567:1.0 10724:1.0 10724:1.0 10739:1.0 10739:1.0 13871:1.0 14416:1.0 18259:1.0 23001:1.0 28596:1.0 32263:1.0 33765:1.0 37063:1.0 39120:1.0 41768:1.0 43539:1.0 46403:1.0 
1.4602570331267008E-4 0.0 1584:1.0 2373:1.0 3851:1.0 3851:1.0 3868:1.0 3868:1.0 4913:1.0 4928:1.0 7388:1.0 7811:1.0 10795:1.0 14416:1.0 22213:1.0 23001:1.0 29105:1.0 32269:1.0 33825:1.0 37052:1.0 41004:1.0 41772:1.0 45744:1.0 46406:1.0 
0.0032187198564549418 9.076955256289819E-4 2076:1.0 2887:1.0 5866:1.0 9487:1.0 13539:1.0 18072:1.0 22548:1.0 22563:1.0 26224:1.0 27334:1.0 28937:1.0 32133:1.0 32627:1.0 36845:1.0 40347:1.0 41481:1.0 
1.720764258168207E-4 0.0 1200:1.0 2385:1.0 7388:1.0 7807:1.0 10724:1.0 10724:1.0 10739:1.0 10739:1.0 10795:1.0 14416:1.0 20621:1.0 23001:1.0 32172:1.0 32270:1.0 33866:1.0 37062:1.0 38147:1.0 41779:1.0 42589:1.0 46403:1.0 
4.5865793855062384E-5 0.0 145:1.0 2377:1.0 3851:1.0 3868:1.0 4913:1.0 4913:1.0 4913:1.0 4928:1.0 4928:1.0 4928:1.0 6388:1.0 7817:1.0 13871:1.0 14416:1.0 18142:1.0 18142:1.0 18157:1.0 18157:1.0 20621:1.0 23001:1.0 27477:1.0 27492:1.0 32172:1.0 32270:1.0 33866:1.0 37062:1.0 38147:1.0 41779:1.0 42589:1.0 46403:1.0 
7.153336605908341E-4 5.7642805292736345E-5 113:1.0 2377:1.0 4913:1.0 4913:1.0 4913:1.0 4913:1.0 4928:1.0 4928:1.0 4928:1.0 4928:1.0 7012:1.0 7805:1.0 9550:1.0 9567:1.0 10724:1.0 10739:1.0 13871:1.0 14416:1.0 18142:1.0 18142:1.0 18157:1.0 18157:1.0 21942:1.0 23001:1.0 29920:1.0 32258:1.0 36606:1.0 37056:1.0 39383:1.0 41781:1.0 42611:1.0 46416:1.0 
4.3140446812459094E-4 0.0 791:1.0 2377:1.0 3851:1.0 3868:1.0 4913:1.0 4913:1.0 4928:1.0 4928:1.0 6494:1.0 7805:1.0 10724:1.0 10724:1.0 10724:1.0 10739:1.0 10739:1.0 10739:1.0 13871:1.0 14416:1.0 18903:1.0 23001:1.0 32130:1.0 32270:1.0 34279:1.0 37052:1.0 38536:1.0 41779:1.0 42167:1.0 46403:1.0 
2.705888387691458E-4 1.2086517440205683E-4 1165:1.0 2876:1.0 4621:1.0 4621:1.0 4638:1.0 4638:1.0 5795:1.0 5810:1.0 5866:1.0 9487:1.0 13602:1.0 18072:1.0 26297:1.0 27341:1.0 29453:1.0 32133:1.0 36169:1.0 36846:1.0 38295:1.0 41485:1.0 
3.0178657249387085E-4 0.0 2024:1.0 2876:1.0 4621:1.0 4638:1.0 5795:1.0 5795:1.0 5810:1.0 5810:1.0 5866:1.0 9487:1.0 15633:1.0 18072:1.0 26297:1.0 27341:1.0 29453:1.0 32133:1.0 36169:1.0 36846:1.0 38480:1.0 41485:1.0 
1.6167804107434833E-4 0.0 2023:1.0 2375:1.0 4913:1.0 4913:1.0 4928:1.0 4928:1.0 7498:1.0 7818:1.0 9550:1.0 9567:1.0 10795:1.0 14416:1.0 22018:1.0 23001:1.0 28630:1.0 32263:1.0 33765:1.0 37063:1.0 38404:1.0 41768:1.0 46229:1.0 46413:1.0 
9.229823003976577E-4 0.0010456052782888204 3265:1.0 3676:1.0 6177:1.0 6194:1.0 7402:1.0 7417:1.0 12058:1.0 12261:1.0 16737:1.0 16752:1.0 20821:1.0 21525:1.0 23684:1.0 26318:1.0 28643:1.0 31041:1.0 33189:1.0 35672:1.0 
4.98727177656316E-5 0.0 405:1.0 2382:1.0 3851:1.0 3851:1.0 3868:1.0 3868:1.0 5771:1.0 7815:1.0 13871:1.0 14416:1.0 19746:1.0 23001:1.0 28917:1.0 32269:1.0 34143:1.0 37052:1.0 39143:1.0 41778:1.0 43409:1.0 46414:1.0 
7.712014950382996E-4 3.371341494387185E-4 997:1.0 2373:1.0 3851:1.0 3851:1.0 3851:1.0 3851:1.0 3868:1.0 3868:1.0 3868:1.0 3868:1.0 4913:1.0 4913:1.0 4913:1.0 4913:1.0 4913:1.0 4928:1.0 4928:1.0 4928:1.0 4928:1.0 4928:1.0 6552:1.0 7812:1.0 9550:1.0 9550:1.0 9550:1.0 9567:1.0 9567:1.0 9567:1.0 10724:1.0 10724:1.0 10739:1.0 10739:1.0 11693:1.0 14416:1.0 20251:1.0 22996:1.0 31252:1.0 32263:1.0 35908:1.0 37056:1.0 38114:1.0 41768:1.0 43325:1.0 46413:1.0 
0.0024069693292257366 5.516052455795615E-4 2197:1.0 2378:1.0 3851:1.0 3868:1.0 4913:1.0 4913:1.0 4928:1.0 4928:1.0 5995:1.0 7809:1.0 9550:1.0 9550:1.0 9567:1.0 9567:1.0 10724:1.0 10724:1.0 10739:1.0 10739:1.0 12570:1.0 14416:1.0 21619:1.0 23002:1.0 31377:1.0 32264:1.0 35555:1.0 37057:1.0 41647:1.0 41780:1.0 43258:1.0 46414:1.0 
9.508804856852033E-4 0.0 1131:1.0 2377:1.0 4913:1.0 4913:1.0 4913:1.0 4928:1.0 4928:1.0 4928:1.0 7254:1.0 7805:1.0 10724:1.0 10739:1.0 13871:1.0 14416:1.0 22900:1.0 23001:1.0 32172:1.0 32270:1.0 35255:1.0 37058:1.0 40617:1.0 41775:1.0 44322:1.0 46414:1.0 
0.004848503414620943 0.002490642739225968 2330:1.0 2377:1.0 4913:1.0 4928:1.0 6703:1.0 7810:1.0 9550:1.0 9567:1.0 10724:1.0 10739:1.0 12941:1.0 14416:1.0 18142:1.0 18157:1.0 19569:1.0 22996:1.0 27691:1.0 32262:1.0 33140:1.0 37065:1.0 
9.225334102859214E-4 0.0 1868:1.0 2378:1.0 4913:1.0 4928:1.0 6326:1.0 7817:1.0 13871:1.0 14416:1.0 20817:1.0 23001:1.0 27477:1.0 27492:1.0 28113:1.0 32266:1.0 34951:1.0 37052:1.0 39401:1.0 41781:1.0 41913:1.0 46406:1.0 
6.393727100003268E-4 1.736936948325903E-5 1200:1.0 2385:1.0 7046:1.0 7806:1.0 9550:1.0 9567:1.0 13451:1.0 14416:1.0 21590:1.0 23001:1.0 27477:1.0 27492:1.0 27845:1.0 32268:1.0 36068:1.0 37055:1.0 39143:1.0 41778:1.0 44322:1.0 46414:1.0 
0.0017585774826190262 5.487882562675898E-4 1200:1.0 2385:1.0 5092:1.0 7816:1.0 9550:1.0 9567:1.0 13451:1.0 14416:1.0 19615:1.0 23001:1.0 28451:1.0 32260:1.0 32431:1.0 37055:1.0 41059:1.0 41773:1.0 44731:1.0 46413:1.0 
0.002258025370939261 8.624442907730996E-4 396:1.0 2381:1.0 7388:1.0 7811:1.0 11660:1.0 14416:1.0 21111:1.0 23000:1.0 27477:1.0 27477:1.0 27492:1.0 27492:1.0 32111:1.0 32260:1.0 36764:1.0 37056:1.0 39508:1.0 41781:1.0 43359:1.0 46405:1.0 
0.0 2.784450934718434E-4 763:1.0 2374:1.0 3851:1.0 3868:1.0 4913:1.0 4928:1.0 5033:1.0 7809:1.0 9550:1.0 9550:1.0 9567:1.0 9567:1.0 10724:1.0 10739:1.0 11660:1.0 14416:1.0 20234:1.0 23001:1.0 27477:1.0 27492:1.0 28185:1.0 32268:1.0 36369:1.0 37059:1.0 38536:1.0 41779:1.0 46400:1.0 46403:1.0 
0.0012289367411676912 8.27627286142251E-4 2023:1.0 2375:1.0 7166:1.0 7805:1.0 10724:1.0 10739:1.0 14344:1.0 14416:1.0 19449:1.0 23001:1.0 27781:1.0 32270:1.0 33140:1.0 37065:1.0 
0.0 3.2256208850137727E-4 2247:1.0 2373:1.0 3851:1.0 3851:1.0 3851:1.0 3868:1.0 3868:1.0 3868:1.0 4913:1.0 4913:1.0 4928:1.0 4928:1.0 6086:1.0 7805:1.0 10724:1.0 10724:1.0 10739:1.0 10739:1.0 13871:1.0 14416:1.0 19449:1.0 23001:1.0 27477:1.0 27477:1.0 27492:1.0 27492:1.0 27781:1.0 32270:1.0 33140:1.0 37065:1.0 
7.635121956835386E-4 3.479983847839902E-4 1869:1.0 2377:1.0 3851:1.0 3851:1.0 3851:1.0 3868:1.0 3868:1.0 3868:1.0 4913:1.0 4928:1.0 6872:1.0 7805:1.0 10724:1.0 10739:1.0 10795:1.0 14416:1.0 18558:1.0 23001:1.0 32111:1.0 32260:1.0 32431:1.0 37055:1.0 39408:1.0 41773:1.0 46268:1.0 46405:1.0 
0.0 6.155179423823817E-5 1869:1.0 2377:1.0 3851:1.0 3851:1.0 3851:1.0 3868:1.0 3868:1.0 3868:1.0 4913:1.0 4928:1.0 5152:1.0 7809:1.0 9550:1.0 9567:1.0 10724:1.0 10724:1.0 10739:1.0 10739:1.0 10795:1.0 14416:1.0 20522:1.0 23001:1.0 32111:1.0 32260:1.0 32431:1.0 37055:1.0 39425:1.0 41773:1.0 42772:1.0 46405:1.0 
9.735407794376053E-4 4.5407020158751306E-4 1869:1.0 2377:1.0 3851:1.0 3851:1.0 3851:1.0 3851:1.0 3851:1.0 3868:1.0 3868:1.0 3868:1.0 3868:1.0 3868:1.0 4913:1.0 4928:1.0 5150:1.0 7816:1.0 12290:1.0 14416:1.0 22283:1.0 22996:1.0 27477:1.0 27477:1.0 27477:1.0 27492:1.0 27492:1.0 27492:1.0 31905:1.0 32262:1.0 33866:1.0 37062:1.0 38722:1.0 41779:1.0 45744:1.0 46406:1.0 
4.019496039338703E-5 0.0 1869:1.0 2377:1.0 3851:1.0 3851:1.0 3851:1.0 3851:1.0 3851:1.0 3868:1.0 3868:1.0 3868:1.0 3868:1.0 3868:1.0 4913:1.0 4928:1.0 7386:1.0 7805:1.0 9550:1.0 9567:1.0 10724:1.0 10724:1.0 10724:1.0 10724:1.0 10724:1.0 10739:1.0 10739:1.0 10739:1.0 10739:1.0 10739:1.0 13871:1.0 14416:1.0 18142:1.0 18142:1.0 18157:1.0 18157:1.0 18305:1.0 23001:1.0 28655:1.0 32262:1.0 33140:1.0 37065:1.0 
7.547884703656166E-5 1.0881723453825661E-4 2107:1.0 2373:1.0 3851:1.0 3851:1.0 3851:1.0 3851:1.0 3868:1.0 3868:1.0 3868:1.0 3868:1.0 4913:1.0 4913:1.0 4913:1.0 4928:1.0 4928:1.0 4928:1.0 5641:1.0 7815:1.0 13871:1.0 14416:1.0 21832:1.0 23001:1.0 30857:1.0 32267:1.0 34465:1.0 37063:1.0 37292:1.0 41772:1.0 45734:1.0 46403:1.0 
0.0 1.4133652652651763E-4 1769:1.0 2379:1.0 4913:1.0 4928:1.0 7298:1.0 7809:1.0 9550:1.0 9550:1.0 9550:1.0 9567:1.0 9567:1.0 9567:1.0 10724:1.0 10724:1.0 10739:1.0 10739:1.0 14344:1.0 14416:1.0 19631:1.0 23001:1.0 28245:1.0 32268:1.0 33765:1.0 37063:1.0 40380:1.0 41772:1.0 43807:1.0 46403:1.0 
8.229951664154912E-4 1.6818901231918003E-4 702:1.0 2377:1.0 4913:1.0 4928:1.0 6798:1.0 7805:1.0 10724:1.0 10739:1.0 13871:1.0 14416:1.0 18400:1.0 23001:1.0 27477:1.0 27492:1.0 31337:1.0 32262:1.0 33140:1.0 37065:1.0 
5.093691863064918E-4 0.0 1122:1.0 2377:1.0 3851:1.0 3851:1.0 3868:1.0 3868:1.0 4913:1.0 4913:1.0 4913:1.0 4913:1.0 4913:1.0 4913:1.0 4928:1.0 4928:1.0 4928:1.0 4928:1.0 4928:1.0 4928:1.0 5229:1.0 7805:1.0 10724:1.0 10724:1.0 10739:1.0 10739:1.0 13871:1.0 14416:1.0 20064:1.0 23001:1.0 32182:1.0 32262:1.0 34382:1.0 37062:1.0 38536:1.0 41779:1.0 45854:1.0 46403:1.0 
1.1375010110139498E-4 3.722124418226772E-4 1589:1.0 2373:1.0 4913:1.0 4913:1.0 4913:1.0 4928:1.0 4928:1.0 4928:1.0 5733:1.0 7805:1.0 9550:1.0 9567:1.0 10724:1.0 10724:1.0 10739:1.0 10739:1.0 13871:1.0 14416:1.0 20829:1.0 23001:1.0 27477:1.0 27492:1.0 28245:1.0 32268:1.0 32728:1.0 37055:1.0 37863:1.0 41772:1.0 44188:1.0 46416:1.0 
9.197338420809189E-4 0.0 2079:1.0 2373:1.0 4913:1.0 4928:1.0 7388:1.0 7807:1.0 10795:1.0 14416:1.0 19233:1.0 23001:1.0 29166:1.0 32270:1.0 33140:1.0 37065:1.0 
0.0 2.0698253178549883E-4 1594:1.0 2377:1.0 3851:1.0 3868:1.0 4913:1.0 4928:1.0 7458:1.0 7805:1.0 10724:1.0 10739:1.0 13871:1.0 14416:1.0 19233:1.0 23001:1.0 27477:1.0 27492:1.0 29166:1.0 32270:1.0 33140:1.0 37065:1.0 
0.0 1.642580434050706E-4 702:1.0 2377:1.0 3851:1.0 3851:1.0 3851:1.0 3851:1.0 3868:1.0 3868:1.0 3868:1.0 3868:1.0 4913:1.0 4913:1.0 4913:1.0 4913:1.0 4913:1.0 4928:1.0 4928:1.0 4928:1.0 4928:1.0 4928:1.0 7508:1.0 7805:1.0 10724:1.0 10739:1.0 10820:1.0 14416:1.0 22540:1.0 23001:1.0 29542:1.0 32268:1.0 36369:1.0 37059:1.0 39508:1.0 41781:1.0 45761:1.0 46410:1.0 
0.00110036557681608 0.0 1326:1.0 2373:1.0 4913:1.0 4913:1.0 4928:1.0 4928:1.0 6388:1.0 7817:1.0 13871:1.0 14416:1.0 21201:1.0 23001:1.0 29469:1.0 32265:1.0 32439:1.0 37057:1.0 38097:1.0 41768:1.0 44188:1.0 46416:1.0 
0.0051166776898359705 0.0018352548445425877 1185:1.0 3676:1.0 8614:1.0 12261:1.0 16737:1.0 16752:1.0 18365:1.0 21529:1.0 21649:1.0 26312:1.0 27897:1.0 31038:1.0 32669:1.0 35674:1.0 
1.6852717187078908E-4 1.1268443327439132E-4 2023:1.0 2375:1.0 4975:1.0 7807:1.0 13256:1.0 14416:1.0 20694:1.0 23001:1.0 29921:1.0 32271:1.0 34980:1.0 37059:1.0 38570:1.0 41779:1.0 42074:1.0 46403:1.0 
0.0 5.450459942745583E-4 1212:1.0 2377:1.0 4913:1.0 4913:1.0 4928:1.0 4928:1.0 6339:1.0 7805:1.0 10724:1.0 10724:1.0 10739:1.0 10739:1.0 13871:1.0 14416:1.0 20694:1.0 23001:1.0 27477:1.0 27477:1.0 27492:1.0 27492:1.0 29921:1.0 32271:1.0 34980:1.0 37059:1.0 38570:1.0 41779:1.0 42074:1.0 46403:1.0 
1.1298762868112064E-4 2.3339134092989424E-4 2201:1.0 2373:1.0 4913:1.0 4913:1.0 4928:1.0 4928:1.0 6660:1.0 7805:1.0 10724:1.0 10739:1.0 10795:1.0 14416:1.0 21354:1.0 23001:1.0 31098:1.0 32268:1.0 33920:1.0 37052:1.0 38303:1.0 41772:1.0 43325:1.0 46413:1.0 
0.001373197735063047 4.4174392092758265E-4 1769:1.0 2379:1.0 7690:1.0 7810:1.0 13256:1.0 14416:1.0 19077:1.0 23001:1.0 29018:1.0 32268:1.0 32832:1.0 37057:1.0 39508:1.0 41781:1.0 46366:1.0 46405:1.0 
7.498576801265046E-6 0.0 788:1.0 2373:1.0 4913:1.0 4928:1.0 6388:1.0 7817:1.0 13871:1.0 14416:1.0 20929:1.0 23001:1.0 29018:1.0 32268:1.0 32533:1.0 37061:1.0 39492:1.0 41768:1.0 43826:1.0 46413:1.0 
0.0024162639140600135 7.100287873037618E-4 1513:1.0 2377:1.0 4913:1.0 4928:1.0 7441:1.0 7805:1.0 10724:1.0 10724:1.0 10724:1.0 10739:1.0 10739:1.0 10739:1.0 13871:1.0 14416:1.0 21980:1.0 22996:1.0 27477:1.0 27477:1.0 27477:1.0 27477:1.0 27492:1.0 27492:1.0 27492:1.0 27492:1.0 29810:1.0 32271:1.0 34370:1.0 37065:1.0 37915:1.0 41781:1.0 
1.538759108317064E-5 0.0 1869:1.0 2377:1.0 3851:1.0 3851:1.0 3868:1.0 3868:1.0 4913:1.0 4913:1.0 4928:1.0 4928:1.0 5727:1.0 7805:1.0 9550:1.0 9567:1.0 10724:1.0 10739:1.0 13871:1.0 14416:1.0 20482:1.0 23001:1.0 27477:1.0 27492:1.0 29921:1.0 32271:1.0 34037:1.0 37052:1.0 39508:1.0 41781:1.0 42777:1.0 46403:1.0 
0.001338579678834505 2.8800423749572926E-4 2177:1.0 2876:1.0 5795:1.0 5810:1.0 5866:1.0 9487:1.0 17490:1.0 18072:1.0 24613:1.0 27339:1.0 28155:1.0 32123:1.0 33149:1.0 36841:1.0 41395:1.0 41477:1.0 
9.371551408569936E-4 7.66682033828879E-5 2535:1.0 2880:1.0 4621:1.0 4621:1.0 4638:1.0 4638:1.0 5795:1.0 5795:1.0 5810:1.0 5810:1.0 9415:1.0 9487:1.0 16677:1.0 18072:1.0 25795:1.0 27340:1.0 29258:1.0 32123:1.0 34825:1.0 36843:1.0 38396:1.0 41484:1.0 
4.018340042911153E-4 1.214348931287857E-5 348:1.0 2880:1.0 4621:1.0 4621:1.0 4638:1.0 4638:1.0 5795:1.0 5795:1.0 5810:1.0 5810:1.0 5866:1.0 9487:1.0 16699:1.0 18072:1.0 25327:1.0 27341:1.0 29453:1.0 32133:1.0 33607:1.0 36850:1.0 39535:1.0 41474:1.0 
0.0 5.013111405587727E-5 1725:1.0 2373:1.0 4913:1.0 4928:1.0 7388:1.0 7807:1.0 13256:1.0 14416:1.0 22450:1.0 23001:1.0 31475:1.0 32262:1.0 34799:1.0 37065:1.0 37621:1.0 41779:1.0 43638:1.0 46403:1.0 
3.370804680928888E-4 0.0 334:1.0 2377:1.0 4913:1.0 4928:1.0 7031:1.0 7805:1.0 10724:1.0 10739:1.0 13871:1.0 14416:1.0 22450:1.0 23001:1.0 27477:1.0 27492:1.0 31475:1.0 32262:1.0 34799:1.0 37065:1.0 37621:1.0 41779:1.0 43638:1.0 46403:1.0 
7.967506068671779E-5 0.0 30:1.0 2377:1.0 3851:1.0 3851:1.0 3851:1.0 3868:1.0 3868:1.0 3868:1.0 4913:1.0 4913:1.0 4928:1.0 4928:1.0 5864:1.0 7816:1.0 10795:1.0 14416:1.0 21928:1.0 23001:1.0 28245:1.0 32268:1.0 35735:1.0 37052:1.0 39552:1.0 41781:1.0 43409:1.0 46414:1.0 
8.137173666124426E-4 0.0 338:1.0 2375:1.0 3851:1.0 3868:1.0 4913:1.0 4928:1.0 6388:1.0 7817:1.0 13871:1.0 14416:1.0 19786:1.0 23001:1.0 29627:1.0 32269:1.0 36055:1.0 37052:1.0 38637:1.0 41778:1.0 43224:1.0 46414:1.0 
4.775374640060795E-4 7.04225705324643E-5 590:1.0 2383:1.0 7388:1.0 7807:1.0 10795:1.0 14416:1.0 21295:1.0 23001:1.0 30927:1.0 32262:1.0 33303:1.0 37054:1.0 41275:1.0 41780:1.0 45084:1.0 46412:1.0 
9.495527333733168E-4 0.0 1013:1.0 2382:1.0 5641:1.0 7815:1.0 13871:1.0 14416:1.0 21295:1.0 23001:1.0 27477:1.0 27492:1.0 30927:1.0 32262:1.0 33303:1.0 37054:1.0 41275:1.0 41780:1.0 45084:1.0 46412:1.0 
0.0021327906249219114 0.0013170337192602544 1449:1.0 2888:1.0 8870:1.0 9487:1.0 13213:1.0 13228:1.0 17113:1.0 18072:1.0 25808:1.0 27342:1.0 
0.001616300885803623 4.536721814325761E-4 2364:1.0 2878:1.0 8942:1.0 9487:1.0 15553:1.0 18072:1.0 22548:1.0 22563:1.0 26632:1.0 27336:1.0 30495:1.0 32123:1.0 32944:1.0 36849:1.0 38480:1.0 41485:1.0 
0.001816968992063934 5.991072996005107E-4 890:1.0 2885:1.0 4621:1.0 4638:1.0 8059:1.0 9487:1.0 17539:1.0 18072:1.0 24089:1.0 27339:1.0 28444:1.0 32134:1.0 36421:1.0 36839:1.0 38480:1.0 41485:1.0 
0.0 2.2338629020573258E-4 64:1.0 2377:1.0 3851:1.0 3851:1.0 3868:1.0 3868:1.0 4913:1.0 4913:1.0 4913:1.0 4928:1.0 4928:1.0 4928:1.0 5163:1.0 7810:1.0 9550:1.0 9567:1.0 12988:1.0 14416:1.0 21586:1.0 23001:1.0 27477:1.0 27492:1.0 28287:1.0 32271:1.0 
5.625420140056767E-4 6.452790207551831E-4 683:1.0 2373:1.0 4913:1.0 4913:1.0 4913:1.0 4928:1.0 4928:1.0 4928:1.0 5818:1.0 7805:1.0 10724:1.0 10724:1.0 10739:1.0 10739:1.0 13871:1.0 14416:1.0 18142:1.0 18142:1.0 18157:1.0 18157:1.0 18594:1.0 23001:1.0 29921:1.0 32271:1.0 35345:1.0 37061:1.0 37580:1.0 41773:1.0 42839:1.0 46414:1.0 
3.5656245550581275E-4 0.0 1673:1.0 2373:1.0 4913:1.0 4928:1.0 5465:1.0 7810:1.0 9550:1.0 9550:1.0 9567:1.0 9567:1.0 10820:1.0 14416:1.0 21492:1.0 23001:1.0 29018:1.0 32268:1.0 32768:1.0 37057:1.0 40063:1.0 41778:1.0 44956:1.0 46414:1.0 
6.100434432754505E-4 1.83214939080266E-4 25:1.0 2876:1.0 4621:1.0 4621:1.0 4638:1.0 4638:1.0 5795:1.0 5795:1.0 5810:1.0 5810:1.0 8479:1.0 9487:1.0 13213:1.0 13228:1.0 16563:1.0 18072:1.0 22548:1.0 22548:1.0 22548:1.0 22563:1.0 22563:1.0 22563:1.0 24089:1.0 27339:1.0 27839:1.0 32128:1.0 35134:1.0 36849:1.0 40027:1.0 41485:1.0 
0.003970623585639609 0.0013387112889830732 1473:1.0 2878:1.0 5891:1.0 9487:1.0 17724:1.0 18072:1.0 22564:1.0 27334:1.0 29024:1.0 32134:1.0 34454:1.0 36852:1.0 41425:1.0 41480:1.0 
0.003844741252928535 0.001956191094065746 1878:1.0 3676:1.0 11913:1.0 12261:1.0 16737:1.0 16752:1.0 16753:1.0 21523:1.0 23213:1.0 26323:1.0 28643:1.0 31041:1.0 35614:1.0 35669:1.0 
0.0 6.459028201861237E-6 2200:1.0 2377:1.0 3851:1.0 3851:1.0 3868:1.0 3868:1.0 4913:1.0 4913:1.0 4928:1.0 4928:1.0 6654:1.0 7816:1.0 10724:1.0 10739:1.0 10795:1.0 14416:1.0 22976:1.0 23001:1.0 29018:1.0 32268:1.0 33765:1.0 37063:1.0 39383:1.0 41781:1.0 45352:1.0 46409:1.0 
4.4573733612053974E-4 0.0 2674:1.0 2880:1.0 4621:1.0 4621:1.0 4621:1.0 4621:1.0 4638:1.0 4638:1.0 4638:1.0 4638:1.0 5795:1.0 5795:1.0 5810:1.0 5810:1.0 5866:1.0 9487:1.0 14148:1.0 18072:1.0 24272:1.0 27329:1.0 31440:1.0 32130:1.0 34579:1.0 36852:1.0 38835:1.0 41484:1.0 
