svm_type c_svc
kernel_type polynomial
degree 2
gamma 1.0
coef0 1.0
nr_class 3
total_sv 572
rho -0.11482615829302631 0.3307803283618327 0.5444968738761582
label 1 0 2
nr_sv 227 195 150
SV
5.998472258090015E-4 1.92758620356153E-5 2074:1.0 2880:1.0 5795:1.0 5795:1.0 5795:1.0 5795:1.0 5795:1.0 5810:1.0 5810:1.0 5810:1.0 5810:1.0 5810:1.0 7585:1.0 9492:1.0 13213:1.0 13213:1.0 13228:1.0 13228:1.0 17873:1.0 18077:1.0 22784:1.0 27337:1.0 29453:1.0 32133:1.0 33607:1.0 36850:1.0 40870:1.0 41480:1.0 
3.442180648274997E-4 0.0 2074:1.0 2880:1.0 5795:1.0 5795:1.0 5795:1.0 5795:1.0 5795:1.0 5810:1.0 5810:1.0 5810:1.0 5810:1.0 5810:1.0 7585:1.0 9492:1.0 11988:1.0 12005:1.0 13213:1.0 13213:1.0 13228:1.0 13228:1.0 15309:1.0 18077:1.0 23988:1.0 27340:1.0 31495:1.0 32129:1.0 34579:1.0 36852:1.0 38617:1.0 41474:1.0 
1.1380049203087289E-4 0.0 2074:1.0 2880:1.0 4621:1.0 4638:1.0 5795:1.0 5795:1.0 5795:1.0 5795:1.0 5795:1.0 5810:1.0 5810:1.0 5810:1.0 5810:1.0 5810:1.0 6560:1.0 9492:1.0 13213:1.0 13213:1.0 13228:1.0 13228:1.0 17873:1.0 18077:1.0 22784:1.0 27337:1.0 30389:1.0 32133:1.0 34568:1.0 36845:1.0 37843:1.0 41476:1.0 
2.3331473391802128E-4 1.2070690483898998E-4 2074:1.0 2880:1.0 4621:1.0 4638:1.0 5795:1.0 5795:1.0 5795:1.0 5795:1.0 5795:1.0 5810:1.0 5810:1.0 5810:1.0 5810:1.0 5810:1.0 6560:1.0 9492:1.0 11988:1.0 12005:1.0 13213:1.0 13213:1.0 13228:1.0 13228:1.0 16277:1.0 18077:1.0 24980:1.0 27335:1.0 28374:1.0 32125:1.0 32948:1.0 36845:1.0 39259:1.0 41487:1.0 
0.0026643612068105982 4.983749420646093E-4 2074:1.0 2880:1.0 4621:1.0 4638:1.0 5795:1.0 5795:1.0 5795:1.0 5795:1.0 5795:1.0 5810:1.0 5810:1.0 5810:1.0 5810:1.0 5810:1.0 6560:1.0 9492:1.0 11988:1.0 12005:1.0 13213:1.0 13213:1.0 13228:1.0 13228:1.0 15685:1.0 18073:1.0 22548:1.0 22563:1.0 23522:1.0 27331:1.0 28173:1.0 32129:1.0 34579:1.0 36852:1.0 37805:1.0 41480:1.0 
0.001883221289013156 0.0 2074:1.0 2880:1.0 4621:1.0 4638:1.0 5795:1.0 5795:1.0 5795:1.0 5795:1.0 5795:1.0 5810:1.0 5810:1.0 5810:1.0 5810:1.0 5810:1.0 6560:1.0 9492:1.0 11988:1.0 12005:1.0 13213:1.0 13213:1.0 13228:1.0 13228:1.0 15685:1.0 18073:1.0 21507:1.0 21523:1.0 22548:1.0 22563:1.0 23320:1.0 27335:1.0 29826:1.0 32136:1.0 33111:1.0 36845:1.0 37095:1.0 41479:1.0 
1.6864324994010212E-4 0.0 2373:1.0 2880:1.0 5795:1.0 5810:1.0 7919:1.0 9492:1.0 13213:1.0 13213:1.0 13228:1.0 13228:1.0 17873:1.0 18077:1.0 22784:1.0 27337:1.0 29453:1.0 32133:1.0 33218:1.0 36850:1.0 39400:1.0 41474:1.0 
0.004013570466784923 0.0012203556442995508 2373:1.0 2880:1.0 5795:1.0 5810:1.0 7919:1.0 9492:1.0 11988:1.0 12005:1.0 13213:1.0 13213:1.0 13228:1.0 13228:1.0 15849:1.0 18067:1.0 22548:1.0 22548:1.0 22563:1.0 22563:1.0 24613:1.0 27339:1.0 28836:1.0 32134:1.0 33911:1.0 36845:1.0 39945:1.0 41480:1.0 
0.0017994657327861504 0.003455520083059649 136:1.0 2880:1.0 4621:1.0 4621:1.0 4621:1.0 4638:1.0 4638:1.0 4638:1.0 5795:1.0 5810:1.0 6630:1.0 9492:1.0 16683:1.0 18076:1.0 25022:1.0 27334:1.0 30776:1.0 32133:1.0 33607:1.0 36850:1.0 38302:1.0 41478:1.0 
2.740161247428596E-4 2.2542089554354077E-4 163:1.0 2376:1.0 4913:1.0 4913:1.0 4928:1.0 4928:1.0 5700:1.0 7805:1.0 9550:1.0 9567:1.0 10724:1.0 10724:1.0 10739:1.0 10739:1.0 10798:1.0 14421:1.0 16917:1.0 16934:1.0 18142:1.0 18142:1.0 18157:1.0 18157:1.0 20778:1.0 22996:1.0 27477:1.0 27477:1.0 27492:1.0 27492:1.0 30494:1.0 32268:1.0 32955:1.0 37052:1.0 39143:1.0 41778:1.0 44164:1.0 46409:1.0 
0.0016085688938165805 0.0 163:1.0 2376:1.0 4913:1.0 4913:1.0 4928:1.0 4928:1.0 5700:1.0 7805:1.0 9550:1.0 9567:1.0 10724:1.0 10724:1.0 10739:1.0 10739:1.0 10798:1.0 14421:1.0 16917:1.0 16934:1.0 18142:1.0 18142:1.0 18157:1.0 18157:1.0 20778:1.0 22996:1.0 26436:1.0 26452:1.0 27477:1.0 27477:1.0 27492:1.0 27492:1.0 29542:1.0 32268:1.0 34730:1.0 37058:1.0 37915:1.0 41781:1.0 
1.1746416101393345E-4 7.557102569029798E-4 622:1.0 2880:1.0 5795:1.0 5810:1.0 5848:1.0 9492:1.0 13213:1.0 13228:1.0 17873:1.0 18077:1.0 22784:1.0 27337:1.0 29453:1.0 32133:1.0 33218:1.0 36850:1.0 39400:1.0 41474:1.0 
8.492688496146488E-4 4.914082909317318E-4 622:1.0 2880:1.0 5795:1.0 5810:1.0 5848:1.0 9492:1.0 11988:1.0 12005:1.0 13213:1.0 13228:1.0 15309:1.0 18077:1.0 23592:1.0 27340:1.0 29972:1.0 32123:1.0 35134:1.0 36849:1.0 37498:1.0 41474:1.0 
0.0024821761640671323 0.0012767633633097868 622:1.0 2880:1.0 5795:1.0 5810:1.0 5848:1.0 9492:1.0 11988:1.0 12005:1.0 13213:1.0 13228:1.0 15849:1.0 18067:1.0 22548:1.0 22548:1.0 22563:1.0 22563:1.0 25565:1.0 27339:1.0 28026:1.0 32123:1.0 34214:1.0 36849:1.0 39235:1.0 41480:1.0 
0.002386243939156773 7.357126089538456E-4 622:1.0 2880:1.0 5795:1.0 5810:1.0 5848:1.0 9492:1.0 11988:1.0 12005:1.0 13213:1.0 13228:1.0 15849:1.0 18067:1.0 21507:1.0 21523:1.0 22548:1.0 22548:1.0 22563:1.0 22563:1.0 24613:1.0 27339:1.0 29801:1.0 32129:1.0 32886:1.0 36849:1.0 38295:1.0 41485:1.0 
0.0017424326200433983 0.00134227307734415 1972:1.0 2880:1.0 5795:1.0 5810:1.0 8396:1.0 9492:1.0 13213:1.0 13228:1.0 17873:1.0 18077:1.0 22784:1.0 27337:1.0 30389:1.0 32133:1.0 34531:1.0 36839:1.0 39259:1.0 41487:1.0 
0.00102186543774945 0.0 1254:1.0 2373:1.0 4913:1.0 4928:1.0 7713:1.0 7809:1.0 10724:1.0 10724:1.0 10739:1.0 10739:1.0 12714:1.0 14421:1.0 16917:1.0 16934:1.0 18142:1.0 18142:1.0 18157:1.0 18157:1.0 19603:1.0 23007:1.0 30851:1.0 32266:1.0 36868:1.0 37062:1.0 37351:1.0 41776:1.0 42611:1.0 46416:1.0 
0.0022603080186659515 0.0 1254:1.0 2373:1.0 4913:1.0 4928:1.0 7713:1.0 7809:1.0 10724:1.0 10724:1.0 10739:1.0 10739:1.0 12714:1.0 14421:1.0 16917:1.0 16934:1.0 18142:1.0 18142:1.0 18157:1.0 18157:1.0 21567:1.0 23004:1.0 27477:1.0 27492:1.0 32069:1.0 32268:1.0 32573:1.0 37060:1.0 37915:1.0 41781:1.0 
9.217552211753958E-4 0.0 2295:1.0 2377:1.0 4913:1.0 4913:1.0 4928:1.0 4928:1.0 6474:1.0 7812:1.0 9550:1.0 9567:1.0 10724:1.0 10724:1.0 10739:1.0 10739:1.0 13325:1.0 14421:1.0 18142:1.0 18157:1.0 22802:1.0 23006:1.0 27713:1.0 32266:1.0 33140:1.0 37065:1.0 
0.0017642710499023496 8.444389943354676E-4 1296:1.0 3681:1.0 6177:1.0 6194:1.0 7402:1.0 7402:1.0 7417:1.0 7417:1.0 8863:1.0 12267:1.0 19287:1.0 21526:1.0 23642:1.0 26322:1.0 29037:1.0 31028:1.0 31173:1.0 35666:1.0 
0.0033982764905214602 0.002380983463818886 1296:1.0 3681:1.0 6177:1.0 6194:1.0 7402:1.0 7402:1.0 7417:1.0 7417:1.0 9995:1.0 12264:1.0 16737:1.0 16752:1.0 18802:1.0 21528:1.0 24289:1.0 26312:1.0 26469:1.0 31031:1.0 31252:1.0 35668:1.0 
6.69252438053243E-4 3.6090151429060794E-4 1019:1.0 2883:1.0 4621:1.0 4638:1.0 5795:1.0 5795:1.0 5810:1.0 5810:1.0 7751:1.0 9492:1.0 13213:1.0 13228:1.0 15309:1.0 18077:1.0 25271:1.0 27329:1.0 27502:1.0 32126:1.0 32360:1.0 36844:1.0 39802:1.0 41484:1.0 
0.001016544233853398 6.978300018501433E-4 1296:1.0 3681:1.0 6177:1.0 6177:1.0 6194:1.0 6194:1.0 7402:1.0 7402:1.0 7417:1.0 7417:1.0 7493:1.0 12259:1.0 16909:1.0 21523:1.0 24578:1.0 26322:1.0 29732:1.0 31034:1.0 31135:1.0 35675:1.0 
1.3020949162477935E-4 0.0 1918:1.0 2373:1.0 3851:1.0 3868:1.0 4913:1.0 4913:1.0 4913:1.0 4928:1.0 4928:1.0 4928:1.0 5741:1.0 7805:1.0 10724:1.0 10739:1.0 13790:1.0 14421:1.0 18142:1.0 18157:1.0 20238:1.0 23006:1.0 28733:1.0 32266:1.0 34382:1.0 37062:1.0 38137:1.0 41768:1.0 44731:1.0 46413:1.0 
0.002072500898631215 1.985379402700402E-4 1918:1.0 2373:1.0 3851:1.0 3868:1.0 4913:1.0 4913:1.0 4913:1.0 4928:1.0 4928:1.0 4928:1.0 5741:1.0 7805:1.0 10724:1.0 10739:1.0 13790:1.0 14421:1.0 18142:1.0 18157:1.0 19418:1.0 23004:1.0 27477:1.0 27492:1.0 29542:1.0 32268:1.0 33363:1.0 37052:1.0 40063:1.0 41778:1.0 42839:1.0 46414:1.0 
4.0920911080220986E-4 0.0 673:1.0 2373:1.0 4913:1.0 4928:1.0 7326:1.0 7812:1.0 10724:1.0 10739:1.0 11689:1.0 14421:1.0 18142:1.0 18157:1.0 20238:1.0 23006:1.0 28511:1.0 32258:1.0 35318:1.0 37062:1.0 38147:1.0 41779:1.0 42302:1.0 46403:1.0 
7.673023464640463E-4 9.8193407060363E-4 778:1.0 2880:1.0 4621:1.0 4621:1.0 4638:1.0 4638:1.0 5795:1.0 5810:1.0 6708:1.0 9492:1.0 13213:1.0 13228:1.0 15309:1.0 18077:1.0 25578:1.0 27329:1.0 29104:1.0 32128:1.0 33708:1.0 36849:1.0 37433:1.0 41482:1.0 
5.282171440249368E-4 1.1752798883095282E-4 767:1.0 2876:1.0 4621:1.0 4638:1.0 5795:1.0 5795:1.0 5810:1.0 5810:1.0 6176:1.0 9492:1.0 13213:1.0 13228:1.0 15309:1.0 18077:1.0 25578:1.0 27329:1.0 28444:1.0 32134:1.0 36406:1.0 36839:1.0 38897:1.0 41484:1.0 
3.5898163649060244E-4 0.0011981394771023303 767:1.0 2876:1.0 4621:1.0 4638:1.0 5795:1.0 5795:1.0 5810:1.0 5810:1.0 6176:1.0 9492:1.0 11988:1.0 12005:1.0 13213:1.0 13228:1.0 14274:1.0 18078:1.0 26878:1.0 27329:1.0 29453:1.0 32133:1.0 36618:1.0 36839:1.0 37843:1.0 41476:1.0 
0.0010934006695259575 0.0024642627058792136 767:1.0 2876:1.0 4621:1.0 4638:1.0 5795:1.0 5795:1.0 5810:1.0 5810:1.0 6176:1.0 9492:1.0 11988:1.0 12005:1.0 13213:1.0 13228:1.0 17605:1.0 18067:1.0 22548:1.0 22563:1.0 24613:1.0 27339:1.0 31897:1.0 32123:1.0 33149:1.0 36841:1.0 37244:1.0 41474:1.0 
0.0016208782875155676 0.0 767:1.0 2876:1.0 4621:1.0 4638:1.0 5795:1.0 5795:1.0 5810:1.0 5810:1.0 6176:1.0 9492:1.0 11988:1.0 12005:1.0 13213:1.0 13228:1.0 17605:1.0 18067:1.0 21507:1.0 21523:1.0 22548:1.0 22563:1.0 23522:1.0 27331:1.0 27768:1.0 32123:1.0 34214:1.0 36849:1.0 38295:1.0 41485:1.0 
2.962770305461095E-4 0.0 767:1.0 2876:1.0 4621:1.0 4638:1.0 5795:1.0 5795:1.0 5810:1.0 5810:1.0 6176:1.0 9492:1.0 11988:1.0 12005:1.0 13213:1.0 13228:1.0 17605:1.0 18067:1.0 21507:1.0 21507:1.0 21523:1.0 21523:1.0 22548:1.0 22563:1.0 22908:1.0 27329:1.0 29453:1.0 32133:1.0 33607:1.0 36850:1.0 38623:1.0 41480:1.0 
0.0010636781816993285 4.431034583716842E-4 767:1.0 2876:1.0 4621:1.0 4638:1.0 5795:1.0 5795:1.0 5810:1.0 5810:1.0 6176:1.0 9492:1.0 11988:1.0 12005:1.0 13213:1.0 13228:1.0 17605:1.0 18067:1.0 21507:1.0 21507:1.0 21507:1.0 21523:1.0 21523:1.0 21523:1.0 22548:1.0 22563:1.0 24613:1.0 27339:1.0 28836:1.0 32134:1.0 33937:1.0 36845:1.0 40640:1.0 41480:1.0 
0.001221603116955692 0.0 767:1.0 2876:1.0 4621:1.0 4638:1.0 5795:1.0 5795:1.0 5810:1.0 5810:1.0 6176:1.0 9492:1.0 11988:1.0 12005:1.0 13213:1.0 13228:1.0 17605:1.0 18067:1.0 21507:1.0 21507:1.0 21507:1.0 21507:1.0 21523:1.0 21523:1.0 21523:1.0 21523:1.0 22548:1.0 22563:1.0 26854:1.0 27338:1.0 29453:1.0 32133:1.0 36578:1.0 36847:1.0 37958:1.0 41474:1.0 
0.002347189868592119 0.0010113748493206759 2202:1.0 2378:1.0 3851:1.0 3851:1.0 3868:1.0 3868:1.0 4913:1.0 4928:1.0 5198:1.0 7805:1.0 10724:1.0 10739:1.0 12811:1.0 14421:1.0 18142:1.0 18157:1.0 18711:1.0 22996:1.0 27477:1.0 27477:1.0 27492:1.0 27492:1.0 31561:1.0 32261:1.0 34471:1.0 37057:1.0 38637:1.0 41778:1.0 44617:1.0 46409:1.0 
0.0 1.2312875967471898E-4 1112:1.0 2376:1.0 3851:1.0 3851:1.0 3868:1.0 3868:1.0 4913:1.0 4928:1.0 5052:1.0 7809:1.0 10724:1.0 10739:1.0 12982:1.0 14421:1.0 16917:1.0 16934:1.0 18142:1.0 18157:1.0 20238:1.0 23006:1.0 30063:1.0 32269:1.0 35874:1.0 37052:1.0 39143:1.0 41778:1.0 45456:1.0 46414:1.0 
0.0023356143615319556 5.973698155386277E-4 1112:1.0 2376:1.0 3851:1.0 3851:1.0 3868:1.0 3868:1.0 4913:1.0 4928:1.0 5052:1.0 7809:1.0 10724:1.0 10739:1.0 12982:1.0 14421:1.0 16917:1.0 16934:1.0 18142:1.0 18157:1.0 21777:1.0 22996:1.0 27477:1.0 27477:1.0 27492:1.0 27492:1.0 29542:1.0 32268:1.0 36068:1.0 37063:1.0 38536:1.0 41779:1.0 45022:1.0 46403:1.0 
0.001996063086081547 0.0034515611511246958 1200:1.0 2385:1.0 7388:1.0 7807:1.0 13987:1.0 14421:1.0 18142:1.0 18157:1.0 20238:1.0 23006:1.0 29167:1.0 32258:1.0 34714:1.0 37057:1.0 41098:1.0 41775:1.0 44617:1.0 46409:1.0 
1.0039903372918237E-4 0.0 128:1.0 2377:1.0 3851:1.0 3851:1.0 3868:1.0 3868:1.0 4913:1.0 4913:1.0 4928:1.0 4928:1.0 5389:1.0 7809:1.0 9550:1.0 9567:1.0 10724:1.0 10724:1.0 10724:1.0 10724:1.0 10724:1.0 10724:1.0 10739:1.0 10739:1.0 10739:1.0 10739:1.0 10739:1.0 10739:1.0 13462:1.0 14421:1.0 16917:1.0 16934:1.0 18142:1.0 18142:1.0 18157:1.0 18157:1.0 20238:1.0 23006:1.0 28917:1.0 32269:1.0 36424:1.0 37058:1.0 39508:1.0 41781:1.0 45456:1.0 46414:1.0 
0.001850183563220908 0.0 128:1.0 2377:1.0 3851:1.0 3851:1.0 3868:1.0 3868:1.0 4913:1.0 4913:1.0 4928:1.0 4928:1.0 5389:1.0 7809:1.0 9550:1.0 9567:1.0 10724:1.0 10724:1.0 10724:1.0 10724:1.0 10724:1.0 10724:1.0 10739:1.0 10739:1.0 10739:1.0 10739:1.0 10739:1.0 10739:1.0 13462:1.0 14421:1.0 16917:1.0 16917:1.0 16934:1.0 16934:1.0 18142:1.0 18142:1.0 18157:1.0 18157:1.0 20626:1.0 23009:1.0 31257:1.0 32269:1.0 35547:1.0 37063:1.0 39613:1.0 41768:1.0 44063:1.0 46416:1.0 
7.510770486679026E-4 0.0 1915:1.0 2377:1.0 4913:1.0 4913:1.0 4928:1.0 4928:1.0 5565:1.0 7805:1.0 10724:1.0 10739:1.0 14393:1.0 14421:1.0 18142:1.0 18157:1.0 20238:1.0 23006:1.0 28521:1.0 32269:1.0 33103:1.0 37060:1.0 41014:1.0 41772:1.0 41951:1.0 46403:1.0 
0.0010359903554930385 2.660575537183791E-5 1915:1.0 2377:1.0 4913:1.0 4913:1.0 4928:1.0 4928:1.0 5565:1.0 7805:1.0 10724:1.0 10739:1.0 14393:1.0 14421:1.0 18142:1.0 18157:1.0 18273:1.0 22996:1.0 27477:1.0 27477:1.0 27477:1.0 27492:1.0 27492:1.0 27492:1.0 31964:1.0 32262:1.0 33140:1.0 37065:1.0 
9.978742058417008E-4 0.0 1211:1.0 2373:1.0 4913:1.0 4913:1.0 4928:1.0 4928:1.0 5799:1.0 7809:1.0 9550:1.0 9567:1.0 10724:1.0 10739:1.0 12714:1.0 14421:1.0 16917:1.0 16934:1.0 18142:1.0 18142:1.0 18157:1.0 18157:1.0 20238:1.0 23006:1.0 28917:1.0 32269:1.0 34258:1.0 37060:1.0 39383:1.0 41781:1.0 42611:1.0 46416:1.0 
0.001550456544671267 8.812847957298004E-5 275:1.0 2378:1.0 3851:1.0 3851:1.0 3851:1.0 3851:1.0 3868:1.0 3868:1.0 3868:1.0 3868:1.0 4913:1.0 4913:1.0 4928:1.0 4928:1.0 7255:1.0 7809:1.0 9550:1.0 9567:1.0 10724:1.0 10724:1.0 10739:1.0 10739:1.0 11376:1.0 14421:1.0 16917:1.0 16934:1.0 18142:1.0 18157:1.0 19951:1.0 23004:1.0 29542:1.0 32268:1.0 35029:1.0 37052:1.0 37915:1.0 41781:1.0 
0.0 6.858880722528341E-4 1911:1.0 2377:1.0 3851:1.0 3868:1.0 4913:1.0 4913:1.0 4928:1.0 4928:1.0 5423:1.0 7812:1.0 9550:1.0 9567:1.0 10724:1.0 10739:1.0 12075:1.0 14421:1.0 20238:1.0 23006:1.0 30200:1.0 32258:1.0 33140:1.0 37065:1.0 
6.164726225180765E-4 0.0 2329:1.0 2378:1.0 4913:1.0 4913:1.0 4928:1.0 4928:1.0 6739:1.0 7809:1.0 9550:1.0 9567:1.0 10724:1.0 10739:1.0 13230:1.0 14421:1.0 18142:1.0 18157:1.0 20238:1.0 23006:1.0 30507:1.0 32258:1.0 34614:1.0 37057:1.0 39383:1.0 41781:1.0 43224:1.0 46414:1.0 
0.0025579864595568764 0.002200204701328279 1415:1.0 2880:1.0 5795:1.0 5810:1.0 8929:1.0 9492:1.0 13213:1.0 13213:1.0 13228:1.0 13228:1.0 13306:1.0 18067:1.0 24060:1.0 27333:1.0 31232:1.0 32136:1.0 34799:1.0 36847:1.0 39069:1.0 41474:1.0 
0.0040211625290032795 0.0013960971748212835 1415:1.0 2880:1.0 5795:1.0 5810:1.0 8929:1.0 9492:1.0 13213:1.0 13213:1.0 13228:1.0 13228:1.0 13306:1.0 18067:1.0 21507:1.0 21523:1.0 26421:1.0 27342:1.0 30049:1.0 32131:1.0 34388:1.0 36839:1.0 38885:1.0 41487:1.0 
6.70519155085404E-4 0.0 1052:1.0 2377:1.0 4913:1.0 4913:1.0 4913:1.0 4928:1.0 4928:1.0 4928:1.0 6451:1.0 7805:1.0 10724:1.0 10724:1.0 10739:1.0 10739:1.0 13325:1.0 14421:1.0 18142:1.0 18142:1.0 18157:1.0 18157:1.0 20238:1.0 23006:1.0 30643:1.0 32258:1.0 34006:1.0 37056:1.0 37915:1.0 41781:1.0 
9.94896458962008E-5 0.0 1739:1.0 2384:1.0 4913:1.0 4928:1.0 5570:1.0 7809:1.0 9550:1.0 9567:1.0 10724:1.0 10724:1.0 10724:1.0 10739:1.0 10739:1.0 10739:1.0 10768:1.0 14421:1.0 18142:1.0 18157:1.0 22802:1.0 23006:1.0 27713:1.0 32266:1.0 33140:1.0 37065:1.0 
0.0030763357302222923 0.0036280370340834684 2095:1.0 3681:1.0 7402:1.0 7417:1.0 9498:1.0 12266:1.0 18427:1.0 21518:1.0 24564:1.0 26312:1.0 28768:1.0 31041:1.0 33582:1.0 35674:1.0 
0.0016008974004989018 0.0021930149980792534 2095:1.0 3681:1.0 6177:1.0 6177:1.0 6177:1.0 6194:1.0 6194:1.0 6194:1.0 7402:1.0 7417:1.0 10031:1.0 12267:1.0 20168:1.0 21526:1.0 24428:1.0 26312:1.0 27897:1.0 31038:1.0 32669:1.0 35674:1.0 
4.946739271086071E-4 2.3152465503986395E-6 2095:1.0 3681:1.0 6177:1.0 6177:1.0 6177:1.0 6194:1.0 6194:1.0 6194:1.0 7402:1.0 7417:1.0 10031:1.0 12267:1.0 15696:1.0 15712:1.0 19601:1.0 21518:1.0 23126:1.0 26322:1.0 27982:1.0 31039:1.0 31646:1.0 35663:1.0 
0.00157078030515566 0.002595475111694912 2095:1.0 3681:1.0 6177:1.0 6177:1.0 6177:1.0 6194:1.0 6194:1.0 6194:1.0 7402:1.0 7417:1.0 10312:1.0 12256:1.0 16737:1.0 16752:1.0 18278:1.0 21528:1.0 23213:1.0 26323:1.0 26948:1.0 31028:1.0 33565:1.0 35668:1.0 
0.0014492115183423774 2.3916693816028304E-4 2095:1.0 3681:1.0 6177:1.0 6177:1.0 6177:1.0 6194:1.0 6194:1.0 6194:1.0 7402:1.0 7417:1.0 10312:1.0 12256:1.0 15696:1.0 15712:1.0 16737:1.0 16752:1.0 19306:1.0 21523:1.0 24578:1.0 26322:1.0 29548:1.0 31039:1.0 34611:1.0 35663:1.0 
4.6404239224695504E-4 0.0 644:1.0 2373:1.0 3851:1.0 3868:1.0 4913:1.0 4913:1.0 4928:1.0 4928:1.0 5537:1.0 7809:1.0 10724:1.0 10724:1.0 10724:1.0 10739:1.0 10739:1.0 10739:1.0 12714:1.0 14421:1.0 18142:1.0 18157:1.0 20238:1.0 23006:1.0 30080:1.0 32258:1.0 34006:1.0 37056:1.0 37915:1.0 41781:1.0 
5.027285299497704E-4 0.0 1211:1.0 2373:1.0 4913:1.0 4913:1.0 4928:1.0 4928:1.0 6876:1.0 7808:1.0 9550:1.0 9567:1.0 11105:1.0 14421:1.0 18142:1.0 18142:1.0 18157:1.0 18157:1.0 20238:1.0 23006:1.0 30507:1.0 32258:1.0 36868:1.0 37062:1.0 40288:1.0 41779:1.0 43367:1.0 46403:1.0 
0.0 8.501566505953362E-4 1284:1.0 2876:1.0 4621:1.0 4621:1.0 4621:1.0 4621:1.0 4638:1.0 4638:1.0 4638:1.0 4638:1.0 5795:1.0 5810:1.0 6760:1.0 9492:1.0 15309:1.0 18077:1.0 26889:1.0 27329:1.0 28374:1.0 32125:1.0 33582:1.0 36839:1.0 38897:1.0 41484:1.0 
0.0017334895325627556 0.0010334480780783352 1284:1.0 2876:1.0 4621:1.0 4621:1.0 4621:1.0 4621:1.0 4638:1.0 4638:1.0 4638:1.0 4638:1.0 5795:1.0 5810:1.0 6760:1.0 9492:1.0 17617:1.0 18067:1.0 22548:1.0 22563:1.0 23522:1.0 27331:1.0 28811:1.0 32123:1.0 34214:1.0 36849:1.0 40527:1.0 41485:1.0 
4.9688424706648684E-5 0.0 1284:1.0 2876:1.0 4621:1.0 4621:1.0 4621:1.0 4621:1.0 4638:1.0 4638:1.0 4638:1.0 4638:1.0 5795:1.0 5810:1.0 6760:1.0 9492:1.0 17617:1.0 18067:1.0 21507:1.0 21523:1.0 22548:1.0 22563:1.0 23962:1.0 27329:1.0 29453:1.0 32133:1.0 35873:1.0 36850:1.0 38295:1.0 41485:1.0 
0.0017922350172023455 7.134118545798311E-4 1284:1.0 2876:1.0 4621:1.0 4621:1.0 4621:1.0 4621:1.0 4638:1.0 4638:1.0 4638:1.0 4638:1.0 5795:1.0 5810:1.0 6760:1.0 9492:1.0 17617:1.0 18067:1.0 21507:1.0 21507:1.0 21523:1.0 21523:1.0 22548:1.0 22563:1.0 24613:1.0 27339:1.0 31139:1.0 32134:1.0 33607:1.0 36850:1.0 39640:1.0 41474:1.0 
0.0 0.0013083923642361022 662:1.0 2880:1.0 4621:1.0 4638:1.0 5795:1.0 5795:1.0 5810:1.0 5810:1.0 6760:1.0 9492:1.0 15309:1.0 18077:1.0 27313:1.0 27329:1.0 30389:1.0 32133:1.0 32644:1.0 36850:1.0 37515:1.0 41474:1.0 
0.0039737859148913065 0.0027231642708508497 662:1.0 2880:1.0 4621:1.0 4638:1.0 5795:1.0 5795:1.0 5810:1.0 5810:1.0 6760:1.0 9492:1.0 18051:1.0 18067:1.0 22548:1.0 22563:1.0 25565:1.0 27339:1.0 27868:1.0 32134:1.0 32818:1.0 36839:1.0 40756:1.0 41487:1.0 
2.186351657332045E-6 0.0 776:1.0 2377:1.0 4913:1.0 4928:1.0 5572:1.0 7805:1.0 9550:1.0 9567:1.0 10724:1.0 10724:1.0 10739:1.0 10739:1.0 11678:1.0 14421:1.0 18142:1.0 18142:1.0 18157:1.0 18157:1.0 22802:1.0 23006:1.0 27713:1.0 32266:1.0 32703:1.0 37064:1.0 41098:1.0 41775:1.0 43224:1.0 46414:1.0 
6.739082183375929E-4 0.0 776:1.0 2377:1.0 4913:1.0 4928:1.0 5572:1.0 7805:1.0 9550:1.0 9567:1.0 10724:1.0 10724:1.0 10739:1.0 10739:1.0 11678:1.0 14421:1.0 16917:1.0 16917:1.0 16934:1.0 16934:1.0 18142:1.0 18142:1.0 18157:1.0 18157:1.0 22287:1.0 23003:1.0 28917:1.0 32269:1.0 35931:1.0 37052:1.0 40049:1.0 41768:1.0 44188:1.0 46416:1.0 
0.002863238011885593 1.3321777594027076E-4 776:1.0 2377:1.0 4913:1.0 4928:1.0 5572:1.0 7805:1.0 9550:1.0 9567:1.0 10724:1.0 10724:1.0 10739:1.0 10739:1.0 11678:1.0 14421:1.0 16917:1.0 16917:1.0 16934:1.0 16934:1.0 18142:1.0 18142:1.0 18157:1.0 18157:1.0 21834:1.0 22996:1.0 26436:1.0 26452:1.0 27477:1.0 27477:1.0 27492:1.0 27492:1.0 29921:1.0 32271:1.0 36386:1.0 37059:1.0 37209:1.0 41771:1.0 44043:1.0 46408:1.0 
6.125670137856438E-4 0.0 1134:1.0 2373:1.0 3851:1.0 3868:1.0 4913:1.0 4913:1.0 4928:1.0 4928:1.0 6669:1.0 7809:1.0 10724:1.0 10724:1.0 10739:1.0 10739:1.0 12812:1.0 14421:1.0 18142:1.0 18157:1.0 22802:1.0 23006:1.0 27713:1.0 32266:1.0 33140:1.0 37065:1.0 
0.0011160977308732618 0.0 71:1.0 2377:1.0 4913:1.0 4913:1.0 4928:1.0 4928:1.0 6579:1.0 7805:1.0 10724:1.0 10739:1.0 10912:1.0 14421:1.0 16917:1.0 16934:1.0 18142:1.0 18142:1.0 18142:1.0 18157:1.0 18157:1.0 18157:1.0 19603:1.0 23007:1.0 28290:1.0 32266:1.0 36868:1.0 37062:1.0 37351:1.0 41776:1.0 43826:1.0 46413:1.0 
0.0017752160419372504 0.0 71:1.0 2377:1.0 4913:1.0 4913:1.0 4928:1.0 4928:1.0 6579:1.0 7805:1.0 10724:1.0 10739:1.0 10912:1.0 14421:1.0 16917:1.0 16934:1.0 18142:1.0 18142:1.0 18142:1.0 18157:1.0 18157:1.0 18157:1.0 18969:1.0 23004:1.0 27477:1.0 27492:1.0 32069:1.0 32268:1.0 32573:1.0 37060:1.0 39143:1.0 41778:1.0 44322:1.0 46414:1.0 
7.149499264856958E-4 0.0 71:1.0 2377:1.0 4913:1.0 4913:1.0 4928:1.0 4928:1.0 6579:1.0 7805:1.0 10724:1.0 10739:1.0 10912:1.0 14421:1.0 16917:1.0 16917:1.0 16934:1.0 16934:1.0 18142:1.0 18142:1.0 18142:1.0 18157:1.0 18157:1.0 18157:1.0 22729:1.0 22996:1.0 27477:1.0 27477:1.0 27492:1.0 27492:1.0 29542:1.0 32268:1.0 34894:1.0 37063:1.0 38612:1.0 41768:1.0 44530:1.0 46407:1.0 
5.84680301208128E-4 0.0 1734:1.0 2880:1.0 5795:1.0 5795:1.0 5810:1.0 5810:1.0 6298:1.0 9492:1.0 13213:1.0 13213:1.0 13228:1.0 13228:1.0 17873:1.0 18077:1.0 22784:1.0 27337:1.0 30776:1.0 32133:1.0 34531:1.0 36839:1.0 37682:1.0 41487:1.0 
6.131983837191869E-4 5.716145742679843E-4 1754:1.0 2880:1.0 5795:1.0 5810:1.0 8956:1.0 9492:1.0 13213:1.0 13228:1.0 17873:1.0 18077:1.0 22784:1.0 27337:1.0 30776:1.0 32133:1.0 33607:1.0 36850:1.0 40395:1.0 41474:1.0 
6.132515807763166E-4 0.0 1830:1.0 2377:1.0 3851:1.0 3851:1.0 3851:1.0 3868:1.0 3868:1.0 3868:1.0 4913:1.0 4913:1.0 4928:1.0 4928:1.0 5537:1.0 7809:1.0 10724:1.0 10724:1.0 10724:1.0 10739:1.0 10739:1.0 10739:1.0 12112:1.0 14421:1.0 16917:1.0 16934:1.0 18142:1.0 18142:1.0 18157:1.0 18157:1.0 20571:1.0 22996:1.0 27477:1.0 27477:1.0 27492:1.0 27492:1.0 28923:1.0 32262:1.0 34755:1.0 37065:1.0 38637:1.0 41778:1.0 43224:1.0 46414:1.0 
3.951092536030442E-4 0.0 1830:1.0 2377:1.0 3851:1.0 3851:1.0 3851:1.0 3868:1.0 3868:1.0 3868:1.0 4913:1.0 4913:1.0 4928:1.0 4928:1.0 5537:1.0 7809:1.0 9550:1.0 9567:1.0 10724:1.0 10724:1.0 10724:1.0 10739:1.0 10739:1.0 10739:1.0 12522:1.0 14421:1.0 16917:1.0 16934:1.0 18142:1.0 18142:1.0 18142:1.0 18157:1.0 18157:1.0 18157:1.0 19336:1.0 22996:1.0 27477:1.0 27477:1.0 27492:1.0 27492:1.0 27544:1.0 32262:1.0 33140:1.0 37065:1.0 
0.001051613773541807 2.9061966779234355E-4 1995:1.0 2378:1.0 3851:1.0 3851:1.0 3868:1.0 3868:1.0 4913:1.0 4913:1.0 4928:1.0 4928:1.0 7255:1.0 7809:1.0 10724:1.0 10724:1.0 10739:1.0 10739:1.0 12680:1.0 14421:1.0 16917:1.0 16934:1.0 18142:1.0 18157:1.0 22134:1.0 23004:1.0 29542:1.0 32268:1.0 35029:1.0 37052:1.0 40063:1.0 41778:1.0 44535:1.0 46409:1.0 
6.746239713632496E-5 4.5203578092299304E-4 1911:1.0 2377:1.0 4913:1.0 4913:1.0 4928:1.0 4928:1.0 6446:1.0 7812:1.0 9550:1.0 9567:1.0 10724:1.0 10739:1.0 13748:1.0 14421:1.0 20238:1.0 23006:1.0 30200:1.0 32258:1.0 35318:1.0 37062:1.0 39864:1.0 41774:1.0 45544:1.0 46416:1.0 
4.8079908553574034E-4 0.0 1415:1.0 2377:1.0 3851:1.0 3868:1.0 4913:1.0 4913:1.0 4913:1.0 4928:1.0 4928:1.0 4928:1.0 5245:1.0 7805:1.0 10724:1.0 10724:1.0 10739:1.0 10739:1.0 11194:1.0 14421:1.0 18142:1.0 18157:1.0 20238:1.0 23006:1.0 28908:1.0 32258:1.0 34755:1.0 37065:1.0 41116:1.0 41773:1.0 43325:1.0 46413:1.0 
6.438767014348072E-4 2.762629744599998E-4 664:1.0 2377:1.0 3851:1.0 3868:1.0 4913:1.0 4913:1.0 4928:1.0 4928:1.0 6109:1.0 7809:1.0 10724:1.0 10724:1.0 10724:1.0 10739:1.0 10739:1.0 10739:1.0 11844:1.0 14421:1.0 18142:1.0 18157:1.0 20626:1.0 23009:1.0 30724:1.0 32269:1.0 33319:1.0 37060:1.0 41589:1.0 41778:1.0 42053:1.0 46411:1.0 
1.2052625501601935E-4 0.0 664:1.0 2377:1.0 3851:1.0 3868:1.0 4913:1.0 4913:1.0 4928:1.0 4928:1.0 6109:1.0 7809:1.0 10724:1.0 10724:1.0 10724:1.0 10739:1.0 10739:1.0 10739:1.0 11844:1.0 14421:1.0 18142:1.0 18157:1.0 19148:1.0 23004:1.0 27477:1.0 27477:1.0 27492:1.0 27492:1.0 32069:1.0 32268:1.0 32573:1.0 37060:1.0 39508:1.0 41781:1.0 46229:1.0 46413:1.0 
2.4391845665314597E-4 0.0 966:1.0 2377:1.0 4913:1.0 4913:1.0 4913:1.0 4928:1.0 4928:1.0 4928:1.0 5789:1.0 7812:1.0 10724:1.0 10739:1.0 11487:1.0 14421:1.0 18142:1.0 18142:1.0 18157:1.0 18157:1.0 22802:1.0 23006:1.0 27713:1.0 32266:1.0 34755:1.0 37065:1.0 41589:1.0 41778:1.0 43000:1.0 46414:1.0 
0.0021585562923058317 0.0 664:1.0 2377:1.0 3851:1.0 3868:1.0 4913:1.0 4913:1.0 4928:1.0 4928:1.0 6109:1.0 7809:1.0 10724:1.0 10724:1.0 10724:1.0 10739:1.0 10739:1.0 10739:1.0 11844:1.0 14421:1.0 18142:1.0 18157:1.0 19148:1.0 23004:1.0 26436:1.0 26452:1.0 27477:1.0 27477:1.0 27492:1.0 27492:1.0 29921:1.0 32271:1.0 36868:1.0 37062:1.0 38309:1.0 41779:1.0 45744:1.0 46406:1.0 
3.1524037877238254E-4 0.0 664:1.0 2377:1.0 3851:1.0 3851:1.0 3868:1.0 3868:1.0 4913:1.0 4913:1.0 4928:1.0 4928:1.0 5725:1.0 7809:1.0 9550:1.0 9550:1.0 9567:1.0 9567:1.0 10724:1.0 10724:1.0 10724:1.0 10739:1.0 10739:1.0 10739:1.0 11137:1.0 14421:1.0 18142:1.0 18142:1.0 18157:1.0 18157:1.0 19045:1.0 22996:1.0 27477:1.0 27477:1.0 27477:1.0 27492:1.0 27492:1.0 27492:1.0 29542:1.0 32268:1.0 33765:1.0 37063:1.0 40667:1.0 41768:1.0 44935:1.0 46407:1.0 
4.501638326826845E-4 6.042486258033888E-5 394:1.0 2377:1.0 3851:1.0 3868:1.0 4913:1.0 4913:1.0 4913:1.0 4928:1.0 4928:1.0 4928:1.0 7739:1.0 7809:1.0 10724:1.0 10724:1.0 10724:1.0 10739:1.0 10739:1.0 10739:1.0 10762:1.0 14421:1.0 18142:1.0 18157:1.0 20626:1.0 23009:1.0 30724:1.0 32269:1.0 32864:1.0 37060:1.0 41589:1.0 41778:1.0 42053:1.0 46411:1.0 
5.043014131374261E-4 0.0 394:1.0 2377:1.0 3851:1.0 3868:1.0 4913:1.0 4913:1.0 4913:1.0 4928:1.0 4928:1.0 4928:1.0 7739:1.0 7809:1.0 10724:1.0 10724:1.0 10724:1.0 10739:1.0 10739:1.0 10739:1.0 10762:1.0 14421:1.0 18142:1.0 18157:1.0 18682:1.0 23004:1.0 27477:1.0 27477:1.0 27492:1.0 27492:1.0 32069:1.0 32268:1.0 32573:1.0 37060:1.0 39508:1.0 41781:1.0 42570:1.0 46413:1.0 
2.405913820651904E-4 0.0 2319:1.0 2377:1.0 4913:1.0 4913:1.0 4913:1.0 4928:1.0 4928:1.0 4928:1.0 4947:1.0 7812:1.0 10724:1.0 10739:1.0 11134:1.0 14421:1.0 18142:1.0 18142:1.0 18157:1.0 18157:1.0 22802:1.0 23006:1.0 27713:1.0 32266:1.0 34755:1.0 37065:1.0 37873:1.0 41778:1.0 43000:1.0 46414:1.0 
0.0016150064998384224 0.0 394:1.0 2377:1.0 3851:1.0 3868:1.0 4913:1.0 4913:1.0 4913:1.0 4928:1.0 4928:1.0 4928:1.0 7739:1.0 7809:1.0 10724:1.0 10724:1.0 10724:1.0 10739:1.0 10739:1.0 10739:1.0 10762:1.0 14421:1.0 18142:1.0 18157:1.0 18682:1.0 23004:1.0 26436:1.0 26452:1.0 27477:1.0 27477:1.0 27492:1.0 27492:1.0 29921:1.0 32271:1.0 33098:1.0 37062:1.0 38309:1.0 41779:1.0 45744:1.0 46406:1.0 
0.0016485120972840937 0.0 394:1.0 2377:1.0 3851:1.0 3851:1.0 3868:1.0 3868:1.0 4913:1.0 4913:1.0 4913:1.0 4928:1.0 4928:1.0 4928:1.0 5725:1.0 7809:1.0 9550:1.0 9567:1.0 10724:1.0 10724:1.0 10724:1.0 10739:1.0 10739:1.0 10739:1.0 13021:1.0 14421:1.0 16917:1.0 16934:1.0 18142:1.0 18142:1.0 18157:1.0 18157:1.0 21220:1.0 22996:1.0 27477:1.0 27492:1.0 29542:1.0 32268:1.0 34706:1.0 37060:1.0 37915:1.0 41781:1.0 
5.313223427460585E-4 0.0 483:1.0 2377:1.0 3851:1.0 3868:1.0 4913:1.0 4913:1.0 4928:1.0 4928:1.0 6401:1.0 7805:1.0 10724:1.0 10724:1.0 10739:1.0 10739:1.0 12176:1.0 14421:1.0 18142:1.0 18142:1.0 18157:1.0 18157:1.0 22802:1.0 23006:1.0 27713:1.0 32266:1.0 34755:1.0 37065:1.0 38078:1.0 41770:1.0 43258:1.0 46414:1.0 
2.6833592925413807E-5 0.0 1774:1.0 2377:1.0 3851:1.0 3868:1.0 4913:1.0 4928:1.0 6401:1.0 7805:1.0 10724:1.0 10724:1.0 10739:1.0 10739:1.0 11863:1.0 14421:1.0 18142:1.0 18142:1.0 18157:1.0 18157:1.0 22802:1.0 23006:1.0 27713:1.0 32266:1.0 33140:1.0 37065:1.0 
0.005784221725268075 2.9211940333019663E-4 3263:1.0 3681:1.0 6177:1.0 6177:1.0 6194:1.0 6194:1.0 7402:1.0 7402:1.0 7402:1.0 7417:1.0 7417:1.0 7417:1.0 9886:1.0 12269:1.0 18802:1.0 21528:1.0 24140:1.0 26323:1.0 28297:1.0 31028:1.0 33448:1.0 35676:1.0 
0.002100487896114418 0.0 3263:1.0 3681:1.0 6177:1.0 6177:1.0 6194:1.0 6194:1.0 7402:1.0 7402:1.0 7402:1.0 7417:1.0 7417:1.0 7417:1.0 9387:1.0 12256:1.0 16737:1.0 16737:1.0 16737:1.0 16752:1.0 16752:1.0 16752:1.0 19181:1.0 21531:1.0 24154:1.0 26323:1.0 26879:1.0 31028:1.0 33405:1.0 35668:1.0 
0.002832556861991751 5.266972470025138E-4 3263:1.0 3681:1.0 6177:1.0 6177:1.0 6194:1.0 6194:1.0 7402:1.0 7402:1.0 7402:1.0 7417:1.0 7417:1.0 7417:1.0 7920:1.0 12256:1.0 16737:1.0 16737:1.0 16752:1.0 16752:1.0 19137:1.0 21523:1.0 23213:1.0 26323:1.0 30747:1.0 31028:1.0 33086:1.0 35673:1.0 
0.0039806676898594025 0.001229723312795954 3263:1.0 3681:1.0 6177:1.0 6177:1.0 6194:1.0 6194:1.0 7402:1.0 7402:1.0 7402:1.0 7417:1.0 7417:1.0 7417:1.0 9842:1.0 12261:1.0 16737:1.0 16752:1.0 18365:1.0 21529:1.0 26026:1.0 26312:1.0 28403:1.0 31038:1.0 33601:1.0 35671:1.0 
0.0017041865592202572 8.295915041074248E-4 1180:1.0 2377:1.0 4913:1.0 4928:1.0 7629:1.0 7805:1.0 10724:1.0 10739:1.0 12723:1.0 14421:1.0 18142:1.0 18157:1.0 20626:1.0 23009:1.0 28917:1.0 32269:1.0 33304:1.0 37060:1.0 41589:1.0 41778:1.0 42053:1.0 46411:1.0 
0.0 4.092370840874359E-4 1180:1.0 2377:1.0 4913:1.0 4928:1.0 7629:1.0 7805:1.0 10724:1.0 10739:1.0 12723:1.0 14421:1.0 18142:1.0 18157:1.0 19133:1.0 23004:1.0 27477:1.0 27477:1.0 27492:1.0 27492:1.0 32069:1.0 32268:1.0 32573:1.0 37060:1.0 39143:1.0 41778:1.0 45346:1.0 46414:1.0 
0.0026658076687407248 0.0 1180:1.0 2377:1.0 4913:1.0 4928:1.0 7629:1.0 7805:1.0 10724:1.0 10739:1.0 12723:1.0 14421:1.0 18142:1.0 18157:1.0 19133:1.0 23004:1.0 26436:1.0 26452:1.0 27477:1.0 27477:1.0 27492:1.0 27492:1.0 29542:1.0 32268:1.0 35954:1.0 37063:1.0 39645:1.0 41779:1.0 43560:1.0 46403:1.0 
8.225463182427847E-4 0.0 2223:1.0 2373:1.0 4913:1.0 4928:1.0 6482:1.0 7812:1.0 10724:1.0 10739:1.0 11475:1.0 14421:1.0 16917:1.0 16934:1.0 18142:1.0 18142:1.0 18157:1.0 18157:1.0 20238:1.0 23006:1.0 31140:1.0 32269:1.0 34894:1.0 37063:1.0 38874:1.0 41768:1.0 46229:1.0 46413:1.0 
0.0011457845645329247 0.0012859021140053807 2223:1.0 2373:1.0 4913:1.0 4928:1.0 6482:1.0 7812:1.0 10724:1.0 10739:1.0 11475:1.0 14421:1.0 16917:1.0 16934:1.0 18142:1.0 18142:1.0 18157:1.0 18157:1.0 19958:1.0 22996:1.0 27477:1.0 27477:1.0 27492:1.0 27492:1.0 32069:1.0 32268:1.0 36905:1.0 37052:1.0 39143:1.0 41778:1.0 43224:1.0 46414:1.0 
8.86974600990208E-4 0.0022289741886679206 1200:1.0 2385:1.0 7388:1.0 7807:1.0 10724:1.0 10724:1.0 10739:1.0 10739:1.0 14124:1.0 14421:1.0 21612:1.0 23005:1.0 29018:1.0 32268:1.0 36198:1.0 37052:1.0 38056:1.0 41772:1.0 42772:1.0 46405:1.0 
0.0 0.0019477180491288273 1335:1.0 2377:1.0 3851:1.0 3868:1.0 4913:1.0 4913:1.0 4928:1.0 4928:1.0 7276:1.0 7805:1.0 9550:1.0 9550:1.0 9567:1.0 9567:1.0 10724:1.0 10724:1.0 10724:1.0 10724:1.0 10724:1.0 10739:1.0 10739:1.0 10739:1.0 10739:1.0 10739:1.0 11676:1.0 14421:1.0 19708:1.0 23006:1.0 31387:1.0 32258:1.0 33755:1.0 37056:1.0 37915:1.0 41781:1.0 
0.0 3.341003803732597E-4 2071:1.0 3681:1.0 6177:1.0 6177:1.0 6194:1.0 6194:1.0 7402:1.0 7402:1.0 7417:1.0 7417:1.0 9633:1.0 12256:1.0 15696:1.0 15712:1.0 16737:1.0 16752:1.0 19181:1.0 21531:1.0 21691:1.0 26315:1.0 26843:1.0 31037:1.0 32828:1.0 35668:1.0 
0.0 0.0014449507020081397 1578:1.0 2373:1.0 3851:1.0 3868:1.0 4913:1.0 4913:1.0 4913:1.0 4928:1.0 4928:1.0 4928:1.0 6603:1.0 7809:1.0 10724:1.0 10724:1.0 10739:1.0 10739:1.0 12110:1.0 14421:1.0 22072:1.0 23009:1.0 27881:1.0 32266:1.0 36868:1.0 37062:1.0 37351:1.0 41776:1.0 43814:1.0 46416:1.0 
2.58229438771621E-5 0.0012553511016991923 1578:1.0 2373:1.0 3851:1.0 3868:1.0 4913:1.0 4913:1.0 4913:1.0 4928:1.0 4928:1.0 4928:1.0 6603:1.0 7809:1.0 10724:1.0 10724:1.0 10739:1.0 10739:1.0 12110:1.0 14421:1.0 18553:1.0 23004:1.0 27477:1.0 27492:1.0 32069:1.0 32268:1.0 32573:1.0 37060:1.0 39131:1.0 41781:1.0 42424:1.0 46407:1.0 
0.0015905640559322235 0.0012654519772946546 1373:1.0 2377:1.0 4913:1.0 4913:1.0 4928:1.0 4928:1.0 6008:1.0 7812:1.0 11029:1.0 14421:1.0 18142:1.0 18157:1.0 22802:1.0 23006:1.0 27713:1.0 32266:1.0 34370:1.0 37065:1.0 37727:1.0 41772:1.0 46229:1.0 46413:1.0 
0.0018741805221244702 0.001103948505930289 1578:1.0 2373:1.0 3851:1.0 3868:1.0 4913:1.0 4913:1.0 4913:1.0 4928:1.0 4928:1.0 4928:1.0 6603:1.0 7809:1.0 10724:1.0 10724:1.0 10739:1.0 10739:1.0 12110:1.0 14421:1.0 18553:1.0 23004:1.0 26436:1.0 26452:1.0 27477:1.0 27492:1.0 29530:1.0 32271:1.0 32952:1.0 37056:1.0 41589:1.0 41778:1.0 43926:1.0 46403:1.0 
0.001982096461842335 2.394236614844034E-4 1578:1.0 2373:1.0 3851:1.0 3868:1.0 4913:1.0 4913:1.0 4913:1.0 4928:1.0 4928:1.0 4928:1.0 6603:1.0 7809:1.0 10724:1.0 10724:1.0 10739:1.0 10739:1.0 12110:1.0 14421:1.0 18553:1.0 23004:1.0 26436:1.0 26436:1.0 26452:1.0 26452:1.0 27477:1.0 27492:1.0 28095:1.0 32262:1.0 36868:1.0 37062:1.0 39243:1.0 41768:1.0 43826:1.0 46413:1.0 
4.481923696193301E-4 1.9431261171117586E-4 1373:1.0 2377:1.0 4913:1.0 4913:1.0 4928:1.0 4928:1.0 5291:1.0 7808:1.0 9550:1.0 9550:1.0 9567:1.0 9567:1.0 10724:1.0 10724:1.0 10739:1.0 10739:1.0 11888:1.0 14421:1.0 22072:1.0 23009:1.0 29588:1.0 32266:1.0 34370:1.0 37065:1.0 39143:1.0 41778:1.0 43202:1.0 46403:1.0 
0.0014414278804676228 1.9183016274378328E-4 1373:1.0 2377:1.0 4913:1.0 4913:1.0 4928:1.0 4928:1.0 5291:1.0 7808:1.0 9550:1.0 9550:1.0 9567:1.0 9567:1.0 10724:1.0 10724:1.0 10739:1.0 10739:1.0 11888:1.0 14421:1.0 20284:1.0 23004:1.0 27477:1.0 27492:1.0 29530:1.0 32271:1.0 34382:1.0 37062:1.0 38514:1.0 41768:1.0 46268:1.0 46405:1.0 
5.070547784961156E-4 0.0 1373:1.0 2377:1.0 4913:1.0 4913:1.0 4928:1.0 4928:1.0 5291:1.0 7808:1.0 9550:1.0 9550:1.0 9567:1.0 9567:1.0 10724:1.0 10724:1.0 10739:1.0 10739:1.0 11888:1.0 14421:1.0 16917:1.0 16934:1.0 19580:1.0 22996:1.0 26436:1.0 26452:1.0 27477:1.0 27492:1.0 31515:1.0 32258:1.0 35607:1.0 37056:1.0 38078:1.0 41770:1.0 42200:1.0 46411:1.0 
0.0020125931367560705 4.883948724252153E-4 1373:1.0 2377:1.0 4913:1.0 4913:1.0 4928:1.0 4928:1.0 5291:1.0 7808:1.0 9550:1.0 9550:1.0 9567:1.0 9567:1.0 10724:1.0 10724:1.0 10739:1.0 10739:1.0 11888:1.0 14421:1.0 16917:1.0 16934:1.0 19580:1.0 22996:1.0 26436:1.0 26436:1.0 26452:1.0 26452:1.0 27477:1.0 27492:1.0 30784:1.0 32262:1.0 33303:1.0 37054:1.0 37501:1.0 41776:1.0 45544:1.0 46416:1.0 
0.0015136210352644413 0.0 1373:1.0 2377:1.0 4913:1.0 4913:1.0 4928:1.0 4928:1.0 5291:1.0 7808:1.0 9550:1.0 9550:1.0 9550:1.0 9550:1.0 9567:1.0 9567:1.0 9567:1.0 9567:1.0 10724:1.0 10724:1.0 10739:1.0 10739:1.0 11021:1.0 14421:1.0 22072:1.0 23009:1.0 28082:1.0 32266:1.0 34370:1.0 37065:1.0 39143:1.0 41778:1.0 45579:1.0 46403:1.0 
0.00176629592350263 0.0 1373:1.0 2377:1.0 4913:1.0 4913:1.0 4928:1.0 4928:1.0 5291:1.0 7808:1.0 9550:1.0 9550:1.0 9550:1.0 9550:1.0 9567:1.0 9567:1.0 9567:1.0 9567:1.0 10724:1.0 10724:1.0 10739:1.0 10739:1.0 11021:1.0 14421:1.0 18758:1.0 23004:1.0 27477:1.0 27492:1.0 29530:1.0 32271:1.0 34382:1.0 37062:1.0 40928:1.0 41768:1.0 43214:1.0 46407:1.0 
0.005856459116843944 0.0010383202942417596 1373:1.0 2377:1.0 4913:1.0 4913:1.0 4928:1.0 4928:1.0 5291:1.0 7808:1.0 9550:1.0 9550:1.0 9550:1.0 9550:1.0 9567:1.0 9567:1.0 9567:1.0 9567:1.0 10724:1.0 10724:1.0 10739:1.0 10739:1.0 11021:1.0 14421:1.0 16917:1.0 16917:1.0 16934:1.0 16934:1.0 22116:1.0 22996:1.0 27477:1.0 27492:1.0 30237:1.0 32262:1.0 
0.001404576461507877 0.0014372121775869506 386:1.0 2378:1.0 3851:1.0 3868:1.0 4913:1.0 4928:1.0 5109:1.0 7809:1.0 10724:1.0 10724:1.0 10724:1.0 10724:1.0 10724:1.0 10724:1.0 10739:1.0 10739:1.0 10739:1.0 10739:1.0 10739:1.0 10739:1.0 14393:1.0 14421:1.0 18142:1.0 18157:1.0 18273:1.0 22996:1.0 27477:1.0 27477:1.0 27477:1.0 27492:1.0 27492:1.0 27492:1.0 31964:1.0 32262:1.0 33140:1.0 37065:1.0 
0.0011148235723518916 0.0 1211:1.0 2373:1.0 4913:1.0 4913:1.0 4928:1.0 4928:1.0 5799:1.0 7809:1.0 9550:1.0 9567:1.0 10724:1.0 10739:1.0 12714:1.0 14421:1.0 18142:1.0 18142:1.0 18157:1.0 18157:1.0 20238:1.0 23006:1.0 30323:1.0 32258:1.0 34382:1.0 37062:1.0 38536:1.0 41779:1.0 43705:1.0 46411:1.0 
0.001206571042267636 0.001740622168229889 2865:1.0 2880:1.0 5795:1.0 5795:1.0 5795:1.0 5810:1.0 5810:1.0 5810:1.0 7785:1.0 9492:1.0 11988:1.0 12005:1.0 13213:1.0 13228:1.0 15309:1.0 18077:1.0 23988:1.0 27340:1.0 29329:1.0 32131:1.0 32986:1.0 36852:1.0 
0.0019808768824866587 0.0 716:1.0 2377:1.0 4913:1.0 4928:1.0 6401:1.0 7805:1.0 10724:1.0 10724:1.0 10739:1.0 10739:1.0 10768:1.0 14421:1.0 18142:1.0 18157:1.0 20238:1.0 23006:1.0 31942:1.0 32261:1.0 35103:1.0 37052:1.0 39508:1.0 41781:1.0 42772:1.0 46405:1.0 
7.489596227092061E-4 0.0 716:1.0 2377:1.0 4913:1.0 4928:1.0 6401:1.0 7805:1.0 10724:1.0 10724:1.0 10739:1.0 10739:1.0 10768:1.0 14421:1.0 16917:1.0 16917:1.0 16917:1.0 16917:1.0 16934:1.0 16934:1.0 16934:1.0 16934:1.0 18142:1.0 18157:1.0 19603:1.0 23007:1.0 30574:1.0 32262:1.0 34755:1.0 37065:1.0 40288:1.0 41779:1.0 42548:1.0 46403:1.0 
0.002626265318134132 9.391792117912173E-4 716:1.0 2377:1.0 4913:1.0 4928:1.0 6401:1.0 7805:1.0 10724:1.0 10724:1.0 10739:1.0 10739:1.0 10768:1.0 14421:1.0 16917:1.0 16917:1.0 16917:1.0 16917:1.0 16934:1.0 16934:1.0 16934:1.0 16934:1.0 18142:1.0 18157:1.0 21287:1.0 23000:1.0 27477:1.0 27492:1.0 29921:1.0 32271:1.0 35547:1.0 37063:1.0 37851:1.0 41768:1.0 42611:1.0 46416:1.0 
6.978608138719858E-4 0.0 716:1.0 2377:1.0 4913:1.0 4928:1.0 6401:1.0 7805:1.0 10724:1.0 10724:1.0 10739:1.0 10739:1.0 10768:1.0 14421:1.0 16917:1.0 16917:1.0 16917:1.0 16917:1.0 16934:1.0 16934:1.0 16934:1.0 16934:1.0 18142:1.0 18157:1.0 21287:1.0 23000:1.0 26436:1.0 26452:1.0 27477:1.0 27492:1.0 30724:1.0 32269:1.0 33076:1.0 37052:1.0 37915:1.0 41781:1.0 
0.00180808113546013 0.002052862652088657 1805:1.0 2876:1.0 5795:1.0 5795:1.0 5810:1.0 5810:1.0 6760:1.0 9492:1.0 15309:1.0 18077:1.0 25345:1.0 27329:1.0 30389:1.0 32133:1.0 36669:1.0 36839:1.0 39111:1.0 41479:1.0 
0.002982434125123799 0.003037281805002098 1805:1.0 2876:1.0 5795:1.0 5795:1.0 5810:1.0 5810:1.0 6760:1.0 9492:1.0 16055:1.0 18067:1.0 22548:1.0 22563:1.0 25565:1.0 27339:1.0 31948:1.0 32123:1.0 34431:1.0 36844:1.0 38480:1.0 41485:1.0 
9.188702332541556E-4 0.0021044446490334342 693:1.0 2373:1.0 4913:1.0 4928:1.0 6388:1.0 7817:1.0 10743:1.0 14421:1.0 18142:1.0 18157:1.0 22802:1.0 23006:1.0 27713:1.0 32266:1.0 34382:1.0 37062:1.0 39645:1.0 41779:1.0 43622:1.0 46406:1.0 
0.0015365368746753812 0.0017976365126789596 693:1.0 2373:1.0 4913:1.0 4928:1.0 6388:1.0 7817:1.0 10743:1.0 14421:1.0 16917:1.0 16934:1.0 18142:1.0 18157:1.0 20238:1.0 23006:1.0 30063:1.0 32269:1.0 34171:1.0 37055:1.0 41247:1.0 41773:1.0 44508:1.0 46403:1.0 
4.5633838882862396E-4 0.0 1177:1.0 2377:1.0 3851:1.0 3851:1.0 3851:1.0 3868:1.0 3868:1.0 3868:1.0 4913:1.0 4913:1.0 4913:1.0 4913:1.0 4928:1.0 4928:1.0 4928:1.0 4928:1.0 7003:1.0 7809:1.0 10724:1.0 10724:1.0 10724:1.0 10739:1.0 10739:1.0 10739:1.0 12216:1.0 14421:1.0 18142:1.0 18142:1.0 18157:1.0 18157:1.0 22802:1.0 23006:1.0 27713:1.0 32266:1.0 34382:1.0 37062:1.0 38147:1.0 41779:1.0 42579:1.0 46403:1.0 
2.683907606587602E-4 0.0 664:1.0 2377:1.0 3851:1.0 3868:1.0 4913:1.0 4913:1.0 4913:1.0 4928:1.0 4928:1.0 4928:1.0 5805:1.0 7812:1.0 10724:1.0 10739:1.0 11072:1.0 14421:1.0 18142:1.0 18142:1.0 18157:1.0 18157:1.0 20238:1.0 23006:1.0 29105:1.0 32269:1.0 36673:1.0 37052:1.0 38036:1.0 41772:1.0 44188:1.0 46416:1.0 
0.0011202028523940206 1.5913077499443872E-5 664:1.0 2377:1.0 3851:1.0 3868:1.0 4913:1.0 4913:1.0 4913:1.0 4928:1.0 4928:1.0 4928:1.0 5805:1.0 7812:1.0 10724:1.0 10739:1.0 11072:1.0 14421:1.0 18142:1.0 18142:1.0 18157:1.0 18157:1.0 22599:1.0 22996:1.0 27477:1.0 27477:1.0 27492:1.0 27492:1.0 28408:1.0 32262:1.0 34755:1.0 37065:1.0 38078:1.0 41770:1.0 41913:1.0 46406:1.0 
0.003371085446234811 0.0 1639:1.0 2377:1.0 3851:1.0 3851:1.0 3868:1.0 3868:1.0 4913:1.0 4928:1.0 5725:1.0 7809:1.0 9550:1.0 9567:1.0 10724:1.0 10724:1.0 10724:1.0 10739:1.0 10739:1.0 10739:1.0 11861:1.0 14421:1.0 18142:1.0 18157:1.0 18610:1.0 23004:1.0 26436:1.0 26452:1.0 27477:1.0 27477:1.0 27492:1.0 27492:1.0 29921:1.0 32271:1.0 33303:1.0 37054:1.0 37209:1.0 41771:1.0 45380:1.0 46408:1.0 
0.002398084805217983 0.00537809748241937 1200:1.0 2385:1.0 7388:1.0 7807:1.0 10724:1.0 10724:1.0 10739:1.0 10739:1.0 12723:1.0 14421:1.0 21612:1.0 23005:1.0 27984:1.0 32262:1.0 33140:1.0 37065:1.0 
2.995000256195118E-4 0.0 267:1.0 2373:1.0 3851:1.0 3851:1.0 3868:1.0 3868:1.0 4913:1.0 4928:1.0 5182:1.0 7809:1.0 10724:1.0 10724:1.0 10724:1.0 10739:1.0 10739:1.0 10739:1.0 14323:1.0 14421:1.0 16917:1.0 16934:1.0 18142:1.0 18157:1.0 20238:1.0 23006:1.0 31140:1.0 32269:1.0 34894:1.0 37063:1.0 37869:1.0 41768:1.0 42611:1.0 46416:1.0 
3.255591785424298E-4 0.0 1639:1.0 2377:1.0 3851:1.0 3851:1.0 3868:1.0 3868:1.0 4913:1.0 4928:1.0 5725:1.0 7809:1.0 9550:1.0 9567:1.0 10724:1.0 10724:1.0 10739:1.0 10739:1.0 11861:1.0 14421:1.0 18142:1.0 18157:1.0 20626:1.0 23009:1.0 28917:1.0 32269:1.0 32796:1.0 37060:1.0 41589:1.0 41778:1.0 42053:1.0 46411:1.0 
0.00342022909479625 0.0 1639:1.0 2377:1.0 3851:1.0 3851:1.0 3868:1.0 3868:1.0 4913:1.0 4928:1.0 5725:1.0 7809:1.0 9550:1.0 9567:1.0 10724:1.0 10724:1.0 10739:1.0 10739:1.0 11861:1.0 14421:1.0 18142:1.0 18157:1.0 18610:1.0 23004:1.0 26436:1.0 26452:1.0 27477:1.0 27477:1.0 27492:1.0 27492:1.0 29542:1.0 32268:1.0 33953:1.0 37063:1.0 41396:1.0 41768:1.0 42730:1.0 46407:1.0 
0.0016401763275956857 9.982496791693823E-4 849:1.0 2880:1.0 5795:1.0 5810:1.0 6940:1.0 9492:1.0 13213:1.0 13228:1.0 15309:1.0 18077:1.0 25151:1.0 27329:1.0 29453:1.0 32133:1.0 35569:1.0 36847:1.0 39802:1.0 41484:1.0 
3.7926518527706506E-4 2.755879306302995E-4 849:1.0 2880:1.0 5795:1.0 5810:1.0 6940:1.0 9492:1.0 11988:1.0 12005:1.0 13213:1.0 13228:1.0 15309:1.0 18077:1.0 26011:1.0 27337:1.0 30389:1.0 32133:1.0 32392:1.0 36845:1.0 39259:1.0 41487:1.0 
0.0 8.433827639485817E-6 1094:1.0 2377:1.0 4913:1.0 4928:1.0 7616:1.0 7809:1.0 9550:1.0 9567:1.0 10724:1.0 10724:1.0 10739:1.0 10739:1.0 13015:1.0 14421:1.0 16917:1.0 16934:1.0 18142:1.0 18157:1.0 20238:1.0 23006:1.0 28917:1.0 32269:1.0 35159:1.0 37052:1.0 39143:1.0 41778:1.0 41892:1.0 46409:1.0 
0.0010873511238051546 0.0013273089110764716 1094:1.0 2377:1.0 4913:1.0 4928:1.0 7616:1.0 7809:1.0 9550:1.0 9567:1.0 10724:1.0 10724:1.0 10739:1.0 10739:1.0 13015:1.0 14421:1.0 16917:1.0 16934:1.0 18142:1.0 18157:1.0 21042:1.0 22996:1.0 27477:1.0 27477:1.0 27492:1.0 27492:1.0 29542:1.0 32268:1.0 32409:1.0 37058:1.0 38078:1.0 41770:1.0 43224:1.0 46414:1.0 
0.0 1.4035914003502156E-4 1094:1.0 2377:1.0 4913:1.0 4928:1.0 7616:1.0 7809:1.0 9550:1.0 9550:1.0 9550:1.0 9567:1.0 9567:1.0 9567:1.0 10724:1.0 10724:1.0 10739:1.0 10739:1.0 11272:1.0 14421:1.0 18142:1.0 18142:1.0 18157:1.0 18157:1.0 22802:1.0 23006:1.0 27713:1.0 32266:1.0 33537:1.0 37055:1.0 39721:1.0 41773:1.0 43325:1.0 46413:1.0 
0.001337792680383171 8.563984247645295E-4 1094:1.0 2377:1.0 4913:1.0 4928:1.0 7616:1.0 7809:1.0 9550:1.0 9550:1.0 9550:1.0 9567:1.0 9567:1.0 9567:1.0 10724:1.0 10724:1.0 10739:1.0 10739:1.0 11272:1.0 14421:1.0 16917:1.0 16934:1.0 18142:1.0 18142:1.0 18157:1.0 18157:1.0 19372:1.0 22999:1.0 30140:1.0 32263:1.0 33866:1.0 37062:1.0 38043:1.0 41768:1.0 43826:1.0 46413:1.0 
0.0013146484513546209 1.4482512117114997E-4 213:1.0 2377:1.0 3851:1.0 3868:1.0 4913:1.0 4928:1.0 7271:1.0 7805:1.0 10724:1.0 10739:1.0 12148:1.0 14421:1.0 16917:1.0 16934:1.0 18142:1.0 18142:1.0 18157:1.0 18157:1.0 20991:1.0 23002:1.0 27477:1.0 27492:1.0 28573:1.0 32264:1.0 34755:1.0 37065:1.0 38305:1.0 41768:1.0 43826:1.0 46413:1.0 
0.002530773496443058 2.1977933733442358E-4 213:1.0 2377:1.0 3851:1.0 3868:1.0 4913:1.0 4928:1.0 7271:1.0 7805:1.0 10724:1.0 10739:1.0 12148:1.0 14421:1.0 16917:1.0 16934:1.0 18142:1.0 18142:1.0 18157:1.0 18157:1.0 20991:1.0 23002:1.0 26436:1.0 26452:1.0 27477:1.0 27492:1.0 29921:1.0 32271:1.0 33533:1.0 37052:1.0 39143:1.0 41778:1.0 45273:1.0 46407:1.0 
1.6164780741260426E-5 0.0 695:1.0 2377:1.0 3851:1.0 3868:1.0 4913:1.0 4928:1.0 7610:1.0 7805:1.0 9550:1.0 9567:1.0 10724:1.0 10739:1.0 12265:1.0 14421:1.0 16917:1.0 16934:1.0 18142:1.0 18142:1.0 18142:1.0 18157:1.0 18157:1.0 18157:1.0 19603:1.0 23007:1.0 28615:1.0 32266:1.0 36868:1.0 37062:1.0 37351:1.0 41776:1.0 42611:1.0 46416:1.0 
3.980617925761909E-4 0.0 695:1.0 2377:1.0 3851:1.0 3868:1.0 4913:1.0 4928:1.0 7610:1.0 7805:1.0 9550:1.0 9567:1.0 10724:1.0 10739:1.0 12265:1.0 14421:1.0 16917:1.0 16934:1.0 18142:1.0 18142:1.0 18142:1.0 18157:1.0 18157:1.0 18157:1.0 19299:1.0 23004:1.0 27477:1.0 27492:1.0 32069:1.0 32268:1.0 32573:1.0 37060:1.0 37915:1.0 41781:1.0 
8.958940591838903E-5 0.0 2206:1.0 2373:1.0 3851:1.0 3868:1.0 4913:1.0 4928:1.0 6137:1.0 7812:1.0 9550:1.0 9567:1.0 10724:1.0 10724:1.0 10724:1.0 10739:1.0 10739:1.0 10739:1.0 11601:1.0 14421:1.0 18142:1.0 18157:1.0 22802:1.0 23006:1.0 27713:1.0 32266:1.0 33140:1.0 37065:1.0 
7.003565045368242E-4 0.0 1464:1.0 2373:1.0 4913:1.0 4928:1.0 5572:1.0 7805:1.0 9550:1.0 9550:1.0 9567:1.0 9567:1.0 10724:1.0 10724:1.0 10739:1.0 10739:1.0 11842:1.0 14421:1.0 18142:1.0 18142:1.0 18157:1.0 18157:1.0 22802:1.0 23006:1.0 27713:1.0 32266:1.0 32703:1.0 37064:1.0 41098:1.0 41775:1.0 44956:1.0 46414:1.0 
2.9902998785820705E-4 1.2970187836854025E-4 1464:1.0 2373:1.0 4913:1.0 4928:1.0 5572:1.0 7805:1.0 9550:1.0 9550:1.0 9567:1.0 9567:1.0 10724:1.0 10724:1.0 10739:1.0 10739:1.0 11842:1.0 14421:1.0 16917:1.0 16917:1.0 16934:1.0 16934:1.0 18142:1.0 18142:1.0 18157:1.0 18157:1.0 22287:1.0 23003:1.0 30724:1.0 32269:1.0 35931:1.0 37052:1.0 39399:1.0 41780:1.0 42611:1.0 46416:1.0 
9.134997360304563E-4 0.0 1464:1.0 2373:1.0 4913:1.0 4928:1.0 5572:1.0 7805:1.0 9550:1.0 9550:1.0 9567:1.0 9567:1.0 10724:1.0 10724:1.0 10739:1.0 10739:1.0 11842:1.0 14421:1.0 16917:1.0 16917:1.0 16934:1.0 16934:1.0 18142:1.0 18142:1.0 18157:1.0 18157:1.0 21834:1.0 22996:1.0 27477:1.0 27477:1.0 27492:1.0 27492:1.0 29808:1.0 32270:1.0 33140:1.0 37065:1.0 
8.254971596294225E-4 8.424640803269001E-4 1639:1.0 2377:1.0 3851:1.0 3851:1.0 3868:1.0 3868:1.0 4913:1.0 4928:1.0 5725:1.0 7809:1.0 9550:1.0 9567:1.0 10724:1.0 10724:1.0 10739:1.0 10739:1.0 11861:1.0 14421:1.0 18142:1.0 18157:1.0 20626:1.0 23009:1.0 28917:1.0 32269:1.0 32796:1.0 37060:1.0 39143:1.0 41778:1.0 43409:1.0 46414:1.0 
0.0025825441674243357 6.426718829198996E-4 664:1.0 2377:1.0 3851:1.0 3868:1.0 4913:1.0 4913:1.0 4928:1.0 4928:1.0 5805:1.0 7812:1.0 10724:1.0 10739:1.0 11072:1.0 14421:1.0 18142:1.0 18142:1.0 18157:1.0 18157:1.0 22599:1.0 22996:1.0 27477:1.0 27477:1.0 27492:1.0 27492:1.0 28408:1.0 32262:1.0 33140:1.0 37065:1.0 
0.002035362838962601 0.0028816321291926 372:1.0 2373:1.0 4913:1.0 4928:1.0 6388:1.0 7817:1.0 12723:1.0 14421:1.0 18142:1.0 18157:1.0 21612:1.0 23005:1.0 29542:1.0 32268:1.0 35503:1.0 37052:1.0 40236:1.0 41772:1.0 42772:1.0 46405:1.0 
4.098775407526025E-4 0.0 1578:1.0 2373:1.0 3851:1.0 3851:1.0 3868:1.0 3868:1.0 4913:1.0 4913:1.0 4913:1.0 4913:1.0 4928:1.0 4928:1.0 4928:1.0 4928:1.0 7520:1.0 7809:1.0 11475:1.0 14421:1.0 18142:1.0 18157:1.0 22802:1.0 23006:1.0 27713:1.0 32266:1.0 34382:1.0 37062:1.0 38536:1.0 41779:1.0 43721:1.0 46403:1.0 
0.0 8.436033480729739E-5 1578:1.0 2373:1.0 3851:1.0 3851:1.0 3868:1.0 3868:1.0 4913:1.0 4913:1.0 4913:1.0 4913:1.0 4928:1.0 4928:1.0 4928:1.0 4928:1.0 7520:1.0 7809:1.0 11475:1.0 14421:1.0 16917:1.0 16934:1.0 18142:1.0 18157:1.0 20238:1.0 23006:1.0 28917:1.0 32269:1.0 34274:1.0 37052:1.0 37915:1.0 41781:1.0 
4.273593422885527E-4 0.0 1639:1.0 2377:1.0 4913:1.0 4913:1.0 4913:1.0 4928:1.0 4928:1.0 4928:1.0 6401:1.0 7805:1.0 10724:1.0 10724:1.0 10739:1.0 10739:1.0 14113:1.0 14421:1.0 18142:1.0 18142:1.0 18157:1.0 18157:1.0 22802:1.0 23006:1.0 27713:1.0 32266:1.0 33140:1.0 37065:1.0 
0.0041131692743298755 0.0015493855814009627 3263:1.0 3681:1.0 7402:1.0 7402:1.0 7402:1.0 7417:1.0 7417:1.0 7417:1.0 9886:1.0 12269:1.0 17947:1.0 21529:1.0 25629:1.0 26315:1.0 28190:1.0 31033:1.0 34216:1.0 35674:1.0 
0.0015986515235012512 9.398965001105817E-4 3263:1.0 3681:1.0 7402:1.0 7402:1.0 7402:1.0 7417:1.0 7417:1.0 7417:1.0 9275:1.0 12261:1.0 16737:1.0 16737:1.0 16737:1.0 16752:1.0 16752:1.0 16752:1.0 19984:1.0 21529:1.0 21648:1.0 26312:1.0 28403:1.0 31038:1.0 32453:1.0 35671:1.0 
0.0022698705930851047 0.0012300441005159554 3263:1.0 3681:1.0 7402:1.0 7402:1.0 7402:1.0 7417:1.0 7417:1.0 7417:1.0 9275:1.0 12261:1.0 15696:1.0 15712:1.0 16737:1.0 16737:1.0 16737:1.0 16752:1.0 16752:1.0 16752:1.0 17105:1.0 21528:1.0 23025:1.0 26323:1.0 29817:1.0 31039:1.0 31947:1.0 35663:1.0 
0.0021724355330590946 0.0 3263:1.0 3681:1.0 6177:1.0 6177:1.0 6177:1.0 6194:1.0 6194:1.0 6194:1.0 7402:1.0 7402:1.0 7402:1.0 7417:1.0 7417:1.0 7417:1.0 9498:1.0 12266:1.0 19309:1.0 21529:1.0 23534:1.0 26316:1.0 28905:1.0 31039:1.0 31577:1.0 35663:1.0 
9.486139721315188E-4 0.0 3263:1.0 3681:1.0 6177:1.0 6177:1.0 6177:1.0 6194:1.0 6194:1.0 6194:1.0 7402:1.0 7402:1.0 7402:1.0 7417:1.0 7417:1.0 7417:1.0 9387:1.0 12260:1.0 16737:1.0 16737:1.0 16752:1.0 16752:1.0 19323:1.0 21529:1.0 22103:1.0 26312:1.0 28725:1.0 31033:1.0 32669:1.0 35674:1.0 
0.0 8.793470751500411E-4 3263:1.0 3681:1.0 6177:1.0 6177:1.0 6177:1.0 6194:1.0 6194:1.0 6194:1.0 7402:1.0 7402:1.0 7402:1.0 7417:1.0 7417:1.0 7417:1.0 9842:1.0 12261:1.0 16737:1.0 16737:1.0 16752:1.0 16752:1.0 18365:1.0 21529:1.0 26026:1.0 26312:1.0 28403:1.0 31038:1.0 33601:1.0 35671:1.0 
9.238650868040803E-4 0.0 1180:1.0 2377:1.0 4913:1.0 4913:1.0 4928:1.0 4928:1.0 7629:1.0 7805:1.0 10724:1.0 10739:1.0 12723:1.0 14421:1.0 18142:1.0 18157:1.0 20626:1.0 23009:1.0 28917:1.0 32269:1.0 33304:1.0 37060:1.0 41589:1.0 41778:1.0 42053:1.0 46411:1.0 
6.959185770680429E-4 0.0 1180:1.0 2377:1.0 4913:1.0 4913:1.0 4928:1.0 4928:1.0 7629:1.0 7805:1.0 10724:1.0 10739:1.0 12723:1.0 14421:1.0 18142:1.0 18157:1.0 19133:1.0 23004:1.0 26436:1.0 26452:1.0 27477:1.0 27477:1.0 27492:1.0 27492:1.0 29542:1.0 32268:1.0 35954:1.0 37063:1.0 39645:1.0 41779:1.0 43560:1.0 46407:1.0 
0.002700702630880609 0.003976400257772442 1898:1.0 3681:1.0 7402:1.0 7417:1.0 7493:1.0 12259:1.0 19465:1.0 21523:1.0 23126:1.0 26322:1.0 27796:1.0 31039:1.0 34953:1.0 35663:1.0 
2.3822600251982882E-4 6.147600822478378E-4 1335:1.0 2377:1.0 3851:1.0 3851:1.0 3868:1.0 3868:1.0 4913:1.0 4913:1.0 4928:1.0 4928:1.0 5276:1.0 7807:1.0 10724:1.0 10739:1.0 14124:1.0 14421:1.0 21612:1.0 23005:1.0 29018:1.0 32268:1.0 36198:1.0 37052:1.0 38056:1.0 41772:1.0 42772:1.0 46405:1.0 
2.713255775935169E-4 0.008247423105141781 1335:1.0 2377:1.0 3851:1.0 3851:1.0 3868:1.0 3868:1.0 4913:1.0 4913:1.0 4928:1.0 4928:1.0 7276:1.0 7805:1.0 9550:1.0 9550:1.0 9567:1.0 9567:1.0 10724:1.0 10724:1.0 10724:1.0 10724:1.0 10739:1.0 10739:1.0 10739:1.0 10739:1.0 11676:1.0 14421:1.0 22110:1.0 22996:1.0 27477:1.0 27492:1.0 28907:1.0 32262:1.0 33140:1.0 37065:1.0 
0.003893906891848536 0.0034180802522972248 2042:1.0 3681:1.0 7402:1.0 7402:1.0 7417:1.0 7417:1.0 10872:1.0 12265:1.0 20752:1.0 21529:1.0 24102:1.0 26312:1.0 28403:1.0 31038:1.0 33354:1.0 35663:1.0 
1.5999849833865998E-4 5.705201174537335E-4 2071:1.0 3681:1.0 7402:1.0 7402:1.0 7417:1.0 7417:1.0 9498:1.0 12266:1.0 19767:1.0 21518:1.0 23642:1.0 26322:1.0 26836:1.0 31036:1.0 33448:1.0 35676:1.0 
0.0015041092839708095 0.0010900879513668898 2071:1.0 3681:1.0 6177:1.0 6194:1.0 7402:1.0 7402:1.0 7417:1.0 7417:1.0 9498:1.0 12266:1.0 17201:1.0 21526:1.0 24015:1.0 26325:1.0 28528:1.0 31028:1.0 33086:1.0 35673:1.0 
0.0020733591875306025 5.212772613029205E-4 2071:1.0 3681:1.0 6177:1.0 6177:1.0 6194:1.0 6194:1.0 7402:1.0 7402:1.0 7417:1.0 7417:1.0 9886:1.0 12269:1.0 18933:1.0 21518:1.0 23642:1.0 26322:1.0 29578:1.0 31028:1.0 33991:1.0 35673:1.0 
0.0017886198227965802 0.0021872595562668243 2071:1.0 3681:1.0 6177:1.0 6177:1.0 6194:1.0 6194:1.0 7402:1.0 7402:1.0 7417:1.0 7417:1.0 9633:1.0 12256:1.0 16737:1.0 16752:1.0 18802:1.0 21528:1.0 24838:1.0 26312:1.0 29323:1.0 31038:1.0 34265:1.0 35663:1.0 
0.0010376909952845566 4.2680938885538257E-4 2071:1.0 3681:1.0 6177:1.0 6177:1.0 6194:1.0 6194:1.0 7402:1.0 7402:1.0 7417:1.0 7417:1.0 9633:1.0 12256:1.0 15696:1.0 15712:1.0 16737:1.0 16752:1.0 18802:1.0 21528:1.0 23213:1.0 26323:1.0 30605:1.0 31028:1.0 33389:1.0 35667:1.0 
0.00321893645982647 8.158633469488436E-7 2071:1.0 3681:1.0 6177:1.0 6177:1.0 6194:1.0 6194:1.0 7402:1.0 7402:1.0 7417:1.0 7417:1.0 9633:1.0 12256:1.0 15696:1.0 15696:1.0 15712:1.0 15712:1.0 16737:1.0 16752:1.0 19181:1.0 21531:1.0 21691:1.0 26315:1.0 26843:1.0 31037:1.0 32828:1.0 35668:1.0 
0.002188425193194625 8.428750041673594E-4 2071:1.0 3681:1.0 6177:1.0 6177:1.0 6177:1.0 6194:1.0 6194:1.0 6194:1.0 7402:1.0 7402:1.0 7417:1.0 7417:1.0 7493:1.0 12259:1.0 17208:1.0 21527:1.0 23377:1.0 26317:1.0 29863:1.0 31036:1.0 31826:1.0 35663:1.0 
0.0010713347578985588 0.001052295667228574 1373:1.0 2377:1.0 4913:1.0 4913:1.0 4928:1.0 4928:1.0 5291:1.0 7805:1.0 9550:1.0 9550:1.0 9567:1.0 9567:1.0 10724:1.0 10739:1.0 11888:1.0 14421:1.0 19580:1.0 22996:1.0 27477:1.0 27492:1.0 32111:1.0 32260:1.0 36323:1.0 37052:1.0 40347:1.0 41772:1.0 42772:1.0 46405:1.0 
0.002186612536854619 8.49363292265322E-5 1373:1.0 2377:1.0 4913:1.0 4913:1.0 4928:1.0 4928:1.0 5291:1.0 7805:1.0 9550:1.0 9550:1.0 9567:1.0 9567:1.0 10724:1.0 10739:1.0 11888:1.0 14421:1.0 19580:1.0 22996:1.0 26436:1.0 26452:1.0 27477:1.0 27492:1.0 31515:1.0 32258:1.0 35607:1.0 37056:1.0 38078:1.0 41770:1.0 42200:1.0 46411:1.0 
7.12256977747722E-5 0.001193450866116845 1373:1.0 2377:1.0 4913:1.0 4913:1.0 4928:1.0 4928:1.0 5291:1.0 7805:1.0 9550:1.0 9550:1.0 9550:1.0 9550:1.0 9567:1.0 9567:1.0 9567:1.0 9567:1.0 10724:1.0 10739:1.0 11021:1.0 14421:1.0 22110:1.0 22996:1.0 27477:1.0 27492:1.0 28907:1.0 32262:1.0 34382:1.0 37062:1.0 40934:1.0 41768:1.0 44485:1.0 46407:1.0 
0.00246001574095446 0.0026742427214811715 1200:1.0 2385:1.0 7388:1.0 7807:1.0 11767:1.0 14421:1.0 16917:1.0 16934:1.0 18142:1.0 18142:1.0 18157:1.0 18157:1.0 18233:1.0 22999:1.0 31645:1.0 32263:1.0 35318:1.0 37062:1.0 38536:1.0 41779:1.0 44781:1.0 46403:1.0 
2.4138115102710983E-4 0.0 813:1.0 2876:1.0 4621:1.0 4621:1.0 4621:1.0 4621:1.0 4638:1.0 4638:1.0 4638:1.0 4638:1.0 5795:1.0 5810:1.0 7923:1.0 9492:1.0 13213:1.0 13213:1.0 13228:1.0 13228:1.0 17873:1.0 18077:1.0 22784:1.0 27337:1.0 29916:1.0 32128:1.0 33793:1.0 36850:1.0 40497:1.0 41474:1.0 
4.7910601679324364E-4 0.0 250:1.0 2377:1.0 4913:1.0 4913:1.0 4913:1.0 4928:1.0 4928:1.0 4928:1.0 5860:1.0 7805:1.0 9550:1.0 9567:1.0 10724:1.0 10724:1.0 10739:1.0 10739:1.0 14364:1.0 14421:1.0 16917:1.0 16934:1.0 18142:1.0 18142:1.0 18157:1.0 18157:1.0 20771:1.0 23007:1.0 27828:1.0 32266:1.0 34544:1.0 37052:1.0 37915:1.0 41781:1.0 
0.0029399163852810747 0.0 250:1.0 2377:1.0 4913:1.0 4913:1.0 4913:1.0 4928:1.0 4928:1.0 4928:1.0 5860:1.0 7805:1.0 9550:1.0 9567:1.0 10724:1.0 10724:1.0 10739:1.0 10739:1.0 14364:1.0 14421:1.0 16917:1.0 16934:1.0 18142:1.0 18142:1.0 18157:1.0 18157:1.0 18499:1.0 23004:1.0 27477:1.0 27492:1.0 29706:1.0 32258:1.0 33140:1.0 37065:1.0 
4.27782592688193E-4 0.0 916:1.0 2377:1.0 3851:1.0 3851:1.0 3868:1.0 3868:1.0 4913:1.0 4928:1.0 7003:1.0 7809:1.0 10724:1.0 10724:1.0 10724:1.0 10724:1.0 10739:1.0 10739:1.0 10739:1.0 10739:1.0 11793:1.0 14421:1.0 18142:1.0 18157:1.0 20626:1.0 23009:1.0 30857:1.0 32258:1.0 33151:1.0 37052:1.0 38536:1.0 41779:1.0 43820:1.0 46411:1.0 
0.0012264022404184975 4.7971196955642133E-4 916:1.0 2377:1.0 3851:1.0 3851:1.0 3868:1.0 3868:1.0 4913:1.0 4928:1.0 7003:1.0 7809:1.0 10724:1.0 10724:1.0 10724:1.0 10724:1.0 10739:1.0 10739:1.0 10739:1.0 10739:1.0 11793:1.0 14421:1.0 18142:1.0 18157:1.0 21573:1.0 22996:1.0 27477:1.0 27492:1.0 28298:1.0 32258:1.0 33765:1.0 37063:1.0 39137:1.0 41776:1.0 46229:1.0 46413:1.0 
0.0012594937756509076 0.0 916:1.0 2377:1.0 3851:1.0 3851:1.0 3868:1.0 3868:1.0 4913:1.0 4928:1.0 7003:1.0 7809:1.0 10724:1.0 10724:1.0 10724:1.0 10724:1.0 10739:1.0 10739:1.0 10739:1.0 10739:1.0 11793:1.0 14421:1.0 18142:1.0 18157:1.0 21573:1.0 22996:1.0 26436:1.0 26452:1.0 27477:1.0 27492:1.0 28917:1.0 32269:1.0 34376:1.0 37060:1.0 41589:1.0 41778:1.0 42053:1.0 46411:1.0 
5.86812005500526E-4 0.0 681:1.0 2380:1.0 4913:1.0 4928:1.0 6966:1.0 7805:1.0 9550:1.0 9567:1.0 10724:1.0 10739:1.0 12291:1.0 14421:1.0 18142:1.0 18157:1.0 22802:1.0 23006:1.0 27713:1.0 32266:1.0 34382:1.0 37062:1.0 38722:1.0 41779:1.0 46038:1.0 46403:1.0 
3.2677924234800887E-4 0.0 681:1.0 2380:1.0 4913:1.0 4928:1.0 6966:1.0 7805:1.0 9550:1.0 9567:1.0 10724:1.0 10739:1.0 12291:1.0 14421:1.0 16917:1.0 16934:1.0 18142:1.0 18157:1.0 22599:1.0 22996:1.0 27477:1.0 27477:1.0 27492:1.0 27492:1.0 28408:1.0 32262:1.0 34755:1.0 37065:1.0 39922:1.0 41778:1.0 42948:1.0 46403:1.0 
6.401071919251992E-4 9.0915901778916E-4 681:1.0 2380:1.0 4913:1.0 4928:1.0 6966:1.0 7805:1.0 9550:1.0 9567:1.0 10724:1.0 10739:1.0 12291:1.0 14421:1.0 16917:1.0 16917:1.0 16934:1.0 16934:1.0 18142:1.0 18157:1.0 20626:1.0 23009:1.0 30350:1.0 32268:1.0 33484:1.0 37052:1.0 39143:1.0 41778:1.0 43224:1.0 46414:1.0 
0.001877698713744067 6.879965949494305E-4 681:1.0 2380:1.0 4913:1.0 4928:1.0 6966:1.0 7805:1.0 9550:1.0 9567:1.0 10724:1.0 10739:1.0 12291:1.0 14421:1.0 16917:1.0 16917:1.0 16934:1.0 16934:1.0 18142:1.0 18157:1.0 19317:1.0 22996:1.0 27477:1.0 27477:1.0 27492:1.0 27492:1.0 29542:1.0 32268:1.0 33765:1.0 37063:1.0 40943:1.0 41774:1.0 43826:1.0 46413:1.0 
1.1374317671305325E-4 0.0 2062:1.0 2373:1.0 3851:1.0 3868:1.0 4913:1.0 4913:1.0 4913:1.0 4913:1.0 4928:1.0 4928:1.0 4928:1.0 4928:1.0 6930:1.0 7809:1.0 10724:1.0 10724:1.0 10724:1.0 10739:1.0 10739:1.0 10739:1.0 11212:1.0 14421:1.0 18142:1.0 18157:1.0 22802:1.0 23006:1.0 27713:1.0 32266:1.0 33140:1.0 37065:1.0 
0.0011740714292004313 3.483701125837307E-4 63:1.0 2373:1.0 3851:1.0 3868:1.0 4913:1.0 4913:1.0 4928:1.0 4928:1.0 5338:1.0 7807:1.0 10724:1.0 10739:1.0 10768:1.0 14421:1.0 18142:1.0 18142:1.0 18157:1.0 18157:1.0 22287:1.0 22999:1.0 27503:1.0 32263:1.0 33765:1.0 37063:1.0 40483:1.0 41768:1.0 46035:1.0 46407:1.0 
6.452615616962518E-4 1.4508367223427034E-4 63:1.0 2373:1.0 3851:1.0 3868:1.0 4913:1.0 4913:1.0 4928:1.0 4928:1.0 5338:1.0 7807:1.0 10724:1.0 10739:1.0 10768:1.0 14421:1.0 18142:1.0 18142:1.0 18157:1.0 18157:1.0 18168:1.0 23001:1.0 27477:1.0 27492:1.0 28917:1.0 32269:1.0 35745:1.0 37052:1.0 41393:1.0 41772:1.0 42057:1.0 46407:1.0 
3.8884184781902214E-4 2.2080402037295352E-4 276:1.0 2377:1.0 3851:1.0 3851:1.0 3868:1.0 3868:1.0 4913:1.0 4913:1.0 4928:1.0 4928:1.0 5574:1.0 7809:1.0 9550:1.0 9567:1.0 10912:1.0 14421:1.0 18142:1.0 18157:1.0 20238:1.0 23006:1.0 30200:1.0 32258:1.0 33303:1.0 37054:1.0 38047:1.0 41775:1.0 45084:1.0 46412:1.0 
0.0028724763697057258 0.002541519586893839 1839:1.0 2377:1.0 4913:1.0 4913:1.0 4928:1.0 4928:1.0 7324:1.0 7805:1.0 10724:1.0 10739:1.0 11689:1.0 14421:1.0 18142:1.0 18157:1.0 21158:1.0 22996:1.0 27477:1.0 27492:1.0 29542:1.0 32268:1.0 32780:1.0 37052:1.0 40063:1.0 41778:1.0 43224:1.0 46414:1.0 
2.7011794893955487E-4 6.747797924058358E-5 2184:1.0 2377:1.0 4913:1.0 4928:1.0 7442:1.0 7809:1.0 10724:1.0 10724:1.0 10739:1.0 10739:1.0 10970:1.0 14421:1.0 18142:1.0 18157:1.0 22802:1.0 23006:1.0 27713:1.0 32266:1.0 35318:1.0 37062:1.0 38050:1.0 41768:1.0 42570:1.0 46413:1.0 
2.8991912449050886E-4 0.0 1690:1.0 2373:1.0 3851:1.0 3851:1.0 3868:1.0 3868:1.0 4913:1.0 4913:1.0 4913:1.0 4913:1.0 4928:1.0 4928:1.0 4928:1.0 4928:1.0 5513:1.0 7809:1.0 10724:1.0 10724:1.0 10739:1.0 10739:1.0 12877:1.0 14421:1.0 18142:1.0 18157:1.0 20238:1.0 23006:1.0 30507:1.0 32258:1.0 35180:1.0 37052:1.0 39143:1.0 41778:1.0 44956:1.0 46414:1.0 
4.6581276394231974E-4 8.537651093051424E-4 2327:1.0 2377:1.0 3851:1.0 3851:1.0 3868:1.0 3868:1.0 4913:1.0 4928:1.0 7764:1.0 7805:1.0 9550:1.0 9550:1.0 9567:1.0 9567:1.0 10724:1.0 10739:1.0 12128:1.0 14421:1.0 22109:1.0 23000:1.0 30409:1.0 32258:1.0 34755:1.0 37065:1.0 41746:1.0 41776:1.0 44724:1.0 46403:1.0 
2.0690080702065252E-4 0.0012422515043148145 2327:1.0 2377:1.0 3851:1.0 3851:1.0 3868:1.0 3868:1.0 4913:1.0 4928:1.0 7764:1.0 7805:1.0 9550:1.0 9550:1.0 9550:1.0 9550:1.0 9550:1.0 9550:1.0 9567:1.0 9567:1.0 9567:1.0 9567:1.0 9567:1.0 9567:1.0 10724:1.0 10739:1.0 11326:1.0 14421:1.0 22484:1.0 23000:1.0 30409:1.0 32258:1.0 33303:1.0 37054:1.0 37542:1.0 41776:1.0 44647:1.0 46403:1.0 
0.0 2.600799510569523E-4 1293:1.0 2377:1.0 4913:1.0 4928:1.0 6979:1.0 7808:1.0 9550:1.0 9567:1.0 11523:1.0 14421:1.0 16917:1.0 16934:1.0 18142:1.0 18142:1.0 18157:1.0 18157:1.0 20238:1.0 23006:1.0 30063:1.0 32269:1.0 34700:1.0 37052:1.0 38542:1.0 41772:1.0 44731:1.0 46413:1.0 
7.36722537850728E-4 6.101701993787124E-4 1293:1.0 2377:1.0 4913:1.0 4928:1.0 6979:1.0 7808:1.0 9550:1.0 9567:1.0 11523:1.0 14421:1.0 16917:1.0 16934:1.0 18142:1.0 18142:1.0 18157:1.0 18157:1.0 20571:1.0 22996:1.0 27477:1.0 27477:1.0 27492:1.0 27492:1.0 28923:1.0 32262:1.0 35318:1.0 37062:1.0 38722:1.0 41779:1.0 42232:1.0 46407:1.0 
9.348591938432361E-4 9.353575115713336E-4 56:1.0 2373:1.0 4913:1.0 4913:1.0 4913:1.0 4928:1.0 4928:1.0 4928:1.0 6134:1.0 7808:1.0 11376:1.0 14421:1.0 18142:1.0 18157:1.0 20238:1.0 23006:1.0 29167:1.0 32258:1.0 33040:1.0 37062:1.0 37393:1.0 41773:1.0 43325:1.0 46413:1.0 
0.003465055179576117 0.0037366950711213787 2095:1.0 3681:1.0 7402:1.0 7417:1.0 9498:1.0 12266:1.0 19767:1.0 21518:1.0 25421:1.0 26325:1.0 29686:1.0 31028:1.0 33086:1.0 35673:1.0 
0.0033260933727635353 9.206290122340261E-4 2095:1.0 3681:1.0 6177:1.0 6194:1.0 7402:1.0 7417:1.0 11332:1.0 12269:1.0 20126:1.0 21518:1.0 23642:1.0 26322:1.0 27796:1.0 31039:1.0 35061:1.0 35663:1.0 
0.004198185026006023 0.003759349040145272 2095:1.0 3681:1.0 6177:1.0 6194:1.0 7402:1.0 7417:1.0 10842:1.0 12256:1.0 16737:1.0 16752:1.0 18802:1.0 21528:1.0 23025:1.0 26323:1.0 30415:1.0 31028:1.0 35295:1.0 35667:1.0 
0.00421233136866681 0.0014007044642301977 2095:1.0 3681:1.0 6177:1.0 6194:1.0 7402:1.0 7417:1.0 10842:1.0 12256:1.0 15696:1.0 15712:1.0 16737:1.0 16752:1.0 18790:1.0 21531:1.0 23263:1.0 26315:1.0 29288:1.0 31033:1.0 35004:1.0 35670:1.0 
0.0022664384478840523 0.002612472164585371 2095:1.0 3681:1.0 6177:1.0 6177:1.0 6194:1.0 6194:1.0 7402:1.0 7417:1.0 9107:1.0 12259:1.0 19719:1.0 21523:1.0 25629:1.0 26319:1.0 29921:1.0 31037:1.0 32484:1.0 35674:1.0 
4.348120603911207E-4 0.0013496878007724811 1769:1.0 2379:1.0 4979:1.0 7809:1.0 9550:1.0 9550:1.0 9550:1.0 9567:1.0 9567:1.0 9567:1.0 14342:1.0 14421:1.0 18142:1.0 18142:1.0 18157:1.0 18157:1.0 22802:1.0 23006:1.0 27713:1.0 32266:1.0 34799:1.0 37065:1.0 38091:1.0 41773:1.0 44322:1.0 46414:1.0 
5.803961756392066E-4 5.499033061431843E-4 353:1.0 2373:1.0 4913:1.0 4928:1.0 5341:1.0 7814:1.0 12714:1.0 14421:1.0 18142:1.0 18142:1.0 18142:1.0 18157:1.0 18157:1.0 18157:1.0 22802:1.0 23006:1.0 27713:1.0 32266:1.0 35318:1.0 37062:1.0 40075:1.0 41768:1.0 43814:1.0 46416:1.0 
0.0011378802976294929 0.0010105786527393075 353:1.0 2373:1.0 4913:1.0 4928:1.0 5341:1.0 7814:1.0 12714:1.0 14421:1.0 16917:1.0 16934:1.0 18142:1.0 18142:1.0 18142:1.0 18157:1.0 18157:1.0 18157:1.0 21206:1.0 23006:1.0 30507:1.0 32258:1.0 34370:1.0 37065:1.0 39552:1.0 41781:1.0 43409:1.0 46414:1.0 
4.6379454323681763E-4 0.0 2153:1.0 2376:1.0 4913:1.0 4928:1.0 7741:1.0 7809:1.0 9550:1.0 9567:1.0 10724:1.0 10724:1.0 10724:1.0 10739:1.0 10739:1.0 10739:1.0 12835:1.0 14421:1.0 18142:1.0 18157:1.0 20238:1.0 23006:1.0 30200:1.0 32258:1.0 35881:1.0 37059:1.0 38722:1.0 41779:1.0 43950:1.0 46403:1.0 
0.002706856318428864 0.0022460581993284006 1425:1.0 2880:1.0 5795:1.0 5810:1.0 6861:1.0 9492:1.0 13213:1.0 13228:1.0 15309:1.0 18077:1.0 25271:1.0 27329:1.0 28211:1.0 32136:1.0 
0.0011813388169729724 3.427087824206408E-4 459:1.0 2373:1.0 3851:1.0 3868:1.0 4913:1.0 4913:1.0 4928:1.0 4928:1.0 5338:1.0 7807:1.0 10724:1.0 10739:1.0 10768:1.0 14421:1.0 18142:1.0 18142:1.0 18157:1.0 18157:1.0 22287:1.0 22999:1.0 27503:1.0 32263:1.0 33765:1.0 37063:1.0 40483:1.0 41768:1.0 46035:1.0 46407:1.0 
6.469287987085661E-4 1.469236045372748E-4 459:1.0 2373:1.0 3851:1.0 3868:1.0 4913:1.0 4913:1.0 4928:1.0 4928:1.0 5338:1.0 7807:1.0 10724:1.0 10739:1.0 10768:1.0 14421:1.0 18142:1.0 18142:1.0 18157:1.0 18157:1.0 18168:1.0 23001:1.0 27477:1.0 27492:1.0 28917:1.0 32269:1.0 35745:1.0 37052:1.0 41393:1.0 41772:1.0 42612:1.0 46407:1.0 
0.0 5.679189171781639E-4 1690:1.0 2373:1.0 3851:1.0 3868:1.0 4913:1.0 4913:1.0 4913:1.0 4928:1.0 4928:1.0 4928:1.0 7593:1.0 7808:1.0 10724:1.0 10739:1.0 12877:1.0 14421:1.0 18142:1.0 18157:1.0 20238:1.0 23006:1.0 30507:1.0 32258:1.0 35180:1.0 37052:1.0 39143:1.0 41778:1.0 43907:1.0 46414:1.0 
0.0032338072897141862 0.0034388296887310627 185:1.0 3681:1.0 7402:1.0 7417:1.0 12062:1.0 12266:1.0 16973:1.0 21526:1.0 23642:1.0 26322:1.0 28905:1.0 31039:1.0 35470:1.0 35663:1.0 
0.0016992421977252087 0.0026455086668801396 185:1.0 3681:1.0 6177:1.0 6194:1.0 7402:1.0 7417:1.0 9498:1.0 12266:1.0 19323:1.0 21529:1.0 26109:1.0 26312:1.0 30731:1.0 31033:1.0 32669:1.0 35674:1.0 
2.2396515738652356E-4 0.0 959:1.0 2880:1.0 5795:1.0 5795:1.0 5810:1.0 5810:1.0 6176:1.0 9492:1.0 13213:1.0 13213:1.0 13213:1.0 13228:1.0 13228:1.0 13228:1.0 17873:1.0 18077:1.0 22784:1.0 27337:1.0 29453:1.0 32133:1.0 34716:1.0 36850:1.0 41281:1.0 41474:1.0 
2.27425692617422E-4 3.33857451645967E-4 959:1.0 2880:1.0 5795:1.0 5795:1.0 5810:1.0 5810:1.0 6176:1.0 9492:1.0 11988:1.0 12005:1.0 13213:1.0 13213:1.0 13213:1.0 13228:1.0 13228:1.0 13228:1.0 15309:1.0 18077:1.0 25134:1.0 27340:1.0 31920:1.0 32123:1.0 34579:1.0 36852:1.0 38897:1.0 41484:1.0 
1.2054552876908954E-4 7.347820599002764E-4 115:1.0 2373:1.0 4913:1.0 4928:1.0 6934:1.0 7809:1.0 10724:1.0 10724:1.0 10724:1.0 10739:1.0 10739:1.0 10739:1.0 13790:1.0 14421:1.0 20238:1.0 23006:1.0 28733:1.0 32266:1.0 34382:1.0 37062:1.0 39301:1.0 41768:1.0 43826:1.0 46413:1.0 
7.857616702920526E-4 0.001823699548301789 115:1.0 2373:1.0 4913:1.0 4928:1.0 6934:1.0 7809:1.0 10724:1.0 10724:1.0 10724:1.0 10739:1.0 10739:1.0 10739:1.0 13790:1.0 14421:1.0 19418:1.0 23004:1.0 27477:1.0 27492:1.0 29542:1.0 32268:1.0 34544:1.0 37052:1.0 39143:1.0 41778:1.0 45086:1.0 46403:1.0 
0.0012855207420956441 7.376563143236488E-4 1643:1.0 2377:1.0 4913:1.0 4913:1.0 4913:1.0 4928:1.0 4928:1.0 4928:1.0 7326:1.0 7812:1.0 11689:1.0 14421:1.0 18142:1.0 18157:1.0 20238:1.0 23006:1.0 29706:1.0 32258:1.0 34382:1.0 37062:1.0 40419:1.0 41768:1.0 43826:1.0 46413:1.0 
0.0032659341694315923 1.4662899762271035E-4 115:1.0 2373:1.0 4913:1.0 4928:1.0 6934:1.0 7809:1.0 10724:1.0 10724:1.0 10724:1.0 10739:1.0 10739:1.0 10739:1.0 13790:1.0 14421:1.0 19418:1.0 23004:1.0 26436:1.0 26452:1.0 27477:1.0 27492:1.0 29542:1.0 32268:1.0 35681:1.0 37052:1.0 39143:1.0 41778:1.0 45631:1.0 46403:1.0 
8.357097211033303E-4 4.3803948920925364E-5 1643:1.0 2377:1.0 4913:1.0 4913:1.0 4913:1.0 4928:1.0 4928:1.0 4928:1.0 7326:1.0 7812:1.0 11689:1.0 14421:1.0 16917:1.0 16934:1.0 18142:1.0 18157:1.0 20238:1.0 23006:1.0 30859:1.0 32258:1.0 34382:1.0 37062:1.0 40980:1.0 41768:1.0 44188:1.0 46416:1.0 
6.14418068216706E-4 0.001864984661073746 2561:1.0 2878:1.0 4621:1.0 4638:1.0 5795:1.0 5810:1.0 9095:1.0 9492:1.0 13213:1.0 13228:1.0 17873:1.0 18077:1.0 22784:1.0 27337:1.0 29453:1.0 32133:1.0 34716:1.0 36850:1.0 41281:1.0 41474:1.0 
9.149069751376068E-4 0.0011347892242503333 2561:1.0 2878:1.0 4621:1.0 4638:1.0 5795:1.0 5810:1.0 9095:1.0 9492:1.0 11988:1.0 12005:1.0 13213:1.0 13228:1.0 15309:1.0 18077:1.0 25134:1.0 27340:1.0 31920:1.0 32123:1.0 36656:1.0 36844:1.0 40815:1.0 41481:1.0 
4.322992467570975E-4 0.0 1216:1.0 2876:1.0 4621:1.0 4621:1.0 4621:1.0 4621:1.0 4638:1.0 4638:1.0 4638:1.0 4638:1.0 5795:1.0 5795:1.0 5795:1.0 5795:1.0 5795:1.0 5810:1.0 5810:1.0 5810:1.0 5810:1.0 5810:1.0 7882:1.0 9492:1.0 13213:1.0 13213:1.0 13228:1.0 13228:1.0 15309:1.0 18077:1.0 25134:1.0 27340:1.0 27524:1.0 32131:1.0 32633:1.0 36839:1.0 38897:1.0 41484:1.0 
0.0017706133485534989 2.510858938164846E-4 1216:1.0 2876:1.0 4621:1.0 4621:1.0 4621:1.0 4621:1.0 4638:1.0 4638:1.0 4638:1.0 4638:1.0 5795:1.0 5795:1.0 5795:1.0 5795:1.0 5795:1.0 5810:1.0 5810:1.0 5810:1.0 5810:1.0 5810:1.0 7882:1.0 9492:1.0 13213:1.0 13213:1.0 13228:1.0 13228:1.0 13671:1.0 18067:1.0 22548:1.0 22548:1.0 22563:1.0 22563:1.0 24613:1.0 27339:1.0 28836:1.0 32134:1.0 32811:1.0 36845:1.0 39259:1.0 41487:1.0 
7.46385619729079E-4 2.397250471444362E-4 1216:1.0 2876:1.0 4621:1.0 4621:1.0 4621:1.0 4621:1.0 4638:1.0 4638:1.0 4638:1.0 4638:1.0 5795:1.0 5795:1.0 5795:1.0 5795:1.0 5795:1.0 5810:1.0 5810:1.0 5810:1.0 5810:1.0 5810:1.0 7882:1.0 9492:1.0 11988:1.0 11988:1.0 11988:1.0 12005:1.0 12005:1.0 12005:1.0 13213:1.0 13213:1.0 13228:1.0 13228:1.0 14496:1.0 18070:1.0 24626:1.0 27329:1.0 31134:1.0 32128:1.0 35715:1.0 36843:1.0 37877:1.0 41474:1.0 
0.00173081739132138 0.0 1216:1.0 2876:1.0 4621:1.0 4621:1.0 4621:1.0 4621:1.0 4638:1.0 4638:1.0 4638:1.0 4638:1.0 5795:1.0 5795:1.0 5795:1.0 5795:1.0 5795:1.0 5810:1.0 5810:1.0 5810:1.0 5810:1.0 5810:1.0 7882:1.0 9492:1.0 11988:1.0 11988:1.0 11988:1.0 12005:1.0 12005:1.0 12005:1.0 13213:1.0 13213:1.0 13228:1.0 13228:1.0 15322:1.0 18067:1.0 22548:1.0 22563:1.0 26323:1.0 27334:1.0 30979:1.0 32127:1.0 33185:1.0 36839:1.0 38396:1.0 41484:1.0 
0.0010214789914276415 0.0 1216:1.0 2876:1.0 4621:1.0 4621:1.0 4621:1.0 4621:1.0 4638:1.0 4638:1.0 4638:1.0 4638:1.0 5795:1.0 5795:1.0 5795:1.0 5795:1.0 5795:1.0 5810:1.0 5810:1.0 5810:1.0 5810:1.0 5810:1.0 7882:1.0 9492:1.0 11988:1.0 11988:1.0 11988:1.0 12005:1.0 12005:1.0 12005:1.0 13213:1.0 13213:1.0 13228:1.0 13228:1.0 16882:1.0 18071:1.0 22548:1.0 22548:1.0 22563:1.0 22563:1.0 23559:1.0 27329:1.0 28937:1.0 32133:1.0 34716:1.0 36850:1.0 36950:1.0 41482:1.0 
0.00489127628845454 0.007762162775492908 3626:1.0 3681:1.0 8424:1.0 12260:1.0 19380:1.0 21518:1.0 25298:1.0 26324:1.0 30296:1.0 31041:1.0 33341:1.0 35676:1.0 
-0.0010143046919638514 0.0 2074:1.0 2880:1.0 5795:1.0 5795:1.0 5795:1.0 5795:1.0 5795:1.0 5810:1.0 5810:1.0 5810:1.0 5810:1.0 5810:1.0 7585:1.0 9492:1.0 13213:1.0 13213:1.0 13228:1.0 13228:1.0 13453:1.0 18075:1.0 22548:1.0 22563:1.0 24613:1.0 27339:1.0 28836:1.0 32134:1.0 36224:1.0 36845:1.0 39259:1.0 41487:1.0 
-0.0012234000286393582 4.939530892402015E-5 2074:1.0 2880:1.0 5795:1.0 5795:1.0 5795:1.0 5795:1.0 5795:1.0 5810:1.0 5810:1.0 5810:1.0 5810:1.0 5810:1.0 7585:1.0 9492:1.0 11988:1.0 12005:1.0 13213:1.0 13213:1.0 13228:1.0 13228:1.0 17415:1.0 18073:1.0 22548:1.0 22548:1.0 22563:1.0 22563:1.0 24992:1.0 27342:1.0 29166:1.0 32123:1.0 33708:1.0 36849:1.0 38295:1.0 41485:1.0 
-0.0012819041483561797 0.0 2074:1.0 2880:1.0 4621:1.0 4638:1.0 5795:1.0 5795:1.0 5795:1.0 5795:1.0 5795:1.0 5810:1.0 5810:1.0 5810:1.0 5810:1.0 5810:1.0 6560:1.0 9492:1.0 13213:1.0 13213:1.0 13228:1.0 13228:1.0 13453:1.0 18075:1.0 22548:1.0 22563:1.0 25565:1.0 27339:1.0 29814:1.0 32129:1.0 33149:1.0 36841:1.0 37645:1.0 41480:1.0 
-8.709692145223076E-4 0.0 2074:1.0 2880:1.0 4621:1.0 4638:1.0 5795:1.0 5795:1.0 5795:1.0 5795:1.0 5795:1.0 5810:1.0 5810:1.0 5810:1.0 5810:1.0 5810:1.0 6560:1.0 9492:1.0 11988:1.0 12005:1.0 13213:1.0 13213:1.0 13228:1.0 13228:1.0 15685:1.0 18073:1.0 21507:1.0 21507:1.0 21523:1.0 21523:1.0 22548:1.0 22563:1.0 24992:1.0 27342:1.0 28336:1.0 32129:1.0 32393:1.0 36844:1.0 40815:1.0 41481:1.0 
-0.002016436795133425 0.001004397410037176 2074:1.0 2880:1.0 4621:1.0 4638:1.0 5795:1.0 5795:1.0 5795:1.0 5795:1.0 5795:1.0 5810:1.0 5810:1.0 5810:1.0 5810:1.0 5810:1.0 6560:1.0 9492:1.0 11988:1.0 11988:1.0 12005:1.0 12005:1.0 13213:1.0 13213:1.0 13228:1.0 13228:1.0 15697:1.0 18080:1.0 23483:1.0 27335:1.0 27615:1.0 32128:1.0 36169:1.0 36846:1.0 37371:1.0 41480:1.0 
-6.22949541700373E-4 8.952473040713955E-5 2373:1.0 2880:1.0 5795:1.0 5810:1.0 7919:1.0 9492:1.0 13213:1.0 13213:1.0 13228:1.0 13228:1.0 13453:1.0 18075:1.0 22548:1.0 22563:1.0 24613:1.0 27339:1.0 28444:1.0 32134:1.0 34723:1.0 36839:1.0 38897:1.0 41484:1.0 
-0.0029112074528699367 0.0 2373:1.0 2880:1.0 5795:1.0 5810:1.0 7919:1.0 9492:1.0 11988:1.0 12005:1.0 13213:1.0 13213:1.0 13228:1.0 13228:1.0 15849:1.0 18067:1.0 21507:1.0 21523:1.0 22548:1.0 22548:1.0 22563:1.0 22563:1.0 23522:1.0 27331:1.0 28836:1.0 32134:1.0 36749:1.0 36845:1.0 39824:1.0 41478:1.0 
-9.242591079890251E-4 8.513990651983847E-4 622:1.0 2880:1.0 5795:1.0 5810:1.0 5848:1.0 9492:1.0 13213:1.0 13228:1.0 13453:1.0 18075:1.0 22548:1.0 22563:1.0 24613:1.0 27339:1.0 28444:1.0 32134:1.0 34723:1.0 36839:1.0 39802:1.0 41484:1.0 
-0.002226570266097016 2.3207976135342684E-4 622:1.0 2880:1.0 5795:1.0 5810:1.0 5848:1.0 9492:1.0 11988:1.0 12005:1.0 13213:1.0 13228:1.0 15849:1.0 18067:1.0 21507:1.0 21507:1.0 21523:1.0 21523:1.0 22548:1.0 22548:1.0 22563:1.0 22563:1.0 23256:1.0 27339:1.0 28836:1.0 32134:1.0 33699:1.0 36839:1.0 37641:1.0 41484:1.0 
-0.0012624148119644047 0.0015359831779066906 1972:1.0 2880:1.0 5795:1.0 5810:1.0 8396:1.0 9492:1.0 13213:1.0 13228:1.0 13453:1.0 18075:1.0 22548:1.0 22563:1.0 25565:1.0 27339:1.0 29777:1.0 32123:1.0 34579:1.0 36852:1.0 39662:1.0 41484:1.0 
-0.0020897733406272084 6.382192132561523E-4 1254:1.0 2373:1.0 4913:1.0 4928:1.0 7713:1.0 7809:1.0 10724:1.0 10724:1.0 10739:1.0 10739:1.0 12714:1.0 14421:1.0 18142:1.0 18142:1.0 18157:1.0 18157:1.0 19132:1.0 22998:1.0 28917:1.0 32269:1.0 35673:1.0 37060:1.0 41589:1.0 41778:1.0 42053:1.0 46411:1.0 
-0.004678146311244318 0.003654971728649882 1296:1.0 3681:1.0 7402:1.0 7402:1.0 7417:1.0 7417:1.0 8392:1.0 12258:1.0 18177:1.0 21529:1.0 24118:1.0 26320:1.0 28403:1.0 31038:1.0 33709:1.0 35663:1.0 
-0.0014353794974318506 6.339596352973702E-4 1019:1.0 2883:1.0 4621:1.0 4638:1.0 5795:1.0 5795:1.0 5810:1.0 5810:1.0 7751:1.0 9492:1.0 13213:1.0 13228:1.0 15981:1.0 18067:1.0 22548:1.0 22563:1.0 22638:1.0 27332:1.0 27582:1.0 32128:1.0 35134:1.0 36849:1.0 40208:1.0 41480:1.0 
-0.0017261373191574812 8.138670338315834E-4 1296:1.0 3681:1.0 6177:1.0 6194:1.0 7402:1.0 7402:1.0 7417:1.0 7417:1.0 9995:1.0 12264:1.0 15696:1.0 15712:1.0 16737:1.0 16752:1.0 16827:1.0 21521:1.0 21771:1.0 26317:1.0 29323:1.0 31038:1.0 34397:1.0 35669:1.0 
-5.072281956443834E-4 0.001549886254745465 673:1.0 2373:1.0 4913:1.0 4928:1.0 7326:1.0 7812:1.0 10724:1.0 10739:1.0 11689:1.0 14421:1.0 18142:1.0 18157:1.0 19193:1.0 22996:1.0 27477:1.0 27492:1.0 30494:1.0 32268:1.0 33373:1.0 37063:1.0 37604:1.0 41768:1.0 43826:1.0 46413:1.0 
-3.9337681527902584E-4 0.0 1918:1.0 2373:1.0 3851:1.0 3868:1.0 4913:1.0 4913:1.0 4913:1.0 4928:1.0 4928:1.0 4928:1.0 5741:1.0 7805:1.0 10724:1.0 10739:1.0 13790:1.0 14421:1.0 18142:1.0 18157:1.0 19418:1.0 23004:1.0 26436:1.0 26452:1.0 27477:1.0 27492:1.0 30494:1.0 32268:1.0 33373:1.0 37063:1.0 37604:1.0 41768:1.0 43826:1.0 46413:1.0 
-0.0020292719424035684 0.0014512309098214772 778:1.0 2880:1.0 4621:1.0 4621:1.0 4638:1.0 4638:1.0 5795:1.0 5810:1.0 6708:1.0 9492:1.0 13213:1.0 13228:1.0 16291:1.0 18067:1.0 22548:1.0 22563:1.0 24256:1.0 27334:1.0 28937:1.0 32133:1.0 32735:1.0 36847:1.0 37958:1.0 41474:1.0 
-0.0039625844413575745 0.0017964696746604935 767:1.0 2876:1.0 4621:1.0 4638:1.0 5795:1.0 5795:1.0 5810:1.0 5810:1.0 6176:1.0 9492:1.0 13213:1.0 13228:1.0 16291:1.0 18067:1.0 22548:1.0 22563:1.0 23592:1.0 27340:1.0 31683:1.0 32123:1.0 34214:1.0 36849:1.0 41258:1.0 41474:1.0 
-0.002194140420534253 0.0 2202:1.0 2378:1.0 3851:1.0 3851:1.0 3868:1.0 3868:1.0 4913:1.0 4928:1.0 5198:1.0 7805:1.0 10724:1.0 10739:1.0 12811:1.0 14421:1.0 18142:1.0 18157:1.0 18711:1.0 22996:1.0 26436:1.0 26452:1.0 27477:1.0 27477:1.0 27492:1.0 27492:1.0 28086:1.0 32263:1.0 33866:1.0 37062:1.0 38536:1.0 41779:1.0 45554:1.0 46403:1.0 
-0.0010519101998522568 0.0 1112:1.0 2376:1.0 3851:1.0 3851:1.0 3868:1.0 3868:1.0 4913:1.0 4928:1.0 5052:1.0 7809:1.0 10724:1.0 10739:1.0 12982:1.0 14421:1.0 18142:1.0 18157:1.0 18382:1.0 23004:1.0 27477:1.0 27492:1.0 29542:1.0 32268:1.0 34894:1.0 37063:1.0 40610:1.0 41768:1.0 43826:1.0 46413:1.0 
-0.0018024106995684665 6.325848351026978E-5 1112:1.0 2376:1.0 3851:1.0 3851:1.0 3868:1.0 3868:1.0 4913:1.0 4928:1.0 5052:1.0 7809:1.0 10724:1.0 10739:1.0 12982:1.0 14421:1.0 16917:1.0 16934:1.0 18142:1.0 18157:1.0 21777:1.0 22996:1.0 26436:1.0 26452:1.0 27477:1.0 27477:1.0 27492:1.0 27492:1.0 29921:1.0 32271:1.0 33303:1.0 37054:1.0 38722:1.0 41779:1.0 42204:1.0 46406:1.0 
-0.002342429760388988 0.0036474880970084975 1200:1.0 2385:1.0 7388:1.0 7807:1.0 13987:1.0 14421:1.0 18142:1.0 18157:1.0 19859:1.0 22996:1.0 27477:1.0 27492:1.0 29880:1.0 32263:1.0 36369:1.0 37059:1.0 39949:1.0 41774:1.0 45722:1.0 46408:1.0 
-0.004245204436434764 0.004611551498266532 2551:1.0 2876:1.0 5795:1.0 5795:1.0 5810:1.0 5810:1.0 6975:1.0 9492:1.0 14901:1.0 18073:1.0 22612:1.0 27334:1.0 30389:1.0 32133:1.0 35610:1.0 36839:1.0 39134:1.0 41487:1.0 
-3.765122923328588E-4 2.215221104423838E-4 377:1.0 2377:1.0 3851:1.0 3851:1.0 3851:1.0 3851:1.0 3851:1.0 3851:1.0 3851:1.0 3868:1.0 3868:1.0 3868:1.0 3868:1.0 3868:1.0 3868:1.0 3868:1.0 4913:1.0 4913:1.0 4928:1.0 4928:1.0 5736:1.0 7809:1.0 10724:1.0 10724:1.0 10739:1.0 10739:1.0 11262:1.0 14421:1.0 18142:1.0 18157:1.0 18717:1.0 23010:1.0 30494:1.0 32268:1.0 35331:1.0 37052:1.0 38078:1.0 41770:1.0 43003:1.0 46408:1.0 
-6.319364816575469E-4 0.0018212363985776363 670:1.0 2377:1.0 3851:1.0 3851:1.0 3851:1.0 3868:1.0 3868:1.0 3868:1.0 4913:1.0 4913:1.0 4928:1.0 4928:1.0 5642:1.0 7809:1.0 12104:1.0 14421:1.0 18142:1.0 18157:1.0 18717:1.0 23010:1.0 30494:1.0 32268:1.0 33765:1.0 37063:1.0 40667:1.0 41768:1.0 44063:1.0 46416:1.0 
-0.0017347484632316164 0.0014374262780086481 1020:1.0 2377:1.0 3851:1.0 3868:1.0 5474:1.0 7805:1.0 10724:1.0 10724:1.0 10739:1.0 10739:1.0 11262:1.0 14421:1.0 18142:1.0 18142:1.0 18157:1.0 18157:1.0 18717:1.0 23010:1.0 29790:1.0 32271:1.0 33140:1.0 37065:1.0 
-5.054902949513836E-4 0.0 128:1.0 2377:1.0 3851:1.0 3851:1.0 3868:1.0 3868:1.0 4913:1.0 4913:1.0 4928:1.0 4928:1.0 5389:1.0 7809:1.0 9550:1.0 9567:1.0 10724:1.0 10724:1.0 10724:1.0 10724:1.0 10724:1.0 10724:1.0 10739:1.0 10739:1.0 10739:1.0 10739:1.0 10739:1.0 10739:1.0 13462:1.0 14421:1.0 18142:1.0 18142:1.0 18157:1.0 18157:1.0 18717:1.0 23010:1.0 29542:1.0 32268:1.0 33765:1.0 37063:1.0 41153:1.0 41774:1.0 44188:1.0 46416:1.0 
-9.448040684204364E-4 0.0 128:1.0 2377:1.0 3851:1.0 3851:1.0 3868:1.0 3868:1.0 4913:1.0 4913:1.0 4928:1.0 4928:1.0 5389:1.0 7809:1.0 9550:1.0 9567:1.0 10724:1.0 10724:1.0 10724:1.0 10724:1.0 10724:1.0 10724:1.0 10739:1.0 10739:1.0 10739:1.0 10739:1.0 10739:1.0 10739:1.0 13462:1.0 14421:1.0 16917:1.0 16934:1.0 18142:1.0 18142:1.0 18157:1.0 18157:1.0 22344:1.0 23002:1.0 27477:1.0 27477:1.0 27492:1.0 27492:1.0 29921:1.0 32271:1.0 36068:1.0 37063:1.0 40288:1.0 41779:1.0 44291:1.0 46403:1.0 
-0.001544921951695883 0.0 128:1.0 2377:1.0 3851:1.0 3851:1.0 3868:1.0 3868:1.0 4913:1.0 4913:1.0 4928:1.0 4928:1.0 5389:1.0 7809:1.0 9550:1.0 9567:1.0 10724:1.0 10724:1.0 10724:1.0 10724:1.0 10724:1.0 10724:1.0 10739:1.0 10739:1.0 10739:1.0 10739:1.0 10739:1.0 10739:1.0 13462:1.0 14421:1.0 16917:1.0 16917:1.0 16934:1.0 16934:1.0 18142:1.0 18142:1.0 18157:1.0 18157:1.0 20738:1.0 22996:1.0 27477:1.0 27477:1.0 27492:1.0 27492:1.0 29790:1.0 32271:1.0 33140:1.0 37065:1.0 
-1.4790489136416626E-4 0.0 1915:1.0 2377:1.0 4913:1.0 4913:1.0 4928:1.0 4928:1.0 5565:1.0 7805:1.0 10724:1.0 10739:1.0 14393:1.0 14421:1.0 18142:1.0 18157:1.0 18273:1.0 22996:1.0 26436:1.0 26452:1.0 27477:1.0 27477:1.0 27477:1.0 27492:1.0 27492:1.0 27492:1.0 28287:1.0 32271:1.0 
-0.0022328828267849828 0.0010035269069833782 1509:1.0 2373:1.0 4913:1.0 4913:1.0 4928:1.0 4928:1.0 7135:1.0 7809:1.0 9550:1.0 9567:1.0 10724:1.0 10724:1.0 10739:1.0 10739:1.0 14393:1.0 14421:1.0 18142:1.0 18157:1.0 20238:1.0 23006:1.0 30878:1.0 32266:1.0 35185:1.0 37060:1.0 39131:1.0 41781:1.0 42611:1.0 46416:1.0 
-0.001305953294206064 0.0 1509:1.0 2373:1.0 4913:1.0 4913:1.0 4928:1.0 4928:1.0 7135:1.0 7809:1.0 9550:1.0 9567:1.0 10724:1.0 10724:1.0 10739:1.0 10739:1.0 14393:1.0 14421:1.0 16917:1.0 16934:1.0 18142:1.0 18157:1.0 21595:1.0 23004:1.0 30358:1.0 32266:1.0 34370:1.0 37065:1.0 37915:1.0 41781:1.0 
-0.0 8.489293890831739E-4 1509:1.0 2373:1.0 4913:1.0 4913:1.0 4928:1.0 4928:1.0 7135:1.0 7809:1.0 9550:1.0 9567:1.0 10724:1.0 10724:1.0 10739:1.0 10739:1.0 14393:1.0 14421:1.0 16917:1.0 16917:1.0 16934:1.0 16934:1.0 18142:1.0 18157:1.0 21069:1.0 23004:1.0 29530:1.0 32271:1.0 33140:1.0 37065:1.0 
-7.462354809237068E-4 0.0 1211:1.0 2373:1.0 4913:1.0 4913:1.0 4928:1.0 4928:1.0 5799:1.0 7809:1.0 9550:1.0 9567:1.0 10724:1.0 10739:1.0 12714:1.0 14421:1.0 16917:1.0 16934:1.0 18142:1.0 18142:1.0 18157:1.0 18157:1.0 20111:1.0 23004:1.0 27477:1.0 27477:1.0 27492:1.0 27492:1.0 29790:1.0 32271:1.0 33140:1.0 37065:1.0 
-6.767469105230805E-4 0.0 275:1.0 2378:1.0 3851:1.0 3851:1.0 3851:1.0 3851:1.0 3868:1.0 3868:1.0 3868:1.0 3868:1.0 4913:1.0 4913:1.0 4928:1.0 4928:1.0 7255:1.0 7809:1.0 9550:1.0 9567:1.0 10724:1.0 10724:1.0 10739:1.0 10739:1.0 11376:1.0 14421:1.0 18142:1.0 18157:1.0 19132:1.0 22998:1.0 29257:1.0 32266:1.0 34382:1.0 37062:1.0 39777:1.0 41768:1.0 42611:1.0 46416:1.0 
-5.950975843414891E-4 0.0038138330784876447 1911:1.0 2377:1.0 3851:1.0 3868:1.0 4913:1.0 4913:1.0 4928:1.0 4928:1.0 5423:1.0 7812:1.0 9550:1.0 9567:1.0 10724:1.0 10739:1.0 12075:1.0 14421:1.0 20910:1.0 22996:1.0 27477:1.0 27492:1.0 28287:1.0 32271:1.0 
-8.565425733554896E-4 2.9915734322868683E-4 2329:1.0 2378:1.0 4913:1.0 4913:1.0 4928:1.0 4928:1.0 6739:1.0 7809:1.0 9550:1.0 9567:1.0 10724:1.0 10739:1.0 13230:1.0 14421:1.0 18142:1.0 18157:1.0 21220:1.0 22996:1.0 27477:1.0 27492:1.0 29777:1.0 32263:1.0 34627:1.0 37065:1.0 38536:1.0 41779:1.0 45771:1.0 46403:1.0 
-0.0034668288875273233 0.0019871918616674025 1415:1.0 2880:1.0 5795:1.0 5810:1.0 8929:1.0 9492:1.0 13213:1.0 13213:1.0 13228:1.0 13228:1.0 13306:1.0 18067:1.0 21507:1.0 21507:1.0 21523:1.0 21523:1.0 24992:1.0 27342:1.0 30389:1.0 32133:1.0 33793:1.0 36850:1.0 39129:1.0 41474:1.0 
-0.002884166968752201 0.0 1052:1.0 2377:1.0 4913:1.0 4913:1.0 4913:1.0 4928:1.0 4928:1.0 4928:1.0 6451:1.0 7805:1.0 10724:1.0 10724:1.0 10739:1.0 10739:1.0 13325:1.0 14421:1.0 18142:1.0 18142:1.0 18157:1.0 18157:1.0 21358:1.0 22996:1.0 27477:1.0 27492:1.0 29158:1.0 32262:1.0 33140:1.0 37065:1.0 
-0.0 2.8936995807257595E-5 1052:1.0 2377:1.0 4913:1.0 4913:1.0 4913:1.0 4928:1.0 4928:1.0 4928:1.0 6451:1.0 7805:1.0 10724:1.0 10724:1.0 10739:1.0 10739:1.0 13325:1.0 14421:1.0 16917:1.0 16934:1.0 18142:1.0 18142:1.0 18157:1.0 18157:1.0 19850:1.0 23000:1.0 28287:1.0 32271:1.0 
-0.005486335500079531 0.004322958008047636 2095:1.0 3681:1.0 7402:1.0 7417:1.0 9119:1.0 12256:1.0 16737:1.0 16752:1.0 19740:1.0 21518:1.0 24015:1.0 26325:1.0 28905:1.0 31039:1.0 34392:1.0 35671:1.0 
-0.005463283592518144 0.0030163337389134837 2095:1.0 3681:1.0 6177:1.0 6194:1.0 7402:1.0 7417:1.0 10452:1.0 12256:1.0 19181:1.0 21531:1.0 24154:1.0 26323:1.0 29727:1.0 31036:1.0 33842:1.0 35663:1.0 
-0.006702008298516782 0.003652117084296535 2095:1.0 3681:1.0 6177:1.0 6177:1.0 6194:1.0 6194:1.0 7402:1.0 7417:1.0 9886:1.0 12269:1.0 19323:1.0 21529:1.0 24989:1.0 26320:1.0 29173:1.0 31028:1.0 32585:1.0 35673:1.0 
-0.0030885142977535437 9.083232511335763E-4 644:1.0 2373:1.0 3851:1.0 3868:1.0 4913:1.0 4913:1.0 4928:1.0 4928:1.0 5537:1.0 7809:1.0 10724:1.0 10724:1.0 10724:1.0 10739:1.0 10739:1.0 10739:1.0 12714:1.0 14421:1.0 18142:1.0 18157:1.0 20788:1.0 22996:1.0 27477:1.0 27492:1.0 29158:1.0 32262:1.0 33140:1.0 37065:1.0 
-0.0 0.0012294088289119644 644:1.0 2373:1.0 3851:1.0 3868:1.0 4913:1.0 4913:1.0 4928:1.0 4928:1.0 5537:1.0 7809:1.0 10724:1.0 10724:1.0 10724:1.0 10739:1.0 10739:1.0 10739:1.0 12714:1.0 14421:1.0 16917:1.0 16934:1.0 18142:1.0 18157:1.0 19850:1.0 23000:1.0 28287:1.0 32271:1.0 
-1.4492662207465302E-4 9.345355055924195E-4 1211:1.0 2373:1.0 4913:1.0 4913:1.0 4928:1.0 4928:1.0 6876:1.0 7808:1.0 9550:1.0 9567:1.0 11105:1.0 14421:1.0 18142:1.0 18142:1.0 18157:1.0 18157:1.0 21220:1.0 22996:1.0 27477:1.0 27492:1.0 32069:1.0 32268:1.0 35547:1.0 37063:1.0 38680:1.0 41768:1.0 43826:1.0 46413:1.0 
-1.2079963229129662E-4 7.570571399712322E-4 1970:1.0 2373:1.0 3851:1.0 3868:1.0 4913:1.0 4913:1.0 4928:1.0 4928:1.0 5415:1.0 7809:1.0 10724:1.0 10739:1.0 11105:1.0 14421:1.0 18142:1.0 18157:1.0 21220:1.0 22996:1.0 27477:1.0 27492:1.0 29921:1.0 32271:1.0 36386:1.0 37059:1.0 39935:1.0 41773:1.0 42570:1.0 46413:1.0 
-0.0021508246174641995 7.544576302621572E-4 1284:1.0 2876:1.0 4621:1.0 4621:1.0 4621:1.0 4621:1.0 4638:1.0 4638:1.0 4638:1.0 4638:1.0 5795:1.0 5810:1.0 6760:1.0 9492:1.0 17617:1.0 18067:1.0 21507:1.0 21507:1.0 21507:1.0 21523:1.0 21523:1.0 21523:1.0 22548:1.0 22563:1.0 23522:1.0 27331:1.0 27629:1.0 32134:1.0 34995:1.0 36839:1.0 39686:1.0 41478:1.0 
-0.0019442829928924953 0.0010911506237294443 662:1.0 2880:1.0 4621:1.0 4638:1.0 5795:1.0 5795:1.0 5810:1.0 5810:1.0 6760:1.0 9492:1.0 18051:1.0 18067:1.0 21507:1.0 21523:1.0 22548:1.0 22563:1.0 26569:1.0 27342:1.0 29965:1.0 32134:1.0 36417:1.0 36839:1.0 37787:1.0 41478:1.0 
-2.937713418742369E-4 0.0 1009:1.0 2377:1.0 4913:1.0 4928:1.0 6114:1.0 7805:1.0 10724:1.0 10739:1.0 13958:1.0 14421:1.0 18142:1.0 18142:1.0 18157:1.0 18157:1.0 18382:1.0 23004:1.0 27477:1.0 27492:1.0 30494:1.0 32268:1.0 34015:1.0 37052:1.0 40049:1.0 41768:1.0 44731:1.0 46413:1.0 
-2.8238114321258275E-4 0.0 776:1.0 2377:1.0 4913:1.0 4928:1.0 5572:1.0 7805:1.0 9550:1.0 9567:1.0 10724:1.0 10724:1.0 10739:1.0 10739:1.0 11678:1.0 14421:1.0 18142:1.0 18142:1.0 18157:1.0 18157:1.0 18382:1.0 23004:1.0 27477:1.0 27492:1.0 27843:1.0 32270:1.0 36369:1.0 37059:1.0 38536:1.0 41779:1.0 45324:1.0 46403:1.0 
-0.0016210718106484897 0.0 776:1.0 2377:1.0 4913:1.0 4928:1.0 5572:1.0 7805:1.0 9550:1.0 9567:1.0 10724:1.0 10724:1.0 10739:1.0 10739:1.0 11678:1.0 14421:1.0 16917:1.0 16934:1.0 18142:1.0 18142:1.0 18157:1.0 18157:1.0 18515:1.0 23008:1.0 31561:1.0 32265:1.0 33765:1.0 37063:1.0 40667:1.0 41768:1.0 44717:1.0 46403:1.0 
-9.124745968874326E-4 0.0 776:1.0 2377:1.0 4913:1.0 4928:1.0 5572:1.0 7805:1.0 9550:1.0 9567:1.0 10724:1.0 10724:1.0 10739:1.0 10739:1.0 11678:1.0 14421:1.0 16917:1.0 16917:1.0 16934:1.0 16934:1.0 18142:1.0 18142:1.0 18157:1.0 18157:1.0 21834:1.0 22996:1.0 26436:1.0 26436:1.0 26452:1.0 26452:1.0 27477:1.0 27477:1.0 27492:1.0 27492:1.0 29921:1.0 32271:1.0 35177:1.0 37059:1.0 37874:1.0 41773:1.0 44956:1.0 46414:1.0 
-4.687900347244021E-5 0.0 1134:1.0 2373:1.0 3851:1.0 3868:1.0 4913:1.0 4913:1.0 4928:1.0 4928:1.0 7332:1.0 7809:1.0 10724:1.0 10724:1.0 10739:1.0 10739:1.0 13739:1.0 14421:1.0 18142:1.0 18157:1.0 18382:1.0 23004:1.0 27477:1.0 27492:1.0 29921:1.0 32271:1.0 35318:1.0 37062:1.0 41687:1.0 41768:1.0 45744:1.0 46410:1.0 
-0.0020198233848935034 0.0 71:1.0 2377:1.0 4913:1.0 4913:1.0 4928:1.0 4928:1.0 6579:1.0 7805:1.0 10724:1.0 10739:1.0 10912:1.0 14421:1.0 18142:1.0 18142:1.0 18142:1.0 18157:1.0 18157:1.0 18157:1.0 19132:1.0 22998:1.0 28917:1.0 32269:1.0 33143:1.0 37060:1.0 41589:1.0 41778:1.0 42053:1.0 46411:1.0 
-0.001571247295041332 0.0 71:1.0 2377:1.0 4913:1.0 4913:1.0 4928:1.0 4928:1.0 6579:1.0 7805:1.0 10724:1.0 10739:1.0 10912:1.0 14421:1.0 16917:1.0 16934:1.0 18142:1.0 18142:1.0 18142:1.0 18157:1.0 18157:1.0 18157:1.0 18969:1.0 23004:1.0 26436:1.0 26452:1.0 27477:1.0 27492:1.0 29542:1.0 32268:1.0 34894:1.0 37063:1.0 41519:1.0 41768:1.0 43826:1.0 46413:1.0 
-3.9255751111585976E-5 0.0 71:1.0 2377:1.0 4913:1.0 4913:1.0 4928:1.0 4928:1.0 6579:1.0 7805:1.0 10724:1.0 10739:1.0 10912:1.0 14421:1.0 16917:1.0 16917:1.0 16934:1.0 16934:1.0 18142:1.0 18142:1.0 18142:1.0 18157:1.0 18157:1.0 18157:1.0 22729:1.0 22996:1.0 26436:1.0 26452:1.0 27477:1.0 27477:1.0 27492:1.0 27492:1.0 28287:1.0 32271:1.0 
-2.870952250542399E-4 0.0011561443938072258 924:1.0 2377:1.0 4913:1.0 4913:1.0 4928:1.0 4928:1.0 6068:1.0 7809:1.0 10724:1.0 10724:1.0 10724:1.0 10724:1.0 10724:1.0 10739:1.0 10739:1.0 10739:1.0 10739:1.0 10739:1.0 13658:1.0 14421:1.0 18142:1.0 18157:1.0 19132:1.0 22998:1.0 27646:1.0 32266:1.0 34361:1.0 37052:1.0 39143:1.0 41778:1.0 42255:1.0 46403:1.0 
-0.001734584193469589 4.261390328989144E-4 924:1.0 2377:1.0 4913:1.0 4913:1.0 4928:1.0 4928:1.0 6068:1.0 7809:1.0 10724:1.0 10724:1.0 10724:1.0 10724:1.0 10724:1.0 10739:1.0 10739:1.0 10739:1.0 10739:1.0 10739:1.0 13658:1.0 14421:1.0 16917:1.0 16934:1.0 18142:1.0 18157:1.0 18312:1.0 23004:1.0 29520:1.0 32258:1.0 34382:1.0 37062:1.0 37557:1.0 41768:1.0 44731:1.0 46413:1.0 
-9.478787118870992E-4 4.5074467512458785E-4 1734:1.0 2880:1.0 5795:1.0 5795:1.0 5810:1.0 5810:1.0 6298:1.0 9492:1.0 13213:1.0 13213:1.0 13228:1.0 13228:1.0 13453:1.0 18075:1.0 22548:1.0 22563:1.0 25954:1.0 27339:1.0 29777:1.0 32123:1.0 32986:1.0 36852:1.0 
-1.8660919969540904E-4 0.0010908510649241944 1754:1.0 2880:1.0 5795:1.0 5810:1.0 8956:1.0 9492:1.0 13213:1.0 13228:1.0 13453:1.0 18075:1.0 22548:1.0 22563:1.0 25954:1.0 27339:1.0 28836:1.0 32134:1.0 35738:1.0 36839:1.0 39788:1.0 41474:1.0 
-3.1188122376500893E-4 0.0 1830:1.0 2377:1.0 3851:1.0 3851:1.0 3851:1.0 3868:1.0 3868:1.0 3868:1.0 4913:1.0 4913:1.0 4928:1.0 4928:1.0 5537:1.0 7809:1.0 10724:1.0 10724:1.0 10724:1.0 10739:1.0 10739:1.0 10739:1.0 12112:1.0 14421:1.0 16917:1.0 16934:1.0 18142:1.0 18142:1.0 18157:1.0 18157:1.0 20571:1.0 22996:1.0 26436:1.0 26452:1.0 27477:1.0 27477:1.0 27492:1.0 27492:1.0 29921:1.0 32271:1.0 33866:1.0 37062:1.0 38536:1.0 41779:1.0 44090:1.0 46411:1.0 
-7.568097714672373E-4 1.9018255761622113E-4 1995:1.0 2378:1.0 3851:1.0 3851:1.0 3868:1.0 3868:1.0 4913:1.0 4913:1.0 4928:1.0 4928:1.0 7255:1.0 7809:1.0 10724:1.0 10724:1.0 10739:1.0 10739:1.0 12680:1.0 14421:1.0 18142:1.0 18157:1.0 19132:1.0 22998:1.0 31411:1.0 32266:1.0 34382:1.0 37062:1.0 39777:1.0 41768:1.0 44731:1.0 46413:1.0 
-0.0011366628434075247 9.796217408125079E-4 1911:1.0 2377:1.0 4913:1.0 4913:1.0 4928:1.0 4928:1.0 6446:1.0 7812:1.0 9550:1.0 9567:1.0 10724:1.0 10739:1.0 13748:1.0 14421:1.0 20910:1.0 22996:1.0 27477:1.0 27492:1.0 30494:1.0 32268:1.0 35118:1.0 37058:1.0 40891:1.0 41781:1.0 42953:1.0 46409:1.0 
-7.767042502647999E-4 0.0 1995:1.0 2378:1.0 3851:1.0 3851:1.0 3868:1.0 3868:1.0 4913:1.0 4913:1.0 4928:1.0 4928:1.0 7255:1.0 7809:1.0 10724:1.0 10724:1.0 10739:1.0 10739:1.0 12680:1.0 14421:1.0 16917:1.0 16934:1.0 18142:1.0 18157:1.0 22134:1.0 23004:1.0 26436:1.0 26452:1.0 30494:1.0 32268:1.0 35118:1.0 37058:1.0 40891:1.0 41781:1.0 42953:1.0 46409:1.0 
-6.490983378889673E-4 4.3214989937739883E-4 1415:1.0 2377:1.0 3851:1.0 3868:1.0 4913:1.0 4913:1.0 4913:1.0 4928:1.0 4928:1.0 4928:1.0 5245:1.0 7805:1.0 10724:1.0 10724:1.0 10739:1.0 10739:1.0 11194:1.0 14421:1.0 18142:1.0 18157:1.0 19594:1.0 22996:1.0 27477:1.0 27492:1.0 29921:1.0 32271:1.0 36387:1.0 37057:1.0 38637:1.0 41778:1.0 44322:1.0 46414:1.0 
-2.3710023621799258E-4 0.0 966:1.0 2377:1.0 4913:1.0 4913:1.0 4913:1.0 4928:1.0 4928:1.0 4928:1.0 5789:1.0 7812:1.0 10724:1.0 10739:1.0 11487:1.0 14421:1.0 18142:1.0 18142:1.0 18157:1.0 18157:1.0 18382:1.0 23004:1.0 27477:1.0 27492:1.0 29921:1.0 32271:1.0 36868:1.0 37062:1.0 38309:1.0 41779:1.0 45744:1.0 46406:1.0 
-0.0010773649257695452 6.13222686389495E-4 966:1.0 2377:1.0 4913:1.0 4913:1.0 4913:1.0 4928:1.0 4928:1.0 4928:1.0 5789:1.0 7812:1.0 10724:1.0 10739:1.0 11487:1.0 14421:1.0 16917:1.0 16934:1.0 18142:1.0 18142:1.0 18157:1.0 18157:1.0 20626:1.0 23009:1.0 32069:1.0 32268:1.0 33537:1.0 37063:1.0 41098:1.0 41771:1.0 43409:1.0 46414:1.0 
-0.0013343200427702092 0.0 664:1.0 2377:1.0 3851:1.0 3868:1.0 4913:1.0 4913:1.0 4928:1.0 4928:1.0 6109:1.0 7809:1.0 10724:1.0 10724:1.0 10724:1.0 10739:1.0 10739:1.0 10739:1.0 11844:1.0 14421:1.0 18142:1.0 18157:1.0 19148:1.0 23004:1.0 26436:1.0 26436:1.0 26452:1.0 26452:1.0 27477:1.0 27477:1.0 27492:1.0 27492:1.0 32069:1.0 32268:1.0 33537:1.0 37063:1.0 41098:1.0 41771:1.0 43409:1.0 46414:1.0 
-4.186186482764889E-4 0.0 664:1.0 2377:1.0 3851:1.0 3851:1.0 3868:1.0 3868:1.0 4913:1.0 4913:1.0 4928:1.0 4928:1.0 5725:1.0 7809:1.0 9550:1.0 9567:1.0 10724:1.0 10724:1.0 10724:1.0 10739:1.0 10739:1.0 10739:1.0 14287:1.0 14421:1.0 18142:1.0 18142:1.0 18157:1.0 18157:1.0 18382:1.0 23004:1.0 27477:1.0 27492:1.0 29921:1.0 32271:1.0 34095:1.0 37052:1.0 38637:1.0 41778:1.0 43224:1.0 46414:1.0 
-2.474900141522663E-4 0.0 2319:1.0 2377:1.0 4913:1.0 4913:1.0 4913:1.0 4928:1.0 4928:1.0 4928:1.0 4947:1.0 7812:1.0 10724:1.0 10739:1.0 11134:1.0 14421:1.0 18142:1.0 18142:1.0 18157:1.0 18157:1.0 18382:1.0 23004:1.0 27477:1.0 27492:1.0 29921:1.0 32271:1.0 33098:1.0 37062:1.0 38309:1.0 41779:1.0 45744:1.0 46406:1.0 
-4.177780475488064E-4 2.5696257750937177E-4 2319:1.0 2377:1.0 4913:1.0 4913:1.0 4913:1.0 4928:1.0 4928:1.0 4928:1.0 4947:1.0 7812:1.0 10724:1.0 10739:1.0 11134:1.0 14421:1.0 16917:1.0 16934:1.0 18142:1.0 18142:1.0 18157:1.0 18157:1.0 20626:1.0 23009:1.0 28245:1.0 32268:1.0 33537:1.0 37063:1.0 41098:1.0 41771:1.0 43409:1.0 46414:1.0 
-4.009838532854243E-4 0.0 394:1.0 2377:1.0 3851:1.0 3868:1.0 4913:1.0 4913:1.0 4913:1.0 4928:1.0 4928:1.0 4928:1.0 7739:1.0 7809:1.0 10724:1.0 10724:1.0 10724:1.0 10739:1.0 10739:1.0 10739:1.0 10762:1.0 14421:1.0 18142:1.0 18157:1.0 18682:1.0 23004:1.0 26436:1.0 26436:1.0 26452:1.0 26452:1.0 27477:1.0 27477:1.0 27492:1.0 27492:1.0 28245:1.0 32268:1.0 33537:1.0 37063:1.0 41098:1.0 41771:1.0 43409:1.0 46414:1.0 
-0.0014568096301893233 0.0 394:1.0 2377:1.0 3851:1.0 3851:1.0 3868:1.0 3868:1.0 4913:1.0 4913:1.0 4913:1.0 4928:1.0 4928:1.0 4928:1.0 5725:1.0 7809:1.0 9550:1.0 9567:1.0 10724:1.0 10724:1.0 10724:1.0 10739:1.0 10739:1.0 10739:1.0 13021:1.0 14421:1.0 18142:1.0 18142:1.0 18157:1.0 18157:1.0 18382:1.0 23004:1.0 27477:1.0 27492:1.0 29542:1.0 32268:1.0 35331:1.0 37052:1.0 39143:1.0 41778:1.0 44140:1.0 46411:1.0 
-6.512612992191625E-4 0.0 483:1.0 2377:1.0 3851:1.0 3868:1.0 4913:1.0 4913:1.0 4928:1.0 4928:1.0 6401:1.0 7805:1.0 10724:1.0 10724:1.0 10739:1.0 10739:1.0 12176:1.0 14421:1.0 16917:1.0 16934:1.0 18142:1.0 18142:1.0 18157:1.0 18157:1.0 20626:1.0 23009:1.0 28451:1.0 32260:1.0 33799:1.0 37063:1.0 38784:1.0 41768:1.0 43826:1.0 46413:1.0 
-6.599993370109293E-6 0.0 676:1.0 2378:1.0 3851:1.0 3851:1.0 3868:1.0 3868:1.0 4913:1.0 4928:1.0 7647:1.0 7810:1.0 12576:1.0 14421:1.0 18142:1.0 18157:1.0 20226:1.0 23009:1.0 28451:1.0 32260:1.0 34974:1.0 37058:1.0 40891:1.0 41781:1.0 42122:1.0 46411:1.0 
-1.7350883347389605E-5 0.0 676:1.0 2378:1.0 3851:1.0 3851:1.0 3851:1.0 3851:1.0 3868:1.0 3868:1.0 3868:1.0 3868:1.0 4913:1.0 4928:1.0 6517:1.0 7810:1.0 10958:1.0 14421:1.0 18142:1.0 18157:1.0 20226:1.0 23009:1.0 29921:1.0 32271:1.0 37010:1.0 37054:1.0 37209:1.0 41771:1.0 46066:1.0 46408:1.0 
-9.534423430506545E-4 3.8058742771138513E-4 3263:1.0 3681:1.0 7402:1.0 7402:1.0 7402:1.0 7417:1.0 7417:1.0 7417:1.0 9275:1.0 12261:1.0 15696:1.0 15696:1.0 15712:1.0 15712:1.0 16737:1.0 16737:1.0 16737:1.0 16752:1.0 16752:1.0 16752:1.0 17711:1.0 21520:1.0 24015:1.0 26325:1.0 28403:1.0 31038:1.0 33568:1.0 35674:1.0 
-4.899800184136452E-4 0.0 3263:1.0 3681:1.0 6177:1.0 6194:1.0 7402:1.0 7402:1.0 7402:1.0 7417:1.0 7417:1.0 7417:1.0 8392:1.0 12258:1.0 19181:1.0 21531:1.0 23642:1.0 26322:1.0 28891:1.0 31039:1.0 32981:1.0 35663:1.0 
-0.0016443671670308305 0.0 1180:1.0 2377:1.0 4913:1.0 4928:1.0 7629:1.0 7805:1.0 10724:1.0 10739:1.0 12723:1.0 14421:1.0 18142:1.0 18157:1.0 19133:1.0 23004:1.0 26436:1.0 26436:1.0 26452:1.0 26452:1.0 27477:1.0 27477:1.0 27492:1.0 27492:1.0 28287:1.0 32271:1.0 
-0.005232968136000149 0.0011111990269802078 3263:1.0 3681:1.0 6177:1.0 6177:1.0 6194:1.0 6194:1.0 7402:1.0 7402:1.0 7402:1.0 7417:1.0 7417:1.0 7417:1.0 9842:1.0 12261:1.0 15696:1.0 15712:1.0 16737:1.0 16752:1.0 17547:1.0 21531:1.0 
-0.011256427289292471 0.0037725330945340817 3263:1.0 3681:1.0 6177:1.0 6177:1.0 6177:1.0 6194:1.0 6194:1.0 6194:1.0 7402:1.0 7402:1.0 7402:1.0 7417:1.0 7417:1.0 7417:1.0 8226:1.0 12269:1.0 
-1.293481909699855E-5 0.0 1822:1.0 2377:1.0 3851:1.0 3868:1.0 4913:1.0 4913:1.0 4913:1.0 4928:1.0 4928:1.0 4928:1.0 6170:1.0 7809:1.0 10724:1.0 10724:1.0 10724:1.0 10739:1.0 10739:1.0 10739:1.0 11691:1.0 14421:1.0 16917:1.0 16934:1.0 18142:1.0 18157:1.0 20127:1.0 22996:1.0 27477:1.0 27477:1.0 27492:1.0 27492:1.0 28451:1.0 32260:1.0 33279:1.0 37057:1.0 41098:1.0 41775:1.0 43409:1.0 46414:1.0 
-0.002947013231839988 7.030822838120806E-4 2071:1.0 3681:1.0 6177:1.0 6177:1.0 6194:1.0 6194:1.0 7402:1.0 7402:1.0 7417:1.0 7417:1.0 9633:1.0 12256:1.0 15696:1.0 15696:1.0 15712:1.0 15712:1.0 16737:1.0 16752:1.0 16827:1.0 21521:1.0 22067:1.0 26321:1.0 28142:1.0 31033:1.0 34522:1.0 35671:1.0 
-3.0077659908285276E-4 0.0 1373:1.0 2377:1.0 4913:1.0 4913:1.0 4928:1.0 4928:1.0 6008:1.0 7812:1.0 11029:1.0 14421:1.0 18142:1.0 18157:1.0 18382:1.0 23004:1.0 27477:1.0 27492:1.0 29530:1.0 32271:1.0 32952:1.0 37056:1.0 41589:1.0 41778:1.0 43926:1.0 46403:1.0 
-0.003339714083037638 0.0019119950375184323 1373:1.0 2377:1.0 4913:1.0 4913:1.0 4928:1.0 4928:1.0 6008:1.0 7812:1.0 11029:1.0 14421:1.0 16917:1.0 16934:1.0 18142:1.0 18157:1.0 20226:1.0 23009:1.0 28095:1.0 32262:1.0 36868:1.0 37062:1.0 39243:1.0 41768:1.0 43826:1.0 46413:1.0 
-6.909457845110702E-4 9.29839245420759E-4 299:1.0 2376:1.0 3851:1.0 3851:1.0 3868:1.0 3868:1.0 4913:1.0 4913:1.0 4928:1.0 4928:1.0 5826:1.0 7812:1.0 12334:1.0 14421:1.0 18142:1.0 18157:1.0 20226:1.0 23009:1.0 29542:1.0 32268:1.0 33743:1.0 37052:1.0 41628:1.0 41770:1.0 45700:1.0 46403:1.0 
-0.0024131490544872115 0.0 1373:1.0 2377:1.0 4913:1.0 4913:1.0 4928:1.0 4928:1.0 5291:1.0 7808:1.0 9550:1.0 9550:1.0 9567:1.0 9567:1.0 10724:1.0 10724:1.0 10739:1.0 10739:1.0 11888:1.0 14421:1.0 20284:1.0 23004:1.0 26436:1.0 26452:1.0 27477:1.0 27492:1.0 29542:1.0 32268:1.0 33743:1.0 37052:1.0 41628:1.0 41770:1.0 45700:1.0 46403:1.0 
-5.124003473323546E-4 4.797835204826673E-4 299:1.0 2376:1.0 3851:1.0 3851:1.0 3851:1.0 3851:1.0 3868:1.0 3868:1.0 3868:1.0 3868:1.0 4913:1.0 4913:1.0 4928:1.0 4928:1.0 5142:1.0 7812:1.0 11200:1.0 14421:1.0 18142:1.0 18157:1.0 20226:1.0 23009:1.0 29542:1.0 32268:1.0 36198:1.0 37052:1.0 38526:1.0 41772:1.0 43826:1.0 46413:1.0 
-8.010085410773065E-4 0.0 1373:1.0 2377:1.0 4913:1.0 4913:1.0 4928:1.0 4928:1.0 5291:1.0 7808:1.0 9550:1.0 9550:1.0 9550:1.0 9550:1.0 9567:1.0 9567:1.0 9567:1.0 9567:1.0 10724:1.0 10724:1.0 10739:1.0 10739:1.0 11021:1.0 14421:1.0 18758:1.0 23004:1.0 26436:1.0 26452:1.0 27477:1.0 27492:1.0 29542:1.0 32268:1.0 36198:1.0 37052:1.0 38526:1.0 41772:1.0 43826:1.0 46413:1.0 
-6.96523497413795E-4 3.2857125614753354E-5 1373:1.0 2377:1.0 4913:1.0 4913:1.0 4928:1.0 4928:1.0 5291:1.0 7808:1.0 9550:1.0 9550:1.0 9550:1.0 9550:1.0 9567:1.0 9567:1.0 9567:1.0 9567:1.0 10724:1.0 10724:1.0 10739:1.0 10739:1.0 11021:1.0 14421:1.0 16917:1.0 16934:1.0 22110:1.0 22996:1.0 26436:1.0 26452:1.0 27477:1.0 27492:1.0 29542:1.0 32268:1.0 36204:1.0 37052:1.0 39813:1.0 41772:1.0 
-0.007980905908948416 7.105973393239949E-4 1373:1.0 2377:1.0 4913:1.0 4913:1.0 4928:1.0 4928:1.0 5291:1.0 7808:1.0 9550:1.0 9550:1.0 9550:1.0 9550:1.0 9567:1.0 9567:1.0 9567:1.0 9567:1.0 10724:1.0 10724:1.0 10739:1.0 10739:1.0 11021:1.0 14421:1.0 16917:1.0 16917:1.0 16934:1.0 16934:1.0 22116:1.0 22996:1.0 26436:1.0 26452:1.0 27477:1.0 27492:1.0 
-6.20345510002075E-4 1.2471742412397655E-4 386:1.0 2378:1.0 3851:1.0 3868:1.0 4913:1.0 4928:1.0 5109:1.0 7809:1.0 10724:1.0 10724:1.0 10724:1.0 10724:1.0 10724:1.0 10724:1.0 10739:1.0 10739:1.0 10739:1.0 10739:1.0 10739:1.0 10739:1.0 14393:1.0 14421:1.0 18142:1.0 18157:1.0 18273:1.0 22996:1.0 26436:1.0 26452:1.0 27477:1.0 27477:1.0 27477:1.0 27492:1.0 27492:1.0 27492:1.0 28287:1.0 32271:1.0 
-0.0016381654336405614 2.2518658528770605E-4 1679:1.0 2373:1.0 4913:1.0 4913:1.0 4928:1.0 4928:1.0 6765:1.0 7805:1.0 9550:1.0 9567:1.0 10724:1.0 10724:1.0 10739:1.0 10739:1.0 14393:1.0 14421:1.0 18142:1.0 18157:1.0 20238:1.0 23006:1.0 30878:1.0 32266:1.0 35185:1.0 37060:1.0 39131:1.0 41781:1.0 42611:1.0 46416:1.0 
-0.0014134341624644213 0.0 1679:1.0 2373:1.0 4913:1.0 4913:1.0 4928:1.0 4928:1.0 6765:1.0 7805:1.0 9550:1.0 9567:1.0 10724:1.0 10724:1.0 10739:1.0 10739:1.0 14393:1.0 14421:1.0 16917:1.0 16934:1.0 18142:1.0 18157:1.0 21595:1.0 23004:1.0 30358:1.0 32266:1.0 34370:1.0 37065:1.0 37915:1.0 41781:1.0 
-3.570540780116746E-4 0.0 1679:1.0 2373:1.0 4913:1.0 4913:1.0 4928:1.0 4928:1.0 6765:1.0 7805:1.0 9550:1.0 9567:1.0 10724:1.0 10724:1.0 10739:1.0 10739:1.0 14393:1.0 14421:1.0 16917:1.0 16917:1.0 16934:1.0 16934:1.0 18142:1.0 18157:1.0 21069:1.0 23004:1.0 29530:1.0 32271:1.0 33140:1.0 37065:1.0 
-6.537521984250913E-4 5.718084981057941E-5 1211:1.0 2373:1.0 4913:1.0 4913:1.0 4928:1.0 4928:1.0 5799:1.0 7809:1.0 9550:1.0 9567:1.0 10724:1.0 10739:1.0 12714:1.0 14421:1.0 18142:1.0 18142:1.0 18157:1.0 18157:1.0 21034:1.0 22996:1.0 27477:1.0 27492:1.0 29542:1.0 32268:1.0 33765:1.0 37063:1.0 39021:1.0 41776:1.0 44063:1.0 46416:1.0 
-9.591338026260161E-4 0.0 1211:1.0 2373:1.0 4913:1.0 4913:1.0 4928:1.0 4928:1.0 5799:1.0 7809:1.0 9550:1.0 9567:1.0 10724:1.0 10739:1.0 12714:1.0 14421:1.0 16917:1.0 16934:1.0 18142:1.0 18142:1.0 18157:1.0 18157:1.0 20111:1.0 23004:1.0 27477:1.0 27477:1.0 27492:1.0 27492:1.0 29790:1.0 32271:1.0 34755:1.0 37065:1.0 38637:1.0 41778:1.0 42839:1.0 46414:1.0 
-0.0014149321315460822 0.0 1211:1.0 2373:1.0 4913:1.0 4913:1.0 4928:1.0 4928:1.0 5799:1.0 7809:1.0 9550:1.0 9567:1.0 10724:1.0 10739:1.0 12714:1.0 14421:1.0 16917:1.0 16917:1.0 16934:1.0 16934:1.0 18142:1.0 18142:1.0 18157:1.0 18157:1.0 20495:1.0 23009:1.0 29921:1.0 32271:1.0 33866:1.0 37062:1.0 38147:1.0 41779:1.0 43622:1.0 46406:1.0 
