svm_type c_svc
kernel_type polynomial
degree 2
gamma 1.0
coef0 1.0
nr_class 3
total_sv 655
rho 0.007574701445859065 -0.7507279741430414 -0.7367100370419857
label 1 2 0
nr_sv 254 362 39
SV
0.0012604711567287714 0.0 84:1.0 2373:1.0 3851:1.0 3851:1.0 3868:1.0 3868:1.0 4913:1.0 4913:1.0 4928:1.0 4928:1.0 7388:1.0 7807:1.0 12897:1.0 14422:1.0 20238:1.0 23006:1.0 30812:1.0 32263:1.0 33953:1.0 37063:1.0 39163:1.0 41774:1.0 44188:1.0 46416:1.0 
0.0012434782280985308 4.655914616055564E-4 1949:1.0 2377:1.0 3851:1.0 3851:1.0 3868:1.0 3868:1.0 4913:1.0 4928:1.0 7388:1.0 7811:1.0 11028:1.0 14422:1.0 20238:1.0 23006:1.0 31956:1.0 32263:1.0 33765:1.0 37063:1.0 40113:1.0 41768:1.0 46211:1.0 46406:1.0 
0.0015599592862205183 0.0 429:1.0 2876:1.0 4621:1.0 4638:1.0 5795:1.0 5810:1.0 8400:1.0 9493:1.0 14674:1.0 18078:1.0 26738:1.0 27329:1.0 28111:1.0 32133:1.0 33607:1.0 36850:1.0 37432:1.0 41474:1.0 
0.004596542280100933 7.282565430710338E-4 1436:1.0 2885:1.0 5963:1.0 9493:1.0 17358:1.0 18074:1.0 24176:1.0 27340:1.0 28135:1.0 32123:1.0 35507:1.0 36843:1.0 39802:1.0 41484:1.0 
3.980183023184744E-4 0.0 2023:1.0 2379:1.0 6653:1.0 7805:1.0 9550:1.0 9550:1.0 9567:1.0 9567:1.0 10724:1.0 10739:1.0 12863:1.0 14422:1.0 20495:1.0 23009:1.0 27805:1.0 32270:1.0 34057:1.0 37056:1.0 39383:1.0 41781:1.0 44188:1.0 46416:1.0 
0.0010622913034002935 0.0 1138:1.0 2385:1.0 6199:1.0 7805:1.0 9550:1.0 9567:1.0 10724:1.0 10739:1.0 12775:1.0 14422:1.0 19708:1.0 23006:1.0 27672:1.0 32267:1.0 34574:1.0 37057:1.0 40063:1.0 41778:1.0 42682:1.0 46403:1.0 
0.0015345372005765696 6.581218182877625E-4 1200:1.0 2385:1.0 6470:1.0 7816:1.0 11242:1.0 14422:1.0 21206:1.0 23006:1.0 29201:1.0 32258:1.0 36369:1.0 37059:1.0 37602:1.0 41774:1.0 45084:1.0 46412:1.0 
0.0018939877470547082 0.0011126882412743912 1200:1.0 2385:1.0 6470:1.0 7816:1.0 11242:1.0 14422:1.0 16917:1.0 16934:1.0 22287:1.0 23003:1.0 27967:1.0 32264:1.0 35679:1.0 37061:1.0 38536:1.0 41779:1.0 44569:1.0 46403:1.0 
0.002025466222566745 1.8390023271818825E-4 2023:1.0 2379:1.0 5209:1.0 7810:1.0 13329:1.0 14422:1.0 19603:1.0 23007:1.0 30327:1.0 32258:1.0 34382:1.0 37062:1.0 38722:1.0 41779:1.0 46074:1.0 46409:1.0 
0.00485953218459371 0.0 1652:1.0 2876:1.0 4621:1.0 4638:1.0 5795:1.0 5795:1.0 5810:1.0 5810:1.0 8400:1.0 9493:1.0 13478:1.0 18067:1.0 22548:1.0 22563:1.0 24613:1.0 27339:1.0 29698:1.0 32136:1.0 35937:1.0 36843:1.0 37467:1.0 41474:1.0 
0.0017800589423999805 5.414106033473952E-4 1652:1.0 2876:1.0 4621:1.0 4638:1.0 5795:1.0 5795:1.0 5810:1.0 5810:1.0 8400:1.0 9493:1.0 13478:1.0 18067:1.0 21507:1.0 21523:1.0 22548:1.0 22563:1.0 24176:1.0 27340:1.0 28276:1.0 32123:1.0 36169:1.0 36842:1.0 40617:1.0 41479:1.0 
6.010274467338085E-5 0.0 2023:1.0 2379:1.0 5565:1.0 7805:1.0 9550:1.0 9550:1.0 9567:1.0 9567:1.0 10724:1.0 10739:1.0 13329:1.0 14422:1.0 20324:1.0 23007:1.0 30182:1.0 32258:1.0 34382:1.0 37062:1.0 38570:1.0 41779:1.0 46134:1.0 46403:1.0 
5.640216145068611E-4 0.0 2023:1.0 2379:1.0 7421:1.0 7805:1.0 9550:1.0 9567:1.0 10724:1.0 10739:1.0 13329:1.0 14422:1.0 19797:1.0 23007:1.0 29989:1.0 32258:1.0 34382:1.0 37062:1.0 38536:1.0 41779:1.0 44297:1.0 46403:1.0 
0.003405162298112831 2.5497626930550993E-4 112:1.0 2878:1.0 4621:1.0 4638:1.0 8400:1.0 9493:1.0 13988:1.0 18076:1.0 26632:1.0 27336:1.0 27502:1.0 32126:1.0 34162:1.0 36844:1.0 39393:1.0 41485:1.0 
0.002275289329632224 2.729937655449186E-4 94:1.0 2375:1.0 3851:1.0 3868:1.0 6966:1.0 7813:1.0 11318:1.0 14422:1.0 22287:1.0 23003:1.0 27567:1.0 32261:1.0 34330:1.0 37057:1.0 39645:1.0 41779:1.0 45725:1.0 46403:1.0 
5.443103094470324E-4 0.0 533:1.0 2880:1.0 4621:1.0 4638:1.0 5795:1.0 5810:1.0 5960:1.0 9493:1.0 14709:1.0 18078:1.0 24882:1.0 27329:1.0 29826:1.0 32136:1.0 36169:1.0 36842:1.0 40155:1.0 41483:1.0 
0.004397962715720661 6.887427790280067E-4 533:1.0 2880:1.0 4621:1.0 4638:1.0 5795:1.0 5810:1.0 5960:1.0 9493:1.0 15587:1.0 18067:1.0 22548:1.0 22563:1.0 24992:1.0 27342:1.0 31440:1.0 32126:1.0 35488:1.0 36848:1.0 37957:1.0 41474:1.0 
0.0033212873760172803 1.302642833223889E-4 1650:1.0 2876:1.0 4621:1.0 4621:1.0 4621:1.0 4638:1.0 4638:1.0 4638:1.0 5795:1.0 5810:1.0 7458:1.0 9493:1.0 15655:1.0 18076:1.0 24613:1.0 27339:1.0 27934:1.0 32135:1.0 34214:1.0 36849:1.0 40779:1.0 41482:1.0 
0.0012103019900611281 0.0 1355:1.0 2373:1.0 3851:1.0 3851:1.0 3851:1.0 3868:1.0 3868:1.0 3868:1.0 4913:1.0 4928:1.0 6232:1.0 7813:1.0 12568:1.0 14422:1.0 20238:1.0 23006:1.0 28005:1.0 32270:1.0 34382:1.0 37062:1.0 41060:1.0 41776:1.0 42191:1.0 46403:1.0 
0.001658337797692272 0.0 1691:1.0 2876:1.0 4621:1.0 4621:1.0 4638:1.0 4638:1.0 5795:1.0 5795:1.0 5810:1.0 5810:1.0 6091:1.0 9493:1.0 15616:1.0 18076:1.0 25134:1.0 27340:1.0 30707:1.0 32123:1.0 32944:1.0 36849:1.0 36946:1.0 41486:1.0 
4.308770343004285E-4 0.0 1386:1.0 2373:1.0 3851:1.0 3851:1.0 3868:1.0 3868:1.0 4913:1.0 4913:1.0 4928:1.0 4928:1.0 5141:1.0 7813:1.0 12538:1.0 14422:1.0 20771:1.0 23007:1.0 30814:1.0 32258:1.0 33098:1.0 37062:1.0 37171:1.0 41780:1.0 43826:1.0 46413:1.0 
3.694039349247506E-4 1.5205122344944474E-4 1739:1.0 2374:1.0 3851:1.0 3868:1.0 4913:1.0 4928:1.0 5686:1.0 7808:1.0 10724:1.0 10724:1.0 10739:1.0 10739:1.0 12863:1.0 14422:1.0 20771:1.0 23007:1.0 30981:1.0 32258:1.0 33098:1.0 37062:1.0 37724:1.0 41780:1.0 44495:1.0 46411:1.0 
0.0013578544850197636 0.0 1070:1.0 2876:1.0 4621:1.0 4621:1.0 4638:1.0 4638:1.0 5795:1.0 5810:1.0 8431:1.0 9493:1.0 14674:1.0 18078:1.0 26438:1.0 27329:1.0 28374:1.0 32125:1.0 33793:1.0 36850:1.0 38234:1.0 41474:1.0 
0.003956148477208296 0.001226158787406017 1135:1.0 2377:1.0 4913:1.0 4928:1.0 7388:1.0 7811:1.0 13360:1.0 14422:1.0 18800:1.0 22996:1.0 30824:1.0 32262:1.0 34894:1.0 37063:1.0 41098:1.0 41771:1.0 42756:1.0 46408:1.0 
7.65197451181191E-4 3.5958978597678675E-4 1135:1.0 2377:1.0 4913:1.0 4928:1.0 7388:1.0 7811:1.0 13360:1.0 14422:1.0 18800:1.0 22996:1.0 26436:1.0 26452:1.0 30063:1.0 32269:1.0 36369:1.0 37055:1.0 38062:1.0 41773:1.0 44721:1.0 46403:1.0 
0.0025002700237831002 5.906966006049604E-4 1200:1.0 2385:1.0 6794:1.0 7805:1.0 10724:1.0 10739:1.0 12387:1.0 14422:1.0 20584:1.0 23005:1.0 27781:1.0 32270:1.0 35877:1.0 37057:1.0 41403:1.0 41778:1.0 43224:1.0 46414:1.0 
0.002321940144242191 9.215088099532655E-4 1530:1.0 2373:1.0 4913:1.0 4928:1.0 6232:1.0 7813:1.0 12568:1.0 14422:1.0 18451:1.0 23008:1.0 31062:1.0 32263:1.0 36680:1.0 37062:1.0 38536:1.0 41779:1.0 42822:1.0 46403:1.0 
4.97163755819318E-4 0.0 234:1.0 2380:1.0 3851:1.0 3868:1.0 4913:1.0 4928:1.0 7534:1.0 7805:1.0 9550:1.0 9550:1.0 9550:1.0 9550:1.0 9567:1.0 9567:1.0 9567:1.0 9567:1.0 10724:1.0 10739:1.0 14046:1.0 14422:1.0 20238:1.0 23006:1.0 31986:1.0 32266:1.0 33422:1.0 37052:1.0 39143:1.0 41778:1.0 43982:1.0 46403:1.0 
7.716461713415059E-4 0.0014016045840091634 134:1.0 3682:1.0 7402:1.0 7402:1.0 7402:1.0 7402:1.0 7417:1.0 7417:1.0 7417:1.0 7417:1.0 11547:1.0 12263:1.0 16827:1.0 21521:1.0 26234:1.0 26317:1.0 27788:1.0 31036:1.0 33919:1.0 35663:1.0 
0.0013148837374842228 9.342987436887436E-4 134:1.0 3682:1.0 7402:1.0 7402:1.0 7402:1.0 7402:1.0 7417:1.0 7417:1.0 7417:1.0 7417:1.0 12174:1.0 12261:1.0 16737:1.0 16737:1.0 16752:1.0 16752:1.0 18169:1.0 21526:1.0 24506:1.0 26312:1.0 27075:1.0 31038:1.0 34734:1.0 35668:1.0 
5.442983783096985E-4 0.0018934549764699942 134:1.0 3682:1.0 7402:1.0 7402:1.0 7402:1.0 7402:1.0 7417:1.0 7417:1.0 7417:1.0 7417:1.0 12174:1.0 12261:1.0 15696:1.0 15712:1.0 16737:1.0 16737:1.0 16752:1.0 16752:1.0 17445:1.0 21528:1.0 25347:1.0 26317:1.0 29548:1.0 31039:1.0 31723:1.0 35663:1.0 
3.4317729224568806E-4 0.004578716439006053 134:1.0 3682:1.0 6177:1.0 6177:1.0 6194:1.0 6194:1.0 7402:1.0 7402:1.0 7402:1.0 7402:1.0 7417:1.0 7417:1.0 7417:1.0 7417:1.0 9886:1.0 12269:1.0 19754:1.0 21528:1.0 24807:1.0 26323:1.0 26721:1.0 31028:1.0 33086:1.0 35673:1.0 
0.0 0.0011597669238982877 134:1.0 3682:1.0 6177:1.0 6177:1.0 6194:1.0 6194:1.0 7402:1.0 7402:1.0 7402:1.0 7402:1.0 7417:1.0 7417:1.0 7417:1.0 7417:1.0 7755:1.0 12256:1.0 16737:1.0 16737:1.0 16737:1.0 16752:1.0 16752:1.0 16752:1.0 18802:1.0 21528:1.0 25355:1.0 26312:1.0 28403:1.0 31038:1.0 35248:1.0 35663:1.0 
0.00130497049238862 7.304144135081524E-5 2023:1.0 2379:1.0 6061:1.0 7805:1.0 10724:1.0 10724:1.0 10739:1.0 10739:1.0 12863:1.0 14422:1.0 20495:1.0 23009:1.0 28917:1.0 32269:1.0 35740:1.0 37052:1.0 39383:1.0 41781:1.0 43826:1.0 46413:1.0 
7.088135384015326E-4 0.0 2315:1.0 2377:1.0 3851:1.0 3868:1.0 4913:1.0 4928:1.0 5341:1.0 7814:1.0 11000:1.0 14422:1.0 22287:1.0 23003:1.0 28317:1.0 32269:1.0 35995:1.0 37052:1.0 39383:1.0 41781:1.0 44932:1.0 46407:1.0 
0.0019069814943839059 9.778148023633031E-5 512:1.0 2373:1.0 3851:1.0 3868:1.0 4913:1.0 4928:1.0 7498:1.0 7816:1.0 12863:1.0 14422:1.0 21469:1.0 23008:1.0 28964:1.0 32262:1.0 33303:1.0 37054:1.0 37209:1.0 41771:1.0 42171:1.0 46408:1.0 
3.922857260541636E-4 0.0 2023:1.0 2379:1.0 5623:1.0 7805:1.0 9550:1.0 9567:1.0 10724:1.0 10739:1.0 13329:1.0 14422:1.0 21439:1.0 23007:1.0 30008:1.0 32258:1.0 33295:1.0 37064:1.0 39797:1.0 41772:1.0 42512:1.0 46413:1.0 
0.0018213335119779761 0.0 1002:1.0 2876:1.0 4621:1.0 4621:1.0 4621:1.0 4638:1.0 4638:1.0 4638:1.0 5795:1.0 5810:1.0 7934:1.0 9493:1.0 14274:1.0 18078:1.0 23938:1.0 27333:1.0 28607:1.0 32123:1.0 32944:1.0 36849:1.0 37910:1.0 41485:1.0 
5.366125866732828E-4 5.323453921518146E-4 1380:1.0 2373:1.0 3851:1.0 3851:1.0 3868:1.0 3868:1.0 4913:1.0 4928:1.0 6569:1.0 7805:1.0 10724:1.0 10724:1.0 10739:1.0 10739:1.0 13592:1.0 14422:1.0 20495:1.0 23009:1.0 29720:1.0 32263:1.0 33866:1.0 37062:1.0 38722:1.0 41779:1.0 44491:1.0 46403:1.0 
2.123344286339906E-4 0.0 2023:1.0 2375:1.0 7654:1.0 7805:1.0 9550:1.0 9567:1.0 10724:1.0 10739:1.0 11946:1.0 14422:1.0 19708:1.0 23006:1.0 31481:1.0 32263:1.0 33765:1.0 37063:1.0 38774:1.0 41772:1.0 42759:1.0 46403:1.0 
0.0 4.2887374682526366E-4 2023:1.0 2379:1.0 5899:1.0 7805:1.0 10724:1.0 10724:1.0 10739:1.0 10739:1.0 13329:1.0 14422:1.0 21476:1.0 22996:1.0 26436:1.0 26452:1.0 27477:1.0 27492:1.0 28687:1.0 32269:1.0 36369:1.0 37055:1.0 39835:1.0 41773:1.0 46392:1.0 46403:1.0 
2.868670406602568E-4 0.0016089710760808643 507:1.0 2373:1.0 4913:1.0 4913:1.0 4928:1.0 4928:1.0 5069:1.0 7809:1.0 9550:1.0 9550:1.0 9567:1.0 9567:1.0 10724:1.0 10724:1.0 10724:1.0 10724:1.0 10724:1.0 10739:1.0 10739:1.0 10739:1.0 10739:1.0 10739:1.0 14263:1.0 14422:1.0 18142:1.0 18157:1.0 22287:1.0 23003:1.0 29790:1.0 32271:1.0 36852:1.0 37061:1.0 41098:1.0 41775:1.0 43681:1.0 46408:1.0 
0.0018892544815778613 2.518169234808596E-4 2271:1.0 2381:1.0 4913:1.0 4928:1.0 7388:1.0 7811:1.0 14263:1.0 14422:1.0 16917:1.0 16934:1.0 18142:1.0 18157:1.0 20085:1.0 23001:1.0 29270:1.0 32269:1.0 35370:1.0 37052:1.0 40617:1.0 41775:1.0 42735:1.0 46412:1.0 
6.016698333803088E-5 4.0213630997292485E-5 2271:1.0 2381:1.0 4913:1.0 4928:1.0 7388:1.0 7811:1.0 14263:1.0 14422:1.0 16917:1.0 16934:1.0 18142:1.0 18157:1.0 20085:1.0 23001:1.0 26436:1.0 26452:1.0 31066:1.0 32265:1.0 33266:1.0 37061:1.0 39383:1.0 41781:1.0 42611:1.0 46416:1.0 
0.0 1.0348172433647815E-6 507:1.0 2373:1.0 4913:1.0 4913:1.0 4928:1.0 4928:1.0 5069:1.0 7809:1.0 9550:1.0 9550:1.0 9567:1.0 9567:1.0 10724:1.0 10724:1.0 10724:1.0 10724:1.0 10724:1.0 10739:1.0 10739:1.0 10739:1.0 10739:1.0 10739:1.0 14263:1.0 14422:1.0 18142:1.0 18157:1.0 22287:1.0 23003:1.0 32053:1.0 32267:1.0 32309:1.0 32317:1.0 32348:1.0 32358:1.0 34233:1.0 37057:1.0 37095:1.0 37095:1.0 37103:1.0 37103:1.0 39383:1.0 41781:1.0 42611:1.0 46416:1.0 
0.0 0.0015978878539621608 2271:1.0 2381:1.0 4913:1.0 4928:1.0 7388:1.0 7811:1.0 14263:1.0 14422:1.0 16917:1.0 16934:1.0 18142:1.0 18157:1.0 20085:1.0 23001:1.0 26436:1.0 26436:1.0 26452:1.0 26452:1.0 29790:1.0 32271:1.0 33140:1.0 37065:1.0 
4.303697245917451E-4 0.0 1950:1.0 2373:1.0 3851:1.0 3851:1.0 3868:1.0 3868:1.0 4913:1.0 4928:1.0 7498:1.0 7816:1.0 13329:1.0 14422:1.0 19797:1.0 23007:1.0 28299:1.0 32258:1.0 34274:1.0 37056:1.0 37418:1.0 41780:1.0 45744:1.0 46410:1.0 
8.72835257637887E-4 5.393032204495276E-4 2023:1.0 2379:1.0 5637:1.0 7805:1.0 9550:1.0 9567:1.0 10724:1.0 10739:1.0 13744:1.0 14422:1.0 20238:1.0 23006:1.0 28060:1.0 32263:1.0 35318:1.0 37062:1.0 38722:1.0 41779:1.0 46247:1.0 46403:1.0 
3.777183002884706E-4 0.0 2023:1.0 2379:1.0 5283:1.0 7805:1.0 9550:1.0 9550:1.0 9567:1.0 9567:1.0 10724:1.0 10739:1.0 12312:1.0 14422:1.0 19708:1.0 23006:1.0 30823:1.0 32263:1.0 33953:1.0 37063:1.0 39239:1.0 41768:1.0 42135:1.0 46413:1.0 
0.003794428588659263 6.3944998484847E-4 1383:1.0 2888:1.0 6551:1.0 9493:1.0 15395:1.0 18078:1.0 23423:1.0 27329:1.0 29453:1.0 32133:1.0 35937:1.0 36843:1.0 40904:1.0 41474:1.0 
0.003118981333786491 0.0 1200:1.0 2385:1.0 7388:1.0 7807:1.0 13329:1.0 14422:1.0 19603:1.0 23007:1.0 29467:1.0 32258:1.0 33140:1.0 37065:1.0 
0.003972405196746864 1.9760543683380584E-4 1900:1.0 2377:1.0 3851:1.0 3868:1.0 4913:1.0 4928:1.0 7092:1.0 7814:1.0 13944:1.0 14422:1.0 18515:1.0 23008:1.0 29542:1.0 32268:1.0 36212:1.0 37060:1.0 39702:1.0 41768:1.0 42611:1.0 46416:1.0 
0.0027778684308278397 0.0 1587:1.0 2377:1.0 3851:1.0 3868:1.0 4913:1.0 4928:1.0 7092:1.0 7814:1.0 13944:1.0 14422:1.0 20993:1.0 23004:1.0 31176:1.0 32258:1.0 33140:1.0 37065:1.0 
0.0016194973404215689 4.77147910334469E-4 526:1.0 2373:1.0 3851:1.0 3868:1.0 4913:1.0 4913:1.0 4928:1.0 4928:1.0 7388:1.0 7807:1.0 11084:1.0 14422:1.0 20584:1.0 23005:1.0 31060:1.0 32263:1.0 35318:1.0 37062:1.0 38536:1.0 41779:1.0 45774:1.0 46403:1.0 
6.909800640989401E-4 0.0 2023:1.0 2379:1.0 7271:1.0 7805:1.0 9550:1.0 9550:1.0 9550:1.0 9567:1.0 9567:1.0 9567:1.0 10724:1.0 10739:1.0 12863:1.0 14422:1.0 20771:1.0 23007:1.0 28741:1.0 32258:1.0 36369:1.0 37055:1.0 37480:1.0 41780:1.0 45053:1.0 46408:1.0 
0.005715215779771212 2.609420608466674E-4 1767:1.0 2876:1.0 4621:1.0 4638:1.0 5795:1.0 5810:1.0 6155:1.0 9493:1.0 13725:1.0 18072:1.0 23139:1.0 27333:1.0 31939:1.0 32133:1.0 36002:1.0 36839:1.0 39106:1.0 41478:1.0 
3.643017664313938E-4 6.494632791272809E-4 1536:1.0 2880:1.0 4621:1.0 4621:1.0 4638:1.0 4638:1.0 5795:1.0 5795:1.0 5795:1.0 5795:1.0 5810:1.0 5810:1.0 5810:1.0 5810:1.0 9334:1.0 9493:1.0 13213:1.0 13213:1.0 13228:1.0 13228:1.0 15007:1.0 18070:1.0 22770:1.0 27334:1.0 31440:1.0 32130:1.0 33451:1.0 36845:1.0 38230:1.0 41486:1.0 
0.0015986145730685513 0.0013166057925851121 1536:1.0 2880:1.0 4621:1.0 4621:1.0 4638:1.0 4638:1.0 5795:1.0 5795:1.0 5795:1.0 5795:1.0 5810:1.0 5810:1.0 5810:1.0 5810:1.0 9334:1.0 9493:1.0 13213:1.0 13213:1.0 13228:1.0 13228:1.0 13439:1.0 18072:1.0 22548:1.0 22563:1.0 26632:1.0 27336:1.0 28680:1.0 32129:1.0 33541:1.0 36851:1.0 40673:1.0 41483:1.0 
0.0 6.510208081442565E-4 1661:1.0 2377:1.0 4913:1.0 4913:1.0 4913:1.0 4928:1.0 4928:1.0 4928:1.0 6745:1.0 7814:1.0 14284:1.0 14422:1.0 16917:1.0 16934:1.0 19708:1.0 23006:1.0 28801:1.0 32264:1.0 36369:1.0 37059:1.0 39003:1.0 41773:1.0 43907:1.0 46414:1.0 
0.0020304482043456205 8.175560093111902E-4 1661:1.0 2377:1.0 4913:1.0 4913:1.0 4913:1.0 4928:1.0 4928:1.0 4928:1.0 6745:1.0 7814:1.0 14284:1.0 14422:1.0 16917:1.0 16934:1.0 19487:1.0 23002:1.0 27477:1.0 27492:1.0 31561:1.0 32265:1.0 34239:1.0 37057:1.0 39224:1.0 41779:1.0 44343:1.0 46403:1.0 
6.196210635162247E-4 0.0 166:1.0 2373:1.0 3851:1.0 3868:1.0 4913:1.0 4928:1.0 7498:1.0 7816:1.0 11084:1.0 14422:1.0 20584:1.0 23005:1.0 30091:1.0 32263:1.0 34755:1.0 37065:1.0 38309:1.0 41779:1.0 45744:1.0 46406:1.0 
0.005461396635896347 0.0011654775783672302 1892:1.0 3682:1.0 7457:1.0 12264:1.0 19739:1.0 21518:1.0 24015:1.0 26325:1.0 27796:1.0 31039:1.0 32246:1.0 35663:1.0 
0.0012254590008338611 0.0 1138:1.0 2385:1.0 7498:1.0 7816:1.0 14398:1.0 14422:1.0 20238:1.0 23006:1.0 29825:1.0 32258:1.0 34627:1.0 37065:1.0 39072:1.0 41775:1.0 44731:1.0 46413:1.0 
2.626896244218775E-4 1.9764905448719835E-4 1200:1.0 2385:1.0 5456:1.0 7805:1.0 9550:1.0 9567:1.0 10724:1.0 10724:1.0 10739:1.0 10739:1.0 13360:1.0 14422:1.0 20771:1.0 23007:1.0 31390:1.0 32258:1.0 34382:1.0 37062:1.0 38536:1.0 41779:1.0 43569:1.0 46403:1.0 
0.0014997869471539329 5.470097172718675E-4 1138:1.0 2385:1.0 6252:1.0 7816:1.0 14398:1.0 14422:1.0 20324:1.0 23007:1.0 30955:1.0 32258:1.0 34755:1.0 37065:1.0 41750:1.0 41777:1.0 44956:1.0 46414:1.0 
9.744099544729205E-4 0.0 2093:1.0 2876:1.0 4621:1.0 4638:1.0 5795:1.0 5795:1.0 5795:1.0 5795:1.0 5810:1.0 5810:1.0 5810:1.0 5810:1.0 9469:1.0 9493:1.0 16510:1.0 18078:1.0 27153:1.0 27329:1.0 28937:1.0 32133:1.0 33218:1.0 36850:1.0 37216:1.0 41474:1.0 
0.0013526000128553115 0.0 1528:1.0 2377:1.0 3851:1.0 3868:1.0 6404:1.0 7807:1.0 13592:1.0 14422:1.0 19603:1.0 23007:1.0 31303:1.0 32258:1.0 33566:1.0 37056:1.0 39143:1.0 41778:1.0 43409:1.0 46414:1.0 
0.0013995954786606589 8.490747353682719E-4 2023:1.0 2379:1.0 5092:1.0 7816:1.0 13944:1.0 14422:1.0 21439:1.0 23007:1.0 28365:1.0 32258:1.0 36369:1.0 37059:1.0 38657:1.0 41773:1.0 44322:1.0 46414:1.0 
6.139533171030364E-4 5.696355078146309E-5 754:1.0 2377:1.0 3851:1.0 3868:1.0 4913:1.0 4913:1.0 4913:1.0 4913:1.0 4928:1.0 4928:1.0 4928:1.0 4928:1.0 6376:1.0 7809:1.0 10724:1.0 10724:1.0 10739:1.0 10739:1.0 14027:1.0 14422:1.0 19100:1.0 23003:1.0 28917:1.0 32269:1.0 32837:1.0 37052:1.0 41119:1.0 41772:1.0 43826:1.0 46413:1.0 
0.004027293810717997 0.0 1982:1.0 2876:1.0 4621:1.0 4638:1.0 5795:1.0 5810:1.0 7458:1.0 9493:1.0 16478:1.0 18076:1.0 24089:1.0 27339:1.0 30882:1.0 32128:1.0 32280:1.0 36842:1.0 41300:1.0 41484:1.0 
3.428746046526396E-4 0.0 1622:1.0 2373:1.0 3851:1.0 3868:1.0 4913:1.0 4928:1.0 6232:1.0 7813:1.0 13196:1.0 14422:1.0 19708:1.0 23006:1.0 30994:1.0 32263:1.0 32431:1.0 37055:1.0 41589:1.0 41778:1.0 43409:1.0 46414:1.0 
4.680483633836823E-4 1.6411081075186704E-4 2023:1.0 2379:1.0 6041:1.0 7809:1.0 9550:1.0 9567:1.0 10724:1.0 10724:1.0 10724:1.0 10739:1.0 10739:1.0 10739:1.0 13329:1.0 14422:1.0 19603:1.0 23007:1.0 31398:1.0 32258:1.0 33372:1.0 37056:1.0 40063:1.0 41778:1.0 43224:1.0 46414:1.0 
0.0014647076793284904 6.863892086152724E-4 2181:1.0 2377:1.0 3851:1.0 3868:1.0 4913:1.0 4928:1.0 7388:1.0 7807:1.0 12816:1.0 14422:1.0 20584:1.0 23005:1.0 29502:1.0 32263:1.0 35394:1.0 37064:1.0 40063:1.0 41778:1.0 44743:1.0 46403:1.0 
3.8216859266077376E-4 0.0 2310:1.0 2384:1.0 3851:1.0 3851:1.0 3868:1.0 3868:1.0 4913:1.0 4928:1.0 6634:1.0 7805:1.0 10724:1.0 10739:1.0 13297:1.0 14422:1.0 19708:1.0 23006:1.0 30058:1.0 32263:1.0 32431:1.0 37055:1.0 39143:1.0 41778:1.0 41935:1.0 46403:1.0 
0.0013648231926309021 0.002239126225733009 1807:1.0 3682:1.0 7402:1.0 7402:1.0 7417:1.0 7417:1.0 8403:1.0 12267:1.0 16969:1.0 21518:1.0 25567:1.0 26325:1.0 30375:1.0 31035:1.0 32992:1.0 35669:1.0 
0.0021884241677468962 0.005414233395705221 1807:1.0 3682:1.0 7402:1.0 7402:1.0 7417:1.0 7417:1.0 7638:1.0 12256:1.0 16737:1.0 16752:1.0 20758:1.0 21531:1.0 25646:1.0 26319:1.0 28308:1.0 31034:1.0 33448:1.0 35676:1.0 
0.002259283576213691 0.0 296:1.0 2876:1.0 4621:1.0 4638:1.0 5795:1.0 5795:1.0 5810:1.0 5810:1.0 8020:1.0 9493:1.0 15697:1.0 18080:1.0 26718:1.0 27339:1.0 29403:1.0 32123:1.0 33708:1.0 36849:1.0 37246:1.0 41474:1.0 
0.0016201150925062987 0.0 296:1.0 2876:1.0 4621:1.0 4638:1.0 5795:1.0 5795:1.0 5810:1.0 5810:1.0 8020:1.0 9493:1.0 17444:1.0 18077:1.0 22548:1.0 22563:1.0 24561:1.0 27329:1.0 28937:1.0 32133:1.0 32547:1.0 36839:1.0 39259:1.0 41487:1.0 
0.0012895383599475772 1.784260774850525E-4 296:1.0 2876:1.0 4621:1.0 4638:1.0 5795:1.0 5795:1.0 5810:1.0 5810:1.0 8020:1.0 9493:1.0 17444:1.0 18077:1.0 21507:1.0 21523:1.0 22548:1.0 22563:1.0 24089:1.0 27339:1.0 27770:1.0 32123:1.0 34579:1.0 36852:1.0 39393:1.0 41485:1.0 
0.0015176642032120559 5.330229512958032E-4 296:1.0 2876:1.0 4621:1.0 4638:1.0 5795:1.0 5795:1.0 5810:1.0 5810:1.0 8020:1.0 9493:1.0 17444:1.0 18077:1.0 21507:1.0 21507:1.0 21507:1.0 21523:1.0 21523:1.0 21523:1.0 22548:1.0 22563:1.0 24992:1.0 27342:1.0 29965:1.0 32134:1.0 36209:1.0 36839:1.0 39259:1.0 41487:1.0 
0.0 2.5202613950500464E-4 296:1.0 2876:1.0 4621:1.0 4638:1.0 5795:1.0 5795:1.0 5810:1.0 5810:1.0 8020:1.0 9493:1.0 17444:1.0 18077:1.0 21507:1.0 21507:1.0 21507:1.0 21507:1.0 21523:1.0 21523:1.0 21523:1.0 21523:1.0 22548:1.0 22563:1.0 25134:1.0 27340:1.0 31480:1.0 32123:1.0 34579:1.0 36852:1.0 40815:1.0 41477:1.0 
0.004301074355275019 7.699993915348171E-4 1170:1.0 2881:1.0 8663:1.0 9493:1.0 14674:1.0 18078:1.0 26222:1.0 27333:1.0 30389:1.0 32133:1.0 32619:1.0 36844:1.0 39259:1.0 41487:1.0 
0.0026090089191355475 0.0 363:1.0 2876:1.0 4621:1.0 4621:1.0 4638:1.0 4638:1.0 5795:1.0 5810:1.0 8858:1.0 9493:1.0 13522:1.0 18079:1.0 22769:1.0 27340:1.0 31060:1.0 32123:1.0 32866:1.0 36844:1.0 38027:1.0 41474:1.0 
6.271181692601409E-4 0.0 563:1.0 2373:1.0 3851:1.0 3851:1.0 3851:1.0 3851:1.0 3868:1.0 3868:1.0 3868:1.0 3868:1.0 6404:1.0 7807:1.0 13592:1.0 14422:1.0 19603:1.0 23007:1.0 29124:1.0 32258:1.0 36369:1.0 37055:1.0 38471:1.0 41773:1.0 42772:1.0 46405:1.0 
0.001271840313930985 7.308053367086643E-5 1791:1.0 2375:1.0 3851:1.0 3868:1.0 6404:1.0 7807:1.0 13592:1.0 14422:1.0 19603:1.0 23007:1.0 27824:1.0 32258:1.0 32703:1.0 37064:1.0 40311:1.0 41772:1.0 42512:1.0 46413:1.0 
0.0013348581771764816 2.018715402200764E-4 1138:1.0 2385:1.0 7671:1.0 7805:1.0 9550:1.0 9550:1.0 9550:1.0 9567:1.0 9567:1.0 9567:1.0 10724:1.0 10739:1.0 11268:1.0 14422:1.0 18340:1.0 23005:1.0 27805:1.0 32270:1.0 33769:1.0 37056:1.0 37815:1.0 41778:1.0 42401:1.0 46406:1.0 
0.0016886877839810803 2.8810562438103337E-5 2260:1.0 2373:1.0 3851:1.0 3851:1.0 3851:1.0 3868:1.0 3868:1.0 3868:1.0 4913:1.0 4928:1.0 5333:1.0 7813:1.0 10874:1.0 14422:1.0 18475:1.0 23008:1.0 28921:1.0 32262:1.0 33040:1.0 37062:1.0 37704:1.0 41771:1.0 44063:1.0 46416:1.0 
3.5410265973778363E-4 1.6780467635509158E-4 1586:1.0 2378:1.0 4913:1.0 4928:1.0 5641:1.0 7807:1.0 12312:1.0 14422:1.0 19708:1.0 23006:1.0 28455:1.0 32263:1.0 34311:1.0 37059:1.0 39631:1.0 41779:1.0 44569:1.0 46403:1.0 
0.0010270140186211146 3.10500430343719E-4 974:1.0 2379:1.0 6061:1.0 7805:1.0 9550:1.0 9567:1.0 10724:1.0 10739:1.0 12938:1.0 14422:1.0 19708:1.0 23006:1.0 28340:1.0 32263:1.0 33866:1.0 37062:1.0 39746:1.0 41773:1.0 42389:1.0 46415:1.0 
0.0012433333825694307 0.0 2023:1.0 2379:1.0 7504:1.0 7805:1.0 9550:1.0 9567:1.0 10724:1.0 10739:1.0 12016:1.0 14422:1.0 18340:1.0 23005:1.0 29141:1.0 32263:1.0 34627:1.0 37065:1.0 41291:1.0 41772:1.0 46268:1.0 46405:1.0 
5.771632524738325E-4 0.003943774052636255 2344:1.0 2373:1.0 4913:1.0 4928:1.0 7256:1.0 7809:1.0 9550:1.0 9567:1.0 10724:1.0 10724:1.0 10724:1.0 10739:1.0 10739:1.0 10739:1.0 14263:1.0 14422:1.0 18142:1.0 18142:1.0 18157:1.0 18157:1.0 22526:1.0 22996:1.0 29188:1.0 32262:1.0 34627:1.0 37065:1.0 37915:1.0 41781:1.0 
0.0014642585210264338 0.0 2023:1.0 2379:1.0 7504:1.0 7805:1.0 9550:1.0 9567:1.0 10724:1.0 10739:1.0 13360:1.0 14422:1.0 20495:1.0 23009:1.0 31382:1.0 32258:1.0 36868:1.0 37062:1.0 38536:1.0 41779:1.0 42078:1.0 46403:1.0 
0.0016061927507792803 6.062768744913822E-5 2112:1.0 2384:1.0 4975:1.0 7807:1.0 12312:1.0 14422:1.0 19708:1.0 23006:1.0 28814:1.0 32263:1.0 32467:1.0 37052:1.0 39143:1.0 41778:1.0 44912:1.0 46403:1.0 
5.458874340477989E-4 0.0 2023:1.0 2379:1.0 6238:1.0 7805:1.0 9550:1.0 9550:1.0 9567:1.0 9567:1.0 10724:1.0 10739:1.0 14398:1.0 14422:1.0 20495:1.0 23009:1.0 31810:1.0 32262:1.0 34627:1.0 37065:1.0 38078:1.0 41770:1.0 43459:1.0 46408:1.0 
0.0018450669022140472 5.551922701490053E-4 749:1.0 2382:1.0 5771:1.0 7815:1.0 11282:1.0 14422:1.0 22287:1.0 23003:1.0 28917:1.0 32269:1.0 34508:1.0 37052:1.0 39383:1.0 41781:1.0 46367:1.0 46408:1.0 
6.085749326633145E-4 4.09270360256403E-5 2003:1.0 2373:1.0 3851:1.0 3851:1.0 3868:1.0 3868:1.0 4913:1.0 4913:1.0 4928:1.0 4928:1.0 6213:1.0 7805:1.0 9550:1.0 9567:1.0 11084:1.0 14422:1.0 20584:1.0 23005:1.0 30194:1.0 32263:1.0 36908:1.0 37054:1.0 40039:1.0 41773:1.0 44731:1.0 46413:1.0 
0.0010325563003771542 0.0 2023:1.0 2375:1.0 4913:1.0 4913:1.0 4928:1.0 4928:1.0 7580:1.0 7812:1.0 13360:1.0 14422:1.0 19708:1.0 23006:1.0 31387:1.0 32258:1.0 33281:1.0 37056:1.0 38078:1.0 41770:1.0 43024:1.0 46411:1.0 
0.0016509322228287085 1.9626323537634674E-4 1849:1.0 2376:1.0 5341:1.0 7814:1.0 13119:1.0 14422:1.0 19708:1.0 23006:1.0 32073:1.0 32263:1.0 35547:1.0 37063:1.0 37557:1.0 41768:1.0 44188:1.0 46416:1.0 
2.3066192549320018E-4 0.0 2023:1.0 2379:1.0 5899:1.0 7805:1.0 10724:1.0 10724:1.0 10739:1.0 10739:1.0 13329:1.0 14422:1.0 19797:1.0 23007:1.0 30761:1.0 32258:1.0 34382:1.0 37062:1.0 38536:1.0 41779:1.0 42603:1.0 46409:1.0 
0.0075565820850469435 8.733745161742309E-4 2023:1.0 2379:1.0 5899:1.0 7805:1.0 10724:1.0 10724:1.0 10739:1.0 10739:1.0 13329:1.0 14422:1.0 21476:1.0 22996:1.0 27477:1.0 27492:1.0 29542:1.0 32268:1.0 33765:1.0 37063:1.0 37906:1.0 41774:1.0 43000:1.0 46414:1.0 
0.0013342741208147656 0.0 2023:1.0 2379:1.0 5899:1.0 7805:1.0 10724:1.0 10724:1.0 10739:1.0 10739:1.0 13329:1.0 14422:1.0 21476:1.0 22996:1.0 26436:1.0 26452:1.0 27477:1.0 27492:1.0 28687:1.0 32269:1.0 36369:1.0 37055:1.0 39835:1.0 41778:1.0 46392:1.0 46403:1.0 
0.002250621025598593 1.773988291814495E-4 2329:1.0 2378:1.0 4913:1.0 4928:1.0 6312:1.0 7817:1.0 12387:1.0 14422:1.0 20584:1.0 23005:1.0 32012:1.0 32270:1.0 36472:1.0 37056:1.0 39383:1.0 41781:1.0 42570:1.0 46413:1.0 
0.00179400489470484 0.0 1138:1.0 2385:1.0 6232:1.0 7813:1.0 12568:1.0 14422:1.0 22742:1.0 23008:1.0 31666:1.0 32262:1.0 34627:1.0 37065:1.0 37873:1.0 41778:1.0 44416:1.0 46403:1.0 
0.0012278963090316718 3.9637327039850835E-5 2253:1.0 2376:1.0 3851:1.0 3851:1.0 3851:1.0 3851:1.0 3868:1.0 3868:1.0 3868:1.0 3868:1.0 5059:1.0 7809:1.0 10874:1.0 14422:1.0 19797:1.0 23007:1.0 31225:1.0 32258:1.0 34382:1.0 37062:1.0 38536:1.0 41779:1.0 46318:1.0 46409:1.0 
0.003335936190674339 1.943121561776981E-4 1576:1.0 2878:1.0 4621:1.0 4638:1.0 8400:1.0 9493:1.0 16277:1.0 18077:1.0 24176:1.0 27340:1.0 27554:1.0 32123:1.0 34214:1.0 36849:1.0 39134:1.0 41487:1.0 
0.0 0.0023651243781381208 16:1.0 2377:1.0 3851:1.0 3851:1.0 3851:1.0 3868:1.0 3868:1.0 3868:1.0 4913:1.0 4928:1.0 7479:1.0 7809:1.0 10724:1.0 10739:1.0 14263:1.0 14422:1.0 18142:1.0 18142:1.0 18157:1.0 18157:1.0 22287:1.0 23003:1.0 31806:1.0 32263:1.0 33373:1.0 37055:1.0 38860:1.0 41768:1.0 44188:1.0 46416:1.0 
0.001997906792597977 7.990483494203351E-4 16:1.0 2377:1.0 3851:1.0 3851:1.0 3851:1.0 3868:1.0 3868:1.0 3868:1.0 4913:1.0 4928:1.0 7479:1.0 7809:1.0 10724:1.0 10739:1.0 14263:1.0 14422:1.0 18142:1.0 18142:1.0 18157:1.0 18157:1.0 22533:1.0 23001:1.0 27477:1.0 27492:1.0 28521:1.0 32261:1.0 34095:1.0 37052:1.0 39508:1.0 41781:1.0 46366:1.0 46405:1.0 
0.0 0.001182919800494248 16:1.0 2377:1.0 3851:1.0 3851:1.0 3851:1.0 3868:1.0 3868:1.0 3868:1.0 4913:1.0 4928:1.0 7479:1.0 7809:1.0 10724:1.0 10739:1.0 14263:1.0 14422:1.0 18142:1.0 18142:1.0 18157:1.0 18157:1.0 22533:1.0 23001:1.0 26436:1.0 26452:1.0 27477:1.0 27492:1.0 29248:1.0 32258:1.0 34755:1.0 37065:1.0 41728:1.0 41770:1.0 46213:1.0 46412:1.0 
0.0 0.001453714513277216 16:1.0 2377:1.0 3851:1.0 3851:1.0 3851:1.0 3868:1.0 3868:1.0 3868:1.0 4913:1.0 4928:1.0 7479:1.0 7809:1.0 10724:1.0 10739:1.0 14263:1.0 14422:1.0 16917:1.0 16917:1.0 16917:1.0 16934:1.0 16934:1.0 16934:1.0 18142:1.0 18142:1.0 18157:1.0 18157:1.0 22785:1.0 23005:1.0 30275:1.0 32258:1.0 32705:1.0 37062:1.0 40815:1.0 41771:1.0 45978:1.0 46408:1.0 
0.0 0.002721818807580052 16:1.0 2377:1.0 3851:1.0 3851:1.0 3851:1.0 3868:1.0 3868:1.0 3868:1.0 4913:1.0 4928:1.0 7479:1.0 7809:1.0 10724:1.0 10739:1.0 14263:1.0 14422:1.0 16917:1.0 16917:1.0 16917:1.0 16934:1.0 16934:1.0 16934:1.0 18142:1.0 18142:1.0 18157:1.0 18157:1.0 22785:1.0 23005:1.0 26436:1.0 26452:1.0 27845:1.0 32268:1.0 36081:1.0 37055:1.0 41334:1.0 41773:1.0 43000:1.0 46406:1.0 
0.0 0.0010685332741598515 2093:1.0 2377:1.0 4913:1.0 4928:1.0 7682:1.0 7813:1.0 9550:1.0 9550:1.0 9550:1.0 9567:1.0 9567:1.0 9567:1.0 10724:1.0 10724:1.0 10739:1.0 10739:1.0 14263:1.0 14422:1.0 16917:1.0 16934:1.0 18517:1.0 23006:1.0 31270:1.0 32261:1.0 36611:1.0 37057:1.0 38309:1.0 41771:1.0 42611:1.0 46416:1.0 
0.0018110857675724338 0.0035355758116662225 2093:1.0 2377:1.0 4913:1.0 4928:1.0 7682:1.0 7813:1.0 9550:1.0 9550:1.0 9550:1.0 9567:1.0 9567:1.0 9567:1.0 10724:1.0 10724:1.0 10739:1.0 10739:1.0 14263:1.0 14422:1.0 16917:1.0 16934:1.0 22533:1.0 23001:1.0 27477:1.0 27477:1.0 27492:1.0 27492:1.0 28687:1.0 32261:1.0 33140:1.0 37065:1.0 
0.0016220920613351348 0.0 2023:1.0 2379:1.0 7193:1.0 7807:1.0 13020:1.0 14422:1.0 19708:1.0 23006:1.0 28024:1.0 32263:1.0 36729:1.0 37056:1.0 39383:1.0 41781:1.0 44188:1.0 46416:1.0 
0.002622650769693167 1.740967270928248E-4 1688:1.0 2880:1.0 5795:1.0 5795:1.0 5810:1.0 5810:1.0 7478:1.0 9493:1.0 17358:1.0 18074:1.0 22676:1.0 27332:1.0 30835:1.0 32128:1.0 33793:1.0 36850:1.0 41073:1.0 41474:1.0 
5.80382332331762E-4 0.0 2023:1.0 2379:1.0 4995:1.0 7810:1.0 9550:1.0 9567:1.0 13329:1.0 14422:1.0 21439:1.0 23007:1.0 28726:1.0 32258:1.0 33098:1.0 37062:1.0 41014:1.0 41772:1.0 42413:1.0 46403:1.0 
0.0015514965086292538 9.453589575511399E-4 2300:1.0 2375:1.0 6697:1.0 7807:1.0 12312:1.0 14422:1.0 19708:1.0 23006:1.0 27835:1.0 32263:1.0 36369:1.0 37059:1.0 37433:1.0 41773:1.0 44731:1.0 46413:1.0 
0.00517459968601345 6.627705613854098E-4 1892:1.0 3682:1.0 7457:1.0 12264:1.0 19739:1.0 21518:1.0 22843:1.0 26320:1.0 28403:1.0 31038:1.0 33781:1.0 35663:1.0 
0.003712935637697967 4.452738697674911E-6 1308:1.0 2373:1.0 3851:1.0 3868:1.0 4913:1.0 4913:1.0 4928:1.0 4928:1.0 7243:1.0 7809:1.0 10724:1.0 10739:1.0 14061:1.0 14422:1.0 20186:1.0 22996:1.0 27477:1.0 27492:1.0 29921:1.0 32271:1.0 35794:1.0 37057:1.0 40288:1.0 41779:1.0 45432:1.0 46403:1.0 
4.4382923834606643E-4 0.0 2019:1.0 2373:1.0 3851:1.0 3868:1.0 4913:1.0 4913:1.0 4928:1.0 4928:1.0 6712:1.0 7805:1.0 9550:1.0 9550:1.0 9550:1.0 9550:1.0 9550:1.0 9567:1.0 9567:1.0 9567:1.0 9567:1.0 9567:1.0 10724:1.0 10739:1.0 12863:1.0 14422:1.0 20771:1.0 23007:1.0 31561:1.0 32261:1.0 32703:1.0 37064:1.0 41244:1.0 41768:1.0 43826:1.0 46413:1.0 
7.084382397298693E-4 0.001095838762606543 2723:1.0 2880:1.0 5795:1.0 5810:1.0 9334:1.0 9493:1.0 13213:1.0 13213:1.0 13228:1.0 13228:1.0 16670:1.0 18075:1.0 23967:1.0 27329:1.0 29826:1.0 32136:1.0 35359:1.0 36850:1.0 36920:1.0 41482:1.0 
0.002711902483656317 0.0034775630489325784 2723:1.0 2880:1.0 5795:1.0 5810:1.0 9334:1.0 9493:1.0 13213:1.0 13213:1.0 13228:1.0 13228:1.0 14653:1.0 18067:1.0 22548:1.0 22563:1.0 24992:1.0 27342:1.0 30618:1.0 32134:1.0 32215:1.0 36847:1.0 41300:1.0 41484:1.0 
5.799012961218398E-4 0.002019455600815161 3523:1.0 3682:1.0 7402:1.0 7402:1.0 7402:1.0 7417:1.0 7417:1.0 7417:1.0 11877:1.0 12264:1.0 20427:1.0 21518:1.0 23283:1.0 26316:1.0 29323:1.0 31038:1.0 32669:1.0 35674:1.0 
0.0016783009807506417 0.003524666104515396 3523:1.0 3682:1.0 7402:1.0 7402:1.0 7402:1.0 7417:1.0 7417:1.0 7417:1.0 11146:1.0 12256:1.0 16737:1.0 16752:1.0 18435:1.0 21522:1.0 24578:1.0 26322:1.0 27982:1.0 31039:1.0 32715:1.0 35669:1.0 
0.0014059187469501902 0.0 2003:1.0 2373:1.0 3851:1.0 3868:1.0 4913:1.0 4913:1.0 4928:1.0 4928:1.0 7172:1.0 7805:1.0 10724:1.0 10739:1.0 13329:1.0 14422:1.0 20495:1.0 23009:1.0 31185:1.0 32270:1.0 32703:1.0 37064:1.0 38075:1.0 41772:1.0 44063:1.0 46416:1.0 
0.0033576569506485157 0.0 1825:1.0 2876:1.0 4621:1.0 4638:1.0 5795:1.0 5810:1.0 8577:1.0 9493:1.0 17146:1.0 18071:1.0 24958:1.0 27329:1.0 29453:1.0 32133:1.0 33793:1.0 36850:1.0 41432:1.0 41480:1.0 
0.0 5.632770370711859E-4 1339:1.0 2377:1.0 4913:1.0 4913:1.0 4928:1.0 4928:1.0 7119:1.0 7809:1.0 9550:1.0 9550:1.0 9550:1.0 9567:1.0 9567:1.0 9567:1.0 10724:1.0 10739:1.0 13119:1.0 14422:1.0 19708:1.0 23006:1.0 32081:1.0 32263:1.0 32728:1.0 37063:1.0 39752:1.0 41768:1.0 44322:1.0 46414:1.0 
9.574217374764202E-4 3.4115515391640967E-4 2023:1.0 2375:1.0 6566:1.0 7805:1.0 9550:1.0 9550:1.0 9567:1.0 9567:1.0 10724:1.0 10739:1.0 11395:1.0 14422:1.0 18468:1.0 23005:1.0 31806:1.0 32263:1.0 35679:1.0 37061:1.0 38570:1.0 41779:1.0 43229:1.0 46403:1.0 
4.082598556194396E-4 0.0 2369:1.0 2377:1.0 3851:1.0 3851:1.0 3868:1.0 3868:1.0 4913:1.0 4913:1.0 4928:1.0 4928:1.0 7533:1.0 7809:1.0 10724:1.0 10724:1.0 10724:1.0 10724:1.0 10724:1.0 10739:1.0 10739:1.0 10739:1.0 10739:1.0 10739:1.0 13329:1.0 14422:1.0 19638:1.0 23007:1.0 28922:1.0 32258:1.0 33303:1.0 37054:1.0 41275:1.0 41780:1.0 44471:1.0 46408:1.0 
0.0021551215840290316 2.2366750887154035E-4 1841:1.0 2384:1.0 6163:1.0 7814:1.0 12990:1.0 14422:1.0 21206:1.0 23006:1.0 29627:1.0 32269:1.0 35544:1.0 37052:1.0 41098:1.0 41775:1.0 44454:1.0 46405:1.0 
0.004792173720973344 8.949651953988455E-4 1841:1.0 2384:1.0 6163:1.0 7814:1.0 12990:1.0 14422:1.0 21436:1.0 22996:1.0 27477:1.0 27477:1.0 27492:1.0 27492:1.0 31561:1.0 32265:1.0 35035:1.0 37054:1.0 38570:1.0 41779:1.0 44256:1.0 46403:1.0 
0.00158239744002528 2.122821705955258E-4 2023:1.0 2379:1.0 7338:1.0 7805:1.0 9550:1.0 9550:1.0 9550:1.0 9567:1.0 9567:1.0 9567:1.0 10724:1.0 10739:1.0 13329:1.0 14422:1.0 20495:1.0 23009:1.0 29105:1.0 32269:1.0 36125:1.0 37056:1.0 41487:1.0 41768:1.0 43826:1.0 46413:1.0 
0.001702234220252639 0.0 2023:1.0 2379:1.0 7517:1.0 7805:1.0 10724:1.0 10724:1.0 10739:1.0 10739:1.0 13329:1.0 14422:1.0 18863:1.0 23006:1.0 28917:1.0 32269:1.0 36357:1.0 37052:1.0 38481:1.0 41772:1.0 44188:1.0 46416:1.0 
0.0021225772972287902 0.0 1847:1.0 2373:1.0 3851:1.0 3868:1.0 4913:1.0 4928:1.0 7498:1.0 7816:1.0 12863:1.0 14422:1.0 20324:1.0 23007:1.0 29790:1.0 32271:1.0 33355:1.0 37052:1.0 39383:1.0 41781:1.0 43826:1.0 46413:1.0 
4.642506457644261E-4 0.0 1200:1.0 2385:1.0 7388:1.0 7807:1.0 13329:1.0 14422:1.0 21439:1.0 23007:1.0 31549:1.0 32258:1.0 35678:1.0 37056:1.0 40944:1.0 41772:1.0 44188:1.0 46416:1.0 
5.6008955475030496E-6 0.0 2216:1.0 2373:1.0 3851:1.0 3868:1.0 4913:1.0 4913:1.0 4928:1.0 4928:1.0 7012:1.0 7805:1.0 9550:1.0 9550:1.0 9567:1.0 9567:1.0 10724:1.0 10739:1.0 13329:1.0 14422:1.0 20495:1.0 23009:1.0 28347:1.0 32270:1.0 34234:1.0 37056:1.0 39508:1.0 41781:1.0 46366:1.0 46405:1.0 
2.3028653942286644E-4 0.0 626:1.0 2373:1.0 3851:1.0 3851:1.0 3851:1.0 3868:1.0 3868:1.0 3868:1.0 4913:1.0 4913:1.0 4913:1.0 4928:1.0 4928:1.0 4928:1.0 6112:1.0 7805:1.0 9550:1.0 9567:1.0 10724:1.0 10739:1.0 12387:1.0 14422:1.0 20584:1.0 23005:1.0 29058:1.0 32263:1.0 35318:1.0 37062:1.0 38722:1.0 41779:1.0 43200:1.0 46403:1.0 
0.001386774591890089 8.788656732945012E-5 1397:1.0 2373:1.0 4913:1.0 4913:1.0 4928:1.0 4928:1.0 6087:1.0 7805:1.0 9550:1.0 9567:1.0 10724:1.0 10739:1.0 13329:1.0 14422:1.0 20324:1.0 23007:1.0 29790:1.0 32271:1.0 33741:1.0 37052:1.0 41072:1.0 41772:1.0 45744:1.0 46406:1.0 
0.0010650638027446878 0.0 1200:1.0 2385:1.0 6482:1.0 7812:1.0 10724:1.0 10739:1.0 13360:1.0 14422:1.0 20238:1.0 23006:1.0 30680:1.0 32258:1.0 35495:1.0 37056:1.0 38078:1.0 41770:1.0 45953:1.0 46408:1.0 
2.2811768119921006E-4 0.0 1254:1.0 2373:1.0 3851:1.0 3851:1.0 3851:1.0 3868:1.0 3868:1.0 3868:1.0 4913:1.0 4928:1.0 6502:1.0 7805:1.0 9550:1.0 9567:1.0 10724:1.0 10724:1.0 10739:1.0 10739:1.0 14398:1.0 14422:1.0 20238:1.0 23006:1.0 31606:1.0 32266:1.0 35482:1.0 37052:1.0 39508:1.0 41781:1.0 42772:1.0 46405:1.0 
0.002714948680167473 2.918604932410985E-5 156:1.0 2876:1.0 4621:1.0 4638:1.0 5795:1.0 5810:1.0 9469:1.0 9493:1.0 15309:1.0 18077:1.0 26803:1.0 27337:1.0 29826:1.0 32136:1.0 33380:1.0 36850:1.0 40815:1.0 41477:1.0 
3.878350904077369E-4 5.844546001697117E-5 290:1.0 2375:1.0 4913:1.0 4928:1.0 7580:1.0 7812:1.0 13360:1.0 14422:1.0 19708:1.0 23006:1.0 31387:1.0 32258:1.0 33281:1.0 37056:1.0 38078:1.0 41770:1.0 43024:1.0 46411:1.0 
0.0019371310265515144 1.1066782154076481E-4 1601:1.0 2883:1.0 5795:1.0 5795:1.0 5810:1.0 5810:1.0 8431:1.0 9493:1.0 17288:1.0 18078:1.0 25080:1.0 27329:1.0 29453:1.0 32133:1.0 34485:1.0 36839:1.0 39975:1.0 41478:1.0 
0.004490985757440642 0.0 95:1.0 2377:1.0 4913:1.0 4928:1.0 7388:1.0 7811:1.0 14263:1.0 14422:1.0 16917:1.0 16934:1.0 22274:1.0 23001:1.0 30494:1.0 32268:1.0 33373:1.0 37063:1.0 37267:1.0 41768:1.0 44780:1.0 46407:1.0 
7.241345533091664E-4 2.8894171493997736E-4 95:1.0 2377:1.0 4913:1.0 4928:1.0 7388:1.0 7811:1.0 14263:1.0 14422:1.0 16917:1.0 16934:1.0 22274:1.0 23001:1.0 26436:1.0 26452:1.0 28185:1.0 32268:1.0 33035:1.0 37061:1.0 41098:1.0 41775:1.0 44322:1.0 46414:1.0 
0.0024605331934142893 1.5771937928429103E-4 2016:1.0 2377:1.0 3851:1.0 3868:1.0 5341:1.0 7814:1.0 11274:1.0 14422:1.0 22287:1.0 23003:1.0 30063:1.0 32269:1.0 33691:1.0 37052:1.0 37873:1.0 41778:1.0 42179:1.0 46415:1.0 
0.0014521935326603696 0.003970347641340794 95:1.0 2377:1.0 4913:1.0 4928:1.0 7388:1.0 7811:1.0 14263:1.0 14422:1.0 16917:1.0 16934:1.0 22274:1.0 23001:1.0 26436:1.0 26436:1.0 26452:1.0 26452:1.0 28287:1.0 32271:1.0 
0.002257986142053384 1.045224493518978E-4 2023:1.0 2379:1.0 5608:1.0 7805:1.0 9550:1.0 9567:1.0 10724:1.0 10724:1.0 10739:1.0 10739:1.0 11020:1.0 14422:1.0 20545:1.0 23005:1.0 29790:1.0 32271:1.0 36462:1.0 37056:1.0 39383:1.0 41781:1.0 42611:1.0 46416:1.0 
0.0023421193437968184 0.0 559:1.0 2373:1.0 3851:1.0 3868:1.0 4913:1.0 4913:1.0 4928:1.0 4928:1.0 5141:1.0 7813:1.0 12538:1.0 14422:1.0 20495:1.0 23009:1.0 31656:1.0 32262:1.0 34627:1.0 37065:1.0 37915:1.0 41781:1.0 
0.008433240898005871 6.562801609644164E-4 2023:1.0 2379:1.0 7498:1.0 7816:1.0 14038:1.0 14422:1.0 18700:1.0 23001:1.0 27773:1.0 32262:1.0 33098:1.0 37062:1.0 38147:1.0 41779:1.0 42519:1.0 46403:1.0 
0.00283809352229682 5.738827401480785E-4 1259:1.0 2377:1.0 3851:1.0 3851:1.0 3851:1.0 3868:1.0 3868:1.0 3868:1.0 4913:1.0 4913:1.0 4913:1.0 4913:1.0 4913:1.0 4928:1.0 4928:1.0 4928:1.0 4928:1.0 4928:1.0 5924:1.0 7805:1.0 9550:1.0 9567:1.0 10724:1.0 10739:1.0 13768:1.0 14422:1.0 22985:1.0 23001:1.0 29790:1.0 32271:1.0 32665:1.0 37064:1.0 41589:1.0 41778:1.0 43662:1.0 46415:1.0 
0.0011752291091950604 0.0 2023:1.0 2379:1.0 6454:1.0 7805:1.0 9550:1.0 9567:1.0 10724:1.0 10739:1.0 13329:1.0 14422:1.0 20495:1.0 23009:1.0 27805:1.0 32270:1.0 33286:1.0 37056:1.0 37182:1.0 41770:1.0 45176:1.0 46407:1.0 
0.0036810646933719314 8.731219581053611E-4 1200:1.0 2385:1.0 7388:1.0 7807:1.0 11022:1.0 14422:1.0 19708:1.0 23006:1.0 28300:1.0 32263:1.0 33953:1.0 37063:1.0 41340:1.0 41768:1.0 43826:1.0 46413:1.0 
0.001322384070754192 3.0887693984946516E-4 1107:1.0 2373:1.0 4913:1.0 4928:1.0 7498:1.0 7816:1.0 14126:1.0 14422:1.0 19708:1.0 23006:1.0 29703:1.0 32263:1.0 36868:1.0 37062:1.0 41581:1.0 41780:1.0 43826:1.0 46413:1.0 
0.004400527983576657 7.563479131754315E-4 1965:1.0 2881:1.0 9469:1.0 9493:1.0 14868:1.0 18078:1.0 24845:1.0 27333:1.0 31519:1.0 32123:1.0 36642:1.0 36842:1.0 40059:1.0 41479:1.0 
4.937261276522252E-4 4.7468517251778824E-5 85:1.0 2378:1.0 3851:1.0 3868:1.0 4913:1.0 4928:1.0 6059:1.0 7805:1.0 9550:1.0 9550:1.0 9550:1.0 9550:1.0 9567:1.0 9567:1.0 9567:1.0 9567:1.0 10724:1.0 10739:1.0 13329:1.0 14422:1.0 19372:1.0 23007:1.0 31561:1.0 32261:1.0 34489:1.0 37061:1.0 41236:1.0 41773:1.0 44956:1.0 46414:1.0 
0.0027518323682137955 9.169200983938356E-5 2131:1.0 2876:1.0 4621:1.0 4621:1.0 4638:1.0 4638:1.0 5795:1.0 5810:1.0 7887:1.0 9493:1.0 15655:1.0 18076:1.0 22680:1.0 27334:1.0 27752:1.0 32135:1.0 36660:1.0 36849:1.0 38295:1.0 41485:1.0 
0.0016474164547871295 0.0 611:1.0 2373:1.0 4913:1.0 4913:1.0 4928:1.0 4928:1.0 7388:1.0 7807:1.0 12863:1.0 14422:1.0 20238:1.0 23006:1.0 30291:1.0 32262:1.0 36582:1.0 37052:1.0 39383:1.0 41781:1.0 42772:1.0 46405:1.0 
0.0032106969564272615 0.0019943805953853227 1743:1.0 3682:1.0 7402:1.0 7417:1.0 11807:1.0 12256:1.0 19420:1.0 21522:1.0 24015:1.0 26325:1.0 27102:1.0 31028:1.0 33086:1.0 35673:1.0 
0.00300486477092443 0.005467426278693629 1743:1.0 3682:1.0 7402:1.0 7417:1.0 11807:1.0 12256:1.0 15696:1.0 15712:1.0 19181:1.0 21531:1.0 22327:1.0 26312:1.0 28403:1.0 31038:1.0 35309:1.0 35674:1.0 
0.0013854007587439279 0.0017100233781808334 1743:1.0 3682:1.0 7402:1.0 7417:1.0 11807:1.0 12256:1.0 15696:1.0 15696:1.0 15712:1.0 15712:1.0 17473:1.0 21518:1.0 23642:1.0 26322:1.0 30667:1.0 31039:1.0 35087:1.0 35663:1.0 
6.029656785471656E-4 0.0014276111501033974 1743:1.0 3682:1.0 7402:1.0 7417:1.0 11807:1.0 12256:1.0 15696:1.0 15696:1.0 15696:1.0 15712:1.0 15712:1.0 15712:1.0 18802:1.0 21528:1.0 25944:1.0 26323:1.0 30442:1.0 31028:1.0 35004:1.0 35670:1.0 
0.0011744587689959838 1.6702944744348476E-4 1400:1.0 2376:1.0 4913:1.0 4913:1.0 4928:1.0 4928:1.0 7437:1.0 7814:1.0 9550:1.0 9550:1.0 9567:1.0 9567:1.0 10724:1.0 10739:1.0 13360:1.0 14422:1.0 18466:1.0 23006:1.0 28917:1.0 32269:1.0 33444:1.0 37058:1.0 38078:1.0 41770:1.0 43224:1.0 46414:1.0 
0.0024267897535631953 0.002298468039087292 749:1.0 2382:1.0 5771:1.0 7815:1.0 11358:1.0 14422:1.0 22287:1.0 23003:1.0 29790:1.0 32271:1.0 34743:1.0 37058:1.0 40417:1.0 41777:1.0 44956:1.0 46414:1.0 
0.001996814464405463 8.441602924688852E-4 545:1.0 2377:1.0 3851:1.0 3868:1.0 4913:1.0 4928:1.0 6244:1.0 7814:1.0 14001:1.0 14422:1.0 18142:1.0 18157:1.0 20857:1.0 22999:1.0 29627:1.0 32269:1.0 36311:1.0 37052:1.0 41515:1.0 41772:1.0 43325:1.0 46413:1.0 
4.7094264002971604E-4 0.0 1642:1.0 2377:1.0 3851:1.0 3868:1.0 4913:1.0 4913:1.0 4928:1.0 4928:1.0 5403:1.0 7811:1.0 11875:1.0 14422:1.0 22471:1.0 23008:1.0 30903:1.0 32263:1.0 33953:1.0 37063:1.0 40382:1.0 41772:1.0 43811:1.0 46403:1.0 
0.0019167185618346606 0.0 2023:1.0 2379:1.0 6519:1.0 7807:1.0 13329:1.0 14422:1.0 21439:1.0 23007:1.0 30881:1.0 32258:1.0 34329:1.0 37056:1.0 39508:1.0 41781:1.0 46229:1.0 46413:1.0 
0.0012470328776104328 7.622455234139631E-4 1200:1.0 2385:1.0 5253:1.0 7807:1.0 13506:1.0 14422:1.0 19603:1.0 23007:1.0 32040:1.0 32258:1.0 35022:1.0 37056:1.0 39143:1.0 41778:1.0 43224:1.0 46414:1.0 
0.006951182074471741 0.0010578086185417614 687:1.0 2881:1.0 8400:1.0 9493:1.0 14443:1.0 18078:1.0 26632:1.0 27332:1.0 31412:1.0 32128:1.0 32986:1.0 36852:1.0 
0.0018877045371904005 0.0015892009671719472 749:1.0 2382:1.0 5771:1.0 7815:1.0 12350:1.0 14422:1.0 22287:1.0 23003:1.0 31537:1.0 32263:1.0 33765:1.0 37063:1.0 40557:1.0 41779:1.0 46323:1.0 46403:1.0 
0.0012787323375358052 0.0 2023:1.0 2379:1.0 7504:1.0 7805:1.0 10724:1.0 10739:1.0 12863:1.0 14422:1.0 20495:1.0 23009:1.0 29662:1.0 32262:1.0 34627:1.0 37065:1.0 40552:1.0 41770:1.0 45744:1.0 46410:1.0 
0.0019378087321645409 1.59926529567492E-4 1984:1.0 2385:1.0 6566:1.0 7805:1.0 9550:1.0 9567:1.0 11448:1.0 14422:1.0 21080:1.0 23008:1.0 27843:1.0 32270:1.0 36661:1.0 37056:1.0 38078:1.0 41770:1.0 44740:1.0 46408:1.0 
0.0010998983574051538 5.765385519897388E-4 1984:1.0 2385:1.0 6566:1.0 7805:1.0 9550:1.0 9567:1.0 11448:1.0 14422:1.0 21080:1.0 23008:1.0 26436:1.0 26452:1.0 31856:1.0 32262:1.0 33303:1.0 37054:1.0 40072:1.0 41773:1.0 44731:1.0 46413:1.0 
0.0015265156681942501 6.437470141357272E-5 2112:1.0 2384:1.0 4993:1.0 7807:1.0 12841:1.0 14422:1.0 19708:1.0 23006:1.0 30347:1.0 32263:1.0 35459:1.0 37057:1.0 38536:1.0 41779:1.0 42222:1.0 46403:1.0 
8.506078591249499E-4 4.7468344292532483E-4 268:1.0 2377:1.0 3851:1.0 3868:1.0 4913:1.0 4928:1.0 5341:1.0 7814:1.0 11038:1.0 14422:1.0 22287:1.0 23003:1.0 28951:1.0 32269:1.0 35434:1.0 37052:1.0 37838:1.0 41773:1.0 43325:1.0 46413:1.0 
0.0015684291358441839 7.670565177041917E-4 1474:1.0 2377:1.0 4913:1.0 4913:1.0 4928:1.0 4928:1.0 7388:1.0 7811:1.0 13506:1.0 14422:1.0 19603:1.0 23007:1.0 27824:1.0 32258:1.0 34382:1.0 37062:1.0 40655:1.0 41768:1.0 43826:1.0 46413:1.0 
8.140063389671397E-4 6.040739945563486E-5 1138:1.0 2385:1.0 7498:1.0 7816:1.0 12312:1.0 14422:1.0 19708:1.0 23006:1.0 31591:1.0 32263:1.0 34627:1.0 37065:1.0 40063:1.0 41778:1.0 43409:1.0 46414:1.0 
0.004704225762401909 1.5925888700701825E-4 1138:1.0 2385:1.0 5416:1.0 7810:1.0 13768:1.0 14422:1.0 22985:1.0 23001:1.0 27908:1.0 32262:1.0 34755:1.0 37065:1.0 39072:1.0 41775:1.0 41905:1.0 46408:1.0 
8.193405257669357E-4 0.0 353:1.0 2373:1.0 4913:1.0 4928:1.0 5341:1.0 7814:1.0 11336:1.0 14422:1.0 19797:1.0 23007:1.0 30172:1.0 32258:1.0 36161:1.0 37065:1.0 39654:1.0 41776:1.0 46229:1.0 46413:1.0 
0.005669773765175607 9.635700427440416E-4 353:1.0 2373:1.0 4913:1.0 4928:1.0 5341:1.0 7814:1.0 11336:1.0 14422:1.0 20880:1.0 22996:1.0 27477:1.0 27492:1.0 31350:1.0 32271:1.0 34903:1.0 37060:1.0 41589:1.0 41778:1.0 42053:1.0 46411:1.0 
0.0 6.789222461388238E-4 1941:1.0 2376:1.0 3851:1.0 3868:1.0 4913:1.0 4928:1.0 4948:1.0 7805:1.0 10724:1.0 10724:1.0 10739:1.0 10739:1.0 13047:1.0 14422:1.0 18142:1.0 18142:1.0 18157:1.0 18157:1.0 20238:1.0 23006:1.0 29105:1.0 32269:1.0 34523:1.0 37052:1.0 40649:1.0 41778:1.0 45744:1.0 46410:1.0 
0.0 6.742525139097577E-4 1941:1.0 2376:1.0 3851:1.0 3868:1.0 4913:1.0 4928:1.0 4948:1.0 7805:1.0 10724:1.0 10724:1.0 10739:1.0 10739:1.0 13047:1.0 14422:1.0 16917:1.0 16934:1.0 18142:1.0 18142:1.0 18157:1.0 18157:1.0 21816:1.0 23006:1.0 31561:1.0 32265:1.0 35190:1.0 37057:1.0 40063:1.0 41778:1.0 45005:1.0 46403:1.0 
0.0015679531935240535 8.331713234604218E-4 1941:1.0 2376:1.0 3851:1.0 3868:1.0 4913:1.0 4928:1.0 4948:1.0 7805:1.0 10724:1.0 10724:1.0 10739:1.0 10739:1.0 13047:1.0 14422:1.0 16917:1.0 16934:1.0 18142:1.0 18142:1.0 18157:1.0 18157:1.0 21074:1.0 23001:1.0 27477:1.0 27477:1.0 27492:1.0 27492:1.0 30494:1.0 32268:1.0 35597:1.0 37052:1.0 41685:1.0 41779:1.0 43761:1.0 46403:1.0 
0.0 6.020220574639218E-4 1941:1.0 2376:1.0 3851:1.0 3868:1.0 4913:1.0 4928:1.0 4948:1.0 7805:1.0 10724:1.0 10724:1.0 10739:1.0 10739:1.0 13047:1.0 14422:1.0 16917:1.0 16934:1.0 18142:1.0 18142:1.0 18157:1.0 18157:1.0 21074:1.0 23001:1.0 26436:1.0 26452:1.0 27477:1.0 27477:1.0 27492:1.0 27492:1.0 32170:1.0 32269:1.0 34316:1.0 37052:1.0 39508:1.0 41781:1.0 45840:1.0 46412:1.0 
0.0 0.002423071895677918 1941:1.0 2376:1.0 3851:1.0 3868:1.0 4913:1.0 4928:1.0 4948:1.0 7805:1.0 10724:1.0 10724:1.0 10739:1.0 10739:1.0 13047:1.0 14422:1.0 16917:1.0 16934:1.0 18142:1.0 18142:1.0 18157:1.0 18157:1.0 21074:1.0 23001:1.0 26436:1.0 26436:1.0 26452:1.0 26452:1.0 27477:1.0 27477:1.0 27492:1.0 27492:1.0 29921:1.0 32271:1.0 36467:1.0 37061:1.0 37542:1.0 41776:1.0 44659:1.0 46403:1.0 
0.0023975757612481746 0.0 1418:1.0 2377:1.0 3851:1.0 3851:1.0 3868:1.0 3868:1.0 4913:1.0 4913:1.0 4928:1.0 4928:1.0 6388:1.0 7817:1.0 13944:1.0 14422:1.0 18578:1.0 23004:1.0 30421:1.0 32258:1.0 33140:1.0 37065:1.0 
0.0019395169479572612 0.0 749:1.0 2382:1.0 5771:1.0 7815:1.0 11358:1.0 14422:1.0 21206:1.0 23006:1.0 29627:1.0 32269:1.0 35443:1.0 37052:1.0 39143:1.0 41778:1.0 44553:1.0 46403:1.0 
0.005666622368790878 5.793562486695278E-4 749:1.0 2382:1.0 5771:1.0 7815:1.0 11358:1.0 14422:1.0 21333:1.0 22996:1.0 27477:1.0 27477:1.0 27492:1.0 27492:1.0 29542:1.0 32268:1.0 35138:1.0 37052:1.0 39098:1.0 41772:1.0 45744:1.0 46410:1.0 
0.001560122952571549 5.766665058800568E-4 749:1.0 2382:1.0 5771:1.0 7815:1.0 11358:1.0 14422:1.0 21333:1.0 22996:1.0 26436:1.0 26452:1.0 27477:1.0 27477:1.0 27492:1.0 27492:1.0 31561:1.0 32265:1.0 34627:1.0 37065:1.0 39497:1.0 41774:1.0 45084:1.0 46412:1.0 
0.0 4.4321236761144916E-4 1138:1.0 2385:1.0 6383:1.0 7810:1.0 13329:1.0 14422:1.0 21439:1.0 23007:1.0 30327:1.0 32258:1.0 33486:1.0 37056:1.0 37873:1.0 41778:1.0 43224:1.0 46414:1.0 
0.003107580820337734 3.9249650673462333E-4 1200:1.0 2385:1.0 7388:1.0 7807:1.0 12949:1.0 14422:1.0 19203:1.0 23007:1.0 27588:1.0 32262:1.0 36560:1.0 37052:1.0 40044:1.0 41772:1.0 45308:1.0 46413:1.0 
0.002855339347225023 7.223123942933674E-4 1200:1.0 2385:1.0 5403:1.0 7811:1.0 11875:1.0 14422:1.0 22471:1.0 23008:1.0 30903:1.0 32263:1.0 33799:1.0 37063:1.0 40382:1.0 41772:1.0 43811:1.0 46403:1.0 
0.0031156710904971107 2.6539625648051976E-4 1200:1.0 2385:1.0 5253:1.0 7807:1.0 13944:1.0 14422:1.0 18197:1.0 23004:1.0 30479:1.0 32258:1.0 35190:1.0 37057:1.0 37873:1.0 41778:1.0 45132:1.0 46411:1.0 
0.0 5.133213528712081E-4 1198:1.0 2377:1.0 3851:1.0 3868:1.0 4913:1.0 4913:1.0 4913:1.0 4928:1.0 4928:1.0 4928:1.0 7388:1.0 7811:1.0 12040:1.0 14422:1.0 20238:1.0 23006:1.0 28430:1.0 32263:1.0 36835:1.0 37058:1.0 40617:1.0 41775:1.0 43219:1.0 46403:1.0 
0.004126094313306155 3.0351458790252403E-4 1030:1.0 2378:1.0 6312:1.0 7817:1.0 12387:1.0 14422:1.0 20584:1.0 23005:1.0 30724:1.0 32269:1.0 32638:1.0 37056:1.0 38348:1.0 41768:1.0 44063:1.0 46416:1.0 
0.0016563286000828704 0.0 1138:1.0 2385:1.0 6232:1.0 7813:1.0 12568:1.0 14422:1.0 21439:1.0 23007:1.0 27778:1.0 32262:1.0 33576:1.0 37052:1.0 39383:1.0 41781:1.0 42611:1.0 46416:1.0 
3.7176452549370396E-4 0.0 405:1.0 2382:1.0 3851:1.0 3851:1.0 3868:1.0 3868:1.0 5852:1.0 7809:1.0 9550:1.0 9550:1.0 9567:1.0 9567:1.0 10724:1.0 10724:1.0 10739:1.0 10739:1.0 13592:1.0 14422:1.0 20626:1.0 23009:1.0 31066:1.0 32265:1.0 34631:1.0 37057:1.0 37143:1.0 41780:1.0 44188:1.0 46416:1.0 
0.002466567191846307 0.0 405:1.0 2382:1.0 3851:1.0 3851:1.0 3868:1.0 3868:1.0 5852:1.0 7809:1.0 9550:1.0 9550:1.0 9567:1.0 9567:1.0 10724:1.0 10724:1.0 10739:1.0 10739:1.0 13592:1.0 14422:1.0 20499:1.0 23001:1.0 27477:1.0 27477:1.0 27492:1.0 27492:1.0 27496:1.0 32270:1.0 34755:1.0 37065:1.0 38722:1.0 41779:1.0 43802:1.0 46403:1.0 
0.0016599326379869563 6.279191997344161E-4 405:1.0 2382:1.0 3851:1.0 3851:1.0 3868:1.0 3868:1.0 5852:1.0 7809:1.0 9550:1.0 9550:1.0 9567:1.0 9567:1.0 10724:1.0 10724:1.0 10739:1.0 10739:1.0 13592:1.0 14422:1.0 20499:1.0 23001:1.0 26436:1.0 26452:1.0 27477:1.0 27477:1.0 27492:1.0 27492:1.0 29921:1.0 32271:1.0 33953:1.0 37063:1.0 39119:1.0 41768:1.0 45030:1.0 46407:1.0 
7.889633943072602E-4 0.0 405:1.0 2382:1.0 3851:1.0 3851:1.0 3868:1.0 3868:1.0 5852:1.0 7809:1.0 9550:1.0 9550:1.0 9567:1.0 9567:1.0 10724:1.0 10724:1.0 10739:1.0 10739:1.0 13592:1.0 14422:1.0 20499:1.0 23001:1.0 26436:1.0 26436:1.0 26452:1.0 26452:1.0 27477:1.0 27477:1.0 27492:1.0 27492:1.0 29105:1.0 32269:1.0 34358:1.0 37052:1.0 40362:1.0 41772:1.0 43337:1.0 46407:1.0 
8.297660621821423E-4 6.022584251303512E-4 920:1.0 2377:1.0 3851:1.0 3851:1.0 3851:1.0 3868:1.0 3868:1.0 3868:1.0 4913:1.0 4913:1.0 4928:1.0 4928:1.0 7527:1.0 7805:1.0 10724:1.0 10739:1.0 13592:1.0 14422:1.0 22287:1.0 23003:1.0 29790:1.0 32271:1.0 36085:1.0 37058:1.0 40417:1.0 41777:1.0 45276:1.0 46410:1.0 
0.0035055913885352202 4.131955252564364E-4 1138:1.0 2385:1.0 7204:1.0 7810:1.0 13329:1.0 14422:1.0 21784:1.0 23003:1.0 28917:1.0 32269:1.0 34727:1.0 37058:1.0 39508:1.0 41781:1.0 45744:1.0 46406:1.0 
0.0029801254518996073 6.260871108510819E-4 2714:1.0 2880:1.0 5795:1.0 5810:1.0 6429:1.0 9493:1.0 17358:1.0 18074:1.0 23758:1.0 27332:1.0 28337:1.0 32132:1.0 34579:1.0 36852:1.0 39708:1.0 41478:1.0 
0.003543155883744305 4.233112186843963E-4 2023:1.0 2379:1.0 5641:1.0 7807:1.0 11448:1.0 14422:1.0 20626:1.0 23009:1.0 30399:1.0 32262:1.0 36908:1.0 37054:1.0 41485:1.0 41772:1.0 44188:1.0 46416:1.0 
0.003643493835680611 2.9073472513340933E-4 183:1.0 2384:1.0 6156:1.0 7807:1.0 13329:1.0 14422:1.0 21784:1.0 23003:1.0 29105:1.0 32269:1.0 36365:1.0 37052:1.0 41430:1.0 41772:1.0 43325:1.0 46413:1.0 
0.0014038138616935547 0.0 968:1.0 2378:1.0 4913:1.0 4928:1.0 6312:1.0 7817:1.0 13329:1.0 14422:1.0 21439:1.0 23007:1.0 30820:1.0 32262:1.0 36544:1.0 37052:1.0 39508:1.0 41781:1.0 46366:1.0 46405:1.0 
0.002507903900052429 3.167538692335147E-4 974:1.0 2379:1.0 5630:1.0 7805:1.0 10724:1.0 10739:1.0 12312:1.0 14422:1.0 22172:1.0 23005:1.0 29687:1.0 32263:1.0 35547:1.0 37063:1.0 41649:1.0 41768:1.0 45291:1.0 46407:1.0 
2.7098146023826785E-4 0.0 2107:1.0 2373:1.0 3851:1.0 3851:1.0 3851:1.0 3851:1.0 3868:1.0 3868:1.0 3868:1.0 3868:1.0 4913:1.0 4913:1.0 4913:1.0 4928:1.0 4928:1.0 4928:1.0 7099:1.0 7809:1.0 10724:1.0 10724:1.0 10739:1.0 10739:1.0 13329:1.0 14422:1.0 20324:1.0 23007:1.0 27653:1.0 32262:1.0 36359:1.0 37052:1.0 39143:1.0 41778:1.0 42885:1.0 46407:1.0 
0.003135227906569497 0.0010461935756232467 590:1.0 2383:1.0 7388:1.0 7807:1.0 14263:1.0 14422:1.0 16917:1.0 16934:1.0 22533:1.0 23001:1.0 30857:1.0 32267:1.0 35115:1.0 37057:1.0 39645:1.0 41779:1.0 43135:1.0 46403:1.0 
0.0014540774469926304 4.056513081915865E-4 590:1.0 2383:1.0 7388:1.0 7807:1.0 14263:1.0 14422:1.0 16917:1.0 16934:1.0 22533:1.0 23001:1.0 30286:1.0 32263:1.0 32309:1.0 32309:1.0 32309:1.0 32317:1.0 32317:1.0 32317:1.0 32348:1.0 32358:1.0 33140:1.0 37065:1.0 
8.27350598572956E-4 0.0 1243:1.0 2377:1.0 3851:1.0 3851:1.0 3851:1.0 3851:1.0 3868:1.0 3868:1.0 3868:1.0 3868:1.0 4913:1.0 4928:1.0 7224:1.0 7805:1.0 9550:1.0 9567:1.0 10724:1.0 10739:1.0 12863:1.0 14422:1.0 18540:1.0 22996:1.0 31577:1.0 32258:1.0 36369:1.0 37059:1.0 38536:1.0 41779:1.0 43968:1.0 46407:1.0 
3.870479833308004E-4 1.4770421400942983E-4 1243:1.0 2377:1.0 3851:1.0 3851:1.0 3851:1.0 3851:1.0 3868:1.0 3868:1.0 3868:1.0 3868:1.0 4913:1.0 4928:1.0 7224:1.0 7805:1.0 9550:1.0 9567:1.0 10724:1.0 10739:1.0 12863:1.0 14422:1.0 18540:1.0 22996:1.0 26436:1.0 26452:1.0 31561:1.0 32265:1.0 33765:1.0 37063:1.0 39286:1.0 41772:1.0 46397:1.0 46403:1.0 
4.1216090545529556E-5 3.486258078278493E-4 1243:1.0 2377:1.0 3851:1.0 3851:1.0 3851:1.0 3851:1.0 3868:1.0 3868:1.0 3868:1.0 3868:1.0 4913:1.0 4928:1.0 7224:1.0 7805:1.0 9550:1.0 9567:1.0 10724:1.0 10739:1.0 12863:1.0 14422:1.0 18540:1.0 22996:1.0 26436:1.0 26436:1.0 26452:1.0 26452:1.0 28917:1.0 32269:1.0 34529:1.0 37056:1.0 41762:1.0 41768:1.0 43826:1.0 46413:1.0 
0.0015055735795553224 1.1755974926760074E-4 136:1.0 2384:1.0 7498:1.0 7816:1.0 13329:1.0 14422:1.0 21439:1.0 23007:1.0 28594:1.0 32258:1.0 33537:1.0 37063:1.0 41098:1.0 41771:1.0 44037:1.0 46408:1.0 
0.0060360594207155074 3.951338494590035E-4 136:1.0 2384:1.0 7498:1.0 7816:1.0 13329:1.0 14422:1.0 19277:1.0 22996:1.0 27477:1.0 27492:1.0 28687:1.0 32269:1.0 36369:1.0 37055:1.0 39357:1.0 41773:1.0 44188:1.0 46416:1.0 
8.182891703840205E-4 0.0 2358:1.0 2373:1.0 4913:1.0 4928:1.0 7498:1.0 7816:1.0 13329:1.0 14422:1.0 19797:1.0 23007:1.0 27899:1.0 32258:1.0 36554:1.0 37056:1.0 39508:1.0 41781:1.0 43359:1.0 46405:1.0 
0.002694088639382393 4.59635393271606E-4 1114:1.0 2880:1.0 4621:1.0 4638:1.0 6429:1.0 9493:1.0 17358:1.0 18074:1.0 26188:1.0 27335:1.0 30890:1.0 32129:1.0 34318:1.0 36848:1.0 41293:1.0 41479:1.0 
4.274184853821609E-4 2.4881235759990856E-4 1149:1.0 2385:1.0 6595:1.0 7816:1.0 9550:1.0 9550:1.0 9550:1.0 9567:1.0 9567:1.0 9567:1.0 11902:1.0 14422:1.0 19708:1.0 23006:1.0 28927:1.0 32263:1.0 32468:1.0 37055:1.0 40617:1.0 41775:1.0 43325:1.0 46413:1.0 
4.3519248438518815E-4 0.0 699:1.0 2880:1.0 4621:1.0 4621:1.0 4638:1.0 4638:1.0 5795:1.0 5795:1.0 5810:1.0 5810:1.0 8400:1.0 9493:1.0 14868:1.0 18078:1.0 26007:1.0 27333:1.0 31829:1.0 32123:1.0 34214:1.0 36849:1.0 38295:1.0 41485:1.0 
0.0019385431968106626 0.0 1977:1.0 2377:1.0 3851:1.0 3868:1.0 4913:1.0 4913:1.0 4913:1.0 4928:1.0 4928:1.0 4928:1.0 5471:1.0 7809:1.0 9550:1.0 9550:1.0 9550:1.0 9567:1.0 9567:1.0 9567:1.0 10724:1.0 10724:1.0 10724:1.0 10739:1.0 10739:1.0 10739:1.0 12241:1.0 14422:1.0 20405:1.0 23001:1.0 27477:1.0 27477:1.0 27492:1.0 27492:1.0 27567:1.0 32261:1.0 35035:1.0 37054:1.0 41334:1.0 41773:1.0 43224:1.0 46414:1.0 
5.024057702672752E-4 0.0 1977:1.0 2377:1.0 3851:1.0 3868:1.0 4913:1.0 4913:1.0 4913:1.0 4928:1.0 4928:1.0 4928:1.0 5471:1.0 7809:1.0 9550:1.0 9550:1.0 9550:1.0 9567:1.0 9567:1.0 9567:1.0 10724:1.0 10724:1.0 10724:1.0 10739:1.0 10739:1.0 10739:1.0 12241:1.0 14422:1.0 20405:1.0 23001:1.0 26436:1.0 26452:1.0 27477:1.0 27477:1.0 27492:1.0 27492:1.0 30206:1.0 32260:1.0 36611:1.0 37057:1.0 38536:1.0 41779:1.0 44007:1.0 46403:1.0 
3.367052368583148E-4 8.448338951159827E-4 1977:1.0 2377:1.0 3851:1.0 3868:1.0 4913:1.0 4913:1.0 4913:1.0 4928:1.0 4928:1.0 4928:1.0 5471:1.0 7809:1.0 9550:1.0 9550:1.0 9550:1.0 9567:1.0 9567:1.0 9567:1.0 10724:1.0 10724:1.0 10724:1.0 10739:1.0 10739:1.0 10739:1.0 12241:1.0 14422:1.0 20405:1.0 23001:1.0 26436:1.0 26436:1.0 26436:1.0 26452:1.0 26452:1.0 26452:1.0 27477:1.0 27477:1.0 27492:1.0 27492:1.0 29921:1.0 32271:1.0 34311:1.0 37059:1.0 37418:1.0 41780:1.0 45919:1.0 46415:1.0 
0.0019424742859496839 0.0 1731:1.0 2373:1.0 4913:1.0 4928:1.0 7498:1.0 7816:1.0 13062:1.0 14422:1.0 18540:1.0 22996:1.0 31577:1.0 32258:1.0 36369:1.0 37059:1.0 38115:1.0 41772:1.0 46281:1.0 46403:1.0 
0.0019632039076747905 8.327419912663614E-4 1731:1.0 2373:1.0 4913:1.0 4928:1.0 7498:1.0 7816:1.0 13062:1.0 14422:1.0 18540:1.0 22996:1.0 26436:1.0 26452:1.0 31561:1.0 32265:1.0 33341:1.0 37056:1.0 41641:1.0 41768:1.0 46268:1.0 46405:1.0 
4.572896686916012E-4 0.0 1731:1.0 2373:1.0 4913:1.0 4928:1.0 7498:1.0 7816:1.0 13062:1.0 14422:1.0 18540:1.0 22996:1.0 26436:1.0 26436:1.0 26452:1.0 26452:1.0 28489:1.0 32262:1.0 36921:1.0 37052:1.0 41628:1.0 41770:1.0 43065:1.0 46403:1.0 
0.0017720799717449679 0.0 1603:1.0 2373:1.0 4913:1.0 4928:1.0 7364:1.0 7816:1.0 11084:1.0 14422:1.0 20584:1.0 23005:1.0 30414:1.0 32258:1.0 34382:1.0 37062:1.0 38529:1.0 41768:1.0 44188:1.0 46416:1.0 
0.0020857293672618153 0.0024693014115166508 3523:1.0 3682:1.0 7402:1.0 7417:1.0 9876:1.0 12260:1.0 19553:1.0 21518:1.0 24015:1.0 26325:1.0 27932:1.0 31030:1.0 32669:1.0 35674:1.0 
0.0014188945513970788 0.0028401386525691986 3523:1.0 3682:1.0 6177:1.0 6177:1.0 6177:1.0 6194:1.0 6194:1.0 6194:1.0 7402:1.0 7417:1.0 9057:1.0 12267:1.0 19003:1.0 21518:1.0 23642:1.0 26322:1.0 27569:1.0 31039:1.0 35004:1.0 35666:1.0 
0.0019256490955983758 0.002751810308157905 3523:1.0 3682:1.0 6177:1.0 6177:1.0 6177:1.0 6194:1.0 6194:1.0 6194:1.0 7402:1.0 7417:1.0 9706:1.0 12256:1.0 16737:1.0 16752:1.0 18802:1.0 21528:1.0 22797:1.0 26323:1.0 30358:1.0 31031:1.0 31173:1.0 35666:1.0 
1.8243969413304776E-4 0.0 1534:1.0 2377:1.0 3851:1.0 3851:1.0 3868:1.0 3868:1.0 4913:1.0 4913:1.0 4913:1.0 4913:1.0 4928:1.0 4928:1.0 4928:1.0 4928:1.0 7498:1.0 7816:1.0 13329:1.0 14422:1.0 18540:1.0 22996:1.0 31577:1.0 32258:1.0 36369:1.0 37059:1.0 40288:1.0 41779:1.0 45588:1.0 46403:1.0 
0.0016233534883861344 3.448088751174279E-4 1534:1.0 2377:1.0 3851:1.0 3851:1.0 3868:1.0 3868:1.0 4913:1.0 4913:1.0 4913:1.0 4913:1.0 4928:1.0 4928:1.0 4928:1.0 4928:1.0 7498:1.0 7816:1.0 13329:1.0 14422:1.0 18540:1.0 22996:1.0 26436:1.0 26452:1.0 31561:1.0 32265:1.0 35547:1.0 37063:1.0 40937:1.0 41768:1.0 43826:1.0 46413:1.0 
3.5413065350488516E-4 0.0 1534:1.0 2377:1.0 3851:1.0 3851:1.0 3868:1.0 3868:1.0 4913:1.0 4913:1.0 4913:1.0 4913:1.0 4928:1.0 4928:1.0 4928:1.0 4928:1.0 7498:1.0 7816:1.0 13329:1.0 14422:1.0 18540:1.0 22996:1.0 26436:1.0 26436:1.0 26452:1.0 26452:1.0 30724:1.0 32269:1.0 36207:1.0 37052:1.0 39143:1.0 41778:1.0 44287:1.0 46403:1.0 
0.001211933790346501 2.581004713430699E-4 1201:1.0 2377:1.0 4913:1.0 4913:1.0 4928:1.0 4928:1.0 6163:1.0 7814:1.0 10874:1.0 14422:1.0 21439:1.0 23007:1.0 30722:1.0 32258:1.0 36194:1.0 37056:1.0 39508:1.0 41781:1.0 42065:1.0 46407:1.0 
0.006587034212638924 0.0014711970347653562 356:1.0 3682:1.0 8123:1.0 12266:1.0 21368:1.0 21526:1.0 26133:1.0 26312:1.0 26562:1.0 31033:1.0 33323:1.0 35676:1.0 
0.001135464231657826 0.0 2203:1.0 2881:1.0 4621:1.0 4638:1.0 8400:1.0 9493:1.0 16510:1.0 18078:1.0 25602:1.0 27329:1.0 29453:1.0 32133:1.0 35937:1.0 36843:1.0 37356:1.0 41474:1.0 
3.502799326987129E-4 0.0 260:1.0 2374:1.0 7132:1.0 7810:1.0 9550:1.0 9567:1.0 13329:1.0 14422:1.0 21439:1.0 23007:1.0 28821:1.0 32258:1.0 33526:1.0 37056:1.0 38078:1.0 41770:1.0 44188:1.0 46416:1.0 
0.006059388325347231 0.0011121433417682464 3469:1.0 3682:1.0 9498:1.0 12266:1.0 21139:1.0 21523:1.0 24807:1.0 26323:1.0 30699:1.0 31028:1.0 35004:1.0 35666:1.0 
0.005955224093523467 9.397562107677348E-4 740:1.0 3682:1.0 10699:1.0 12267:1.0 18936:1.0 21518:1.0 23540:1.0 26316:1.0 27338:1.0 31030:1.0 32484:1.0 35674:1.0 
0.0030748870351086843 3.3313379667983413E-4 2021:1.0 2880:1.0 4621:1.0 4621:1.0 4638:1.0 4638:1.0 8400:1.0 9493:1.0 17554:1.0 18071:1.0 27023:1.0 27329:1.0 31378:1.0 32136:1.0 33925:1.0 36842:1.0 41395:1.0 41477:1.0 
8.82576457827398E-4 0.0 1200:1.0 2385:1.0 7079:1.0 7811:1.0 13329:1.0 14422:1.0 21439:1.0 23007:1.0 28821:1.0 32258:1.0 34046:1.0 37056:1.0 40891:1.0 41781:1.0 46228:1.0 46409:1.0 
0.0027733047907415077 6.751914324105279E-4 1149:1.0 2385:1.0 6326:1.0 7817:1.0 11480:1.0 14422:1.0 18475:1.0 23008:1.0 27638:1.0 32262:1.0 36369:1.0 37059:1.0 37815:1.0 41778:1.0 45486:1.0 46414:1.0 
0.0020794489996823246 0.0 1650:1.0 2379:1.0 5419:1.0 7805:1.0 10724:1.0 10739:1.0 12863:1.0 14422:1.0 20238:1.0 23006:1.0 28917:1.0 32269:1.0 36773:1.0 37052:1.0 41098:1.0 41771:1.0 43224:1.0 46414:1.0 
8.375791847396777E-4 1.0479291422004987E-4 2345:1.0 2879:1.0 4621:1.0 4638:1.0 5795:1.0 5795:1.0 5795:1.0 5810:1.0 5810:1.0 5810:1.0 9334:1.0 9493:1.0 13213:1.0 13213:1.0 13228:1.0 13228:1.0 15848:1.0 18067:1.0 23522:1.0 27331:1.0 29383:1.0 32123:1.0 35962:1.0 36852:1.0 41339:1.0 41476:1.0 
0.0 9.006932359177806E-4 2345:1.0 2879:1.0 4621:1.0 4638:1.0 5795:1.0 5795:1.0 5795:1.0 5810:1.0 5810:1.0 5810:1.0 9334:1.0 9493:1.0 13213:1.0 13213:1.0 13228:1.0 13228:1.0 15848:1.0 18067:1.0 21507:1.0 21523:1.0 24541:1.0 27329:1.0 31232:1.0 32136:1.0 36699:1.0 36841:1.0 38082:1.0 41474:1.0 
0.0 6.661730319863563E-4 2345:1.0 2879:1.0 4621:1.0 4638:1.0 5795:1.0 5795:1.0 5795:1.0 5810:1.0 5810:1.0 5810:1.0 9334:1.0 9493:1.0 13213:1.0 13213:1.0 13228:1.0 13228:1.0 15848:1.0 18067:1.0 21507:1.0 21507:1.0 21523:1.0 21523:1.0 26632:1.0 27332:1.0 27502:1.0 32126:1.0 35185:1.0 36844:1.0 41300:1.0 41484:1.0 
0.0 0.0011254330107053434 2345:1.0 2879:1.0 4621:1.0 4638:1.0 5795:1.0 5795:1.0 5795:1.0 5810:1.0 5810:1.0 5810:1.0 9334:1.0 9493:1.0 13213:1.0 13213:1.0 13228:1.0 13228:1.0 15848:1.0 18067:1.0 21507:1.0 21507:1.0 21507:1.0 21523:1.0 21523:1.0 21523:1.0 27182:1.0 27331:1.0 30064:1.0 32123:1.0 34214:1.0 36849:1.0 38295:1.0 41485:1.0 
0.0 0.0012304055844266897 2345:1.0 2879:1.0 4621:1.0 4638:1.0 5795:1.0 5795:1.0 5795:1.0 5810:1.0 5810:1.0 5810:1.0 9334:1.0 9493:1.0 13213:1.0 13213:1.0 13228:1.0 13228:1.0 15848:1.0 18067:1.0 21507:1.0 21507:1.0 21507:1.0 21507:1.0 21523:1.0 21523:1.0 21523:1.0 21523:1.0 25234:1.0 27329:1.0 29453:1.0 32133:1.0 33607:1.0 36850:1.0 39170:1.0 41474:1.0 
3.3039492575236216E-4 0.0 1814:1.0 2378:1.0 3851:1.0 3868:1.0 7186:1.0 7805:1.0 9550:1.0 9567:1.0 10724:1.0 10724:1.0 10724:1.0 10724:1.0 10739:1.0 10739:1.0 10739:1.0 10739:1.0 13329:1.0 14422:1.0 21439:1.0 23007:1.0 27778:1.0 32262:1.0 35032:1.0 37052:1.0 39143:1.0 41778:1.0 43000:1.0 46414:1.0 
0.002774198714868924 2.147454383866686E-4 1200:1.0 2385:1.0 7079:1.0 7811:1.0 13329:1.0 14422:1.0 20189:1.0 23008:1.0 29198:1.0 32262:1.0 34755:1.0 37065:1.0 41403:1.0 41780:1.0 44817:1.0 46408:1.0 
8.18974377843979E-4 8.475026458068408E-4 1820:1.0 2377:1.0 4913:1.0 4913:1.0 4928:1.0 4928:1.0 5835:1.0 7814:1.0 11358:1.0 14422:1.0 16917:1.0 16934:1.0 22287:1.0 23003:1.0 31745:1.0 32270:1.0 32431:1.0 37055:1.0 41440:1.0 41773:1.0 42611:1.0 46416:1.0 
0.0026787130980008983 6.425019972695763E-4 532:1.0 2374:1.0 6302:1.0 7809:1.0 10724:1.0 10724:1.0 10739:1.0 10739:1.0 13329:1.0 14422:1.0 18515:1.0 23008:1.0 28981:1.0 32262:1.0 34382:1.0 37062:1.0 38309:1.0 41779:1.0 45744:1.0 46406:1.0 
0.0023525444312677657 5.088478029156571E-4 2310:1.0 2384:1.0 7498:1.0 7816:1.0 13454:1.0 14422:1.0 20238:1.0 23006:1.0 28674:1.0 32263:1.0 36965:1.0 37055:1.0 39143:1.0 41778:1.0 42839:1.0 46414:1.0 
0.0030129550072347843 4.397505098066852E-4 1909:1.0 2385:1.0 5497:1.0 7806:1.0 11084:1.0 14422:1.0 20584:1.0 23005:1.0 29479:1.0 32261:1.0 34370:1.0 37065:1.0 38078:1.0 41770:1.0 42839:1.0 46414:1.0 
0.0013176255116428685 4.4931806223520395E-4 260:1.0 2374:1.0 5223:1.0 7805:1.0 9550:1.0 9550:1.0 9550:1.0 9567:1.0 9567:1.0 9567:1.0 10724:1.0 10739:1.0 13655:1.0 14422:1.0 22533:1.0 23005:1.0 28674:1.0 32263:1.0 33537:1.0 37063:1.0 41098:1.0 41771:1.0 44731:1.0 46413:1.0 
0.001780680393759811 0.0 2023:1.0 2375:1.0 7132:1.0 7810:1.0 9550:1.0 9567:1.0 10724:1.0 10739:1.0 13329:1.0 14422:1.0 21439:1.0 23007:1.0 30624:1.0 32262:1.0 36395:1.0 37052:1.0 37915:1.0 41781:1.0 
-0.0017809933599860458 2.586811334191483E-4 2023:1.0 2379:1.0 5464:1.0 7809:1.0 9550:1.0 9550:1.0 9567:1.0 9567:1.0 10724:1.0 10724:1.0 10739:1.0 10739:1.0 13329:1.0 14422:1.0 18964:1.0 23000:1.0 28276:1.0 32267:1.0 33915:1.0 37056:1.0 38637:1.0 41778:1.0 45346:1.0 46406:1.0 
-5.224685503475581E-4 2.6401305311307905E-4 1902:1.0 2377:1.0 3851:1.0 3851:1.0 3868:1.0 3868:1.0 4913:1.0 4913:1.0 4913:1.0 4928:1.0 4928:1.0 4928:1.0 5397:1.0 7808:1.0 10724:1.0 10724:1.0 10724:1.0 10739:1.0 10739:1.0 10739:1.0 11341:1.0 14422:1.0 19758:1.0 23000:1.0 29018:1.0 32268:1.0 35954:1.0 37055:1.0 37915:1.0 41781:1.0 
-1.2670315271954912E-4 0.0 1949:1.0 2377:1.0 3851:1.0 3851:1.0 3868:1.0 3868:1.0 4913:1.0 4928:1.0 7388:1.0 7811:1.0 11028:1.0 14422:1.0 22685:1.0 23001:1.0 27477:1.0 27492:1.0 28917:1.0 32269:1.0 35370:1.0 37052:1.0 41571:1.0 41771:1.0 45919:1.0 46415:1.0 
-0.0011841342786630556 7.859949859384371E-5 429:1.0 2876:1.0 4621:1.0 4638:1.0 5795:1.0 5810:1.0 8400:1.0 9493:1.0 17464:1.0 18067:1.0 22548:1.0 22563:1.0 23256:1.0 27339:1.0 28836:1.0 32134:1.0 32734:1.0 36839:1.0 37843:1.0 41476:1.0 
-0.0 2.031305662011767E-6 1436:1.0 2885:1.0 5963:1.0 9493:1.0 16699:1.0 18072:1.0 22548:1.0 22548:1.0 22548:1.0 22563:1.0 22563:1.0 22563:1.0 25565:1.0 27339:1.0 28836:1.0 32134:1.0 34471:1.0 36847:1.0 41300:1.0 41484:1.0 
-1.688283659684689E-4 0.0 2023:1.0 2379:1.0 6653:1.0 7805:1.0 9550:1.0 9550:1.0 9567:1.0 9567:1.0 10724:1.0 10739:1.0 12863:1.0 14422:1.0 19904:1.0 23000:1.0 27477:1.0 27477:1.0 27492:1.0 27492:1.0 29790:1.0 32271:1.0 34755:1.0 37065:1.0 38078:1.0 41770:1.0 45744:1.0 46410:1.0 
-0.0013750124540725342 5.108287990445579E-4 1310:1.0 2381:1.0 5835:1.0 7814:1.0 10874:1.0 14422:1.0 20439:1.0 23001:1.0 30494:1.0 32268:1.0 33213:1.0 37052:1.0 41098:1.0 41771:1.0 43076:1.0 46408:1.0 
-0.0021673633556517835 0.0 1865:1.0 2876:1.0 4621:1.0 4621:1.0 4621:1.0 4638:1.0 4638:1.0 4638:1.0 5795:1.0 5795:1.0 5810:1.0 5810:1.0 8400:1.0 9493:1.0 14678:1.0 18071:1.0 23547:1.0 27334:1.0 28937:1.0 32133:1.0 35902:1.0 36839:1.0 38480:1.0 41485:1.0 
-7.350918648814514E-4 0.0 2023:1.0 2379:1.0 7654:1.0 7805:1.0 9550:1.0 9567:1.0 10724:1.0 10739:1.0 11729:1.0 14422:1.0 20967:1.0 23001:1.0 28245:1.0 32268:1.0 34159:1.0 37052:1.0 39383:1.0 41781:1.0 45787:1.0 46407:1.0 
-1.5458159763260296E-5 0.0 2023:1.0 2379:1.0 5209:1.0 7810:1.0 13329:1.0 14422:1.0 21038:1.0 22996:1.0 27477:1.0 27492:1.0 29542:1.0 32268:1.0 33953:1.0 37063:1.0 41432:1.0 41774:1.0 44635:1.0 46409:1.0 
-0.0 3.3794635834451876E-4 1200:1.0 2385:1.0 6470:1.0 7816:1.0 11242:1.0 14422:1.0 16917:1.0 16934:1.0 21038:1.0 22996:1.0 27477:1.0 27477:1.0 27477:1.0 27477:1.0 27492:1.0 27492:1.0 27492:1.0 27492:1.0 29542:1.0 32268:1.0 33953:1.0 37063:1.0 41432:1.0 41774:1.0 44635:1.0 46409:1.0 
-7.627248790470073E-4 2.3402667616629784E-4 2023:1.0 2375:1.0 6087:1.0 7805:1.0 10724:1.0 10739:1.0 12387:1.0 14422:1.0 20445:1.0 23001:1.0 28451:1.0 32260:1.0 36369:1.0 37055:1.0 41205:1.0 41773:1.0 45576:1.0 46407:1.0 
-0.001323082532308465 0.0 1652:1.0 2876:1.0 4621:1.0 4638:1.0 5795:1.0 5795:1.0 5810:1.0 5810:1.0 8400:1.0 9493:1.0 14102:1.0 18067:1.0 22548:1.0 22548:1.0 22563:1.0 22563:1.0 26632:1.0 27332:1.0 31234:1.0 32128:1.0 33835:1.0 36845:1.0 37641:1.0 41484:1.0 
-0.0024003171609234034 1.4108043231648003E-4 2693:1.0 2876:1.0 4621:1.0 4621:1.0 4638:1.0 4638:1.0 5795:1.0 5810:1.0 8400:1.0 9493:1.0 14678:1.0 18071:1.0 26391:1.0 27338:1.0 29193:1.0 32128:1.0 35134:1.0 36849:1.0 38480:1.0 41485:1.0 
-0.001212008110204951 3.278882987945158E-4 844:1.0 2879:1.0 5795:1.0 5795:1.0 5810:1.0 5810:1.0 8749:1.0 9493:1.0 15042:1.0 18072:1.0 25565:1.0 27339:1.0 29024:1.0 32134:1.0 36416:1.0 36839:1.0 39200:1.0 41478:1.0 
-7.013733269198569E-4 0.0 112:1.0 2878:1.0 4621:1.0 4638:1.0 8400:1.0 9493:1.0 15255:1.0 18072:1.0 22548:1.0 22548:1.0 22548:1.0 22563:1.0 22563:1.0 22563:1.0 25134:1.0 27340:1.0 31421:1.0 32123:1.0 34214:1.0 36849:1.0 38295:1.0 41485:1.0 
-0.0038317333447596474 0.0012448206534284483 1200:1.0 2385:1.0 7388:1.0 7807:1.0 13329:1.0 14422:1.0 19253:1.0 22996:1.0 28611:1.0 32262:1.0 33040:1.0 37062:1.0 38091:1.0 41773:1.0 44731:1.0 46413:1.0 
-0.0014775491704039367 2.1979228678785983E-4 533:1.0 2880:1.0 4621:1.0 4638:1.0 5795:1.0 5810:1.0 5960:1.0 9493:1.0 14324:1.0 18067:1.0 22548:1.0 22548:1.0 22548:1.0 22548:1.0 22563:1.0 22563:1.0 22563:1.0 22563:1.0 23682:1.0 27333:1.0 28111:1.0 32133:1.0 33162:1.0 36844:1.0 39802:1.0 41484:1.0 
-0.001827635936004733 0.0 2778:1.0 2876:1.0 4621:1.0 4638:1.0 5795:1.0 5795:1.0 5810:1.0 5810:1.0 8288:1.0 9493:1.0 15775:1.0 18072:1.0 25565:1.0 27339:1.0 31891:1.0 32128:1.0 33607:1.0 36850:1.0 39170:1.0 41474:1.0 
-3.336838848539775E-4 0.0 112:1.0 2377:1.0 3851:1.0 3851:1.0 3851:1.0 3868:1.0 3868:1.0 3868:1.0 4913:1.0 4928:1.0 5562:1.0 7812:1.0 13360:1.0 14422:1.0 20657:1.0 23001:1.0 30883:1.0 32268:1.0 33765:1.0 37063:1.0 38543:1.0 41772:1.0 46151:1.0 46403:1.0 
-0.0014380827859077434 4.713375895133417E-5 1119:1.0 2881:1.0 4621:1.0 4621:1.0 4621:1.0 4638:1.0 4638:1.0 4638:1.0 5795:1.0 5810:1.0 7458:1.0 9493:1.0 15831:1.0 18072:1.0 24022:1.0 27340:1.0 29895:1.0 32123:1.0 35720:1.0 36849:1.0 38331:1.0 41482:1.0 
-0.0 7.593490363886825E-6 1650:1.0 2876:1.0 4621:1.0 4621:1.0 4621:1.0 4638:1.0 4638:1.0 4638:1.0 5795:1.0 5810:1.0 7458:1.0 9493:1.0 13598:1.0 18067:1.0 22548:1.0 22548:1.0 22548:1.0 22548:1.0 22563:1.0 22563:1.0 22563:1.0 22563:1.0 24992:1.0 27342:1.0 32081:1.0 32125:1.0 32569:1.0 36848:1.0 37539:1.0 41479:1.0 
-6.152873167329417E-4 1.2910052145160742E-4 209:1.0 2876:1.0 4621:1.0 4621:1.0 4638:1.0 4638:1.0 5795:1.0 5795:1.0 5795:1.0 5795:1.0 5795:1.0 5795:1.0 5810:1.0 5810:1.0 5810:1.0 5810:1.0 5810:1.0 5810:1.0 6091:1.0 9493:1.0 13889:1.0 18072:1.0 25795:1.0 27340:1.0 31728:1.0 32135:1.0 34167:1.0 36851:1.0 38897:1.0 41484:1.0 
-0.0 9.150979444029633E-6 1624:1.0 2373:1.0 4913:1.0 4928:1.0 4975:1.0 7807:1.0 12387:1.0 14422:1.0 22531:1.0 23001:1.0 31226:1.0 32270:1.0 34382:1.0 37062:1.0 41098:1.0 41775:1.0 43779:1.0 46409:1.0 
-0.0037399497015601297 4.911577332812813E-4 1204:1.0 2881:1.0 8400:1.0 9493:1.0 15395:1.0 18070:1.0 24613:1.0 27339:1.0 28444:1.0 32134:1.0 35414:1.0 36843:1.0 38742:1.0 41474:1.0 
-1.093187707762336E-4 4.711831294949097E-6 1386:1.0 2373:1.0 3851:1.0 3851:1.0 3868:1.0 3868:1.0 4913:1.0 4913:1.0 4928:1.0 4928:1.0 5141:1.0 7813:1.0 12538:1.0 14422:1.0 21529:1.0 22996:1.0 27477:1.0 27492:1.0 28245:1.0 32268:1.0 32392:1.0 37064:1.0 39143:1.0 41778:1.0 42063:1.0 46411:1.0 
-6.322851742140823E-4 0.0 1691:1.0 2876:1.0 4621:1.0 4621:1.0 4638:1.0 4638:1.0 5795:1.0 5795:1.0 5810:1.0 5810:1.0 6091:1.0 9493:1.0 16600:1.0 18067:1.0 22548:1.0 22548:1.0 22563:1.0 22563:1.0 23316:1.0 27339:1.0 27463:1.0 32135:1.0 34214:1.0 36849:1.0 37134:1.0 41482:1.0 
-7.573530599232385E-4 4.0018885078740293E-4 1739:1.0 2374:1.0 3851:1.0 3868:1.0 4913:1.0 4928:1.0 5686:1.0 7808:1.0 10724:1.0 10724:1.0 10739:1.0 10739:1.0 12863:1.0 14422:1.0 21699:1.0 22996:1.0 27477:1.0 27492:1.0 28245:1.0 32268:1.0 32949:1.0 37064:1.0 39823:1.0 41776:1.0 42177:1.0 46403:1.0 
-3.3588176208680914E-4 1.4251353529614721E-5 257:1.0 2876:1.0 5795:1.0 5795:1.0 5810:1.0 5810:1.0 9469:1.0 9493:1.0 13794:1.0 18072:1.0 27140:1.0 27339:1.0 28836:1.0 32134:1.0 34491:1.0 36845:1.0 37911:1.0 41480:1.0 
-9.157392959175956E-4 1.5058615880895324E-4 1070:1.0 2876:1.0 4621:1.0 4621:1.0 4638:1.0 4638:1.0 5795:1.0 5810:1.0 8431:1.0 9493:1.0 17161:1.0 18067:1.0 22548:1.0 22563:1.0 23522:1.0 27331:1.0 29024:1.0 32134:1.0 33545:1.0 36839:1.0 38897:1.0 41484:1.0 
-3.0479246806442247E-4 0.0 1657:1.0 2876:1.0 4621:1.0 4621:1.0 4621:1.0 4638:1.0 4638:1.0 4638:1.0 5795:1.0 5810:1.0 9469:1.0 9493:1.0 16011:1.0 18072:1.0 27140:1.0 27339:1.0 29956:1.0 32123:1.0 32957:1.0 36843:1.0 39802:1.0 41484:1.0 
-3.582054462911181E-4 2.0773372696715811E-4 1135:1.0 2377:1.0 4913:1.0 4928:1.0 7388:1.0 7811:1.0 13360:1.0 14422:1.0 19116:1.0 23001:1.0 27477:1.0 27477:1.0 27477:1.0 27492:1.0 27492:1.0 27492:1.0 30484:1.0 32258:1.0 32705:1.0 37062:1.0 38722:1.0 41779:1.0 42965:1.0 46407:1.0 
-0.0 1.116836189386524E-4 1775:1.0 2377:1.0 4913:1.0 4913:1.0 4928:1.0 4928:1.0 7388:1.0 7811:1.0 14398:1.0 14422:1.0 20202:1.0 23001:1.0 31098:1.0 32268:1.0 35547:1.0 37063:1.0 39289:1.0 41768:1.0 43826:1.0 46413:1.0 
-0.003470165245787089 4.613030597248517E-4 1013:1.0 2382:1.0 7388:1.0 7811:1.0 13360:1.0 14422:1.0 20489:1.0 22996:1.0 29542:1.0 32268:1.0 33869:1.0 37052:1.0 41298:1.0 41772:1.0 44188:1.0 46416:1.0 
-4.3018470781838584E-4 1.2751254593259298E-4 234:1.0 2380:1.0 3851:1.0 3868:1.0 4913:1.0 4928:1.0 7534:1.0 7805:1.0 9550:1.0 9550:1.0 9550:1.0 9550:1.0 9567:1.0 9567:1.0 9567:1.0 9567:1.0 10724:1.0 10739:1.0 14046:1.0 14422:1.0 19254:1.0 22996:1.0 27477:1.0 27477:1.0 27492:1.0 27492:1.0 29542:1.0 32268:1.0 34544:1.0 37052:1.0 37915:1.0 41781:1.0 
-0.005273572307759487 0.0013259876429389053 1138:1.0 2385:1.0 7498:1.0 7816:1.0 14038:1.0 14422:1.0 18340:1.0 23005:1.0 31561:1.0 32265:1.0 32431:1.0 37055:1.0 41693:1.0 41773:1.0 43216:1.0 46411:1.0 
-1.3475632844605557E-4 2.031926139691586E-4 2023:1.0 2379:1.0 6061:1.0 7805:1.0 10724:1.0 10724:1.0 10739:1.0 10739:1.0 12863:1.0 14422:1.0 21636:1.0 22996:1.0 27477:1.0 27477:1.0 27492:1.0 27492:1.0 29790:1.0 32271:1.0 34382:1.0 37062:1.0 38536:1.0 41779:1.0 44569:1.0 46403:1.0 
-1.6161127431563548E-4 0.0 1667:1.0 2373:1.0 4913:1.0 4913:1.0 4928:1.0 4928:1.0 7388:1.0 7807:1.0 13217:1.0 14422:1.0 19970:1.0 23001:1.0 29105:1.0 32269:1.0 36796:1.0 37056:1.0 40650:1.0 41768:1.0 42611:1.0 46416:1.0 
-0.0019588840867103383 9.616599802995313E-5 1540:1.0 2373:1.0 4913:1.0 4913:1.0 4928:1.0 4928:1.0 7388:1.0 7807:1.0 11084:1.0 14422:1.0 19172:1.0 23001:1.0 28998:1.0 32258:1.0 32703:1.0 37064:1.0 37566:1.0 41772:1.0 44188:1.0 46416:1.0 
-2.873537547473202E-4 0.0 2023:1.0 2379:1.0 4975:1.0 7807:1.0 12387:1.0 14422:1.0 21499:1.0 23001:1.0 29790:1.0 32271:1.0 36369:1.0 37059:1.0 39949:1.0 41774:1.0 43929:1.0 46412:1.0 
-0.001369095235991911 0.0 2023:1.0 2379:1.0 6667:1.0 7810:1.0 12387:1.0 14422:1.0 20027:1.0 23001:1.0 29196:1.0 32270:1.0 35759:1.0 37056:1.0 40275:1.0 41768:1.0 44994:1.0 46407:1.0 
-7.038512851522555E-4 1.0489094663071898E-4 899:1.0 2377:1.0 3851:1.0 3851:1.0 3851:1.0 3868:1.0 3868:1.0 3868:1.0 4913:1.0 4913:1.0 4913:1.0 4913:1.0 4928:1.0 4928:1.0 4928:1.0 4928:1.0 7388:1.0 7811:1.0 13329:1.0 14422:1.0 18437:1.0 23000:1.0 28104:1.0 32263:1.0 35995:1.0 37052:1.0 37266:1.0 41772:1.0 42512:1.0 46413:1.0 
-3.454893001696312E-5 0.0 512:1.0 2373:1.0 3851:1.0 3868:1.0 4913:1.0 4928:1.0 7498:1.0 7816:1.0 12863:1.0 14422:1.0 19651:1.0 23000:1.0 27477:1.0 27492:1.0 28451:1.0 32260:1.0 32431:1.0 37055:1.0 37471:1.0 41773:1.0 44731:1.0 46413:1.0 
-0.0015528349352123402 0.0 1200:1.0 2385:1.0 7498:1.0 7816:1.0 13747:1.0 14422:1.0 20418:1.0 23001:1.0 29921:1.0 32271:1.0 33953:1.0 37063:1.0 40620:1.0 41772:1.0 45319:1.0 46403:1.0 
-0.0019040829248611248 0.0 2023:1.0 2379:1.0 5623:1.0 7805:1.0 9550:1.0 9567:1.0 10724:1.0 10739:1.0 13329:1.0 14422:1.0 20716:1.0 22996:1.0 27477:1.0 27492:1.0 28443:1.0 32270:1.0 35050:1.0 37056:1.0 37815:1.0 41778:1.0 42839:1.0 46414:1.0 
-1.0861427318683658E-4 0.0 136:1.0 2384:1.0 4975:1.0 7807:1.0 12387:1.0 14422:1.0 20296:1.0 23001:1.0 29018:1.0 32268:1.0 32935:1.0 37057:1.0 39588:1.0 41779:1.0 46293:1.0 46403:1.0 
-0.0016018468764482097 3.729921563483814E-4 1267:1.0 2880:1.0 4621:1.0 4621:1.0 4638:1.0 4638:1.0 5795:1.0 5795:1.0 5795:1.0 5795:1.0 5810:1.0 5810:1.0 5810:1.0 5810:1.0 7458:1.0 9493:1.0 14530:1.0 18072:1.0 26347:1.0 27334:1.0 28937:1.0 32133:1.0 34716:1.0 36850:1.0 37696:1.0 41474:1.0 
-0.0010695261657110244 4.4562453475469054E-5 2094:1.0 2373:1.0 3851:1.0 3868:1.0 4913:1.0 4913:1.0 4913:1.0 4928:1.0 4928:1.0 4928:1.0 5092:1.0 7816:1.0 12387:1.0 14422:1.0 21618:1.0 23001:1.0 31561:1.0 32265:1.0 35671:1.0 37057:1.0 37621:1.0 41779:1.0 44913:1.0 46403:1.0 
-4.7932191368400357E-4 0.0 2263:1.0 2373:1.0 3851:1.0 3868:1.0 4913:1.0 4913:1.0 4928:1.0 4928:1.0 5772:1.0 7805:1.0 9550:1.0 9567:1.0 10724:1.0 10739:1.0 11875:1.0 14422:1.0 22886:1.0 23001:1.0 27567:1.0 32261:1.0 35318:1.0 37062:1.0 41316:1.0 41768:1.0 43826:1.0 46413:1.0 
-5.467665600086609E-4 2.3970961487000743E-4 2811:1.0 2880:1.0 4621:1.0 4621:1.0 4621:1.0 4638:1.0 4638:1.0 4638:1.0 5795:1.0 5795:1.0 5795:1.0 5810:1.0 5810:1.0 5810:1.0 6946:1.0 9493:1.0 17309:1.0 18072:1.0 24454:1.0 27341:1.0 28937:1.0 32133:1.0 33607:1.0 36850:1.0 37759:1.0 41480:1.0 
-7.936893597582652E-4 0.0010165724172479156 142:1.0 2377:1.0 6273:1.0 7809:1.0 9550:1.0 9550:1.0 9550:1.0 9567:1.0 9567:1.0 9567:1.0 10724:1.0 10724:1.0 10724:1.0 10724:1.0 10724:1.0 10739:1.0 10739:1.0 10739:1.0 10739:1.0 10739:1.0 14062:1.0 14422:1.0 16917:1.0 16934:1.0 21314:1.0 23001:1.0 29105:1.0 32269:1.0 34069:1.0 37052:1.0 39143:1.0 41778:1.0 45463:1.0 46408:1.0 
-4.115158689765614E-4 1.6072739295830416E-4 777:1.0 2373:1.0 4913:1.0 4928:1.0 4975:1.0 7807:1.0 14038:1.0 14422:1.0 18947:1.0 23001:1.0 29270:1.0 32269:1.0 35820:1.0 37064:1.0 40667:1.0 41768:1.0 44882:1.0 46411:1.0 
-2.6876463796737717E-4 0.0 2023:1.0 2375:1.0 7654:1.0 7805:1.0 9550:1.0 9567:1.0 10724:1.0 10739:1.0 11946:1.0 14422:1.0 22205:1.0 23001:1.0 27477:1.0 27492:1.0 28917:1.0 32269:1.0 34006:1.0 37056:1.0 38065:1.0 41768:1.0 44188:1.0 46416:1.0 
-9.75207453261985E-4 4.0339668106116573E-4 634:1.0 2377:1.0 3851:1.0 3851:1.0 3868:1.0 3868:1.0 4913:1.0 4928:1.0 6497:1.0 7805:1.0 10724:1.0 10739:1.0 13534:1.0 14422:1.0 18232:1.0 23000:1.0 28287:1.0 32271:1.0 
-0.001257131680901563 0.0 1926:1.0 2876:1.0 4621:1.0 4621:1.0 4621:1.0 4621:1.0 4638:1.0 4638:1.0 4638:1.0 4638:1.0 5795:1.0 5810:1.0 7934:1.0 9493:1.0 17080:1.0 18070:1.0 24613:1.0 27339:1.0 29965:1.0 32134:1.0 35234:1.0 36839:1.0 37250:1.0 41486:1.0 
-8.091177896331712E-5 0.0 2312:1.0 2373:1.0 3851:1.0 3868:1.0 4913:1.0 4913:1.0 4928:1.0 4928:1.0 6408:1.0 7809:1.0 10724:1.0 10724:1.0 10724:1.0 10739:1.0 10739:1.0 10739:1.0 13142:1.0 14422:1.0 20270:1.0 23001:1.0 32233:1.0 32266:1.0 35246:1.0 37052:1.0 39131:1.0 41781:1.0 42512:1.0 46413:1.0 
-0.001207829792063997 5.1922341523607384E-5 749:1.0 2382:1.0 3851:1.0 3868:1.0 6898:1.0 7805:1.0 10724:1.0 10739:1.0 13879:1.0 14422:1.0 18582:1.0 23001:1.0 28951:1.0 32269:1.0 36886:1.0 37052:1.0 37480:1.0 41780:1.0 42754:1.0 46415:1.0 
-0.0010454066264173473 0.0 1950:1.0 2373:1.0 3851:1.0 3851:1.0 3868:1.0 3868:1.0 4913:1.0 4928:1.0 7498:1.0 7816:1.0 13329:1.0 14422:1.0 18978:1.0 22996:1.0 27477:1.0 27492:1.0 29431:1.0 32262:1.0 32641:1.0 37064:1.0 41098:1.0 41775:1.0 45706:1.0 46412:1.0 
-2.980694908045106E-4 1.861435776257178E-4 397:1.0 2373:1.0 3851:1.0 3868:1.0 4913:1.0 4913:1.0 4913:1.0 4913:1.0 4913:1.0 4928:1.0 4928:1.0 4928:1.0 4928:1.0 4928:1.0 5092:1.0 7816:1.0 9550:1.0 9567:1.0 13837:1.0 14422:1.0 22533:1.0 23001:1.0 31561:1.0 32265:1.0 33953:1.0 37063:1.0 38305:1.0 41768:1.0 43645:1.0 46407:1.0 
-6.960925785014E-5 0.0 397:1.0 2373:1.0 3851:1.0 3851:1.0 3851:1.0 3851:1.0 3868:1.0 3868:1.0 3868:1.0 3868:1.0 4913:1.0 4913:1.0 4913:1.0 4913:1.0 4913:1.0 4928:1.0 4928:1.0 4928:1.0 4928:1.0 4928:1.0 7750:1.0 7810:1.0 10724:1.0 10739:1.0 11268:1.0 14422:1.0 22685:1.0 23001:1.0 28995:1.0 32269:1.0 36047:1.0 37052:1.0 37915:1.0 41781:1.0 
-0.0018358048978250594 0.0 2023:1.0 2379:1.0 6226:1.0 7805:1.0 9550:1.0 9550:1.0 9567:1.0 9567:1.0 10724:1.0 10739:1.0 14038:1.0 14422:1.0 22104:1.0 23001:1.0 27567:1.0 32261:1.0 36868:1.0 37062:1.0 38722:1.0 41779:1.0 43602:1.0 46403:1.0 
-0.0016836982841912942 5.238208232079348E-4 1383:1.0 2888:1.0 6551:1.0 9493:1.0 14102:1.0 18067:1.0 22548:1.0 22563:1.0 24613:1.0 27339:1.0 31205:1.0 32127:1.0 36259:1.0 36839:1.0 39302:1.0 41474:1.0 
-0.0 3.257679298318489E-4 1200:1.0 2385:1.0 7388:1.0 7807:1.0 13329:1.0 14422:1.0 20163:1.0 22996:1.0 27477:1.0 27492:1.0 28287:1.0 32271:1.0 
-0.003925560364065196 8.339384256885537E-4 1587:1.0 2377:1.0 3851:1.0 3868:1.0 4913:1.0 4928:1.0 7092:1.0 7814:1.0 13944:1.0 14422:1.0 21895:1.0 22996:1.0 27477:1.0 27492:1.0 28287:1.0 32271:1.0 
-5.119503250354615E-4 1.2248647319542804E-4 1200:1.0 2385:1.0 5253:1.0 7807:1.0 12387:1.0 14422:1.0 22266:1.0 23001:1.0 28951:1.0 32269:1.0 33957:1.0 37052:1.0 40617:1.0 41775:1.0 44956:1.0 46414:1.0 
-3.528545100004362E-4 0.0 350:1.0 2378:1.0 3851:1.0 3851:1.0 3868:1.0 3868:1.0 4913:1.0 4928:1.0 6866:1.0 7805:1.0 10724:1.0 10739:1.0 11084:1.0 14422:1.0 18216:1.0 23001:1.0 32130:1.0 32270:1.0 33866:1.0 37062:1.0 38536:1.0 41779:1.0 44843:1.0 46403:1.0 
-0.0 4.252629637375474E-5 1075:1.0 2373:1.0 3851:1.0 3868:1.0 4913:1.0 4913:1.0 4928:1.0 4928:1.0 7803:1.0 7810:1.0 12387:1.0 14422:1.0 18730:1.0 23001:1.0 29921:1.0 32271:1.0 34335:1.0 37064:1.0 37325:1.0 41773:1.0 44188:1.0 46416:1.0 
-1.8014971189025703E-4 0.0 2023:1.0 2379:1.0 6449:1.0 7805:1.0 10724:1.0 10739:1.0 13062:1.0 14422:1.0 22175:1.0 23001:1.0 28185:1.0 32268:1.0 36555:1.0 37057:1.0 41362:1.0 41768:1.0 46230:1.0 46413:1.0 
-0.0030844449536589903 1.266994267190795E-4 2191:1.0 2876:1.0 4621:1.0 4638:1.0 5795:1.0 5810:1.0 7458:1.0 9493:1.0 17738:1.0 18072:1.0 23988:1.0 27340:1.0 30116:1.0 32123:1.0 36655:1.0 36843:1.0 41209:1.0 41478:1.0 
-3.50711334009658E-6 0.0 2023:1.0 2375:1.0 5193:1.0 7813:1.0 12568:1.0 14422:1.0 21778:1.0 23001:1.0 30494:1.0 32268:1.0 33765:1.0 37063:1.0 41128:1.0 41768:1.0 46035:1.0 46407:1.0 
-1.0557735423037733E-4 0.0 341:1.0 2382:1.0 7388:1.0 7811:1.0 12016:1.0 14422:1.0 20327:1.0 23001:1.0 30494:1.0 32268:1.0 34894:1.0 37063:1.0 39617:1.0 41768:1.0 43826:1.0 46413:1.0 
-0.0012172525535448708 4.1612823608702963E-4 2023:1.0 2379:1.0 7271:1.0 7805:1.0 9550:1.0 9550:1.0 9550:1.0 9567:1.0 9567:1.0 9567:1.0 10724:1.0 10739:1.0 12863:1.0 14422:1.0 19426:1.0 22996:1.0 27477:1.0 27492:1.0 31561:1.0 32261:1.0 32703:1.0 37064:1.0 40386:1.0 41773:1.0 43325:1.0 46413:1.0 
-0.004328591472888129 2.160150769073926E-4 2023:1.0 2379:1.0 6312:1.0 7817:1.0 13329:1.0 14422:1.0 21610:1.0 23000:1.0 30424:1.0 32263:1.0 33537:1.0 37055:1.0 39383:1.0 41781:1.0 42611:1.0 46416:1.0 
-0.002205751058621764 5.0143375433912424E-5 1767:1.0 2876:1.0 4621:1.0 4638:1.0 5795:1.0 5810:1.0 6155:1.0 9493:1.0 13815:1.0 18071:1.0 22548:1.0 22563:1.0 27140:1.0 27339:1.0 31272:1.0 32123:1.0 34426:1.0 36843:1.0 39259:1.0 41487:1.0 
-3.44963244508202E-4 1.804511148312145E-5 853:1.0 2375:1.0 4975:1.0 7807:1.0 11084:1.0 14422:1.0 19855:1.0 23001:1.0 31098:1.0 32268:1.0 34627:1.0 37065:1.0 37889:1.0 41768:1.0 44063:1.0 46416:1.0 
-3.878588244667805E-4 0.0 2634:1.0 2876:1.0 4621:1.0 4621:1.0 4638:1.0 4638:1.0 5795:1.0 5795:1.0 5810:1.0 5810:1.0 7458:1.0 9493:1.0 17272:1.0 18072:1.0 24089:1.0 27339:1.0 29392:1.0 32134:1.0 34503:1.0 36839:1.0 39259:1.0 41487:1.0 
-6.6379964617735E-4 0.0 1146:1.0 2384:1.0 4913:1.0 4928:1.0 5392:1.0 7810:1.0 10724:1.0 10739:1.0 12816:1.0 14422:1.0 20764:1.0 23001:1.0 28917:1.0 32269:1.0 32457:1.0 37052:1.0 39143:1.0 41778:1.0 43409:1.0 46414:1.0 
-8.680721688149223E-4 3.8859984556258783E-4 622:1.0 2378:1.0 5739:1.0 7816:1.0 13747:1.0 14422:1.0 18956:1.0 23001:1.0 29018:1.0 32268:1.0 35733:1.0 37058:1.0 39508:1.0 41781:1.0 42741:1.0 46410:1.0 
-0.0011204260566147488 9.719574667689481E-5 260:1.0 2374:1.0 5708:1.0 7810:1.0 9550:1.0 9567:1.0 12387:1.0 14422:1.0 20924:1.0 23001:1.0 29845:1.0 32269:1.0 35021:1.0 37052:1.0 41098:1.0 41775:1.0 45919:1.0 46415:1.0 
-0.0019834209493588125 3.0687113579117505E-5 1200:1.0 2385:1.0 5253:1.0 7807:1.0 10724:1.0 10739:1.0 12387:1.0 14422:1.0 21569:1.0 23001:1.0 29385:1.0 32258:1.0 33371:1.0 37056:1.0 40063:1.0 41778:1.0 44322:1.0 46414:1.0 
-0.001155836688472596 4.223582960324329E-4 1661:1.0 2377:1.0 4913:1.0 4913:1.0 4913:1.0 4928:1.0 4928:1.0 4928:1.0 6745:1.0 7814:1.0 14284:1.0 14422:1.0 16917:1.0 16934:1.0 20091:1.0 23001:1.0 27477:1.0 27477:1.0 27492:1.0 27492:1.0 29627:1.0 32269:1.0 34915:1.0 37052:1.0 37603:1.0 41772:1.0 42512:1.0 46413:1.0 
-0.0 1.489612855400118E-5 2023:1.0 2375:1.0 6853:1.0 7805:1.0 9550:1.0 9550:1.0 9567:1.0 9567:1.0 10724:1.0 10724:1.0 10724:1.0 10739:1.0 10739:1.0 10739:1.0 14398:1.0 14422:1.0 20409:1.0 23001:1.0 32069:1.0 32268:1.0 33609:1.0 37058:1.0 37915:1.0 41781:1.0 
-6.228052834693643E-4 2.556545813601483E-5 2112:1.0 2384:1.0 5193:1.0 7813:1.0 12568:1.0 14422:1.0 20799:1.0 23001:1.0 29921:1.0 32271:1.0 33537:1.0 37063:1.0 41098:1.0 41771:1.0 44731:1.0 46413:1.0 
-0.004264123925133585 0.002761619209192638 1892:1.0 3682:1.0 10451:1.0 12256:1.0 16737:1.0 16752:1.0 19181:1.0 21531:1.0 23025:1.0 26323:1.0 27555:1.0 31028:1.0 33325:1.0 35667:1.0 
-8.67934716943057E-4 1.4911663913559712E-4 260:1.0 2374:1.0 6581:1.0 7805:1.0 9550:1.0 9567:1.0 10724:1.0 10739:1.0 14398:1.0 14422:1.0 22910:1.0 23001:1.0 31066:1.0 32265:1.0 34465:1.0 37063:1.0 40116:1.0 41768:1.0 44731:1.0 46413:1.0 
-0.0 3.446656491160641E-4 580:1.0 2373:1.0 4913:1.0 4928:1.0 5092:1.0 7816:1.0 12816:1.0 14422:1.0 22459:1.0 23001:1.0 29018:1.0 32268:1.0 34825:1.0 37058:1.0 38986:1.0 41774:1.0 44731:1.0 46413:1.0 
-1.4017720619054712E-4 2.521759842514322E-4 1200:1.0 2385:1.0 7388:1.0 7807:1.0 12552:1.0 14422:1.0 19207:1.0 23001:1.0 29018:1.0 32268:1.0 34956:1.0 37052:1.0 39143:1.0 41778:1.0 43224:1.0 46414:1.0 
-0.002252205964504057 5.918304277044459E-4 1043:1.0 2881:1.0 9469:1.0 9493:1.0 16686:1.0 18067:1.0 24613:1.0 27339:1.0 28157:1.0 32129:1.0 33195:1.0 36845:1.0 38897:1.0 41484:1.0 
-6.674097822548649E-4 0.0 2023:1.0 2379:1.0 4975:1.0 7807:1.0 12816:1.0 14422:1.0 21410:1.0 23001:1.0 29105:1.0 32269:1.0 35618:1.0 37052:1.0 38357:1.0 41772:1.0 42611:1.0 46416:1.0 
-7.623921448248346E-4 0.0 1825:1.0 2384:1.0 7498:1.0 7816:1.0 12387:1.0 14422:1.0 22849:1.0 23001:1.0 29790:1.0 32271:1.0 34382:1.0 37062:1.0 38536:1.0 41779:1.0 44715:1.0 46403:1.0 
-8.415927501162204E-4 7.850334631222819E-4 2298:1.0 2377:1.0 3851:1.0 3851:1.0 3851:1.0 3868:1.0 3868:1.0 3868:1.0 4913:1.0 4913:1.0 4913:1.0 4913:1.0 4913:1.0 4913:1.0 4928:1.0 4928:1.0 4928:1.0 4928:1.0 4928:1.0 4928:1.0 5012:1.0 7805:1.0 9550:1.0 9567:1.0 13142:1.0 14422:1.0 16917:1.0 16934:1.0 21688:1.0 23001:1.0 31311:1.0 32270:1.0 35318:1.0 37062:1.0 37175:1.0 41776:1.0 46193:1.0 46403:1.0 
-0.002394456793441722 0.0 1138:1.0 2385:1.0 6252:1.0 7816:1.0 13329:1.0 14422:1.0 22005:1.0 22996:1.0 29542:1.0 32268:1.0 35618:1.0 37052:1.0 39508:1.0 41781:1.0 45084:1.0 46412:1.0 
-0.0018857741700327624 2.8631002493703236E-5 2280:1.0 2876:1.0 4621:1.0 4621:1.0 4638:1.0 4638:1.0 5795:1.0 5795:1.0 5795:1.0 5810:1.0 5810:1.0 5810:1.0 8400:1.0 9493:1.0 14249:1.0 18067:1.0 24613:1.0 27339:1.0 30689:1.0 32123:1.0 34454:1.0 36852:1.0 39259:1.0 41487:1.0 
-6.401763873049019E-4 0.0 1138:1.0 2385:1.0 7498:1.0 7816:1.0 14398:1.0 14422:1.0 20530:1.0 22996:1.0 27477:1.0 27492:1.0 29790:1.0 32271:1.0 34311:1.0 37059:1.0 40063:1.0 41778:1.0 44425:1.0 46403:1.0 
-0.002374420190057451 3.3551816854689884E-5 1640:1.0 2373:1.0 3851:1.0 3868:1.0 4913:1.0 4928:1.0 6163:1.0 7814:1.0 13513:1.0 14422:1.0 18458:1.0 23001:1.0 29790:1.0 32271:1.0 33140:1.0 37065:1.0 
-5.682863259027878E-4 1.787468893923195E-4 1200:1.0 2385:1.0 5456:1.0 7805:1.0 9550:1.0 9567:1.0 10724:1.0 10724:1.0 10739:1.0 10739:1.0 13360:1.0 14422:1.0 22113:1.0 22996:1.0 27477:1.0 27492:1.0 29542:1.0 32268:1.0 33765:1.0 37063:1.0 38883:1.0 41768:1.0 45301:1.0 46409:1.0 
-5.160415414502607E-4 3.028705267254174E-4 1138:1.0 2385:1.0 6252:1.0 7816:1.0 14398:1.0 14422:1.0 21673:1.0 22996:1.0 27477:1.0 27492:1.0 29921:1.0 32271:1.0 37033:1.0 37061:1.0 40288:1.0 41779:1.0 46242:1.0 46403:1.0 
-5.925741444399414E-4 1.761129602034189E-4 2093:1.0 2876:1.0 4621:1.0 4638:1.0 5795:1.0 5795:1.0 5795:1.0 5795:1.0 5810:1.0 5810:1.0 5810:1.0 5810:1.0 9469:1.0 9493:1.0 17886:1.0 18067:1.0 22548:1.0 22563:1.0 24089:1.0 27339:1.0 28444:1.0 32134:1.0 32515:1.0 36839:1.0 38897:1.0 41484:1.0 
-1.6992664214375498E-4 0.0 1717:1.0 2373:1.0 3851:1.0 3851:1.0 3851:1.0 3851:1.0 3868:1.0 3868:1.0 3868:1.0 3868:1.0 4913:1.0 4913:1.0 4913:1.0 4913:1.0 4928:1.0 4928:1.0 4928:1.0 4928:1.0 7498:1.0 7816:1.0 14398:1.0 14422:1.0 18407:1.0 22996:1.0 27477:1.0 27492:1.0 28968:1.0 32262:1.0 34755:1.0 37065:1.0 38672:1.0 41770:1.0 43409:1.0 46414:1.0 
-3.0761543313521087E-4 0.0 2023:1.0 2379:1.0 5262:1.0 7805:1.0 9550:1.0 9567:1.0 10724:1.0 10739:1.0 13217:1.0 14422:1.0 20784:1.0 23001:1.0 29018:1.0 32268:1.0 33373:1.0 37063:1.0 38486:1.0 41768:1.0 44580:1.0 46407:1.0 
-0.0010345791976917923 3.0393576854252706E-4 2023:1.0 2375:1.0 4975:1.0 7807:1.0 11729:1.0 14422:1.0 22205:1.0 23001:1.0 29808:1.0 32270:1.0 34382:1.0 37062:1.0 41098:1.0 41775:1.0 43179:1.0 46408:1.0 
-1.60394228254643E-4 0.0 1487:1.0 2876:1.0 4621:1.0 4621:1.0 4621:1.0 4621:1.0 4621:1.0 4638:1.0 4638:1.0 4638:1.0 4638:1.0 4638:1.0 5795:1.0 5810:1.0 7458:1.0 9493:1.0 16759:1.0 18072:1.0 24176:1.0 27340:1.0 27696:1.0 32123:1.0 35134:1.0 36849:1.0 38480:1.0 41485:1.0 
-0.003497168139190438 6.590146450463305E-4 1147:1.0 2881:1.0 7458:1.0 9493:1.0 13287:1.0 18072:1.0 25795:1.0 27340:1.0 31932:1.0 32123:1.0 32944:1.0 36849:1.0 39185:1.0 41485:1.0 
-0.0011232676910292627 2.6650503387628464E-4 1528:1.0 2377:1.0 3851:1.0 3868:1.0 6404:1.0 7807:1.0 13592:1.0 14422:1.0 22025:1.0 22996:1.0 27477:1.0 27492:1.0 28716:1.0 32262:1.0 34382:1.0 37062:1.0 38722:1.0 41779:1.0 42827:1.0 46407:1.0 
-0.0023000920957238448 6.336230582951752E-4 2023:1.0 2379:1.0 5092:1.0 7816:1.0 13944:1.0 14422:1.0 19045:1.0 22996:1.0 27477:1.0 27492:1.0 31561:1.0 32265:1.0 33887:1.0 37057:1.0 39645:1.0 41779:1.0 45065:1.0 46403:1.0 
-0.0025793953673775606 4.4230502220357105E-4 936:1.0 2378:1.0 3851:1.0 3868:1.0 4913:1.0 4928:1.0 5003:1.0 7805:1.0 9550:1.0 9567:1.0 10724:1.0 10739:1.0 12863:1.0 14422:1.0 21026:1.0 23002:1.0 31747:1.0 32264:1.0 35922:1.0 37058:1.0 38078:1.0 41770:1.0 43544:1.0 46409:1.0 
-1.3077316679938465E-4 0.0 1622:1.0 2373:1.0 3851:1.0 3868:1.0 4913:1.0 4928:1.0 6232:1.0 7813:1.0 13196:1.0 14422:1.0 21712:1.0 23001:1.0 27477:1.0 27492:1.0 27567:1.0 32261:1.0 36868:1.0 37062:1.0 38722:1.0 41779:1.0 44758:1.0 46403:1.0 
-2.657158210501529E-4 0.0 1982:1.0 2876:1.0 4621:1.0 4638:1.0 5795:1.0 5810:1.0 7458:1.0 9493:1.0 16783:1.0 18072:1.0 22548:1.0 22548:1.0 22563:1.0 22563:1.0 22638:1.0 27332:1.0 31939:1.0 32133:1.0 33793:1.0 36850:1.0 39829:1.0 41474:1.0 
-0.0012693705037381678 0.0 2023:1.0 2375:1.0 6469:1.0 7807:1.0 13659:1.0 14422:1.0 20066:1.0 23001:1.0 32130:1.0 32270:1.0 33039:1.0 37052:1.0 37915:1.0 41781:1.0 
-3.47050838650499E-6 2.7758834266664853E-4 1816:1.0 2377:1.0 3851:1.0 3851:1.0 3851:1.0 3868:1.0 3868:1.0 3868:1.0 4913:1.0 4913:1.0 4928:1.0 4928:1.0 6907:1.0 7807:1.0 12387:1.0 14422:1.0 20187:1.0 23001:1.0 29065:1.0 32261:1.0 33040:1.0 37062:1.0 41098:1.0 41775:1.0 41960:1.0 46408:1.0 
-0.0010911865256337298 2.6490958166401575E-4 2023:1.0 2379:1.0 6041:1.0 7809:1.0 9550:1.0 9567:1.0 10724:1.0 10724:1.0 10724:1.0 10739:1.0 10739:1.0 10739:1.0 13329:1.0 14422:1.0 22121:1.0 22996:1.0 27477:1.0 27492:1.0 28520:1.0 32262:1.0 35318:1.0 37062:1.0 38536:1.0 41779:1.0 45744:1.0 46406:1.0 
-7.368947088112876E-4 3.2234338294152224E-4 2023:1.0 2375:1.0 6555:1.0 7813:1.0 12568:1.0 14422:1.0 20198:1.0 23001:1.0 30570:1.0 32270:1.0 35318:1.0 37062:1.0 40075:1.0 41768:1.0 43826:1.0 46413:1.0 
-0.0010884821827535766 0.0 1200:1.0 2385:1.0 7079:1.0 7811:1.0 12387:1.0 14422:1.0 22266:1.0 23001:1.0 28951:1.0 32269:1.0 33957:1.0 37052:1.0 37915:1.0 41781:1.0 
-0.00231070408873983 1.766258263108512E-4 1825:1.0 2384:1.0 7498:1.0 7816:1.0 12387:1.0 14422:1.0 18730:1.0 23001:1.0 28596:1.0 32263:1.0 33799:1.0 37063:1.0 41146:1.0 41768:1.0 44188:1.0 46416:1.0 
-1.9644987618920075E-4 0.0 1663:1.0 2373:1.0 3851:1.0 3868:1.0 4913:1.0 4913:1.0 4913:1.0 4913:1.0 4928:1.0 4928:1.0 4928:1.0 4928:1.0 6163:1.0 7814:1.0 14062:1.0 14422:1.0 19293:1.0 23001:1.0 28917:1.0 32269:1.0 34508:1.0 37052:1.0 38078:1.0 41770:1.0 45343:1.0 46408:1.0 
-0.0019714479308980686 4.3925874601407114E-4 2392:1.0 2876:1.0 5795:1.0 5810:1.0 6088:1.0 9493:1.0 17949:1.0 18072:1.0 22638:1.0 27332:1.0 31998:1.0 32135:1.0 35134:1.0 36849:1.0 39274:1.0 41480:1.0 
-3.228788091758013E-4 0.0 2023:1.0 2375:1.0 6670:1.0 7805:1.0 9550:1.0 9550:1.0 9567:1.0 9567:1.0 10724:1.0 10739:1.0 14038:1.0 14422:1.0 19066:1.0 23001:1.0 30494:1.0 32268:1.0 34224:1.0 37058:1.0 40154:1.0 41774:1.0 42611:1.0 46416:1.0 
-8.137316210365693E-4 0.0 391:1.0 2379:1.0 6672:1.0 7816:1.0 13944:1.0 14422:1.0 22565:1.0 23001:1.0 30063:1.0 32269:1.0 34989:1.0 37052:1.0 39143:1.0 41778:1.0 45343:1.0 46408:1.0 
-0.0 2.136280176168608E-4 1200:1.0 2385:1.0 7388:1.0 7807:1.0 13846:1.0 14422:1.0 20990:1.0 23001:1.0 29018:1.0 32268:1.0 33866:1.0 37062:1.0 37706:1.0 41768:1.0 43258:1.0 46414:1.0 
-9.931607636946523E-4 2.300343615592868E-4 2030:1.0 2379:1.0 6099:1.0 7810:1.0 9550:1.0 9567:1.0 12813:1.0 14422:1.0 21719:1.0 23001:1.0 29845:1.0 32269:1.0 36974:1.0 37052:1.0 38637:1.0 41778:1.0 43224:1.0 46414:1.0 
-7.31999759347596E-4 0.0 1200:1.0 2385:1.0 7681:1.0 7807:1.0 13592:1.0 14422:1.0 22849:1.0 23001:1.0 28245:1.0 32268:1.0 35611:1.0 37052:1.0 39255:1.0 41772:1.0 46229:1.0 46413:1.0 
-9.277121541993114E-4 1.5813519732363782E-4 341:1.0 2382:1.0 7388:1.0 7811:1.0 12016:1.0 14422:1.0 19912:1.0 23001:1.0 29542:1.0 32268:1.0 34835:1.0 37063:1.0 40806:1.0 41772:1.0 42155:1.0 46403:1.0 
-0.0025912211575755133 2.7273597514773716E-4 296:1.0 2876:1.0 4621:1.0 4638:1.0 5795:1.0 5795:1.0 5810:1.0 5810:1.0 8020:1.0 9493:1.0 17399:1.0 18067:1.0 22548:1.0 22548:1.0 22563:1.0 22563:1.0 24992:1.0 27342:1.0 31440:1.0 32126:1.0 36050:1.0 36844:1.0 40432:1.0 41478:1.0 
-0.0021649906627425417 3.43583251471174E-4 1170:1.0 2881:1.0 8663:1.0 9493:1.0 16941:1.0 18071:1.0 22548:1.0 22563:1.0 25565:1.0 27339:1.0 27842:1.0 32128:1.0 34579:1.0 36852:1.0 39302:1.0 41474:1.0 
-1.5653413971350368E-4 0.0 363:1.0 2876:1.0 4621:1.0 4621:1.0 4638:1.0 4638:1.0 5795:1.0 5810:1.0 8858:1.0 9493:1.0 13913:1.0 18072:1.0 22548:1.0 22548:1.0 22563:1.0 22563:1.0 23712:1.0 27329:1.0 27776:1.0 32133:1.0 33607:1.0 36850:1.0 37253:1.0 41474:1.0 
-6.31112175801529E-4 0.0 563:1.0 2373:1.0 3851:1.0 3851:1.0 3851:1.0 3851:1.0 3868:1.0 3868:1.0 3868:1.0 3868:1.0 6404:1.0 7807:1.0 13592:1.0 14422:1.0 19816:1.0 22996:1.0 27477:1.0 27492:1.0 31561:1.0 32261:1.0 33700:1.0 37057:1.0 38078:1.0 41770:1.0 45327:1.0 46406:1.0 
-0.0012870874036318438 5.5302412855581726E-5 1791:1.0 2375:1.0 3851:1.0 3868:1.0 6404:1.0 7807:1.0 13592:1.0 14422:1.0 18495:1.0 22996:1.0 27477:1.0 27492:1.0 27843:1.0 32270:1.0 35571:1.0 37056:1.0 37815:1.0 41778:1.0 44835:1.0 46408:1.0 
-0.0 1.6405777213010157E-5 2260:1.0 2373:1.0 3851:1.0 3851:1.0 3868:1.0 3868:1.0 4913:1.0 4928:1.0 7388:1.0 7807:1.0 13217:1.0 14422:1.0 19654:1.0 23001:1.0 29018:1.0 32268:1.0 33847:1.0 37058:1.0 37803:1.0 41777:1.0 42013:1.0 46412:1.0 
-1.0130314845571096E-4 0.0 2260:1.0 2373:1.0 3851:1.0 3851:1.0 3851:1.0 3868:1.0 3868:1.0 3868:1.0 4913:1.0 4928:1.0 5333:1.0 7813:1.0 10874:1.0 14422:1.0 19607:1.0 23000:1.0 27477:1.0 27492:1.0 28185:1.0 32268:1.0 32929:1.0 37055:1.0 39383:1.0 41781:1.0 44188:1.0 46416:1.0 
-1.9918605760748303E-4 0.0 1138:1.0 2385:1.0 7671:1.0 7805:1.0 9550:1.0 9550:1.0 9550:1.0 9567:1.0 9567:1.0 9567:1.0 10724:1.0 10739:1.0 11268:1.0 14422:1.0 19607:1.0 23000:1.0 27477:1.0 27477:1.0 27492:1.0 27492:1.0 28185:1.0 32268:1.0 32929:1.0 37055:1.0 39383:1.0 41781:1.0 44188:1.0 46416:1.0 
-1.563727212325955E-5 1.743426675238949E-4 1586:1.0 2378:1.0 4913:1.0 4928:1.0 5641:1.0 7807:1.0 12312:1.0 14422:1.0 19136:1.0 23001:1.0 27477:1.0 27492:1.0 29469:1.0 32265:1.0 34880:1.0 37063:1.0 39900:1.0 41768:1.0 44665:1.0 46408:1.0 
-0.0026337118417223263 4.092750571549952E-4 507:1.0 2876:1.0 5795:1.0 5810:1.0 6155:1.0 9493:1.0 15146:1.0 18072:1.0 26632:1.0 27336:1.0 29826:1.0 32136:1.0 32352:1.0 36839:1.0 38396:1.0 41484:1.0 
-0.0011302542571793549 5.620885031091197E-5 507:1.0 2876:1.0 4621:1.0 4621:1.0 4638:1.0 4638:1.0 5795:1.0 5810:1.0 6155:1.0 9493:1.0 16128:1.0 18072:1.0 27201:1.0 27341:1.0 30389:1.0 32133:1.0 36169:1.0 36846:1.0 37310:1.0 41486:1.0 
-0.00104046905355355 3.05133670560831E-5 192:1.0 2384:1.0 4975:1.0 7807:1.0 12202:1.0 14422:1.0 22202:1.0 23001:1.0 27868:1.0 32269:1.0 32799:1.0 37052:1.0 38047:1.0 41775:1.0 43306:1.0 46409:1.0 
-7.217175160314378E-4 0.0 2118:1.0 2373:1.0 3851:1.0 3868:1.0 4913:1.0 4928:1.0 5932:1.0 7813:1.0 10874:1.0 14422:1.0 19833:1.0 23001:1.0 29790:1.0 32271:1.0 36567:1.0 37056:1.0 41628:1.0 41770:1.0 42326:1.0 46407:1.0 
-4.1940212890600834E-5 0.0 2023:1.0 2379:1.0 7504:1.0 7805:1.0 9550:1.0 9567:1.0 10724:1.0 10739:1.0 12016:1.0 14422:1.0 19833:1.0 23001:1.0 27477:1.0 27492:1.0 29790:1.0 32271:1.0 36567:1.0 37056:1.0 41628:1.0 41770:1.0 42326:1.0 46407:1.0 
-0.0022555305007010535 1.043097895752749E-4 1138:1.0 2385:1.0 4975:1.0 7807:1.0 11268:1.0 14422:1.0 22533:1.0 23001:1.0 29253:1.0 32270:1.0 34382:1.0 37062:1.0 40288:1.0 41779:1.0 43478:1.0 46403:1.0 
-1.9980807170955244E-4 0.0 2023:1.0 2375:1.0 7498:1.0 7816:1.0 14398:1.0 14422:1.0 18230:1.0 23001:1.0 32069:1.0 32268:1.0 33554:1.0 37052:1.0 39313:1.0 41772:1.0 42772:1.0 46405:1.0 
-0.004074076831007246 1.7580523457677108E-4 518:1.0 2881:1.0 4621:1.0 4638:1.0 5795:1.0 5810:1.0 7887:1.0 9493:1.0 15158:1.0 18072:1.0 25531:1.0 27329:1.0 30389:1.0 32133:1.0 33793:1.0 36850:1.0 41466:1.0 41474:1.0 
-0.002030782994340491 0.0013283152667322498 2310:1.0 2384:1.0 6312:1.0 7817:1.0 13454:1.0 14422:1.0 19938:1.0 23001:1.0 31561:1.0 32265:1.0 36551:1.0 37064:1.0 37209:1.0 41771:1.0 43845:1.0 46412:1.0 
-4.422978065186125E-4 1.1508117236874393E-4 2112:1.0 2384:1.0 4975:1.0 7807:1.0 14038:1.0 14422:1.0 19500:1.0 23001:1.0 31561:1.0 32265:1.0 33373:1.0 37063:1.0 40878:1.0 41768:1.0 43269:1.0 46407:1.0 
-3.1157446171851407E-4 0.0 2023:1.0 2379:1.0 6238:1.0 7805:1.0 9550:1.0 9550:1.0 9567:1.0 9567:1.0 10724:1.0 10739:1.0 14398:1.0 14422:1.0 22537:1.0 23000:1.0 27477:1.0 27492:1.0 29790:1.0 32271:1.0 33303:1.0 37054:1.0 38773:1.0 41773:1.0 45744:1.0 46410:1.0 
-0.0013982461270815138 1.0601338090098629E-4 749:1.0 2382:1.0 5771:1.0 7815:1.0 11282:1.0 14422:1.0 21868:1.0 23008:1.0 27477:1.0 27477:1.0 27477:1.0 27477:1.0 27492:1.0 27492:1.0 27492:1.0 27492:1.0 29542:1.0 32268:1.0 32533:1.0 37061:1.0 40092:1.0 41772:1.0 42772:1.0 46405:1.0 
-6.880143399350742E-4 2.2453258431305288E-4 1806:1.0 2384:1.0 4913:1.0 4913:1.0 4913:1.0 4913:1.0 4913:1.0 4913:1.0 4913:1.0 4928:1.0 4928:1.0 4928:1.0 4928:1.0 4928:1.0 4928:1.0 4928:1.0 6163:1.0 7814:1.0 10874:1.0 14422:1.0 21238:1.0 23000:1.0 28451:1.0 32260:1.0 33048:1.0 37056:1.0 39383:1.0 41781:1.0 42611:1.0 46416:1.0 
-9.331665499636671E-4 1.163570175316202E-4 1050:1.0 2373:1.0 3851:1.0 3868:1.0 5193:1.0 7813:1.0 12568:1.0 14422:1.0 20904:1.0 23001:1.0 32111:1.0 32260:1.0 35294:1.0 37057:1.0 40063:1.0 41778:1.0 42839:1.0 46414:1.0 
-5.011806694960719E-4 0.0 1624:1.0 2373:1.0 3851:1.0 3851:1.0 3851:1.0 3868:1.0 3868:1.0 3868:1.0 4913:1.0 4913:1.0 4928:1.0 4928:1.0 5946:1.0 7805:1.0 10724:1.0 10739:1.0 11268:1.0 14422:1.0 21999:1.0 23001:1.0 27567:1.0 32261:1.0 35318:1.0 37062:1.0 38536:1.0 41779:1.0 43087:1.0 46403:1.0 
-5.851364717555139E-4 3.51049159866606E-5 1200:1.0 2385:1.0 7388:1.0 7807:1.0 12387:1.0 14422:1.0 21068:1.0 23001:1.0 27528:1.0 32270:1.0 34382:1.0 37062:1.0 40288:1.0 41771:1.0 44080:1.0 46411:1.0 
-0.0012669073229965538 5.568465441869088E-4 749:1.0 2382:1.0 5771:1.0 7815:1.0 13142:1.0 14422:1.0 20153:1.0 23001:1.0 30494:1.0 32268:1.0 33796:1.0 37060:1.0 39508:1.0 41781:1.0 44956:1.0 46414:1.0 
-0.0012631237047977674 5.604190762068707E-4 749:1.0 2382:1.0 5771:1.0 7815:1.0 13142:1.0 14422:1.0 22883:1.0 23001:1.0 30494:1.0 32268:1.0 32387:1.0 37060:1.0 39508:1.0 41781:1.0 44956:1.0 46414:1.0 
-7.843534858131784E-5 0.0 483:1.0 2377:1.0 3851:1.0 3851:1.0 3851:1.0 3868:1.0 3868:1.0 3868:1.0 4913:1.0 4913:1.0 4928:1.0 4928:1.0 5924:1.0 7805:1.0 9550:1.0 9567:1.0 10724:1.0 10739:1.0 13329:1.0 14422:1.0 18418:1.0 23004:1.0 27477:1.0 27477:1.0 27492:1.0 27492:1.0 32069:1.0 32268:1.0 32573:1.0 37060:1.0 37915:1.0 41781:1.0 
-0.0037100949706351453 8.099235201739132E-4 1165:1.0 2384:1.0 5059:1.0 7809:1.0 13142:1.0 14422:1.0 22531:1.0 23005:1.0 27810:1.0 32263:1.0 33866:1.0 37062:1.0 41746:1.0 41776:1.0 43826:1.0 46413:1.0 
-0.0011486555848785403 5.997610226924456E-4 1165:1.0 2384:1.0 5059:1.0 7809:1.0 14060:1.0 14422:1.0 18142:1.0 18157:1.0 18480:1.0 23001:1.0 29018:1.0 32268:1.0 37028:1.0 37060:1.0 39143:1.0 41778:1.0 42839:1.0 46414:1.0 
-9.947319686099874E-4 0.0 1849:1.0 2376:1.0 5341:1.0 7814:1.0 13119:1.0 14422:1.0 22806:1.0 23001:1.0 27477:1.0 27492:1.0 30724:1.0 32269:1.0 32780:1.0 37052:1.0 39508:1.0 41781:1.0 42143:1.0 46415:1.0 
-9.747103561090791E-4 4.055835211536662E-4 1192:1.0 2377:1.0 3851:1.0 3851:1.0 3868:1.0 3868:1.0 4913:1.0 4928:1.0 6497:1.0 7805:1.0 10724:1.0 10739:1.0 13534:1.0 14422:1.0 18232:1.0 23000:1.0 28287:1.0 32271:1.0 
-0.0015270549655753756 2.562100877989478E-4 1613:1.0 2876:1.0 5795:1.0 5810:1.0 9469:1.0 9493:1.0 17981:1.0 18072:1.0 26137:1.0 27336:1.0 30618:1.0 32134:1.0 34454:1.0 36852:1.0 38981:1.0 41474:1.0 
-0.0016144062840731123 8.270065285577262E-4 1198:1.0 2377:1.0 4913:1.0 4928:1.0 6790:1.0 7809:1.0 9550:1.0 9550:1.0 9567:1.0 9567:1.0 10724:1.0 10724:1.0 10739:1.0 10739:1.0 12949:1.0 14422:1.0 21180:1.0 23001:1.0 27802:1.0 32270:1.0 33272:1.0 37059:1.0 41275:1.0 41780:1.0 42388:1.0 46408:1.0 
