svm_type c_svc
kernel_type polynomial
degree 2
gamma 1.0
coef0 1.0
nr_class 3
total_sv 19
rho -0.46648124580000583 -0.6468881838132714 -0.3354078791378185
label 0 1 2
nr_sv 7 8 4
SV
0.00329759909160353 0.0021659908717444726 1676:1.0 3687:1.0 8296:1.0 12256:1.0 19181:1.0 21531:1.0 21901:1.0 26324:1.0 26469:1.0 31031:1.0 33189:1.0 35672:1.0 
0.002845319708187048 0.001844431916719403 1676:1.0 3687:1.0 6177:1.0 6194:1.0 9886:1.0 12269:1.0 17041:1.0 21530:1.0 21691:1.0 26315:1.0 28507:1.0 31037:1.0 33141:1.0 35668:1.0 
0.0022645892670809234 0.001392135663730205 1532:1.0 2377:1.0 3851:1.0 3851:1.0 3868:1.0 3868:1.0 4913:1.0 4928:1.0 6388:1.0 7817:1.0 14014:1.0 14427:1.0 19536:1.0 23008:1.0 27796:1.0 32268:1.0 34770:1.0 37058:1.0 38078:1.0 41770:1.0 44322:1.0 46414:1.0 
0.001263561634298005 8.372134849542144E-4 318:1.0 2880:1.0 5795:1.0 5810:1.0 9085:1.0 9498:1.0 13213:1.0 13228:1.0 14107:1.0 18067:1.0 24992:1.0 27342:1.0 31440:1.0 32130:1.0 34716:1.0 36850:1.0 36950:1.0 41482:1.0 
9.836016646626853E-4 6.50505617308214E-4 318:1.0 2880:1.0 5795:1.0 5810:1.0 9085:1.0 9498:1.0 11988:1.0 12005:1.0 13213:1.0 13228:1.0 15697:1.0 18080:1.0 26632:1.0 27336:1.0 29965:1.0 32134:1.0 32246:1.0 36847:1.0 39664:1.0 41474:1.0 
0.0016355361179609237 0.001258559424322124 522:1.0 2373:1.0 3851:1.0 3868:1.0 4913:1.0 4928:1.0 5672:1.0 7809:1.0 9550:1.0 9567:1.0 10724:1.0 10724:1.0 10739:1.0 10739:1.0 14014:1.0 14427:1.0 19536:1.0 23008:1.0 30063:1.0 32269:1.0 36662:1.0 37052:1.0 37833:1.0 41772:1.0 44188:1.0 46416:1.0 
0.0022111840257108667 0.0015994184029644088 1200:1.0 2385:1.0 7388:1.0 7807:1.0 10724:1.0 10724:1.0 10739:1.0 10739:1.0 14014:1.0 14427:1.0 19036:1.0 22996:1.0 27567:1.0 32261:1.0 36107:1.0 37057:1.0 38254:1.0 41773:1.0 43224:1.0 46414:1.0 
-0.00542044117380898 0.00277156629718969 1676:1.0 3687:1.0 6177:1.0 6177:1.0 6194:1.0 6194:1.0 7711:1.0 12268:1.0 16827:1.0 21521:1.0 23749:1.0 26321:1.0 28458:1.0 31033:1.0 32585:1.0 35673:1.0 
-0.001721744549559931 0.0010853763840628589 1532:1.0 2377:1.0 3851:1.0 3851:1.0 3868:1.0 3868:1.0 4913:1.0 4928:1.0 6388:1.0 7817:1.0 14014:1.0 14427:1.0 16917:1.0 16934:1.0 18466:1.0 23006:1.0 29937:1.0 32264:1.0 33303:1.0 37054:1.0 39645:1.0 41779:1.0 42664:1.0 46403:1.0 
-0.0012253108401932052 0.0016708652355732585 1532:1.0 2377:1.0 3851:1.0 3851:1.0 3868:1.0 3868:1.0 4913:1.0 4928:1.0 6388:1.0 7817:1.0 14014:1.0 14427:1.0 16917:1.0 16934:1.0 20642:1.0 23002:1.0 27477:1.0 27492:1.0 28451:1.0 32260:1.0 34894:1.0 37063:1.0 37969:1.0 41768:1.0 44188:1.0 46416:1.0 
-5.754247274360712E-4 4.5999326386366964E-4 1532:1.0 2377:1.0 3851:1.0 3851:1.0 3868:1.0 3868:1.0 4913:1.0 4928:1.0 6388:1.0 7817:1.0 14014:1.0 14427:1.0 16917:1.0 16934:1.0 20642:1.0 23002:1.0 26436:1.0 26452:1.0 27477:1.0 27492:1.0 30063:1.0 32269:1.0 33194:1.0 37052:1.0 39508:1.0 41781:1.0 43359:1.0 46405:1.0 
-3.6185876125804445E-4 5.814654631335485E-4 1532:1.0 2377:1.0 3851:1.0 3851:1.0 3868:1.0 3868:1.0 4913:1.0 4928:1.0 6388:1.0 7817:1.0 14014:1.0 14427:1.0 16917:1.0 16934:1.0 20642:1.0 23002:1.0 26436:1.0 26436:1.0 26452:1.0 26452:1.0 27477:1.0 27492:1.0 29921:1.0 32271:1.0 33902:1.0 37054:1.0 39955:1.0 41768:1.0 42570:1.0 46413:1.0 
-3.74450810234962E-4 3.114862362038696E-4 1532:1.0 2377:1.0 3851:1.0 3851:1.0 3868:1.0 3868:1.0 4913:1.0 4928:1.0 6388:1.0 7817:1.0 14014:1.0 14427:1.0 16917:1.0 16934:1.0 20642:1.0 23002:1.0 26436:1.0 26436:1.0 26436:1.0 26452:1.0 26452:1.0 26452:1.0 27477:1.0 27492:1.0 29054:1.0 32260:1.0 35210:1.0 37052:1.0 37873:1.0 41778:1.0 41929:1.0 46409:1.0 
-0.001809452635268344 0.0015967095527034745 522:1.0 2373:1.0 3851:1.0 3868:1.0 4913:1.0 4928:1.0 5672:1.0 7809:1.0 9550:1.0 9567:1.0 10724:1.0 10724:1.0 10739:1.0 10739:1.0 14014:1.0 14427:1.0 16917:1.0 16934:1.0 20771:1.0 23007:1.0 31857:1.0 32258:1.0 33058:1.0 37056:1.0 39508:1.0 41781:1.0 43359:1.0 46405:1.0 
-0.0030127080117444446 0.0022590580516962913 1200:1.0 2385:1.0 7388:1.0 7807:1.0 10724:1.0 10724:1.0 10739:1.0 10739:1.0 14014:1.0 14427:1.0 16917:1.0 16934:1.0 18233:1.0 22999:1.0 31296:1.0 32263:1.0 33481:1.0 37057:1.0 38536:1.0 41779:1.0 43094:1.0 46403:1.0 
-0.003236379652091424 -0.002781336196915376 1676:1.0 3687:1.0 6177:1.0 6177:1.0 6194:1.0 6194:1.0 9556:1.0 12261:1.0 16737:1.0 16737:1.0 16737:1.0 16752:1.0 16752:1.0 16752:1.0 18278:1.0 21528:1.0 22195:1.0 26317:1.0 28848:1.0 31039:1.0 35553:1.0 35663:1.0 
-0.0022633217274461506 -0.0032392431410048967 1532:1.0 2377:1.0 3851:1.0 3851:1.0 3868:1.0 3868:1.0 4913:1.0 4928:1.0 6388:1.0 7817:1.0 14014:1.0 14427:1.0 16917:1.0 16934:1.0 19745:1.0 22998:1.0 27477:1.0 27492:1.0 30385:1.0 32258:1.0 33098:1.0 37062:1.0 37226:1.0 41774:1.0 42611:1.0 46416:1.0 
-0.0016854336203820338 -0.0018880172515868758 522:1.0 2373:1.0 3851:1.0 3868:1.0 4913:1.0 4928:1.0 5672:1.0 7809:1.0 9550:1.0 9567:1.0 10724:1.0 10724:1.0 10739:1.0 10739:1.0 14014:1.0 14427:1.0 16917:1.0 16934:1.0 22586:1.0 22996:1.0 27477:1.0 27492:1.0 28204:1.0 32262:1.0 34755:1.0 37065:1.0 38672:1.0 41770:1.0 44985:1.0 46415:1.0 
-0.0025631203818234326 -0.002827923894919512 1200:1.0 2385:1.0 7388:1.0 7807:1.0 10724:1.0 10724:1.0 10739:1.0 10739:1.0 14014:1.0 14427:1.0 16917:1.0 16934:1.0 22018:1.0 23001:1.0 27477:1.0 27492:1.0 28630:1.0 32263:1.0 33765:1.0 37063:1.0 38404:1.0 41768:1.0 46229:1.0 46413:1.0 
