svm_type c_svc
kernel_type polynomial
degree 2
gamma 1.0
coef0 1.0
nr_class 3
total_sv 137
rho -0.5349789686052322 -0.8784257946792015 -0.6661101916825186
label 2 1 0
nr_sv 101 26 10
SV
0.0 8.34061567268435E-5 68:1.0 312:1.0 499:1.0 499:1.0 499:1.0 512:1.0 512:1.0 512:1.0 685:1.0 685:1.0 685:1.0 685:1.0 699:1.0 699:1.0 699:1.0 699:1.0 908:1.0 1092:1.0 1783:1.0 2091:1.0 3194:1.0 3365:1.0 3995:1.0 3995:1.0 4009:1.0 4009:1.0 4071:1.0 4714:1.0 5209:1.0 5436:1.0 5445:1.0 5445:1.0 5449:1.0 5449:1.0 5456:1.0 5456:1.0 5461:1.0 5461:1.0 5658:1.0 6138:1.0 6154:1.0 6158:1.0 6509:1.0 6827:1.0 
1.289795983542812E-4 0.0 81:1.0 312:1.0 499:1.0 499:1.0 512:1.0 512:1.0 685:1.0 685:1.0 685:1.0 685:1.0 699:1.0 699:1.0 699:1.0 699:1.0 762:1.0 1101:1.0 1323:1.0 1336:1.0 1527:1.0 1527:1.0 1541:1.0 1541:1.0 2058:1.0 2091:1.0 2999:1.0 3363:1.0 3995:1.0 4009:1.0 4025:1.0 4717:1.0 4727:1.0 4727:1.0 4731:1.0 4731:1.0 5107:1.0 5428:1.0 6090:1.0 6137:1.0 6527:1.0 6836:1.0 6845:1.0 6845:1.0 6849:1.0 6849:1.0 6855:1.0 6860:1.0 
1.3549858429071375E-4 1.765506670978119E-5 145:1.0 312:1.0 499:1.0 499:1.0 499:1.0 499:1.0 499:1.0 499:1.0 512:1.0 512:1.0 512:1.0 512:1.0 512:1.0 512:1.0 685:1.0 685:1.0 685:1.0 685:1.0 699:1.0 699:1.0 699:1.0 699:1.0 885:1.0 1101:1.0 1323:1.0 1336:1.0 1527:1.0 1527:1.0 1527:1.0 1527:1.0 1527:1.0 1527:1.0 1541:1.0 1541:1.0 1541:1.0 1541:1.0 1541:1.0 1541:1.0 2058:1.0 2091:1.0 3338:1.0 3365:1.0 3995:1.0 4009:1.0 4114:1.0 4720:1.0 4841:1.0 5430:1.0 5445:1.0 5449:1.0 5915:1.0 6139:1.0 6636:1.0 6836:1.0 6845:1.0 6845:1.0 6849:1.0 6849:1.0 6855:1.0 6855:1.0 6860:1.0 6860:1.0 
7.565382690979327E-5 0.0 15:1.0 319:1.0 906:1.0 1092:1.0 1953:1.0 2091:1.0 3352:1.0 3371:1.0 3814:1.0 3814:1.0 3828:1.0 3828:1.0 3995:1.0 3995:1.0 4009:1.0 4009:1.0 4043:1.0 4717:1.0 4891:1.0 5436:1.0 5445:1.0 5449:1.0 5833:1.0 6142:1.0 6462:1.0 6828:1.0 6855:1.0 6860:1.0 
3.89506407576065E-5 2.3607233892147477E-5 307:1.0 320:1.0 499:1.0 499:1.0 499:1.0 512:1.0 512:1.0 512:1.0 685:1.0 685:1.0 685:1.0 685:1.0 699:1.0 699:1.0 699:1.0 699:1.0 784:1.0 1101:1.0 1323:1.0 1336:1.0 1839:1.0 2091:1.0 2968:1.0 3363:1.0 3995:1.0 4009:1.0 4411:1.0 4713:1.0 5301:1.0 5429:1.0 5445:1.0 5449:1.0 5456:1.0 5456:1.0 5456:1.0 5461:1.0 5461:1.0 5461:1.0 5802:1.0 6140:1.0 6579:1.0 6829:1.0 6845:1.0 6849:1.0 6855:1.0 6860:1.0 
0.0 3.643402152562528E-5 148:1.0 320:1.0 499:1.0 499:1.0 499:1.0 499:1.0 499:1.0 512:1.0 512:1.0 512:1.0 512:1.0 512:1.0 685:1.0 685:1.0 699:1.0 699:1.0 826:1.0 1101:1.0 1323:1.0 1323:1.0 1336:1.0 1336:1.0 1527:1.0 1527:1.0 1527:1.0 1527:1.0 1527:1.0 1527:1.0 1541:1.0 1541:1.0 1541:1.0 1541:1.0 1541:1.0 1541:1.0 1953:1.0 2091:1.0 2809:1.0 3363:1.0 3995:1.0 4009:1.0 4282:1.0 4714:1.0 5082:1.0 5426:1.0 5648:1.0 6141:1.0 6597:1.0 6831:1.0 6855:1.0 6855:1.0 6855:1.0 6860:1.0 6860:1.0 6860:1.0 
4.98559987691486E-4 1.0689300333496393E-4 363:1.0 549:1.0 1714:1.0 1821:1.0 2272:1.0 2286:1.0 2453:1.0 2467:1.0 2651:1.0 3167:1.0 3222:1.0 3886:1.0 3903:1.0 3907:1.0 3914:1.0 3919:1.0 4402:1.0 4596:1.0 5005:1.0 5289:1.0 
5.0452050980917754E-5 0.0 120:1.0 312:1.0 499:1.0 499:1.0 512:1.0 512:1.0 685:1.0 685:1.0 685:1.0 685:1.0 685:1.0 685:1.0 699:1.0 699:1.0 699:1.0 699:1.0 699:1.0 699:1.0 968:1.0 1093:1.0 1323:1.0 1323:1.0 1323:1.0 1336:1.0 1336:1.0 1336:1.0 1527:1.0 1527:1.0 1527:1.0 1527:1.0 1541:1.0 1541:1.0 1541:1.0 1541:1.0 2058:1.0 2091:1.0 2883:1.0 3363:1.0 3814:1.0 3828:1.0 3995:1.0 4009:1.0 4567:1.0 4711:1.0 4847:1.0 5438:1.0 6117:1.0 6145:1.0 6154:1.0 6154:1.0 6154:1.0 6158:1.0 6158:1.0 6158:1.0 6165:1.0 6170:1.0 6515:1.0 6826:1.0 
0.0 4.0499313466294344E-5 303:1.0 320:1.0 499:1.0 499:1.0 499:1.0 499:1.0 512:1.0 512:1.0 512:1.0 512:1.0 685:1.0 685:1.0 699:1.0 699:1.0 707:1.0 1093:1.0 1323:1.0 1323:1.0 1323:1.0 1323:1.0 1323:1.0 1323:1.0 1323:1.0 1323:1.0 1336:1.0 1336:1.0 1336:1.0 1336:1.0 1336:1.0 1336:1.0 1336:1.0 1336:1.0 1953:1.0 2091:1.0 2790:1.0 3363:1.0 3814:1.0 3814:1.0 3828:1.0 3828:1.0 3995:1.0 4009:1.0 4372:1.0 4709:1.0 4764:1.0 5428:1.0 5456:1.0 5461:1.0 5810:1.0 6136:1.0 6796:1.0 6833:1.0 
4.357527918317394E-4 1.2242972392089132E-4 214:1.0 392:1.0 1358:1.0 1391:1.0 2130:1.0 2663:1.0 3295:1.0 3295:1.0 3309:1.0 3309:1.0 3672:1.0 4009:1.0 4557:1.0 4733:1.0 4842:1.0 5437:1.0 5465:1.0 5465:1.0 5470:1.0 5470:1.0 5829:1.0 6138:1.0 
2.376248954547701E-4 0.0 4:1.0 314:1.0 685:1.0 685:1.0 699:1.0 699:1.0 908:1.0 1092:1.0 2058:1.0 2091:1.0 2669:1.0 3365:1.0 3995:1.0 3995:1.0 4009:1.0 4009:1.0 4309:1.0 4720:1.0 5200:1.0 5433:1.0 5479:1.0 6139:1.0 6154:1.0 6154:1.0 6158:1.0 6158:1.0 6165:1.0 6170:1.0 6640:1.0 6830:1.0 
3.267956601284603E-4 0.0 9:1.0 314:1.0 685:1.0 685:1.0 685:1.0 685:1.0 699:1.0 699:1.0 699:1.0 699:1.0 867:1.0 1103:1.0 1905:1.0 2091:1.0 2669:1.0 3365:1.0 3814:1.0 3814:1.0 3828:1.0 3828:1.0 3995:1.0 4009:1.0 4510:1.0 4712:1.0 4923:1.0 5427:1.0 6062:1.0 6139:1.0 6165:1.0 6170:1.0 6529:1.0 6838:1.0 
5.9209884399925935E-5 0.0 118:1.0 313:1.0 499:1.0 512:1.0 685:1.0 685:1.0 699:1.0 699:1.0 772:1.0 1092:1.0 2058:1.0 2091:1.0 2898:1.0 3365:1.0 3814:1.0 3828:1.0 3995:1.0 3995:1.0 4009:1.0 4009:1.0 4372:1.0 4709:1.0 5078:1.0 5430:1.0 5456:1.0 5461:1.0 5562:1.0 6147:1.0 6663:1.0 6833:1.0 
0.0 5.692815957923537E-5 283:1.0 312:1.0 499:1.0 499:1.0 499:1.0 499:1.0 512:1.0 512:1.0 512:1.0 512:1.0 685:1.0 685:1.0 699:1.0 699:1.0 908:1.0 1092:1.0 2058:1.0 2091:1.0 2868:1.0 3365:1.0 3814:1.0 3814:1.0 3814:1.0 3828:1.0 3828:1.0 3828:1.0 3995:1.0 3995:1.0 4009:1.0 4009:1.0 4528:1.0 4712:1.0 5096:1.0 5427:1.0 5655:1.0 6139:1.0 6165:1.0 6170:1.0 6478:1.0 6838:1.0 
1.9680099423443595E-4 0.0 268:1.0 315:1.0 722:1.0 1100:1.0 2058:1.0 2091:1.0 3256:1.0 3363:1.0 3814:1.0 3814:1.0 3814:1.0 3828:1.0 3828:1.0 3828:1.0 3995:1.0 4009:1.0 4514:1.0 4711:1.0 4923:1.0 5427:1.0 5479:1.0 6137:1.0 6165:1.0 6170:1.0 6342:1.0 6827:1.0 
2.3231553912077482E-5 0.0 79:1.0 311:1.0 918:1.0 1103:1.0 1953:1.0 2091:1.0 2934:1.0 3363:1.0 3814:1.0 3814:1.0 3814:1.0 3828:1.0 3828:1.0 3828:1.0 3995:1.0 3995:1.0 3995:1.0 3995:1.0 3995:1.0 3995:1.0 3995:1.0 3995:1.0 4009:1.0 4009:1.0 4009:1.0 4009:1.0 4009:1.0 4009:1.0 4009:1.0 4009:1.0 4393:1.0 4720:1.0 5085:1.0 5437:1.0 5520:1.0 6141:1.0 6768:1.0 6831:1.0 
0.0 1.0241704790781975E-4 120:1.0 312:1.0 499:1.0 499:1.0 499:1.0 499:1.0 499:1.0 512:1.0 512:1.0 512:1.0 512:1.0 512:1.0 685:1.0 685:1.0 685:1.0 685:1.0 685:1.0 685:1.0 685:1.0 685:1.0 685:1.0 685:1.0 685:1.0 685:1.0 685:1.0 685:1.0 699:1.0 699:1.0 699:1.0 699:1.0 699:1.0 699:1.0 699:1.0 699:1.0 699:1.0 699:1.0 699:1.0 699:1.0 699:1.0 699:1.0 1034:1.0 1101:1.0 1323:1.0 1336:1.0 1527:1.0 1527:1.0 1527:1.0 1527:1.0 1541:1.0 1541:1.0 1541:1.0 1541:1.0 1702:1.0 2091:1.0 2848:1.0 3363:1.0 3814:1.0 3828:1.0 3995:1.0 4009:1.0 4608:1.0 4711:1.0 4727:1.0 4731:1.0 5388:1.0 5427:1.0 6105:1.0 6142:1.0 6596:1.0 6828:1.0 6845:1.0 6849:1.0 6855:1.0 6855:1.0 6860:1.0 6860:1.0 
4.054527923820495E-4 1.5138369109609222E-4 348:1.0 392:1.0 1041:1.0 1391:1.0 2647:1.0 2663:1.0 3295:1.0 3295:1.0 3309:1.0 3309:1.0 3371:1.0 4014:1.0 4544:1.0 4736:1.0 4745:1.0 4745:1.0 4749:1.0 4749:1.0 4756:1.0 4756:1.0 4761:1.0 4761:1.0 5108:1.0 5436:1.0 6096:1.0 6133:1.0 
1.362211337561563E-4 8.011694925411855E-5 270:1.0 549:1.0 1638:1.0 1821:1.0 2272:1.0 2286:1.0 2453:1.0 2467:1.0 2830:1.0 3167:1.0 3420:1.0 3891:1.0 3927:1.0 4595:1.0 4612:1.0 4616:1.0 4623:1.0 4623:1.0 4628:1.0 4628:1.0 4798:1.0 5287:1.0 
2.594870860937633E-4 0.0 15:1.0 319:1.0 918:1.0 1103:1.0 1953:1.0 2091:1.0 3003:1.0 3363:1.0 3814:1.0 3828:1.0 3995:1.0 4009:1.0 4305:1.0 4710:1.0 5040:1.0 5431:1.0 5968:1.0 6142:1.0 6494:1.0 6828:1.0 6845:1.0 6845:1.0 6849:1.0 6849:1.0 6855:1.0 6855:1.0 6855:1.0 6855:1.0 6855:1.0 6860:1.0 6860:1.0 6860:1.0 6860:1.0 6860:1.0 
9.966364667891087E-5 0.0 194:1.0 313:1.0 499:1.0 499:1.0 512:1.0 512:1.0 772:1.0 1092:1.0 1953:1.0 2091:1.0 3011:1.0 3365:1.0 3995:1.0 3995:1.0 4009:1.0 4009:1.0 4193:1.0 4709:1.0 5295:1.0 5433:1.0 5504:1.0 6137:1.0 6165:1.0 6165:1.0 6170:1.0 6170:1.0 6448:1.0 6838:1.0 
1.3155583733791583E-4 0.0 194:1.0 313:1.0 499:1.0 499:1.0 499:1.0 512:1.0 512:1.0 512:1.0 805:1.0 1092:1.0 1986:1.0 2091:1.0 2696:1.0 3363:1.0 3995:1.0 3995:1.0 4009:1.0 4009:1.0 4309:1.0 4720:1.0 
1.713064365167198E-4 0.0 270:1.0 549:1.0 1369:1.0 1821:1.0 2272:1.0 2272:1.0 2272:1.0 2286:1.0 2286:1.0 2286:1.0 2453:1.0 2467:1.0 2604:1.0 3169:1.0 3381:1.0 3885:1.0 4348:1.0 4597:1.0 4623:1.0 4628:1.0 4725:1.0 5296:1.0 
5.8498135734962734E-5 0.0 270:1.0 549:1.0 1192:1.0 1821:1.0 2272:1.0 2286:1.0 2453:1.0 2467:1.0 2665:1.0 3169:1.0 3185:1.0 3189:1.0 3560:1.0 3884:1.0 4015:1.0 4603:1.0 4612:1.0 4612:1.0 4612:1.0 4616:1.0 4616:1.0 4616:1.0 4623:1.0 4628:1.0 4967:1.0 5285:1.0 
1.6206172258004253E-4 0.0 49:1.0 322:1.0 805:1.0 1092:1.0 1953:1.0 2091:1.0 2684:1.0 3367:1.0 3995:1.0 3995:1.0 4009:1.0 4009:1.0 4071:1.0 4714:1.0 5213:1.0 5436:1.0 5445:1.0 5445:1.0 5445:1.0 5449:1.0 5449:1.0 5449:1.0 5456:1.0 5456:1.0 5456:1.0 5461:1.0 5461:1.0 5461:1.0 6105:1.0 6142:1.0 6177:1.0 6828:1.0 6845:1.0 6849:1.0 6855:1.0 6860:1.0 
9.142383018746055E-5 0.0 98:1.0 320:1.0 499:1.0 512:1.0 820:1.0 1101:1.0 1323:1.0 1323:1.0 1336:1.0 1336:1.0 2058:1.0 2091:1.0 3139:1.0 3363:1.0 3995:1.0 4009:1.0 4668:1.0 4709:1.0 5271:1.0 5436:1.0 5445:1.0 5449:1.0 5456:1.0 5461:1.0 6105:1.0 6142:1.0 6281:1.0 6828:1.0 6845:1.0 6845:1.0 6849:1.0 6849:1.0 6855:1.0 6860:1.0 
3.951726514178563E-5 0.0 91:1.0 320:1.0 499:1.0 499:1.0 499:1.0 512:1.0 512:1.0 512:1.0 1005:1.0 1101:1.0 1323:1.0 1336:1.0 1527:1.0 1527:1.0 1541:1.0 1541:1.0 2058:1.0 2091:1.0 2769:1.0 3363:1.0 3814:1.0 3814:1.0 3828:1.0 3828:1.0 3995:1.0 4009:1.0 4628:1.0 4711:1.0 5096:1.0 5427:1.0 5485:1.0 6137:1.0 6154:1.0 6158:1.0 6165:1.0 6170:1.0 6678:1.0 6829:1.0 
2.9615872894277613E-4 0.0 248:1.0 401:1.0 623:1.0 623:1.0 623:1.0 623:1.0 636:1.0 636:1.0 636:1.0 636:1.0 827:1.0 827:1.0 841:1.0 841:1.0 1358:1.0 1391:1.0 2427:1.0 2663:1.0 3114:1.0 3114:1.0 3128:1.0 3128:1.0 3295:1.0 3309:1.0 3547:1.0 4011:1.0 4396:1.0 4727:1.0 5405:1.0 5442:1.0 5488:1.0 6128:1.0 6145:1.0 6149:1.0 6155:1.0 6155:1.0 6160:1.0 6160:1.0 
9.973200260698937E-5 0.0 122:1.0 320:1.0 499:1.0 499:1.0 499:1.0 512:1.0 512:1.0 512:1.0 722:1.0 1100:1.0 1783:1.0 2091:1.0 3277:1.0 3363:1.0 3995:1.0 4009:1.0 4071:1.0 4714:1.0 4869:1.0 5436:1.0 5445:1.0 5445:1.0 5449:1.0 5449:1.0 5456:1.0 5456:1.0 5456:1.0 5461:1.0 5461:1.0 5461:1.0 5518:1.0 6135:1.0 6154:1.0 6154:1.0 6158:1.0 6158:1.0 6342:1.0 6827:1.0 
7.259057457047705E-5 0.0 56:1.0 320:1.0 499:1.0 499:1.0 512:1.0 512:1.0 685:1.0 685:1.0 685:1.0 685:1.0 685:1.0 685:1.0 699:1.0 699:1.0 699:1.0 699:1.0 699:1.0 699:1.0 737:1.0 1091:1.0 1323:1.0 1323:1.0 1323:1.0 1336:1.0 1336:1.0 1336:1.0 2058:1.0 2091:1.0 2970:1.0 3372:1.0 3814:1.0 3828:1.0 3995:1.0 4009:1.0 4382:1.0 4712:1.0 4727:1.0 4731:1.0 4831:1.0 5430:1.0 6104:1.0 6136:1.0 6812:1.0 6828:1.0 6845:1.0 6849:1.0 6855:1.0 6860:1.0 
2.1183788955535975E-4 8.787363632985542E-5 393:1.0 549:1.0 1273:1.0 1821:1.0 2272:1.0 2286:1.0 2453:1.0 2467:1.0 2572:1.0 3178:1.0 3235:1.0 3890:1.0 4229:1.0 4598:1.0 4986:1.0 5294:1.0 5303:1.0 5303:1.0 5303:1.0 5307:1.0 5307:1.0 5307:1.0 5313:1.0 5313:1.0 5313:1.0 5318:1.0 5318:1.0 5318:1.0 
8.962613326867424E-5 0.0 72:1.0 312:1.0 499:1.0 512:1.0 685:1.0 685:1.0 699:1.0 699:1.0 915:1.0 1101:1.0 1323:1.0 1323:1.0 1323:1.0 1323:1.0 1336:1.0 1336:1.0 1336:1.0 1336:1.0 1527:1.0 1527:1.0 1527:1.0 1527:1.0 1527:1.0 1527:1.0 1541:1.0 1541:1.0 1541:1.0 1541:1.0 1541:1.0 1541:1.0 2058:1.0 2091:1.0 2898:1.0 3365:1.0 3814:1.0 3828:1.0 3995:1.0 4009:1.0 4372:1.0 4709:1.0 5078:1.0 5430:1.0 5456:1.0 5461:1.0 5562:1.0 6147:1.0 6349:1.0 6836:1.0 6845:1.0 6845:1.0 6845:1.0 6849:1.0 6849:1.0 6849:1.0 6855:1.0 6860:1.0 
1.8576619535187595E-4 0.0 79:1.0 311:1.0 722:1.0 1100:1.0 1708:1.0 2091:1.0 2795:1.0 3363:1.0 3814:1.0 3814:1.0 3828:1.0 3828:1.0 3995:1.0 4009:1.0 4051:1.0 4711:1.0 5096:1.0 5427:1.0 5770:1.0 6142:1.0 6275:1.0 6828:1.0 6845:1.0 6849:1.0 6855:1.0 6855:1.0 6860:1.0 6860:1.0 
6.842468711493784E-4 0.0 15:1.0 319:1.0 918:1.0 1103:1.0 1953:1.0 2091:1.0 3343:1.0 3363:1.0 3814:1.0 3828:1.0 3995:1.0 4009:1.0 4027:1.0 4711:1.0 4825:1.0 5431:1.0 5808:1.0 6136:1.0 6781:1.0 6831:1.0 
8.669148833839686E-5 0.0 135:1.0 392:1.0 1253:1.0 1391:1.0 2090:1.0 2663:1.0 3114:1.0 3114:1.0 3114:1.0 3128:1.0 3128:1.0 3128:1.0 3295:1.0 3295:1.0 3309:1.0 3309:1.0 3537:1.0 4011:1.0 4396:1.0 4727:1.0 5089:1.0 5439:1.0 5454:1.0 5458:1.0 5465:1.0 5470:1.0 5809:1.0 6127:1.0 
6.567258801431252E-5 0.0 150:1.0 314:1.0 499:1.0 512:1.0 685:1.0 685:1.0 699:1.0 699:1.0 908:1.0 1092:1.0 2058:1.0 2091:1.0 3159:1.0 3365:1.0 3995:1.0 3995:1.0 4009:1.0 4009:1.0 4114:1.0 4720:1.0 5052:1.0 5430:1.0 5445:1.0 5445:1.0 5445:1.0 5449:1.0 5449:1.0 5449:1.0 5456:1.0 5461:1.0 5993:1.0 6139:1.0 6299:1.0 6830:1.0 
9.432812300686212E-5 0.0 94:1.0 320:1.0 499:1.0 499:1.0 512:1.0 512:1.0 1069:1.0 1092:1.0 1701:1.0 2091:1.0 2840:1.0 3363:1.0 3995:1.0 3995:1.0 4009:1.0 4009:1.0 4677:1.0 4715:1.0 4893:1.0 5428:1.0 5445:1.0 5449:1.0 5456:1.0 5461:1.0 6108:1.0 6136:1.0 6379:1.0 6833:1.0 
1.1125885779378187E-4 1.0106402799841742E-4 64:1.0 312:1.0 499:1.0 512:1.0 685:1.0 685:1.0 699:1.0 699:1.0 716:1.0 1093:1.0 1323:1.0 1323:1.0 1323:1.0 1323:1.0 1323:1.0 1323:1.0 1323:1.0 1336:1.0 1336:1.0 1336:1.0 1336:1.0 1336:1.0 1336:1.0 1336:1.0 1527:1.0 1527:1.0 1527:1.0 1527:1.0 1541:1.0 1541:1.0 1541:1.0 1541:1.0 1953:1.0 2091:1.0 3002:1.0 3363:1.0 3814:1.0 3828:1.0 3995:1.0 4009:1.0 4231:1.0 4711:1.0 5035:1.0 5438:1.0 
0.0 4.292850639267643E-5 220:1.0 320:1.0 499:1.0 499:1.0 499:1.0 499:1.0 499:1.0 499:1.0 512:1.0 512:1.0 512:1.0 512:1.0 512:1.0 512:1.0 685:1.0 685:1.0 699:1.0 699:1.0 722:1.0 1100:1.0 1708:1.0 2091:1.0 3324:1.0 3363:1.0 3814:1.0 3828:1.0 3995:1.0 4009:1.0 4070:1.0 4711:1.0 4844:1.0 5431:1.0 6116:1.0 6145:1.0 6154:1.0 6154:1.0 6158:1.0 6158:1.0 6165:1.0 6165:1.0 6165:1.0 6170:1.0 6170:1.0 6170:1.0 6795:1.0 6827:1.0 
3.4362974029708093E-4 2.7348843760795024E-5 175:1.0 401:1.0 623:1.0 623:1.0 623:1.0 636:1.0 636:1.0 636:1.0 827:1.0 827:1.0 841:1.0 841:1.0 1040:1.0 1391:1.0 2330:1.0 2663:1.0 3295:1.0 3309:1.0 3493:1.0 4009:1.0 4077:1.0 4735:1.0 4820:1.0 5441:1.0 6115:1.0 6136:1.0 6145:1.0 6145:1.0 6149:1.0 6149:1.0 6155:1.0 6155:1.0 6155:1.0 6160:1.0 6160:1.0 6160:1.0 
0.0 7.841237214450738E-5 138:1.0 312:1.0 499:1.0 499:1.0 499:1.0 512:1.0 512:1.0 512:1.0 685:1.0 685:1.0 699:1.0 699:1.0 908:1.0 1092:1.0 1708:1.0 2091:1.0 2677:1.0 3363:1.0 3995:1.0 3995:1.0 4009:1.0 4009:1.0 4114:1.0 4720:1.0 4813:1.0 5426:1.0 5483:1.0 6140:1.0 6154:1.0 6158:1.0 6342:1.0 6827:1.0 
5.091136843524924E-4 1.297916554843306E-4 348:1.0 392:1.0 1204:1.0 1391:1.0 2622:1.0 2663:1.0 3114:1.0 3128:1.0 3295:1.0 3295:1.0 3309:1.0 3309:1.0 3414:1.0 4020:1.0 4435:1.0 4731:1.0 4964:1.0 5442:1.0 5726:1.0 6128:1.0 6145:1.0 6149:1.0 6155:1.0 6160:1.0 
1.054914988621393E-4 0.0 155:1.0 312:1.0 499:1.0 512:1.0 685:1.0 685:1.0 685:1.0 685:1.0 699:1.0 699:1.0 699:1.0 699:1.0 908:1.0 1092:1.0 1953:1.0 2091:1.0 3011:1.0 3365:1.0 3995:1.0 3995:1.0 4009:1.0 4009:1.0 4361:1.0 4719:1.0 4777:1.0 5432:1.0 5650:1.0 6135:1.0 6307:1.0 6829:1.0 6855:1.0 6860:1.0 
1.728733504450709E-4 3.335643602177492E-5 263:1.0 320:1.0 499:1.0 512:1.0 685:1.0 685:1.0 685:1.0 685:1.0 685:1.0 685:1.0 685:1.0 685:1.0 685:1.0 685:1.0 699:1.0 699:1.0 699:1.0 699:1.0 699:1.0 699:1.0 699:1.0 699:1.0 699:1.0 699:1.0 988:1.0 1093:1.0 1323:1.0 1323:1.0 1323:1.0 1336:1.0 1336:1.0 1336:1.0 1527:1.0 1527:1.0 1527:1.0 1527:1.0 1541:1.0 1541:1.0 1541:1.0 1541:1.0 2058:1.0 2091:1.0 3208:1.0 3365:1.0 3814:1.0 3828:1.0 3995:1.0 4009:1.0 4703:1.0 4712:1.0 5035:1.0 5438:1.0 
4.916945027096979E-4 3.375748656065647E-4 66:1.0 312:1.0 499:1.0 512:1.0 685:1.0 685:1.0 699:1.0 699:1.0 908:1.0 1092:1.0 1953:1.0 2091:1.0 3257:1.0 3365:1.0 3995:1.0 3995:1.0 4009:1.0 4009:1.0 4497:1.0 4718:1.0 4727:1.0 4727:1.0 4731:1.0 4731:1.0 4739:1.0 4739:1.0 4744:1.0 4744:1.0 4777:1.0 5435:1.0 6131:1.0 6138:1.0 6172:1.0 6828:1.0 6855:1.0 6860:1.0 
1.2086598716703959E-4 0.0 215:1.0 320:1.0 499:1.0 499:1.0 512:1.0 512:1.0 685:1.0 685:1.0 685:1.0 685:1.0 699:1.0 699:1.0 699:1.0 699:1.0 860:1.0 1101:1.0 1323:1.0 1336:1.0 1527:1.0 1527:1.0 1527:1.0 1527:1.0 1541:1.0 1541:1.0 1541:1.0 1541:1.0 1953:1.0 2091:1.0 3315:1.0 3363:1.0 3814:1.0 3828:1.0 3995:1.0 4009:1.0 4372:1.0 4709:1.0 5036:1.0 5428:1.0 5445:1.0 5449:1.0 5456:1.0 5461:1.0 5808:1.0 6136:1.0 6796:1.0 6833:1.0 
0.0 7.922496589449617E-5 112:1.0 320:1.0 499:1.0 499:1.0 499:1.0 499:1.0 499:1.0 499:1.0 499:1.0 512:1.0 512:1.0 512:1.0 512:1.0 512:1.0 512:1.0 512:1.0 685:1.0 685:1.0 699:1.0 699:1.0 958:1.0 1101:1.0 1323:1.0 1336:1.0 2058:1.0 2091:1.0 3113:1.0 3363:1.0 3814:1.0 3828:1.0 3995:1.0 4009:1.0 4372:1.0 4709:1.0 5045:1.0 5428:1.0 5456:1.0 5461:1.0 5799:1.0 6146:1.0 6335:1.0 6836:1.0 6845:1.0 6849:1.0 
0.0 3.2927957332505304E-4 287:1.0 316:1.0 499:1.0 499:1.0 512:1.0 512:1.0 685:1.0 685:1.0 699:1.0 699:1.0 908:1.0 1092:1.0 1708:1.0 2091:1.0 2419:1.0 2419:1.0 2432:1.0 2432:1.0 3358:1.0 3363:1.0 3814:1.0 3814:1.0 3828:1.0 3828:1.0 3995:1.0 3995:1.0 4009:1.0 4009:1.0 4069:1.0 4708:1.0 5229:1.0 5429:1.0 5456:1.0 5461:1.0 5810:1.0 6136:1.0 6796:1.0 6833:1.0 
9.15894800304334E-4 6.509505860977524E-5 270:1.0 549:1.0 1453:1.0 1823:1.0 2453:1.0 2467:1.0 2648:1.0 3176:1.0 3185:1.0 3185:1.0 3185:1.0 3185:1.0 3189:1.0 3189:1.0 3189:1.0 3189:1.0 3197:1.0 3202:1.0 3554:1.0 3885:1.0 4426:1.0 4600:1.0 4759:1.0 5292:1.0 5303:1.0 5303:1.0 5307:1.0 5307:1.0 5313:1.0 5313:1.0 5318:1.0 5318:1.0 
4.868190128436912E-5 0.0 104:1.0 401:1.0 623:1.0 623:1.0 623:1.0 623:1.0 623:1.0 623:1.0 636:1.0 636:1.0 636:1.0 636:1.0 636:1.0 636:1.0 827:1.0 827:1.0 841:1.0 841:1.0 1253:1.0 1391:1.0 2311:1.0 2665:1.0 3114:1.0 3128:1.0 3295:1.0 3309:1.0 3789:1.0 4011:1.0 4460:1.0 4736:1.0 4745:1.0 4749:1.0 4756:1.0 4761:1.0 4988:1.0 5445:1.0 5454:1.0 5454:1.0 5454:1.0 5454:1.0 5454:1.0 5458:1.0 5458:1.0 5458:1.0 5458:1.0 5458:1.0 5963:1.0 6133:1.0 
6.982976925740814E-5 0.0 99:1.0 320:1.0 499:1.0 499:1.0 499:1.0 499:1.0 499:1.0 499:1.0 499:1.0 512:1.0 512:1.0 512:1.0 512:1.0 512:1.0 512:1.0 512:1.0 805:1.0 1092:1.0 1741:1.0 2091:1.0 3191:1.0 3363:1.0 3995:1.0 3995:1.0 4009:1.0 4009:1.0 4361:1.0 4719:1.0 5336:1.0 5436:1.0 5445:1.0 5445:1.0 5449:1.0 5449:1.0 5648:1.0 6141:1.0 6342:1.0 6827:1.0 
3.223647840509802E-4 0.0 186:1.0 316:1.0 499:1.0 512:1.0 908:1.0 1092:1.0 1708:1.0 2091:1.0 3346:1.0 3363:1.0 3995:1.0 3995:1.0 4009:1.0 4009:1.0 4411:1.0 4713:1.0 4986:1.0 5431:1.0 5492:1.0 6144:1.0 6226:1.0 6832:1.0 
1.9243533907431772E-4 0.0 363:1.0 549:1.0 1296:1.0 1821:1.0 2272:1.0 2286:1.0 2453:1.0 2453:1.0 2453:1.0 2467:1.0 2467:1.0 2467:1.0 2830:1.0 3167:1.0 3715:1.0 3891:1.0 4489:1.0 4595:1.0 4623:1.0 4623:1.0 4628:1.0 4628:1.0 5226:1.0 5289:1.0 
7.95463284245112E-4 1.0355922404110971E-4 346:1.0 549:1.0 1701:1.0 1821:1.0 2453:1.0 2467:1.0 3035:1.0 3176:1.0 3185:1.0 3185:1.0 3189:1.0 3189:1.0 3197:1.0 3202:1.0 3206:1.0 3887:1.0 4380:1.0 4595:1.0 4612:1.0 4612:1.0 4612:1.0 4616:1.0 4616:1.0 4616:1.0 4623:1.0 4628:1.0 4967:1.0 5285:1.0 
0.0011314740638734666 8.016218427525223E-4 211:1.0 312:1.0 499:1.0 499:1.0 499:1.0 499:1.0 512:1.0 512:1.0 512:1.0 512:1.0 685:1.0 685:1.0 699:1.0 699:1.0 906:1.0 1092:1.0 1703:1.0 2091:1.0 2876:1.0 3368:1.0 3995:1.0 4009:1.0 4216:1.0 4710:1.0 4739:1.0 4739:1.0 4744:1.0 4744:1.0 4847:1.0 5438:1.0 5893:1.0 6136:1.0 6608:1.0 6833:1.0 
4.185149219439212E-5 0.0 49:1.0 322:1.0 949:1.0 1092:1.0 1904:1.0 2091:1.0 2790:1.0 3363:1.0 3814:1.0 3814:1.0 3814:1.0 3814:1.0 3814:1.0 3814:1.0 3814:1.0 3814:1.0 3828:1.0 3828:1.0 3828:1.0 3828:1.0 3828:1.0 3828:1.0 3828:1.0 3828:1.0 3995:1.0 3995:1.0 3995:1.0 4009:1.0 4009:1.0 4009:1.0 4237:1.0 4711:1.0 5085:1.0 5437:1.0 5533:1.0 6137:1.0 6542:1.0 6830:1.0 6845:1.0 6849:1.0 
0.0 5.578485987112181E-5 211:1.0 312:1.0 499:1.0 499:1.0 499:1.0 499:1.0 499:1.0 512:1.0 512:1.0 512:1.0 512:1.0 512:1.0 685:1.0 685:1.0 699:1.0 699:1.0 779:1.0 1093:1.0 1323:1.0 1323:1.0 1323:1.0 1323:1.0 1323:1.0 1323:1.0 1323:1.0 1323:1.0 1323:1.0 1323:1.0 1323:1.0 1323:1.0 1323:1.0 1336:1.0 1336:1.0 1336:1.0 1336:1.0 1336:1.0 1336:1.0 1336:1.0 1336:1.0 1336:1.0 1336:1.0 1336:1.0 1336:1.0 1336:1.0 1527:1.0 1527:1.0 1527:1.0 1527:1.0 1527:1.0 1527:1.0 1541:1.0 1541:1.0 1541:1.0 1541:1.0 1541:1.0 1541:1.0 1849:1.0 2091:1.0 3132:1.0 3363:1.0 3814:1.0 3828:1.0 3995:1.0 4009:1.0 4372:1.0 4709:1.0 5396:1.0 5433:1.0 5641:1.0 6137:1.0 6165:1.0 6165:1.0 6170:1.0 6170:1.0 6374:1.0 6827:1.0 
3.994368594100767E-5 0.0 270:1.0 549:1.0 1774:1.0 1823:1.0 2272:1.0 2286:1.0 2453:1.0 2467:1.0 2588:1.0 3170:1.0 3724:1.0 3894:1.0 3903:1.0 3903:1.0 3903:1.0 3903:1.0 3903:1.0 3907:1.0 3907:1.0 3907:1.0 3907:1.0 3907:1.0 3914:1.0 3919:1.0 4326:1.0 4600:1.0 4668:1.0 5286:1.0 5303:1.0 5307:1.0 5313:1.0 5318:1.0 
4.6699940621423245E-4 0.0 363:1.0 549:1.0 1243:1.0 1821:1.0 2272:1.0 2286:1.0 2453:1.0 2467:1.0 2830:1.0 3167:1.0 3420:1.0 3891:1.0 3903:1.0 3907:1.0 4303:1.0 4600:1.0 5281:1.0 5286:1.0 5303:1.0 5307:1.0 5313:1.0 5313:1.0 5318:1.0 5318:1.0 
0.0 6.926965251426245E-5 58:1.0 312:1.0 499:1.0 512:1.0 685:1.0 685:1.0 699:1.0 699:1.0 908:1.0 1092:1.0 1708:1.0 2091:1.0 2419:1.0 2419:1.0 2432:1.0 2432:1.0 3358:1.0 3363:1.0 3814:1.0 3828:1.0 3995:1.0 3995:1.0 4009:1.0 4009:1.0 4455:1.0 4711:1.0 4805:1.0 5432:1.0 6076:1.0 6140:1.0 6229:1.0 6836:1.0 6845:1.0 6845:1.0 6849:1.0 6849:1.0 6855:1.0 6855:1.0 6855:1.0 6860:1.0 6860:1.0 6860:1.0 
6.281691770798545E-4 1.510455449478815E-4 363:1.0 549:1.0 1635:1.0 1823:1.0 2272:1.0 2272:1.0 2272:1.0 2286:1.0 2286:1.0 2286:1.0 2453:1.0 2467:1.0 3068:1.0 3170:1.0 3554:1.0 3885:1.0 4179:1.0 4597:1.0 4623:1.0 4628:1.0 4725:1.0 5296:1.0 
1.4012087213661242E-4 0.0 162:1.0 401:1.0 623:1.0 623:1.0 623:1.0 623:1.0 623:1.0 623:1.0 623:1.0 636:1.0 636:1.0 636:1.0 636:1.0 636:1.0 636:1.0 636:1.0 827:1.0 827:1.0 827:1.0 827:1.0 841:1.0 841:1.0 841:1.0 841:1.0 1204:1.0 1391:1.0 1995:1.0 2663:1.0 3295:1.0 3309:1.0 3757:1.0 4009:1.0 4171:1.0 4734:1.0 4756:1.0 4761:1.0 4938:1.0 5436:1.0 5980:1.0 6128:1.0 6155:1.0 6160:1.0 
2.766513535009131E-4 1.0314972923357142E-4 77:1.0 391:1.0 1253:1.0 1391:1.0 2355:1.0 2665:1.0 3114:1.0 3114:1.0 3114:1.0 3114:1.0 3114:1.0 3114:1.0 3128:1.0 3128:1.0 3128:1.0 3128:1.0 3128:1.0 3128:1.0 3295:1.0 3309:1.0 3401:1.0 4012:1.0 4456:1.0 4730:1.0 5079:1.0 5447:1.0 6009:1.0 6130:1.0 6145:1.0 6149:1.0 6155:1.0 6160:1.0 
1.389191592693317E-4 3.745702683079185E-5 57:1.0 310:1.0 926:1.0 1095:1.0 1323:1.0 1323:1.0 1323:1.0 1323:1.0 1323:1.0 1323:1.0 1323:1.0 1323:1.0 1323:1.0 1323:1.0 1323:1.0 1336:1.0 1336:1.0 1336:1.0 1336:1.0 1336:1.0 1336:1.0 1336:1.0 1336:1.0 1336:1.0 1336:1.0 1336:1.0 1527:1.0 1527:1.0 1541:1.0 1541:1.0 1953:1.0 2091:1.0 3055:1.0 3365:1.0 3814:1.0 3814:1.0 3814:1.0 3828:1.0 3828:1.0 3828:1.0 3995:1.0 4009:1.0 4372:1.0 4709:1.0 5072:1.0 5430:1.0 5445:1.0 5445:1.0 5449:1.0 5449:1.0 5456:1.0 5461:1.0 5799:1.0 6146:1.0 6594:1.0 6830:1.0 
1.1438813626107217E-4 0.0 144:1.0 401:1.0 623:1.0 623:1.0 636:1.0 636:1.0 827:1.0 827:1.0 827:1.0 827:1.0 841:1.0 841:1.0 841:1.0 841:1.0 1168:1.0 1391:1.0 2094:1.0 2663:1.0 3114:1.0 3114:1.0 3128:1.0 3128:1.0 3295:1.0 3309:1.0 3536:1.0 4011:1.0 4396:1.0 4727:1.0 5154:1.0 5442:1.0 5782:1.0 6128:1.0 6155:1.0 6155:1.0 6160:1.0 6160:1.0 
0.0 3.362544888777138E-4 62:1.0 312:1.0 499:1.0 499:1.0 499:1.0 499:1.0 512:1.0 512:1.0 512:1.0 512:1.0 685:1.0 685:1.0 699:1.0 699:1.0 805:1.0 1092:1.0 1708:1.0 2091:1.0 2419:1.0 2419:1.0 2419:1.0 2419:1.0 2432:1.0 2432:1.0 2432:1.0 2432:1.0 3244:1.0 3363:1.0 3995:1.0 3995:1.0 4009:1.0 4009:1.0 4193:1.0 4709:1.0 5227:1.0 5433:1.0 5445:1.0 5449:1.0 5838:1.0 6143:1.0 6823:1.0 6828:1.0 6855:1.0 6855:1.0 6860:1.0 6860:1.0 
0.0 5.239258205906692E-4 62:1.0 312:1.0 499:1.0 499:1.0 499:1.0 499:1.0 499:1.0 512:1.0 512:1.0 512:1.0 512:1.0 512:1.0 685:1.0 685:1.0 699:1.0 699:1.0 805:1.0 1092:1.0 1928:1.0 2091:1.0 2419:1.0 2419:1.0 2432:1.0 2432:1.0 3358:1.0 3363:1.0 3995:1.0 3995:1.0 4009:1.0 4009:1.0 4331:1.0 4713:1.0 4970:1.0 5431:1.0 5810:1.0 6136:1.0 6522:1.0 6826:1.0 6845:1.0 6849:1.0 
2.3850549861329545E-4 5.683445573914778E-4 239:1.0 312:1.0 499:1.0 499:1.0 499:1.0 499:1.0 499:1.0 499:1.0 512:1.0 512:1.0 512:1.0 512:1.0 512:1.0 512:1.0 685:1.0 685:1.0 685:1.0 685:1.0 685:1.0 685:1.0 685:1.0 685:1.0 685:1.0 685:1.0 685:1.0 685:1.0 699:1.0 699:1.0 699:1.0 699:1.0 699:1.0 699:1.0 699:1.0 699:1.0 699:1.0 699:1.0 699:1.0 699:1.0 715:1.0 1101:1.0 1323:1.0 1336:1.0 1527:1.0 1527:1.0 1541:1.0 1541:1.0 1702:1.0 2091:1.0 2419:1.0 2419:1.0 2419:1.0 2419:1.0 2419:1.0 2419:1.0 2432:1.0 2432:1.0 2432:1.0 2432:1.0 2432:1.0 2432:1.0 3044:1.0 3363:1.0 3995:1.0 3995:1.0 3995:1.0 4009:1.0 4009:1.0 4009:1.0 4309:1.0 4720:1.0 
1.1794790431324132E-4 7.566796361144886E-5 379:1.0 401:1.0 623:1.0 623:1.0 623:1.0 636:1.0 636:1.0 636:1.0 827:1.0 827:1.0 841:1.0 841:1.0 1253:1.0 1391:1.0 2388:1.0 2663:1.0 3295:1.0 3309:1.0 3343:1.0 4017:1.0 4357:1.0 4731:1.0 5039:1.0 5445:1.0 5454:1.0 5458:1.0 5465:1.0 5465:1.0 5470:1.0 5470:1.0 5807:1.0 6127:1.0 
0.0 3.104289958543071E-5 166:1.0 312:1.0 499:1.0 499:1.0 499:1.0 499:1.0 499:1.0 512:1.0 512:1.0 512:1.0 512:1.0 512:1.0 685:1.0 685:1.0 685:1.0 685:1.0 699:1.0 699:1.0 699:1.0 699:1.0 872:1.0 1101:1.0 1323:1.0 1336:1.0 1527:1.0 1527:1.0 1541:1.0 1541:1.0 1953:1.0 2091:1.0 3072:1.0 3363:1.0 3814:1.0 3814:1.0 3828:1.0 3828:1.0 3995:1.0 4009:1.0 4372:1.0 4709:1.0 4910:1.0 5434:1.0 5626:1.0 6137:1.0 6154:1.0 6158:1.0 6165:1.0 6165:1.0 6170:1.0 6170:1.0 6509:1.0 6827:1.0 
5.817546601919771E-4 1.9472890828861928E-4 270:1.0 549:1.0 1494:1.0 1821:1.0 2453:1.0 2467:1.0 2875:1.0 3166:1.0 3455:1.0 3894:1.0 3903:1.0 3903:1.0 3907:1.0 3907:1.0 3914:1.0 3914:1.0 3919:1.0 3919:1.0 3950:1.0 4602:1.0 4837:1.0 5291:1.0 
3.368261696595961E-4 2.1885794616717356E-4 110:1.0 320:1.0 499:1.0 499:1.0 512:1.0 512:1.0 685:1.0 685:1.0 685:1.0 685:1.0 699:1.0 699:1.0 699:1.0 699:1.0 722:1.0 1100:1.0 1708:1.0 2091:1.0 3192:1.0 3363:1.0 3995:1.0 4009:1.0 4446:1.0 4718:1.0 4727:1.0 4727:1.0 4731:1.0 4731:1.0 4739:1.0 4739:1.0 4744:1.0 4744:1.0 4949:1.0 5433:1.0 5646:1.0 6137:1.0 6154:1.0 6154:1.0 6154:1.0 6154:1.0 6158:1.0 6158:1.0 6158:1.0 6158:1.0 6165:1.0 6170:1.0 6509:1.0 6827:1.0 
1.1709451636554086E-4 0.0 110:1.0 320:1.0 499:1.0 499:1.0 512:1.0 512:1.0 685:1.0 685:1.0 685:1.0 685:1.0 699:1.0 699:1.0 699:1.0 699:1.0 943:1.0 1101:1.0 1323:1.0 1323:1.0 1336:1.0 1336:1.0 1527:1.0 1527:1.0 1527:1.0 1527:1.0 1541:1.0 1541:1.0 1541:1.0 1541:1.0 1702:1.0 2091:1.0 2843:1.0 3363:1.0 3814:1.0 3814:1.0 3814:1.0 3814:1.0 3828:1.0 3828:1.0 3828:1.0 3828:1.0 3995:1.0 4009:1.0 4372:1.0 4709:1.0 5098:1.0 5428:1.0 5456:1.0 5461:1.0 5810:1.0 6136:1.0 6191:1.0 6834:1.0 
1.3684085480793976E-4 0.0 270:1.0 549:1.0 1366:1.0 1821:1.0 2272:1.0 2286:1.0 2453:1.0 2467:1.0 2833:1.0 3169:1.0 3280:1.0 3894:1.0 4472:1.0 4596:1.0 4612:1.0 4612:1.0 4616:1.0 4616:1.0 4623:1.0 4623:1.0 4628:1.0 4628:1.0 4965:1.0 5285:1.0 
3.556281654642945E-5 0.0 142:1.0 401:1.0 623:1.0 623:1.0 623:1.0 623:1.0 623:1.0 623:1.0 636:1.0 636:1.0 636:1.0 636:1.0 636:1.0 636:1.0 827:1.0 827:1.0 841:1.0 841:1.0 1358:1.0 1391:1.0 2648:1.0 2663:1.0 3295:1.0 3309:1.0 3358:1.0 4018:1.0 4027:1.0 4027:1.0 4027:1.0 4031:1.0 4031:1.0 4031:1.0 4039:1.0 4039:1.0 4044:1.0 4044:1.0 4455:1.0 4733:1.0 5058:1.0 5437:1.0 5454:1.0 5458:1.0 5465:1.0 5470:1.0 6095:1.0 6127:1.0 
2.496691710669143E-4 8.896744605406665E-5 270:1.0 549:1.0 1494:1.0 1821:1.0 2453:1.0 2467:1.0 2529:1.0 3172:1.0 3515:1.0 3889:1.0 4115:1.0 4603:1.0 4612:1.0 4612:1.0 4616:1.0 4616:1.0 4623:1.0 4623:1.0 4623:1.0 4628:1.0 4628:1.0 4628:1.0 5209:1.0 5284:1.0 5303:1.0 5307:1.0 
6.379144989660174E-5 0.0 76:1.0 401:1.0 623:1.0 623:1.0 623:1.0 636:1.0 636:1.0 636:1.0 827:1.0 827:1.0 841:1.0 841:1.0 1253:1.0 1391:1.0 2482:1.0 2669:1.0 3114:1.0 3114:1.0 3128:1.0 3128:1.0 3295:1.0 3309:1.0 3424:1.0 4009:1.0 4576:1.0 4734:1.0 4756:1.0 4761:1.0 5110:1.0 5436:1.0 5769:1.0 6133:1.0 
2.5504780878272704E-4 6.983143799117577E-5 282:1.0 313:1.0 499:1.0 499:1.0 499:1.0 499:1.0 512:1.0 512:1.0 512:1.0 512:1.0 685:1.0 685:1.0 685:1.0 685:1.0 685:1.0 685:1.0 699:1.0 699:1.0 699:1.0 699:1.0 699:1.0 699:1.0 722:1.0 1100:1.0 1986:1.0 2091:1.0 3348:1.0 3363:1.0 3995:1.0 4009:1.0 4135:1.0 4718:1.0 4727:1.0 4727:1.0 4731:1.0 4731:1.0 4739:1.0 4739:1.0 4744:1.0 4744:1.0 4949:1.0 5433:1.0 5849:1.0 6138:1.0 6504:1.0 6828:1.0 6855:1.0 6855:1.0 6860:1.0 6860:1.0 
6.693042880689545E-5 0.0 143:1.0 320:1.0 499:1.0 499:1.0 499:1.0 512:1.0 512:1.0 512:1.0 805:1.0 1092:1.0 1868:1.0 2091:1.0 3131:1.0 3363:1.0 3814:1.0 3828:1.0 3995:1.0 3995:1.0 3995:1.0 3995:1.0 4009:1.0 4009:1.0 4009:1.0 4009:1.0 4065:1.0 4710:1.0 4727:1.0 4727:1.0 4731:1.0 4731:1.0 5094:1.0 5427:1.0 5822:1.0 6137:1.0 6154:1.0 6158:1.0 6165:1.0 6170:1.0 6316:1.0 6829:1.0 
9.338551856639885E-5 0.0 153:1.0 312:1.0 499:1.0 512:1.0 685:1.0 685:1.0 685:1.0 685:1.0 699:1.0 699:1.0 699:1.0 699:1.0 1051:1.0 1093:1.0 1323:1.0 1323:1.0 1323:1.0 1336:1.0 1336:1.0 1336:1.0 1527:1.0 1527:1.0 1527:1.0 1527:1.0 1541:1.0 1541:1.0 1541:1.0 1541:1.0 1953:1.0 2091:1.0 3075:1.0 3363:1.0 3995:1.0 4009:1.0 4393:1.0 4720:1.0 5035:1.0 5438:1.0 
8.28040627967636E-5 0.0 2:1.0 392:1.0 1204:1.0 1391:1.0 2170:1.0 2663:1.0 3114:1.0 3128:1.0 3295:1.0 3295:1.0 3309:1.0 3309:1.0 3414:1.0 4020:1.0 4557:1.0 4733:1.0 4895:1.0 5437:1.0 5454:1.0 5454:1.0 5454:1.0 5458:1.0 5458:1.0 5458:1.0 5465:1.0 5470:1.0 5857:1.0 6129:1.0 
0.0 4.695472751926247E-5 123:1.0 393:1.0 623:1.0 623:1.0 636:1.0 636:1.0 827:1.0 827:1.0 827:1.0 827:1.0 841:1.0 841:1.0 841:1.0 841:1.0 1253:1.0 1391:1.0 2090:1.0 2663:1.0 3114:1.0 3114:1.0 3114:1.0 3128:1.0 3128:1.0 3128:1.0 3295:1.0 3309:1.0 3722:1.0 4011:1.0 4396:1.0 4727:1.0 5263:1.0 5439:1.0 5465:1.0 5470:1.0 5567:1.0 6138:1.0 
1.0440422046961058E-4 0.0 15:1.0 319:1.0 918:1.0 1103:1.0 2058:1.0 2091:1.0 3294:1.0 3363:1.0 3995:1.0 3995:1.0 3995:1.0 4009:1.0 4009:1.0 4009:1.0 4088:1.0 4718:1.0 4923:1.0 5427:1.0 5992:1.0 6138:1.0 6570:1.0 6828:1.0 6845:1.0 6845:1.0 6849:1.0 6849:1.0 6855:1.0 6855:1.0 6855:1.0 6855:1.0 6855:1.0 6855:1.0 6860:1.0 6860:1.0 6860:1.0 6860:1.0 6860:1.0 6860:1.0 
0.0 7.847207144556668E-5 184:1.0 312:1.0 499:1.0 499:1.0 512:1.0 512:1.0 685:1.0 685:1.0 685:1.0 685:1.0 685:1.0 685:1.0 685:1.0 685:1.0 685:1.0 685:1.0 685:1.0 685:1.0 699:1.0 699:1.0 699:1.0 699:1.0 699:1.0 699:1.0 699:1.0 699:1.0 699:1.0 699:1.0 699:1.0 699:1.0 819:1.0 1101:1.0 1323:1.0 1336:1.0 1527:1.0 1527:1.0 1541:1.0 1541:1.0 1783:1.0 2091:1.0 2998:1.0 3363:1.0 3814:1.0 3828:1.0 3995:1.0 4009:1.0 4372:1.0 4709:1.0 5141:1.0 5433:1.0 5815:1.0 6137:1.0 6165:1.0 6165:1.0 6170:1.0 6170:1.0 6529:1.0 6838:1.0 
1.547429459149645E-4 0.0 153:1.0 312:1.0 499:1.0 512:1.0 685:1.0 685:1.0 685:1.0 685:1.0 699:1.0 699:1.0 699:1.0 699:1.0 843:1.0 1093:1.0 1323:1.0 1323:1.0 1323:1.0 1323:1.0 1323:1.0 1336:1.0 1336:1.0 1336:1.0 1336:1.0 1336:1.0 1527:1.0 1527:1.0 1527:1.0 1527:1.0 1541:1.0 1541:1.0 1541:1.0 1541:1.0 1953:1.0 2091:1.0 3351:1.0 3363:1.0 3995:1.0 4009:1.0 4114:1.0 4720:1.0 5395:1.0 5427:1.0 5868:1.0 6142:1.0 6445:1.0 6829:1.0 
2.2674175905124217E-4 6.753656126571835E-5 257:1.0 320:1.0 499:1.0 512:1.0 685:1.0 685:1.0 685:1.0 685:1.0 699:1.0 699:1.0 699:1.0 699:1.0 889:1.0 1099:1.0 1323:1.0 1323:1.0 1323:1.0 1336:1.0 1336:1.0 1336:1.0 1527:1.0 1527:1.0 1527:1.0 1527:1.0 1541:1.0 1541:1.0 1541:1.0 1541:1.0 1953:1.0 2091:1.0 2731:1.0 3369:1.0 3814:1.0 3828:1.0 3995:1.0 4009:1.0 4124:1.0 4709:1.0 5276:1.0 5434:1.0 5456:1.0 5461:1.0 5749:1.0 6147:1.0 
3.419698098821964E-4 7.838817346865564E-5 278:1.0 391:1.0 623:1.0 623:1.0 636:1.0 636:1.0 1008:1.0 1391:1.0 1961:1.0 2663:1.0 3295:1.0 3309:1.0 3921:1.0 4018:1.0 4027:1.0 4027:1.0 4031:1.0 4031:1.0 4039:1.0 4039:1.0 4044:1.0 4044:1.0 4249:1.0 4733:1.0 5365:1.0 5437:1.0 5454:1.0 5458:1.0 5465:1.0 5470:1.0 5809:1.0 6127:1.0 
2.740560434389167E-4 7.281303589137029E-5 517:1.0 549:1.0 1132:1.0 1821:1.0 2272:1.0 2272:1.0 2286:1.0 2286:1.0 2453:1.0 2453:1.0 2453:1.0 2467:1.0 2467:1.0 2467:1.0 2830:1.0 3167:1.0 3612:1.0 3886:1.0 3914:1.0 3919:1.0 4096:1.0 4594:1.0 5009:1.0 5288:1.0 5313:1.0 5318:1.0 
1.8407659954402803E-4 0.0 53:1.0 315:1.0 923:1.0 1096:1.0 1708:1.0 2091:1.0 3314:1.0 3363:1.0 3814:1.0 3828:1.0 3995:1.0 3995:1.0 3995:1.0 3995:1.0 4009:1.0 4009:1.0 4009:1.0 4009:1.0 4676:1.0 4709:1.0 5119:1.0 5426:1.0 5445:1.0 5449:1.0 5810:1.0 6136:1.0 6280:1.0 6834:1.0 
1.781478554093749E-4 0.0 343:1.0 402:1.0 623:1.0 623:1.0 623:1.0 623:1.0 636:1.0 636:1.0 636:1.0 636:1.0 827:1.0 827:1.0 841:1.0 841:1.0 1008:1.0 1391:1.0 2185:1.0 2664:1.0 3295:1.0 3295:1.0 3295:1.0 3309:1.0 3309:1.0 3309:1.0 3699:1.0 4013:1.0 4262:1.0 4733:1.0 5155:1.0 5437:1.0 5454:1.0 5458:1.0 5465:1.0 5465:1.0 5465:1.0 5470:1.0 5470:1.0 5470:1.0 6095:1.0 6127:1.0 
1.96143272088642E-4 5.025820568840769E-5 191:1.0 392:1.0 1253:1.0 1391:1.0 2045:1.0 2669:1.0 3114:1.0 3114:1.0 3128:1.0 3128:1.0 3295:1.0 3295:1.0 3309:1.0 3309:1.0 3661:1.0 4019:1.0 4557:1.0 4733:1.0 5273:1.0 5443:1.0 5454:1.0 5458:1.0 5465:1.0 5470:1.0 5809:1.0 6127:1.0 
3.5631316540639984E-5 0.0 58:1.0 399:1.0 623:1.0 623:1.0 623:1.0 636:1.0 636:1.0 636:1.0 827:1.0 827:1.0 827:1.0 827:1.0 841:1.0 841:1.0 841:1.0 841:1.0 1253:1.0 1391:1.0 2489:1.0 2669:1.0 3114:1.0 3128:1.0 3295:1.0 3309:1.0 3672:1.0 4009:1.0 4530:1.0 4728:1.0 4756:1.0 4761:1.0 4820:1.0 5441:1.0 5929:1.0 6136:1.0 6145:1.0 6145:1.0 6145:1.0 6145:1.0 6149:1.0 6149:1.0 6149:1.0 6149:1.0 6155:1.0 6155:1.0 6160:1.0 6160:1.0 
2.1168384950796704E-4 2.1462661631126284E-4 129:1.0 312:1.0 499:1.0 512:1.0 685:1.0 685:1.0 699:1.0 699:1.0 1074:1.0 1092:1.0 1708:1.0 2091:1.0 2684:1.0 3367:1.0 3995:1.0 3995:1.0 4009:1.0 4009:1.0 4534:1.0 4718:1.0 4727:1.0 4731:1.0 4739:1.0 4744:1.0 4962:1.0 5433:1.0 5987:1.0 6137:1.0 6154:1.0 6154:1.0 6154:1.0 6158:1.0 6158:1.0 6158:1.0 6165:1.0 6170:1.0 6509:1.0 6827:1.0 
1.018753130311529E-4 0.0 238:1.0 320:1.0 499:1.0 512:1.0 685:1.0 685:1.0 699:1.0 699:1.0 1008:1.0 1093:1.0 1323:1.0 1323:1.0 1323:1.0 1323:1.0 1323:1.0 1336:1.0 1336:1.0 1336:1.0 1336:1.0 1336:1.0 1527:1.0 1527:1.0 1541:1.0 1541:1.0 2058:1.0 2091:1.0 2988:1.0 3363:1.0 3814:1.0 3828:1.0 3995:1.0 4009:1.0 4372:1.0 4709:1.0 5205:1.0 5429:1.0 5656:1.0 6137:1.0 6154:1.0 6158:1.0 6165:1.0 6165:1.0 6170:1.0 6170:1.0 6788:1.0 6827:1.0 
3.058884481301255E-4 9.320521613353216E-5 363:1.0 549:1.0 1107:1.0 1823:1.0 2272:1.0 2272:1.0 2286:1.0 2286:1.0 2453:1.0 2467:1.0 2819:1.0 3177:1.0 3854:1.0 3891:1.0 4180:1.0 4597:1.0 4612:1.0 4616:1.0 4623:1.0 4628:1.0 5189:1.0 5288:1.0 
8.317207146623989E-5 0.0 3:1.0 395:1.0 623:1.0 623:1.0 623:1.0 636:1.0 636:1.0 636:1.0 827:1.0 827:1.0 841:1.0 841:1.0 1358:1.0 1391:1.0 2225:1.0 2665:1.0 3114:1.0 3128:1.0 3295:1.0 3309:1.0 3909:1.0 4012:1.0 4121:1.0 4736:1.0 4745:1.0 4745:1.0 4745:1.0 4749:1.0 4749:1.0 4749:1.0 4756:1.0 4761:1.0 5070:1.0 5442:1.0 5618:1.0 6128:1.0 6145:1.0 6145:1.0 6149:1.0 6149:1.0 6155:1.0 6160:1.0 
4.8675010507942434E-5 0.0 18:1.0 312:1.0 499:1.0 512:1.0 685:1.0 685:1.0 685:1.0 685:1.0 699:1.0 699:1.0 699:1.0 699:1.0 789:1.0 1101:1.0 1323:1.0 1323:1.0 1323:1.0 1323:1.0 1323:1.0 1336:1.0 1336:1.0 1336:1.0 1336:1.0 1336:1.0 1527:1.0 1527:1.0 1541:1.0 1541:1.0 2058:1.0 2091:1.0 3185:1.0 3363:1.0 3995:1.0 3995:1.0 3995:1.0 4009:1.0 4009:1.0 4009:1.0 4114:1.0 4720:1.0 5023:1.0 5427:1.0 5494:1.0 6145:1.0 6154:1.0 6154:1.0 6154:1.0 6158:1.0 6158:1.0 6158:1.0 6165:1.0 6170:1.0 6515:1.0 6826:1.0 6845:1.0 6849:1.0 
0.0 7.82971563902713E-5 34:1.0 320:1.0 499:1.0 499:1.0 499:1.0 499:1.0 512:1.0 512:1.0 512:1.0 512:1.0 685:1.0 685:1.0 699:1.0 699:1.0 724:1.0 1101:1.0 1323:1.0 1323:1.0 1323:1.0 1323:1.0 1336:1.0 1336:1.0 1336:1.0 1336:1.0 1527:1.0 1527:1.0 1541:1.0 1541:1.0 2058:1.0 2091:1.0 3287:1.0 3363:1.0 3995:1.0 4009:1.0 4370:1.0 4709:1.0 4962:1.0 5433:1.0 6042:1.0 6137:1.0 6165:1.0 6165:1.0 6170:1.0 6170:1.0 6448:1.0 6838:1.0 
1.1807919974872063E-4 0.0 214:1.0 312:1.0 499:1.0 499:1.0 499:1.0 512:1.0 512:1.0 512:1.0 685:1.0 685:1.0 685:1.0 685:1.0 699:1.0 699:1.0 699:1.0 699:1.0 908:1.0 1092:1.0 1953:1.0 2091:1.0 2766:1.0 3364:1.0 3814:1.0 3828:1.0 3995:1.0 3995:1.0 4009:1.0 4009:1.0 4620:1.0 4710:1.0 4847:1.0 5438:1.0 6005:1.0 6142:1.0 6206:1.0 6828:1.0 6855:1.0 6855:1.0 6860:1.0 6860:1.0 
7.989607842343862E-5 0.0 309:1.0 394:1.0 623:1.0 623:1.0 623:1.0 623:1.0 636:1.0 636:1.0 636:1.0 636:1.0 1286:1.0 1391:1.0 1989:1.0 2663:1.0 3295:1.0 3295:1.0 3309:1.0 3309:1.0 3846:1.0 4013:1.0 4350:1.0 4736:1.0 4745:1.0 4745:1.0 4745:1.0 4745:1.0 4749:1.0 4749:1.0 4749:1.0 4749:1.0 4756:1.0 4756:1.0 4761:1.0 4761:1.0 4872:1.0 5436:1.0 5963:1.0 6133:1.0 
8.900466581592194E-5 0.0 49:1.0 322:1.0 906:1.0 1092:1.0 1323:1.0 1323:1.0 1323:1.0 1323:1.0 1323:1.0 1323:1.0 1336:1.0 1336:1.0 1336:1.0 1336:1.0 1336:1.0 1336:1.0 1953:1.0 2091:1.0 2811:1.0 3363:1.0 3814:1.0 3828:1.0 3995:1.0 3995:1.0 3995:1.0 4009:1.0 4009:1.0 4009:1.0 4114:1.0 4720:1.0 5420:1.0 5430:1.0 5445:1.0 5445:1.0 5449:1.0 5449:1.0 5456:1.0 5461:1.0 5875:1.0 6139:1.0 6267:1.0 6838:1.0 
-3.479952541248509E-4 1.528212428376151E-4 286:1.0 320:1.0 499:1.0 512:1.0 685:1.0 685:1.0 685:1.0 685:1.0 699:1.0 699:1.0 699:1.0 699:1.0 710:1.0 1101:1.0 1323:1.0 1336:1.0 1527:1.0 1527:1.0 1541:1.0 1541:1.0 2058:1.0 2091:1.0 3039:1.0 3373:1.0 4470:1.0 4710:1.0 4727:1.0 4727:1.0 4727:1.0 4727:1.0 4727:1.0 4731:1.0 4731:1.0 4731:1.0 4731:1.0 4731:1.0 4739:1.0 4739:1.0 4744:1.0 4744:1.0 5370:1.0 5429:1.0 5830:1.0 6147:1.0 6509:1.0 6827:1.0 
-4.8675010507942434E-5 1.501337412158819E-4 6:1.0 320:1.0 499:1.0 512:1.0 685:1.0 685:1.0 699:1.0 699:1.0 957:1.0 1093:1.0 1323:1.0 1323:1.0 1323:1.0 1323:1.0 1323:1.0 1323:1.0 1323:1.0 1323:1.0 1323:1.0 1336:1.0 1336:1.0 1336:1.0 1336:1.0 1336:1.0 1336:1.0 1336:1.0 1336:1.0 1336:1.0 1527:1.0 1527:1.0 1527:1.0 1527:1.0 1541:1.0 1541:1.0 1541:1.0 1541:1.0 2058:1.0 2091:1.0 3039:1.0 3373:1.0 4470:1.0 4710:1.0 4727:1.0 4727:1.0 4727:1.0 4731:1.0 4731:1.0 4731:1.0 4739:1.0 4739:1.0 4744:1.0 4744:1.0 5096:1.0 5427:1.0 6105:1.0 6142:1.0 6596:1.0 6828:1.0 6855:1.0 6855:1.0 6860:1.0 6860:1.0 
-0.001180177682943324 2.7759793314461543E-4 77:1.0 312:1.0 685:1.0 685:1.0 685:1.0 685:1.0 699:1.0 699:1.0 699:1.0 699:1.0 752:1.0 1093:1.0 1527:1.0 1527:1.0 1527:1.0 1527:1.0 1541:1.0 1541:1.0 1541:1.0 1541:1.0 1905:1.0 2091:1.0 2634:1.0 2634:1.0 2648:1.0 2648:1.0 2883:1.0 3365:1.0 4124:1.0 4709:1.0 4754:1.0 5430:1.0 5456:1.0 5461:1.0 5810:1.0 6136:1.0 6796:1.0 6833:1.0 
-5.07244368059845E-4 1.103025739351716E-4 79:1.0 311:1.0 918:1.0 1103:1.0 1953:1.0 2091:1.0 3141:1.0 3364:1.0 4290:1.0 4710:1.0 4727:1.0 4727:1.0 4727:1.0 4731:1.0 4731:1.0 4731:1.0 4739:1.0 4739:1.0 4739:1.0 4739:1.0 4739:1.0 4739:1.0 4739:1.0 4744:1.0 4744:1.0 4744:1.0 4744:1.0 4744:1.0 4744:1.0 4744:1.0 5117:1.0 5438:1.0 5799:1.0 6146:1.0 6226:1.0 6832:1.0 
-0.0 1.5162512423096632E-4 43:1.0 312:1.0 499:1.0 499:1.0 499:1.0 499:1.0 499:1.0 512:1.0 512:1.0 512:1.0 512:1.0 512:1.0 685:1.0 685:1.0 685:1.0 685:1.0 685:1.0 685:1.0 699:1.0 699:1.0 699:1.0 699:1.0 699:1.0 699:1.0 906:1.0 1092:1.0 1783:1.0 2091:1.0 3014:1.0 3364:1.0 4653:1.0 4710:1.0 4727:1.0 4727:1.0 4731:1.0 4731:1.0 4739:1.0 4739:1.0 4739:1.0 4744:1.0 4744:1.0 4744:1.0 5096:1.0 5427:1.0 5910:1.0 6142:1.0 6559:1.0 6828:1.0 6845:1.0 6849:1.0 6855:1.0 6855:1.0 6860:1.0 6860:1.0 
-9.469427740884922E-4 4.81038519136505E-4 160:1.0 320:1.0 499:1.0 499:1.0 499:1.0 512:1.0 512:1.0 512:1.0 685:1.0 685:1.0 699:1.0 699:1.0 1064:1.0 1092:1.0 1702:1.0 2091:1.0 3129:1.0 3364:1.0 4421:1.0 4710:1.0 4739:1.0 4739:1.0 4739:1.0 4744:1.0 4744:1.0 4744:1.0 5117:1.0 5438:1.0 5749:1.0 6147:1.0 
-2.1301475489812974E-4 4.7276395268768006E-4 252:1.0 320:1.0 499:1.0 499:1.0 499:1.0 512:1.0 512:1.0 512:1.0 685:1.0 685:1.0 699:1.0 699:1.0 947:1.0 1093:1.0 1323:1.0 1323:1.0 1323:1.0 1323:1.0 1323:1.0 1323:1.0 1323:1.0 1336:1.0 1336:1.0 1336:1.0 1336:1.0 1336:1.0 1336:1.0 1336:1.0 1527:1.0 1527:1.0 1527:1.0 1527:1.0 1541:1.0 1541:1.0 1541:1.0 1541:1.0 1708:1.0 2091:1.0 2419:1.0 2419:1.0 2419:1.0 2432:1.0 2432:1.0 2432:1.0 2634:1.0 2634:1.0 2648:1.0 2648:1.0 3214:1.0 3365:1.0 3814:1.0 3814:1.0 3814:1.0 3828:1.0 3828:1.0 3828:1.0 4114:1.0 4720:1.0 5283:1.0 5430:1.0 5445:1.0 5445:1.0 5445:1.0 5449:1.0 5449:1.0 5449:1.0 5456:1.0 5461:1.0 5577:1.0 6139:1.0 6257:1.0 6830:1.0 
-1.6430697219338704E-4 4.484209111387349E-4 252:1.0 320:1.0 499:1.0 499:1.0 499:1.0 512:1.0 512:1.0 512:1.0 685:1.0 685:1.0 699:1.0 699:1.0 947:1.0 1093:1.0 1323:1.0 1323:1.0 1323:1.0 1323:1.0 1323:1.0 1323:1.0 1323:1.0 1336:1.0 1336:1.0 1336:1.0 1336:1.0 1336:1.0 1336:1.0 1336:1.0 1527:1.0 1527:1.0 1527:1.0 1527:1.0 1541:1.0 1541:1.0 1541:1.0 1541:1.0 1708:1.0 2091:1.0 2419:1.0 2419:1.0 2419:1.0 2432:1.0 2432:1.0 2432:1.0 2634:1.0 2634:1.0 2648:1.0 2648:1.0 3214:1.0 3365:1.0 3814:1.0 3814:1.0 3814:1.0 3814:1.0 3828:1.0 3828:1.0 3828:1.0 3828:1.0 4361:1.0 4719:1.0 4774:1.0 5430:1.0 5445:1.0 5449:1.0 5562:1.0 6147:1.0 6356:1.0 6830:1.0 6845:1.0 6849:1.0 6855:1.0 6860:1.0 
-4.958249991732258E-5 0.0010055415456564902 252:1.0 320:1.0 499:1.0 499:1.0 499:1.0 512:1.0 512:1.0 512:1.0 685:1.0 685:1.0 699:1.0 699:1.0 947:1.0 1093:1.0 1323:1.0 1323:1.0 1323:1.0 1323:1.0 1323:1.0 1323:1.0 1323:1.0 1336:1.0 1336:1.0 1336:1.0 1336:1.0 1336:1.0 1336:1.0 1336:1.0 1527:1.0 1527:1.0 1527:1.0 1527:1.0 1541:1.0 1541:1.0 1541:1.0 1541:1.0 1708:1.0 2091:1.0 2419:1.0 2419:1.0 2419:1.0 2432:1.0 2432:1.0 2432:1.0 2634:1.0 2634:1.0 2648:1.0 2648:1.0 3214:1.0 3365:1.0 3814:1.0 3814:1.0 3814:1.0 3814:1.0 3814:1.0 3828:1.0 3828:1.0 3828:1.0 3828:1.0 3828:1.0 4040:1.0 4712:1.0 4727:1.0 4731:1.0 4847:1.0 5438:1.0 5652:1.0 6139:1.0 6154:1.0 6158:1.0 6165:1.0 6170:1.0 6200:1.0 6830:1.0 
-1.0907963751126514E-4 3.434248066114257E-4 102:1.0 320:1.0 499:1.0 499:1.0 499:1.0 512:1.0 512:1.0 512:1.0 685:1.0 685:1.0 699:1.0 699:1.0 1069:1.0 1092:1.0 1708:1.0 2091:1.0 2772:1.0 3364:1.0 4217:1.0 4710:1.0 4727:1.0 4731:1.0 4739:1.0 4739:1.0 4739:1.0 4744:1.0 4744:1.0 4744:1.0 5366:1.0 5429:1.0 5445:1.0 5445:1.0 5449:1.0 5449:1.0 5799:1.0 6146:1.0 6543:1.0 6829:1.0 
-0.0027314410438447185 4.340712567994085E-4 363:1.0 549:1.0 1570:1.0 1822:1.0 2654:1.0 3168:1.0 3185:1.0 3189:1.0 3197:1.0 3197:1.0 3202:1.0 3202:1.0 3554:1.0 3885:1.0 4426:1.0 4600:1.0 5182:1.0 5286:1.0 5313:1.0 5313:1.0 5318:1.0 5318:1.0 
-4.335192315605004E-4 1.715399348803841E-4 103:1.0 312:1.0 499:1.0 512:1.0 685:1.0 685:1.0 685:1.0 685:1.0 685:1.0 685:1.0 699:1.0 699:1.0 699:1.0 699:1.0 699:1.0 699:1.0 908:1.0 1092:1.0 1953:1.0 2091:1.0 3051:1.0 3364:1.0 4542:1.0 4710:1.0 4739:1.0 4739:1.0 4739:1.0 4744:1.0 4744:1.0 4744:1.0 5085:1.0 5437:1.0 5845:1.0 6141:1.0 6296:1.0 6834:1.0 6855:1.0 6860:1.0 
-1.7544227023172143E-4 1.5730394015970486E-4 125:1.0 320:1.0 499:1.0 499:1.0 499:1.0 499:1.0 499:1.0 499:1.0 499:1.0 499:1.0 499:1.0 499:1.0 512:1.0 512:1.0 512:1.0 512:1.0 512:1.0 512:1.0 512:1.0 512:1.0 512:1.0 512:1.0 685:1.0 685:1.0 685:1.0 685:1.0 699:1.0 699:1.0 699:1.0 699:1.0 906:1.0 1092:1.0 1708:1.0 2091:1.0 2910:1.0 3364:1.0 4225:1.0 4716:1.0 4739:1.0 4739:1.0 4739:1.0 4744:1.0 4744:1.0 4744:1.0 5085:1.0 5437:1.0 6070:1.0 6145:1.0 6154:1.0 6154:1.0 6158:1.0 6158:1.0 6298:1.0 6829:1.0 
-3.1259826123518136E-4 9.396529013451821E-4 239:1.0 312:1.0 499:1.0 499:1.0 499:1.0 499:1.0 499:1.0 499:1.0 512:1.0 512:1.0 512:1.0 512:1.0 512:1.0 512:1.0 685:1.0 685:1.0 685:1.0 685:1.0 685:1.0 685:1.0 685:1.0 685:1.0 685:1.0 685:1.0 685:1.0 685:1.0 699:1.0 699:1.0 699:1.0 699:1.0 699:1.0 699:1.0 699:1.0 699:1.0 699:1.0 699:1.0 699:1.0 699:1.0 715:1.0 1101:1.0 1323:1.0 1336:1.0 1527:1.0 1527:1.0 1541:1.0 1541:1.0 1702:1.0 2091:1.0 2419:1.0 2419:1.0 2419:1.0 2419:1.0 2419:1.0 2419:1.0 2432:1.0 2432:1.0 2432:1.0 2432:1.0 2432:1.0 2432:1.0 2662:1.0 3369:1.0 4398:1.0 4710:1.0 4739:1.0 4739:1.0 4744:1.0 4744:1.0 5035:1.0 5438:1.0 
-5.668393402737021E-4 5.726691478571515E-5 304:1.0 312:1.0 499:1.0 512:1.0 685:1.0 685:1.0 685:1.0 685:1.0 699:1.0 699:1.0 699:1.0 699:1.0 1069:1.0 1092:1.0 2058:1.0 2091:1.0 2874:1.0 3364:1.0 4530:1.0 4712:1.0 4739:1.0 4739:1.0 4739:1.0 4744:1.0 4744:1.0 4744:1.0 4777:1.0 5432:1.0 5753:1.0 6145:1.0 6154:1.0 6158:1.0 6165:1.0 6170:1.0 6663:1.0 6833:1.0 
-5.998565292680004E-4 8.210083686892792E-4 287:1.0 316:1.0 499:1.0 512:1.0 685:1.0 685:1.0 699:1.0 699:1.0 908:1.0 1092:1.0 1708:1.0 2091:1.0 3076:1.0 3364:1.0 4543:1.0 4710:1.0 4727:1.0 4731:1.0 4739:1.0 4739:1.0 4739:1.0 4744:1.0 4744:1.0 4744:1.0 5096:1.0 5427:1.0 5963:1.0 6139:1.0 6165:1.0 6170:1.0 6448:1.0 6838:1.0 
-2.1122555516331855E-4 5.232478553401227E-5 282:1.0 313:1.0 499:1.0 499:1.0 499:1.0 499:1.0 512:1.0 512:1.0 512:1.0 512:1.0 685:1.0 685:1.0 685:1.0 685:1.0 685:1.0 685:1.0 699:1.0 699:1.0 699:1.0 699:1.0 699:1.0 699:1.0 776:1.0 1101:1.0 1323:1.0 1323:1.0 1336:1.0 1336:1.0 1527:1.0 1527:1.0 1527:1.0 1527:1.0 1541:1.0 1541:1.0 1541:1.0 1541:1.0 1702:1.0 2091:1.0 3058:1.0 3364:1.0 4367:1.0 4710:1.0 4739:1.0 4739:1.0 4744:1.0 4744:1.0 5094:1.0 5427:1.0 5677:1.0 6142:1.0 6671:1.0 6828:1.0 6855:1.0 6855:1.0 6860:1.0 6860:1.0 
-3.439972940737764E-4 0.0 143:1.0 320:1.0 499:1.0 499:1.0 499:1.0 512:1.0 512:1.0 512:1.0 805:1.0 1092:1.0 1868:1.0 2091:1.0 3112:1.0 3364:1.0 4484:1.0 4710:1.0 4727:1.0 4731:1.0 4739:1.0 4739:1.0 4739:1.0 4744:1.0 4744:1.0 4744:1.0 4799:1.0 5428:1.0 5445:1.0 5445:1.0 5449:1.0 5449:1.0 5808:1.0 6136:1.0 6521:1.0 6828:1.0 6845:1.0 6849:1.0 6855:1.0 6860:1.0 
-0.0029321985067936093 5.824520687921825E-4 15:1.0 319:1.0 918:1.0 1103:1.0 2058:1.0 2091:1.0 3112:1.0 3364:1.0 4642:1.0 4710:1.0 4739:1.0 4739:1.0 4744:1.0 4744:1.0 4822:1.0 5436:1.0 5638:1.0 6136:1.0 6687:1.0 6829:1.0 
-7.271789495153749E-4 4.1760343296318476E-5 49:1.0 322:1.0 1069:1.0 1092:1.0 1868:1.0 2091:1.0 2950:1.0 3364:1.0 4044:1.0 4710:1.0 4727:1.0 4731:1.0 4739:1.0 4739:1.0 4739:1.0 4739:1.0 4744:1.0 4744:1.0 4744:1.0 4744:1.0 4923:1.0 5427:1.0 5968:1.0 6142:1.0 6493:1.0 6828:1.0 6845:1.0 6849:1.0 6855:1.0 6855:1.0 6860:1.0 6860:1.0 
-0.0026925916071998957 4.854884656533238E-4 517:1.0 549:1.0 1688:1.0 1822:1.0 2492:1.0 3168:1.0 3185:1.0 3185:1.0 3189:1.0 3189:1.0 3197:1.0 3197:1.0 3202:1.0 3202:1.0 3554:1.0 3885:1.0 4325:1.0 4595:1.0 4623:1.0 4628:1.0 4800:1.0 5285:1.0 
-0.0013928734584036104 2.24731220825266E-4 343:1.0 402:1.0 623:1.0 623:1.0 623:1.0 623:1.0 636:1.0 636:1.0 636:1.0 636:1.0 827:1.0 827:1.0 841:1.0 841:1.0 1008:1.0 1391:1.0 2010:1.0 2661:1.0 3543:1.0 4011:1.0 4039:1.0 4039:1.0 4044:1.0 4044:1.0 4423:1.0 4731:1.0 4977:1.0 5442:1.0 5854:1.0 6128:1.0 6145:1.0 6149:1.0 6155:1.0 6155:1.0 6155:1.0 6160:1.0 6160:1.0 6160:1.0 
-3.267956601284603E-4 3.3816911490304984E-4 69:1.0 312:1.0 499:1.0 499:1.0 512:1.0 512:1.0 685:1.0 685:1.0 699:1.0 699:1.0 763:1.0 1101:1.0 1323:1.0 1336:1.0 1527:1.0 1527:1.0 1541:1.0 1541:1.0 2058:1.0 2091:1.0 2897:1.0 3364:1.0 4048:1.0 4710:1.0 4727:1.0 4731:1.0 4739:1.0 4739:1.0 4744:1.0 4744:1.0 4777:1.0 5432:1.0 5610:1.0 6145:1.0 6154:1.0 6154:1.0 6154:1.0 6158:1.0 6158:1.0 6158:1.0 6165:1.0 6170:1.0 6342:1.0 6827:1.0 
-2.2040342854174174E-4 0.0 18:1.0 312:1.0 499:1.0 512:1.0 685:1.0 685:1.0 685:1.0 685:1.0 699:1.0 699:1.0 699:1.0 699:1.0 789:1.0 1101:1.0 1323:1.0 1323:1.0 1323:1.0 1323:1.0 1323:1.0 1336:1.0 1336:1.0 1336:1.0 1336:1.0 1336:1.0 1527:1.0 1527:1.0 1541:1.0 1541:1.0 2058:1.0 2091:1.0 3048:1.0 3364:1.0 4536:1.0 4710:1.0 4739:1.0 4739:1.0 4744:1.0 4744:1.0 4847:1.0 5438:1.0 5737:1.0 6136:1.0 6203:1.0 6836:1.0 6845:1.0 6845:1.0 6845:1.0 6849:1.0 6849:1.0 6849:1.0 6855:1.0 6860:1.0 
-1.4906065493556543E-4 1.6886910984172806E-4 139:1.0 320:1.0 499:1.0 499:1.0 499:1.0 499:1.0 499:1.0 512:1.0 512:1.0 512:1.0 512:1.0 512:1.0 685:1.0 685:1.0 685:1.0 685:1.0 699:1.0 699:1.0 699:1.0 699:1.0 711:1.0 1092:1.0 1868:1.0 2091:1.0 3039:1.0 3373:1.0 4684:1.0 4710:1.0 4727:1.0 4727:1.0 4731:1.0 4731:1.0 4739:1.0 4739:1.0 4739:1.0 4744:1.0 4744:1.0 4744:1.0 5094:1.0 5427:1.0 6105:1.0 6142:1.0 6369:1.0 6828:1.0 6845:1.0 6849:1.0 6855:1.0 6855:1.0 6860:1.0 6860:1.0 
-5.547723704474936E-4 5.1723166521056803E-5 49:1.0 322:1.0 906:1.0 1092:1.0 1323:1.0 1323:1.0 1323:1.0 1323:1.0 1323:1.0 1323:1.0 1336:1.0 1336:1.0 1336:1.0 1336:1.0 1336:1.0 1336:1.0 1953:1.0 2091:1.0 2918:1.0 3364:1.0 4170:1.0 4710:1.0 4727:1.0 4731:1.0 4739:1.0 4739:1.0 4744:1.0 4744:1.0 4847:1.0 5438:1.0 6129:1.0 6139:1.0 6154:1.0 6154:1.0 6158:1.0 6158:1.0 6165:1.0 6170:1.0 6573:1.0 6830:1.0 
-1.9085930662298184E-4 -7.162255086938676E-4 252:1.0 320:1.0 499:1.0 499:1.0 499:1.0 512:1.0 512:1.0 512:1.0 685:1.0 685:1.0 699:1.0 699:1.0 947:1.0 1093:1.0 1323:1.0 1323:1.0 1323:1.0 1323:1.0 1323:1.0 1323:1.0 1323:1.0 1336:1.0 1336:1.0 1336:1.0 1336:1.0 1336:1.0 1336:1.0 1336:1.0 1527:1.0 1527:1.0 1527:1.0 1527:1.0 1541:1.0 1541:1.0 1541:1.0 1541:1.0 1708:1.0 2091:1.0 2419:1.0 2419:1.0 2432:1.0 2432:1.0 2634:1.0 2634:1.0 2648:1.0 2648:1.0 3018:1.0 3362:1.0 4565:1.0 4712:1.0 4727:1.0 4727:1.0 4727:1.0 4731:1.0 4731:1.0 4731:1.0 4847:1.0 5438:1.0 5993:1.0 6139:1.0 6154:1.0 6154:1.0 6154:1.0 6158:1.0 6158:1.0 6158:1.0 6165:1.0 6170:1.0 6282:1.0 6830:1.0 
-3.362544888777138E-4 -0.0015812321037057086 252:1.0 320:1.0 499:1.0 499:1.0 499:1.0 512:1.0 512:1.0 512:1.0 685:1.0 685:1.0 699:1.0 699:1.0 947:1.0 1093:1.0 1323:1.0 1323:1.0 1323:1.0 1323:1.0 1323:1.0 1323:1.0 1323:1.0 1336:1.0 1336:1.0 1336:1.0 1336:1.0 1336:1.0 1336:1.0 1336:1.0 1527:1.0 1527:1.0 1527:1.0 1527:1.0 1541:1.0 1541:1.0 1541:1.0 1541:1.0 1708:1.0 2091:1.0 2419:1.0 2419:1.0 2419:1.0 2432:1.0 2432:1.0 2432:1.0 2634:1.0 2634:1.0 2648:1.0 2648:1.0 3214:1.0 3365:1.0 3814:1.0 3814:1.0 3814:1.0 3814:1.0 3814:1.0 3814:1.0 3828:1.0 3828:1.0 3828:1.0 3828:1.0 3828:1.0 3828:1.0 4309:1.0 4720:1.0 
-8.059438301426327E-4 -0.0010286724982612044 287:1.0 316:1.0 499:1.0 499:1.0 512:1.0 512:1.0 685:1.0 685:1.0 699:1.0 699:1.0 908:1.0 1092:1.0 1708:1.0 2091:1.0 2419:1.0 2432:1.0 3047:1.0 3369:1.0 4705:1.0 4710:1.0 4727:1.0 4727:1.0 4731:1.0 4731:1.0 4739:1.0 4739:1.0 4744:1.0 4744:1.0 4803:1.0 5426:1.0 5941:1.0 6138:1.0 6165:1.0 6170:1.0 6509:1.0 6827:1.0 
-0.0015411994332263207 -0.001687143332599636 58:1.0 312:1.0 499:1.0 512:1.0 685:1.0 685:1.0 699:1.0 699:1.0 908:1.0 1092:1.0 1708:1.0 2091:1.0 2419:1.0 2432:1.0 3054:1.0 3368:1.0 4705:1.0 4710:1.0 4727:1.0 4731:1.0 4739:1.0 4739:1.0 4744:1.0 4744:1.0 5178:1.0 5429:1.0 5520:1.0 6141:1.0 6768:1.0 6831:1.0 
-0.0011438864561718865 -6.074784136357898E-4 62:1.0 312:1.0 499:1.0 499:1.0 499:1.0 499:1.0 512:1.0 512:1.0 512:1.0 512:1.0 685:1.0 685:1.0 699:1.0 699:1.0 805:1.0 1092:1.0 1708:1.0 2091:1.0 2419:1.0 2419:1.0 2432:1.0 2432:1.0 3019:1.0 3364:1.0 4618:1.0 4716:1.0 5314:1.0 5428:1.0 5456:1.0 5456:1.0 5461:1.0 5461:1.0 5638:1.0 6136:1.0 6635:1.0 6833:1.0 6845:1.0 6849:1.0 
-4.535188226706889E-4 -6.337681612487183E-4 62:1.0 312:1.0 499:1.0 499:1.0 499:1.0 499:1.0 512:1.0 512:1.0 512:1.0 512:1.0 685:1.0 685:1.0 699:1.0 699:1.0 805:1.0 1092:1.0 1708:1.0 2091:1.0 2419:1.0 2419:1.0 2419:1.0 2432:1.0 2432:1.0 2432:1.0 3269:1.0 3369:1.0 4594:1.0 4710:1.0 4739:1.0 4739:1.0 4744:1.0 4744:1.0 4923:1.0 5427:1.0 5939:1.0 6142:1.0 6154:1.0 6158:1.0 6537:1.0 6834:1.0 
-8.849161756232883E-4 -7.161386866712055E-4 62:1.0 312:1.0 499:1.0 499:1.0 499:1.0 499:1.0 499:1.0 512:1.0 512:1.0 512:1.0 512:1.0 512:1.0 685:1.0 685:1.0 699:1.0 699:1.0 805:1.0 1092:1.0 1928:1.0 2091:1.0 2419:1.0 2432:1.0 3047:1.0 3369:1.0 4705:1.0 4710:1.0 4739:1.0 4739:1.0 4744:1.0 4744:1.0 5057:1.0 5431:1.0 5685:1.0 6140:1.0 6509:1.0 6827:1.0 
-3.9462506410358486E-4 -4.20575871071207E-4 239:1.0 312:1.0 499:1.0 499:1.0 499:1.0 499:1.0 499:1.0 499:1.0 512:1.0 512:1.0 512:1.0 512:1.0 512:1.0 512:1.0 685:1.0 685:1.0 685:1.0 685:1.0 685:1.0 685:1.0 685:1.0 685:1.0 685:1.0 685:1.0 685:1.0 685:1.0 699:1.0 699:1.0 699:1.0 699:1.0 699:1.0 699:1.0 699:1.0 699:1.0 699:1.0 699:1.0 699:1.0 699:1.0 715:1.0 1101:1.0 1323:1.0 1336:1.0 1527:1.0 1527:1.0 1541:1.0 1541:1.0 1702:1.0 2091:1.0 2419:1.0 2419:1.0 2419:1.0 2432:1.0 2432:1.0 2432:1.0 2670:1.0 3361:1.0 4068:1.0 4708:1.0 5096:1.0 5427:1.0 5472:1.0 6143:1.0 6534:1.0 6828:1.0 6855:1.0 6855:1.0 6860:1.0 6860:1.0 
-3.6278178116544636E-4 -3.325538880397025E-4 239:1.0 312:1.0 499:1.0 499:1.0 499:1.0 499:1.0 499:1.0 499:1.0 512:1.0 512:1.0 512:1.0 512:1.0 512:1.0 512:1.0 685:1.0 685:1.0 685:1.0 685:1.0 685:1.0 685:1.0 685:1.0 685:1.0 685:1.0 685:1.0 685:1.0 685:1.0 699:1.0 699:1.0 699:1.0 699:1.0 699:1.0 699:1.0 699:1.0 699:1.0 699:1.0 699:1.0 699:1.0 699:1.0 715:1.0 1101:1.0 1323:1.0 1336:1.0 1527:1.0 1527:1.0 1541:1.0 1541:1.0 1702:1.0 2091:1.0 2419:1.0 2419:1.0 2419:1.0 2419:1.0 2432:1.0 2432:1.0 2432:1.0 2432:1.0 2709:1.0 3361:1.0 4372:1.0 4709:1.0 4757:1.0 5434:1.0 5835:1.0 6137:1.0 6165:1.0 6165:1.0 6170:1.0 6170:1.0 6448:1.0 6838:1.0 
-2.297960632405996E-4 -3.9624347869465803E-4 239:1.0 312:1.0 499:1.0 499:1.0 499:1.0 499:1.0 499:1.0 499:1.0 512:1.0 512:1.0 512:1.0 512:1.0 512:1.0 512:1.0 685:1.0 685:1.0 685:1.0 685:1.0 685:1.0 685:1.0 685:1.0 685:1.0 685:1.0 685:1.0 685:1.0 685:1.0 699:1.0 699:1.0 699:1.0 699:1.0 699:1.0 699:1.0 699:1.0 699:1.0 699:1.0 699:1.0 699:1.0 699:1.0 715:1.0 1101:1.0 1323:1.0 1336:1.0 1527:1.0 1527:1.0 1541:1.0 1541:1.0 1702:1.0 2091:1.0 2419:1.0 2419:1.0 2419:1.0 2419:1.0 2419:1.0 2432:1.0 2432:1.0 2432:1.0 2432:1.0 2432:1.0 3018:1.0 3362:1.0 4022:1.0 4716:1.0 5122:1.0 5428:1.0 5456:1.0 5456:1.0 5461:1.0 5461:1.0 5749:1.0 6147:1.0 
