svm_type c_svc
kernel_type polynomial
degree 2
gamma 1.0
coef0 1.0
nr_class 3
total_sv 13815
rho 0.07954354381708426 -0.26457416377921983 -0.31861357425749237
label 2 1 0
nr_sv 4704 6073 3038
SV
6.545331383579129E-4 0.0 8468:1.0 19456:1.0 42437:1.0 42455:1.0 61959:1.0 65079:1.0 94965:1.0 118727:1.0 165053:1.0 187834:1.0 258401:1.0 259533:1.0 268509:1.0 296309:1.0 327486:1.0 332239:1.0 344403:1.0 367361:1.0 
0.0024722899763772992 0.001419878314950736 2244:1.0 27659:1.0 84634:1.0 96766:1.0 144978:1.0 168477:1.0 169914:1.0 205238:1.0 239417:1.0 241168:1.0 257179:1.0 276293:1.0 
9.94407690663322E-4 3.274124458207878E-4 1646:1.0 19458:1.0 33683:1.0 33700:1.0 42437:1.0 42437:1.0 42437:1.0 42455:1.0 42455:1.0 42455:1.0 54164:1.0 65089:1.0 106318:1.0 118727:1.0 173323:1.0 187828:1.0 223532:1.0 223532:1.0 223532:1.0 223532:1.0 223532:1.0 223550:1.0 223550:1.0 223550:1.0 223550:1.0 223550:1.0 239419:1.0 259544:1.0 273207:1.0 296318:1.0 329769:1.0 332238:1.0 354347:1.0 367357:1.0 
7.084929633487036E-4 0.0 11766:1.0 19453:1.0 33683:1.0 33700:1.0 42437:1.0 42437:1.0 42437:1.0 42437:1.0 42437:1.0 42437:1.0 42437:1.0 42455:1.0 42455:1.0 42455:1.0 42455:1.0 42455:1.0 42455:1.0 42455:1.0 61959:1.0 65079:1.0 93218:1.0 118727:1.0 166592:1.0 187828:1.0 240160:1.0 259543:1.0 277905:1.0 296312:1.0 304952:1.0 332234:1.0 362689:1.0 367354:1.0 
8.816240505186383E-4 0.0 4100:1.0 19455:1.0 61959:1.0 65079:1.0 114442:1.0 118727:1.0 185935:1.0 187833:1.0 252655:1.0 259533:1.0 278250:1.0 296320:1.0 313514:1.0 332241:1.0 356309:1.0 367356:1.0 
0.004912233119148705 2.2678365638413258E-4 2662:1.0 19458:1.0 33683:1.0 33700:1.0 42437:1.0 42455:1.0 56023:1.0 65081:1.0 81564:1.0 81564:1.0 81581:1.0 81581:1.0 91049:1.0 91067:1.0 101515:1.0 118727:1.0 141127:1.0 141127:1.0 141144:1.0 141144:1.0 168317:1.0 187828:1.0 239419:1.0 259544:1.0 268002:1.0 296306:1.0 312795:1.0 332242:1.0 345057:1.0 367362:1.0 
0.0027476803301636063 0.0 1853:1.0 19458:1.0 42437:1.0 42455:1.0 54539:1.0 65075:1.0 81564:1.0 81564:1.0 81581:1.0 81581:1.0 91049:1.0 91049:1.0 91049:1.0 91049:1.0 91067:1.0 91067:1.0 91067:1.0 91067:1.0 115818:1.0 118727:1.0 172657:1.0 187828:1.0 223532:1.0 223532:1.0 223550:1.0 223550:1.0 239419:1.0 259544:1.0 280351:1.0 296318:1.0 322963:1.0 332231:1.0 339112:1.0 367364:1.0 
0.004270802259117977 0.0 20209:1.0 27659:1.0 83854:1.0 96766:1.0 132464:1.0 132482:1.0 148891:1.0 168477:1.0 190589:1.0 205238:1.0 233694:1.0 241168:1.0 257179:1.0 276293:1.0 
0.0016510358282923116 0.00144801461096538 9902:1.0 19462:1.0 52430:1.0 65086:1.0 94171:1.0 118727:1.0 141127:1.0 141144:1.0 154138:1.0 187828:1.0 223532:1.0 223550:1.0 242095:1.0 259547:1.0 296028:1.0 296309:1.0 300305:1.0 332241:1.0 337953:1.0 367356:1.0 
2.744897557884167E-4 0.0 15903:1.0 22619:1.0 48593:1.0 48611:1.0 65702:1.0 76271:1.0 123225:1.0 145378:1.0 212178:1.0 217085:1.0 237895:1.0 253862:1.0 268912:1.0 289775:1.0 293450:1.0 324900:1.0 
0.0014282066894082685 7.222168468421774E-4 5764:1.0 19458:1.0 49829:1.0 65086:1.0 94171:1.0 118727:1.0 141127:1.0 141144:1.0 170299:1.0 187828:1.0 223532:1.0 223550:1.0 228856:1.0 259544:1.0 273207:1.0 296318:1.0 330795:1.0 332231:1.0 348247:1.0 367361:1.0 
0.002183852382525857 0.003952669956229223 15810:1.0 22625:1.0 48593:1.0 48611:1.0 48822:1.0 76271:1.0 98671:1.0 98671:1.0 98688:1.0 98688:1.0 135071:1.0 145381:1.0 215758:1.0 217088:1.0 220164:1.0 253859:1.0 277318:1.0 289786:1.0 308008:1.0 324894:1.0 
0.0010255321343296078 0.0 18378:1.0 27659:1.0 50059:1.0 50076:1.0 89280:1.0 96766:1.0 132464:1.0 132482:1.0 157369:1.0 168477:1.0 202604:1.0 205238:1.0 221727:1.0 241174:1.0 273073:1.0 276291:1.0 
1.7007086711640795E-4 0.0 13837:1.0 19453:1.0 42437:1.0 42437:1.0 42437:1.0 42437:1.0 42455:1.0 42455:1.0 42455:1.0 42455:1.0 46112:1.0 65086:1.0 91278:1.0 118727:1.0 141127:1.0 141144:1.0 153995:1.0 187828:1.0 223532:1.0 223550:1.0 258214:1.0 259544:1.0 262179:1.0 296306:1.0 323578:1.0 332234:1.0 362689:1.0 367358:1.0 
0.004320171069656431 7.506077751147087E-4 738:1.0 22625:1.0 39108:1.0 39125:1.0 48593:1.0 48593:1.0 48611:1.0 48611:1.0 48822:1.0 76271:1.0 98671:1.0 98688:1.0 133994:1.0 145372:1.0 181076:1.0 181094:1.0 196963:1.0 217088:1.0 242852:1.0 253857:1.0 262496:1.0 289778:1.0 302903:1.0 324901:1.0 
0.001475833838774474 0.0 18606:1.0 22619:1.0 39108:1.0 39108:1.0 39108:1.0 39125:1.0 39125:1.0 39125:1.0 48593:1.0 48593:1.0 48593:1.0 48611:1.0 48611:1.0 48611:1.0 69371:1.0 76271:1.0 141187:1.0 145378:1.0 181076:1.0 181076:1.0 181094:1.0 181094:1.0 199639:1.0 217091:1.0 242983:1.0 253863:1.0 272933:1.0 289789:1.0 319075:1.0 324894:1.0 
0.002400911415388762 0.0013549214194886923 10003:1.0 27659:1.0 50059:1.0 50059:1.0 50059:1.0 50076:1.0 50076:1.0 50076:1.0 60138:1.0 60138:1.0 60156:1.0 60156:1.0 78032:1.0 96766:1.0 163566:1.0 168473:1.0 195550:1.0 205248:1.0 211184:1.0 241163:1.0 266392:1.0 276287:1.0 
6.317277511492691E-4 0.0 8978:1.0 19462:1.0 53965:1.0 65085:1.0 92890:1.0 118727:1.0 179122:1.0 187834:1.0 256768:1.0 259544:1.0 271796:1.0 296318:1.0 305305:1.0 332231:1.0 348247:1.0 367361:1.0 
0.001112537504675211 0.0 16045:1.0 22619:1.0 39108:1.0 39108:1.0 39108:1.0 39108:1.0 39125:1.0 39125:1.0 39125:1.0 39125:1.0 48593:1.0 48593:1.0 48611:1.0 48611:1.0 59734:1.0 76271:1.0 141898:1.0 145372:1.0 181076:1.0 181094:1.0 196963:1.0 217088:1.0 230751:1.0 253862:1.0 272091:1.0 289775:1.0 305791:1.0 324905:1.0 
0.003141219199351512 0.0 4075:1.0 19459:1.0 33683:1.0 33700:1.0 42437:1.0 42455:1.0 53563:1.0 65089:1.0 115818:1.0 118727:1.0 152658:1.0 187838:1.0 223532:1.0 223550:1.0 254634:1.0 259541:1.0 261488:1.0 296310:1.0 331735:1.0 332237:1.0 343664:1.0 367359:1.0 
0.002657898214748927 0.0 18195:1.0 19453:1.0 33683:1.0 33700:1.0 42437:1.0 42437:1.0 42437:1.0 42455:1.0 42455:1.0 42455:1.0 53563:1.0 65089:1.0 115818:1.0 118727:1.0 172613:1.0 187834:1.0 247486:1.0 259546:1.0 283622:1.0 296317:1.0 306584:1.0 332243:1.0 362689:1.0 367354:1.0 
0.0017491139332626521 0.0 16772:1.0 19460:1.0 62353:1.0 65079:1.0 115818:1.0 118727:1.0 169077:1.0 187834:1.0 246636:1.0 259544:1.0 273965:1.0 296306:1.0 308173:1.0 332243:1.0 335029:1.0 367350:1.0 
0.0 3.110793327017078E-5 17406:1.0 19465:1.0 55855:1.0 65085:1.0 110352:1.0 118727:1.0 162842:1.0 187833:1.0 231271:1.0 259536:1.0 261488:1.0 296310:1.0 300076:1.0 332237:1.0 355097:1.0 367361:1.0 
0.0 8.880829795656635E-4 15690:1.0 19458:1.0 33683:1.0 33683:1.0 33683:1.0 33700:1.0 33700:1.0 33700:1.0 57069:1.0 65075:1.0 91049:1.0 91049:1.0 91067:1.0 91067:1.0 93218:1.0 118727:1.0 159412:1.0 187828:1.0 228856:1.0 259544:1.0 271796:1.0 296318:1.0 322527:1.0 332231:1.0 348247:1.0 367361:1.0 
0.0012183168702349866 0.0 2254:1.0 19455:1.0 62601:1.0 65075:1.0 81564:1.0 81581:1.0 91049:1.0 91049:1.0 91049:1.0 91067:1.0 91067:1.0 91067:1.0 92890:1.0 118727:1.0 177869:1.0 187834:1.0 223532:1.0 223550:1.0 254634:1.0 259541:1.0 286314:1.0 296312:1.0 301289:1.0 332243:1.0 356459:1.0 367350:1.0 
1.2737491199639345E-4 3.792154314326869E-4 8632:1.0 19458:1.0 42437:1.0 42437:1.0 42437:1.0 42455:1.0 42455:1.0 42455:1.0 61596:1.0 65087:1.0 101787:1.0 118727:1.0 158293:1.0 187828:1.0 229412:1.0 259544:1.0 277056:1.0 296318:1.0 304488:1.0 332231:1.0 352807:1.0 367355:1.0 
5.579056312542001E-4 3.222374027464208E-4 3193:1.0 19458:1.0 42437:1.0 42437:1.0 42437:1.0 42437:1.0 42437:1.0 42437:1.0 42455:1.0 42455:1.0 42455:1.0 42455:1.0 42455:1.0 42455:1.0 51105:1.0 65087:1.0 111839:1.0 118727:1.0 179570:1.0 187828:1.0 247814:1.0 259542:1.0 272534:1.0 296317:1.0 308173:1.0 332243:1.0 359008:1.0 367359:1.0 
1.0495876999176996E-4 0.0 1285:1.0 19465:1.0 33683:1.0 33700:1.0 53563:1.0 65089:1.0 115818:1.0 118727:1.0 172779:1.0 187834:1.0 242304:1.0 259533:1.0 278250:1.0 296320:1.0 315389:1.0 332245:1.0 335538:1.0 367361:1.0 
0.0020608288671320344 0.0 15405:1.0 19458:1.0 42437:1.0 42437:1.0 42455:1.0 42455:1.0 51363:1.0 65081:1.0 81564:1.0 81581:1.0 91049:1.0 91049:1.0 91067:1.0 91067:1.0 92890:1.0 118727:1.0 141127:1.0 141144:1.0 172779:1.0 187834:1.0 223532:1.0 223532:1.0 223550:1.0 223550:1.0 242304:1.0 259533:1.0 278250:1.0 296320:1.0 315389:1.0 332245:1.0 335538:1.0 367361:1.0 
5.030921182469955E-4 0.0 13498:1.0 19458:1.0 42437:1.0 42437:1.0 42455:1.0 42455:1.0 55846:1.0 65081:1.0 81564:1.0 81564:1.0 81564:1.0 81581:1.0 81581:1.0 81581:1.0 91049:1.0 91049:1.0 91049:1.0 91049:1.0 91049:1.0 91049:1.0 91067:1.0 91067:1.0 91067:1.0 91067:1.0 91067:1.0 91067:1.0 115818:1.0 118727:1.0 153174:1.0 187828:1.0 223532:1.0 223532:1.0 223550:1.0 223550:1.0 239419:1.0 259544:1.0 284493:1.0 296316:1.0 331368:1.0 332237:1.0 344403:1.0 367361:1.0 
0.0 3.5567786804866E-4 11643:1.0 19458:1.0 33683:1.0 33683:1.0 33700:1.0 33700:1.0 42437:1.0 42437:1.0 42455:1.0 42455:1.0 44520:1.0 65081:1.0 81564:1.0 81581:1.0 91049:1.0 91049:1.0 91049:1.0 91067:1.0 91067:1.0 91067:1.0 93218:1.0 118727:1.0 158855:1.0 187841:1.0 231271:1.0 259536:1.0 264503:1.0 296312:1.0 314613:1.0 332244:1.0 351487:1.0 367362:1.0 
2.502778675955066E-4 0.0 8608:1.0 19453:1.0 42437:1.0 42455:1.0 53562:1.0 65080:1.0 81564:1.0 81581:1.0 115818:1.0 118727:1.0 160160:1.0 187833:1.0 231271:1.0 259536:1.0 291480:1.0 296314:1.0 330841:1.0 332241:1.0 362689:1.0 367358:1.0 
6.005384808026728E-4 3.50142990581376E-4 2288:1.0 19459:1.0 33683:1.0 33700:1.0 42437:1.0 42455:1.0 61352:1.0 65075:1.0 81564:1.0 81564:1.0 81581:1.0 81581:1.0 91049:1.0 91067:1.0 115818:1.0 118727:1.0 157668:1.0 187828:1.0 223532:1.0 223532:1.0 223550:1.0 223550:1.0 238715:1.0 259538:1.0 263216:1.0 296319:1.0 327486:1.0 332239:1.0 362382:1.0 367360:1.0 
1.0178005572459199E-4 0.0 16048:1.0 19458:1.0 33683:1.0 33683:1.0 33683:1.0 33700:1.0 33700:1.0 33700:1.0 42437:1.0 42437:1.0 42437:1.0 42455:1.0 42455:1.0 42455:1.0 61959:1.0 65083:1.0 102095:1.0 118727:1.0 158400:1.0 187834:1.0 223532:1.0 223550:1.0 235363:1.0 259544:1.0 280351:1.0 296318:1.0 332082:1.0 332240:1.0 356974:1.0 367350:1.0 
5.811811534801451E-4 0.0 3594:1.0 19453:1.0 33683:1.0 33700:1.0 42437:1.0 42437:1.0 42437:1.0 42455:1.0 42455:1.0 42455:1.0 54419:1.0 65075:1.0 81564:1.0 81581:1.0 106270:1.0 118727:1.0 154361:1.0 187834:1.0 223532:1.0 223550:1.0 236046:1.0 259545:1.0 273671:1.0 296306:1.0 312795:1.0 332242:1.0 345057:1.0 367362:1.0 
0.0022564120262466903 0.0 6426:1.0 27659:1.0 50059:1.0 50076:1.0 82401:1.0 96766:1.0 132464:1.0 132482:1.0 164116:1.0 168476:1.0 177431:1.0 205238:1.0 217825:1.0 241174:1.0 276276:1.0 276289:1.0 
8.728460213664875E-4 0.0 3119:1.0 19463:1.0 58122:1.0 65087:1.0 99225:1.0 118727:1.0 174815:1.0 187828:1.0 239419:1.0 259544:1.0 275448:1.0 296306:1.0 326971:1.0 332245:1.0 343698:1.0 367362:1.0 
3.7145195162986743E-4 3.885292616115665E-4 13771:1.0 22619:1.0 39108:1.0 39108:1.0 39125:1.0 39125:1.0 48593:1.0 48593:1.0 48611:1.0 48611:1.0 51629:1.0 76271:1.0 116719:1.0 145379:1.0 181076:1.0 181076:1.0 181094:1.0 181094:1.0 207372:1.0 217084:1.0 236706:1.0 253864:1.0 262496:1.0 289778:1.0 301242:1.0 324906:1.0 
0.004337429317657597 2.830100969416447E-4 16772:1.0 19460:1.0 56227:1.0 65075:1.0 91049:1.0 91067:1.0 94652:1.0 118727:1.0 159909:1.0 187834:1.0 225742:1.0 259538:1.0 271796:1.0 296318:1.0 297817:1.0 332240:1.0 366099:1.0 367361:1.0 
0.0 5.412345861197209E-5 7552:1.0 19453:1.0 42437:1.0 42455:1.0 52430:1.0 65086:1.0 93218:1.0 118727:1.0 141127:1.0 141127:1.0 141144:1.0 141144:1.0 160946:1.0 187828:1.0 253630:1.0 259538:1.0 266888:1.0 296311:1.0 312795:1.0 332242:1.0 356993:1.0 367354:1.0 
0.0025172676893711315 0.002719798553010134 20301:1.0 22619:1.0 39108:1.0 39108:1.0 39125:1.0 39125:1.0 48593:1.0 48611:1.0 72250:1.0 76271:1.0 126816:1.0 145385:1.0 192153:1.0 217089:1.0 224460:1.0 253857:1.0 275161:1.0 289785:1.0 309424:1.0 324900:1.0 
0.006392612288406616 5.707153971025129E-4 20301:1.0 22619:1.0 39108:1.0 39108:1.0 39125:1.0 39125:1.0 48593:1.0 48611:1.0 62277:1.0 76271:1.0 108750:1.0 108768:1.0 128777:1.0 145378:1.0 181076:1.0 181076:1.0 181094:1.0 181094:1.0 192153:1.0 217089:1.0 219228:1.0 253850:1.0 270339:1.0 289786:1.0 302601:1.0 324906:1.0 
0.0012024656190301492 0.0 16772:1.0 19460:1.0 43955:1.0 65088:1.0 115818:1.0 118727:1.0 177351:1.0 187834:1.0 246636:1.0 259544:1.0 295089:1.0 296316:1.0 298323:1.0 332235:1.0 344403:1.0 367361:1.0 
6.614023305068434E-4 0.0 831:1.0 19458:1.0 33683:1.0 33700:1.0 42437:1.0 42455:1.0 61959:1.0 65083:1.0 92890:1.0 118727:1.0 177351:1.0 187834:1.0 223532:1.0 223550:1.0 246636:1.0 259544:1.0 295089:1.0 296316:1.0 298323:1.0 332235:1.0 344403:1.0 367361:1.0 
8.736669751238411E-4 0.0 18873:1.0 22623:1.0 65702:1.0 76271:1.0 143075:1.0 145378:1.0 181076:1.0 181094:1.0 191065:1.0 217084:1.0 236706:1.0 253864:1.0 276190:1.0 289786:1.0 302601:1.0 324906:1.0 
4.387824533564745E-4 0.0 3332:1.0 19460:1.0 64095:1.0 65075:1.0 81564:1.0 81581:1.0 91049:1.0 91067:1.0 115818:1.0 118727:1.0 168422:1.0 187834:1.0 234883:1.0 259545:1.0 269610:1.0 296306:1.0 308893:1.0 332242:1.0 351947:1.0 367362:1.0 
0.0013663983714504943 0.0 11107:1.0 22633:1.0 61659:1.0 76271:1.0 138381:1.0 145372:1.0 181076:1.0 181094:1.0 196963:1.0 217088:1.0 243418:1.0 253850:1.0 272933:1.0 289789:1.0 315304:1.0 324904:1.0 
0.0 3.084650015486527E-4 1182:1.0 19453:1.0 33683:1.0 33683:1.0 33700:1.0 33700:1.0 42437:1.0 42455:1.0 53563:1.0 65089:1.0 115818:1.0 118727:1.0 169377:1.0 187828:1.0 223532:1.0 223532:1.0 223550:1.0 223550:1.0 241170:1.0 259547:1.0 276086:1.0 296314:1.0 319774:1.0 332242:1.0 352773:1.0 367350:1.0 
0.0015980838144183736 0.005038611929353226 11107:1.0 22633:1.0 61659:1.0 76271:1.0 135899:1.0 145372:1.0 181076:1.0 181076:1.0 181094:1.0 181094:1.0 199639:1.0 217091:1.0 253715:1.0 253860:1.0 279058:1.0 289787:1.0 323705:1.0 324894:1.0 
3.5231910105961746E-4 0.0 16771:1.0 22619:1.0 39108:1.0 39108:1.0 39108:1.0 39108:1.0 39125:1.0 39125:1.0 39125:1.0 39125:1.0 48593:1.0 48593:1.0 48593:1.0 48593:1.0 48611:1.0 48611:1.0 48611:1.0 48611:1.0 73362:1.0 76271:1.0 110718:1.0 145372:1.0 181076:1.0 181076:1.0 181094:1.0 181094:1.0 192540:1.0 217082:1.0 236706:1.0 253864:1.0 266784:1.0 289778:1.0 302601:1.0 324906:1.0 
0.007595570326542995 0.004981155320784254 10745:1.0 27659:1.0 50059:1.0 50076:1.0 75372:1.0 96767:1.0 151027:1.0 168479:1.0 189283:1.0 205250:1.0 207376:1.0 241163:1.0 270752:1.0 276287:1.0 
0.002992219730542597 6.461836424523254E-4 12992:1.0 27659:1.0 50059:1.0 50059:1.0 50059:1.0 50059:1.0 50076:1.0 50076:1.0 50076:1.0 50076:1.0 60138:1.0 60138:1.0 60138:1.0 60138:1.0 60156:1.0 60156:1.0 60156:1.0 60156:1.0 80640:1.0 96766:1.0 143541:1.0 168477:1.0 181901:1.0 205238:1.0 221727:1.0 241174:1.0 259931:1.0 276282:1.0 
0.0012915822292234396 0.0 22614:1.0 22626:1.0 70463:1.0 76271:1.0 113266:1.0 145378:1.0 181076:1.0 181076:1.0 181094:1.0 181094:1.0 189814:1.0 217083:1.0 229609:1.0 253862:1.0 285371:1.0 289775:1.0 308340:1.0 324908:1.0 
0.004540280423586903 0.0 10075:1.0 19466:1.0 46369:1.0 65083:1.0 103458:1.0 118727:1.0 159652:1.0 187828:1.0 223532:1.0 223550:1.0 239419:1.0 259544:1.0 271796:1.0 296318:1.0 320563:1.0 332231:1.0 348247:1.0 367361:1.0 
0.001450501070596411 0.0 9575:1.0 22626:1.0 39108:1.0 39108:1.0 39125:1.0 39125:1.0 65702:1.0 76271:1.0 122507:1.0 145378:1.0 189273:1.0 217089:1.0 223953:1.0 253850:1.0 285030:1.0 289779:1.0 302601:1.0 324906:1.0 
9.077552735644662E-4 0.0 4607:1.0 19453:1.0 42437:1.0 42455:1.0 52430:1.0 65086:1.0 115818:1.0 118727:1.0 179742:1.0 187834:1.0 248437:1.0 259545:1.0 285750:1.0 296306:1.0 323782:1.0 332244:1.0 350796:1.0 367364:1.0 
5.12217673262307E-4 0.0 26892:1.0 27659:1.0 50059:1.0 50059:1.0 50076:1.0 50076:1.0 60138:1.0 60156:1.0 80182:1.0 96766:1.0 132464:1.0 132464:1.0 132464:1.0 132482:1.0 132482:1.0 132482:1.0 133049:1.0 168469:1.0 185453:1.0 205249:1.0 207163:1.0 241163:1.0 271621:1.0 276286:1.0 
0.003906569875420271 9.336042579428753E-4 2630:1.0 22622:1.0 62277:1.0 76271:1.0 98671:1.0 98671:1.0 98688:1.0 98688:1.0 127137:1.0 145382:1.0 188920:1.0 217089:1.0 220137:1.0 253850:1.0 284515:1.0 289789:1.0 320331:1.0 324902:1.0 
0.00629899359239869 5.581027816345307E-4 13854:1.0 27659:1.0 50059:1.0 50076:1.0 93307:1.0 96760:1.0 132464:1.0 132482:1.0 140203:1.0 168468:1.0 185320:1.0 205250:1.0 216256:1.0 241168:1.0 274486:1.0 276282:1.0 
1.7848230478876206E-4 0.0 19215:1.0 19453:1.0 33683:1.0 33700:1.0 52430:1.0 65086:1.0 94591:1.0 118727:1.0 164607:1.0 187828:1.0 223532:1.0 223550:1.0 239419:1.0 259544:1.0 265831:1.0 296306:1.0 315389:1.0 332245:1.0 335538:1.0 367361:1.0 
0.002573833399606481 7.481113324210708E-4 10075:1.0 19466:1.0 54419:1.0 65075:1.0 81564:1.0 81581:1.0 104060:1.0 118727:1.0 141127:1.0 141144:1.0 165232:1.0 187834:1.0 246636:1.0 259544:1.0 273207:1.0 296318:1.0 325378:1.0 332231:1.0 350796:1.0 367364:1.0 
5.034504804956374E-4 0.0 6943:1.0 22619:1.0 39108:1.0 39108:1.0 39125:1.0 39125:1.0 48593:1.0 48611:1.0 65702:1.0 76271:1.0 117877:1.0 145378:1.0 205981:1.0 217089:1.0 246033:1.0 253850:1.0 272933:1.0 289789:1.0 317032:1.0 324905:1.0 
0.0027076188168796765 0.0 6874:1.0 27659:1.0 71224:1.0 96766:1.0 132464:1.0 132464:1.0 132482:1.0 132482:1.0 144978:1.0 168477:1.0 200961:1.0 205238:1.0 221727:1.0 241174:1.0 265520:1.0 276288:1.0 
0.0013112919893208232 0.0 18004:1.0 22619:1.0 48593:1.0 48593:1.0 48611:1.0 48611:1.0 65702:1.0 76271:1.0 143088:1.0 145378:1.0 181076:1.0 181094:1.0 193590:1.0 217089:1.0 236470:1.0 253855:1.0 287713:1.0 289775:1.0 305791:1.0 324905:1.0 
0.004051664734293333 0.0015342883779980098 17315:1.0 19458:1.0 42437:1.0 42437:1.0 42455:1.0 42455:1.0 62966:1.0 65081:1.0 91049:1.0 91049:1.0 91049:1.0 91049:1.0 91049:1.0 91049:1.0 91067:1.0 91067:1.0 91067:1.0 91067:1.0 91067:1.0 91067:1.0 101515:1.0 118727:1.0 141127:1.0 141144:1.0 164560:1.0 187828:1.0 223532:1.0 223550:1.0 239419:1.0 259544:1.0 277577:1.0 296306:1.0 304952:1.0 332234:1.0 348247:1.0 367361:1.0 
0.001778182051263859 0.0 2165:1.0 19453:1.0 42437:1.0 42455:1.0 55875:1.0 65081:1.0 81564:1.0 81581:1.0 91049:1.0 91067:1.0 115818:1.0 118727:1.0 172835:1.0 187834:1.0 224249:1.0 259533:1.0 263842:1.0 296311:1.0 304952:1.0 332234:1.0 345492:1.0 367356:1.0 
4.2480000903155613E-4 0.0 7811:1.0 22626:1.0 73362:1.0 76271:1.0 131741:1.0 145378:1.0 212178:1.0 217085:1.0 241166:1.0 253861:1.0 267096:1.0 289787:1.0 319881:1.0 324901:1.0 
0.0 5.436028909056785E-4 13143:1.0 19453:1.0 54164:1.0 65089:1.0 92494:1.0 118727:1.0 176281:1.0 187828:1.0 231271:1.0 259536:1.0 268841:1.0 296306:1.0 314492:1.0 332245:1.0 339112:1.0 367364:1.0 
0.0033772460248689073 0.0011560171716667477 16230:1.0 19453:1.0 33683:1.0 33700:1.0 42437:1.0 42455:1.0 56307:1.0 65081:1.0 91049:1.0 91049:1.0 91049:1.0 91067:1.0 91067:1.0 91067:1.0 91278:1.0 118727:1.0 141127:1.0 141144:1.0 159924:1.0 187828:1.0 223532:1.0 223550:1.0 239419:1.0 259544:1.0 269423:1.0 296306:1.0 324232:1.0 332242:1.0 343950:1.0 367362:1.0 
0.0 5.656512545487257E-4 20209:1.0 27659:1.0 88197:1.0 96766:1.0 143541:1.0 168477:1.0 201740:1.0 205238:1.0 208809:1.0 241174:1.0 260879:1.0 276294:1.0 
6.681178668897054E-4 0.0 16772:1.0 19456:1.0 42437:1.0 42437:1.0 42455:1.0 42455:1.0 47602:1.0 65075:1.0 91049:1.0 91067:1.0 104960:1.0 118727:1.0 153837:1.0 187834:1.0 223532:1.0 223532:1.0 223550:1.0 223550:1.0 235363:1.0 259544:1.0 296154:1.0 296315:1.0 312795:1.0 332242:1.0 340959:1.0 367362:1.0 
0.001333808434511098 8.451706506746533E-4 15405:1.0 19458:1.0 42437:1.0 42437:1.0 42455:1.0 42455:1.0 51363:1.0 65081:1.0 81564:1.0 81581:1.0 91049:1.0 91049:1.0 91067:1.0 91067:1.0 92890:1.0 118727:1.0 141127:1.0 141144:1.0 154299:1.0 187834:1.0 235363:1.0 259544:1.0 280351:1.0 296318:1.0 320945:1.0 332231:1.0 359259:1.0 367358:1.0 
4.7844002564311195E-5 0.0 1646:1.0 19458:1.0 33683:1.0 33683:1.0 33683:1.0 33700:1.0 33700:1.0 33700:1.0 42437:1.0 42455:1.0 53563:1.0 65089:1.0 115818:1.0 118727:1.0 172779:1.0 187834:1.0 242304:1.0 259533:1.0 278250:1.0 296320:1.0 315389:1.0 332245:1.0 335538:1.0 367361:1.0 
0.0018925381027857415 0.0 3558:1.0 22619:1.0 39108:1.0 39125:1.0 48593:1.0 48611:1.0 65702:1.0 76271:1.0 127570:1.0 145378:1.0 181076:1.0 181094:1.0 181661:1.0 217081:1.0 234065:1.0 253861:1.0 265717:1.0 289787:1.0 296562:1.0 324901:1.0 
6.758197052152755E-5 0.0 16772:1.0 19460:1.0 43385:1.0 65081:1.0 81564:1.0 81564:1.0 81564:1.0 81581:1.0 81581:1.0 81581:1.0 91049:1.0 91049:1.0 91049:1.0 91067:1.0 91067:1.0 91067:1.0 112919:1.0 118727:1.0 180837:1.0 187834:1.0 258214:1.0 259544:1.0 284383:1.0 296312:1.0 298054:1.0 332235:1.0 350796:1.0 367364:1.0 
1.4295359368091524E-4 0.0 22475:1.0 22626:1.0 39108:1.0 39108:1.0 39125:1.0 39125:1.0 73362:1.0 76271:1.0 135687:1.0 145378:1.0 192907:1.0 217088:1.0 237577:1.0 253862:1.0 270423:1.0 289775:1.0 293388:1.0 324905:1.0 
0.002257619133018407 0.0018414528521492875 2292:1.0 19458:1.0 33683:1.0 33700:1.0 42437:1.0 42455:1.0 62690:1.0 65081:1.0 81564:1.0 81581:1.0 91049:1.0 91049:1.0 91049:1.0 91067:1.0 91067:1.0 91067:1.0 93043:1.0 118727:1.0 174707:1.0 187839:1.0 253093:1.0 259533:1.0 279162:1.0 296320:1.0 304952:1.0 332234:1.0 362689:1.0 367358:1.0 
3.8660696099623897E-4 0.0 15092:1.0 19458:1.0 42437:1.0 42437:1.0 42455:1.0 42455:1.0 64205:1.0 65086:1.0 115818:1.0 118727:1.0 159283:1.0 187834:1.0 234609:1.0 259545:1.0 276057:1.0 296306:1.0 312795:1.0 332242:1.0 351499:1.0 367350:1.0 
0.0012145522839140744 0.0 10732:1.0 19464:1.0 61959:1.0 65079:1.0 93218:1.0 118727:1.0 183851:1.0 187828:1.0 239419:1.0 259544:1.0 283451:1.0 296306:1.0 331527:1.0 332237:1.0 350796:1.0 367364:1.0 
0.004814673257604723 0.0024539929847109377 11500:1.0 19453:1.0 46112:1.0 65086:1.0 93043:1.0 118727:1.0 152428:1.0 187840:1.0 246830:1.0 259533:1.0 280677:1.0 296311:1.0 303510:1.0 332245:1.0 
0.001215535285320146 0.0 8068:1.0 19453:1.0 42437:1.0 42455:1.0 64121:1.0 65079:1.0 93218:1.0 118727:1.0 152617:1.0 187828:1.0 239419:1.0 259544:1.0 275772:1.0 296306:1.0 328538:1.0 332237:1.0 350796:1.0 367364:1.0 
0.0017395300834685294 5.03414831739352E-4 3410:1.0 19463:1.0 33683:1.0 33683:1.0 33700:1.0 33700:1.0 50827:1.0 65075:1.0 81564:1.0 81581:1.0 91049:1.0 91067:1.0 99225:1.0 118727:1.0 186361:1.0 187838:1.0 256853:1.0 259542:1.0 288719:1.0 296306:1.0 310118:1.0 332236:1.0 355097:1.0 367361:1.0 
1.3460496361071255E-4 0.0 4095:1.0 19457:1.0 33683:1.0 33700:1.0 42437:1.0 42437:1.0 42437:1.0 42437:1.0 42437:1.0 42437:1.0 42437:1.0 42455:1.0 42455:1.0 42455:1.0 42455:1.0 42455:1.0 42455:1.0 42455:1.0 54164:1.0 65089:1.0 92890:1.0 118727:1.0 141127:1.0 141144:1.0 169759:1.0 187834:1.0 223532:1.0 223532:1.0 223550:1.0 223550:1.0 224117:1.0 259537:1.0 295007:1.0 296317:1.0 305388:1.0 332243:1.0 354724:1.0 367350:1.0 
0.0 3.284519586249175E-4 10745:1.0 27659:1.0 50059:1.0 50076:1.0 73326:1.0 96766:1.0 144978:1.0 168477:1.0 200961:1.0 205238:1.0 221727:1.0 241174:1.0 271141:1.0 276288:1.0 
0.0018842043581994278 2.757966381805705E-4 16772:1.0 19460:1.0 49363:1.0 65087:1.0 107009:1.0 118727:1.0 162389:1.0 187833:1.0 257371:1.0 259533:1.0 276194:1.0 296311:1.0 298569:1.0 332237:1.0 351947:1.0 367362:1.0 
0.001142818575427543 0.0012570917370124562 20209:1.0 27659:1.0 89176:1.0 96766:1.0 163566:1.0 168473:1.0 195311:1.0 205248:1.0 208520:1.0 241168:1.0 242812:1.0 276288:1.0 
0.0012867704105379634 4.061545828790125E-4 18709:1.0 19463:1.0 50255:1.0 65087:1.0 93459:1.0 118727:1.0 167349:1.0 187828:1.0 242095:1.0 259547:1.0 281507:1.0 296312:1.0 326093:1.0 332237:1.0 343698:1.0 367362:1.0 
0.0 2.0030202003342898E-4 15695:1.0 19458:1.0 50116:1.0 65075:1.0 91049:1.0 91049:1.0 91067:1.0 91067:1.0 93218:1.0 118727:1.0 167842:1.0 187833:1.0 241170:1.0 259547:1.0 268509:1.0 296309:1.0 318825:1.0 332237:1.0 362689:1.0 367358:1.0 
0.0 8.394020506921064E-4 5295:1.0 19458:1.0 33683:1.0 33700:1.0 42437:1.0 42437:1.0 42455:1.0 42455:1.0 63235:1.0 65075:1.0 81564:1.0 81564:1.0 81564:1.0 81581:1.0 81581:1.0 81581:1.0 91049:1.0 91049:1.0 91067:1.0 91067:1.0 110352:1.0 118727:1.0 153431:1.0 187828:1.0 241170:1.0 259547:1.0 279162:1.0 296320:1.0 311774:1.0 332237:1.0 339112:1.0 367364:1.0 
2.3717793407754492E-4 0.0 16715:1.0 19453:1.0 33683:1.0 33700:1.0 42437:1.0 42437:1.0 42437:1.0 42437:1.0 42455:1.0 42455:1.0 42455:1.0 42455:1.0 61214:1.0 65080:1.0 81564:1.0 81581:1.0 101787:1.0 118727:1.0 181909:1.0 187833:1.0 242095:1.0 259547:1.0 266688:1.0 296317:1.0 323280:1.0 332231:1.0 363815:1.0 367363:1.0 
0.0039953242608611345 0.0019703624620470463 16136:1.0 19457:1.0 33683:1.0 33683:1.0 33683:1.0 33700:1.0 33700:1.0 33700:1.0 59268:1.0 65075:1.0 91049:1.0 91067:1.0 115818:1.0 118727:1.0 170548:1.0 187841:1.0 256745:1.0 259538:1.0 266688:1.0 296317:1.0 309552:1.0 332243:1.0 357143:1.0 367350:1.0 
0.0 8.208406510029323E-4 16136:1.0 19457:1.0 33683:1.0 33683:1.0 33683:1.0 33700:1.0 33700:1.0 33700:1.0 59268:1.0 65075:1.0 91049:1.0 91067:1.0 105703:1.0 118727:1.0 151206:1.0 151224:1.0 184988:1.0 187833:1.0 229412:1.0 259544:1.0 273207:1.0 296318:1.0 321844:1.0 332231:1.0 348247:1.0 367361:1.0 
0.0034434740502529444 0.0 2039:1.0 19459:1.0 42437:1.0 42455:1.0 58120:1.0 65081:1.0 108489:1.0 118727:1.0 177673:1.0 187828:1.0 223532:1.0 223532:1.0 223550:1.0 223550:1.0 243444:1.0 259538:1.0 267033:1.0 296320:1.0 
0.0061022409815758745 0.006627103299172071 4939:1.0 19458:1.0 33683:1.0 33683:1.0 33700:1.0 33700:1.0 42437:1.0 42455:1.0 54164:1.0 65089:1.0 101071:1.0 118727:1.0 179169:1.0 187836:1.0 228856:1.0 259544:1.0 266867:1.0 296312:1.0 309552:1.0 332243:1.0 365395:1.0 367350:1.0 
0.0 0.0026768041695618425 18537:1.0 19458:1.0 33683:1.0 33700:1.0 60707:1.0 65081:1.0 91049:1.0 91067:1.0 93218:1.0 118727:1.0 166592:1.0 187828:1.0 229763:1.0 259547:1.0 
0.0012855845728607393 0.0016178834581016524 19188:1.0 22625:1.0 48593:1.0 48593:1.0 48611:1.0 48611:1.0 73983:1.0 76271:1.0 126816:1.0 145385:1.0 196963:1.0 217088:1.0 229340:1.0 253862:1.0 281928:1.0 289775:1.0 312641:1.0 324905:1.0 
8.896255511518444E-4 0.0 10075:1.0 19466:1.0 52142:1.0 65083:1.0 104733:1.0 118727:1.0 167712:1.0 187834:1.0 223532:1.0 223550:1.0 235363:1.0 259544:1.0 280351:1.0 296318:1.0 318800:1.0 332243:1.0 342364:1.0 367350:1.0 
0.0 3.890277632094325E-4 9738:1.0 19453:1.0 42437:1.0 42437:1.0 42455:1.0 42455:1.0 52566:1.0 65075:1.0 91049:1.0 91049:1.0 91067:1.0 91067:1.0 93218:1.0 118727:1.0 156801:1.0 187833:1.0 228856:1.0 259544:1.0 291480:1.0 296314:1.0 305388:1.0 332243:1.0 363903:1.0 367350:1.0 
4.9166481464629405E-5 0.0 9540:1.0 19466:1.0 48351:1.0 65087:1.0 104733:1.0 118727:1.0 152331:1.0 187833:1.0 241170:1.0 259547:1.0 267033:1.0 296320:1.0 
0.001570898277399791 1.5988697000286558E-5 2688:1.0 19458:1.0 42437:1.0 42437:1.0 42437:1.0 42455:1.0 42455:1.0 42455:1.0 61821:1.0 65075:1.0 81564:1.0 81564:1.0 81581:1.0 81581:1.0 91049:1.0 91049:1.0 91067:1.0 91067:1.0 116557:1.0 118727:1.0 178646:1.0 187828:1.0 239419:1.0 259544:1.0 265264:1.0 296306:1.0 304470:1.0 332236:1.0 366788:1.0 367363:1.0 
8.566926074332747E-4 6.808992416539091E-4 16649:1.0 19453:1.0 33683:1.0 33683:1.0 33700:1.0 33700:1.0 42437:1.0 42437:1.0 42455:1.0 42455:1.0 59408:1.0 65075:1.0 81564:1.0 81581:1.0 91049:1.0 91067:1.0 118250:1.0 118727:1.0 156125:1.0 187835:1.0 223532:1.0 223532:1.0 223550:1.0 223550:1.0 251021:1.0 259541:1.0 283622:1.0 296317:1.0 316555:1.0 332243:1.0 365932:1.0 367350:1.0 
0.0012322941066088085 0.001315945421073416 11166:1.0 19458:1.0 42437:1.0 42455:1.0 49211:1.0 65081:1.0 91049:1.0 91049:1.0 91067:1.0 91067:1.0 93218:1.0 118727:1.0 141127:1.0 141127:1.0 141144:1.0 141144:1.0 173440:1.0 187828:1.0 235363:1.0 259544:1.0 268957:1.0 296318:1.0 328720:1.0 332231:1.0 350796:1.0 367364:1.0 
0.0015831222639974283 4.105089435901217E-4 4482:1.0 19458:1.0 33683:1.0 33700:1.0 42437:1.0 42437:1.0 42455:1.0 42455:1.0 57017:1.0 65086:1.0 93218:1.0 118727:1.0 172370:1.0 187828:1.0 257286:1.0 259539:1.0 280351:1.0 296318:1.0 307068:1.0 332231:1.0 362689:1.0 367354:1.0 
0.01580309142348992 0.01112437757542731 17429:1.0 27659:1.0 50059:1.0 50076:1.0 72869:1.0 96772:1.0 156861:1.0 168465:1.0 185453:1.0 205249:1.0 225487:1.0 241175:1.0 246022:1.0 276291:1.0 
6.150560727624078E-5 0.0 15309:1.0 22619:1.0 39108:1.0 39108:1.0 39125:1.0 39125:1.0 48593:1.0 48611:1.0 73362:1.0 76271:1.0 129495:1.0 145378:1.0 205608:1.0 217077:1.0 234065:1.0 253861:1.0 259499:1.0 289782:1.0 308340:1.0 324908:1.0 
0.0 7.014469767091195E-5 1453:1.0 19453:1.0 33683:1.0 33700:1.0 42437:1.0 42437:1.0 42455:1.0 42455:1.0 58070:1.0 65082:1.0 91049:1.0 91067:1.0 99225:1.0 118727:1.0 157407:1.0 187834:1.0 223532:1.0 223550:1.0 234883:1.0 259545:1.0 268881:1.0 296306:1.0 309078:1.0 332238:1.0 342371:1.0 367357:1.0 
0.003130811596183349 2.3264928301460706E-4 3772:1.0 22625:1.0 39108:1.0 39108:1.0 39125:1.0 39125:1.0 48593:1.0 48593:1.0 48593:1.0 48593:1.0 48611:1.0 48611:1.0 48611:1.0 48611:1.0 61604:1.0 76271:1.0 98671:1.0 98671:1.0 98688:1.0 98688:1.0 135394:1.0 145372:1.0 181076:1.0 181094:1.0 185155:1.0 217082:1.0 236706:1.0 253864:1.0 273768:1.0 289782:1.0 293963:1.0 324901:1.0 
0.002311425786673785 0.0 7104:1.0 22626:1.0 73362:1.0 76271:1.0 126937:1.0 145378:1.0 192907:1.0 217088:1.0 229340:1.0 253862:1.0 270745:1.0 289785:1.0 320233:1.0 324902:1.0 
0.0012101686607758116 7.945503985770917E-4 3986:1.0 27659:1.0 77579:1.0 96766:1.0 144978:1.0 168477:1.0 172949:1.0 205243:1.0 207283:1.0 241163:1.0 257179:1.0 276293:1.0 
0.004143287612406986 0.0020181467501392747 5126:1.0 19453:1.0 33683:1.0 33700:1.0 42437:1.0 42455:1.0 62172:1.0 65081:1.0 81564:1.0 81581:1.0 91049:1.0 91049:1.0 91049:1.0 91067:1.0 91067:1.0 91067:1.0 113090:1.0 118727:1.0 141127:1.0 141144:1.0 160093:1.0 187834:1.0 223532:1.0 223550:1.0 234883:1.0 259545:1.0 276636:1.0 296306:1.0 302632:1.0 332242:1.0 364422:1.0 367356:1.0 
6.876155274003332E-5 0.0 4634:1.0 19458:1.0 33683:1.0 33700:1.0 42437:1.0 42437:1.0 42455:1.0 42455:1.0 54164:1.0 65089:1.0 92890:1.0 118727:1.0 141127:1.0 141144:1.0 175342:1.0 187834:1.0 226296:1.0 259546:1.0 290192:1.0 296306:1.0 302632:1.0 332242:1.0 348813:1.0 367356:1.0 
0.0 2.979402867605274E-4 4634:1.0 19458:1.0 33683:1.0 33700:1.0 42437:1.0 42437:1.0 42455:1.0 42455:1.0 57426:1.0 65081:1.0 91049:1.0 91049:1.0 91067:1.0 91067:1.0 93218:1.0 118727:1.0 181504:1.0 187828:1.0 228856:1.0 259544:1.0 277106:1.0 296312:1.0 308173:1.0 332243:1.0 340884:1.0 367350:1.0 
0.0022922418247272288 9.950660497856335E-5 17945:1.0 19453:1.0 33683:1.0 33700:1.0 42437:1.0 42437:1.0 42455:1.0 42455:1.0 54164:1.0 65089:1.0 95200:1.0 118727:1.0 172348:1.0 187828:1.0 223532:1.0 223550:1.0 252263:1.0 259546:1.0 276521:1.0 296317:1.0 303343:1.0 332237:1.0 366099:1.0 367361:1.0 
6.136676158304782E-4 0.0 16772:1.0 19456:1.0 46275:1.0 65075:1.0 91049:1.0 91067:1.0 115818:1.0 118727:1.0 175933:1.0 187834:1.0 246636:1.0 259544:1.0 287595:1.0 296310:1.0 298054:1.0 332235:1.0 346473:1.0 367356:1.0 
0.0020530694218101613 0.0 19309:1.0 19458:1.0 61959:1.0 65083:1.0 108158:1.0 118727:1.0 163154:1.0 187828:1.0 223532:1.0 223550:1.0 239419:1.0 259544:1.0 271796:1.0 296318:1.0 306849:1.0 332231:1.0 348247:1.0 367361:1.0 
2.673158853603435E-4 0.0 3332:1.0 19460:1.0 49698:1.0 65085:1.0 115818:1.0 118727:1.0 177895:1.0 187834:1.0 234883:1.0 259545:1.0 286054:1.0 296311:1.0 312670:1.0 332231:1.0 344938:1.0 367355:1.0 
0.009649897313129562 0.004236488726109873 17429:1.0 27659:1.0 50059:1.0 50059:1.0 50076:1.0 50076:1.0 82372:1.0 96760:1.0 133049:1.0 168469:1.0 176053:1.0 205244:1.0 217825:1.0 241174:1.0 249891:1.0 276294:1.0 
0.0010682617286182573 0.0 20209:1.0 27659:1.0 62654:1.0 96766:1.0 132464:1.0 132464:1.0 132482:1.0 132482:1.0 160657:1.0 168471:1.0 181466:1.0 205249:1.0 209680:1.0 241170:1.0 268191:1.0 276290:1.0 
0.002215963424249613 1.6211197483432613E-4 1356:1.0 19458:1.0 33683:1.0 33700:1.0 42437:1.0 42437:1.0 42437:1.0 42455:1.0 42455:1.0 42455:1.0 54137:1.0 65081:1.0 91049:1.0 91049:1.0 91049:1.0 91067:1.0 91067:1.0 91067:1.0 118250:1.0 118727:1.0 157354:1.0 187828:1.0 223532:1.0 223532:1.0 223550:1.0 223550:1.0 239419:1.0 259544:1.0 271796:1.0 296318:1.0 320120:1.0 332231:1.0 359259:1.0 367358:1.0 
4.544558378364221E-4 0.0 10075:1.0 19466:1.0 61959:1.0 65079:1.0 116340:1.0 118727:1.0 167872:1.0 187834:1.0 234609:1.0 259545:1.0 279499:1.0 296306:1.0 315389:1.0 332245:1.0 343698:1.0 367362:1.0 
0.0016724609952572299 7.959586546617771E-4 10075:1.0 19466:1.0 49363:1.0 65087:1.0 108158:1.0 118727:1.0 184691:1.0 187828:1.0 259406:1.0 259540:1.0 276809:1.0 296313:1.0 315389:1.0 332245:1.0 352780:1.0 367356:1.0 
6.420132091523738E-4 3.551470107378116E-4 15953:1.0 19453:1.0 42437:1.0 42455:1.0 64624:1.0 65081:1.0 91049:1.0 91067:1.0 118250:1.0 118727:1.0 174214:1.0 187835:1.0 251021:1.0 259541:1.0 280351:1.0 296318:1.0 318800:1.0 332235:1.0 343504:1.0 367350:1.0 
2.5170103398942115E-4 0.0 10080:1.0 19458:1.0 33683:1.0 33700:1.0 42437:1.0 42455:1.0 54164:1.0 65089:1.0 92890:1.0 118727:1.0 141127:1.0 141144:1.0 162550:1.0 187834:1.0 223532:1.0 223550:1.0 231271:1.0 259536:1.0 261488:1.0 296310:1.0 327195:1.0 332237:1.0 355097:1.0 367361:1.0 
0.005811010608693964 0.0010287978417306966 13047:1.0 27659:1.0 94700:1.0 96766:1.0 138806:1.0 168475:1.0 200412:1.0 205246:1.0 215516:1.0 241167:1.0 249096:1.0 276292:1.0 
0.0 2.6979001469664977E-4 779:1.0 19458:1.0 42437:1.0 42455:1.0 51355:1.0 65075:1.0 91049:1.0 91067:1.0 109495:1.0 118727:1.0 167124:1.0 187833:1.0 231271:1.0 259536:1.0 270179:1.0 296310:1.0 328095:1.0 332241:1.0 348207:1.0 367356:1.0 
0.003986543578159678 0.001325193895574555 8120:1.0 19453:1.0 42437:1.0 42437:1.0 42455:1.0 42455:1.0 61959:1.0 65079:1.0 114442:1.0 118727:1.0 173503:1.0 187840:1.0 252226:1.0 259533:1.0 295675:1.0 296310:1.0 307130:1.0 332237:1.0 335416:1.0 367363:1.0 
0.0020125074042750112 0.0 18246:1.0 22625:1.0 39108:1.0 39108:1.0 39108:1.0 39108:1.0 39108:1.0 39125:1.0 39125:1.0 39125:1.0 39125:1.0 39125:1.0 48593:1.0 48611:1.0 51003:1.0 76271:1.0 140355:1.0 145372:1.0 181076:1.0 181076:1.0 181076:1.0 181076:1.0 181094:1.0 181094:1.0 181094:1.0 181094:1.0 214524:1.0 217082:1.0 230078:1.0 253861:1.0 267096:1.0 289787:1.0 320233:1.0 324898:1.0 
0.0028965823864632334 8.845984949023063E-4 13047:1.0 27659:1.0 87095:1.0 96766:1.0 154578:1.0 168478:1.0 175965:1.0 205252:1.0 
3.4447574174876594E-4 0.0 10753:1.0 27659:1.0 76208:1.0 96766:1.0 132464:1.0 132464:1.0 132464:1.0 132482:1.0 132482:1.0 132482:1.0 148459:1.0 168477:1.0 183008:1.0 205238:1.0 212101:1.0 241174:1.0 253989:1.0 276294:1.0 
8.353338925807198E-4 2.371952104433402E-4 17635:1.0 19458:1.0 55945:1.0 65081:1.0 81564:1.0 81564:1.0 81581:1.0 81581:1.0 91049:1.0 91067:1.0 115818:1.0 118727:1.0 162547:1.0 187834:1.0 231729:1.0 259545:1.0 284228:1.0 296306:1.0 327486:1.0 332235:1.0 345057:1.0 367362:1.0 
2.6691500349889665E-4 0.0 11709:1.0 22625:1.0 39108:1.0 39108:1.0 39108:1.0 39125:1.0 39125:1.0 39125:1.0 48593:1.0 48611:1.0 50434:1.0 76271:1.0 126500:1.0 145378:1.0 181076:1.0 181076:1.0 181076:1.0 181076:1.0 181076:1.0 181094:1.0 181094:1.0 181094:1.0 181094:1.0 181094:1.0 199639:1.0 217091:1.0 230432:1.0 253853:1.0 274099:1.0 289787:1.0 316802:1.0 324899:1.0 
6.217705447341672E-4 0.0 10076:1.0 19458:1.0 33683:1.0 33683:1.0 33683:1.0 33683:1.0 33683:1.0 33700:1.0 33700:1.0 33700:1.0 33700:1.0 33700:1.0 42437:1.0 42455:1.0 64973:1.0 65075:1.0 91049:1.0 91067:1.0 115818:1.0 118727:1.0 154427:1.0 187828:1.0 223532:1.0 223532:1.0 223550:1.0 223550:1.0 255868:1.0 259538:1.0 279162:1.0 296320:1.0 309240:1.0 332234:1.0 362689:1.0 367358:1.0 
2.9407367291714686E-4 0.0 2770:1.0 19458:1.0 33683:1.0 33683:1.0 33683:1.0 33683:1.0 33683:1.0 33700:1.0 33700:1.0 33700:1.0 33700:1.0 33700:1.0 42437:1.0 42455:1.0 52159:1.0 65075:1.0 91049:1.0 91067:1.0 115818:1.0 118727:1.0 187546:1.0 187834:1.0 242095:1.0 259547:1.0 268509:1.0 296309:1.0 316445:1.0 332243:1.0 357196:1.0 367350:1.0 
3.869468938073246E-4 0.0 11201:1.0 22633:1.0 72232:1.0 76271:1.0 138684:1.0 145378:1.0 181076:1.0 181076:1.0 181076:1.0 181076:1.0 181094:1.0 181094:1.0 181094:1.0 181094:1.0 196963:1.0 217088:1.0 233681:1.0 253862:1.0 282469:1.0 289775:1.0 305791:1.0 324905:1.0 
7.138632542931551E-4 0.0 8313:1.0 19462:1.0 52430:1.0 65086:1.0 115818:1.0 118727:1.0 168547:1.0 187834:1.0 224117:1.0 259537:1.0 281457:1.0 296309:1.0 329016:1.0 332237:1.0 343698:1.0 367362:1.0 
0.0021845328800895697 0.0 10075:1.0 19466:1.0 52142:1.0 65083:1.0 92890:1.0 118727:1.0 172331:1.0 187828:1.0 223532:1.0 223532:1.0 223550:1.0 223550:1.0 242095:1.0 259547:1.0 272888:1.0 296309:1.0 316381:1.0 332231:1.0 339112:1.0 367364:1.0 
8.885240224429569E-5 0.0 16772:1.0 19456:1.0 52305:1.0 65075:1.0 81564:1.0 81564:1.0 81564:1.0 81581:1.0 81581:1.0 81581:1.0 91049:1.0 91049:1.0 91049:1.0 91067:1.0 91067:1.0 91067:1.0 93218:1.0 118727:1.0 180633:1.0 187828:1.0 223532:1.0 223532:1.0 223550:1.0 223550:1.0 241308:1.0 259547:1.0 276406:1.0 296320:1.0 303510:1.0 332245:1.0 
0.0017493516306438565 0.0032503414038006976 18246:1.0 22625:1.0 39108:1.0 39125:1.0 48593:1.0 48593:1.0 48611:1.0 48611:1.0 50587:1.0 76271:1.0 133112:1.0 145385:1.0 193590:1.0 217089:1.0 228871:1.0 253850:1.0 270339:1.0 289786:1.0 294414:1.0 324894:1.0 
0.001960702025823877 0.0 17490:1.0 22626:1.0 39108:1.0 39125:1.0 73362:1.0 76271:1.0 113424:1.0 145378:1.0 204180:1.0 217088:1.0 229340:1.0 253862:1.0 285291:1.0 289775:1.0 308340:1.0 324908:1.0 
0.0017832362156005614 0.0 10075:1.0 19466:1.0 55349:1.0 65083:1.0 100490:1.0 118727:1.0 165084:1.0 187841:1.0 223532:1.0 223550:1.0 239419:1.0 259544:1.0 277056:1.0 296318:1.0 299319:1.0 332231:1.0 337903:1.0 367355:1.0 
0.0013043006343547018 1.114254283282184E-4 2785:1.0 19458:1.0 33683:1.0 33683:1.0 33683:1.0 33683:1.0 33683:1.0 33683:1.0 33700:1.0 33700:1.0 33700:1.0 33700:1.0 33700:1.0 33700:1.0 42437:1.0 42455:1.0 58191:1.0 65075:1.0 91049:1.0 91067:1.0 114706:1.0 118727:1.0 174048:1.0 187828:1.0 223532:1.0 223532:1.0 223550:1.0 223550:1.0 239419:1.0 259544:1.0 271763:1.0 296306:1.0 315389:1.0 332245:1.0 367082:1.0 367353:1.0 
0.008013112758184894 0.0016703382390978888 13047:1.0 27659:1.0 95293:1.0 96770:1.0 150970:1.0 168470:1.0 190919:1.0 205238:1.0 224321:1.0 241177:1.0 253677:1.0 276285:1.0 
0.001117333925111586 0.0 9357:1.0 19453:1.0 42437:1.0 42455:1.0 57421:1.0 65081:1.0 81564:1.0 81564:1.0 81581:1.0 81581:1.0 91049:1.0 91049:1.0 91049:1.0 91049:1.0 91067:1.0 91067:1.0 91067:1.0 91067:1.0 115818:1.0 118727:1.0 181562:1.0 187828:1.0 223532:1.0 223532:1.0 223532:1.0 223550:1.0 223550:1.0 223550:1.0 239419:1.0 259544:1.0 280052:1.0 296306:1.0 303510:1.0 332245:1.0 
0.0030687891172010207 0.0 16181:1.0 19456:1.0 61959:1.0 65079:1.0 116439:1.0 118727:1.0 169077:1.0 187834:1.0 254634:1.0 259541:1.0 284383:1.0 296306:1.0 303169:1.0 332242:1.0 345057:1.0 367362:1.0 
2.812683399224591E-4 0.0 7728:1.0 19453:1.0 61959:1.0 65079:1.0 115818:1.0 118727:1.0 170088:1.0 187834:1.0 239419:1.0 259544:1.0 262316:1.0 296316:1.0 321514:1.0 332243:1.0 356812:1.0 367350:1.0 
0.0 9.97374914292488E-4 2733:1.0 22625:1.0 39108:1.0 39108:1.0 39108:1.0 39108:1.0 39125:1.0 39125:1.0 39125:1.0 39125:1.0 48593:1.0 48611:1.0 75504:1.0 76271:1.0 135166:1.0 145378:1.0 181076:1.0 181076:1.0 181076:1.0 181076:1.0 181094:1.0 181094:1.0 181094:1.0 181094:1.0 187307:1.0 217091:1.0 
0.003939225311382623 0.0022281756923335306 19339:1.0 22625:1.0 50587:1.0 76271:1.0 137377:1.0 145385:1.0 196963:1.0 217088:1.0 246982:1.0 253862:1.0 258857:1.0 289775:1.0 298073:1.0 324897:1.0 
0.004049957945593766 0.0014067512018451206 21039:1.0 22625:1.0 39108:1.0 39108:1.0 39125:1.0 39125:1.0 48593:1.0 48593:1.0 48611:1.0 48611:1.0 65573:1.0 76271:1.0 108750:1.0 108768:1.0 145233:1.0 145378:1.0 181076:1.0 181094:1.0 192907:1.0 217088:1.0 229340:1.0 253862:1.0 272036:1.0 289789:1.0 317429:1.0 324901:1.0 
0.0025613668460945506 0.001974349303030407 10506:1.0 27659:1.0 63093:1.0 96766:1.0 146646:1.0 168471:1.0 185453:1.0 205249:1.0 240813:1.0 241163:1.0 271113:1.0 276296:1.0 
0.001607643273780115 0.0 9987:1.0 27659:1.0 91963:1.0 96766:1.0 132464:1.0 132482:1.0 160603:1.0 168478:1.0 185453:1.0 205249:1.0 225018:1.0 241175:1.0 274659:1.0 276282:1.0 
0.002085189742394283 0.0014329508604487952 16864:1.0 19458:1.0 33683:1.0 33700:1.0 42437:1.0 42437:1.0 42455:1.0 42455:1.0 61981:1.0 65075:1.0 81564:1.0 81564:1.0 81581:1.0 81581:1.0 91049:1.0 91049:1.0 91067:1.0 91067:1.0 113645:1.0 118727:1.0 171179:1.0 187835:1.0 246636:1.0 259544:1.0 278250:1.0 296320:1.0 307210:1.0 332238:1.0 365595:1.0 367357:1.0 
5.106935413196925E-4 0.0 10506:1.0 27659:1.0 94668:1.0 96766:1.0 132464:1.0 132482:1.0 144295:1.0 168476:1.0 180728:1.0 205250:1.0 223424:1.0 241177:1.0 251057:1.0 276287:1.0 
0.002052323822944106 0.0 18044:1.0 19453:1.0 42437:1.0 42455:1.0 61959:1.0 65079:1.0 115818:1.0 118727:1.0 186793:1.0 187834:1.0 246636:1.0 259544:1.0 293329:1.0 296312:1.0 312795:1.0 332242:1.0 358490:1.0 367355:1.0 
0.002462517324294235 8.845894883536461E-4 7603:1.0 19458:1.0 33683:1.0 33683:1.0 33700:1.0 33700:1.0 42437:1.0 42455:1.0 56912:1.0 65080:1.0 81564:1.0 81581:1.0 114625:1.0 118727:1.0 183622:1.0 187833:1.0 241289:1.0 259533:1.0 276521:1.0 296317:1.0 319393:1.0 332231:1.0 350796:1.0 367364:1.0 
7.455976588995846E-4 0.0 18272:1.0 19453:1.0 33683:1.0 33683:1.0 33700:1.0 33700:1.0 42437:1.0 42437:1.0 42437:1.0 42437:1.0 42437:1.0 42455:1.0 42455:1.0 42455:1.0 42455:1.0 42455:1.0 58427:1.0 65081:1.0 81564:1.0 81564:1.0 81564:1.0 81581:1.0 81581:1.0 81581:1.0 91049:1.0 91049:1.0 91067:1.0 91067:1.0 106270:1.0 118727:1.0 181079:1.0 187834:1.0 254399:1.0 259538:1.0 268509:1.0 296309:1.0 328023:1.0 332242:1.0 358044:1.0 367350:1.0 
6.847084425060061E-4 0.0022045168555164807 11058:1.0 22625:1.0 39108:1.0 39108:1.0 39108:1.0 39125:1.0 39125:1.0 39125:1.0 48593:1.0 48611:1.0 73362:1.0 76271:1.0 113252:1.0 145376:1.0 187307:1.0 217091:1.0 
4.1511394882164364E-5 0.0 9992:1.0 19466:1.0 61521:1.0 65079:1.0 91049:1.0 91067:1.0 117960:1.0 118727:1.0 160726:1.0 187834:1.0 223532:1.0 223532:1.0 223532:1.0 223550:1.0 223550:1.0 223550:1.0 258890:1.0 259537:1.0 276521:1.0 296317:1.0 305388:1.0 332243:1.0 338673:1.0 367355:1.0 
2.901273909246252E-6 0.0 9540:1.0 19466:1.0 51044:1.0 65088:1.0 116439:1.0 118727:1.0 184014:1.0 187834:1.0 231729:1.0 259545:1.0 269809:1.0 296306:1.0 304495:1.0 332236:1.0 366315:1.0 367353:1.0 
0.001966308242215069 0.0 11107:1.0 22633:1.0 59118:1.0 76271:1.0 141558:1.0 145378:1.0 181076:1.0 181094:1.0 189273:1.0 217089:1.0 227353:1.0 253850:1.0 262039:1.0 289780:1.0 323859:1.0 324897:1.0 
0.0049628785875274984 0.003198762686836112 7254:1.0 19456:1.0 53657:1.0 65089:1.0 94454:1.0 118727:1.0 163238:1.0 187839:1.0 223532:1.0 223550:1.0 234609:1.0 259545:1.0 276265:1.0 296319:1.0 314627:1.0 332245:1.0 335936:1.0 367360:1.0 
0.006773367829486329 0.0010420268020939056 15536:1.0 19453:1.0 33683:1.0 33700:1.0 42437:1.0 42455:1.0 52430:1.0 65086:1.0 115818:1.0 118727:1.0 152428:1.0 187840:1.0 231305:1.0 259533:1.0 289975:1.0 296320:1.0 328630:1.0 332244:1.0 353322:1.0 367360:1.0 
0.0060690946733589326 0.01184279563476274 16360:1.0 27659:1.0 82624:1.0 96773:1.0 132464:1.0 132482:1.0 138695:1.0 168479:1.0 
0.001970517331899971 0.0 2254:1.0 19455:1.0 64886:1.0 65081:1.0 81564:1.0 81564:1.0 81581:1.0 81581:1.0 115818:1.0 118727:1.0 185594:1.0 187828:1.0 223532:1.0 223550:1.0 238931:1.0 259538:1.0 279162:1.0 296320:1.0 309240:1.0 332234:1.0 362689:1.0 367358:1.0 
0.0016408160171314126 0.0 20244:1.0 22632:1.0 39108:1.0 39125:1.0 48593:1.0 48611:1.0 63814:1.0 76271:1.0 138118:1.0 145378:1.0 189273:1.0 217089:1.0 235950:1.0 253850:1.0 270339:1.0 289786:1.0 320252:1.0 324899:1.0 
0.0019536416224787702 0.0 24750:1.0 27659:1.0 50059:1.0 50076:1.0 60138:1.0 60156:1.0 89506:1.0 96766:1.0 132464:1.0 132482:1.0 140661:1.0 168477:1.0 187338:1.0 205238:1.0 221727:1.0 241174:1.0 271640:1.0 276287:1.0 
0.002628414051022745 9.92938089037386E-4 16559:1.0 22632:1.0 73884:1.0 76271:1.0 119412:1.0 145372:1.0 181076:1.0 181076:1.0 181076:1.0 181094:1.0 181094:1.0 181094:1.0 188815:1.0 217080:1.0 234065:1.0 253861:1.0 281214:1.0 289779:1.0 310650:1.0 324900:1.0 
2.2327847906111536E-4 0.001211917525749812 20209:1.0 27659:1.0 70800:1.0 96760:1.0 132464:1.0 132464:1.0 132464:1.0 132464:1.0 132482:1.0 132482:1.0 132482:1.0 132482:1.0 140203:1.0 168468:1.0 185453:1.0 205249:1.0 232602:1.0 241167:1.0 262038:1.0 276288:1.0 
0.003787772078260642 0.0014889338724173654 5605:1.0 19453:1.0 33683:1.0 33700:1.0 42437:1.0 42437:1.0 42437:1.0 42437:1.0 42437:1.0 42455:1.0 42455:1.0 42455:1.0 42455:1.0 42455:1.0 55709:1.0 65081:1.0 91049:1.0 91067:1.0 115818:1.0 118727:1.0 184853:1.0 187832:1.0 254634:1.0 259537:1.0 267140:1.0 296312:1.0 303510:1.0 332245:1.0 
0.0035303277889300816 3.381062927672123E-4 16087:1.0 22627:1.0 73362:1.0 76271:1.0 143905:1.0 145382:1.0 197503:1.0 217089:1.0 244634:1.0 253850:1.0 282053:1.0 289780:1.0 308340:1.0 324908:1.0 
0.005787466073088123 0.0021328099169901677 7792:1.0 22625:1.0 48593:1.0 48593:1.0 48593:1.0 48611:1.0 48611:1.0 48611:1.0 73362:1.0 76271:1.0 122403:1.0 145384:1.0 204911:1.0 217077:1.0 221206:1.0 253861:1.0 262932:1.0 289787:1.0 315304:1.0 324894:1.0 
0.0 0.002008051118027862 6030:1.0 19453:1.0 33683:1.0 33700:1.0 42437:1.0 42455:1.0 59303:1.0 65081:1.0 91049:1.0 91049:1.0 91067:1.0 91067:1.0 115818:1.0 118727:1.0 184286:1.0 187828:1.0 223532:1.0 223550:1.0 239303:1.0 259547:1.0 279162:1.0 296320:1.0 319774:1.0 332242:1.0 340959:1.0 367362:1.0 
1.782182657894094E-4 3.3326944473429553E-4 3358:1.0 19458:1.0 42437:1.0 42437:1.0 42437:1.0 42455:1.0 42455:1.0 42455:1.0 53548:1.0 65075:1.0 91049:1.0 91049:1.0 91067:1.0 91067:1.0 112638:1.0 118727:1.0 164801:1.0 187833:1.0 231271:1.0 259536:1.0 279162:1.0 296320:1.0 300189:1.0 332242:1.0 360620:1.0 367354:1.0 
0.0023603402272749765 0.0 3169:1.0 19453:1.0 42437:1.0 42455:1.0 64121:1.0 65079:1.0 99225:1.0 118727:1.0 186361:1.0 187838:1.0 239959:1.0 259545:1.0 295939:1.0 296306:1.0 304952:1.0 332234:1.0 351947:1.0 367362:1.0 
0.0018970886363185672 4.57739050927844E-4 17406:1.0 19465:1.0 55855:1.0 65085:1.0 93218:1.0 118727:1.0 141127:1.0 141144:1.0 156793:1.0 187828:1.0 223532:1.0 223550:1.0 254704:1.0 259538:1.0 279162:1.0 296320:1.0 331959:1.0 332234:1.0 345463:1.0 367354:1.0 
0.002698426505232924 0.0 10075:1.0 19466:1.0 61959:1.0 65079:1.0 114706:1.0 118727:1.0 167409:1.0 187828:1.0 223532:1.0 223532:1.0 223550:1.0 223550:1.0 239419:1.0 259544:1.0 285165:1.0 296306:1.0 317632:1.0 332234:1.0 350741:1.0 367350:1.0 
0.004614741882665199 0.0025291105246766387 7163:1.0 22625:1.0 39108:1.0 39125:1.0 48593:1.0 48593:1.0 48611:1.0 48611:1.0 59059:1.0 76271:1.0 98671:1.0 98688:1.0 122712:1.0 145376:1.0 188815:1.0 217080:1.0 227723:1.0 253862:1.0 285030:1.0 289779:1.0 307493:1.0 324900:1.0 
1.523715345073396E-4 0.0 13047:1.0 27659:1.0 92005:1.0 96766:1.0 134803:1.0 168478:1.0 185453:1.0 205249:1.0 218484:1.0 241175:1.0 251858:1.0 276282:1.0 
0.004458145859509264 7.681144855538123E-4 6948:1.0 27659:1.0 78799:1.0 96766:1.0 163566:1.0 168473:1.0 192554:1.0 205249:1.0 225487:1.0 241175:1.0 246880:1.0 276282:1.0 
0.0 0.0010437543368504798 16772:1.0 19460:1.0 45574:1.0 65075:1.0 91049:1.0 91049:1.0 91067:1.0 91067:1.0 93218:1.0 118727:1.0 184724:1.0 187833:1.0 236046:1.0 259545:1.0 279497:1.0 296306:1.0 302540:1.0 332241:1.0 337229:1.0 367356:1.0 
0.0014990800899837057 0.0 2952:1.0 19465:1.0 61959:1.0 65083:1.0 115818:1.0 118727:1.0 160551:1.0 187834:1.0 226070:1.0 259546:1.0 288573:1.0 296319:1.0 312795:1.0 332242:1.0 343698:1.0 367362:1.0 
0.0 0.0010345113363762145 5708:1.0 22625:1.0 48593:1.0 48593:1.0 48593:1.0 48593:1.0 48593:1.0 48611:1.0 48611:1.0 48611:1.0 48611:1.0 48611:1.0 50587:1.0 76271:1.0 137377:1.0 145385:1.0 196963:1.0 217088:1.0 229340:1.0 253862:1.0 281538:1.0 289780:1.0 299171:1.0 324894:1.0 
0.0 7.034941666993427E-4 7564:1.0 19453:1.0 42437:1.0 42455:1.0 51739:1.0 65075:1.0 91049:1.0 91067:1.0 115818:1.0 118727:1.0 182568:1.0 187828:1.0 223532:1.0 223532:1.0 223532:1.0 223532:1.0 223550:1.0 223550:1.0 223550:1.0 223550:1.0 254098:1.0 259547:1.0 272534:1.0 296317:1.0 306584:1.0 332243:1.0 358323:1.0 367350:1.0 
0.0 3.256450884634757E-4 16615:1.0 19453:1.0 33683:1.0 33700:1.0 42437:1.0 42437:1.0 42455:1.0 42455:1.0 57855:1.0 65080:1.0 81564:1.0 81564:1.0 81581:1.0 81581:1.0 91049:1.0 91049:1.0 91067:1.0 91067:1.0 114442:1.0 118727:1.0 154888:1.0 187833:1.0 252372:1.0 259547:1.0 
9.3564681213574E-4 0.0 7676:1.0 22623:1.0 39108:1.0 39108:1.0 39125:1.0 39125:1.0 48593:1.0 48593:1.0 48611:1.0 48611:1.0 73362:1.0 76271:1.0 114963:1.0 145378:1.0 181076:1.0 181094:1.0 181661:1.0 217081:1.0 230078:1.0 253861:1.0 267096:1.0 289787:1.0 293870:1.0 324894:1.0 
0.0019199312867018456 0.0 15195:1.0 27659:1.0 81699:1.0 96766:1.0 132464:1.0 132482:1.0 144295:1.0 168476:1.0 172121:1.0 205244:1.0 206986:1.0 241167:1.0 251066:1.0 276286:1.0 
0.0016944344780683313 0.0 10101:1.0 19453:1.0 33683:1.0 33700:1.0 42437:1.0 42455:1.0 60455:1.0 65085:1.0 105703:1.0 118727:1.0 172230:1.0 187828:1.0 223532:1.0 223550:1.0 242155:1.0 259533:1.0 267033:1.0 296320:1.0 
0.0019038541374452804 5.784184421346266E-4 17406:1.0 19465:1.0 62841:1.0 65085:1.0 112182:1.0 118727:1.0 158133:1.0 187834:1.0 224117:1.0 259537:1.0 276521:1.0 296317:1.0 308430:1.0 332243:1.0 363705:1.0 367350:1.0 
0.001807639663930203 7.756878533651051E-4 2457:1.0 19456:1.0 51153:1.0 65085:1.0 93737:1.0 118727:1.0 186110:1.0 187834:1.0 234883:1.0 259545:1.0 286601:1.0 296311:1.0 298867:1.0 332231:1.0 350796:1.0 367364:1.0 
0.003977210954097907 0.0 3986:1.0 27659:1.0 95042:1.0 96766:1.0 132464:1.0 132464:1.0 132464:1.0 132482:1.0 132482:1.0 132482:1.0 143815:1.0 168477:1.0 195533:1.0 205243:1.0 207799:1.0 241163:1.0 259728:1.0 276296:1.0 
0.0 3.5886455840709804E-4 7185:1.0 19453:1.0 42437:1.0 42437:1.0 42455:1.0 42455:1.0 61959:1.0 65079:1.0 91049:1.0 91067:1.0 108489:1.0 118727:1.0 177850:1.0 187828:1.0 223532:1.0 223532:1.0 223550:1.0 223550:1.0 258441:1.0 259536:1.0 276933:1.0 296306:1.0 315389:1.0 332245:1.0 340529:1.0 367353:1.0 
0.0 4.830421958382638E-4 4499:1.0 19453:1.0 42437:1.0 42437:1.0 42455:1.0 42455:1.0 50590:1.0 65080:1.0 81564:1.0 81564:1.0 81564:1.0 81581:1.0 81581:1.0 81581:1.0 102095:1.0 118727:1.0 160893:1.0 187833:1.0 242095:1.0 259547:1.0 286523:1.0 296306:1.0 322474:1.0 332231:1.0 350796:1.0 367364:1.0 
0.0011878257271438594 0.0 1622:1.0 19458:1.0 33683:1.0 33683:1.0 33683:1.0 33700:1.0 33700:1.0 33700:1.0 42437:1.0 42455:1.0 52334:1.0 65075:1.0 91049:1.0 91049:1.0 91049:1.0 91067:1.0 91067:1.0 91067:1.0 115818:1.0 118727:1.0 186361:1.0 187838:1.0 244430:1.0 259536:1.0 290712:1.0 296306:1.0 317632:1.0 332234:1.0 354940:1.0 367350:1.0 
1.0843272088076001E-4 0.0 19212:1.0 22625:1.0 39108:1.0 39108:1.0 39108:1.0 39125:1.0 39125:1.0 39125:1.0 48593:1.0 48611:1.0 56769:1.0 76271:1.0 143905:1.0 145382:1.0 181076:1.0 181094:1.0 199666:1.0 217086:1.0 227310:1.0 253850:1.0 261054:1.0 289789:1.0 
0.0070626121173296506 0.0028148289950877116 16772:1.0 19460:1.0 64985:1.0 65085:1.0 103024:1.0 118727:1.0 178845:1.0 187835:1.0 250517:1.0 259545:1.0 293177:1.0 296313:1.0 303510:1.0 332245:1.0 
0.0032585211903191223 0.0013789035715573415 25082:1.0 27659:1.0 85738:1.0 96766:1.0 151027:1.0 168479:1.0 201582:1.0 205251:1.0 206954:1.0 241169:1.0 269680:1.0 276286:1.0 
1.8361809530520945E-4 0.0 13617:1.0 19458:1.0 42437:1.0 42455:1.0 54164:1.0 65089:1.0 115818:1.0 118727:1.0 151765:1.0 187834:1.0 252578:1.0 259537:1.0 279162:1.0 296320:1.0 309552:1.0 332243:1.0 341639:1.0 367350:1.0 
0.0028047303134913462 3.0562303983712E-4 6215:1.0 22619:1.0 48593:1.0 48593:1.0 48611:1.0 48611:1.0 73362:1.0 76271:1.0 114976:1.0 145372:1.0 181076:1.0 181076:1.0 181094:1.0 181094:1.0 185848:1.0 217082:1.0 248500:1.0 253864:1.0 265717:1.0 289787:1.0 297570:1.0 324894:1.0 
0.0031354813447256736 0.0017169036258293008 6566:1.0 19453:1.0 33683:1.0 33700:1.0 42437:1.0 42455:1.0 47012:1.0 65085:1.0 114442:1.0 118727:1.0 162087:1.0 187841:1.0 239959:1.0 259545:1.0 288730:1.0 296306:1.0 303510:1.0 332245:1.0 
0.0 0.002378826848618557 6566:1.0 19453:1.0 33683:1.0 33700:1.0 42437:1.0 42455:1.0 47012:1.0 65085:1.0 99225:1.0 118727:1.0 151206:1.0 151224:1.0 179995:1.0 187828:1.0 223532:1.0 223550:1.0 229763:1.0 259547:1.0 
0.0 0.0030109848026009314 22383:1.0 22632:1.0 39108:1.0 39108:1.0 39125:1.0 39125:1.0 59639:1.0 76271:1.0 98671:1.0 98688:1.0 137539:1.0 145372:1.0 181076:1.0 181076:1.0 181076:1.0 181076:1.0 181076:1.0 181094:1.0 181094:1.0 181094:1.0 181094:1.0 181094:1.0 187307:1.0 217091:1.0 
0.0031317019449381995 0.0023609038219425844 5359:1.0 22622:1.0 75577:1.0 76271:1.0 142543:1.0 145378:1.0 181076:1.0 181076:1.0 181094:1.0 181094:1.0 199639:1.0 217091:1.0 245477:1.0 253858:1.0 281244:1.0 289785:1.0 295236:1.0 324900:1.0 
0.0013241597810204448 0.0 4241:1.0 19458:1.0 33683:1.0 33683:1.0 33700:1.0 33700:1.0 42437:1.0 42455:1.0 52142:1.0 65083:1.0 112919:1.0 118727:1.0 162269:1.0 187834:1.0 223532:1.0 223532:1.0 223532:1.0 223550:1.0 223550:1.0 223550:1.0 239419:1.0 259544:1.0 271796:1.0 296318:1.0 325381:1.0 332235:1.0 348247:1.0 367361:1.0 
0.00262997057933143 0.0 15500:1.0 19465:1.0 43955:1.0 65088:1.0 115818:1.0 118727:1.0 152287:1.0 187834:1.0 230562:1.0 259539:1.0 261488:1.0 296310:1.0 303510:1.0 332245:1.0 
2.8686015702342335E-4 0.0 17490:1.0 19460:1.0 60482:1.0 65088:1.0 92890:1.0 118727:1.0 152287:1.0 187834:1.0 223532:1.0 223550:1.0 230562:1.0 259539:1.0 261488:1.0 296310:1.0 303510:1.0 332245:1.0 
6.315698740817501E-4 0.0 20342:1.0 22627:1.0 70641:1.0 76271:1.0 109831:1.0 145378:1.0 181076:1.0 181076:1.0 181094:1.0 181094:1.0 188106:1.0 217083:1.0 219032:1.0 253854:1.0 261054:1.0 289789:1.0 
0.001482925922964756 0.0 21973:1.0 22632:1.0 50434:1.0 76271:1.0 132497:1.0 145378:1.0 181076:1.0 181076:1.0 181094:1.0 181094:1.0 181661:1.0 217081:1.0 231296:1.0 253863:1.0 261054:1.0 289789:1.0 
0.004793896276582601 0.0 26876:1.0 27659:1.0 83885:1.0 96766:1.0 132464:1.0 132464:1.0 132464:1.0 132482:1.0 132482:1.0 132482:1.0 133049:1.0 168469:1.0 182684:1.0 205251:1.0 212442:1.0 241177:1.0 
7.389059331730308E-4 0.0 14811:1.0 22625:1.0 39108:1.0 39108:1.0 39108:1.0 39125:1.0 39125:1.0 39125:1.0 48593:1.0 48593:1.0 48593:1.0 48611:1.0 48611:1.0 48611:1.0 51899:1.0 76271:1.0 136599:1.0 145378:1.0 181076:1.0 181094:1.0 193590:1.0 217089:1.0 248202:1.0 253850:1.0 272933:1.0 289789:1.0 316803:1.0 324902:1.0 
0.0013366270866210876 0.0 5348:1.0 19458:1.0 33683:1.0 33683:1.0 33700:1.0 33700:1.0 42437:1.0 42437:1.0 42455:1.0 42455:1.0 47659:1.0 65085:1.0 100553:1.0 118727:1.0 182776:1.0 187834:1.0 239419:1.0 259544:1.0 268192:1.0 296314:1.0 324324:1.0 332241:1.0 353012:1.0 367356:1.0 
0.00570227224182174 0.0024598702533831698 9987:1.0 27659:1.0 82229:1.0 96766:1.0 163566:1.0 168473:1.0 201582:1.0 205251:1.0 224321:1.0 241177:1.0 271621:1.0 276290:1.0 
9.17434136137858E-4 0.0 5609:1.0 22619:1.0 48593:1.0 48611:1.0 66241:1.0 76271:1.0 98671:1.0 98688:1.0 108750:1.0 108768:1.0 135208:1.0 145378:1.0 181076:1.0 181094:1.0 192153:1.0 217089:1.0 245065:1.0 253862:1.0 266748:1.0 289775:1.0 305244:1.0 324899:1.0 
6.202537068110907E-4 0.001643191827259258 3933:1.0 22625:1.0 39108:1.0 39108:1.0 39125:1.0 39125:1.0 48593:1.0 48611:1.0 52196:1.0 76271:1.0 135208:1.0 145378:1.0 193227:1.0 217077:1.0 228372:1.0 253862:1.0 261054:1.0 289789:1.0 
8.743575718722358E-4 0.0 10343:1.0 19458:1.0 42437:1.0 42437:1.0 42455:1.0 42455:1.0 59907:1.0 65085:1.0 113338:1.0 118727:1.0 185925:1.0 187828:1.0 223532:1.0 223550:1.0 246636:1.0 259544:1.0 271796:1.0 296318:1.0 321513:1.0 332231:1.0 350796:1.0 367364:1.0 
0.004430260680703285 0.003690237169245489 13625:1.0 19453:1.0 42437:1.0 42455:1.0 58651:1.0 65081:1.0 81564:1.0 81581:1.0 91049:1.0 91067:1.0 99699:1.0 118727:1.0 141127:1.0 141144:1.0 156182:1.0 187835:1.0 236357:1.0 259540:1.0 276521:1.0 296317:1.0 308173:1.0 332243:1.0 338244:1.0 367350:1.0 
9.067161828353192E-4 0.0 13047:1.0 27659:1.0 60760:1.0 96766:1.0 134929:1.0 168476:1.0 182139:1.0 205250:1.0 207296:1.0 241168:1.0 265768:1.0 276282:1.0 
4.861473128309289E-4 4.6844891531954227E-4 19051:1.0 19458:1.0 42437:1.0 42455:1.0 57799:1.0 65075:1.0 91049:1.0 91067:1.0 115818:1.0 118727:1.0 172513:1.0 187833:1.0 242010:1.0 259533:1.0 275263:1.0 296306:1.0 301921:1.0 332231:1.0 350796:1.0 367364:1.0 
7.101112159907892E-4 5.085842913480774E-4 14495:1.0 19458:1.0 42437:1.0 42437:1.0 42437:1.0 42455:1.0 42455:1.0 42455:1.0 49308:1.0 65075:1.0 91049:1.0 91049:1.0 91067:1.0 91067:1.0 92258:1.0 118727:1.0 183276:1.0 187833:1.0 254634:1.0 259537:1.0 270179:1.0 296310:1.0 317135:1.0 332241:1.0 338948:1.0 367356:1.0 
0.0070582741084550486 0.0010728557475400153 15202:1.0 27659:1.0 60138:1.0 60156:1.0 74413:1.0 96760:1.0 132464:1.0 132464:1.0 132482:1.0 132482:1.0 148351:1.0 168476:1.0 179103:1.0 205238:1.0 212101:1.0 241174:1.0 265751:1.0 276294:1.0 
0.002852026072860379 0.0016923356087180385 3330:1.0 19458:1.0 33683:1.0 33683:1.0 33683:1.0 33683:1.0 33700:1.0 33700:1.0 33700:1.0 33700:1.0 51255:1.0 65081:1.0 81564:1.0 81581:1.0 91049:1.0 91067:1.0 102095:1.0 118727:1.0 172206:1.0 187828:1.0 223532:1.0 223532:1.0 223550:1.0 223550:1.0 226296:1.0 259546:1.0 286606:1.0 296311:1.0 314627:1.0 332245:1.0 339112:1.0 367364:1.0 
0.0 4.7519875701225564E-4 715:1.0 19458:1.0 42437:1.0 42437:1.0 42437:1.0 42437:1.0 42455:1.0 42455:1.0 42455:1.0 42455:1.0 61959:1.0 65083:1.0 115818:1.0 118727:1.0 167331:1.0 187828:1.0 223532:1.0 223532:1.0 223550:1.0 223550:1.0 242095:1.0 259547:1.0 272888:1.0 296309:1.0 313323:1.0 332243:1.0 355232:1.0 367350:1.0 
5.969661487713981E-4 0.0 20476:1.0 27659:1.0 50059:1.0 50076:1.0 74332:1.0 96760:1.0 132464:1.0 132464:1.0 132464:1.0 132482:1.0 132482:1.0 132482:1.0 160039:1.0 168470:1.0 175620:1.0 205249:1.0 236418:1.0 241167:1.0 242692:1.0 276286:1.0 
0.0032585948562329206 0.0 8046:1.0 19458:1.0 33683:1.0 33683:1.0 33683:1.0 33700:1.0 33700:1.0 33700:1.0 42437:1.0 42455:1.0 61616:1.0 65089:1.0 92890:1.0 118727:1.0 161132:1.0 187834:1.0 246636:1.0 259544:1.0 270140:1.0 296306:1.0 308822:1.0 332236:1.0 355097:1.0 367361:1.0 
0.0 0.002153384687821233 22582:1.0 22626:1.0 39108:1.0 39108:1.0 39125:1.0 39125:1.0 48593:1.0 48593:1.0 48593:1.0 48611:1.0 48611:1.0 48611:1.0 65702:1.0 76271:1.0 125724:1.0 145372:1.0 181076:1.0 181094:1.0 187307:1.0 217091:1.0 
9.056468819346814E-5 0.0 18945:1.0 19453:1.0 33683:1.0 33700:1.0 42437:1.0 42455:1.0 53657:1.0 65089:1.0 93218:1.0 118727:1.0 180407:1.0 187833:1.0 241308:1.0 259547:1.0 277126:1.0 296312:1.0 330960:1.0 332242:1.0 352166:1.0 367350:1.0 
0.0027822927255740093 0.0 1132:1.0 22625:1.0 39108:1.0 39108:1.0 39108:1.0 39125:1.0 39125:1.0 39125:1.0 48593:1.0 48611:1.0 73362:1.0 76271:1.0 116090:1.0 145376:1.0 181076:1.0 181094:1.0 196963:1.0 217088:1.0 251625:1.0 253854:1.0 261054:1.0 289789:1.0 
5.962888938446071E-4 0.0011033559989760374 9300:1.0 19453:1.0 33683:1.0 33683:1.0 33700:1.0 33700:1.0 58764:1.0 65085:1.0 112919:1.0 118727:1.0 175928:1.0 187828:1.0 223532:1.0 223550:1.0 249112:1.0 259546:1.0 294264:1.0 296311:1.0 304952:1.0 332234:1.0 355097:1.0 367361:1.0 
0.002046681711218892 0.0 3687:1.0 22626:1.0 73362:1.0 76271:1.0 116351:1.0 145378:1.0 196887:1.0 217081:1.0 224577:1.0 253864:1.0 
6.91638170123381E-4 0.0 3145:1.0 19459:1.0 45734:1.0 65079:1.0 81564:1.0 81564:1.0 81581:1.0 81581:1.0 91049:1.0 91067:1.0 115818:1.0 118727:1.0 180414:1.0 187834:1.0 235829:1.0 259537:1.0 267033:1.0 296320:1.0 
0.0017974635709076035 0.0019214725953720037 12337:1.0 19458:1.0 33683:1.0 33683:1.0 33700:1.0 33700:1.0 42437:1.0 42455:1.0 52395:1.0 65081:1.0 105703:1.0 118727:1.0 168903:1.0 187828:1.0 223532:1.0 223532:1.0 223550:1.0 223550:1.0 255759:1.0 259538:1.0 268509:1.0 296309:1.0 322068:1.0 332237:1.0 339112:1.0 367364:1.0 
0.0016211144987049388 9.480678145652928E-4 15628:1.0 22625:1.0 39108:1.0 39108:1.0 39125:1.0 39125:1.0 73362:1.0 76271:1.0 137668:1.0 145372:1.0 181076:1.0 181076:1.0 181094:1.0 181094:1.0 192950:1.0 217082:1.0 249024:1.0 253854:1.0 289158:1.0 289779:1.0 295607:1.0 324900:1.0 
0.0013871581907226038 0.0 17104:1.0 19456:1.0 33683:1.0 33700:1.0 42437:1.0 42455:1.0 60203:1.0 65075:1.0 81564:1.0 81581:1.0 91049:1.0 91067:1.0 115818:1.0 118727:1.0 187546:1.0 187834:1.0 252660:1.0 259546:1.0 283622:1.0 296317:1.0 308173:1.0 332243:1.0 350732:1.0 367350:1.0 
0.001276236575192995 5.733100874526542E-4 4238:1.0 19458:1.0 42437:1.0 42455:1.0 49022:1.0 65075:1.0 96658:1.0 118727:1.0 186481:1.0 187833:1.0 254634:1.0 259537:1.0 272407:1.0 296312:1.0 329553:1.0 332242:1.0 343698:1.0 367362:1.0 
0.001173712992144218 0.0014844404187150172 9987:1.0 27659:1.0 88850:1.0 96766:1.0 163566:1.0 168473:1.0 182139:1.0 205250:1.0 233840:1.0 241163:1.0 261915:1.0 276292:1.0 
0.003206677357544866 0.0015501724379557073 16214:1.0 27659:1.0 50059:1.0 50059:1.0 50059:1.0 50076:1.0 50076:1.0 50076:1.0 80757:1.0 96766:1.0 132464:1.0 132464:1.0 132482:1.0 132482:1.0 144295:1.0 168476:1.0 198514:1.0 205244:1.0 206986:1.0 241167:1.0 248044:1.0 276296:1.0 
2.2754799510662237E-5 0.0 17406:1.0 19465:1.0 60076:1.0 65085:1.0 111939:1.0 118727:1.0 180117:1.0 187828:1.0 223532:1.0 223550:1.0 239419:1.0 259544:1.0 295698:1.0 296318:1.0 299113:1.0 332231:1.0 339112:1.0 367364:1.0 
0.0015915053948677362 0.0 19340:1.0 22619:1.0 39108:1.0 39125:1.0 48593:1.0 48611:1.0 73362:1.0 76271:1.0 137661:1.0 145372:1.0 181076:1.0 181076:1.0 181076:1.0 181094:1.0 181094:1.0 181094:1.0 196963:1.0 217088:1.0 253242:1.0 253862:1.0 256657:1.0 289775:1.0 296656:1.0 324908:1.0 
0.003021853675604092 0.0 2989:1.0 22627:1.0 73884:1.0 76271:1.0 108750:1.0 108768:1.0 133830:1.0 145378:1.0 181076:1.0 181094:1.0 192907:1.0 217088:1.0 230751:1.0 253862:1.0 270339:1.0 289786:1.0 301242:1.0 324906:1.0 
0.0024581210093750443 0.0015642554219257355 3533:1.0 19458:1.0 42437:1.0 42437:1.0 42455:1.0 42455:1.0 61959:1.0 65083:1.0 108078:1.0 118727:1.0 151206:1.0 151206:1.0 151224:1.0 151224:1.0 180124:1.0 187828:1.0 223532:1.0 223532:1.0 223532:1.0 223532:1.0 223550:1.0 223550:1.0 223550:1.0 223550:1.0 257468:1.0 259538:1.0 267033:1.0 296320:1.0 
0.004721112611739886 3.973125246860576E-4 2254:1.0 19455:1.0 60861:1.0 65088:1.0 115818:1.0 118727:1.0 160813:1.0 187832:1.0 251350:1.0 259543:1.0 291582:1.0 296314:1.0 327138:1.0 332238:1.0 345057:1.0 367354:1.0 
0.0028112743003461393 7.15809559365349E-4 2630:1.0 22622:1.0 71092:1.0 76271:1.0 118357:1.0 145376:1.0 181076:1.0 181094:1.0 208894:1.0 217087:1.0 249126:1.0 253858:1.0 284682:1.0 289782:1.0 302601:1.0 324898:1.0 
0.002453315013073002 0.0010759023253013884 3934:1.0 19460:1.0 63127:1.0 65088:1.0 115068:1.0 118727:1.0 160813:1.0 187832:1.0 249443:1.0 259543:1.0 278387:1.0 296320:1.0 326808:1.0 332235:1.0 350797:1.0 367356:1.0 
0.0019402993738950323 9.4845263136592E-4 4581:1.0 19455:1.0 47058:1.0 65083:1.0 116340:1.0 118727:1.0 160813:1.0 187832:1.0 223532:1.0 223550:1.0 249443:1.0 259543:1.0 278387:1.0 296320:1.0 326808:1.0 332235:1.0 350797:1.0 367356:1.0 
4.1961871705519244E-5 0.0 14221:1.0 19458:1.0 33683:1.0 33700:1.0 42437:1.0 42437:1.0 42437:1.0 42437:1.0 42437:1.0 42455:1.0 42455:1.0 42455:1.0 42455:1.0 42455:1.0 54164:1.0 65089:1.0 118250:1.0 118727:1.0 183631:1.0 187835:1.0 223532:1.0 223550:1.0 251021:1.0 259541:1.0 283622:1.0 296317:1.0 310114:1.0 332238:1.0 350796:1.0 367364:1.0 
6.279882899768736E-4 2.1658712461007163E-4 8304:1.0 19460:1.0 55920:1.0 65081:1.0 81564:1.0 81581:1.0 115818:1.0 118727:1.0 160222:1.0 187834:1.0 228137:1.0 259546:1.0 276446:1.0 296310:1.0 304952:1.0 332234:1.0 350796:1.0 367364:1.0 
0.0015600551795723334 0.0011825804340462587 5502:1.0 22625:1.0 48593:1.0 48593:1.0 48593:1.0 48593:1.0 48611:1.0 48611:1.0 48611:1.0 48611:1.0 52135:1.0 76271:1.0 124837:1.0 145376:1.0 188815:1.0 217080:1.0 236706:1.0 253864:1.0 266798:1.0 289781:1.0 299678:1.0 324898:1.0 
0.0 8.956066353800805E-4 17155:1.0 19453:1.0 42437:1.0 42437:1.0 42455:1.0 42455:1.0 63446:1.0 65081:1.0 81564:1.0 81564:1.0 81581:1.0 81581:1.0 91049:1.0 91049:1.0 91049:1.0 91049:1.0 91067:1.0 91067:1.0 91067:1.0 91067:1.0 117960:1.0 118727:1.0 163097:1.0 187834:1.0 241170:1.0 259547:1.0 271796:1.0 296318:1.0 312443:1.0 332236:1.0 347662:1.0 367350:1.0 
1.183764770260383E-4 0.0 24937:1.0 27659:1.0 73994:1.0 96766:1.0 132464:1.0 132482:1.0 145941:1.0 168465:1.0 181466:1.0 205249:1.0 218484:1.0 241175:1.0 274188:1.0 276282:1.0 
6.498900464850614E-4 0.0 25082:1.0 27659:1.0 50059:1.0 50076:1.0 63093:1.0 96766:1.0 132464:1.0 132482:1.0 143351:1.0 168471:1.0 180997:1.0 205250:1.0 220487:1.0 241168:1.0 253868:1.0 276282:1.0 
2.921517308758894E-4 0.0 6302:1.0 19463:1.0 33683:1.0 33683:1.0 33683:1.0 33683:1.0 33683:1.0 33683:1.0 33683:1.0 33700:1.0 33700:1.0 33700:1.0 33700:1.0 33700:1.0 33700:1.0 33700:1.0 64114:1.0 65075:1.0 81564:1.0 81564:1.0 81564:1.0 81581:1.0 81581:1.0 81581:1.0 91049:1.0 91067:1.0 115818:1.0 118727:1.0 165193:1.0 187828:1.0 223532:1.0 223532:1.0 223532:1.0 223550:1.0 223550:1.0 223550:1.0 239419:1.0 259544:1.0 262668:1.0 296306:1.0 302632:1.0 332242:1.0 341532:1.0 367356:1.0 
0.0032672181997105134 7.996197619295112E-4 16772:1.0 19456:1.0 50206:1.0 65075:1.0 91049:1.0 91067:1.0 93218:1.0 118727:1.0 187307:1.0 187841:1.0 229511:1.0 259539:1.0 265346:1.0 296313:1.0 315389:1.0 332245:1.0 342134:1.0 367362:1.0 
1.279203655031937E-4 0.0 7859:1.0 22623:1.0 39108:1.0 39125:1.0 73362:1.0 76271:1.0 127806:1.0 145377:1.0 181076:1.0 181094:1.0 196963:1.0 217088:1.0 249024:1.0 253858:1.0 286174:1.0 289788:1.0 309132:1.0 324904:1.0 
0.011312757337804543 0.0018460142244502435 8551:1.0 19463:1.0 61959:1.0 65083:1.0 115818:1.0 118727:1.0 170914:1.0 187838:1.0 254382:1.0 259546:1.0 277056:1.0 296318:1.0 300287:1.0 332231:1.0 355097:1.0 367361:1.0 
0.00176903198305922 2.6940439246358984E-4 18663:1.0 19453:1.0 42437:1.0 42437:1.0 42455:1.0 42455:1.0 61959:1.0 65079:1.0 104733:1.0 118727:1.0 141127:1.0 141144:1.0 160570:1.0 187834:1.0 223532:1.0 223532:1.0 223550:1.0 223550:1.0 225510:1.0 259533:1.0 268509:1.0 296309:1.0 327586:1.0 332239:1.0 335980:1.0 367356:1.0 
0.004917935238398133 0.0 12450:1.0 22632:1.0 70634:1.0 76271:1.0 98671:1.0 98671:1.0 98688:1.0 98688:1.0 108750:1.0 108768:1.0 134699:1.0 145378:1.0 181076:1.0 181094:1.0 192907:1.0 217088:1.0 226501:1.0 253862:1.0 277925:1.0 289775:1.0 305791:1.0 324905:1.0 
0.002323850596227133 6.573953750140005E-5 9598:1.0 19458:1.0 33683:1.0 33700:1.0 61959:1.0 65083:1.0 113090:1.0 118727:1.0 141127:1.0 141127:1.0 141144:1.0 141144:1.0 186454:1.0 187834:1.0 223532:1.0 223532:1.0 223550:1.0 223550:1.0 254098:1.0 259547:1.0 278387:1.0 296320:1.0 299546:1.0 332235:1.0 343338:1.0 367363:1.0 
0.001265989693366384 0.0 9627:1.0 19466:1.0 43804:1.0 65079:1.0 99225:1.0 118727:1.0 154539:1.0 187834:1.0 243614:1.0 259533:1.0 268509:1.0 296309:1.0 307888:1.0 332231:1.0 338659:1.0 367355:1.0 
0.0019069708942539606 0.0 16772:1.0 19456:1.0 48534:1.0 65075:1.0 91049:1.0 91067:1.0 99225:1.0 118727:1.0 169077:1.0 187834:1.0 236046:1.0 259545:1.0 290163:1.0 296306:1.0 315389:1.0 332245:1.0 353599:1.0 367356:1.0 
9.518168428150161E-4 0.0 16772:1.0 19460:1.0 63127:1.0 65088:1.0 115818:1.0 118727:1.0 186361:1.0 187838:1.0 242838:1.0 259533:1.0 267033:1.0 296320:1.0 
0.0018444424640886707 0.0 14083:1.0 22625:1.0 50762:1.0 76271:1.0 122303:1.0 145372:1.0 196963:1.0 217088:1.0 227723:1.0 253862:1.0 285030:1.0 289779:1.0 320792:1.0 324900:1.0 
1.7536054675807678E-4 0.0 6302:1.0 19463:1.0 33683:1.0 33683:1.0 33683:1.0 33683:1.0 33683:1.0 33683:1.0 33700:1.0 33700:1.0 33700:1.0 33700:1.0 33700:1.0 33700:1.0 49415:1.0 65081:1.0 81564:1.0 81564:1.0 81581:1.0 81581:1.0 91049:1.0 91049:1.0 91049:1.0 91067:1.0 91067:1.0 91067:1.0 103458:1.0 118727:1.0 183468:1.0 187834:1.0 246636:1.0 259544:1.0 271796:1.0 296318:1.0 312795:1.0 332242:1.0 347816:1.0 367357:1.0 
0.004114048455494501 0.0013114085051884798 16772:1.0 19460:1.0 55224:1.0 65075:1.0 91049:1.0 91049:1.0 91067:1.0 91067:1.0 115818:1.0 118727:1.0 172434:1.0 187838:1.0 242838:1.0 259533:1.0 279162:1.0 296320:1.0 324001:1.0 332239:1.0 345631:1.0 367362:1.0 
0.006754278413907472 0.0 10753:1.0 27659:1.0 81366:1.0 96770:1.0 132464:1.0 132464:1.0 132464:1.0 132482:1.0 132482:1.0 132482:1.0 151770:1.0 168465:1.0 188094:1.0 205252:1.0 232933:1.0 241171:1.0 254563:1.0 276294:1.0 
0.005447315558367105 0.0 5359:1.0 22622:1.0 63814:1.0 76271:1.0 98671:1.0 98688:1.0 108750:1.0 108768:1.0 114023:1.0 145372:1.0 181076:1.0 181094:1.0 196963:1.0 217088:1.0 245595:1.0 253855:1.0 261054:1.0 289789:1.0 
0.005308013955183088 0.002997414780345542 11201:1.0 22633:1.0 61659:1.0 76271:1.0 135900:1.0 145376:1.0 181076:1.0 181094:1.0 198852:1.0 217091:1.0 247418:1.0 253856:1.0 256691:1.0 289781:1.0 318726:1.0 324906:1.0 
2.8478906397943815E-4 0.0 7755:1.0 22625:1.0 39108:1.0 39108:1.0 39108:1.0 39125:1.0 39125:1.0 39125:1.0 48593:1.0 48593:1.0 48593:1.0 48611:1.0 48611:1.0 48611:1.0 73362:1.0 76271:1.0 143842:1.0 145378:1.0 181076:1.0 181076:1.0 181094:1.0 181094:1.0 181661:1.0 217081:1.0 243424:1.0 253862:1.0 284906:1.0 289775:1.0 307594:1.0 324908:1.0 
0.0018158852120853546 0.0 5359:1.0 22622:1.0 73884:1.0 76271:1.0 110033:1.0 145378:1.0 181076:1.0 181094:1.0 192907:1.0 217088:1.0 229340:1.0 253862:1.0 275571:1.0 289775:1.0 305791:1.0 324905:1.0 
0.003311164308812891 0.0 12685:1.0 19458:1.0 33683:1.0 33700:1.0 45769:1.0 65086:1.0 115818:1.0 118727:1.0 184452:1.0 187834:1.0 232972:1.0 259537:1.0 267033:1.0 296320:1.0 
0.006153728778941782 0.0 18427:1.0 27659:1.0 50059:1.0 50059:1.0 50059:1.0 50076:1.0 50076:1.0 50076:1.0 60138:1.0 60138:1.0 60156:1.0 60156:1.0 75493:1.0 96766:1.0 132464:1.0 132482:1.0 144295:1.0 168476:1.0 198855:1.0 205250:1.0 214608:1.0 241163:1.0 259728:1.0 276296:1.0 
8.720169967817542E-4 8.387967647147801E-5 9627:1.0 19466:1.0 55401:1.0 65077:1.0 81564:1.0 81581:1.0 115818:1.0 118727:1.0 154292:1.0 187828:1.0 223532:1.0 223550:1.0 241308:1.0 259547:1.0 285703:1.0 296310:1.0 304612:1.0 332237:1.0 350050:1.0 367364:1.0 
0.004320010199281844 0.0 18427:1.0 27659:1.0 50059:1.0 50076:1.0 60138:1.0 60138:1.0 60156:1.0 60156:1.0 67651:1.0 96766:1.0 132464:1.0 132482:1.0 138344:1.0 168476:1.0 185636:1.0 205243:1.0 224741:1.0 241163:1.0 258982:1.0 276296:1.0 
0.002616914984621321 0.0016826656429278985 11226:1.0 22633:1.0 66758:1.0 76271:1.0 112114:1.0 145377:1.0 199639:1.0 217091:1.0 248441:1.0 253863:1.0 281691:1.0 289780:1.0 308340:1.0 324908:1.0 
4.7008097120488106E-5 4.1723820582151137E-4 2088:1.0 22624:1.0 39108:1.0 39125:1.0 48593:1.0 48593:1.0 48611:1.0 48611:1.0 71986:1.0 76271:1.0 136867:1.0 145377:1.0 199639:1.0 217091:1.0 248441:1.0 253863:1.0 257967:1.0 289780:1.0 301474:1.0 324908:1.0 
0.0 2.2195374335929878E-4 16823:1.0 19460:1.0 60566:1.0 65081:1.0 101071:1.0 118727:1.0 154835:1.0 187833:1.0 242095:1.0 259547:1.0 260931:1.0 296312:1.0 300164:1.0 332244:1.0 338154:1.0 367350:1.0 
6.600285827301121E-4 0.0 6477:1.0 27659:1.0 62679:1.0 96766:1.0 132464:1.0 132464:1.0 132482:1.0 132482:1.0 155939:1.0 168472:1.0 196865:1.0 205246:1.0 218484:1.0 241175:1.0 244476:1.0 276282:1.0 
3.1395169826486393E-4 0.0 13529:1.0 19458:1.0 42437:1.0 42437:1.0 42455:1.0 42455:1.0 61959:1.0 65083:1.0 115818:1.0 118727:1.0 159800:1.0 187834:1.0 223532:1.0 223550:1.0 253925:1.0 259537:1.0 281442:1.0 296316:1.0 299357:1.0 332237:1.0 338780:1.0 367361:1.0 
3.896136025024932E-4 8.299204547297103E-4 6948:1.0 27659:1.0 84714:1.0 96766:1.0 152237:1.0 168477:1.0 170926:1.0 205238:1.0 219552:1.0 241163:1.0 253335:1.0 276293:1.0 
0.0 1.6368862396089223E-4 13082:1.0 19458:1.0 33683:1.0 33683:1.0 33700:1.0 33700:1.0 42437:1.0 42455:1.0 46112:1.0 65086:1.0 93218:1.0 118727:1.0 184485:1.0 187828:1.0 254634:1.0 259541:1.0 291232:1.0 296319:1.0 304952:1.0 332234:1.0 345057:1.0 367362:1.0 
0.0060451343852306015 9.974217366100664E-4 9987:1.0 27659:1.0 87075:1.0 96766:1.0 152237:1.0 168477:1.0 198277:1.0 205238:1.0 221727:1.0 241174:1.0 247611:1.0 276289:1.0 
0.003961089864994564 0.004311673645377865 14319:1.0 19458:1.0 42437:1.0 42455:1.0 60599:1.0 65075:1.0 81564:1.0 81564:1.0 81564:1.0 81564:1.0 81581:1.0 81581:1.0 81581:1.0 81581:1.0 91049:1.0 91067:1.0 104960:1.0 118727:1.0 141127:1.0 141144:1.0 151206:1.0 151224:1.0 152244:1.0 187835:1.0 223532:1.0 223550:1.0 242095:1.0 259547:1.0 291480:1.0 296310:1.0 328630:1.0 332244:1.0 353322:1.0 367360:1.0 
0.005940174110560764 9.625018379560313E-4 14028:1.0 19462:1.0 61959:1.0 65083:1.0 116340:1.0 118727:1.0 179554:1.0 187834:1.0 226576:1.0 259538:1.0 293042:1.0 296312:1.0 307884:1.0 332231:1.0 339112:1.0 367364:1.0 
0.0014259549639556324 4.3449310278895653E-4 13401:1.0 22632:1.0 73362:1.0 76271:1.0 132168:1.0 145378:1.0 186956:1.0 217088:1.0 232746:1.0 253860:1.0 271589:1.0 289781:1.0 302601:1.0 324898:1.0 
2.2358816218032891E-4 0.0 16360:1.0 27659:1.0 83556:1.0 96766:1.0 132464:1.0 132482:1.0 138344:1.0 168476:1.0 184134:1.0 205248:1.0 222977:1.0 241169:1.0 253989:1.0 276286:1.0 
0.0 5.417184120746548E-4 16963:1.0 22631:1.0 50762:1.0 76271:1.0 126791:1.0 145377:1.0 211929:1.0 217077:1.0 234065:1.0 253861:1.0 265428:1.0 289775:1.0 294821:1.0 324899:1.0 
0.001861870064418709 5.81325527933549E-4 467:1.0 19456:1.0 47030:1.0 65081:1.0 103060:1.0 118727:1.0 179284:1.0 187833:1.0 254634:1.0 259541:1.0 279162:1.0 296320:1.0 306935:1.0 332237:1.0 366099:1.0 367361:1.0 
0.0042944160673659484 0.009573411083603657 24970:1.0 27659:1.0 84500:1.0 96773:1.0 163030:1.0 168479:1.0 187319:1.0 205252:1.0 229304:1.0 241169:1.0 270965:1.0 276286:1.0 
5.14332010824163E-4 0.0 16772:1.0 19460:1.0 58764:1.0 65085:1.0 94591:1.0 118727:1.0 156844:1.0 187833:1.0 254634:1.0 259541:1.0 292650:1.0 296319:1.0 310223:1.0 332237:1.0 343950:1.0 367362:1.0 
0.0012905657670877599 5.810394118799959E-4 13047:1.0 27659:1.0 68199:1.0 96766:1.0 151908:1.0 168477:1.0 204178:1.0 205238:1.0 213577:1.0 241171:1.0 257267:1.0 276288:1.0 
0.0 3.687567876839509E-4 18709:1.0 19463:1.0 54933:1.0 65087:1.0 93218:1.0 118727:1.0 169629:1.0 187833:1.0 236191:1.0 259546:1.0 267033:1.0 296320:1.0 
0.0 9.43401937262612E-5 17682:1.0 19453:1.0 42437:1.0 42437:1.0 42437:1.0 42437:1.0 42455:1.0 42455:1.0 42455:1.0 42455:1.0 57632:1.0 65081:1.0 91049:1.0 91049:1.0 91049:1.0 91067:1.0 91067:1.0 91067:1.0 108078:1.0 118727:1.0 180432:1.0 187841:1.0 231271:1.0 259536:1.0 276521:1.0 296317:1.0 305388:1.0 332243:1.0 362689:1.0 367354:1.0 
0.001715653654706071 0.001010187187538594 13037:1.0 19458:1.0 33683:1.0 33683:1.0 33700:1.0 33700:1.0 42437:1.0 42437:1.0 42437:1.0 42455:1.0 42455:1.0 42455:1.0 61959:1.0 65079:1.0 91049:1.0 91049:1.0 91067:1.0 91067:1.0 99225:1.0 118727:1.0 168902:1.0 187828:1.0 223532:1.0 223550:1.0 250336:1.0 259539:1.0 291709:1.0 296319:1.0 313182:1.0 332231:1.0 355097:1.0 367361:1.0 
0.0028406252761536354 0.0022031492575815335 16961:1.0 27659:1.0 60138:1.0 60156:1.0 72039:1.0 96766:1.0 157723:1.0 168465:1.0 185453:1.0 205249:1.0 239538:1.0 241175:1.0 249891:1.0 276294:1.0 
0.00353302863198704 0.0012401692126119376 4332:1.0 19464:1.0 61959:1.0 65079:1.0 93218:1.0 118727:1.0 159071:1.0 187828:1.0 224193:1.0 259539:1.0 292920:1.0 296316:1.0 305388:1.0 332243:1.0 347012:1.0 367350:1.0 
1.3810212795854792E-4 0.0 11720:1.0 19458:1.0 33683:1.0 33700:1.0 42437:1.0 42437:1.0 42437:1.0 42455:1.0 42455:1.0 42455:1.0 48163:1.0 65080:1.0 81564:1.0 81564:1.0 81564:1.0 81581:1.0 81581:1.0 81581:1.0 91049:1.0 91049:1.0 91067:1.0 91067:1.0 115818:1.0 118727:1.0 151877:1.0 187834:1.0 243970:1.0 259545:1.0 278792:1.0 296306:1.0 324001:1.0 332239:1.0 340959:1.0 367362:1.0 
0.006277553587929956 0.0037710471335425087 18146:1.0 27659:1.0 86879:1.0 96765:1.0 155480:1.0 168475:1.0 188564:1.0 205244:1.0 240546:1.0 241167:1.0 252630:1.0 276294:1.0 
0.0 3.881376920346893E-4 2814:1.0 19456:1.0 33683:1.0 33700:1.0 54164:1.0 65089:1.0 94591:1.0 118727:1.0 181859:1.0 187828:1.0 223532:1.0 223532:1.0 223550:1.0 223550:1.0 242095:1.0 259547:1.0 296171:1.0 296316:1.0 309552:1.0 332243:1.0 361099:1.0 367355:1.0 
0.00568673350790742 2.237204218050863E-4 14842:1.0 27659:1.0 50059:1.0 50059:1.0 50076:1.0 50076:1.0 92881:1.0 96760:1.0 148351:1.0 168476:1.0 180728:1.0 205250:1.0 228181:1.0 241170:1.0 249314:1.0 276289:1.0 
0.004513888382473303 0.0018318103314799786 20179:1.0 22619:1.0 39108:1.0 39125:1.0 48593:1.0 48611:1.0 70641:1.0 76271:1.0 135899:1.0 145372:1.0 181076:1.0 181076:1.0 181076:1.0 181094:1.0 181094:1.0 181094:1.0 212178:1.0 217081:1.0 226570:1.0 253856:1.0 281545:1.0 289783:1.0 302601:1.0 324906:1.0 
6.901442976122251E-5 7.46002283134947E-4 10510:1.0 19462:1.0 53965:1.0 65085:1.0 108078:1.0 118727:1.0 141127:1.0 141144:1.0 177797:1.0 187833:1.0 236046:1.0 259545:1.0 262572:1.0 296311:1.0 311948:1.0 332231:1.0 348247:1.0 367361:1.0 
2.818216339727629E-4 0.0 1014:1.0 19463:1.0 33683:1.0 33700:1.0 55347:1.0 65079:1.0 115818:1.0 118727:1.0 182592:1.0 187828:1.0 223532:1.0 223532:1.0 223550:1.0 223550:1.0 254772:1.0 259538:1.0 279162:1.0 296320:1.0 331959:1.0 332234:1.0 345057:1.0 367362:1.0 
0.0 0.001463571904690077 7969:1.0 19458:1.0 33683:1.0 33683:1.0 33700:1.0 33700:1.0 42437:1.0 42437:1.0 42437:1.0 42437:1.0 42437:1.0 42437:1.0 42437:1.0 42437:1.0 42455:1.0 42455:1.0 42455:1.0 42455:1.0 42455:1.0 42455:1.0 42455:1.0 42455:1.0 47689:1.0 65075:1.0 91049:1.0 91049:1.0 91049:1.0 91067:1.0 91067:1.0 91067:1.0 108078:1.0 118727:1.0 154022:1.0 187841:1.0 250082:1.0 259538:1.0 268509:1.0 296309:1.0 309118:1.0 332236:1.0 339112:1.0 367364:1.0 
0.003006264150716589 0.0 15195:1.0 27659:1.0 92887:1.0 96766:1.0 144295:1.0 168476:1.0 177493:1.0 205244:1.0 237117:1.0 241163:1.0 252630:1.0 276294:1.0 
2.5020220095450563E-4 0.0 3934:1.0 19460:1.0 62700:1.0 65091:1.0 81564:1.0 81581:1.0 115818:1.0 118727:1.0 163132:1.0 187828:1.0 223532:1.0 223532:1.0 223550:1.0 223550:1.0 244430:1.0 259536:1.0 285395:1.0 296318:1.0 306402:1.0 332231:1.0 350796:1.0 367364:1.0 
0.0014466884384649627 7.270392501130939E-4 16126:1.0 19458:1.0 33683:1.0 33683:1.0 33700:1.0 33700:1.0 42437:1.0 42437:1.0 42455:1.0 42455:1.0 50063:1.0 65078:1.0 81564:1.0 81581:1.0 91049:1.0 91049:1.0 91049:1.0 91049:1.0 91067:1.0 91067:1.0 91067:1.0 91067:1.0 118043:1.0 118727:1.0 183639:1.0 187828:1.0 223532:1.0 223532:1.0 223550:1.0 223550:1.0 242095:1.0 259547:1.0 263962:1.0 296319:1.0 329880:1.0 332237:1.0 362689:1.0 367358:1.0 
9.765495871566805E-4 0.0013110156464081486 1677:1.0 19465:1.0 59122:1.0 65080:1.0 115818:1.0 118727:1.0 173665:1.0 187834:1.0 239343:1.0 259537:1.0 279162:1.0 296320:1.0 312370:1.0 332239:1.0 356819:1.0 367362:1.0 
3.8250225926885254E-4 0.0 21929:1.0 22625:1.0 39108:1.0 39108:1.0 39108:1.0 39125:1.0 39125:1.0 39125:1.0 48593:1.0 48611:1.0 51003:1.0 76271:1.0 131209:1.0 145378:1.0 181076:1.0 181076:1.0 181094:1.0 181094:1.0 196887:1.0 217081:1.0 236706:1.0 253864:1.0 269914:1.0 289783:1.0 314363:1.0 324906:1.0 
0.0033592619657900383 0.0 16772:1.0 19460:1.0 61171:1.0 65075:1.0 81564:1.0 81581:1.0 91049:1.0 91067:1.0 115818:1.0 118727:1.0 183347:1.0 187834:1.0 253962:1.0 259538:1.0 278230:1.0 296306:1.0 315389:1.0 332245:1.0 340529:1.0 367353:1.0 
4.5893244163315263E-4 0.0 15664:1.0 22625:1.0 39108:1.0 39108:1.0 39108:1.0 39125:1.0 39125:1.0 39125:1.0 48593:1.0 48593:1.0 48611:1.0 48611:1.0 51003:1.0 76271:1.0 141586:1.0 145378:1.0 193590:1.0 217089:1.0 239125:1.0 253850:1.0 270339:1.0 289786:1.0 313451:1.0 324907:1.0 
0.0017587116947381542 6.422517375260608E-5 8551:1.0 19463:1.0 53657:1.0 65089:1.0 115818:1.0 118727:1.0 167293:1.0 187832:1.0 223532:1.0 223550:1.0 242095:1.0 259547:1.0 295007:1.0 296317:1.0 330946:1.0 332238:1.0 350050:1.0 367364:1.0 
2.7284044799819155E-4 0.0 8500:1.0 19456:1.0 33683:1.0 33683:1.0 33683:1.0 33700:1.0 33700:1.0 33700:1.0 42437:1.0 42437:1.0 42437:1.0 42437:1.0 42455:1.0 42455:1.0 42455:1.0 42455:1.0 53657:1.0 65089:1.0 115818:1.0 118727:1.0 169077:1.0 187834:1.0 256053:1.0 259533:1.0 278387:1.0 296320:1.0 315389:1.0 332245:1.0 350050:1.0 367364:1.0 
0.0 5.112393248278532E-4 17406:1.0 19465:1.0 58764:1.0 65085:1.0 93218:1.0 118727:1.0 141127:1.0 141144:1.0 177856:1.0 187828:1.0 223532:1.0 223550:1.0 241308:1.0 259547:1.0 267033:1.0 296320:1.0 
0.0 1.1079921941897486E-4 10490:1.0 19453:1.0 33683:1.0 33700:1.0 42437:1.0 42437:1.0 42455:1.0 42455:1.0 52430:1.0 65086:1.0 101787:1.0 118727:1.0 182700:1.0 187828:1.0 229763:1.0 259547:1.0 
0.004849378195480949 9.933851922152078E-4 3531:1.0 27659:1.0 94463:1.0 96766:1.0 143541:1.0 168477:1.0 175575:1.0 205245:1.0 239233:1.0 241170:1.0 259728:1.0 276296:1.0 
0.004494037384853424 0.0012687821723617657 4401:1.0 19458:1.0 33683:1.0 33683:1.0 33700:1.0 33700:1.0 42437:1.0 42455:1.0 54164:1.0 65089:1.0 115818:1.0 118727:1.0 162087:1.0 187841:1.0 246636:1.0 259544:1.0 294344:1.0 296313:1.0 315389:1.0 332245:1.0 345057:1.0 367362:1.0 
7.490346546219117E-4 0.0 12026:1.0 19458:1.0 33683:1.0 33683:1.0 33683:1.0 33683:1.0 33683:1.0 33683:1.0 33700:1.0 33700:1.0 33700:1.0 33700:1.0 33700:1.0 33700:1.0 42437:1.0 42455:1.0 54164:1.0 65089:1.0 92890:1.0 118727:1.0 167213:1.0 187833:1.0 242095:1.0 259547:1.0 291480:1.0 296314:1.0 318920:1.0 332237:1.0 344403:1.0 367361:1.0 
0.009065062631267396 0.007097019973232752 17429:1.0 27659:1.0 89129:1.0 96773:1.0 151027:1.0 168479:1.0 202845:1.0 205244:1.0 218484:1.0 241175:1.0 263684:1.0 276289:1.0 
0.0018202706193350057 0.00171830044327316 21851:1.0 27659:1.0 50059:1.0 50076:1.0 60138:1.0 60156:1.0 94282:1.0 96766:1.0 144978:1.0 168477:1.0 192203:1.0 205245:1.0 235903:1.0 241177:1.0 249162:1.0 276290:1.0 
0.0016395348147787054 4.6906083137806414E-5 17406:1.0 19465:1.0 58764:1.0 65085:1.0 99225:1.0 118727:1.0 154323:1.0 187835:1.0 223532:1.0 223550:1.0 237158:1.0 259540:1.0 279587:1.0 296320:1.0 323223:1.0 332235:1.0 357760:1.0 367360:1.0 
1.960013338950848E-4 0.0 4581:1.0 19455:1.0 59228:1.0 65079:1.0 115818:1.0 118727:1.0 154323:1.0 187835:1.0 223532:1.0 223532:1.0 223532:1.0 223550:1.0 223550:1.0 223550:1.0 237158:1.0 259540:1.0 279587:1.0 296320:1.0 323223:1.0 332235:1.0 357760:1.0 367360:1.0 
7.507434412582165E-4 0.0 20452:1.0 22625:1.0 48593:1.0 48593:1.0 48611:1.0 48611:1.0 68292:1.0 76271:1.0 144604:1.0 145377:1.0 208802:1.0 217088:1.0 249024:1.0 253858:1.0 255867:1.0 289779:1.0 302318:1.0 324900:1.0 
0.0022887003427125028 0.0 8365:1.0 19453:1.0 42437:1.0 42455:1.0 43873:1.0 65081:1.0 81564:1.0 81581:1.0 91049:1.0 91049:1.0 91067:1.0 91067:1.0 107164:1.0 118727:1.0 161990:1.0 187828:1.0 223532:1.0 223550:1.0 239419:1.0 259544:1.0 261530:1.0 296306:1.0 304952:1.0 332234:1.0 345578:1.0 367363:1.0 
0.0 3.954465255412492E-4 9755:1.0 22619:1.0 39108:1.0 39108:1.0 39125:1.0 39125:1.0 48593:1.0 48611:1.0 58615:1.0 76271:1.0 144114:1.0 145378:1.0 181076:1.0 181094:1.0 181942:1.0 217081:1.0 230078:1.0 253861:1.0 258522:1.0 289775:1.0 293104:1.0 324901:1.0 
5.828773512512277E-5 4.731407170085508E-4 11495:1.0 19458:1.0 33683:1.0 33700:1.0 42437:1.0 42437:1.0 42437:1.0 42455:1.0 42455:1.0 42455:1.0 64205:1.0 65086:1.0 93218:1.0 118727:1.0 156753:1.0 187828:1.0 254634:1.0 259537:1.0 261762:1.0 296310:1.0 310019:1.0 332237:1.0 359488:1.0 367361:1.0 
3.1377802308077516E-4 0.0 18698:1.0 19458:1.0 42437:1.0 42437:1.0 42455:1.0 42455:1.0 55846:1.0 65081:1.0 81564:1.0 81564:1.0 81564:1.0 81581:1.0 81581:1.0 81581:1.0 91049:1.0 91049:1.0 91067:1.0 91067:1.0 115818:1.0 118727:1.0 154131:1.0 187834:1.0 239343:1.0 259546:1.0 279162:1.0 296320:1.0 306584:1.0 332243:1.0 362689:1.0 367354:1.0 
6.293350859213859E-4 0.0 6477:1.0 27659:1.0 64839:1.0 96766:1.0 132464:1.0 132464:1.0 132464:1.0 132464:1.0 132464:1.0 132482:1.0 132482:1.0 132482:1.0 132482:1.0 132482:1.0 158706:1.0 168465:1.0 175620:1.0 205249:1.0 231673:1.0 241163:1.0 248044:1.0 276296:1.0 
0.0031932127967948917 0.0 10753:1.0 27659:1.0 93813:1.0 96766:1.0 132464:1.0 132464:1.0 132464:1.0 132482:1.0 132482:1.0 132482:1.0 138806:1.0 168465:1.0 200412:1.0 205246:1.0 237562:1.0 241176:1.0 260879:1.0 276286:1.0 
6.993805933263674E-4 0.0 2989:1.0 22627:1.0 39108:1.0 39125:1.0 75794:1.0 76271:1.0 116818:1.0 145378:1.0 181076:1.0 181076:1.0 181076:1.0 181076:1.0 181076:1.0 181076:1.0 181076:1.0 181094:1.0 181094:1.0 181094:1.0 181094:1.0 181094:1.0 181094:1.0 181094:1.0 192907:1.0 217088:1.0 229340:1.0 253862:1.0 289097:1.0 289782:1.0 308340:1.0 324908:1.0 
0.0022474799618263696 0.0 16360:1.0 27659:1.0 85437:1.0 96766:1.0 132464:1.0 132464:1.0 132482:1.0 132482:1.0 145469:1.0 168475:1.0 181466:1.0 205249:1.0 217105:1.0 241175:1.0 262727:1.0 276289:1.0 
0.0012578304006784645 1.8490560288417847E-4 9502:1.0 19458:1.0 33683:1.0 33683:1.0 33683:1.0 33683:1.0 33683:1.0 33700:1.0 33700:1.0 33700:1.0 33700:1.0 33700:1.0 42437:1.0 42437:1.0 42437:1.0 42455:1.0 42455:1.0 42455:1.0 61959:1.0 65083:1.0 92890:1.0 118727:1.0 151827:1.0 187828:1.0 223532:1.0 223532:1.0 223550:1.0 223550:1.0 239419:1.0 259544:1.0 293644:1.0 296312:1.0 306584:1.0 332235:1.0 356819:1.0 367362:1.0 
0.0 0.0016623690097446427 11751:1.0 19459:1.0 42437:1.0 42455:1.0 46888:1.0 65080:1.0 81564:1.0 81564:1.0 81581:1.0 81581:1.0 91049:1.0 91049:1.0 91049:1.0 91067:1.0 91067:1.0 91067:1.0 107164:1.0 118727:1.0 165578:1.0 187834:1.0 223532:1.0 223550:1.0 229763:1.0 259547:1.0 
0.0016953554004166007 0.0 17960:1.0 22623:1.0 73362:1.0 76271:1.0 118324:1.0 145378:1.0 186400:1.0 217088:1.0 233990:1.0 253850:1.0 285030:1.0 289783:1.0 316475:1.0 324898:1.0 
0.00878013903275271 0.003891466223429674 24937:1.0 27659:1.0 50059:1.0 50076:1.0 71100:1.0 96760:1.0 132464:1.0 132464:1.0 132482:1.0 132482:1.0 163030:1.0 168479:1.0 187319:1.0 205252:1.0 231406:1.0 241173:1.0 271621:1.0 276290:1.0 
0.007640629744388504 2.665052759138346E-4 14028:1.0 19462:1.0 61959:1.0 65083:1.0 115818:1.0 118727:1.0 186361:1.0 187838:1.0 247196:1.0 259538:1.0 285395:1.0 296318:1.0 312476:1.0 332231:1.0 338247:1.0 367361:1.0 
0.0010514027744751157 3.760876650190875E-4 8478:1.0 19466:1.0 47251:1.0 65078:1.0 108808:1.0 118727:1.0 153482:1.0 187833:1.0 229412:1.0 259544:1.0 271796:1.0 296318:1.0 311036:1.0 332231:1.0 356155:1.0 367355:1.0 
0.006073224313490859 0.002583491799480995 18146:1.0 27659:1.0 77121:1.0 96765:1.0 163566:1.0 168473:1.0 191812:1.0 205244:1.0 211158:1.0 241169:1.0 242953:1.0 276286:1.0 
7.330555771640456E-4 4.36724246568265E-4 7171:1.0 27659:1.0 50059:1.0 50076:1.0 86877:1.0 96766:1.0 163566:1.0 168473:1.0 179111:1.0 205242:1.0 230415:1.0 241169:1.0 244751:1.0 276295:1.0 
4.863411030431356E-4 0.0 3332:1.0 19460:1.0 44350:1.0 65077:1.0 103060:1.0 118727:1.0 174152:1.0 187833:1.0 254634:1.0 259541:1.0 286450:1.0 296319:1.0 303510:1.0 332245:1.0 
0.001274685044905439 0.0 5359:1.0 22622:1.0 50434:1.0 76271:1.0 109309:1.0 145378:1.0 212178:1.0 217085:1.0 236706:1.0 253864:1.0 260713:1.0 289786:1.0 296981:1.0 324906:1.0 
6.858597573221927E-4 0.0 1219:1.0 22631:1.0 50762:1.0 76271:1.0 131683:1.0 145377:1.0 210384:1.0 217083:1.0 242939:1.0 253862:1.0 288133:1.0 289775:1.0 301947:1.0 324905:1.0 
0.0021006524059590543 0.0 10506:1.0 27659:1.0 73369:1.0 96766:1.0 132464:1.0 132482:1.0 138344:1.0 168476:1.0 183489:1.0 205244:1.0 221727:1.0 241174:1.0 254729:1.0 276282:1.0 
0.002832640444914696 0.0012326892541507603 7514:1.0 19465:1.0 61959:1.0 65083:1.0 112919:1.0 118727:1.0 186361:1.0 187838:1.0 239959:1.0 259545:1.0 263438:1.0 296311:1.0 309292:1.0 332231:1.0 355097:1.0 367361:1.0 
0.00507945368084999 0.0 10753:1.0 27659:1.0 95293:1.0 96770:1.0 132464:1.0 132464:1.0 132482:1.0 132482:1.0 148891:1.0 168477:1.0 172370:1.0 205243:1.0 218224:1.0 241163:1.0 264029:1.0 276293:1.0 
0.0019450683607462724 7.780416055108597E-4 3229:1.0 19458:1.0 33683:1.0 33683:1.0 33700:1.0 33700:1.0 42437:1.0 42437:1.0 42455:1.0 42455:1.0 63866:1.0 65081:1.0 81564:1.0 81581:1.0 91049:1.0 91049:1.0 91067:1.0 91067:1.0 99225:1.0 118727:1.0 179570:1.0 187828:1.0 223532:1.0 223550:1.0 246520:1.0 259538:1.0 278387:1.0 296320:1.0 322474:1.0 332241:1.0 356819:1.0 367362:1.0 
9.316475726100412E-4 0.0 4185:1.0 19458:1.0 42437:1.0 42455:1.0 61959:1.0 65083:1.0 93218:1.0 118727:1.0 141127:1.0 141127:1.0 141127:1.0 141144:1.0 141144:1.0 141144:1.0 151206:1.0 151224:1.0 159169:1.0 187833:1.0 223532:1.0 223532:1.0 223532:1.0 223550:1.0 223550:1.0 223550:1.0 231271:1.0 259536:1.0 285576:1.0 296318:1.0 323494:1.0 332231:1.0 339112:1.0 367364:1.0 
2.526194299144654E-4 9.844748706432475E-4 1251:1.0 19457:1.0 42437:1.0 42437:1.0 42455:1.0 42455:1.0 44147:1.0 65075:1.0 91049:1.0 91049:1.0 91067:1.0 91067:1.0 101440:1.0 118727:1.0 178193:1.0 187833:1.0 223532:1.0 223550:1.0 231271:1.0 259536:1.0 280320:1.0 296311:1.0 312795:1.0 332242:1.0 365098:1.0 367357:1.0 
9.414816888187222E-4 0.0027787135191026154 11548:1.0 27659:1.0 87125:1.0 96765:1.0 151027:1.0 168479:1.0 204960:1.0 205241:1.0 239075:1.0 241168:1.0 263189:1.0 276295:1.0 
0.0036743248649477645 0.0018543398135762417 17729:1.0 19453:1.0 33683:1.0 33700:1.0 42437:1.0 42437:1.0 42455:1.0 42455:1.0 61959:1.0 65079:1.0 117960:1.0 118727:1.0 164287:1.0 187835:1.0 223532:1.0 223550:1.0 242095:1.0 259547:1.0 264235:1.0 296313:1.0 315389:1.0 332245:1.0 340529:1.0 367353:1.0 
2.249541223005743E-4 4.2799353746125047E-4 163:1.0 19461:1.0 42437:1.0 42455:1.0 61836:1.0 65081:1.0 81564:1.0 81564:1.0 81564:1.0 81564:1.0 81581:1.0 81581:1.0 81581:1.0 81581:1.0 91049:1.0 91049:1.0 91049:1.0 91067:1.0 91067:1.0 91067:1.0 100530:1.0 118727:1.0 179533:1.0 187828:1.0 242095:1.0 259547:1.0 261488:1.0 296310:1.0 300957:1.0 332241:1.0 347711:1.0 367356:1.0 
0.004982642526633573 0.0019208330847284665 24937:1.0 27659:1.0 50059:1.0 50059:1.0 50076:1.0 50076:1.0 72976:1.0 96760:1.0 132464:1.0 132464:1.0 132464:1.0 132464:1.0 132482:1.0 132482:1.0 132482:1.0 132482:1.0 151027:1.0 168479:1.0 172291:1.0 205243:1.0 212101:1.0 241174:1.0 252630:1.0 276294:1.0 
0.00938397925103755 0.008066257545885441 1363:1.0 19457:1.0 33683:1.0 33700:1.0 42437:1.0 42455:1.0 55196:1.0 65075:1.0 91049:1.0 91049:1.0 91067:1.0 91067:1.0 113090:1.0 118727:1.0 141127:1.0 141144:1.0 153740:1.0 187835:1.0 229208:1.0 259540:1.0 267033:1.0 296320:1.0 
0.005566960817826239 0.0045677555628434304 2155:1.0 19458:1.0 42437:1.0 42455:1.0 61009:1.0 65089:1.0 93459:1.0 118727:1.0 186487:1.0 187839:1.0 236525:1.0 259533:1.0 276406:1.0 296320:1.0 319774:1.0 332242:1.0 350722:1.0 367350:1.0 
0.0 7.208257749006453E-4 344:1.0 19458:1.0 42437:1.0 42455:1.0 47235:1.0 65075:1.0 91049:1.0 91067:1.0 95091:1.0 118727:1.0 178595:1.0 187833:1.0 242095:1.0 259547:1.0 291148:1.0 296311:1.0 315389:1.0 332245:1.0 356819:1.0 367362:1.0 
2.201178849180135E-5 0.0 5359:1.0 22622:1.0 58615:1.0 76271:1.0 127411:1.0 145378:1.0 181076:1.0 181076:1.0 181094:1.0 181094:1.0 212178:1.0 217085:1.0 229340:1.0 253862:1.0 281370:1.0 289782:1.0 306495:1.0 324904:1.0 
0.0043812652488494095 0.010091666299425579 14746:1.0 22626:1.0 39108:1.0 39108:1.0 39125:1.0 39125:1.0 62277:1.0 76271:1.0 98671:1.0 98688:1.0 134751:1.0 145372:1.0 181076:1.0 181094:1.0 187307:1.0 217091:1.0 
0.0013465275752939261 0.0 24015:1.0 27659:1.0 50059:1.0 50059:1.0 50076:1.0 50076:1.0 86486:1.0 96766:1.0 132464:1.0 132464:1.0 132482:1.0 132482:1.0 156308:1.0 168471:1.0 170420:1.0 205242:1.0 240110:1.0 241166:1.0 259728:1.0 276296:1.0 
0.003549891872061809 0.0 16756:1.0 27659:1.0 50059:1.0 50059:1.0 50076:1.0 50076:1.0 80985:1.0 96766:1.0 132464:1.0 132482:1.0 144295:1.0 168476:1.0 175706:1.0 205238:1.0 213884:1.0 241166:1.0 253335:1.0 276293:1.0 
0.002705113536553405 0.0 24015:1.0 27659:1.0 94282:1.0 96766:1.0 132464:1.0 132482:1.0 163566:1.0 168473:1.0 180997:1.0 205250:1.0 208815:1.0 241163:1.0 259728:1.0 276296:1.0 
0.0012279533067976144 0.0037531362999322962 6937:1.0 19458:1.0 42437:1.0 42437:1.0 42437:1.0 42437:1.0 42437:1.0 42437:1.0 42455:1.0 42455:1.0 42455:1.0 42455:1.0 42455:1.0 42455:1.0 63483:1.0 65075:1.0 81564:1.0 81564:1.0 81581:1.0 81581:1.0 91049:1.0 91067:1.0 114963:1.0 118727:1.0 141127:1.0 141127:1.0 141144:1.0 141144:1.0 151206:1.0 151224:1.0 186748:1.0 187828:1.0 223532:1.0 223550:1.0 229763:1.0 259547:1.0 
7.604796019442743E-5 0.0 11599:1.0 22625:1.0 39108:1.0 39108:1.0 39108:1.0 39125:1.0 39125:1.0 39125:1.0 48593:1.0 48593:1.0 48611:1.0 48611:1.0 74101:1.0 76271:1.0 114621:1.0 145378:1.0 199107:1.0 217077:1.0 253131:1.0 253855:1.0 285030:1.0 289779:1.0 302601:1.0 324898:1.0 
0.001613428212680513 0.0 7824:1.0 22619:1.0 48593:1.0 48611:1.0 54613:1.0 76271:1.0 140920:1.0 145377:1.0 212178:1.0 217081:1.0 222798:1.0 253856:1.0 277318:1.0 289786:1.0 296759:1.0 324904:1.0 
0.005851161052592015 0.003548735826313103 621:1.0 19458:1.0 42437:1.0 42437:1.0 42455:1.0 42455:1.0 57378:1.0 65075:1.0 91049:1.0 91067:1.0 115818:1.0 118727:1.0 167105:1.0 187841:1.0 231774:1.0 259538:1.0 276521:1.0 296317:1.0 308173:1.0 332243:1.0 345511:1.0 367350:1.0 
0.0 7.940020028789924E-4 621:1.0 19458:1.0 42437:1.0 42437:1.0 42455:1.0 42455:1.0 57378:1.0 65075:1.0 91049:1.0 91067:1.0 103060:1.0 118727:1.0 151206:1.0 151224:1.0 159588:1.0 187833:1.0 239419:1.0 259544:1.0 271796:1.0 296318:1.0 310017:1.0 332231:1.0 348247:1.0 367361:1.0 
0.008669330483591916 0.00325172271948796 13047:1.0 27659:1.0 85620:1.0 96760:1.0 132464:1.0 132482:1.0 163566:1.0 168473:1.0 201582:1.0 205251:1.0 206986:1.0 241167:1.0 271283:1.0 276288:1.0 
6.88725798747094E-5 0.0 10665:1.0 19464:1.0 56888:1.0 65080:1.0 81564:1.0 81581:1.0 114442:1.0 118727:1.0 167083:1.0 187833:1.0 240829:1.0 259533:1.0 281274:1.0 296311:1.0 303510:1.0 332245:1.0 
0.005244442413574986 0.001485145143564328 22549:1.0 22625:1.0 39108:1.0 39108:1.0 39108:1.0 39125:1.0 39125:1.0 39125:1.0 48593:1.0 48611:1.0 61413:1.0 76271:1.0 142358:1.0 145372:1.0 200380:1.0 217082:1.0 237131:1.0 253864:1.0 265717:1.0 289787:1.0 294092:1.0 324894:1.0 
0.0013964049229446662 0.0 8376:1.0 19458:1.0 33683:1.0 33683:1.0 33700:1.0 33700:1.0 42437:1.0 42437:1.0 42455:1.0 42455:1.0 61616:1.0 65089:1.0 92890:1.0 118727:1.0 159109:1.0 187834:1.0 223532:1.0 223550:1.0 224117:1.0 259537:1.0 271796:1.0 296318:1.0 304557:1.0 332231:1.0 350796:1.0 367364:1.0 
7.776512685793866E-4 0.0 8617:1.0 19453:1.0 42437:1.0 42455:1.0 60839:1.0 65075:1.0 91049:1.0 91049:1.0 91067:1.0 91067:1.0 109495:1.0 118727:1.0 157453:1.0 187833:1.0 254634:1.0 259537:1.0 281789:1.0 296316:1.0 319774:1.0 332242:1.0 345886:1.0 367350:1.0 
0.0011166260523320993 0.0012261613610584344 18638:1.0 19456:1.0 47134:1.0 65075:1.0 91049:1.0 91049:1.0 91067:1.0 91067:1.0 93737:1.0 118727:1.0 168531:1.0 187834:1.0 236677:1.0 259533:1.0 267033:1.0 296320:1.0 
9.752634009558531E-4 2.651875189964652E-4 7966:1.0 19458:1.0 33683:1.0 33700:1.0 42437:1.0 42437:1.0 42437:1.0 42455:1.0 42455:1.0 42455:1.0 61959:1.0 65083:1.0 117960:1.0 118727:1.0 168906:1.0 187834:1.0 223532:1.0 223532:1.0 223550:1.0 223550:1.0 235363:1.0 259544:1.0 273207:1.0 296318:1.0 331680:1.0 332231:1.0 348247:1.0 367361:1.0 
0.01436119491841655 0.003254852392153271 9987:1.0 27659:1.0 50059:1.0 50076:1.0 80682:1.0 96760:1.0 132464:1.0 132482:1.0 148239:1.0 168470:1.0 192554:1.0 205249:1.0 217105:1.0 241175:1.0 242992:1.0 276282:1.0 
5.588764487187307E-5 0.0 8551:1.0 19463:1.0 61959:1.0 65083:1.0 99225:1.0 118727:1.0 165803:1.0 187834:1.0 238877:1.0 259533:1.0 281848:1.0 296311:1.0 310576:1.0 332235:1.0 333874:1.0 367356:1.0 
5.998247511043816E-4 0.0 15521:1.0 19458:1.0 42437:1.0 42455:1.0 49363:1.0 65087:1.0 93218:1.0 118727:1.0 158820:1.0 187833:1.0 227863:1.0 259533:1.0 295340:1.0 296317:1.0 316086:1.0 332243:1.0 359369:1.0 367350:1.0 
2.795760941732464E-4 0.0 2618:1.0 19453:1.0 42437:1.0 42437:1.0 42455:1.0 42455:1.0 61959:1.0 65079:1.0 115818:1.0 118727:1.0 171633:1.0 187834:1.0 235719:1.0 259536:1.0 272534:1.0 296317:1.0 309552:1.0 332243:1.0 334793:1.0 367350:1.0 
4.999821499685846E-4 0.0 11787:1.0 22619:1.0 39108:1.0 39125:1.0 48593:1.0 48611:1.0 73362:1.0 76271:1.0 142894:1.0 145378:1.0 211469:1.0 217081:1.0 253715:1.0 253860:1.0 270339:1.0 289786:1.0 301242:1.0 324906:1.0 
8.314364467917896E-4 0.0 5054:1.0 19464:1.0 61959:1.0 65079:1.0 103458:1.0 118727:1.0 185350:1.0 187834:1.0 249443:1.0 259543:1.0 291480:1.0 296314:1.0 308173:1.0 332243:1.0 339079:1.0 367350:1.0 
0.0019420224825006326 5.907896858960894E-4 17595:1.0 19453:1.0 33683:1.0 33700:1.0 42437:1.0 42455:1.0 62342:1.0 65085:1.0 92890:1.0 118727:1.0 181504:1.0 187828:1.0 223532:1.0 223550:1.0 254634:1.0 259541:1.0 274394:1.0 296316:1.0 312795:1.0 332242:1.0 340536:1.0 367356:1.0 
0.0 6.014562226969594E-4 4103:1.0 19458:1.0 33683:1.0 33683:1.0 33683:1.0 33700:1.0 33700:1.0 33700:1.0 42437:1.0 42437:1.0 42437:1.0 42437:1.0 42437:1.0 42455:1.0 42455:1.0 42455:1.0 42455:1.0 42455:1.0 52008:1.0 65081:1.0 91049:1.0 91049:1.0 91049:1.0 91067:1.0 91067:1.0 91067:1.0 107164:1.0 118727:1.0 172197:1.0 187828:1.0 223532:1.0 223550:1.0 229763:1.0 259547:1.0 
4.899020540586776E-4 0.0 26746:1.0 27659:1.0 50059:1.0 50076:1.0 60809:1.0 96766:1.0 132464:1.0 132464:1.0 132482:1.0 132482:1.0 140360:1.0 168470:1.0 175620:1.0 205249:1.0 218484:1.0 241175:1.0 263801:1.0 276282:1.0 
0.0011359676413453816 0.0 23018:1.0 27659:1.0 50059:1.0 50059:1.0 50076:1.0 50076:1.0 83650:1.0 96766:1.0 132464:1.0 132464:1.0 132482:1.0 132482:1.0 162992:1.0 168477:1.0 191632:1.0 205238:1.0 217825:1.0 241174:1.0 252630:1.0 276294:1.0 
1.8804423263224022E-4 0.0 14028:1.0 19462:1.0 61959:1.0 65083:1.0 115818:1.0 118727:1.0 154948:1.0 187834:1.0 254098:1.0 259547:1.0 291582:1.0 296314:1.0 318555:1.0 332237:1.0 362689:1.0 367358:1.0 
0.0041276421015613 0.008405669511804839 16360:1.0 27659:1.0 84500:1.0 96773:1.0 132464:1.0 132482:1.0 151027:1.0 168479:1.0 180146:1.0 205240:1.0 224321:1.0 241177:1.0 264383:1.0 276284:1.0 
3.8105905516288874E-4 1.2807766309352085E-5 3281:1.0 19457:1.0 33683:1.0 33700:1.0 42437:1.0 42437:1.0 42437:1.0 42455:1.0 42455:1.0 42455:1.0 60529:1.0 65081:1.0 81564:1.0 81564:1.0 81581:1.0 81581:1.0 91049:1.0 91049:1.0 91049:1.0 91067:1.0 91067:1.0 91067:1.0 115393:1.0 118727:1.0 170088:1.0 187834:1.0 232972:1.0 259545:1.0 291480:1.0 296310:1.0 315390:1.0 332237:1.0 362181:1.0 367364:1.0 
0.0028316988331108972 5.878682333732234E-4 13047:1.0 27659:1.0 76828:1.0 96766:1.0 134803:1.0 168478:1.0 197099:1.0 205249:1.0 240228:1.0 241176:1.0 261930:1.0 276285:1.0 
0.002120978122551007 0.0 13047:1.0 27659:1.0 68505:1.0 96766:1.0 159488:1.0 168469:1.0 198855:1.0 205250:1.0 235612:1.0 241163:1.0 271379:1.0 276295:1.0 
0.0028550178742088516 0.0023856872640454284 2170:1.0 19458:1.0 53514:1.0 65081:1.0 91049:1.0 91049:1.0 91049:1.0 91049:1.0 91067:1.0 91067:1.0 91067:1.0 91067:1.0 93218:1.0 118727:1.0 141127:1.0 141144:1.0 187255:1.0 187828:1.0 223532:1.0 223550:1.0 241552:1.0 259538:1.0 279162:1.0 296320:1.0 308695:1.0 332236:1.0 340529:1.0 367353:1.0 
0.0 1.756829754606723E-4 5702:1.0 19458:1.0 33683:1.0 33683:1.0 33700:1.0 33700:1.0 42437:1.0 42437:1.0 42455:1.0 42455:1.0 49877:1.0 65081:1.0 91049:1.0 91067:1.0 93218:1.0 118727:1.0 152693:1.0 187828:1.0 254634:1.0 259541:1.0 280351:1.0 296318:1.0 312795:1.0 332242:1.0 345057:1.0 367362:1.0 
5.235929700017423E-4 1.5149506008883565E-4 5661:1.0 22632:1.0 50434:1.0 76271:1.0 109309:1.0 145378:1.0 212178:1.0 217085:1.0 234120:1.0 253857:1.0 285075:1.0 289782:1.0 315304:1.0 324904:1.0 
4.2561769020450096E-4 0.0 6948:1.0 27659:1.0 60697:1.0 96766:1.0 132464:1.0 132482:1.0 163566:1.0 168473:1.0 185508:1.0 205245:1.0 236463:1.0 241170:1.0 266692:1.0 276292:1.0 
2.824078541769215E-4 0.0 330:1.0 22625:1.0 39108:1.0 39108:1.0 39125:1.0 39125:1.0 48593:1.0 48593:1.0 48611:1.0 48611:1.0 74101:1.0 76271:1.0 109875:1.0 145377:1.0 181076:1.0 181094:1.0 212178:1.0 217085:1.0 221181:1.0 253863:1.0 270339:1.0 289786:1.0 295751:1.0 324898:1.0 
0.0 2.1795599015060987E-4 598:1.0 19457:1.0 42437:1.0 42437:1.0 42455:1.0 42455:1.0 61959:1.0 65083:1.0 93218:1.0 118727:1.0 141127:1.0 141144:1.0 154070:1.0 187834:1.0 223532:1.0 223550:1.0 234230:1.0 259546:1.0 276521:1.0 296317:1.0 302030:1.0 332241:1.0 362689:1.0 367358:1.0 
5.214085545612898E-4 0.0 330:1.0 22625:1.0 39108:1.0 39108:1.0 39108:1.0 39108:1.0 39125:1.0 39125:1.0 39125:1.0 39125:1.0 48593:1.0 48593:1.0 48611:1.0 48611:1.0 50434:1.0 76271:1.0 109309:1.0 145378:1.0 212178:1.0 217085:1.0 225305:1.0 253857:1.0 272933:1.0 289789:1.0 311536:1.0 324905:1.0 
0.0049542088561896425 0.0 16360:1.0 27659:1.0 60697:1.0 96766:1.0 163566:1.0 168473:1.0 182139:1.0 205250:1.0 235612:1.0 241163:1.0 259728:1.0 276296:1.0 
0.0 1.5494419980811E-4 16318:1.0 19453:1.0 42437:1.0 42455:1.0 57017:1.0 65086:1.0 81564:1.0 81564:1.0 81581:1.0 81581:1.0 91049:1.0 91067:1.0 115818:1.0 118727:1.0 165273:1.0 187828:1.0 223532:1.0 223532:1.0 223550:1.0 223550:1.0 231271:1.0 259536:1.0 291480:1.0 296314:1.0 321514:1.0 332243:1.0 340863:1.0 367350:1.0 
6.755541745705966E-4 0.0 16360:1.0 27659:1.0 60697:1.0 96766:1.0 163566:1.0 168473:1.0 181466:1.0 205249:1.0 226737:1.0 241170:1.0 252312:1.0 276289:1.0 
