svm_type c_svc
kernel_type polynomial
degree 2
gamma 1.0
coef0 1.0
nr_class 3
total_sv 10
rho 0.4836178823861159 -0.9278303790590066 -0.916920803016108
label 1 0 2
nr_sv 5 4 1
SV
8.905655844133726E-4 8.818727971353886E-5 56:1.0 320:1.0 499:1.0 499:1.0 512:1.0 512:1.0 685:1.0 685:1.0 685:1.0 685:1.0 685:1.0 685:1.0 699:1.0 699:1.0 699:1.0 699:1.0 699:1.0 699:1.0 737:1.0 1091:1.0 1323:1.0 1323:1.0 1323:1.0 1336:1.0 1336:1.0 1336:1.0 1781:1.0 2095:1.0 2419:1.0 2432:1.0 2634:1.0 2634:1.0 2648:1.0 2648:1.0 3028:1.0 3365:1.0 3814:1.0 3828:1.0 4097:1.0 4712:1.0 5395:1.0 5427:1.0 6121:1.0 6137:1.0 6154:1.0 6158:1.0 6165:1.0 6170:1.0 6509:1.0 6827:1.0 
5.56503944812833E-4 2.883873360455953E-4 12:1.0 312:1.0 499:1.0 512:1.0 685:1.0 685:1.0 685:1.0 685:1.0 699:1.0 699:1.0 699:1.0 699:1.0 927:1.0 1093:1.0 1323:1.0 1323:1.0 1323:1.0 1323:1.0 1323:1.0 1336:1.0 1336:1.0 1336:1.0 1336:1.0 1336:1.0 1527:1.0 1527:1.0 1527:1.0 1527:1.0 1541:1.0 1541:1.0 1541:1.0 1541:1.0 1813:1.0 2095:1.0 2684:1.0 3367:1.0 4205:1.0 4708:1.0 4887:1.0 5429:1.0 5456:1.0 5461:1.0 5476:1.0 6137:1.0 6165:1.0 6170:1.0 6529:1.0 6838:1.0 
0.0026540681599109724 4.220233161123479E-5 479:1.0 553:1.0 877:1.0 877:1.0 877:1.0 877:1.0 890:1.0 890:1.0 890:1.0 890:1.0 1092:1.0 1092:1.0 1106:1.0 1106:1.0 1334:1.0 1826:1.0 2527:1.0 3166:1.0 3429:1.0 3887:1.0 3914:1.0 3914:1.0 3919:1.0 3919:1.0 4294:1.0 4598:1.0 4837:1.0 5291:1.0 
0.001256281407035176 0.0 479:1.0 553:1.0 877:1.0 877:1.0 877:1.0 877:1.0 890:1.0 890:1.0 890:1.0 890:1.0 1092:1.0 1092:1.0 1106:1.0 1106:1.0 1343:1.0 1822:1.0 2453:1.0 2453:1.0 2453:1.0 2453:1.0 2467:1.0 2467:1.0 2467:1.0 2467:1.0 2857:1.0 3171:1.0 3420:1.0 3891:1.0 4313:1.0 4595:1.0 4612:1.0 4616:1.0 4623:1.0 4623:1.0 4623:1.0 4628:1.0 4628:1.0 4628:1.0 5253:1.0 5285:1.0 
0.0011098552346608971 3.0492727620876073E-5 479:1.0 553:1.0 877:1.0 877:1.0 877:1.0 877:1.0 890:1.0 890:1.0 890:1.0 890:1.0 1092:1.0 1092:1.0 1106:1.0 1106:1.0 1523:1.0 1821:1.0 2272:1.0 2286:1.0 2453:1.0 2453:1.0 2453:1.0 2453:1.0 2453:1.0 2453:1.0 2467:1.0 2467:1.0 2467:1.0 2467:1.0 2467:1.0 2467:1.0 3134:1.0 3167:1.0 3712:1.0 3884:1.0 4488:1.0 4601:1.0 4780:1.0 5286:1.0 5303:1.0 5303:1.0 5307:1.0 5307:1.0 5313:1.0 5313:1.0 5313:1.0 5318:1.0 5318:1.0 5318:1.0 
-6.751146988671754E-4 8.312469036052841E-5 56:1.0 320:1.0 499:1.0 499:1.0 512:1.0 512:1.0 685:1.0 685:1.0 685:1.0 685:1.0 685:1.0 685:1.0 699:1.0 699:1.0 699:1.0 699:1.0 699:1.0 699:1.0 737:1.0 1091:1.0 1323:1.0 1323:1.0 1323:1.0 1336:1.0 1336:1.0 1336:1.0 1781:1.0 2095:1.0 2419:1.0 2432:1.0 2634:1.0 2634:1.0 2648:1.0 2648:1.0 3028:1.0 3365:1.0 3814:1.0 3814:1.0 3828:1.0 3828:1.0 4676:1.0 4709:1.0 5412:1.0 5428:1.0 5445:1.0 5449:1.0 5456:1.0 5461:1.0 5810:1.0 6136:1.0 6319:1.0 6828:1.0 6855:1.0 6860:1.0 
-0.0010400387786371715 6.855134039093799E-5 479:1.0 553:1.0 877:1.0 877:1.0 877:1.0 890:1.0 890:1.0 890:1.0 1092:1.0 1092:1.0 1106:1.0 1106:1.0 1142:1.0 1828:1.0 2692:1.0 3173:1.0 3261:1.0 3884:1.0 4144:1.0 4596:1.0 4623:1.0 4623:1.0 4628:1.0 4628:1.0 4993:1.0 5289:1.0 
-0.0016108533264917503 1.6308553316832725E-5 479:1.0 553:1.0 877:1.0 877:1.0 877:1.0 877:1.0 890:1.0 890:1.0 890:1.0 890:1.0 1092:1.0 1092:1.0 1106:1.0 1106:1.0 1523:1.0 1821:1.0 2272:1.0 2272:1.0 2286:1.0 2286:1.0 2453:1.0 2453:1.0 2453:1.0 2453:1.0 2453:1.0 2453:1.0 2467:1.0 2467:1.0 2467:1.0 2467:1.0 2467:1.0 2467:1.0 2767:1.0 3178:1.0 
-0.0031412675268371534 1.9994140947356877E-4 479:1.0 553:1.0 877:1.0 877:1.0 877:1.0 877:1.0 877:1.0 890:1.0 890:1.0 890:1.0 890:1.0 890:1.0 1092:1.0 1092:1.0 1106:1.0 1106:1.0 1411:1.0 1831:1.0 
-4.49269674991245E-4 -3.679259935418679E-4 12:1.0 312:1.0 499:1.0 512:1.0 685:1.0 685:1.0 685:1.0 685:1.0 699:1.0 699:1.0 699:1.0 699:1.0 927:1.0 1093:1.0 1323:1.0 1323:1.0 1323:1.0 1323:1.0 1323:1.0 1336:1.0 1336:1.0 1336:1.0 1336:1.0 1336:1.0 1527:1.0 1527:1.0 1527:1.0 1527:1.0 1541:1.0 1541:1.0 1541:1.0 1541:1.0 1813:1.0 2095:1.0 3254:1.0 3371:1.0 3814:1.0 3828:1.0 3995:1.0 3995:1.0 3995:1.0 3995:1.0 3995:1.0 3995:1.0 3995:1.0 3995:1.0 3995:1.0 4009:1.0 4009:1.0 4009:1.0 4009:1.0 4009:1.0 4009:1.0 4009:1.0 4009:1.0 4009:1.0 4668:1.0 4709:1.0 5257:1.0 5433:1.0 5957:1.0 6137:1.0 6154:1.0 6154:1.0 6158:1.0 6158:1.0 6165:1.0 6165:1.0 6170:1.0 6170:1.0 6498:1.0 6837:1.0 
