svm_type c_svc
kernel_type polynomial
degree 2
gamma 1.0
coef0 1.0
nr_class 3
total_sv 221
rho -0.7541199790819437 -0.9597706502953287 -0.7049499209839304
label 2 1 0
nr_sv 181 30 10
SV
3.8497474639699695E-4 0.0 406:1.0 552:1.0 1290:1.0 1819:1.0 2758:1.0 3175:1.0 3405:1.0 3894:1.0 4094:1.0 4593:1.0 4753:1.0 5287:1.0 
5.2769226420914626E-5 5.995337329767121E-4 80:1.0 310:1.0 499:1.0 512:1.0 685:1.0 685:1.0 699:1.0 699:1.0 860:1.0 1100:1.0 1659:1.0 2094:1.0 3154:1.0 3366:1.0 4021:1.0 4710:1.0 5375:1.0 5430:1.0 6119:1.0 6138:1.0 6444:1.0 6835:1.0 
2.834697853713292E-4 0.0 35:1.0 314:1.0 499:1.0 512:1.0 685:1.0 699:1.0 761:1.0 1100:1.0 1653:1.0 2094:1.0 2808:1.0 3361:1.0 4600:1.0 4710:1.0 4860:1.0 5430:1.0 5674:1.0 6145:1.0 6456:1.0 6826:1.0 
4.227359982761715E-4 0.0 66:1.0 310:1.0 685:1.0 685:1.0 699:1.0 699:1.0 769:1.0 1095:1.0 1527:1.0 1541:1.0 1717:1.0 2094:1.0 2958:1.0 3361:1.0 4540:1.0 4714:1.0 5349:1.0 5426:1.0 5479:1.0 6135:1.0 6422:1.0 6830:1.0 
4.7888569923123256E-4 7.846857223701653E-5 218:1.0 400:1.0 1017:1.0 1394:1.0 1967:1.0 2661:1.0 3600:1.0 4017:1.0 4447:1.0 4726:1.0 4861:1.0 5444:1.0 5741:1.0 6131:1.0 
5.480136364695834E-4 8.698617813580164E-5 6:1.0 310:1.0 499:1.0 499:1.0 512:1.0 512:1.0 685:1.0 685:1.0 699:1.0 699:1.0 981:1.0 1095:1.0 1527:1.0 1527:1.0 1527:1.0 1541:1.0 1541:1.0 1541:1.0 1717:1.0 2094:1.0 2947:1.0 3366:1.0 4363:1.0 4720:1.0 4815:1.0 5431:1.0 5768:1.0 6140:1.0 6191:1.0 6830:1.0 
4.3471578098377495E-4 0.0 251:1.0 314:1.0 685:1.0 685:1.0 685:1.0 699:1.0 699:1.0 699:1.0 822:1.0 1100:1.0 1834:1.0 2094:1.0 3139:1.0 3361:1.0 4554:1.0 4711:1.0 4877:1.0 5427:1.0 5670:1.0 6144:1.0 6442:1.0 6828:1.0 
7.063645469534086E-4 0.0 261:1.0 316:1.0 822:1.0 1100:1.0 1703:1.0 2094:1.0 2778:1.0 3365:1.0 4600:1.0 4714:1.0 5096:1.0 5430:1.0 5839:1.0 6145:1.0 6759:1.0 6826:1.0 
3.951402041834397E-4 0.0 57:1.0 314:1.0 499:1.0 512:1.0 685:1.0 685:1.0 699:1.0 699:1.0 903:1.0 1095:1.0 1845:1.0 2094:1.0 3288:1.0 3361:1.0 4511:1.0 4716:1.0 4853:1.0 5429:1.0 5567:1.0 6143:1.0 6375:1.0 6829:1.0 
0.0 2.3667451654253545E-4 256:1.0 314:1.0 499:1.0 499:1.0 512:1.0 512:1.0 685:1.0 699:1.0 1064:1.0 1095:1.0 1527:1.0 1527:1.0 1527:1.0 1541:1.0 1541:1.0 1541:1.0 1703:1.0 2094:1.0 3107:1.0 3361:1.0 4677:1.0 4710:1.0 5344:1.0 5437:1.0 5627:1.0 6137:1.0 6798:1.0 6834:1.0 
8.888048156733002E-4 1.0720888412357593E-4 538:1.0 552:1.0 1207:1.0 1819:1.0 2910:1.0 3175:1.0 3667:1.0 3884:1.0 4073:1.0 4596:1.0 5104:1.0 5292:1.0 
1.9958974252390357E-4 0.0 268:1.0 310:1.0 685:1.0 685:1.0 685:1.0 699:1.0 699:1.0 699:1.0 742:1.0 1091:1.0 1323:1.0 1336:1.0 1527:1.0 1527:1.0 1541:1.0 1541:1.0 1717:1.0 2094:1.0 3304:1.0 3361:1.0 4132:1.0 4711:1.0 5091:1.0 5438:1.0 5616:1.0 6139:1.0 6809:1.0 6837:1.0 
1.1903405701005064E-4 2.2414922798126013E-4 71:1.0 314:1.0 499:1.0 512:1.0 685:1.0 699:1.0 758:1.0 1091:1.0 1323:1.0 1323:1.0 1323:1.0 1336:1.0 1336:1.0 1336:1.0 1703:1.0 2094:1.0 3112:1.0 3361:1.0 4300:1.0 4717:1.0 5209:1.0 5426:1.0 5740:1.0 6144:1.0 6378:1.0 6836:1.0 
0.0 1.2103609671897702E-4 203:1.0 310:1.0 499:1.0 512:1.0 685:1.0 699:1.0 860:1.0 1100:1.0 1717:1.0 2094:1.0 3306:1.0 3366:1.0 4300:1.0 4717:1.0 5381:1.0 5431:1.0 5803:1.0 6147:1.0 6400:1.0 6828:1.0 
4.0905816489575163E-4 0.0 88:1.0 314:1.0 685:1.0 685:1.0 699:1.0 699:1.0 1002:1.0 1095:1.0 1527:1.0 1541:1.0 1717:1.0 2094:1.0 3247:1.0 3361:1.0 3995:1.0 4009:1.0 4640:1.0 4711:1.0 5063:1.0 5438:1.0 5740:1.0 6144:1.0 6527:1.0 6836:1.0 
3.770400509163362E-5 0.0 239:1.0 314:1.0 685:1.0 699:1.0 1030:1.0 1091:1.0 1323:1.0 1323:1.0 1323:1.0 1323:1.0 1336:1.0 1336:1.0 1336:1.0 1336:1.0 1527:1.0 1527:1.0 1541:1.0 1541:1.0 1717:1.0 2094:1.0 3247:1.0 3361:1.0 3995:1.0 4009:1.0 4300:1.0 4717:1.0 4961:1.0 5436:1.0 6023:1.0 6135:1.0 6479:1.0 6838:1.0 
7.601907939549114E-5 0.0 259:1.0 310:1.0 685:1.0 685:1.0 699:1.0 699:1.0 860:1.0 1100:1.0 1717:1.0 2094:1.0 3242:1.0 3361:1.0 4335:1.0 4720:1.0 5028:1.0 5435:1.0 5823:1.0 6145:1.0 6264:1.0 6826:1.0 
3.803463549522814E-4 1.3317160096768313E-4 9:1.0 400:1.0 1017:1.0 1394:1.0 2482:1.0 2661:1.0 3600:1.0 4017:1.0 4247:1.0 4736:1.0 5380:1.0 5435:1.0 5779:1.0 6138:1.0 
3.50436626283692E-4 0.0 301:1.0 315:1.0 685:1.0 699:1.0 860:1.0 1100:1.0 1717:1.0 2094:1.0 3133:1.0 3366:1.0 4122:1.0 4720:1.0 5419:1.0 5436:1.0 5920:1.0 6140:1.0 6320:1.0 6831:1.0 
0.001007196360310431 1.0896868560510804E-4 210:1.0 315:1.0 685:1.0 685:1.0 699:1.0 699:1.0 765:1.0 1103:1.0 2080:1.0 2094:1.0 3133:1.0 3366:1.0 4172:1.0 4713:1.0 5176:1.0 5435:1.0 5562:1.0 6140:1.0 6479:1.0 6838:1.0 
6.800378107054608E-4 0.0 117:1.0 313:1.0 685:1.0 699:1.0 1076:1.0 1100:1.0 1717:1.0 2094:1.0 3306:1.0 3366:1.0 4300:1.0 4717:1.0 5381:1.0 5431:1.0 5803:1.0 6147:1.0 6364:1.0 6836:1.0 
7.711458754560357E-4 6.387021449803158E-4 295:1.0 310:1.0 499:1.0 512:1.0 685:1.0 699:1.0 860:1.0 1100:1.0 1717:1.0 2094:1.0 2953:1.0 3366:1.0 4265:1.0 4713:1.0 5028:1.0 5435:1.0 5594:1.0 6140:1.0 6705:1.0 6838:1.0 
4.88011988628337E-5 0.0 11:1.0 318:1.0 1032:1.0 1097:1.0 1717:1.0 2094:1.0 2749:1.0 3361:1.0 4513:1.0 4711:1.0 5176:1.0 5435:1.0 5920:1.0 6135:1.0 6588:1.0 6835:1.0 
9.475745968747061E-4 7.727451574213731E-4 40:1.0 310:1.0 499:1.0 499:1.0 512:1.0 512:1.0 685:1.0 699:1.0 950:1.0 1100:1.0 1717:1.0 2094:1.0 3301:1.0 3366:1.0 4441:1.0 4713:1.0 4755:1.0 5428:1.0 5957:1.0 6139:1.0 6588:1.0 6835:1.0 
4.3789751795122333E-4 3.194167732572892E-4 231:1.0 314:1.0 685:1.0 685:1.0 685:1.0 685:1.0 685:1.0 699:1.0 699:1.0 699:1.0 699:1.0 699:1.0 950:1.0 1100:1.0 1703:1.0 2094:1.0 2986:1.0 3368:1.0 4681:1.0 4717:1.0 4771:1.0 5433:1.0 5740:1.0 6144:1.0 6364:1.0 6836:1.0 
9.244090993037983E-5 0.0 145:1.0 317:1.0 499:1.0 512:1.0 685:1.0 685:1.0 699:1.0 699:1.0 860:1.0 1100:1.0 1703:1.0 2094:1.0 3254:1.0 3366:1.0 4363:1.0 4720:1.0 4985:1.0 5426:1.0 5670:1.0 6144:1.0 6364:1.0 6836:1.0 
4.2394319266312247E-4 4.124817367711235E-5 197:1.0 319:1.0 882:1.0 1103:1.0 1703:1.0 2094:1.0 3267:1.0 3361:1.0 3995:1.0 4009:1.0 4335:1.0 4720:1.0 4877:1.0 5427:1.0 5471:1.0 6137:1.0 6622:1.0 6834:1.0 
1.896217062601856E-4 6.690065873495375E-4 268:1.0 310:1.0 499:1.0 499:1.0 512:1.0 512:1.0 685:1.0 685:1.0 685:1.0 685:1.0 685:1.0 685:1.0 685:1.0 699:1.0 699:1.0 699:1.0 699:1.0 699:1.0 699:1.0 699:1.0 896:1.0 1095:1.0 1527:1.0 1527:1.0 1541:1.0 1541:1.0 1908:1.0 2094:1.0 3078:1.0 3361:1.0 4629:1.0 4711:1.0 4837:1.0 5435:1.0 5674:1.0 6145:1.0 6718:1.0 6826:1.0 
1.8327530126112417E-4 0.0 273:1.0 313:1.0 753:1.0 1100:1.0 1717:1.0 2094:1.0 3242:1.0 3361:1.0 4541:1.0 4711:1.0 4854:1.0 5438:1.0 
5.963716257932815E-4 9.566392807592845E-5 108:1.0 400:1.0 1034:1.0 1394:1.0 2330:1.0 2661:1.0 3321:1.0 4010:1.0 4568:1.0 4730:1.0 4970:1.0 5444:1.0 5678:1.0 6136:1.0 
3.3742351150419875E-4 0.0 89:1.0 310:1.0 685:1.0 685:1.0 685:1.0 699:1.0 699:1.0 699:1.0 860:1.0 1100:1.0 1703:1.0 2094:1.0 3234:1.0 3366:1.0 4300:1.0 4717:1.0 4834:1.0 5431:1.0 5591:1.0 6136:1.0 6468:1.0 6831:1.0 
1.9717237613020198E-4 1.504992337714606E-4 406:1.0 552:1.0 1736:1.0 1819:1.0 2758:1.0 3175:1.0 3570:1.0 3894:1.0 4015:1.0 4593:1.0 4645:1.0 5287:1.0 
0.0 1.6520700868875496E-4 271:1.0 310:1.0 685:1.0 699:1.0 860:1.0 1100:1.0 1834:1.0 2094:1.0 2752:1.0 3361:1.0 4029:1.0 4711:1.0 5402:1.0 5430:1.0 6030:1.0 6141:1.0 6479:1.0 6838:1.0 
0.0020209034358189925 0.0 261:1.0 316:1.0 882:1.0 1103:1.0 1703:1.0 2094:1.0 3334:1.0 3361:1.0 4142:1.0 4708:1.0 5282:1.0 5434:1.0 5660:1.0 6145:1.0 6801:1.0 6826:1.0 
5.9143809117421554E-5 0.0 299:1.0 314:1.0 499:1.0 499:1.0 499:1.0 512:1.0 512:1.0 512:1.0 685:1.0 699:1.0 777:1.0 1095:1.0 1703:1.0 2094:1.0 2850:1.0 3361:1.0 4335:1.0 4720:1.0 5111:1.0 5429:1.0 5775:1.0 6147:1.0 6444:1.0 6835:1.0 
0.0 2.2715370778460207E-4 86:1.0 310:1.0 499:1.0 512:1.0 685:1.0 699:1.0 860:1.0 1100:1.0 1717:1.0 2094:1.0 3054:1.0 3366:1.0 4452:1.0 4717:1.0 4961:1.0 5436:1.0 5962:1.0 6135:1.0 6444:1.0 6835:1.0 
8.231204367797941E-5 3.446693623602323E-5 235:1.0 310:1.0 685:1.0 685:1.0 699:1.0 699:1.0 860:1.0 1100:1.0 1834:1.0 2094:1.0 3262:1.0 3361:1.0 4496:1.0 4711:1.0 5399:1.0 5435:1.0 5660:1.0 6145:1.0 6814:1.0 6831:1.0 
1.1622375977501115E-4 0.0 217:1.0 313:1.0 1076:1.0 1100:1.0 1703:1.0 2094:1.0 3349:1.0 3366:1.0 4452:1.0 4717:1.0 5077:1.0 5436:1.0 5807:1.0 6135:1.0 6274:1.0 6838:1.0 
6.422338263605428E-4 7.023964667812835E-5 406:1.0 552:1.0 1376:1.0 1819:1.0 2599:1.0 3169:1.0 3634:1.0 3893:1.0 3981:1.0 4598:1.0 4965:1.0 5296:1.0 
0.0010234721879948095 0.0 64:1.0 314:1.0 685:1.0 685:1.0 699:1.0 699:1.0 822:1.0 1100:1.0 1717:1.0 2094:1.0 3304:1.0 3361:1.0 4132:1.0 4711:1.0 4877:1.0 5427:1.0 5579:1.0 6139:1.0 6378:1.0 6836:1.0 
2.9656002334231817E-4 0.0 299:1.0 314:1.0 499:1.0 499:1.0 512:1.0 512:1.0 685:1.0 699:1.0 773:1.0 1095:1.0 1717:1.0 2094:1.0 2844:1.0 3361:1.0 4049:1.0 4717:1.0 4808:1.0 5431:1.0 5591:1.0 6136:1.0 6329:1.0 6831:1.0 
0.0 6.454085658193142E-4 85:1.0 310:1.0 499:1.0 512:1.0 685:1.0 699:1.0 950:1.0 1100:1.0 1734:1.0 2094:1.0 2896:1.0 3361:1.0 4363:1.0 4720:1.0 4841:1.0 5429:1.0 5887:1.0 6144:1.0 6228:1.0 6836:1.0 
7.502265592655376E-4 1.2001299786399468E-4 406:1.0 552:1.0 1761:1.0 1819:1.0 2477:1.0 3169:1.0 3866:1.0 3895:1.0 4293:1.0 4597:1.0 4902:1.0 5293:1.0 
0.0 2.6190273510815295E-4 83:1.0 310:1.0 685:1.0 699:1.0 860:1.0 1100:1.0 1703:1.0 2094:1.0 3168:1.0 3366:1.0 4300:1.0 4717:1.0 4827:1.0 5431:1.0 5913:1.0 6140:1.0 6444:1.0 6835:1.0 
0.0010352465435808716 0.0 158:1.0 322:1.0 950:1.0 1100:1.0 1703:1.0 2094:1.0 3249:1.0 3363:1.0 4021:1.0 4710:1.0 5205:1.0 5430:1.0 5674:1.0 6145:1.0 6754:1.0 6826:1.0 
2.3043617204899605E-4 0.0 157:1.0 314:1.0 708:1.0 1095:1.0 1717:1.0 2094:1.0 3122:1.0 3361:1.0 4105:1.0 4717:1.0 5219:1.0 5430:1.0 5674:1.0 6145:1.0 6414:1.0 6826:1.0 
1.3764770972256215E-4 0.0 4:1.0 314:1.0 499:1.0 512:1.0 974:1.0 1095:1.0 1527:1.0 1541:1.0 1717:1.0 2094:1.0 2914:1.0 3361:1.0 4157:1.0 4711:1.0 5028:1.0 5435:1.0 5970:1.0 6135:1.0 6417:1.0 6829:1.0 
7.24067298494739E-4 2.1897172946363933E-5 259:1.0 395:1.0 827:1.0 841:1.0 1017:1.0 1394:1.0 1949:1.0 2661:1.0 3971:1.0 4011:1.0 4328:1.0 4735:1.0 4974:1.0 5445:1.0 5921:1.0 6126:1.0 
1.6124828761542482E-4 0.0 94:1.0 314:1.0 499:1.0 512:1.0 1032:1.0 1097:1.0 1659:1.0 2094:1.0 2922:1.0 3361:1.0 4021:1.0 4710:1.0 5037:1.0 5430:1.0 5503:1.0 6146:1.0 6588:1.0 6835:1.0 
7.293597503015272E-4 0.0 127:1.0 314:1.0 685:1.0 685:1.0 685:1.0 699:1.0 699:1.0 699:1.0 726:1.0 1102:1.0 1323:1.0 1336:1.0 1717:1.0 2094:1.0 2949:1.0 3362:1.0 4548:1.0 4713:1.0 5398:1.0 5431:1.0 5561:1.0 6144:1.0 6665:1.0 6826:1.0 
0.0011166599041822116 1.6156104411217532E-4 450:1.0 552:1.0 1604:1.0 1819:1.0 2821:1.0 3178:1.0 3778:1.0 3886:1.0 4212:1.0 4601:1.0 4913:1.0 5288:1.0 
5.023665191521863E-4 6.00680383274451E-5 219:1.0 310:1.0 685:1.0 699:1.0 869:1.0 1095:1.0 1323:1.0 1336:1.0 1527:1.0 1527:1.0 1527:1.0 1541:1.0 1541:1.0 1541:1.0 1717:1.0 2094:1.0 3306:1.0 3366:1.0 4300:1.0 4717:1.0 5381:1.0 5431:1.0 5803:1.0 6147:1.0 6739:1.0 6830:1.0 
4.52165667447429E-4 0.0 197:1.0 319:1.0 1032:1.0 1097:1.0 1834:1.0 2094:1.0 3084:1.0 3361:1.0 4274:1.0 4711:1.0 5028:1.0 5435:1.0 5602:1.0 6145:1.0 6693:1.0 6826:1.0 
0.0 2.7089885682634733E-4 189:1.0 310:1.0 499:1.0 512:1.0 685:1.0 699:1.0 860:1.0 1100:1.0 1659:1.0 2094:1.0 3212:1.0 3361:1.0 4452:1.0 4717:1.0 5209:1.0 5426:1.0 5615:1.0 6138:1.0 6562:1.0 6834:1.0 
4.7797549362023925E-4 0.0 261:1.0 316:1.0 882:1.0 1103:1.0 1703:1.0 2094:1.0 2954:1.0 3361:1.0 4454:1.0 4711:1.0 5129:1.0 5434:1.0 5670:1.0 6144:1.0 6188:1.0 6834:1.0 
1.3222268473514685E-5 0.0 79:1.0 314:1.0 499:1.0 512:1.0 685:1.0 699:1.0 988:1.0 1100:1.0 1908:1.0 2094:1.0 3345:1.0 3361:1.0 3995:1.0 4009:1.0 4335:1.0 4720:1.0 4854:1.0 5438:1.0 
3.0302700559597056E-4 3.321466034384979E-5 226:1.0 400:1.0 1003:1.0 1394:1.0 2412:1.0 2661:1.0 3712:1.0 4011:1.0 4328:1.0 4735:1.0 4938:1.0 5440:1.0 5744:1.0 6135:1.0 
5.183093440063762E-4 1.1156770201309036E-5 82:1.0 315:1.0 685:1.0 699:1.0 860:1.0 1100:1.0 1717:1.0 2094:1.0 3115:1.0 3366:1.0 4363:1.0 4720:1.0 4878:1.0 5431:1.0 5735:1.0 6140:1.0 6677:1.0 6831:1.0 
6.678650044555409E-4 0.0 287:1.0 314:1.0 761:1.0 1100:1.0 2023:1.0 2094:1.0 2808:1.0 3361:1.0 4231:1.0 4718:1.0 4930:1.0 5426:1.0 5497:1.0 6144:1.0 6527:1.0 6836:1.0 
2.901284408957997E-4 5.04787125030037E-4 85:1.0 310:1.0 685:1.0 699:1.0 722:1.0 1100:1.0 1834:1.0 2094:1.0 3185:1.0 3361:1.0 4147:1.0 4709:1.0 4901:1.0 5426:1.0 5591:1.0 6136:1.0 6364:1.0 6836:1.0 
4.050385930548094E-4 2.6952380639121517E-4 85:1.0 310:1.0 685:1.0 699:1.0 1003:1.0 1091:1.0 1323:1.0 1323:1.0 1323:1.0 1336:1.0 1336:1.0 1336:1.0 1527:1.0 1527:1.0 1541:1.0 1541:1.0 1703:1.0 2094:1.0 2926:1.0 3361:1.0 4044:1.0 4711:1.0 4854:1.0 5438:1.0 
7.332619553980188E-5 3.365783503776746E-4 9:1.0 314:1.0 499:1.0 499:1.0 512:1.0 512:1.0 685:1.0 699:1.0 1032:1.0 1097:1.0 1834:1.0 2094:1.0 3319:1.0 3361:1.0 4654:1.0 4711:1.0 4927:1.0 5434:1.0 5860:1.0 6139:1.0 6267:1.0 6835:1.0 
3.617035383007883E-4 9.592384280126372E-5 173:1.0 395:1.0 827:1.0 841:1.0 1289:1.0 1394:1.0 2486:1.0 2661:1.0 3752:1.0 4017:1.0 4620:1.0 4732:1.0 4771:1.0 5437:1.0 5518:1.0 6130:1.0 
7.137348478966894E-4 5.085531106099616E-5 22:1.0 314:1.0 685:1.0 685:1.0 685:1.0 699:1.0 699:1.0 699:1.0 748:1.0 1095:1.0 1527:1.0 1541:1.0 1834:1.0 2094:1.0 3288:1.0 3361:1.0 4450:1.0 4711:1.0 5028:1.0 5435:1.0 5823:1.0 6145:1.0 6802:1.0 6826:1.0 
0.0 7.692130216457405E-4 277:1.0 310:1.0 499:1.0 512:1.0 685:1.0 699:1.0 860:1.0 1100:1.0 1834:1.0 2094:1.0 3335:1.0 3361:1.0 4363:1.0 4720:1.0 5113:1.0 5437:1.0 5547:1.0 6143:1.0 6588:1.0 6835:1.0 
3.069892939949363E-4 4.2385955144668485E-5 188:1.0 310:1.0 685:1.0 685:1.0 685:1.0 685:1.0 685:1.0 685:1.0 685:1.0 699:1.0 699:1.0 699:1.0 699:1.0 699:1.0 699:1.0 699:1.0 860:1.0 1100:1.0 1717:1.0 2094:1.0 3301:1.0 3366:1.0 4441:1.0 4713:1.0 5320:1.0 5428:1.0 5503:1.0 6146:1.0 6427:1.0 6826:1.0 
0.0010611258897680644 9.438420484412809E-5 108:1.0 400:1.0 1008:1.0 1394:1.0 2366:1.0 2661:1.0 3663:1.0 4020:1.0 4535:1.0 4734:1.0 5222:1.0 5445:1.0 5499:1.0 6126:1.0 
3.3337579721601365E-4 0.0 227:1.0 318:1.0 720:1.0 1091:1.0 1323:1.0 1336:1.0 1527:1.0 1541:1.0 1717:1.0 2094:1.0 2771:1.0 3361:1.0 4600:1.0 4710:1.0 5300:1.0 5430:1.0 5679:1.0 6140:1.0 6267:1.0 6835:1.0 
0.0 2.4203741623438264E-4 243:1.0 314:1.0 499:1.0 512:1.0 685:1.0 699:1.0 761:1.0 1100:1.0 1834:1.0 2094:1.0 2652:1.0 3361:1.0 3995:1.0 4009:1.0 4457:1.0 4711:1.0 4877:1.0 5427:1.0 6087:1.0 6138:1.0 6646:1.0 6834:1.0 
6.191968249557818E-4 0.0 222:1.0 310:1.0 685:1.0 685:1.0 699:1.0 699:1.0 860:1.0 1100:1.0 1703:1.0 2094:1.0 3349:1.0 3366:1.0 4147:1.0 4709:1.0 5320:1.0 5428:1.0 6022:1.0 6146:1.0 6789:1.0 6829:1.0 
8.963984499216004E-4 4.372792936512426E-4 208:1.0 314:1.0 685:1.0 685:1.0 685:1.0 685:1.0 685:1.0 699:1.0 699:1.0 699:1.0 699:1.0 699:1.0 852:1.0 1091:1.0 1323:1.0 1336:1.0 1527:1.0 1527:1.0 1541:1.0 1541:1.0 1717:1.0 2094:1.0 3042:1.0 3366:1.0 4365:1.0 4713:1.0 4854:1.0 5438:1.0 
0.0 2.9865564563309966E-4 107:1.0 310:1.0 685:1.0 699:1.0 860:1.0 1100:1.0 1834:1.0 2094:1.0 3090:1.0 3361:1.0 4045:1.0 4711:1.0 4846:1.0 5435:1.0 5823:1.0 6145:1.0 6787:1.0 6826:1.0 
3.005691538615661E-4 0.0 14:1.0 313:1.0 761:1.0 1100:1.0 1834:1.0 2094:1.0 3319:1.0 3361:1.0 4654:1.0 4711:1.0 5091:1.0 5438:1.0 5686:1.0 6139:1.0 6408:1.0 6826:1.0 
5.626449153013683E-4 0.0 213:1.0 314:1.0 723:1.0 1095:1.0 1527:1.0 1541:1.0 1703:1.0 2094:1.0 2724:1.0 3361:1.0 4335:1.0 4720:1.0 4933:1.0 5429:1.0 5775:1.0 6147:1.0 6444:1.0 6835:1.0 
0.0 9.978121839110967E-5 30:1.0 310:1.0 499:1.0 512:1.0 685:1.0 699:1.0 860:1.0 1100:1.0 1717:1.0 2094:1.0 2921:1.0 3361:1.0 4351:1.0 4711:1.0 5320:1.0 5428:1.0 5471:1.0 6137:1.0 6719:1.0 6830:1.0 
6.519452695897809E-4 2.892587186965934E-4 264:1.0 314:1.0 685:1.0 699:1.0 761:1.0 1100:1.0 1834:1.0 2094:1.0 2755:1.0 3361:1.0 4335:1.0 4720:1.0 5208:1.0 5426:1.0 5775:1.0 6147:1.0 6507:1.0 6838:1.0 
1.0349234724143381E-4 1.317710788329526E-4 253:1.0 310:1.0 685:1.0 699:1.0 860:1.0 1100:1.0 1703:1.0 2094:1.0 2848:1.0 3366:1.0 4068:1.0 4712:1.0 5320:1.0 5432:1.0 6126:1.0 6138:1.0 6762:1.0 6826:1.0 
1.1846151143508423E-4 0.0 24:1.0 314:1.0 685:1.0 685:1.0 699:1.0 699:1.0 893:1.0 1095:1.0 1527:1.0 1527:1.0 1541:1.0 1541:1.0 1703:1.0 2094:1.0 3174:1.0 3361:1.0 4300:1.0 4717:1.0 5332:1.0 5426:1.0 5670:1.0 6144:1.0 6378:1.0 6836:1.0 
5.286842683510548E-5 0.0 97:1.0 321:1.0 499:1.0 499:1.0 512:1.0 512:1.0 685:1.0 685:1.0 699:1.0 699:1.0 701:1.0 1095:1.0 1527:1.0 1527:1.0 1541:1.0 1541:1.0 1659:1.0 2094:1.0 2853:1.0 3361:1.0 4393:1.0 4711:1.0 4854:1.0 5438:1.0 
0.0 1.243081548433606E-4 104:1.0 314:1.0 685:1.0 699:1.0 950:1.0 1100:1.0 1717:1.0 2094:1.0 3292:1.0 3361:1.0 4351:1.0 4711:1.0 4957:1.0 5435:1.0 5600:1.0 6135:1.0 6444:1.0 6835:1.0 
3.222996786942614E-4 9.196336635772381E-5 406:1.0 552:1.0 1355:1.0 1824:1.0 2930:1.0 3171:1.0 3757:1.0 3896:1.0 4158:1.0 4598:1.0 5130:1.0 5289:1.0 
8.27474278265419E-4 8.573374329759132E-4 38:1.0 312:1.0 685:1.0 699:1.0 860:1.0 1100:1.0 1834:1.0 2094:1.0 2419:1.0 2432:1.0 3089:1.0 3361:1.0 4055:1.0 4719:1.0 5311:1.0 5429:1.0 5740:1.0 6144:1.0 6378:1.0 6836:1.0 
5.611736115278614E-5 0.0 192:1.0 310:1.0 499:1.0 512:1.0 685:1.0 685:1.0 699:1.0 699:1.0 860:1.0 1100:1.0 1717:1.0 2094:1.0 3232:1.0 3366:1.0 4578:1.0 4713:1.0 5091:1.0 5438:1.0 5545:1.0 6139:1.0 6809:1.0 6837:1.0 
0.0 9.657609828731029E-5 179:1.0 310:1.0 685:1.0 685:1.0 685:1.0 699:1.0 699:1.0 699:1.0 860:1.0 1100:1.0 1834:1.0 2094:1.0 3175:1.0 3361:1.0 4122:1.0 4720:1.0 
0.0033623919232966815 1.3324707063784333E-4 406:1.0 552:1.0 1188:1.0 1824:1.0 3047:1.0 3170:1.0 3486:1.0 3893:1.0 4118:1.0 4603:1.0 5016:1.0 5291:1.0 
3.576166726936113E-4 1.7969425046642407E-5 255:1.0 314:1.0 685:1.0 699:1.0 860:1.0 1100:1.0 1703:1.0 2094:1.0 3065:1.0 3368:1.0 4681:1.0 4717:1.0 4771:1.0 5433:1.0 5740:1.0 6144:1.0 6307:1.0 6836:1.0 
6.968392248637176E-4 0.0 168:1.0 310:1.0 685:1.0 685:1.0 699:1.0 699:1.0 860:1.0 1100:1.0 1703:1.0 2094:1.0 2897:1.0 3366:1.0 4472:1.0 4713:1.0 4877:1.0 5427:1.0 5660:1.0 6145:1.0 6814:1.0 6831:1.0 
4.431062334536446E-4 1.10915177505583E-5 325:1.0 395:1.0 623:1.0 623:1.0 636:1.0 636:1.0 827:1.0 841:1.0 1003:1.0 1394:1.0 2649:1.0 2666:1.0 3756:1.0 4011:1.0 4665:1.0 4730:1.0 5417:1.0 5439:1.0 5664:1.0 6136:1.0 
1.9227651646331362E-4 6.205312091935336E-5 75:1.0 310:1.0 685:1.0 699:1.0 860:1.0 1100:1.0 1734:1.0 2094:1.0 3025:1.0 3361:1.0 4048:1.0 4719:1.0 5176:1.0 5435:1.0 5701:1.0 6145:1.0 6678:1.0 6826:1.0 
2.4586281593544555E-5 0.0 303:1.0 314:1.0 499:1.0 499:1.0 512:1.0 512:1.0 950:1.0 1100:1.0 1734:1.0 2094:1.0 3195:1.0 3361:1.0 4147:1.0 4709:1.0 5363:1.0 5430:1.0 5627:1.0 6137:1.0 6588:1.0 6835:1.0 
3.1275412177589573E-4 0.0014708563499664655 124:1.0 310:1.0 685:1.0 699:1.0 860:1.0 1100:1.0 1703:1.0 2094:1.0 2927:1.0 3368:1.0 4122:1.0 4720:1.0 
6.26766339436437E-4 2.876585968132724E-4 8:1.0 312:1.0 860:1.0 1100:1.0 1834:1.0 2094:1.0 3179:1.0 3361:1.0 4511:1.0 4716:1.0 4844:1.0 5434:1.0 6030:1.0 6141:1.0 6180:1.0 6828:1.0 
1.5536445481997643E-5 1.1083842201233799E-5 156:1.0 395:1.0 827:1.0 827:1.0 827:1.0 827:1.0 827:1.0 841:1.0 841:1.0 841:1.0 841:1.0 841:1.0 1134:1.0 1394:1.0 2548:1.0 2661:1.0 3600:1.0 4017:1.0 4247:1.0 4736:1.0 5186:1.0 5435:1.0 5807:1.0 6138:1.0 
2.3999771096866744E-4 0.0 262:1.0 314:1.0 685:1.0 685:1.0 699:1.0 699:1.0 822:1.0 1100:1.0 1703:1.0 2094:1.0 3349:1.0 3366:1.0 4227:1.0 4717:1.0 5183:1.0 5430:1.0 5800:1.0 6135:1.0 6279:1.0 6829:1.0 
0.0 6.657773703183618E-6 156:1.0 310:1.0 499:1.0 512:1.0 1076:1.0 1100:1.0 1908:1.0 2094:1.0 3094:1.0 3361:1.0 4300:1.0 4717:1.0 5261:1.0 5433:1.0 5612:1.0 6135:1.0 6444:1.0 6835:1.0 
2.6821742345164545E-4 0.0 56:1.0 314:1.0 499:1.0 512:1.0 685:1.0 699:1.0 715:1.0 1099:1.0 1708:1.0 2094:1.0 2987:1.0 3361:1.0 4363:1.0 4720:1.0 5320:1.0 5428:1.0 5946:1.0 6143:1.0 6316:1.0 6826:1.0 
3.882832614968221E-4 1.6667334642869427E-5 538:1.0 552:1.0 1795:1.0 1819:1.0 2453:1.0 2467:1.0 2758:1.0 3175:1.0 3405:1.0 3894:1.0 4275:1.0 4593:1.0 5080:1.0 5292:1.0 
1.994431231013624E-5 0.0 147:1.0 310:1.0 685:1.0 699:1.0 860:1.0 1100:1.0 1717:1.0 2094:1.0 3259:1.0 3361:1.0 4547:1.0 4711:1.0 4957:1.0 5435:1.0 5660:1.0 6145:1.0 6480:1.0 6826:1.0 
0.0 4.5979712461067515E-4 134:1.0 310:1.0 685:1.0 685:1.0 699:1.0 699:1.0 860:1.0 1100:1.0 1834:1.0 2094:1.0 3127:1.0 3361:1.0 4300:1.0 4717:1.0 5132:1.0 5426:1.0 5887:1.0 6144:1.0 6517:1.0 6836:1.0 
1.1313918973619478E-4 0.0 281:1.0 310:1.0 685:1.0 685:1.0 699:1.0 699:1.0 761:1.0 1100:1.0 1659:1.0 2094:1.0 2922:1.0 3361:1.0 4201:1.0 4711:1.0 5327:1.0 5431:1.0 5756:1.0 6140:1.0 6174:1.0 6831:1.0 
0.0010630162272235136 1.9508333520960967E-4 281:1.0 310:1.0 499:1.0 512:1.0 685:1.0 685:1.0 699:1.0 699:1.0 917:1.0 1095:1.0 1323:1.0 1336:1.0 1527:1.0 1527:1.0 1541:1.0 1541:1.0 1703:1.0 2094:1.0 3195:1.0 3361:1.0 4451:1.0 4708:1.0 4854:1.0 5438:1.0 
0.0015783857643389986 1.3783003261099802E-4 172:1.0 552:1.0 1441:1.0 1819:1.0 2588:1.0 3170:1.0 3563:1.0 3887:1.0 4402:1.0 4593:1.0 4902:1.0 5293:1.0 
0.0019610739267455707 0.001422611905822168 226:1.0 310:1.0 499:1.0 512:1.0 685:1.0 699:1.0 822:1.0 1100:1.0 1961:1.0 2094:1.0 3032:1.0 3371:1.0 4069:1.0 4708:1.0 5091:1.0 5438:1.0 5975:1.0 6144:1.0 6368:1.0 6836:1.0 
2.0057981851764225E-4 3.236444036126799E-4 226:1.0 310:1.0 499:1.0 512:1.0 685:1.0 699:1.0 822:1.0 1100:1.0 1834:1.0 2094:1.0 2634:1.0 2648:1.0 2710:1.0 3361:1.0 4363:1.0 4720:1.0 5265:1.0 5435:1.0 5664:1.0 6145:1.0 6601:1.0 6826:1.0 
3.389261215038921E-4 0.0 158:1.0 322:1.0 1005:1.0 1100:1.0 1708:1.0 2094:1.0 3112:1.0 3361:1.0 4412:1.0 4711:1.0 4877:1.0 5427:1.0 5631:1.0 6135:1.0 6325:1.0 6831:1.0 
0.0 2.1088465381190403E-4 226:1.0 310:1.0 499:1.0 499:1.0 512:1.0 512:1.0 685:1.0 699:1.0 956:1.0 1091:1.0 1323:1.0 1323:1.0 1323:1.0 1323:1.0 1323:1.0 1336:1.0 1336:1.0 1336:1.0 1336:1.0 1336:1.0 1527:1.0 1527:1.0 1527:1.0 1541:1.0 1541:1.0 1541:1.0 1763:1.0 2094:1.0 3347:1.0 3361:1.0 4300:1.0 4717:1.0 4961:1.0 5436:1.0 6113:1.0 6135:1.0 6768:1.0 6835:1.0 
0.001178155216933622 1.1337551120297056E-4 406:1.0 552:1.0 1355:1.0 1824:1.0 2930:1.0 3171:1.0 3232:1.0 3888:1.0 4208:1.0 4603:1.0 4973:1.0 5284:1.0 
8.902383852773708E-5 8.08587215473219E-6 18:1.0 395:1.0 827:1.0 841:1.0 1073:1.0 1394:1.0 2318:1.0 2661:1.0 3600:1.0 4017:1.0 4525:1.0 4733:1.0 4967:1.0 5435:1.0 5674:1.0 6135:1.0 
5.885058916499362E-4 0.0 96:1.0 314:1.0 685:1.0 685:1.0 699:1.0 699:1.0 822:1.0 1100:1.0 1773:1.0 2094:1.0 3258:1.0 3361:1.0 4122:1.0 4720:1.0 
0.0016686095181779905 5.266933453887644E-5 538:1.0 552:1.0 1475:1.0 1819:1.0 2758:1.0 3175:1.0 3570:1.0 3894:1.0 4196:1.0 4603:1.0 5036:1.0 5284:1.0 
0.0 4.4968119967365457E-4 160:1.0 310:1.0 685:1.0 699:1.0 860:1.0 1100:1.0 1834:1.0 2094:1.0 2419:1.0 2432:1.0 3089:1.0 3361:1.0 4543:1.0 4711:1.0 4755:1.0 5428:1.0 5921:1.0 6143:1.0 6752:1.0 6830:1.0 
0.0025439453689335653 9.365179602957265E-5 538:1.0 552:1.0 1377:1.0 1824:1.0 3036:1.0 3171:1.0 3486:1.0 3893:1.0 4452:1.0 4598:1.0 4965:1.0 5296:1.0 
4.872617580680697E-4 0.0 139:1.0 313:1.0 685:1.0 685:1.0 699:1.0 699:1.0 1076:1.0 1100:1.0 1703:1.0 2094:1.0 3050:1.0 3366:1.0 4126:1.0 4713:1.0 5028:1.0 5435:1.0 5863:1.0 6140:1.0 6507:1.0 6838:1.0 
2.0442841762444662E-4 1.740747645675873E-5 211:1.0 395:1.0 827:1.0 827:1.0 841:1.0 841:1.0 1008:1.0 1394:1.0 2318:1.0 2661:1.0 3842:1.0 4017:1.0 4252:1.0 4733:1.0 5187:1.0 5444:1.0 5660:1.0 6126:1.0 
6.522267053918077E-4 4.4312159101680206E-4 165:1.0 314:1.0 499:1.0 499:1.0 499:1.0 512:1.0 512:1.0 512:1.0 685:1.0 685:1.0 699:1.0 699:1.0 822:1.0 1100:1.0 1834:1.0 2094:1.0 2833:1.0 3368:1.0 3995:1.0 4009:1.0 4147:1.0 4709:1.0 5061:1.0 5430:1.0 5692:1.0 6138:1.0 6270:1.0 6830:1.0 
8.81737005768873E-4 1.4752340232738014E-4 294:1.0 402:1.0 1003:1.0 1394:1.0 2203:1.0 2666:1.0 3839:1.0 4013:1.0 4099:1.0 4731:1.0 5309:1.0 5447:1.0 5981:1.0 6131:1.0 
6.705133870605239E-4 1.5190764826972502E-4 232:1.0 321:1.0 836:1.0 1096:1.0 1323:1.0 1323:1.0 1323:1.0 1323:1.0 1323:1.0 1336:1.0 1336:1.0 1336:1.0 1336:1.0 1336:1.0 1527:1.0 1541:1.0 1703:1.0 2094:1.0 2903:1.0 3366:1.0 4300:1.0 4717:1.0 5191:1.0 5431:1.0 5591:1.0 6136:1.0 6695:1.0 6831:1.0 
5.210638191618129E-4 4.617691008165238E-5 252:1.0 395:1.0 827:1.0 827:1.0 841:1.0 841:1.0 1073:1.0 1394:1.0 2364:1.0 2661:1.0 3853:1.0 4011:1.0 4328:1.0 4735:1.0 5113:1.0 5445:1.0 5512:1.0 6126:1.0 
0.0 1.8906168935726482E-4 179:1.0 310:1.0 499:1.0 512:1.0 685:1.0 699:1.0 860:1.0 1100:1.0 1824:1.0 2094:1.0 2697:1.0 3361:1.0 4122:1.0 4720:1.0 
4.961051291595873E-4 0.0 538:1.0 552:1.0 1522:1.0 1819:1.0 2758:1.0 3175:1.0 3557:1.0 3884:1.0 4345:1.0 4602:1.0 4985:1.0 5294:1.0 
0.0 9.92645241499943E-4 179:1.0 310:1.0 499:1.0 512:1.0 685:1.0 699:1.0 950:1.0 1100:1.0 1834:1.0 2094:1.0 2419:1.0 2419:1.0 2432:1.0 2432:1.0 3043:1.0 3361:1.0 4452:1.0 4717:1.0 5227:1.0 5436:1.0 6132:1.0 6142:1.0 6578:1.0 6826:1.0 
0.0 0.0011497867828068676 179:1.0 310:1.0 499:1.0 499:1.0 512:1.0 512:1.0 685:1.0 699:1.0 950:1.0 1100:1.0 1923:1.0 2094:1.0 2419:1.0 2432:1.0 3089:1.0 3361:1.0 4314:1.0 4716:1.0 5082:1.0 5434:1.0 5740:1.0 6144:1.0 6235:1.0 6837:1.0 
0.001098207923415556 0.0016311188868357676 20:1.0 310:1.0 499:1.0 499:1.0 512:1.0 512:1.0 685:1.0 685:1.0 685:1.0 685:1.0 685:1.0 685:1.0 699:1.0 699:1.0 699:1.0 699:1.0 699:1.0 699:1.0 751:1.0 1095:1.0 1527:1.0 1541:1.0 1908:1.0 2094:1.0 2419:1.0 2419:1.0 2419:1.0 2432:1.0 2432:1.0 2432:1.0 2869:1.0 3361:1.0 3995:1.0 4009:1.0 4122:1.0 4720:1.0 
8.798550775357903E-4 9.76106271248534E-5 538:1.0 552:1.0 1285:1.0 1819:1.0 2555:1.0 3169:1.0 3478:1.0 3889:1.0 4483:1.0 4598:1.0 4710:1.0 5288:1.0 
4.0172638182917216E-4 2.822473741181667E-5 50:1.0 395:1.0 827:1.0 841:1.0 1003:1.0 1394:1.0 2046:1.0 2661:1.0 3900:1.0 4014:1.0 4342:1.0 4734:1.0 5243:1.0 5439:1.0 5674:1.0 6135:1.0 
7.565849451923063E-4 0.0 201:1.0 310:1.0 685:1.0 685:1.0 699:1.0 699:1.0 761:1.0 1100:1.0 1717:1.0 2094:1.0 3004:1.0 3366:1.0 3995:1.0 4009:1.0 4600:1.0 4710:1.0 5086:1.0 5430:1.0 5660:1.0 6145:1.0 6600:1.0 6826:1.0 
0.0 1.6194650655270503E-4 218:1.0 310:1.0 499:1.0 499:1.0 512:1.0 512:1.0 685:1.0 685:1.0 699:1.0 699:1.0 898:1.0 1095:1.0 1527:1.0 1541:1.0 1703:1.0 2094:1.0 3111:1.0 3361:1.0 4300:1.0 4717:1.0 5136:1.0 5433:1.0 5825:1.0 6135:1.0 6444:1.0 6835:1.0 
1.7316565174445672E-4 1.8207575551120543E-4 202:1.0 310:1.0 499:1.0 512:1.0 685:1.0 699:1.0 1076:1.0 1100:1.0 1932:1.0 2094:1.0 2956:1.0 3363:1.0 4300:1.0 4717:1.0 4961:1.0 5436:1.0 5626:1.0 6135:1.0 6423:1.0 6829:1.0 
3.162503380676452E-5 0.0 128:1.0 312:1.0 685:1.0 685:1.0 699:1.0 699:1.0 860:1.0 1100:1.0 1717:1.0 2094:1.0 2827:1.0 3361:1.0 4278:1.0 4711:1.0 4854:1.0 5438:1.0 
6.789074112824143E-4 9.806780332626066E-5 406:1.0 552:1.0 1603:1.0 1819:1.0 2896:1.0 3177:1.0 3454:1.0 3888:1.0 4488:1.0 4599:1.0 4985:1.0 5294:1.0 
5.717816418574838E-4 0.0 110:1.0 314:1.0 685:1.0 685:1.0 699:1.0 699:1.0 728:1.0 1095:1.0 1527:1.0 1527:1.0 1541:1.0 1541:1.0 1908:1.0 2094:1.0 2887:1.0 3361:1.0 4300:1.0 4717:1.0 5159:1.0 5426:1.0 5740:1.0 6144:1.0 6277:1.0 6833:1.0 
6.451770825382354E-4 2.7354821655081946E-4 19:1.0 314:1.0 685:1.0 685:1.0 699:1.0 699:1.0 831:1.0 1091:1.0 1323:1.0 1323:1.0 1323:1.0 1336:1.0 1336:1.0 1336:1.0 1527:1.0 1541:1.0 1908:1.0 2094:1.0 2655:1.0 3361:1.0 4043:1.0 4711:1.0 5028:1.0 5435:1.0 5535:1.0 6142:1.0 6372:1.0 6826:1.0 
6.006366144196062E-5 0.0 19:1.0 314:1.0 499:1.0 512:1.0 685:1.0 685:1.0 699:1.0 699:1.0 1076:1.0 1100:1.0 1932:1.0 2094:1.0 2878:1.0 3361:1.0 4300:1.0 4717:1.0 5085:1.0 5431:1.0 5569:1.0 6147:1.0 
7.763507647149473E-4 8.055460803775571E-5 406:1.0 552:1.0 1113:1.0 1819:1.0 2501:1.0 3169:1.0 3584:1.0 3888:1.0 3959:1.0 4596:1.0 4832:1.0 5293:1.0 
0.0 1.0263001924818543E-4 84:1.0 310:1.0 499:1.0 512:1.0 685:1.0 685:1.0 699:1.0 699:1.0 860:1.0 1100:1.0 1703:1.0 2094:1.0 2661:1.0 3368:1.0 4681:1.0 4717:1.0 4771:1.0 5433:1.0 5740:1.0 6144:1.0 6307:1.0 6836:1.0 
2.2653709332069646E-4 6.488129429392368E-5 238:1.0 321:1.0 1032:1.0 1097:1.0 1834:1.0 2094:1.0 3051:1.0 3361:1.0 4274:1.0 4711:1.0 4882:1.0 5429:1.0 5881:1.0 6139:1.0 6374:1.0 6835:1.0 
7.734435350909816E-4 1.1001345173588997E-4 406:1.0 552:1.0 1603:1.0 1819:1.0 2479:1.0 3168:1.0 3500:1.0 3892:1.0 4524:1.0 4597:1.0 5149:1.0 5295:1.0 
0.0 3.570362083875431E-4 38:1.0 312:1.0 685:1.0 699:1.0 860:1.0 1100:1.0 1834:1.0 2094:1.0 2916:1.0 3361:1.0 3995:1.0 4009:1.0 4300:1.0 4717:1.0 5085:1.0 5431:1.0 5569:1.0 6147:1.0 
4.4028795573026623E-4 3.3071439945903874E-5 85:1.0 395:1.0 827:1.0 841:1.0 1003:1.0 1394:1.0 1957:1.0 2668:1.0 3981:1.0 4017:1.0 4071:1.0 4733:1.0 5040:1.0 5444:1.0 5607:1.0 6136:1.0 
2.7831824181750016E-4 2.0556720576159363E-5 119:1.0 400:1.0 623:1.0 623:1.0 636:1.0 636:1.0 1208:1.0 1394:1.0 2061:1.0 2661:1.0 3600:1.0 4017:1.0 4110:1.0 4726:1.0 5103:1.0 5447:1.0 5664:1.0 6136:1.0 
8.635232195997038E-5 0.0 41:1.0 313:1.0 685:1.0 685:1.0 685:1.0 699:1.0 699:1.0 699:1.0 1032:1.0 1097:1.0 1806:1.0 2094:1.0 3108:1.0 3361:1.0 4163:1.0 4712:1.0 5211:1.0 5436:1.0 5585:1.0 6138:1.0 6583:1.0 6826:1.0 
2.3615452116732314E-4 0.0 65:1.0 314:1.0 499:1.0 512:1.0 685:1.0 685:1.0 699:1.0 699:1.0 822:1.0 1100:1.0 1834:1.0 2094:1.0 2916:1.0 3361:1.0 4147:1.0 4709:1.0 4962:1.0 5430:1.0 6124:1.0 6139:1.0 6307:1.0 6836:1.0 
2.1799250869265044E-4 0.0 95:1.0 314:1.0 1088:1.0 1095:1.0 1659:1.0 2094:1.0 3211:1.0 3361:1.0 4300:1.0 4717:1.0 5085:1.0 5431:1.0 5591:1.0 6136:1.0 6436:1.0 6831:1.0 
0.0018862097354200725 2.4166539399431434E-4 307:1.0 314:1.0 499:1.0 512:1.0 950:1.0 1100:1.0 1773:1.0 2094:1.0 3325:1.0 3361:1.0 3995:1.0 4009:1.0 4124:1.0 4708:1.0 4957:1.0 5435:1.0 6096:1.0 6135:1.0 6523:1.0 6829:1.0 
4.905314937429405E-4 9.835705303369836E-5 17:1.0 400:1.0 1008:1.0 1394:1.0 2574:1.0 2661:1.0 3663:1.0 4020:1.0 4247:1.0 4736:1.0 5200:1.0 5435:1.0 5785:1.0 6129:1.0 
3.3371056728690655E-4 3.2717197173037614E-5 343:1.0 391:1.0 623:1.0 636:1.0 827:1.0 827:1.0 841:1.0 841:1.0 1003:1.0 1394:1.0 2412:1.0 2661:1.0 3641:1.0 4011:1.0 4328:1.0 4735:1.0 5097:1.0 5440:1.0 5807:1.0 6138:1.0 
3.966501183144184E-4 0.0 261:1.0 316:1.0 882:1.0 1103:1.0 1717:1.0 2094:1.0 2864:1.0 3361:1.0 3995:1.0 4009:1.0 4399:1.0 4712:1.0 5176:1.0 5435:1.0 5963:1.0 6138:1.0 6318:1.0 6826:1.0 
0.0 3.533023435335379E-4 70:1.0 310:1.0 685:1.0 685:1.0 685:1.0 685:1.0 685:1.0 685:1.0 699:1.0 699:1.0 699:1.0 699:1.0 699:1.0 699:1.0 927:1.0 1095:1.0 1527:1.0 1541:1.0 1659:1.0 2094:1.0 3077:1.0 3361:1.0 4300:1.0 4717:1.0 5101:1.0 5436:1.0 5786:1.0 6135:1.0 6479:1.0 6838:1.0 
1.3037289699110446E-4 0.0 74:1.0 313:1.0 822:1.0 1100:1.0 1717:1.0 2094:1.0 3327:1.0 3361:1.0 4300:1.0 4717:1.0 5340:1.0 5426:1.0 5569:1.0 6147:1.0 
2.977419700089989E-4 0.0 87:1.0 314:1.0 499:1.0 512:1.0 753:1.0 1100:1.0 1717:1.0 2094:1.0 3327:1.0 3361:1.0 4300:1.0 4717:1.0 5340:1.0 5426:1.0 5591:1.0 6136:1.0 6611:1.0 6826:1.0 
2.0501567748490763E-4 0.0 115:1.0 310:1.0 685:1.0 685:1.0 699:1.0 699:1.0 1074:1.0 1091:1.0 1323:1.0 1323:1.0 1336:1.0 1336:1.0 1527:1.0 1527:1.0 1541:1.0 1541:1.0 1703:1.0 2094:1.0 2734:1.0 3361:1.0 4363:1.0 4720:1.0 4846:1.0 5435:1.0 5750:1.0 6145:1.0 6310:1.0 6829:1.0 
3.2972725350044536E-5 0.0 158:1.0 322:1.0 761:1.0 1100:1.0 1773:1.0 2094:1.0 2823:1.0 3361:1.0 3995:1.0 4009:1.0 4452:1.0 4717:1.0 4947:1.0 5436:1.0 5720:1.0 6135:1.0 6444:1.0 6835:1.0 
0.0 1.492280903143207E-4 406:1.0 552:1.0 1714:1.0 1819:1.0 2758:1.0 3175:1.0 3368:1.0 3884:1.0 4345:1.0 4602:1.0 5279:1.0 5289:1.0 
0.0010868125039936577 0.0 158:1.0 322:1.0 941:1.0 1100:1.0 1659:1.0 2094:1.0 3173:1.0 3361:1.0 4610:1.0 4711:1.0 5028:1.0 5435:1.0 5674:1.0 6145:1.0 6331:1.0 6826:1.0 
1.889900582540516E-4 0.0 51:1.0 319:1.0 499:1.0 499:1.0 512:1.0 512:1.0 822:1.0 1100:1.0 1323:1.0 1323:1.0 1323:1.0 1336:1.0 1336:1.0 1336:1.0 1717:1.0 2094:1.0 3284:1.0 3361:1.0 4300:1.0 4717:1.0 5112:1.0 5436:1.0 5790:1.0 6135:1.0 6180:1.0 6828:1.0 
4.3668080499205916E-5 9.74192297608607E-6 209:1.0 395:1.0 827:1.0 827:1.0 827:1.0 841:1.0 841:1.0 841:1.0 1208:1.0 1394:1.0 2326:1.0 2661:1.0 3900:1.0 4010:1.0 4055:1.0 4728:1.0 5416:1.0 5439:1.0 5506:1.0 6135:1.0 
3.911207821666595E-4 0.0 302:1.0 314:1.0 685:1.0 685:1.0 699:1.0 699:1.0 722:1.0 1100:1.0 1703:1.0 2094:1.0 3035:1.0 3368:1.0 4147:1.0 4709:1.0 4947:1.0 5436:1.0 5945:1.0 6142:1.0 6800:1.0 6835:1.0 
8.37226699778204E-4 2.2816256731252065E-4 302:1.0 314:1.0 685:1.0 685:1.0 699:1.0 699:1.0 916:1.0 1098:1.0 1323:1.0 1336:1.0 1527:1.0 1527:1.0 1541:1.0 1541:1.0 1703:1.0 2094:1.0 3159:1.0 3368:1.0 4681:1.0 4717:1.0 4771:1.0 5433:1.0 5569:1.0 6147:1.0 
5.960297987559469E-4 5.812699883753331E-5 258:1.0 402:1.0 623:1.0 636:1.0 1134:1.0 1394:1.0 2081:1.0 2661:1.0 3857:1.0 4012:1.0 4511:1.0 4736:1.0 5377:1.0 5435:1.0 5744:1.0 6135:1.0 
5.951242712903112E-4 1.3425031839158283E-4 24:1.0 552:1.0 1533:1.0 1819:1.0 2453:1.0 2467:1.0 2758:1.0 3175:1.0 3368:1.0 3884:1.0 4345:1.0 4602:1.0 5076:1.0 5289:1.0 
4.2887951344600415E-4 4.9639885570140924E-5 21:1.0 318:1.0 891:1.0 1099:1.0 1834:1.0 2094:1.0 3156:1.0 3361:1.0 4114:1.0 4717:1.0 4747:1.0 5437:1.0 5740:1.0 6144:1.0 6197:1.0 6833:1.0 
0.0011375135440142357 7.972195716693145E-5 301:1.0 392:1.0 623:1.0 636:1.0 827:1.0 841:1.0 1134:1.0 1394:1.0 2138:1.0 2664:1.0 3295:1.0 3309:1.0 3724:1.0 4016:1.0 4412:1.0 4736:1.0 5266:1.0 5435:1.0 5567:1.0 6135:1.0 
4.411924566378155E-4 4.3482374534523514E-5 37:1.0 400:1.0 1003:1.0 1394:1.0 2193:1.0 2668:1.0 3447:1.0 4009:1.0 4247:1.0 4736:1.0 5114:1.0 5442:1.0 5744:1.0 6135:1.0 
3.309417816063198E-4 3.625282300557102E-5 133:1.0 398:1.0 623:1.0 636:1.0 827:1.0 827:1.0 841:1.0 841:1.0 1003:1.0 1394:1.0 2321:1.0 2668:1.0 3600:1.0 4017:1.0 4441:1.0 4726:1.0 4771:1.0 5437:1.0 5485:1.0 6130:1.0 
3.471334307894141E-4 1.0599856835829901E-4 5:1.0 314:1.0 499:1.0 499:1.0 512:1.0 512:1.0 685:1.0 685:1.0 699:1.0 699:1.0 950:1.0 1100:1.0 1703:1.0 2094:1.0 2726:1.0 3366:1.0 4247:1.0 4713:1.0 4967:1.0 5431:1.0 5505:1.0 6144:1.0 6328:1.0 6826:1.0 
3.410230630759577E-5 8.00228126279019E-5 32:1.0 315:1.0 499:1.0 499:1.0 499:1.0 512:1.0 512:1.0 512:1.0 685:1.0 685:1.0 699:1.0 699:1.0 950:1.0 1100:1.0 1703:1.0 2094:1.0 3249:1.0 3363:1.0 4021:1.0 4710:1.0 4997:1.0 5430:1.0 5521:1.0 6145:1.0 6338:1.0 6826:1.0 
1.5268652378863854E-4 0.0 32:1.0 315:1.0 499:1.0 499:1.0 499:1.0 512:1.0 512:1.0 512:1.0 685:1.0 685:1.0 699:1.0 699:1.0 844:1.0 1095:1.0 1527:1.0 1527:1.0 1541:1.0 1541:1.0 1592:1.0 2094:1.0 2834:1.0 3361:1.0 4049:1.0 4717:1.0 5112:1.0 5436:1.0 6030:1.0 6137:1.0 6694:1.0 6830:1.0 
6.934234844698853E-4 0.0012034923202615844 77:1.0 310:1.0 685:1.0 699:1.0 722:1.0 1100:1.0 1834:1.0 2094:1.0 3249:1.0 3363:1.0 4564:1.0 4712:1.0 5112:1.0 5436:1.0 5890:1.0 6135:1.0 6444:1.0 6835:1.0 
3.067747013951929E-4 9.444802911543603E-5 246:1.0 314:1.0 685:1.0 699:1.0 951:1.0 1091:1.0 1323:1.0 1323:1.0 1336:1.0 1336:1.0 1527:1.0 1541:1.0 1717:1.0 2094:1.0 2995:1.0 3361:1.0 4300:1.0 4717:1.0 4779:1.0 5429:1.0 5746:1.0 6135:1.0 6259:1.0 6835:1.0 
0.001013669927291782 1.3859833546726096E-4 538:1.0 552:1.0 1799:1.0 1824:1.0 2605:1.0 3167:1.0 3419:1.0 3894:1.0 4016:1.0 4598:1.0 5125:1.0 5289:1.0 
0.001015588102270435 4.6713335875438076E-5 382:1.0 396:1.0 623:1.0 636:1.0 827:1.0 841:1.0 1017:1.0 1394:1.0 2053:1.0 2666:1.0 3832:1.0 4013:1.0 4098:1.0 4730:1.0 4902:1.0 5445:1.0 5757:1.0 6126:1.0 
4.10487702027734E-4 4.5849582517717454E-5 33:1.0 395:1.0 827:1.0 841:1.0 959:1.0 1394:1.0 2259:1.0 2661:1.0 3900:1.0 4010:1.0 4542:1.0 4730:1.0 4974:1.0 5445:1.0 5594:1.0 6129:1.0 
1.6501993648741003E-4 0.0 130:1.0 310:1.0 685:1.0 699:1.0 990:1.0 1095:1.0 1527:1.0 1541:1.0 1717:1.0 2094:1.0 2711:1.0 3361:1.0 3995:1.0 4009:1.0 4600:1.0 4710:1.0 5049:1.0 5430:1.0 5887:1.0 6144:1.0 6553:1.0 6826:1.0 
2.048124721697709E-4 0.0 25:1.0 310:1.0 685:1.0 685:1.0 699:1.0 699:1.0 875:1.0 1095:1.0 1323:1.0 1323:1.0 1336:1.0 1336:1.0 1527:1.0 1541:1.0 1717:1.0 2094:1.0 3058:1.0 3361:1.0 3995:1.0 4009:1.0 4363:1.0 4720:1.0 5047:1.0 5435:1.0 5901:1.0 6139:1.0 6809:1.0 6837:1.0 
2.1200355924048435E-4 9.277613906720389E-5 204:1.0 314:1.0 499:1.0 499:1.0 512:1.0 512:1.0 685:1.0 699:1.0 822:1.0 1100:1.0 1834:1.0 2094:1.0 2677:1.0 3361:1.0 4122:1.0 4720:1.0 
7.933283002176302E-4 0.0 305:1.0 310:1.0 685:1.0 685:1.0 699:1.0 699:1.0 753:1.0 1100:1.0 1659:1.0 2094:1.0 3279:1.0 3361:1.0 4651:1.0 4711:1.0 5028:1.0 5435:1.0 5660:1.0 6145:1.0 6385:1.0 6829:1.0 
0.004110725367860025 8.017017310258536E-4 272:1.0 310:1.0 499:1.0 512:1.0 685:1.0 685:1.0 699:1.0 699:1.0 860:1.0 1100:1.0 1703:1.0 2094:1.0 2883:1.0 3364:1.0 4253:1.0 4708:1.0 5091:1.0 5438:1.0 5789:1.0 6145:1.0 6225:1.0 6826:1.0 
3.515220130210411E-4 4.637573774432078E-5 246:1.0 394:1.0 623:1.0 623:1.0 636:1.0 636:1.0 1106:1.0 1394:1.0 2011:1.0 2661:1.0 4006:1.0 4016:1.0 4119:1.0 4730:1.0 5409:1.0 5444:1.0 5664:1.0 6136:1.0 
0.0011189039877549458 6.109416089170553E-5 33:1.0 314:1.0 685:1.0 685:1.0 699:1.0 699:1.0 1076:1.0 1100:1.0 1703:1.0 2094:1.0 2991:1.0 3366:1.0 4159:1.0 4713:1.0 5028:1.0 5435:1.0 6052:1.0 6140:1.0 6444:1.0 6835:1.0 
1.8740819422001192E-4 0.0 254:1.0 310:1.0 685:1.0 685:1.0 685:1.0 699:1.0 699:1.0 699:1.0 822:1.0 1100:1.0 1717:1.0 2094:1.0 3353:1.0 3361:1.0 4661:1.0 4711:1.0 5063:1.0 5438:1.0 5803:1.0 6147:1.0 6374:1.0 6835:1.0 
5.395934809604466E-4 0.0 158:1.0 322:1.0 822:1.0 1100:1.0 1323:1.0 1323:1.0 1323:1.0 1336:1.0 1336:1.0 1336:1.0 1703:1.0 2094:1.0 3166:1.0 3361:1.0 3995:1.0 4009:1.0 4363:1.0 4720:1.0 5073:1.0 5431:1.0 5475:1.0 6140:1.0 6507:1.0 6838:1.0 
-0.002647551721700917 5.878172691593255E-4 88:1.0 314:1.0 685:1.0 685:1.0 699:1.0 699:1.0 1002:1.0 1095:1.0 1527:1.0 1541:1.0 1717:1.0 2094:1.0 2982:1.0 3373:1.0 4598:1.0 4708:1.0 5358:1.0 5429:1.0 5775:1.0 6147:1.0 6444:1.0 6835:1.0 
-8.316632058019508E-4 4.6948804762226806E-4 239:1.0 314:1.0 685:1.0 699:1.0 1030:1.0 1091:1.0 1323:1.0 1323:1.0 1323:1.0 1323:1.0 1336:1.0 1336:1.0 1336:1.0 1336:1.0 1527:1.0 1527:1.0 1541:1.0 1541:1.0 1717:1.0 2094:1.0 2982:1.0 3373:1.0 4598:1.0 4708:1.0 5028:1.0 5435:1.0 5674:1.0 6145:1.0 6718:1.0 6826:1.0 
-0.0029450290842944907 6.843045721479698E-4 237:1.0 310:1.0 685:1.0 685:1.0 699:1.0 699:1.0 1060:1.0 1091:1.0 1527:1.0 1527:1.0 1541:1.0 1541:1.0 2080:1.0 2094:1.0 2634:1.0 2648:1.0 3304:1.0 3366:1.0 4681:1.0 4717:1.0 5405:1.0 5431:1.0 5740:1.0 6144:1.0 6378:1.0 6836:1.0 
-5.888907924230299E-4 5.4241440908156744E-5 237:1.0 310:1.0 685:1.0 685:1.0 699:1.0 699:1.0 1060:1.0 1091:1.0 1527:1.0 1527:1.0 1541:1.0 1541:1.0 2080:1.0 2094:1.0 2634:1.0 2648:1.0 3304:1.0 3366:1.0 4687:1.0 4713:1.0 4739:1.0 4744:1.0 5209:1.0 5431:1.0 5456:1.0 5456:1.0 5461:1.0 5461:1.0 5569:1.0 6147:1.0 6621:1.0 6831:1.0 6845:1.0 6845:1.0 6849:1.0 6849:1.0 6855:1.0 6860:1.0 
-0.004798993256632846 4.398213720241147E-4 197:1.0 319:1.0 882:1.0 1103:1.0 1703:1.0 2094:1.0 2688:1.0 3364:1.0 4617:1.0 4708:1.0 5063:1.0 5438:1.0 5591:1.0 6136:1.0 6180:1.0 6828:1.0 
-0.0010409689456956316 0.0 241:1.0 314:1.0 685:1.0 685:1.0 699:1.0 699:1.0 822:1.0 1100:1.0 1717:1.0 2094:1.0 2984:1.0 3364:1.0 4214:1.0 4708:1.0 5028:1.0 5435:1.0 5660:1.0 6145:1.0 6713:1.0 6831:1.0 
-0.0010729317459907321 8.407616887622457E-4 89:1.0 310:1.0 499:1.0 499:1.0 512:1.0 512:1.0 685:1.0 685:1.0 685:1.0 699:1.0 699:1.0 699:1.0 822:1.0 1100:1.0 1659:1.0 2094:1.0 2663:1.0 3364:1.0 4488:1.0 4708:1.0 5028:1.0 5435:1.0 5664:1.0 6145:1.0 6513:1.0 6826:1.0 
-0.0027992045952292014 0.0011969930551440793 79:1.0 314:1.0 499:1.0 512:1.0 685:1.0 699:1.0 988:1.0 1100:1.0 1908:1.0 2094:1.0 3237:1.0 3364:1.0 4692:1.0 4708:1.0 5063:1.0 5438:1.0 5569:1.0 6147:1.0 
-0.001007300580239315 0.0018323700308843572 252:1.0 314:1.0 499:1.0 512:1.0 685:1.0 699:1.0 944:1.0 1091:1.0 1323:1.0 1323:1.0 1323:1.0 1336:1.0 1336:1.0 1336:1.0 1527:1.0 1527:1.0 1541:1.0 1541:1.0 1834:1.0 2094:1.0 2419:1.0 2432:1.0 2634:1.0 2648:1.0 2931:1.0 3366:1.0 4363:1.0 4720:1.0 5023:1.0 5431:1.0 5879:1.0 6140:1.0 6245:1.0 6831:1.0 
-4.596253015615397E-4 0.0012240787541827358 252:1.0 314:1.0 499:1.0 512:1.0 685:1.0 699:1.0 944:1.0 1091:1.0 1323:1.0 1323:1.0 1323:1.0 1336:1.0 1336:1.0 1336:1.0 1527:1.0 1527:1.0 1541:1.0 1541:1.0 1834:1.0 2094:1.0 2419:1.0 2432:1.0 2634:1.0 2648:1.0 2931:1.0 3366:1.0 3814:1.0 3828:1.0 4147:1.0 4709:1.0 5244:1.0 5431:1.0 5803:1.0 6147:1.0 6459:1.0 6831:1.0 
-3.3439734853594203E-4 0.002630050516308306 252:1.0 314:1.0 499:1.0 512:1.0 685:1.0 699:1.0 944:1.0 1091:1.0 1323:1.0 1323:1.0 1323:1.0 1336:1.0 1336:1.0 1336:1.0 1527:1.0 1527:1.0 1541:1.0 1541:1.0 1834:1.0 2094:1.0 2419:1.0 2432:1.0 2634:1.0 2648:1.0 2931:1.0 3366:1.0 3814:1.0 3814:1.0 3828:1.0 3828:1.0 4520:1.0 4713:1.0 5091:1.0 5438:1.0 5755:1.0 6140:1.0 6193:1.0 6831:1.0 
-0.0017366246528736618 0.0015236776965354758 243:1.0 314:1.0 499:1.0 512:1.0 685:1.0 699:1.0 761:1.0 1100:1.0 1834:1.0 2094:1.0 2843:1.0 3364:1.0 4013:1.0 4708:1.0 5181:1.0 5429:1.0 5591:1.0 6136:1.0 6779:1.0 6829:1.0 
-0.010247958147150966 0.0014513379376648742 538:1.0 552:1.0 1776:1.0 1822:1.0 3143:1.0 3166:1.0 3486:1.0 3893:1.0 4118:1.0 4603:1.0 4979:1.0 5284:1.0 
-0.0014560822697534095 0.0 159:1.0 314:1.0 685:1.0 685:1.0 699:1.0 699:1.0 988:1.0 1100:1.0 1703:1.0 2094:1.0 2863:1.0 3364:1.0 4664:1.0 4708:1.0 5028:1.0 5435:1.0 5660:1.0 6145:1.0 6556:1.0 6829:1.0 
-0.0026636168078388723 0.0010011568074420206 291:1.0 310:1.0 685:1.0 685:1.0 685:1.0 699:1.0 699:1.0 699:1.0 860:1.0 1100:1.0 1703:1.0 2094:1.0 3063:1.0 3364:1.0 4546:1.0 4708:1.0 4877:1.0 5427:1.0 5738:1.0 6137:1.0 6217:1.0 6833:1.0 
-0.0020245224026449113 7.538297204616422E-4 165:1.0 314:1.0 499:1.0 499:1.0 499:1.0 512:1.0 512:1.0 512:1.0 685:1.0 685:1.0 699:1.0 699:1.0 822:1.0 1100:1.0 1834:1.0 2094:1.0 3203:1.0 3364:1.0 4189:1.0 4715:1.0 4877:1.0 5427:1.0 5773:1.0 6139:1.0 6396:1.0 6829:1.0 
-0.0019765058189097915 0.002354704354299219 20:1.0 310:1.0 499:1.0 499:1.0 512:1.0 512:1.0 685:1.0 685:1.0 685:1.0 685:1.0 685:1.0 685:1.0 699:1.0 699:1.0 699:1.0 699:1.0 699:1.0 699:1.0 751:1.0 1095:1.0 1527:1.0 1541:1.0 1908:1.0 2094:1.0 2419:1.0 2419:1.0 2419:1.0 2432:1.0 2432:1.0 2432:1.0 3201:1.0 3368:1.0 4224:1.0 4708:1.0 4854:1.0 5438:1.0 
-0.0038857097331035386 7.111956302213988E-4 201:1.0 310:1.0 685:1.0 685:1.0 699:1.0 699:1.0 761:1.0 1100:1.0 1717:1.0 2094:1.0 2799:1.0 3364:1.0 4357:1.0 4713:1.0 5320:1.0 5428:1.0 5798:1.0 6139:1.0 6364:1.0 6836:1.0 
-0.003224241457005394 0.0024169631066444535 38:1.0 312:1.0 685:1.0 699:1.0 860:1.0 1100:1.0 1834:1.0 2094:1.0 2854:1.0 3364:1.0 4271:1.0 4708:1.0 5028:1.0 5435:1.0 5797:1.0 6140:1.0 6274:1.0 6838:1.0 
-9.39545299674972E-4 1.1124925520651016E-4 41:1.0 313:1.0 685:1.0 685:1.0 685:1.0 699:1.0 699:1.0 699:1.0 785:1.0 1095:1.0 1527:1.0 1527:1.0 1541:1.0 1541:1.0 1908:1.0 2094:1.0 2783:1.0 3364:1.0 4447:1.0 4708:1.0 4957:1.0 5435:1.0 5823:1.0 6145:1.0 6416:1.0 6826:1.0 
-0.0035411131630376422 0.0012346672648935859 307:1.0 314:1.0 499:1.0 512:1.0 950:1.0 1100:1.0 1773:1.0 2094:1.0 3318:1.0 3364:1.0 4673:1.0 4708:1.0 4856:1.0 5426:1.0 5670:1.0 6144:1.0 6788:1.0 6826:1.0 
-0.004555853425461127 6.998818532585131E-4 261:1.0 316:1.0 882:1.0 1103:1.0 1717:1.0 2094:1.0 3318:1.0 3364:1.0 4220:1.0 4708:1.0 5126:1.0 5430:1.0 5887:1.0 6144:1.0 6663:1.0 6829:1.0 
-0.0017214651401127748 2.465328599530163E-4 128:1.0 312:1.0 685:1.0 685:1.0 699:1.0 699:1.0 860:1.0 1100:1.0 1659:1.0 2094:1.0 3147:1.0 3364:1.0 4276:1.0 4708:1.0 5028:1.0 5435:1.0 5660:1.0 6145:1.0 6636:1.0 6826:1.0 
-0.003981438979410728 6.074578677093208E-4 158:1.0 322:1.0 761:1.0 1100:1.0 1773:1.0 2094:1.0 2805:1.0 3364:1.0 4179:1.0 4708:1.0 5176:1.0 5435:1.0 5660:1.0 6145:1.0 6424:1.0 6826:1.0 
-0.009325848502920814 0.001451997834567209 24:1.0 552:1.0 1605:1.0 1822:1.0 2886:1.0 3166:1.0 3486:1.0 3893:1.0 4081:1.0 4593:1.0 5046:1.0 5293:1.0 
-0.005893063506918981 8.472224042108544E-4 301:1.0 392:1.0 623:1.0 636:1.0 827:1.0 841:1.0 1134:1.0 1394:1.0 1996:1.0 2672:1.0 3494:1.0 4011:1.0 4450:1.0 4734:1.0 5123:1.0 5445:1.0 5966:1.0 6126:1.0 
-0.002074638002886585 8.877186472395782E-4 130:1.0 310:1.0 685:1.0 699:1.0 990:1.0 1095:1.0 1527:1.0 1541:1.0 1717:1.0 2094:1.0 2789:1.0 3364:1.0 4070:1.0 4708:1.0 5320:1.0 5428:1.0 5761:1.0 6139:1.0 6588:1.0 6835:1.0 
-0.0013892035231343363 2.7184798518324724E-4 25:1.0 310:1.0 685:1.0 685:1.0 699:1.0 699:1.0 875:1.0 1095:1.0 1323:1.0 1323:1.0 1336:1.0 1336:1.0 1527:1.0 1541:1.0 1717:1.0 2094:1.0 3221:1.0 3364:1.0 4411:1.0 4708:1.0 5091:1.0 5438:1.0 5759:1.0 6144:1.0 6602:1.0 6830:1.0 
-0.0025373051658063336 5.264788736339395E-4 33:1.0 314:1.0 499:1.0 512:1.0 685:1.0 685:1.0 699:1.0 699:1.0 1004:1.0 1100:1.0 1773:1.0 2094:1.0 2982:1.0 3373:1.0 4587:1.0 4708:1.0 4957:1.0 5435:1.0 5674:1.0 6145:1.0 6818:1.0 6826:1.0 
-0.0025226687952996205 2.7216047289612804E-4 158:1.0 322:1.0 822:1.0 1100:1.0 1323:1.0 1323:1.0 1323:1.0 1336:1.0 1336:1.0 1336:1.0 1703:1.0 2094:1.0 2863:1.0 3364:1.0 4517:1.0 4708:1.0 5091:1.0 5438:1.0 5785:1.0 6140:1.0 6184:1.0 6831:1.0 
-0.001480002915541411 -0.0033275493961516757 252:1.0 314:1.0 499:1.0 512:1.0 685:1.0 699:1.0 944:1.0 1091:1.0 1323:1.0 1323:1.0 1323:1.0 1336:1.0 1336:1.0 1336:1.0 1527:1.0 1527:1.0 1541:1.0 1541:1.0 1834:1.0 2094:1.0 2634:1.0 2648:1.0 2946:1.0 3370:1.0 4285:1.0 4713:1.0 5091:1.0 5438:1.0 5735:1.0 6140:1.0 6580:1.0 6831:1.0 
-0.0012866425873110147 -0.0040150140946343515 252:1.0 314:1.0 499:1.0 512:1.0 685:1.0 699:1.0 944:1.0 1091:1.0 1323:1.0 1323:1.0 1323:1.0 1336:1.0 1336:1.0 1336:1.0 1527:1.0 1527:1.0 1541:1.0 1541:1.0 1834:1.0 2094:1.0 2419:1.0 2432:1.0 2634:1.0 2648:1.0 2931:1.0 3366:1.0 3814:1.0 3814:1.0 3814:1.0 3828:1.0 3828:1.0 3828:1.0 4122:1.0 4720:1.0 
-0.004686575993836042 -0.004209459432934507 38:1.0 312:1.0 685:1.0 699:1.0 860:1.0 1100:1.0 1834:1.0 2094:1.0 3358:1.0 3368:1.0 4442:1.0 4708:1.0 4788:1.0 5437:1.0 6021:1.0 6138:1.0 6444:1.0 6835:1.0 
-0.005143907072094285 -0.00420441956485992 160:1.0 310:1.0 685:1.0 699:1.0 860:1.0 1100:1.0 1834:1.0 2094:1.0 2944:1.0 3371:1.0 4442:1.0 4708:1.0 5266:1.0 5429:1.0 5471:1.0 6137:1.0 6622:1.0 6834:1.0 
-0.004746854623183076 -0.0034085331462227466 179:1.0 310:1.0 499:1.0 512:1.0 685:1.0 699:1.0 950:1.0 1100:1.0 1834:1.0 2094:1.0 2722:1.0 3364:1.0 4015:1.0 4715:1.0 5123:1.0 5426:1.0 5887:1.0 6144:1.0 6639:1.0 6836:1.0 
-0.0029390751520365767 -0.0025590756777481485 179:1.0 310:1.0 499:1.0 512:1.0 685:1.0 699:1.0 950:1.0 1100:1.0 1834:1.0 2094:1.0 2419:1.0 2432:1.0 2654:1.0 3368:1.0 4396:1.0 4708:1.0 5176:1.0 5435:1.0 5938:1.0 6145:1.0 6823:1.0 6833:1.0 
-0.0027056423383848265 -0.0016371210172996015 179:1.0 310:1.0 499:1.0 499:1.0 512:1.0 512:1.0 685:1.0 699:1.0 950:1.0 1100:1.0 1923:1.0 2094:1.0 3358:1.0 3368:1.0 4442:1.0 4708:1.0 5042:1.0 5434:1.0 5794:1.0 6143:1.0 6444:1.0 6835:1.0 
-0.0016684487738858238 -0.0014621985867948064 20:1.0 310:1.0 499:1.0 499:1.0 512:1.0 512:1.0 685:1.0 685:1.0 685:1.0 685:1.0 685:1.0 685:1.0 699:1.0 699:1.0 699:1.0 699:1.0 699:1.0 699:1.0 751:1.0 1095:1.0 1527:1.0 1541:1.0 1908:1.0 2094:1.0 3297:1.0 3372:1.0 4293:1.0 4719:1.0 5028:1.0 5435:1.0 5985:1.0 6142:1.0 6371:1.0 6826:1.0 
-0.001444571082758741 -0.0011348111901049703 20:1.0 310:1.0 499:1.0 499:1.0 512:1.0 512:1.0 685:1.0 685:1.0 685:1.0 685:1.0 685:1.0 685:1.0 699:1.0 699:1.0 699:1.0 699:1.0 699:1.0 699:1.0 751:1.0 1095:1.0 1527:1.0 1541:1.0 1908:1.0 2094:1.0 2419:1.0 2432:1.0 2939:1.0 3372:1.0 4300:1.0 4717:1.0 5275:1.0 5433:1.0 5667:1.0 6135:1.0 6274:1.0 6838:1.0 
-0.0012928540340367298 -0.0013718252124138167 20:1.0 310:1.0 499:1.0 499:1.0 512:1.0 512:1.0 685:1.0 685:1.0 685:1.0 685:1.0 685:1.0 685:1.0 699:1.0 699:1.0 699:1.0 699:1.0 699:1.0 699:1.0 751:1.0 1095:1.0 1527:1.0 1541:1.0 1908:1.0 2094:1.0 2419:1.0 2419:1.0 2432:1.0 2432:1.0 2946:1.0 3370:1.0 4552:1.0 4715:1.0 4954:1.0 5426:1.0 5569:1.0 6147:1.0 
