svm_type c_svc
kernel_type polynomial
degree 2
gamma 1.0
coef0 1.0
nr_class 3
total_sv 8643
rho 0.6497165101386139 0.8065686746969224 0.41232670482958156
label 0 2 1
nr_sv 197 4431 4015
SV
0.0037825766361046444 0.0034900747538046933 2642:1.0 19458:1.0 33683:1.0 33700:1.0 42437:1.0 42455:1.0 47654:1.0 65075:1.0 81564:1.0 81581:1.0 91049:1.0 91049:1.0 91067:1.0 91067:1.0 112135:1.0 118722:1.0 184261:1.0 187828:1.0 224957:1.0 259533:1.0 275496:1.0 296312:1.0 308173:1.0 332243:1.0 360861:1.0 367350:1.0 
0.001854854108837441 0.0010212392063384662 2642:1.0 19458:1.0 33683:1.0 33700:1.0 42437:1.0 42455:1.0 47654:1.0 65075:1.0 81564:1.0 81581:1.0 91049:1.0 91049:1.0 91067:1.0 91067:1.0 112135:1.0 118722:1.0 141127:1.0 141144:1.0 152658:1.0 187828:1.0 238377:1.0 259539:1.0 271796:1.0 296318:1.0 325630:1.0 332231:1.0 344403:1.0 367361:1.0 
0.0070803768576793435 0.002050316573469795 7812:1.0 19458:1.0 33683:1.0 33683:1.0 33700:1.0 33700:1.0 42437:1.0 42455:1.0 54164:1.0 65089:1.0 112135:1.0 118722:1.0 159672:1.0 187828:1.0 239419:1.0 259544:1.0 273207:1.0 296318:1.0 300897:1.0 332231:1.0 347165:1.0 367355:1.0 
0.0023723110635645054 0.003347548695416293 7812:1.0 19458:1.0 33683:1.0 33683:1.0 33700:1.0 33700:1.0 42437:1.0 42455:1.0 54164:1.0 65089:1.0 112135:1.0 118722:1.0 141127:1.0 141144:1.0 167370:1.0 187839:1.0 236046:1.0 259545:1.0 264381:1.0 296306:1.0 311698:1.0 332236:1.0 339112:1.0 367364:1.0 
0.013043891851684029 0.0032007640594287705 3594:1.0 19453:1.0 42437:1.0 42437:1.0 42455:1.0 42455:1.0 57027:1.0 65081:1.0 91049:1.0 91049:1.0 91067:1.0 91067:1.0 112135:1.0 118722:1.0 184403:1.0 187833:1.0 229763:1.0 259547:1.0 
0.007917628947928869 0.014302690802780519 21362:1.0 22625:1.0 48593:1.0 48611:1.0 72438:1.0 76266:1.0 127631:1.0 145386:1.0 215758:1.0 217088:1.0 244035:1.0 253862:1.0 289066:1.0 289775:1.0 305791:1.0 324905:1.0 
8.437035082627647E-4 0.0035893307708061207 4939:1.0 19458:1.0 33683:1.0 33683:1.0 33700:1.0 33700:1.0 42437:1.0 42455:1.0 54164:1.0 65089:1.0 112135:1.0 118722:1.0 151206:1.0 151224:1.0 156625:1.0 187839:1.0 229594:1.0 259539:1.0 273207:1.0 296318:1.0 330249:1.0 332231:1.0 340529:1.0 367353:1.0 
0.013762382550986718 0.009933911902073517 11923:1.0 19453:1.0 42437:1.0 42437:1.0 42455:1.0 42455:1.0 64985:1.0 65085:1.0 112135:1.0 118722:1.0 176201:1.0 187834:1.0 223532:1.0 223550:1.0 258919:1.0 259538:1.0 267033:1.0 296320:1.0 
6.667646978344824E-4 0.0018871216006742248 9425:1.0 19453:1.0 33683:1.0 33683:1.0 33700:1.0 33700:1.0 42437:1.0 42455:1.0 48201:1.0 65075:1.0 91049:1.0 91049:1.0 91067:1.0 91067:1.0 96711:1.0 118722:1.0 151206:1.0 151224:1.0 175568:1.0 187841:1.0 224117:1.0 259533:1.0 275024:1.0 296306:1.0 315389:1.0 332245:1.0 335607:1.0 367363:1.0 
0.0010217871540310383 9.195406429929982E-4 9425:1.0 19453:1.0 33683:1.0 33683:1.0 33700:1.0 33700:1.0 42437:1.0 42455:1.0 48201:1.0 65075:1.0 91049:1.0 91049:1.0 91067:1.0 91067:1.0 96711:1.0 118722:1.0 141127:1.0 141144:1.0 151206:1.0 151224:1.0 151800:1.0 187828:1.0 237897:1.0 259533:1.0 279162:1.0 296320:1.0 299947:1.0 332244:1.0 339823:1.0 367355:1.0 
0.0012686927499067943 0.0 9425:1.0 19453:1.0 33683:1.0 33683:1.0 33700:1.0 33700:1.0 42437:1.0 42455:1.0 48201:1.0 65075:1.0 91049:1.0 91049:1.0 91067:1.0 91067:1.0 96711:1.0 118722:1.0 141127:1.0 141127:1.0 141144:1.0 141144:1.0 151206:1.0 151224:1.0 165819:1.0 187828:1.0 242095:1.0 259547:1.0 263412:1.0 296319:1.0 304232:1.0 332236:1.0 355097:1.0 367361:1.0 
4.709450751970212E-4 0.0015974898604313385 9425:1.0 19453:1.0 33683:1.0 33683:1.0 33700:1.0 33700:1.0 42437:1.0 42455:1.0 48201:1.0 65075:1.0 91049:1.0 91049:1.0 91067:1.0 91067:1.0 96711:1.0 118722:1.0 141127:1.0 141127:1.0 141127:1.0 141144:1.0 141144:1.0 141144:1.0 151206:1.0 151224:1.0 170087:1.0 187842:1.0 226070:1.0 259546:1.0 267770:1.0 296311:1.0 319774:1.0 332242:1.0 348131:1.0 367362:1.0 
0.011632445012951036 0.015243881602726305 3678:1.0 27654:1.0 76302:1.0 96771:1.0 167870:1.0 168478:1.0 202480:1.0 205248:1.0 217825:1.0 241174:1.0 252630:1.0 276294:1.0 
8.892181823743364E-4 0.0022722747345558757 11166:1.0 19458:1.0 42437:1.0 42437:1.0 42455:1.0 42455:1.0 60190:1.0 65081:1.0 91049:1.0 91049:1.0 91049:1.0 91067:1.0 91067:1.0 91067:1.0 114894:1.0 118722:1.0 151206:1.0 151224:1.0 170087:1.0 187842:1.0 258441:1.0 259536:1.0 294888:1.0 296316:1.0 326996:1.0 332231:1.0 338247:1.0 367361:1.0 
0.0 7.601855255991885E-4 11166:1.0 19458:1.0 42437:1.0 42437:1.0 42455:1.0 42455:1.0 60190:1.0 65081:1.0 91049:1.0 91049:1.0 91049:1.0 91067:1.0 91067:1.0 91067:1.0 114894:1.0 118722:1.0 141127:1.0 141144:1.0 151206:1.0 151224:1.0 186716:1.0 187831:1.0 258090:1.0 259543:1.0 290981:1.0 296306:1.0 302632:1.0 332242:1.0 343698:1.0 367362:1.0 
0.0 0.0013692369505134256 11166:1.0 19458:1.0 42437:1.0 42437:1.0 42455:1.0 42455:1.0 60190:1.0 65081:1.0 91049:1.0 91049:1.0 91049:1.0 91067:1.0 91067:1.0 91067:1.0 114894:1.0 118722:1.0 141127:1.0 141127:1.0 141144:1.0 141144:1.0 151206:1.0 151224:1.0 186361:1.0 187838:1.0 215838:1.0 215838:1.0 215856:1.0 215856:1.0 242095:1.0 259547:1.0 295232:1.0 296309:1.0 312795:1.0 332242:1.0 343331:1.0 367350:1.0 
0.0 0.0010283301729027894 11166:1.0 19458:1.0 42437:1.0 42437:1.0 42455:1.0 42455:1.0 60190:1.0 65081:1.0 91049:1.0 91049:1.0 91049:1.0 91067:1.0 91067:1.0 91067:1.0 114894:1.0 118722:1.0 141127:1.0 141127:1.0 141127:1.0 141144:1.0 141144:1.0 141144:1.0 151206:1.0 151224:1.0 170087:1.0 187842:1.0 258441:1.0 259536:1.0 276521:1.0 296317:1.0 307799:1.0 332231:1.0 344403:1.0 367361:1.0 
5.299894767211369E-4 0.0019531132014481193 11166:1.0 19458:1.0 42437:1.0 42437:1.0 42455:1.0 42455:1.0 60190:1.0 65081:1.0 91049:1.0 91049:1.0 91049:1.0 91067:1.0 91067:1.0 91067:1.0 114894:1.0 118722:1.0 141127:1.0 141127:1.0 141127:1.0 141127:1.0 141144:1.0 141144:1.0 141144:1.0 141144:1.0 151206:1.0 151224:1.0 186716:1.0 187831:1.0 239419:1.0 259544:1.0 271416:1.0 296306:1.0 308893:1.0 332242:1.0 343698:1.0 367362:1.0 
0.0016615774922464968 0.001170554927399468 11166:1.0 19458:1.0 42437:1.0 42437:1.0 42455:1.0 42455:1.0 60190:1.0 65081:1.0 91049:1.0 91049:1.0 91049:1.0 91067:1.0 91067:1.0 91067:1.0 114894:1.0 118722:1.0 141127:1.0 141127:1.0 141127:1.0 141127:1.0 141127:1.0 141144:1.0 141144:1.0 141144:1.0 141144:1.0 141144:1.0 151206:1.0 151224:1.0 152119:1.0 187828:1.0 223532:1.0 223532:1.0 223550:1.0 223550:1.0 229763:1.0 259547:1.0 
0.007557579935010166 0.005986633893052385 1585:1.0 22619:1.0 48593:1.0 48611:1.0 69679:1.0 76266:1.0 135109:1.0 145372:1.0 209028:1.0 217082:1.0 226223:1.0 253856:1.0 285030:1.0 289783:1.0 308340:1.0 324908:1.0 
0.003936451481857746 0.004334768488389129 1585:1.0 22619:1.0 48593:1.0 48611:1.0 69679:1.0 76266:1.0 98671:1.0 98688:1.0 137182:1.0 145377:1.0 188988:1.0 217083:1.0 249024:1.0 253858:1.0 272933:1.0 289789:1.0 293363:1.0 324907:1.0 
0.0026672339776277138 0.0029185137756201403 5426:1.0 19458:1.0 33683:1.0 33683:1.0 33700:1.0 33700:1.0 42437:1.0 42437:1.0 42455:1.0 42455:1.0 60702:1.0 65081:1.0 81564:1.0 81564:1.0 81564:1.0 81581:1.0 81581:1.0 81581:1.0 91049:1.0 91049:1.0 91067:1.0 91067:1.0 112135:1.0 118722:1.0 186471:1.0 187828:1.0 229334:1.0 259533:1.0 267033:1.0 296320:1.0 
0.0015871997996712982 0.0 5426:1.0 19458:1.0 33683:1.0 33683:1.0 33700:1.0 33700:1.0 42437:1.0 42437:1.0 42455:1.0 42455:1.0 60702:1.0 65081:1.0 81564:1.0 81564:1.0 81564:1.0 81581:1.0 81581:1.0 81581:1.0 91049:1.0 91049:1.0 91067:1.0 91067:1.0 112135:1.0 118722:1.0 141127:1.0 141144:1.0 157110:1.0 187828:1.0 229763:1.0 259547:1.0 
0.00162555238276765 0.0025431709175702914 9297:1.0 22625:1.0 48593:1.0 48593:1.0 48593:1.0 48611:1.0 48611:1.0 48611:1.0 64357:1.0 76266:1.0 108750:1.0 108768:1.0 127631:1.0 145386:1.0 212178:1.0 217085:1.0 252897:1.0 253863:1.0 272933:1.0 289789:1.0 310269:1.0 324900:1.0 
0.002842592658614689 0.0023011435079660606 21572:1.0 22625:1.0 39108:1.0 39125:1.0 69679:1.0 76266:1.0 108750:1.0 108768:1.0 111903:1.0 145385:1.0 199639:1.0 217091:1.0 230751:1.0 253862:1.0 287486:1.0 289775:1.0 305791:1.0 324905:1.0 
4.163089835309227E-4 0.0028483770070320807 21572:1.0 22625:1.0 39108:1.0 39125:1.0 69679:1.0 76266:1.0 98671:1.0 98688:1.0 108750:1.0 108768:1.0 127631:1.0 145386:1.0 193590:1.0 217089:1.0 251523:1.0 253850:1.0 270339:1.0 289786:1.0 302601:1.0 324906:1.0 
0.004025986420748031 0.0028979749819869425 16772:1.0 19460:1.0 44956:1.0 65075:1.0 91049:1.0 91067:1.0 112135:1.0 118722:1.0 151206:1.0 151224:1.0 178058:1.0 187828:1.0 242095:1.0 259547:1.0 262015:1.0 296312:1.0 309552:1.0 332243:1.0 367105:1.0 367350:1.0 
0.002171082668055575 0.002419378314763951 16772:1.0 19460:1.0 44956:1.0 65075:1.0 91049:1.0 91067:1.0 112135:1.0 118722:1.0 141127:1.0 141144:1.0 151206:1.0 151224:1.0 170087:1.0 187842:1.0 224654:1.0 259539:1.0 273207:1.0 296318:1.0 331982:1.0 332231:1.0 339112:1.0 367364:1.0 
0.0027058113532571087 0.0021005085491633342 16440:1.0 19453:1.0 33683:1.0 33683:1.0 33700:1.0 33700:1.0 42437:1.0 42437:1.0 42455:1.0 42455:1.0 47311:1.0 65079:1.0 112135:1.0 118722:1.0 151206:1.0 151224:1.0 170906:1.0 187841:1.0 242095:1.0 259547:1.0 276521:1.0 296317:1.0 308299:1.0 332231:1.0 350796:1.0 367364:1.0 
8.630418672451083E-4 4.816439616674984E-4 16440:1.0 19453:1.0 33683:1.0 33683:1.0 33700:1.0 33700:1.0 42437:1.0 42437:1.0 42455:1.0 42455:1.0 47311:1.0 65079:1.0 112135:1.0 118722:1.0 141127:1.0 141144:1.0 151206:1.0 151224:1.0 170087:1.0 187842:1.0 239419:1.0 259544:1.0 271925:1.0 296306:1.0 315389:1.0 332245:1.0 343698:1.0 367362:1.0 
0.009449569247648247 0.003579592291271337 330:1.0 22625:1.0 39108:1.0 39108:1.0 39108:1.0 39125:1.0 39125:1.0 39125:1.0 48593:1.0 48611:1.0 69679:1.0 76266:1.0 110718:1.0 145378:1.0 181076:1.0 181076:1.0 181076:1.0 181094:1.0 181094:1.0 181094:1.0 187307:1.0 217091:1.0 
3.6595936988417744E-4 0.0011626971437480658 3648:1.0 19457:1.0 42437:1.0 42437:1.0 42455:1.0 42455:1.0 53316:1.0 65081:1.0 81564:1.0 81564:1.0 81564:1.0 81581:1.0 81581:1.0 81581:1.0 91049:1.0 91049:1.0 91049:1.0 91067:1.0 91067:1.0 91067:1.0 112135:1.0 118722:1.0 153338:1.0 187828:1.0 215838:1.0 215838:1.0 215856:1.0 215856:1.0 223532:1.0 223532:1.0 223532:1.0 223532:1.0 223532:1.0 223532:1.0 223532:1.0 223550:1.0 223550:1.0 223550:1.0 223550:1.0 223550:1.0 223550:1.0 223550:1.0 239303:1.0 259547:1.0 279162:1.0 296320:1.0 328630:1.0 332244:1.0 336787:1.0 367360:1.0 
0.004793647026628029 0.003523431940076876 9482:1.0 19462:1.0 63490:1.0 65081:1.0 91049:1.0 91067:1.0 112135:1.0 118722:1.0 172467:1.0 187828:1.0 223532:1.0 223532:1.0 223532:1.0 223550:1.0 223550:1.0 223550:1.0 254634:1.0 259541:1.0 271423:1.0 296319:1.0 323549:1.0 332235:1.0 336601:1.0 367360:1.0 
0.008301522415850677 0.011263436493038828 12744:1.0 27654:1.0 79019:1.0 96774:1.0 160190:1.0 168476:1.0 182139:1.0 205250:1.0 207359:1.0 241163:1.0 257179:1.0 276293:1.0 
0.003111294319369028 0.0029556904669942965 5534:1.0 22625:1.0 39108:1.0 39108:1.0 39108:1.0 39125:1.0 39125:1.0 39125:1.0 48593:1.0 48611:1.0 69679:1.0 76266:1.0 110814:1.0 145378:1.0 181076:1.0 181076:1.0 181076:1.0 181094:1.0 181094:1.0 181094:1.0 198852:1.0 217091:1.0 233943:1.0 253862:1.0 284439:1.0 289775:1.0 312641:1.0 324905:1.0 
0.0 8.746172934488795E-6 4297:1.0 19458:1.0 33683:1.0 33700:1.0 42437:1.0 42437:1.0 42455:1.0 42455:1.0 62601:1.0 65075:1.0 81564:1.0 81581:1.0 91049:1.0 91067:1.0 112135:1.0 118722:1.0 151206:1.0 151206:1.0 151224:1.0 151224:1.0 186554:1.0 187834:1.0 215838:1.0 215838:1.0 215856:1.0 215856:1.0 223532:1.0 223532:1.0 223550:1.0 223550:1.0 229763:1.0 259547:1.0 
0.003985203232280551 0.002542402910244761 12974:1.0 19453:1.0 33683:1.0 33683:1.0 33683:1.0 33700:1.0 33700:1.0 33700:1.0 42437:1.0 42437:1.0 42437:1.0 42437:1.0 42455:1.0 42455:1.0 42455:1.0 42455:1.0 54164:1.0 65089:1.0 112135:1.0 118722:1.0 181569:1.0 187828:1.0 254634:1.0 259541:1.0 268957:1.0 296318:1.0 304504:1.0 332231:1.0 333760:1.0 367354:1.0 
0.0018627878896037941 0.0023934366164912345 12974:1.0 19453:1.0 33683:1.0 33683:1.0 33683:1.0 33700:1.0 33700:1.0 33700:1.0 42437:1.0 42437:1.0 42437:1.0 42437:1.0 42455:1.0 42455:1.0 42455:1.0 42455:1.0 54164:1.0 65089:1.0 112135:1.0 118722:1.0 141127:1.0 141144:1.0 182843:1.0 187836:1.0 231729:1.0 259545:1.0 268049:1.0 296306:1.0 298054:1.0 332235:1.0 360577:1.0 367360:1.0 
0.006139596173487567 0.004882403229654958 10522:1.0 19453:1.0 33683:1.0 33700:1.0 42437:1.0 42455:1.0 62189:1.0 65080:1.0 91049:1.0 91067:1.0 112135:1.0 118722:1.0 159672:1.0 187828:1.0 239419:1.0 259544:1.0 273207:1.0 296318:1.0 326676:1.0 332231:1.0 348247:1.0 367361:1.0 
0.0015513175481661598 0.0015889248632802132 10522:1.0 19453:1.0 33683:1.0 33700:1.0 42437:1.0 42455:1.0 62189:1.0 65080:1.0 91049:1.0 91067:1.0 112135:1.0 118722:1.0 141127:1.0 141144:1.0 181987:1.0 187828:1.0 215838:1.0 215838:1.0 215856:1.0 215856:1.0 223532:1.0 223532:1.0 223550:1.0 223550:1.0 229763:1.0 259547:1.0 
0.0015528117757462633 0.0036204796358365273 6004:1.0 19458:1.0 33683:1.0 33700:1.0 49655:1.0 65075:1.0 91049:1.0 91067:1.0 112135:1.0 118722:1.0 151206:1.0 151206:1.0 151224:1.0 151224:1.0 166101:1.0 187834:1.0 215838:1.0 215856:1.0 223532:1.0 223550:1.0 241308:1.0 259547:1.0 278387:1.0 296320:1.0 331927:1.0 332237:1.0 343950:1.0 367362:1.0 
0.0 0.0010807529597124318 6004:1.0 19458:1.0 33683:1.0 33700:1.0 49655:1.0 65075:1.0 91049:1.0 91067:1.0 112135:1.0 118722:1.0 141127:1.0 141144:1.0 151206:1.0 151206:1.0 151224:1.0 151224:1.0 169286:1.0 187842:1.0 241308:1.0 259547:1.0 295996:1.0 296312:1.0 308430:1.0 332243:1.0 337651:1.0 367350:1.0 
5.8822243665874506E-5 0.0016227870711934926 6004:1.0 19458:1.0 33683:1.0 33700:1.0 49655:1.0 65075:1.0 91049:1.0 91067:1.0 112135:1.0 118722:1.0 141127:1.0 141127:1.0 141144:1.0 141144:1.0 151206:1.0 151206:1.0 151224:1.0 151224:1.0 169286:1.0 187842:1.0 259221:1.0 259539:1.0 272065:1.0 296318:1.0 302022:1.0 332231:1.0 355097:1.0 367361:1.0 
0.006489349141235928 0.009342126229074309 21067:1.0 27654:1.0 60138:1.0 60156:1.0 90364:1.0 96766:1.0 124770:1.0 124770:1.0 124788:1.0 124788:1.0 138695:1.0 168479:1.0 
0.0 0.003957543485410516 21067:1.0 27654:1.0 50059:1.0 50076:1.0 60138:1.0 60156:1.0 66479:1.0 96774:1.0 
0.0025546219254608048 0.00357397166249043 15529:1.0 22625:1.0 64357:1.0 76266:1.0 108750:1.0 108768:1.0 127631:1.0 145386:1.0 212178:1.0 217085:1.0 250401:1.0 253860:1.0 261467:1.0 289781:1.0 314363:1.0 324906:1.0 
0.0013479887413237399 0.002430416271988406 1449:1.0 22625:1.0 48593:1.0 48611:1.0 64357:1.0 76266:1.0 108750:1.0 108768:1.0 127631:1.0 145386:1.0 183614:1.0 217090:1.0 244150:1.0 253855:1.0 287350:1.0 289785:1.0 320233:1.0 324902:1.0 
2.728627923994352E-4 0.0023734155524813595 11060:1.0 19458:1.0 42437:1.0 42455:1.0 56837:1.0 65075:1.0 81564:1.0 81581:1.0 91049:1.0 91067:1.0 112135:1.0 118722:1.0 151206:1.0 151224:1.0 166101:1.0 187834:1.0 215838:1.0 215838:1.0 215838:1.0 215838:1.0 215838:1.0 215838:1.0 215838:1.0 215856:1.0 215856:1.0 215856:1.0 215856:1.0 215856:1.0 215856:1.0 215856:1.0 242095:1.0 259547:1.0 266688:1.0 296317:1.0 307806:1.0 332244:1.0 356007:1.0 367356:1.0 
0.010688710522270776 0.010759732881989822 9575:1.0 19453:1.0 33683:1.0 33700:1.0 42437:1.0 42455:1.0 54164:1.0 65089:1.0 112135:1.0 118722:1.0 177565:1.0 187828:1.0 234609:1.0 259545:1.0 291234:1.0 296306:1.0 312795:1.0 332242:1.0 343698:1.0 367362:1.0 
0.0 0.003280248755474963 16191:1.0 22625:1.0 39108:1.0 39108:1.0 39108:1.0 39125:1.0 39125:1.0 39125:1.0 48593:1.0 48611:1.0 69679:1.0 76266:1.0 108750:1.0 108768:1.0 112003:1.0 145378:1.0 173382:1.0 173400:1.0 181076:1.0 181076:1.0 181094:1.0 181094:1.0 187307:1.0 217091:1.0 
0.005855939304970651 0.005859760125077036 264:1.0 22625:1.0 48593:1.0 48611:1.0 69679:1.0 76266:1.0 116131:1.0 145377:1.0 193590:1.0 217089:1.0 228871:1.0 253850:1.0 285552:1.0 289780:1.0 320233:1.0 324898:1.0 
1.3299875938003705E-4 3.431306943333539E-4 8159:1.0 19457:1.0 33683:1.0 33683:1.0 33700:1.0 33700:1.0 42437:1.0 42437:1.0 42437:1.0 42455:1.0 42455:1.0 42455:1.0 54617:1.0 65080:1.0 81564:1.0 81581:1.0 91049:1.0 91049:1.0 91067:1.0 91067:1.0 112135:1.0 118722:1.0 151206:1.0 151224:1.0 171593:1.0 187833:1.0 242095:1.0 259547:1.0 291576:1.0 296316:1.0 324548:1.0 332237:1.0 333760:1.0 367354:1.0 
0.0 6.40123704876384E-4 8159:1.0 19457:1.0 33683:1.0 33683:1.0 33700:1.0 33700:1.0 42437:1.0 42437:1.0 42437:1.0 42455:1.0 42455:1.0 42455:1.0 54617:1.0 65080:1.0 81564:1.0 81581:1.0 91049:1.0 91049:1.0 91067:1.0 91067:1.0 112135:1.0 118722:1.0 141127:1.0 141144:1.0 151206:1.0 151224:1.0 170087:1.0 187842:1.0 254731:1.0 259543:1.0 288486:1.0 296312:1.0 298054:1.0 332235:1.0 361814:1.0 367350:1.0 
0.0012958269081310677 0.002641175171857043 1921:1.0 22625:1.0 48593:1.0 48611:1.0 64357:1.0 76266:1.0 108750:1.0 108768:1.0 127631:1.0 145386:1.0 196963:1.0 217088:1.0 249146:1.0 253856:1.0 274099:1.0 289787:1.0 313599:1.0 324894:1.0 
0.01716562294497134 0.012112780665969953 5100:1.0 27654:1.0 80525:1.0 96765:1.0 151027:1.0 168479:1.0 180728:1.0 205250:1.0 207280:1.0 241163:1.0 257179:1.0 276293:1.0 
0.0 0.00132224850277395 5100:1.0 27654:1.0 50059:1.0 50076:1.0 79019:1.0 96774:1.0 143541:1.0 168477:1.0 170720:1.0 205238:1.0 221727:1.0 241174:1.0 265206:1.0 276287:1.0 
0.0015252204341035989 0.0023038529182886616 7624:1.0 19458:1.0 33683:1.0 33700:1.0 42437:1.0 42437:1.0 42437:1.0 42455:1.0 42455:1.0 42455:1.0 54164:1.0 65089:1.0 96711:1.0 118722:1.0 175568:1.0 187841:1.0 248933:1.0 259545:1.0 269772:1.0 296306:1.0 312795:1.0 332242:1.0 348360:1.0 367350:1.0 
0.006172768847662186 0.002424996280411152 18079:1.0 19458:1.0 33683:1.0 33683:1.0 33683:1.0 33683:1.0 33700:1.0 33700:1.0 33700:1.0 33700:1.0 42437:1.0 42455:1.0 61350:1.0 65081:1.0 81564:1.0 81581:1.0 112135:1.0 118722:1.0 170673:1.0 187834:1.0 223532:1.0 223532:1.0 223532:1.0 223550:1.0 223550:1.0 223550:1.0 229763:1.0 259547:1.0 
0.0 0.0016439538115369137 7982:1.0 19458:1.0 33683:1.0 33683:1.0 33683:1.0 33683:1.0 33683:1.0 33700:1.0 33700:1.0 33700:1.0 33700:1.0 33700:1.0 42437:1.0 42437:1.0 42437:1.0 42455:1.0 42455:1.0 42455:1.0 47866:1.0 65075:1.0 81564:1.0 81581:1.0 91049:1.0 91067:1.0 112135:1.0 118722:1.0 151206:1.0 151224:1.0 168280:1.0 187834:1.0 215838:1.0 215856:1.0 223532:1.0 223532:1.0 223550:1.0 223550:1.0 242095:1.0 259547:1.0 292327:1.0 296312:1.0 308893:1.0 332242:1.0 351487:1.0 367362:1.0 
0.0 3.339549755970223E-4 7982:1.0 19458:1.0 33683:1.0 33683:1.0 33683:1.0 33683:1.0 33683:1.0 33700:1.0 33700:1.0 33700:1.0 33700:1.0 33700:1.0 42437:1.0 42437:1.0 42437:1.0 42455:1.0 42455:1.0 42455:1.0 47866:1.0 65075:1.0 81564:1.0 81581:1.0 91049:1.0 91067:1.0 112135:1.0 118722:1.0 141127:1.0 141144:1.0 151206:1.0 151224:1.0 170087:1.0 187842:1.0 255489:1.0 259539:1.0 272534:1.0 296317:1.0 316086:1.0 332243:1.0 342492:1.0 367350:1.0 
0.0 1.7852907541532334E-4 17316:1.0 19453:1.0 33683:1.0 33700:1.0 42437:1.0 42437:1.0 42455:1.0 42455:1.0 51727:1.0 65081:1.0 81564:1.0 81581:1.0 91049:1.0 91049:1.0 91049:1.0 91049:1.0 91049:1.0 91067:1.0 91067:1.0 91067:1.0 91067:1.0 91067:1.0 112135:1.0 118722:1.0 151206:1.0 151224:1.0 167472:1.0 187834:1.0 215838:1.0 215856:1.0 223532:1.0 223532:1.0 223550:1.0 223550:1.0 229763:1.0 259547:1.0 
0.007109755290776617 0.009193471063428658 11201:1.0 22633:1.0 66220:1.0 76266:1.0 127631:1.0 145386:1.0 199499:1.0 217091:1.0 247009:1.0 253863:1.0 279123:1.0 289789:1.0 307594:1.0 324908:1.0 
0.0025506463206664914 0.0023529216723269667 12568:1.0 19458:1.0 33683:1.0 33700:1.0 42437:1.0 42437:1.0 42437:1.0 42455:1.0 42455:1.0 42455:1.0 49240:1.0 65081:1.0 81564:1.0 81564:1.0 81581:1.0 81581:1.0 91049:1.0 91049:1.0 91049:1.0 91049:1.0 91049:1.0 91067:1.0 91067:1.0 91067:1.0 91067:1.0 91067:1.0 112135:1.0 118722:1.0 186471:1.0 187828:1.0 229334:1.0 259533:1.0 267033:1.0 296320:1.0 
0.0012425153991886032 0.0 12568:1.0 19458:1.0 33683:1.0 33700:1.0 42437:1.0 42437:1.0 42437:1.0 42455:1.0 42455:1.0 42455:1.0 49240:1.0 65081:1.0 81564:1.0 81564:1.0 81581:1.0 81581:1.0 91049:1.0 91049:1.0 91049:1.0 91049:1.0 91049:1.0 91067:1.0 91067:1.0 91067:1.0 91067:1.0 91067:1.0 112135:1.0 118722:1.0 141127:1.0 141144:1.0 157110:1.0 187828:1.0 229763:1.0 259547:1.0 
0.0 0.0017207314924789728 21668:1.0 22629:1.0 39108:1.0 39108:1.0 39125:1.0 39125:1.0 48593:1.0 48593:1.0 48593:1.0 48593:1.0 48593:1.0 48611:1.0 48611:1.0 48611:1.0 48611:1.0 48611:1.0 69679:1.0 76266:1.0 108750:1.0 108750:1.0 108750:1.0 108768:1.0 108768:1.0 108768:1.0 134128:1.0 145385:1.0 173382:1.0 173382:1.0 173400:1.0 173400:1.0 187307:1.0 217091:1.0 
0.0013472535291666214 0.002559886419067113 1025:1.0 19458:1.0 33683:1.0 33683:1.0 33683:1.0 33683:1.0 33700:1.0 33700:1.0 33700:1.0 33700:1.0 42437:1.0 42437:1.0 42455:1.0 42455:1.0 54164:1.0 65089:1.0 96711:1.0 118722:1.0 175568:1.0 187841:1.0 259255:1.0 259539:1.0 272534:1.0 296317:1.0 308173:1.0 332243:1.0 349198:1.0 367350:1.0 
0.002158617261769243 0.004710824509632998 6094:1.0 22625:1.0 39108:1.0 39125:1.0 69679:1.0 76266:1.0 108750:1.0 108768:1.0 124459:1.0 145378:1.0 173382:1.0 173400:1.0 181076:1.0 181094:1.0 199639:1.0 217091:1.0 230751:1.0 253862:1.0 285004:1.0 289775:1.0 305791:1.0 324905:1.0 
0.0 0.0016356426062120143 11058:1.0 22625:1.0 39108:1.0 39108:1.0 39108:1.0 39125:1.0 39125:1.0 39125:1.0 48593:1.0 48593:1.0 48611:1.0 48611:1.0 69679:1.0 76266:1.0 108750:1.0 108768:1.0 139544:1.0 145378:1.0 173382:1.0 173382:1.0 173382:1.0 173382:1.0 173382:1.0 173400:1.0 173400:1.0 173400:1.0 173400:1.0 173400:1.0 187307:1.0 217091:1.0 
0.0019059179273154452 0.002932116119858833 15405:1.0 19458:1.0 33683:1.0 33700:1.0 42437:1.0 42455:1.0 42761:1.0 65081:1.0 91049:1.0 91049:1.0 91049:1.0 91049:1.0 91067:1.0 91067:1.0 91067:1.0 91067:1.0 112135:1.0 118722:1.0 170071:1.0 187833:1.0 215838:1.0 215838:1.0 215838:1.0 215856:1.0 215856:1.0 215856:1.0 223532:1.0 223550:1.0 229763:1.0 259547:1.0 
0.009072451569953338 0.012329756836345924 11107:1.0 22633:1.0 68235:1.0 76266:1.0 133112:1.0 145385:1.0 185816:1.0 217083:1.0 234065:1.0 253861:1.0 269965:1.0 289787:1.0 317910:1.0 324894:1.0 
0.003556431335695848 0.006579289560365767 18686:1.0 19458:1.0 33683:1.0 33683:1.0 33700:1.0 33700:1.0 42437:1.0 42437:1.0 42455:1.0 42455:1.0 63179:1.0 65081:1.0 114894:1.0 118722:1.0 169147:1.0 187842:1.0 244430:1.0 259536:1.0 276818:1.0 296312:1.0 317632:1.0 332234:1.0 333760:1.0 367354:1.0 
0.001722914439414369 0.002484343908948187 18686:1.0 19458:1.0 33683:1.0 33683:1.0 33700:1.0 33700:1.0 42437:1.0 42437:1.0 42455:1.0 42455:1.0 63179:1.0 65081:1.0 114894:1.0 118722:1.0 141127:1.0 141144:1.0 172450:1.0 187831:1.0 239720:1.0 259539:1.0 281457:1.0 296309:1.0 298054:1.0 332235:1.0 339492:1.0 367356:1.0 
0.0023934947561092363 0.0022622291623010196 18641:1.0 19462:1.0 33683:1.0 33700:1.0 42437:1.0 42455:1.0 58944:1.0 65081:1.0 112135:1.0 118722:1.0 151206:1.0 151224:1.0 170548:1.0 187841:1.0 242095:1.0 259547:1.0 272534:1.0 296317:1.0 315712:1.0 332243:1.0 337067:1.0 367350:1.0 
7.157323018354441E-4 0.0011108319705788454 18641:1.0 19462:1.0 33683:1.0 33700:1.0 42437:1.0 42455:1.0 58944:1.0 65081:1.0 112135:1.0 118722:1.0 141127:1.0 141144:1.0 151206:1.0 151224:1.0 170087:1.0 187842:1.0 235363:1.0 259544:1.0 279491:1.0 296318:1.0 301429:1.0 332231:1.0 338247:1.0 367361:1.0 
0.0028846154562771017 2.785244483057946E-4 14039:1.0 19458:1.0 33683:1.0 33683:1.0 33700:1.0 33700:1.0 42437:1.0 42437:1.0 42437:1.0 42455:1.0 42455:1.0 42455:1.0 52122:1.0 65075:1.0 81564:1.0 81564:1.0 81581:1.0 81581:1.0 91049:1.0 91049:1.0 91067:1.0 91067:1.0 112135:1.0 118722:1.0 159672:1.0 187828:1.0 239419:1.0 259544:1.0 268957:1.0 296318:1.0 321763:1.0 332231:1.0 355097:1.0 367361:1.0 
0.0 3.6886380802608705E-4 14039:1.0 19458:1.0 33683:1.0 33683:1.0 33700:1.0 33700:1.0 42437:1.0 42437:1.0 42437:1.0 42455:1.0 42455:1.0 42455:1.0 52122:1.0 65075:1.0 81564:1.0 81564:1.0 81581:1.0 81581:1.0 91049:1.0 91049:1.0 91067:1.0 91067:1.0 112135:1.0 118722:1.0 141127:1.0 141144:1.0 167370:1.0 187839:1.0 231729:1.0 259545:1.0 285650:1.0 296306:1.0 319774:1.0 332242:1.0 340959:1.0 367362:1.0 
0.0029234587622417926 0.004888840583619453 1159:1.0 19458:1.0 51569:1.0 65082:1.0 91049:1.0 91067:1.0 112135:1.0 118722:1.0 177522:1.0 187833:1.0 215838:1.0 215856:1.0 223532:1.0 223550:1.0 231271:1.0 259536:1.0 291480:1.0 296310:1.0 314492:1.0 332245:1.0 342979:1.0 367356:1.0 
0.0037013902214531862 0.0040487750718968 1159:1.0 19458:1.0 51569:1.0 65082:1.0 91049:1.0 91067:1.0 112135:1.0 118722:1.0 141127:1.0 141144:1.0 159081:1.0 187831:1.0 254634:1.0 259537:1.0 278250:1.0 296320:1.0 307443:1.0 332237:1.0 355097:1.0 367361:1.0 
0.00900105064927943 0.007703272676003916 15590:1.0 22625:1.0 48593:1.0 48593:1.0 48611:1.0 48611:1.0 69679:1.0 76266:1.0 127615:1.0 145377:1.0 181076:1.0 181094:1.0 192153:1.0 217089:1.0 226402:1.0 253850:1.0 270339:1.0 289786:1.0 301242:1.0 324906:1.0 
0.0011302740339717789 0.0032185520078005575 1159:1.0 19458:1.0 33683:1.0 33683:1.0 33683:1.0 33700:1.0 33700:1.0 33700:1.0 47586:1.0 65081:1.0 81564:1.0 81581:1.0 112135:1.0 118722:1.0 164870:1.0 187833:1.0 215838:1.0 215838:1.0 215856:1.0 215856:1.0 223532:1.0 223550:1.0 223918:1.0 259536:1.0 292062:1.0 296312:1.0 327486:1.0 332239:1.0 355097:1.0 367361:1.0 
0.0025159272130982195 0.003360320578105792 5811:1.0 19458:1.0 33683:1.0 33700:1.0 42437:1.0 42455:1.0 54164:1.0 65089:1.0 96711:1.0 118722:1.0 175568:1.0 187841:1.0 236046:1.0 259545:1.0 293959:1.0 296306:1.0 310295:1.0 332237:1.0 335538:1.0 367361:1.0 
0.004596430500723071 0.0021773739011069723 18641:1.0 19462:1.0 33683:1.0 33683:1.0 33700:1.0 33700:1.0 44843:1.0 65081:1.0 81564:1.0 81581:1.0 112135:1.0 118722:1.0 159672:1.0 187828:1.0 239419:1.0 259544:1.0 273207:1.0 296318:1.0 300897:1.0 332231:1.0 347931:1.0 367355:1.0 
0.0011759809211075545 0.00239181594285795 18641:1.0 19462:1.0 33683:1.0 33683:1.0 33700:1.0 33700:1.0 44843:1.0 65081:1.0 81564:1.0 81581:1.0 112135:1.0 118722:1.0 141127:1.0 141144:1.0 167370:1.0 187839:1.0 236046:1.0 259545:1.0 264381:1.0 296306:1.0 312474:1.0 332236:1.0 340529:1.0 367353:1.0 
0.005987348975058968 0.0066179333953170745 3138:1.0 19458:1.0 61959:1.0 65083:1.0 96711:1.0 118722:1.0 175568:1.0 187841:1.0 234609:1.0 259545:1.0 271550:1.0 296306:1.0 300695:1.0 332236:1.0 366099:1.0 367361:1.0 
0.0 0.0019402499321729556 2867:1.0 19453:1.0 33683:1.0 33683:1.0 33700:1.0 33700:1.0 42437:1.0 42455:1.0 54371:1.0 65081:1.0 81564:1.0 81581:1.0 91049:1.0 91049:1.0 91067:1.0 91067:1.0 112135:1.0 118722:1.0 173510:1.0 187833:1.0 215838:1.0 215838:1.0 215856:1.0 215856:1.0 242095:1.0 259547:1.0 287906:1.0 296312:1.0 319774:1.0 332242:1.0 356819:1.0 367362:1.0 
0.002305542953257452 0.004337244751780365 10702:1.0 22625:1.0 48593:1.0 48593:1.0 48611:1.0 48611:1.0 69679:1.0 76266:1.0 114191:1.0 145377:1.0 173382:1.0 173382:1.0 173400:1.0 173400:1.0 181076:1.0 181094:1.0 199639:1.0 217091:1.0 230174:1.0 253856:1.0 274099:1.0 289787:1.0 306292:1.0 324906:1.0 
0.001763091034603364 0.003308263457512845 6496:1.0 19455:1.0 33683:1.0 33700:1.0 42437:1.0 42437:1.0 42437:1.0 42455:1.0 42455:1.0 42455:1.0 60430:1.0 65081:1.0 81564:1.0 81581:1.0 91049:1.0 91049:1.0 91049:1.0 91067:1.0 91067:1.0 91067:1.0 114963:1.0 118722:1.0 159081:1.0 187831:1.0 251021:1.0 259541:1.0 285703:1.0 296310:1.0 299227:1.0 332237:1.0 350796:1.0 367364:1.0 
0.0025401723753895366 0.0015512402384015274 6496:1.0 19455:1.0 33683:1.0 33700:1.0 42437:1.0 42437:1.0 42437:1.0 42455:1.0 42455:1.0 42455:1.0 60430:1.0 65081:1.0 81564:1.0 81581:1.0 91049:1.0 91049:1.0 91049:1.0 91067:1.0 91067:1.0 91067:1.0 114963:1.0 118722:1.0 141127:1.0 141144:1.0 153034:1.0 187834:1.0 223532:1.0 223532:1.0 223550:1.0 223550:1.0 242095:1.0 259547:1.0 296028:1.0 296309:1.0 325338:1.0 332237:1.0 344455:1.0 367355:1.0 
0.005334991029444033 0.007898864021081182 20455:1.0 27654:1.0 79019:1.0 96774:1.0 155054:1.0 168472:1.0 172259:1.0 205244:1.0 236418:1.0 241171:1.0 274939:1.0 276288:1.0 
0.006678450957341833 0.0017615326629289749 5906:1.0 22619:1.0 48593:1.0 48593:1.0 48593:1.0 48593:1.0 48611:1.0 48611:1.0 48611:1.0 48611:1.0 69679:1.0 76266:1.0 117216:1.0 145372:1.0 196963:1.0 217088:1.0 230751:1.0 253862:1.0 256026:1.0 289775:1.0 320233:1.0 324898:1.0 
0.0011090425881966695 0.0018858855922434935 5906:1.0 22619:1.0 48593:1.0 48593:1.0 48593:1.0 48593:1.0 48611:1.0 48611:1.0 48611:1.0 48611:1.0 69679:1.0 76266:1.0 98671:1.0 98688:1.0 124914:1.0 145383:1.0 193590:1.0 217089:1.0 219469:1.0 253850:1.0 285030:1.0 289779:1.0 312243:1.0 324900:1.0 
0.0019514591507651257 0.004722236299833069 18646:1.0 19457:1.0 33683:1.0 33683:1.0 33700:1.0 33700:1.0 42437:1.0 42437:1.0 42437:1.0 42455:1.0 42455:1.0 42455:1.0 43448:1.0 65081:1.0 91049:1.0 91049:1.0 91067:1.0 91067:1.0 112135:1.0 118722:1.0 181274:1.0 187833:1.0 215838:1.0 215856:1.0 223532:1.0 223550:1.0 234609:1.0 259545:1.0 261213:1.0 296306:1.0 312795:1.0 332242:1.0 343698:1.0 367362:1.0 
0.0 0.0027384988752390082 18641:1.0 19462:1.0 42437:1.0 42455:1.0 63020:1.0 65075:1.0 81564:1.0 81581:1.0 91049:1.0 91067:1.0 112135:1.0 118722:1.0 151206:1.0 151224:1.0 185409:1.0 187834:1.0 215838:1.0 215838:1.0 215856:1.0 215856:1.0 223532:1.0 223532:1.0 223532:1.0 223532:1.0 223532:1.0 223550:1.0 223550:1.0 223550:1.0 223550:1.0 223550:1.0 229763:1.0 259547:1.0 
0.004165048926183561 0.0039691045225669465 6470:1.0 19459:1.0 43888:1.0 65081:1.0 91049:1.0 91049:1.0 91067:1.0 91067:1.0 112135:1.0 118722:1.0 164712:1.0 187833:1.0 223532:1.0 223532:1.0 223550:1.0 223550:1.0 228233:1.0 259543:1.0 291480:1.0 296314:1.0 321514:1.0 332243:1.0 354818:1.0 367355:1.0 
0.0028136783690426532 0.0029191023698598145 1905:1.0 22625:1.0 48593:1.0 48611:1.0 69679:1.0 76266:1.0 108750:1.0 108768:1.0 142266:1.0 145385:1.0 199639:1.0 217091:1.0 231184:1.0 253850:1.0 270339:1.0 289786:1.0 300406:1.0 324899:1.0 
1.6428110229522846E-5 0.0015580455345810223 1905:1.0 22625:1.0 48593:1.0 48611:1.0 69679:1.0 76266:1.0 98671:1.0 98688:1.0 108750:1.0 108768:1.0 127631:1.0 145386:1.0 194032:1.0 217077:1.0 234065:1.0 253861:1.0 264868:1.0 289780:1.0 299625:1.0 324899:1.0 
0.0017252597529108832 1.9141010145503712E-4 12123:1.0 19458:1.0 33683:1.0 33683:1.0 33683:1.0 33700:1.0 33700:1.0 33700:1.0 42437:1.0 42437:1.0 42437:1.0 42437:1.0 42437:1.0 42437:1.0 42455:1.0 42455:1.0 42455:1.0 42455:1.0 42455:1.0 42455:1.0 52618:1.0 65080:1.0 81564:1.0 81581:1.0 91049:1.0 91049:1.0 91067:1.0 91067:1.0 112135:1.0 118722:1.0 151206:1.0 151224:1.0 153270:1.0 187834:1.0 223532:1.0 223532:1.0 223532:1.0 223550:1.0 223550:1.0 223550:1.0 229763:1.0 259547:1.0 
0.004600349533283634 0.0015704019147835646 703:1.0 19453:1.0 42437:1.0 42437:1.0 42437:1.0 42437:1.0 42455:1.0 42455:1.0 42455:1.0 42455:1.0 56311:1.0 65080:1.0 112135:1.0 118722:1.0 159672:1.0 187828:1.0 239419:1.0 259544:1.0 285395:1.0 296318:1.0 306721:1.0 332231:1.0 348247:1.0 367361:1.0 
0.001639535458914153 0.0026327362743170813 703:1.0 19453:1.0 42437:1.0 42437:1.0 42437:1.0 42437:1.0 42455:1.0 42455:1.0 42455:1.0 42455:1.0 56311:1.0 65080:1.0 112135:1.0 118722:1.0 141127:1.0 141144:1.0 167370:1.0 187839:1.0 248437:1.0 259545:1.0 270319:1.0 296306:1.0 312795:1.0 332242:1.0 366767:1.0 367362:1.0 
0.0031569575000081045 0.0018626670791498017 9332:1.0 19458:1.0 42437:1.0 42437:1.0 42437:1.0 42437:1.0 42455:1.0 42455:1.0 42455:1.0 42455:1.0 53974:1.0 65081:1.0 81564:1.0 81581:1.0 91049:1.0 91049:1.0 91049:1.0 91067:1.0 91067:1.0 91067:1.0 112135:1.0 118722:1.0 184000:1.0 187828:1.0 223532:1.0 223532:1.0 223532:1.0 223550:1.0 223550:1.0 223550:1.0 242095:1.0 259547:1.0 270179:1.0 296318:1.0 327486:1.0 332235:1.0 355117:1.0 367356:1.0 
0.0035912911835441564 0.003517668115656625 8039:1.0 19458:1.0 33683:1.0 33683:1.0 33683:1.0 33683:1.0 33700:1.0 33700:1.0 33700:1.0 33700:1.0 42437:1.0 42437:1.0 42455:1.0 42455:1.0 54653:1.0 65080:1.0 91049:1.0 91049:1.0 91049:1.0 91067:1.0 91067:1.0 91067:1.0 114894:1.0 118722:1.0 180547:1.0 187842:1.0 241170:1.0 259547:1.0 279162:1.0 296320:1.0 313514:1.0 332241:1.0 363521:1.0 367356:1.0 
0.001551707044403697 0.0040719750054569 14367:1.0 22624:1.0 48593:1.0 48593:1.0 48611:1.0 48611:1.0 69679:1.0 76266:1.0 143295:1.0 145378:1.0 173382:1.0 173382:1.0 173382:1.0 173400:1.0 173400:1.0 173400:1.0 181076:1.0 181076:1.0 181076:1.0 181076:1.0 181076:1.0 181076:1.0 181094:1.0 181094:1.0 181094:1.0 181094:1.0 181094:1.0 181094:1.0 198714:1.0 217091:1.0 224577:1.0 253864:1.0 
6.09998882647704E-4 7.741498573843489E-4 18659:1.0 19453:1.0 33683:1.0 33683:1.0 33700:1.0 33700:1.0 42437:1.0 42437:1.0 42437:1.0 42437:1.0 42437:1.0 42437:1.0 42455:1.0 42455:1.0 42455:1.0 42455:1.0 42455:1.0 42455:1.0 54164:1.0 65089:1.0 96711:1.0 118722:1.0 175568:1.0 187841:1.0 241450:1.0 259539:1.0 291480:1.0 296314:1.0 302632:1.0 332242:1.0 364878:1.0 367356:1.0 
0.005418741293402898 0.005936329581356595 20455:1.0 27654:1.0 79019:1.0 96774:1.0 144978:1.0 168477:1.0 202740:1.0 205243:1.0 233182:1.0 241163:1.0 267252:1.0 276287:1.0 
0.0029277018296947417 0.003996024633426505 12930:1.0 19458:1.0 33683:1.0 33700:1.0 61616:1.0 65089:1.0 96711:1.0 118722:1.0 175568:1.0 187841:1.0 241138:1.0 259539:1.0 263412:1.0 296319:1.0 320594:1.0 332244:1.0 355097:1.0 367361:1.0 
0.0033092338040716647 0.001396741487337498 12121:1.0 19453:1.0 42437:1.0 42455:1.0 62008:1.0 65085:1.0 112135:1.0 118722:1.0 151206:1.0 151224:1.0 178058:1.0 187828:1.0 242095:1.0 259547:1.0 293329:1.0 296312:1.0 298054:1.0 332235:1.0 348247:1.0 367361:1.0 
7.545111515452658E-4 0.001600430333844699 12121:1.0 19453:1.0 42437:1.0 42455:1.0 62008:1.0 65085:1.0 112135:1.0 118722:1.0 141127:1.0 141144:1.0 151206:1.0 151224:1.0 170087:1.0 187842:1.0 256510:1.0 259539:1.0 261488:1.0 296310:1.0 312795:1.0 332242:1.0 337275:1.0 367355:1.0 
0.0012691488623581125 0.0017839316782233012 5925:1.0 19457:1.0 33683:1.0 33683:1.0 33700:1.0 33700:1.0 42437:1.0 42437:1.0 42437:1.0 42455:1.0 42455:1.0 42455:1.0 54164:1.0 65089:1.0 96711:1.0 118722:1.0 175568:1.0 187841:1.0 234441:1.0 259539:1.0 291480:1.0 296314:1.0 314492:1.0 332245:1.0 358975:1.0 367354:1.0 
0.003968105140343711 0.0014281406391835837 11323:1.0 19458:1.0 42437:1.0 42437:1.0 42455:1.0 42455:1.0 64067:1.0 65075:1.0 81564:1.0 81564:1.0 81581:1.0 81581:1.0 91049:1.0 91067:1.0 112135:1.0 118722:1.0 159672:1.0 187828:1.0 239419:1.0 259544:1.0 271796:1.0 296318:1.0 327160:1.0 332236:1.0 342826:1.0 367350:1.0 
8.471748384587806E-4 0.0016701296146970715 11323:1.0 19458:1.0 42437:1.0 42437:1.0 42455:1.0 42455:1.0 64067:1.0 65075:1.0 81564:1.0 81564:1.0 81581:1.0 81581:1.0 91049:1.0 91067:1.0 112135:1.0 118722:1.0 141127:1.0 141144:1.0 167370:1.0 187839:1.0 234609:1.0 259545:1.0 291148:1.0 296311:1.0 307286:1.0 332231:1.0 348247:1.0 367361:1.0 
0.0023726064770322472 0.004009693540187092 11323:1.0 19458:1.0 42437:1.0 42437:1.0 42455:1.0 42455:1.0 64067:1.0 65075:1.0 81564:1.0 81564:1.0 81581:1.0 81581:1.0 91049:1.0 91067:1.0 112135:1.0 118722:1.0 141127:1.0 141127:1.0 141144:1.0 141144:1.0 162473:1.0 187840:1.0 254297:1.0 259538:1.0 270893:1.0 296306:1.0 312795:1.0 332242:1.0 333617:1.0 367350:1.0 
0.00950305824600044 0.005761657264992637 4931:1.0 22625:1.0 39108:1.0 39125:1.0 48593:1.0 48611:1.0 69679:1.0 76266:1.0 117216:1.0 145372:1.0 196963:1.0 217088:1.0 226501:1.0 253862:1.0 280635:1.0 289780:1.0 297884:1.0 324894:1.0 
0.0018411991104607835 0.0037896325476189266 4931:1.0 22625:1.0 39108:1.0 39125:1.0 48593:1.0 48611:1.0 69679:1.0 76266:1.0 98671:1.0 98688:1.0 124914:1.0 145383:1.0 189273:1.0 217089:1.0 244551:1.0 253855:1.0 262303:1.0 289775:1.0 320233:1.0 324898:1.0 
0.0030947359131799413 0.005769336898413955 1432:1.0 22625:1.0 39108:1.0 39125:1.0 48593:1.0 48611:1.0 69679:1.0 76266:1.0 139132:1.0 145377:1.0 173382:1.0 173400:1.0 181076:1.0 181094:1.0 188815:1.0 217080:1.0 251254:1.0 253856:1.0 285030:1.0 289783:1.0 296324:1.0 324905:1.0 
0.004695674654277849 0.00259985050372826 1672:1.0 19458:1.0 42437:1.0 42437:1.0 42437:1.0 42455:1.0 42455:1.0 42455:1.0 55490:1.0 65081:1.0 112135:1.0 118722:1.0 181824:1.0 187833:1.0 242095:1.0 259547:1.0 296028:1.0 296309:1.0 312498:1.0 332244:1.0 351913:1.0 367363:1.0 
0.007178561376016769 0.0032147099992083984 16946:1.0 19453:1.0 33683:1.0 33700:1.0 42437:1.0 42437:1.0 42455:1.0 42455:1.0 54164:1.0 65089:1.0 112135:1.0 118722:1.0 159672:1.0 187828:1.0 239419:1.0 259544:1.0 295698:1.0 296318:1.0 325587:1.0 332231:1.0 348247:1.0 367361:1.0 
0.0018404195633464385 0.0038610290198683615 16946:1.0 19453:1.0 33683:1.0 33700:1.0 42437:1.0 42437:1.0 42455:1.0 42455:1.0 54164:1.0 65089:1.0 112135:1.0 118722:1.0 141127:1.0 141144:1.0 167370:1.0 187839:1.0 258915:1.0 259545:1.0 289545:1.0 296306:1.0 312795:1.0 332242:1.0 357350:1.0 367350:1.0 
0.004806174099549806 0.0037895443741386686 4980:1.0 22619:1.0 39108:1.0 39108:1.0 39108:1.0 39125:1.0 39125:1.0 39125:1.0 69679:1.0 76266:1.0 117216:1.0 145372:1.0 196963:1.0 217088:1.0 232038:1.0 253850:1.0 286628:1.0 289780:1.0 308340:1.0 324908:1.0 
0.0022535132425637798 0.0033365227930660063 4980:1.0 22619:1.0 39108:1.0 39108:1.0 39108:1.0 39125:1.0 39125:1.0 39125:1.0 69679:1.0 76266:1.0 98671:1.0 98688:1.0 124914:1.0 145383:1.0 194899:1.0 217077:1.0 250654:1.0 253855:1.0 272933:1.0 289789:1.0 300882:1.0 324907:1.0 
0.0039671295847379775 0.004838976949092183 15148:1.0 19458:1.0 42437:1.0 42437:1.0 42455:1.0 42455:1.0 49234:1.0 65075:1.0 81564:1.0 81581:1.0 91049:1.0 91049:1.0 91067:1.0 91067:1.0 114894:1.0 118722:1.0 155580:1.0 187833:1.0 229840:1.0 259541:1.0 280351:1.0 296318:1.0 325584:1.0 332231:1.0 363815:1.0 367363:1.0 
0.0020572994861127866 0.006494165692284777 952:1.0 19458:1.0 33683:1.0 33700:1.0 42437:1.0 42455:1.0 43566:1.0 65081:1.0 81564:1.0 81581:1.0 112135:1.0 118722:1.0 158753:1.0 187836:1.0 259252:1.0 259533:1.0 291581:1.0 296306:1.0 314492:1.0 332245:1.0 339112:1.0 367364:1.0 
0.002023309983624582 0.001451335578165382 952:1.0 19458:1.0 33683:1.0 33700:1.0 42437:1.0 42455:1.0 43566:1.0 65081:1.0 81564:1.0 81581:1.0 112135:1.0 118722:1.0 141127:1.0 141144:1.0 187542:1.0 187828:1.0 254736:1.0 259533:1.0 278250:1.0 296320:1.0 303510:1.0 332245:1.0 
0.0053519221193297295 0.0015023754970540982 952:1.0 19458:1.0 33683:1.0 33700:1.0 42437:1.0 42455:1.0 43566:1.0 65081:1.0 81564:1.0 81581:1.0 112135:1.0 118722:1.0 141127:1.0 141127:1.0 141144:1.0 141144:1.0 182946:1.0 187828:1.0 241170:1.0 259547:1.0 267033:1.0 296320:1.0 
5.152657042671012E-4 0.002030729140499535 1046:1.0 19458:1.0 33683:1.0 33683:1.0 33683:1.0 33683:1.0 33683:1.0 33700:1.0 33700:1.0 33700:1.0 33700:1.0 33700:1.0 42437:1.0 42437:1.0 42437:1.0 42455:1.0 42455:1.0 42455:1.0 47522:1.0 65080:1.0 91049:1.0 91049:1.0 91067:1.0 91067:1.0 114894:1.0 118722:1.0 151206:1.0 151224:1.0 172450:1.0 187831:1.0 258890:1.0 259537:1.0 274576:1.0 296316:1.0 314004:1.0 332237:1.0 344403:1.0 367361:1.0 
0.0 4.2816466465771664E-4 1046:1.0 19458:1.0 33683:1.0 33683:1.0 33683:1.0 33683:1.0 33683:1.0 33700:1.0 33700:1.0 33700:1.0 33700:1.0 33700:1.0 42437:1.0 42437:1.0 42437:1.0 42455:1.0 42455:1.0 42455:1.0 47522:1.0 65080:1.0 91049:1.0 91049:1.0 91067:1.0 91067:1.0 114894:1.0 118722:1.0 141127:1.0 141144:1.0 151206:1.0 151224:1.0 168637:1.0 187834:1.0 215838:1.0 215856:1.0 223532:1.0 223532:1.0 223550:1.0 223550:1.0 242095:1.0 259547:1.0 281457:1.0 296309:1.0 309552:1.0 332243:1.0 352903:1.0 367350:1.0 
0.0 7.995214225310503E-4 1046:1.0 19458:1.0 33683:1.0 33683:1.0 33683:1.0 33683:1.0 33683:1.0 33700:1.0 33700:1.0 33700:1.0 33700:1.0 33700:1.0 42437:1.0 42437:1.0 42437:1.0 42455:1.0 42455:1.0 42455:1.0 47522:1.0 65080:1.0 91049:1.0 91049:1.0 91067:1.0 91067:1.0 114894:1.0 118722:1.0 141127:1.0 141127:1.0 141144:1.0 141144:1.0 151206:1.0 151224:1.0 170087:1.0 187842:1.0 244430:1.0 259536:1.0 273207:1.0 296318:1.0 317535:1.0 332231:1.0 362689:1.0 367354:1.0 
4.2387063123143487E-4 5.899934226243646E-4 1046:1.0 19458:1.0 33683:1.0 33683:1.0 33683:1.0 33683:1.0 33683:1.0 33700:1.0 33700:1.0 33700:1.0 33700:1.0 33700:1.0 42437:1.0 42437:1.0 42437:1.0 42455:1.0 42455:1.0 42455:1.0 47522:1.0 65080:1.0 91049:1.0 91049:1.0 91067:1.0 91067:1.0 114894:1.0 118722:1.0 141127:1.0 141127:1.0 141127:1.0 141144:1.0 141144:1.0 141144:1.0 151206:1.0 151224:1.0 172450:1.0 187831:1.0 236046:1.0 259545:1.0 281358:1.0 296306:1.0 327486:1.0 332235:1.0 363809:1.0 367356:1.0 
0.0 0.001386751815200327 1046:1.0 19458:1.0 33683:1.0 33683:1.0 33683:1.0 33683:1.0 33683:1.0 33700:1.0 33700:1.0 33700:1.0 33700:1.0 33700:1.0 42437:1.0 42437:1.0 42437:1.0 42455:1.0 42455:1.0 42455:1.0 47522:1.0 65080:1.0 91049:1.0 91049:1.0 91067:1.0 91067:1.0 114894:1.0 118722:1.0 141127:1.0 141127:1.0 141127:1.0 141127:1.0 141144:1.0 141144:1.0 141144:1.0 141144:1.0 151206:1.0 151224:1.0 172348:1.0 187828:1.0 215838:1.0 215838:1.0 215856:1.0 215856:1.0 223532:1.0 223550:1.0 241170:1.0 259547:1.0 279162:1.0 296320:1.0 300796:1.0 332237:1.0 339112:1.0 367364:1.0 
0.012424379359570524 0.009663609033139012 11058:1.0 22625:1.0 39108:1.0 39125:1.0 48593:1.0 48593:1.0 48611:1.0 48611:1.0 72438:1.0 76266:1.0 133032:1.0 145372:1.0 186956:1.0 217088:1.0 229340:1.0 253862:1.0 285291:1.0 289775:1.0 320233:1.0 324898:1.0 
0.008420283067723121 0.01145217215970767 19623:1.0 27654:1.0 84500:1.0 96773:1.0 143541:1.0 168477:1.0 196647:1.0 205238:1.0 226685:1.0 241172:1.0 257179:1.0 276293:1.0 
0.005675313474683504 0.00837403963910087 7421:1.0 22625:1.0 39108:1.0 39125:1.0 48593:1.0 48593:1.0 48611:1.0 48611:1.0 69679:1.0 76266:1.0 114169:1.0 145383:1.0 185324:1.0 217083:1.0 230078:1.0 253861:1.0 267096:1.0 289787:1.0 312384:1.0 324894:1.0 
0.0020346080894449114 0.0036269561958660597 7421:1.0 22625:1.0 39108:1.0 39125:1.0 48593:1.0 48593:1.0 48611:1.0 48611:1.0 69679:1.0 76266:1.0 98671:1.0 98688:1.0 113076:1.0 145378:1.0 173382:1.0 173400:1.0 199639:1.0 217091:1.0 249126:1.0 253858:1.0 266069:1.0 289781:1.0 305935:1.0 324907:1.0 
0.00253195166594828 0.002650528007705292 1773:1.0 19458:1.0 33683:1.0 33683:1.0 33700:1.0 33700:1.0 42437:1.0 42437:1.0 42437:1.0 42455:1.0 42455:1.0 42455:1.0 47017:1.0 65081:1.0 81564:1.0 81581:1.0 112135:1.0 118722:1.0 158139:1.0 187828:1.0 215838:1.0 215856:1.0 223532:1.0 223532:1.0 223550:1.0 223550:1.0 229763:1.0 259547:1.0 
0.0023496446277048106 0.0016154194071969698 7127:1.0 19453:1.0 33683:1.0 33683:1.0 33700:1.0 33700:1.0 42437:1.0 42455:1.0 52430:1.0 65086:1.0 112135:1.0 118722:1.0 151206:1.0 151206:1.0 151224:1.0 151224:1.0 178058:1.0 187828:1.0 241170:1.0 259547:1.0 279162:1.0 296320:1.0 331083:1.0 332240:1.0 341307:1.0 367350:1.0 
4.581215150348203E-4 4.793320613508757E-5 7127:1.0 19453:1.0 33683:1.0 33683:1.0 33700:1.0 33700:1.0 42437:1.0 42455:1.0 52430:1.0 65086:1.0 112135:1.0 118722:1.0 141127:1.0 141144:1.0 151206:1.0 151206:1.0 151224:1.0 151224:1.0 169147:1.0 187842:1.0 242095:1.0 259547:1.0 295133:1.0 296315:1.0 305744:1.0 332231:1.0 361232:1.0 367364:1.0 
7.768805256456712E-4 0.0015017865873067117 7127:1.0 19453:1.0 33683:1.0 33683:1.0 33700:1.0 33700:1.0 42437:1.0 42455:1.0 52430:1.0 65086:1.0 112135:1.0 118722:1.0 141127:1.0 141127:1.0 141144:1.0 141144:1.0 151206:1.0 151206:1.0 151224:1.0 151224:1.0 170087:1.0 187842:1.0 258340:1.0 259542:1.0 269322:1.0 296306:1.0 326008:1.0 332245:1.0 348863:1.0 367359:1.0 
0.0031197185459092857 0.0028692855954889716 14052:1.0 19453:1.0 42437:1.0 42437:1.0 42437:1.0 42455:1.0 42455:1.0 42455:1.0 54396:1.0 65081:1.0 91049:1.0 91049:1.0 91049:1.0 91067:1.0 91067:1.0 91067:1.0 112135:1.0 118722:1.0 183582:1.0 187833:1.0 228856:1.0 259544:1.0 292650:1.0 296319:1.0 327092:1.0 332241:1.0 344403:1.0 367361:1.0 
0.013282299032825358 0.006636869847462273 7140:1.0 22625:1.0 48593:1.0 48611:1.0 69679:1.0 76266:1.0 117216:1.0 145372:1.0 196963:1.0 217088:1.0 230751:1.0 253862:1.0 257509:1.0 289775:1.0 319565:1.0 324899:1.0 
0.002968752326348821 0.004479231953646749 7140:1.0 22625:1.0 48593:1.0 48611:1.0 69679:1.0 76266:1.0 98671:1.0 98688:1.0 124914:1.0 145383:1.0 193590:1.0 217089:1.0 220975:1.0 253850:1.0 284353:1.0 289780:1.0 323643:1.0 324905:1.0 
0.0028101158507706624 0.0035967054933987697 12586:1.0 19457:1.0 33683:1.0 33683:1.0 33683:1.0 33700:1.0 33700:1.0 33700:1.0 42437:1.0 42437:1.0 42437:1.0 42437:1.0 42437:1.0 42455:1.0 42455:1.0 42455:1.0 42455:1.0 42455:1.0 61616:1.0 65089:1.0 114894:1.0 118722:1.0 154022:1.0 187841:1.0 244755:1.0 259539:1.0 291480:1.0 296314:1.0 303336:1.0 332237:1.0 347709:1.0 367350:1.0 
0.0042917815571386995 0.0028074823290852296 9351:1.0 19458:1.0 33683:1.0 33700:1.0 42437:1.0 42437:1.0 42437:1.0 42455:1.0 42455:1.0 42455:1.0 52975:1.0 65081:1.0 91049:1.0 91067:1.0 112135:1.0 118722:1.0 176891:1.0 187833:1.0 242095:1.0 259547:1.0 286379:1.0 296316:1.0 317817:1.0 332236:1.0 340529:1.0 367353:1.0 
0.004368149296623466 0.004098118934078826 5661:1.0 22632:1.0 69679:1.0 76266:1.0 108750:1.0 108768:1.0 126816:1.0 145385:1.0 199639:1.0 217091:1.0 246661:1.0 253860:1.0 267096:1.0 289787:1.0 322215:1.0 324894:1.0 
0.00186651114879174 0.002104728538638411 5661:1.0 22632:1.0 69679:1.0 76266:1.0 98671:1.0 98688:1.0 108750:1.0 108768:1.0 127631:1.0 145386:1.0 209767:1.0 217087:1.0 230751:1.0 253862:1.0 287050:1.0 289775:1.0 302601:1.0 324906:1.0 
0.0036287012629426067 0.003031261331440614 13769:1.0 19453:1.0 42437:1.0 42455:1.0 54371:1.0 65081:1.0 81564:1.0 81581:1.0 91049:1.0 91049:1.0 91049:1.0 91067:1.0 91067:1.0 91067:1.0 112135:1.0 118722:1.0 165795:1.0 187833:1.0 231271:1.0 259536:1.0 291480:1.0 296310:1.0 316555:1.0 332243:1.0 363563:1.0 367350:1.0 
0.004352406618664038 0.0030534475410210512 6348:1.0 19458:1.0 33683:1.0 33683:1.0 33700:1.0 33700:1.0 42437:1.0 42455:1.0 53514:1.0 65081:1.0 81564:1.0 81581:1.0 91049:1.0 91049:1.0 91049:1.0 91049:1.0 91067:1.0 91067:1.0 91067:1.0 91067:1.0 114894:1.0 118722:1.0 175488:1.0 187828:1.0 229412:1.0 259544:1.0 273207:1.0 296318:1.0 325961:1.0 332231:1.0 349918:1.0 367364:1.0 
0.00192958336777058 0.003935346982846248 4941:1.0 22619:1.0 39108:1.0 39125:1.0 48593:1.0 48611:1.0 69371:1.0 76266:1.0 108750:1.0 108768:1.0 127631:1.0 145386:1.0 181661:1.0 217081:1.0 231010:1.0 253856:1.0 265717:1.0 289787:1.0 303021:1.0 324899:1.0 
0.004758195176101861 0.008743273767298283 20455:1.0 27654:1.0 79019:1.0 96774:1.0 152237:1.0 168477:1.0 192090:1.0 205238:1.0 221727:1.0 241174:1.0 260879:1.0 276294:1.0 
0.0013328007713335193 0.0021993062220354693 2290:1.0 22625:1.0 48593:1.0 48611:1.0 64357:1.0 76266:1.0 108750:1.0 108768:1.0 127631:1.0 145386:1.0 212178:1.0 217085:1.0 241166:1.0 253861:1.0 266558:1.0 289775:1.0 324475:1.0 324904:1.0 
0.013014274967170178 0.012882462359263071 5100:1.0 27654:1.0 79480:1.0 96773:1.0 132464:1.0 132482:1.0 151027:1.0 168479:1.0 192554:1.0 205249:1.0 217105:1.0 241175:1.0 244620:1.0 276282:1.0 
0.001230928662930416 0.0020620142992333027 5100:1.0 27654:1.0 50059:1.0 50076:1.0 79019:1.0 96774:1.0 155568:1.0 168476:1.0 180728:1.0 205250:1.0 208963:1.0 241163:1.0 247915:1.0 276287:1.0 
0.004122040098282649 0.005430783031911283 5956:1.0 19458:1.0 33683:1.0 33700:1.0 42437:1.0 42455:1.0 44228:1.0 65088:1.0 81564:1.0 81564:1.0 81581:1.0 81581:1.0 114894:1.0 118722:1.0 179169:1.0 187836:1.0 239959:1.0 259545:1.0 292029:1.0 296306:1.0 322787:1.0 332236:1.0 339112:1.0 367364:1.0 
0.003912779441903895 0.003737288221938983 10075:1.0 19466:1.0 43955:1.0 65088:1.0 81564:1.0 81581:1.0 112135:1.0 118722:1.0 151206:1.0 151224:1.0 184722:1.0 187841:1.0 242095:1.0 259547:1.0 292650:1.0 296319:1.0 317617:1.0 332241:1.0 340040:1.0 367362:1.0 
0.0016187212486378042 0.0027123684211074147 10075:1.0 19466:1.0 43955:1.0 65088:1.0 81564:1.0 81581:1.0 112135:1.0 118722:1.0 141127:1.0 141144:1.0 151206:1.0 151224:1.0 170087:1.0 187842:1.0 255820:1.0 259546:1.0 281442:1.0 296316:1.0 304451:1.0 332243:1.0 339612:1.0 367350:1.0 
0.00314119538700839 0.004649225256447103 9658:1.0 19453:1.0 33683:1.0 33700:1.0 42437:1.0 42455:1.0 56829:1.0 65080:1.0 81564:1.0 81581:1.0 91049:1.0 91049:1.0 91067:1.0 91067:1.0 112135:1.0 118722:1.0 167370:1.0 187839:1.0 224685:1.0 259539:1.0 261488:1.0 296310:1.0 319774:1.0 332242:1.0 340959:1.0 367362:1.0 
0.003835806983708358 0.006865533112482938 10276:1.0 19458:1.0 33683:1.0 33700:1.0 42437:1.0 42437:1.0 42437:1.0 42455:1.0 42455:1.0 42455:1.0 54164:1.0 65089:1.0 95866:1.0 118722:1.0 183402:1.0 187839:1.0 251583:1.0 259543:1.0 289503:1.0 296312:1.0 309552:1.0 332243:1.0 345007:1.0 367350:1.0 
8.045082610194776E-4 0.001409108615436608 16655:1.0 19458:1.0 33683:1.0 33683:1.0 33700:1.0 33700:1.0 42437:1.0 42437:1.0 42437:1.0 42437:1.0 42437:1.0 42455:1.0 42455:1.0 42455:1.0 42455:1.0 42455:1.0 54164:1.0 65089:1.0 96711:1.0 118722:1.0 175568:1.0 187841:1.0 250343:1.0 259539:1.0 273207:1.0 296318:1.0 317042:1.0 332231:1.0 355122:1.0 367355:1.0 
0.0017354278500917395 0.0031647074054731877 17971:1.0 22619:1.0 48593:1.0 48611:1.0 69371:1.0 76266:1.0 108750:1.0 108768:1.0 127631:1.0 145386:1.0 213364:1.0 217090:1.0 234070:1.0 253856:1.0 283416:1.0 289780:1.0 295057:1.0 324894:1.0 
0.003250057943454491 0.005745645924343464 3746:1.0 22625:1.0 48593:1.0 48593:1.0 48593:1.0 48611:1.0 48611:1.0 48611:1.0 69679:1.0 76266:1.0 144031:1.0 145383:1.0 173382:1.0 173382:1.0 173382:1.0 173400:1.0 173400:1.0 173400:1.0 187307:1.0 217091:1.0 
0.0019642778236737455 0.0035186484820231945 9494:1.0 19458:1.0 33683:1.0 33700:1.0 42437:1.0 42437:1.0 42437:1.0 42455:1.0 42455:1.0 42455:1.0 54164:1.0 65089:1.0 96711:1.0 118722:1.0 175568:1.0 187841:1.0 255820:1.0 259546:1.0 277250:1.0 296316:1.0 299357:1.0 332241:1.0 346635:1.0 367356:1.0 
0.009311904103088605 0.00955256783649197 5100:1.0 27654:1.0 72650:1.0 96764:1.0 124770:1.0 124788:1.0 132464:1.0 132464:1.0 132464:1.0 132482:1.0 132482:1.0 132482:1.0 138695:1.0 168479:1.0 
0.03321113422093612 0.037298420231089084 5100:1.0 27654:1.0 50059:1.0 50076:1.0 66479:1.0 96774:1.0 
0.005952088215217535 0.006701428743837737 20455:1.0 27654:1.0 79019:1.0 96774:1.0 143541:1.0 168477:1.0 195589:1.0 205238:1.0 221727:1.0 241174:1.0 249763:1.0 276289:1.0 
0.0025762677315908475 0.003273743568079292 18095:1.0 22619:1.0 39108:1.0 39108:1.0 39108:1.0 39125:1.0 39125:1.0 39125:1.0 48593:1.0 48593:1.0 48593:1.0 48593:1.0 48593:1.0 48611:1.0 48611:1.0 48611:1.0 48611:1.0 48611:1.0 54255:1.0 76266:1.0 133112:1.0 145385:1.0 206987:1.0 217087:1.0 247742:1.0 253855:1.0 285030:1.0 289783:1.0 312641:1.0 324905:1.0 
0.001713684201437599 0.0022417088493737695 18223:1.0 19458:1.0 33683:1.0 33700:1.0 42437:1.0 42437:1.0 42455:1.0 42455:1.0 54164:1.0 65089:1.0 96711:1.0 118722:1.0 175568:1.0 187841:1.0 231729:1.0 259545:1.0 273637:1.0 296306:1.0 322710:1.0 332241:1.0 335819:1.0 367363:1.0 
0.009867959581865322 0.009086966356019993 16862:1.0 22625:1.0 69679:1.0 76266:1.0 135602:1.0 145372:1.0 182166:1.0 217082:1.0 249024:1.0 253858:1.0 267096:1.0 289787:1.0 322216:1.0 324901:1.0 
0.001252133087373751 0.0020105781287705665 17524:1.0 19458:1.0 33683:1.0 33683:1.0 33683:1.0 33683:1.0 33683:1.0 33683:1.0 33683:1.0 33683:1.0 33700:1.0 33700:1.0 33700:1.0 33700:1.0 33700:1.0 33700:1.0 33700:1.0 33700:1.0 44331:1.0 65081:1.0 81564:1.0 81581:1.0 112135:1.0 118722:1.0 161086:1.0 187834:1.0 215838:1.0 215856:1.0 223532:1.0 223550:1.0 229763:1.0 259547:1.0 
0.004683595176434016 9.067546791261829E-4 3104:1.0 19458:1.0 33683:1.0 33683:1.0 33700:1.0 33700:1.0 42437:1.0 42455:1.0 61136:1.0 65081:1.0 81564:1.0 81581:1.0 112135:1.0 118722:1.0 184670:1.0 187828:1.0 223532:1.0 223532:1.0 223532:1.0 223532:1.0 223532:1.0 223550:1.0 223550:1.0 223550:1.0 223550:1.0 223550:1.0 229763:1.0 259547:1.0 
0.0022769189062792432 0.003303541850484854 9575:1.0 19453:1.0 48630:1.0 65081:1.0 81564:1.0 81581:1.0 91049:1.0 91067:1.0 112135:1.0 118722:1.0 162261:1.0 187828:1.0 215838:1.0 215856:1.0 223532:1.0 223532:1.0 223550:1.0 223550:1.0 231271:1.0 259536:1.0 261488:1.0 296310:1.0 327574:1.0 332237:1.0 348247:1.0 367361:1.0 
8.910680556906322E-4 0.001970923741379459 11058:1.0 22625:1.0 48593:1.0 48593:1.0 48593:1.0 48611:1.0 48611:1.0 48611:1.0 64357:1.0 76266:1.0 108750:1.0 108768:1.0 127631:1.0 145386:1.0 200774:1.0 217077:1.0 238422:1.0 253860:1.0 255867:1.0 289779:1.0 323643:1.0 324905:1.0 
0.005747707413342413 0.004035241373651195 20065:1.0 22625:1.0 48593:1.0 48593:1.0 48593:1.0 48611:1.0 48611:1.0 48611:1.0 69679:1.0 76266:1.0 120911:1.0 145377:1.0 189273:1.0 217089:1.0 250672:1.0 253850:1.0 285030:1.0 289779:1.0 310866:1.0 324904:1.0 
0.0012337025135990406 0.0019545727585757924 12960:1.0 22625:1.0 64357:1.0 76266:1.0 108750:1.0 108768:1.0 127631:1.0 145386:1.0 206167:1.0 217089:1.0 248306:1.0 253862:1.0 274511:1.0 289775:1.0 305791:1.0 324905:1.0 
0.007065592825156069 0.0017571894067966106 19104:1.0 22625:1.0 39108:1.0 39125:1.0 48593:1.0 48593:1.0 48593:1.0 48593:1.0 48593:1.0 48593:1.0 48593:1.0 48611:1.0 48611:1.0 48611:1.0 48611:1.0 48611:1.0 48611:1.0 48611:1.0 69679:1.0 76266:1.0 114578:1.0 145372:1.0 181076:1.0 181076:1.0 181094:1.0 181094:1.0 187307:1.0 217091:1.0 
1.9524207342648108E-4 0.001482292425342968 1171:1.0 22625:1.0 48593:1.0 48593:1.0 48593:1.0 48593:1.0 48611:1.0 48611:1.0 48611:1.0 48611:1.0 64357:1.0 76266:1.0 108750:1.0 108768:1.0 127631:1.0 145386:1.0 200849:1.0 217089:1.0 230914:1.0 253850:1.0 279123:1.0 289789:1.0 307594:1.0 324908:1.0 
7.122091577569951E-5 0.0016888412398076787 18595:1.0 22619:1.0 39108:1.0 39125:1.0 48593:1.0 48611:1.0 64357:1.0 76266:1.0 108750:1.0 108768:1.0 127631:1.0 145386:1.0 206987:1.0 217087:1.0 229340:1.0 253862:1.0 281141:1.0 289779:1.0 320233:1.0 324902:1.0 
5.43534178156528E-4 0.0014973622188353926 3506:1.0 22619:1.0 48593:1.0 48611:1.0 69371:1.0 76266:1.0 108750:1.0 108768:1.0 127631:1.0 145386:1.0 206987:1.0 217087:1.0 247042:1.0 253856:1.0 273138:1.0 289775:1.0 312641:1.0 324905:1.0 
0.00994421443571743 0.011676629610162012 19623:1.0 27654:1.0 84500:1.0 96773:1.0 158512:1.0 168476:1.0 177889:1.0 205250:1.0 223104:1.0 241163:1.0 249461:1.0 276285:1.0 
0.0012153129489589562 0.0010409995724692 2065:1.0 19453:1.0 33683:1.0 33683:1.0 33700:1.0 33700:1.0 42437:1.0 42437:1.0 42437:1.0 42437:1.0 42437:1.0 42437:1.0 42437:1.0 42455:1.0 42455:1.0 42455:1.0 42455:1.0 42455:1.0 42455:1.0 42455:1.0 54164:1.0 65089:1.0 96711:1.0 118722:1.0 175568:1.0 187841:1.0 241170:1.0 259547:1.0 264444:1.0 296316:1.0 312795:1.0 332242:1.0 333501:1.0 367356:1.0 
0.009153833241358976 0.010455690188220297 20238:1.0 22625:1.0 48593:1.0 48611:1.0 72438:1.0 76266:1.0 129994:1.0 145375:1.0 207935:1.0 217082:1.0 223688:1.0 253861:1.0 270269:1.0 289781:1.0 324311:1.0 324906:1.0 
0.009796524185325093 0.011476339046826519 19623:1.0 27654:1.0 84500:1.0 96773:1.0 152237:1.0 168477:1.0 200685:1.0 205238:1.0 209889:1.0 241173:1.0 247999:1.0 276288:1.0 
5.588745832756155E-5 0.001111068498789796 1921:1.0 22625:1.0 48593:1.0 48611:1.0 64357:1.0 76266:1.0 108750:1.0 108768:1.0 127631:1.0 145386:1.0 196963:1.0 217088:1.0 242939:1.0 253862:1.0 284788:1.0 289775:1.0 305791:1.0 324905:1.0 
0.004833354842739529 0.008006537006431926 20455:1.0 27654:1.0 79019:1.0 96774:1.0 162585:1.0 168471:1.0 173080:1.0 205243:1.0 235867:1.0 241175:1.0 260964:1.0 276282:1.0 
0.005095888420953604 0.0045214140914007946 7957:1.0 19458:1.0 33683:1.0 33700:1.0 42437:1.0 42455:1.0 63113:1.0 65081:1.0 81564:1.0 81581:1.0 91049:1.0 91049:1.0 91067:1.0 91067:1.0 114894:1.0 118722:1.0 175488:1.0 187828:1.0 229412:1.0 259544:1.0 271796:1.0 296318:1.0 327244:1.0 332231:1.0 336402:1.0 367357:1.0 
0.015175562728228058 0.006726761592021369 16639:1.0 22619:1.0 39108:1.0 39125:1.0 48593:1.0 48593:1.0 48611:1.0 48611:1.0 69679:1.0 76266:1.0 142266:1.0 145385:1.0 187307:1.0 217091:1.0 
0.002821408858672258 0.004001644054559525 13913:1.0 19453:1.0 33683:1.0 33700:1.0 59240:1.0 65081:1.0 81564:1.0 81581:1.0 91049:1.0 91049:1.0 91049:1.0 91067:1.0 91067:1.0 91067:1.0 96711:1.0 118722:1.0 175568:1.0 187841:1.0 224117:1.0 259537:1.0 271054:1.0 296312:1.0 308173:1.0 332243:1.0 355218:1.0 367350:1.0 
0.0 8.047627861460029E-4 2545:1.0 22625:1.0 39108:1.0 39125:1.0 48593:1.0 48611:1.0 69679:1.0 76266:1.0 108750:1.0 108768:1.0 141099:1.0 145378:1.0 173382:1.0 173382:1.0 173382:1.0 173382:1.0 173400:1.0 173400:1.0 173400:1.0 173400:1.0 181076:1.0 181076:1.0 181076:1.0 181094:1.0 181094:1.0 181094:1.0 187307:1.0 217091:1.0 
4.670214913503445E-4 0.002314227328507416 10474:1.0 19458:1.0 33683:1.0 33683:1.0 33683:1.0 33683:1.0 33700:1.0 33700:1.0 33700:1.0 33700:1.0 42437:1.0 42437:1.0 42455:1.0 42455:1.0 49202:1.0 65081:1.0 91049:1.0 91049:1.0 91049:1.0 91049:1.0 91067:1.0 91067:1.0 91067:1.0 91067:1.0 112135:1.0 118722:1.0 179616:1.0 187833:1.0 215838:1.0 215856:1.0 223532:1.0 223532:1.0 223532:1.0 223532:1.0 223550:1.0 223550:1.0 223550:1.0 223550:1.0 229763:1.0 259547:1.0 
0.0018835184326743061 0.0031172392214316876 7812:1.0 19458:1.0 33683:1.0 33700:1.0 42437:1.0 42455:1.0 54164:1.0 65089:1.0 96711:1.0 118722:1.0 175568:1.0 187841:1.0 238967:1.0 259540:1.0 269758:1.0 296312:1.0 308173:1.0 332243:1.0 346355:1.0 367365:1.0 
0.004829916876809898 0.01070619108045746 20455:1.0 27654:1.0 79019:1.0 96774:1.0 133049:1.0 168469:1.0 181512:1.0 205244:1.0 225487:1.0 241175:1.0 249630:1.0 276282:1.0 
0.006644909700936146 0.008561156306545465 23826:1.0 27654:1.0 60138:1.0 60156:1.0 84420:1.0 96764:1.0 138344:1.0 168476:1.0 177889:1.0 205250:1.0 209101:1.0 241163:1.0 271621:1.0 276286:1.0 
0.0019192731890525297 0.004624586774484824 23826:1.0 27654:1.0 50059:1.0 50076:1.0 60138:1.0 60156:1.0 62959:1.0 96760:1.0 124770:1.0 124788:1.0 132464:1.0 132464:1.0 132482:1.0 132482:1.0 138695:1.0 168479:1.0 
5.9046439582699055E-5 0.0025935770959837506 23826:1.0 27654:1.0 50059:1.0 50059:1.0 50076:1.0 50076:1.0 60138:1.0 60156:1.0 66479:1.0 96774:1.0 
0.0015246315950323177 0.0031700944283082396 18078:1.0 19458:1.0 33683:1.0 33700:1.0 42437:1.0 42455:1.0 54164:1.0 65089:1.0 96711:1.0 118722:1.0 175568:1.0 187841:1.0 239755:1.0 259539:1.0 272065:1.0 296318:1.0 330345:1.0 332231:1.0 366099:1.0 367361:1.0 
0.0030583220002622057 0.0011403671068240763 15554:1.0 19457:1.0 42437:1.0 42437:1.0 42455:1.0 42455:1.0 52543:1.0 65075:1.0 81564:1.0 81564:1.0 81581:1.0 81581:1.0 91049:1.0 91049:1.0 91049:1.0 91067:1.0 91067:1.0 91067:1.0 112135:1.0 118722:1.0 159672:1.0 187828:1.0 239419:1.0 259544:1.0 280351:1.0 296318:1.0 312679:1.0 332236:1.0 360817:1.0 367350:1.0 
7.899630948314976E-4 0.001822295094629724 15554:1.0 19457:1.0 42437:1.0 42437:1.0 42455:1.0 42455:1.0 52543:1.0 65075:1.0 81564:1.0 81564:1.0 81581:1.0 81581:1.0 91049:1.0 91049:1.0 91049:1.0 91067:1.0 91067:1.0 91067:1.0 112135:1.0 118722:1.0 141127:1.0 141144:1.0 167370:1.0 187839:1.0 243305:1.0 259545:1.0 276401:1.0 296311:1.0 325584:1.0 332231:1.0 348247:1.0 367361:1.0 
0.005746815409112954 0.005437068046996633 21067:1.0 27654:1.0 60138:1.0 60138:1.0 60156:1.0 60156:1.0 67967:1.0 96766:1.0 124770:1.0 124788:1.0 132464:1.0 132482:1.0 138695:1.0 168479:1.0 
0.005314957402227514 0.009324909439383088 12083:1.0 19458:1.0 33683:1.0 33700:1.0 42437:1.0 42437:1.0 42455:1.0 42455:1.0 54164:1.0 65089:1.0 95866:1.0 118722:1.0 183402:1.0 187839:1.0 250176:1.0 259539:1.0 271956:1.0 296306:1.0 303510:1.0 332245:1.0 
0.0 0.0010901843009926897 2668:1.0 19453:1.0 42437:1.0 42455:1.0 51756:1.0 65081:1.0 81564:1.0 81581:1.0 91049:1.0 91067:1.0 112135:1.0 118722:1.0 151206:1.0 151224:1.0 170002:1.0 187828:1.0 215838:1.0 215838:1.0 215838:1.0 215856:1.0 215856:1.0 215856:1.0 223532:1.0 223532:1.0 223532:1.0 223550:1.0 223550:1.0 223550:1.0 229763:1.0 259547:1.0 
-0.0015587014781716295 0.0 2642:1.0 19458:1.0 33683:1.0 33700:1.0 42437:1.0 42455:1.0 47654:1.0 65075:1.0 81564:1.0 81581:1.0 91049:1.0 91049:1.0 91067:1.0 91067:1.0 112135:1.0 118722:1.0 141127:1.0 141127:1.0 141144:1.0 141144:1.0 166306:1.0 187834:1.0 234609:1.0 259545:1.0 289589:1.0 296306:1.0 308893:1.0 332242:1.0 345057:1.0 367362:1.0 
-1.2032344312329314E-4 0.002474391303854261 831:1.0 19458:1.0 42437:1.0 42437:1.0 42455:1.0 42455:1.0 60952:1.0 65081:1.0 81564:1.0 81564:1.0 81581:1.0 81581:1.0 91049:1.0 91049:1.0 91049:1.0 91067:1.0 91067:1.0 91067:1.0 114894:1.0 118722:1.0 157520:1.0 187833:1.0 223532:1.0 223532:1.0 223550:1.0 223550:1.0 229658:1.0 259543:1.0 272998:1.0 296311:1.0 308893:1.0 332242:1.0 359825:1.0 367354:1.0 
-2.1458649935799263E-4 0.0020552426460355806 16180:1.0 22625:1.0 72438:1.0 76266:1.0 139392:1.0 145378:1.0 192153:1.0 217089:1.0 250852:1.0 253850:1.0 286173:1.0 289780:1.0 298073:1.0 324897:1.0 
-0.0 0.001313694636806315 13917:1.0 19458:1.0 61350:1.0 65081:1.0 81564:1.0 81564:1.0 81581:1.0 81581:1.0 91049:1.0 91067:1.0 114894:1.0 118722:1.0 185590:1.0 187834:1.0 223532:1.0 223532:1.0 223550:1.0 223550:1.0 234609:1.0 259545:1.0 283894:1.0 296306:1.0 330836:1.0 332235:1.0 363815:1.0 367363:1.0 
-0.0 0.001616035665228825 968:1.0 22625:1.0 48593:1.0 48593:1.0 48611:1.0 48611:1.0 72438:1.0 76266:1.0 141054:1.0 145372:1.0 181076:1.0 181076:1.0 181076:1.0 181076:1.0 181076:1.0 181076:1.0 181094:1.0 181094:1.0 181094:1.0 181094:1.0 181094:1.0 181094:1.0 198714:1.0 217091:1.0 226053:1.0 253853:1.0 255598:1.0 289779:1.0 314361:1.0 324904:1.0 
-0.0 1.2902882463609213E-4 21823:1.0 22625:1.0 48593:1.0 48611:1.0 72438:1.0 76266:1.0 144050:1.0 145372:1.0 181076:1.0 181076:1.0 181076:1.0 181076:1.0 181094:1.0 181094:1.0 181094:1.0 181094:1.0 196963:1.0 217088:1.0 230751:1.0 253862:1.0 261116:1.0 289775:1.0 298073:1.0 324897:1.0 
-0.0 6.357658538783263E-4 17093:1.0 19458:1.0 33683:1.0 33700:1.0 42437:1.0 42455:1.0 50825:1.0 65080:1.0 81564:1.0 81564:1.0 81564:1.0 81581:1.0 81581:1.0 81581:1.0 91049:1.0 91049:1.0 91049:1.0 91049:1.0 91049:1.0 91049:1.0 91067:1.0 91067:1.0 91067:1.0 91067:1.0 91067:1.0 91067:1.0 114894:1.0 118722:1.0 168729:1.0 187834:1.0 223532:1.0 223532:1.0 223532:1.0 223532:1.0 223532:1.0 223550:1.0 223550:1.0 223550:1.0 223550:1.0 223550:1.0 246636:1.0 259544:1.0 267674:1.0 296306:1.0 327486:1.0 332235:1.0 342672:1.0 367356:1.0 
-0.0 0.0020469526494419827 9139:1.0 19458:1.0 33683:1.0 33700:1.0 42437:1.0 42455:1.0 57017:1.0 65086:1.0 114894:1.0 118722:1.0 154299:1.0 187834:1.0 223532:1.0 223550:1.0 239419:1.0 259544:1.0 265735:1.0 296312:1.0 316555:1.0 332243:1.0 364165:1.0 367350:1.0 
-0.0 0.002774965526001895 10745:1.0 19465:1.0 45577:1.0 65085:1.0 81564:1.0 81581:1.0 114894:1.0 118722:1.0 173323:1.0 187828:1.0 223532:1.0 223532:1.0 223532:1.0 223550:1.0 223550:1.0 223550:1.0 239419:1.0 259544:1.0 273207:1.0 296318:1.0 329769:1.0 332238:1.0 354347:1.0 367357:1.0 
-0.0 0.006098016937086018 19291:1.0 22625:1.0 72438:1.0 76266:1.0 129790:1.0 145372:1.0 181076:1.0 181076:1.0 181076:1.0 181094:1.0 181094:1.0 181094:1.0 196963:1.0 217088:1.0 229609:1.0 253862:1.0 287758:1.0 289775:1.0 305791:1.0 324905:1.0 
-0.0 8.758731943006237E-4 4318:1.0 22625:1.0 48593:1.0 48611:1.0 72438:1.0 76266:1.0 122235:1.0 145378:1.0 181076:1.0 181094:1.0 195054:1.0 217077:1.0 235794:1.0 253864:1.0 278360:1.0 289780:1.0 307462:1.0 324908:1.0 
-0.0 7.769168360359952E-4 3103:1.0 22625:1.0 39108:1.0 39125:1.0 48593:1.0 48611:1.0 72438:1.0 76266:1.0 130631:1.0 145378:1.0 192907:1.0 217088:1.0 239905:1.0 253859:1.0 266279:1.0 289775:1.0 293363:1.0 324907:1.0 
-0.0 0.006841668584414389 2161:1.0 22625:1.0 48593:1.0 48611:1.0 72438:1.0 76266:1.0 128250:1.0 145372:1.0 181076:1.0 181076:1.0 181076:1.0 181094:1.0 181094:1.0 181094:1.0 196963:1.0 217088:1.0 229340:1.0 253862:1.0 273929:1.0 289775:1.0 298073:1.0 324897:1.0 
-0.0 3.625701613110851E-5 14028:1.0 19462:1.0 46074:1.0 65085:1.0 114894:1.0 118722:1.0 167042:1.0 187834:1.0 223532:1.0 223550:1.0 243305:1.0 259545:1.0 291354:1.0 296306:1.0 312795:1.0 332242:1.0 343698:1.0 367362:1.0 
-0.0 9.663749604399283E-4 968:1.0 22625:1.0 48593:1.0 48593:1.0 48611:1.0 48611:1.0 72438:1.0 76266:1.0 117470:1.0 145372:1.0 181076:1.0 181076:1.0 181076:1.0 181076:1.0 181076:1.0 181094:1.0 181094:1.0 181094:1.0 181094:1.0 181094:1.0 186400:1.0 217088:1.0 238891:1.0 253856:1.0 262932:1.0 289787:1.0 311301:1.0 324894:1.0 
-0.0 0.008257805496535224 17580:1.0 19453:1.0 33683:1.0 33700:1.0 42437:1.0 42437:1.0 42455:1.0 42455:1.0 52430:1.0 65086:1.0 114894:1.0 118722:1.0 169124:1.0 187828:1.0 223532:1.0 223550:1.0 239419:1.0 259544:1.0 272546:1.0 296306:1.0 328822:1.0 332236:1.0 350796:1.0 367364:1.0 
-0.0 0.0021043084911124463 2336:1.0 19458:1.0 33683:1.0 33700:1.0 42437:1.0 42437:1.0 42455:1.0 42455:1.0 49829:1.0 65086:1.0 114894:1.0 118722:1.0 173316:1.0 187834:1.0 229412:1.0 259544:1.0 273207:1.0 296318:1.0 316004:1.0 332231:1.0 350396:1.0 367355:1.0 
-2.394531873665459E-4 4.69028004531776E-4 15719:1.0 19453:1.0 33683:1.0 33700:1.0 42437:1.0 42455:1.0 46716:1.0 65081:1.0 81564:1.0 81581:1.0 91049:1.0 91067:1.0 112135:1.0 118722:1.0 181834:1.0 187828:1.0 235363:1.0 259544:1.0 271796:1.0 296318:1.0 301644:1.0 332231:1.0 338979:1.0 367355:1.0 
-0.0 0.006054304018261541 10076:1.0 22625:1.0 48593:1.0 48611:1.0 72438:1.0 76266:1.0 135572:1.0 145372:1.0 181076:1.0 181076:1.0 181076:1.0 181076:1.0 181094:1.0 181094:1.0 181094:1.0 181094:1.0 198714:1.0 217091:1.0 234065:1.0 253861:1.0 265717:1.0 289787:1.0 311360:1.0 324894:1.0 
-0.0 0.0016092501577000715 9651:1.0 22625:1.0 39108:1.0 39125:1.0 48593:1.0 48593:1.0 48611:1.0 48611:1.0 72438:1.0 76266:1.0 144451:1.0 145378:1.0 212079:1.0 217083:1.0 241166:1.0 253861:1.0 262932:1.0 289787:1.0 308392:1.0 324894:1.0 
-0.0 0.002566146873889034 968:1.0 22625:1.0 39108:1.0 39125:1.0 48593:1.0 48611:1.0 72438:1.0 76266:1.0 126621:1.0 145378:1.0 181076:1.0 181076:1.0 181094:1.0 181094:1.0 204180:1.0 217088:1.0 231509:1.0 253850:1.0 265717:1.0 289787:1.0 292573:1.0 324894:1.0 
-4.0231225312674644E-4 0.0020609953616202333 13721:1.0 19458:1.0 42437:1.0 42437:1.0 42437:1.0 42437:1.0 42455:1.0 42455:1.0 42455:1.0 42455:1.0 51396:1.0 65081:1.0 81564:1.0 81564:1.0 81564:1.0 81581:1.0 81581:1.0 81581:1.0 91049:1.0 91049:1.0 91049:1.0 91049:1.0 91067:1.0 91067:1.0 91067:1.0 91067:1.0 114894:1.0 118722:1.0 153416:1.0 187833:1.0 223532:1.0 223550:1.0 228326:1.0 259539:1.0 288911:1.0 296306:1.0 298460:1.0 332236:1.0 338247:1.0 367361:1.0 
-0.0 3.551825112158983E-4 5755:1.0 22625:1.0 48593:1.0 48593:1.0 48611:1.0 48611:1.0 72438:1.0 76266:1.0 120386:1.0 145377:1.0 181076:1.0 181076:1.0 181076:1.0 181076:1.0 181094:1.0 181094:1.0 181094:1.0 181094:1.0 188815:1.0 217080:1.0 219032:1.0 253854:1.0 257620:1.0 289781:1.0 312641:1.0 324905:1.0 
-0.0 0.0017134910140037484 5130:1.0 22625:1.0 48593:1.0 48611:1.0 72438:1.0 76266:1.0 117253:1.0 145378:1.0 181076:1.0 181094:1.0 192907:1.0 217088:1.0 240251:1.0 253857:1.0 277318:1.0 289786:1.0 307462:1.0 324908:1.0 
-0.0 0.0022241320276668647 5130:1.0 22625:1.0 48593:1.0 48593:1.0 48611:1.0 48611:1.0 72438:1.0 76266:1.0 128389:1.0 145372:1.0 181076:1.0 181076:1.0 181076:1.0 181094:1.0 181094:1.0 181094:1.0 188752:1.0 217090:1.0 239096:1.0 253855:1.0 260176:1.0 289786:1.0 298503:1.0 324906:1.0 
-1.863143201004469E-4 0.0 16493:1.0 22625:1.0 48593:1.0 48593:1.0 48593:1.0 48593:1.0 48611:1.0 48611:1.0 48611:1.0 48611:1.0 72438:1.0 76266:1.0 135042:1.0 145378:1.0 185012:1.0 217089:1.0 242574:1.0 253850:1.0 285030:1.0 289779:1.0 298488:1.0 324900:1.0 
-0.0 0.0016359759663185152 4383:1.0 19458:1.0 33683:1.0 33683:1.0 33700:1.0 33700:1.0 54164:1.0 65089:1.0 106813:1.0 118722:1.0 179554:1.0 187834:1.0 223532:1.0 223550:1.0 252726:1.0 259538:1.0 291480:1.0 296314:1.0 305388:1.0 332243:1.0 342307:1.0 367357:1.0 
-0.0 9.164215577825211E-4 1159:1.0 19458:1.0 33683:1.0 33683:1.0 33700:1.0 33700:1.0 42437:1.0 42437:1.0 42455:1.0 42455:1.0 54164:1.0 65089:1.0 106813:1.0 118722:1.0 157373:1.0 187834:1.0 223532:1.0 223532:1.0 223532:1.0 223532:1.0 223550:1.0 223550:1.0 223550:1.0 223550:1.0 237352:1.0 259545:1.0 287521:1.0 296319:1.0 324386:1.0 332231:1.0 356220:1.0 367359:1.0 
-0.0 0.001964551962451413 7969:1.0 19458:1.0 33683:1.0 33683:1.0 33700:1.0 33700:1.0 53647:1.0 65088:1.0 114894:1.0 118722:1.0 156304:1.0 187828:1.0 223532:1.0 223532:1.0 223550:1.0 223550:1.0 253201:1.0 259538:1.0 279162:1.0 296320:1.0 298973:1.0 332237:1.0 366432:1.0 367363:1.0 
-0.0 2.802916785874493E-4 15568:1.0 19458:1.0 33683:1.0 33683:1.0 33683:1.0 33700:1.0 33700:1.0 33700:1.0 42437:1.0 42455:1.0 43424:1.0 65081:1.0 114894:1.0 118722:1.0 183476:1.0 187834:1.0 223532:1.0 223550:1.0 254634:1.0 259541:1.0 271796:1.0 296318:1.0 301955:1.0 332238:1.0 353593:1.0 367356:1.0 
-0.0 8.658656801839371E-5 831:1.0 19458:1.0 62342:1.0 65081:1.0 91049:1.0 91049:1.0 91067:1.0 91067:1.0 114894:1.0 118722:1.0 173084:1.0 187834:1.0 223532:1.0 223550:1.0 239158:1.0 259546:1.0 296028:1.0 296309:1.0 308893:1.0 332242:1.0 355629:1.0 367350:1.0 
-0.0 0.0012529134804551971 19291:1.0 22625:1.0 72438:1.0 76266:1.0 115944:1.0 145378:1.0 181076:1.0 181094:1.0 192907:1.0 217088:1.0 222166:1.0 253857:1.0 269335:1.0 289781:1.0 302601:1.0 324906:1.0 
-0.0019439985438420258 0.0 15719:1.0 19453:1.0 33683:1.0 33683:1.0 33683:1.0 33700:1.0 33700:1.0 33700:1.0 42437:1.0 42437:1.0 42455:1.0 42455:1.0 54164:1.0 65089:1.0 112135:1.0 118722:1.0 159672:1.0 187828:1.0 239419:1.0 259544:1.0 291480:1.0 296314:1.0 309552:1.0 332243:1.0 341625:1.0 367350:1.0 
-1.7155698905358896E-4 0.003956530179166749 4398:1.0 19453:1.0 42437:1.0 42437:1.0 42455:1.0 42455:1.0 43677:1.0 65081:1.0 81564:1.0 81564:1.0 81581:1.0 81581:1.0 91049:1.0 91049:1.0 91049:1.0 91049:1.0 91049:1.0 91067:1.0 91067:1.0 91067:1.0 91067:1.0 91067:1.0 114894:1.0 118722:1.0 186361:1.0 187838:1.0 254634:1.0 259541:1.0 278250:1.0 296320:1.0 330841:1.0 332241:1.0 362689:1.0 367358:1.0 
-0.0030777092183324464 0.006512423368047601 18641:1.0 19462:1.0 33683:1.0 33700:1.0 42437:1.0 42455:1.0 51756:1.0 65081:1.0 81564:1.0 81581:1.0 112135:1.0 118722:1.0 158683:1.0 187838:1.0 241170:1.0 259547:1.0 267033:1.0 296320:1.0 
-0.0 9.542164404088876E-5 2413:1.0 19458:1.0 33683:1.0 33700:1.0 42437:1.0 42437:1.0 42437:1.0 42437:1.0 42455:1.0 42455:1.0 42455:1.0 42455:1.0 57572:1.0 65081:1.0 81564:1.0 81581:1.0 91049:1.0 91049:1.0 91067:1.0 91067:1.0 112135:1.0 118722:1.0 156839:1.0 187828:1.0 223532:1.0 223550:1.0 257920:1.0 259538:1.0 279162:1.0 296320:1.0 304952:1.0 332234:1.0 343698:1.0 367362:1.0 
-0.0 0.0016919011196122643 2309:1.0 22625:1.0 72438:1.0 76266:1.0 134773:1.0 145378:1.0 181076:1.0 181076:1.0 181076:1.0 181094:1.0 181094:1.0 181094:1.0 193590:1.0 217089:1.0 234716:1.0 253850:1.0 257421:1.0 289786:1.0 309491:1.0 324906:1.0 
-0.0 0.0011120879186272536 968:1.0 22625:1.0 48593:1.0 48611:1.0 72438:1.0 76266:1.0 129393:1.0 145378:1.0 181076:1.0 181076:1.0 181094:1.0 181094:1.0 193590:1.0 217089:1.0 245486:1.0 253855:1.0 275079:1.0 289775:1.0 302429:1.0 324907:1.0 
-0.0 2.036549817977941E-5 19449:1.0 19459:1.0 61871:1.0 65081:1.0 81564:1.0 81581:1.0 91049:1.0 91049:1.0 91049:1.0 91067:1.0 91067:1.0 91067:1.0 112135:1.0 118722:1.0 164098:1.0 187828:1.0 223532:1.0 223532:1.0 223550:1.0 223550:1.0 239419:1.0 259544:1.0 265455:1.0 296313:1.0 307602:1.0 332236:1.0 349918:1.0 367364:1.0 
-0.0 2.795218370256465E-4 4240:1.0 19458:1.0 33683:1.0 33700:1.0 42437:1.0 42437:1.0 42437:1.0 42455:1.0 42455:1.0 42455:1.0 54164:1.0 65089:1.0 95866:1.0 118722:1.0 152768:1.0 187834:1.0 223532:1.0 223550:1.0 234609:1.0 259545:1.0 283506:1.0 296306:1.0 304805:1.0 332231:1.0 362689:1.0 367358:1.0 
-1.998845200117795E-4 0.0 4240:1.0 19458:1.0 33683:1.0 33700:1.0 42437:1.0 42437:1.0 42437:1.0 42455:1.0 42455:1.0 42455:1.0 43424:1.0 65081:1.0 81564:1.0 81581:1.0 91049:1.0 91049:1.0 91049:1.0 91067:1.0 91067:1.0 91067:1.0 114894:1.0 118722:1.0 161201:1.0 187828:1.0 223532:1.0 223532:1.0 223532:1.0 223550:1.0 223550:1.0 223550:1.0 254634:1.0 259537:1.0 263637:1.0 296319:1.0 322198:1.0 332237:1.0 344403:1.0 367361:1.0 
-0.0 0.004338886534760939 5887:1.0 22625:1.0 39108:1.0 39125:1.0 48593:1.0 48611:1.0 53410:1.0 76266:1.0 125277:1.0 145378:1.0 212178:1.0 217085:1.0 235794:1.0 253864:1.0 280018:1.0 289785:1.0 315522:1.0 324899:1.0 
-3.7678245245001277E-4 0.0015463178513769895 5047:1.0 19458:1.0 33683:1.0 33700:1.0 42437:1.0 42455:1.0 52662:1.0 65081:1.0 91049:1.0 91067:1.0 114894:1.0 118722:1.0 177797:1.0 187833:1.0 223532:1.0 223532:1.0 223550:1.0 223550:1.0 246115:1.0 259539:1.0 270179:1.0 296310:1.0 314492:1.0 332245:1.0 339112:1.0 367364:1.0 
-0.0 0.004279805560206556 10689:1.0 19458:1.0 33683:1.0 33683:1.0 33700:1.0 33700:1.0 42437:1.0 42437:1.0 42437:1.0 42437:1.0 42455:1.0 42455:1.0 42455:1.0 42455:1.0 54164:1.0 65089:1.0 95866:1.0 118722:1.0 186361:1.0 187838:1.0 237108:1.0 259537:1.0 262548:1.0 296312:1.0 327486:1.0 332239:1.0 342657:1.0 367357:1.0 
-0.0 2.2271582705170445E-4 18641:1.0 19462:1.0 42437:1.0 42437:1.0 42455:1.0 42455:1.0 43501:1.0 65081:1.0 91049:1.0 91067:1.0 114894:1.0 118722:1.0 157444:1.0 187834:1.0 223532:1.0 223532:1.0 223532:1.0 223550:1.0 223550:1.0 223550:1.0 235363:1.0 259544:1.0 286760:1.0 296313:1.0 315389:1.0 332245:1.0 340230:1.0 367358:1.0 
-3.644566790110674E-4 0.0 3240:1.0 19458:1.0 33683:1.0 33700:1.0 42437:1.0 42437:1.0 42437:1.0 42437:1.0 42455:1.0 42455:1.0 42455:1.0 42455:1.0 54164:1.0 65089:1.0 96711:1.0 118722:1.0 151308:1.0 187834:1.0 239959:1.0 259545:1.0 282145:1.0 296306:1.0 316842:1.0 332236:1.0 338780:1.0 367361:1.0 
-0.0 6.396478369871288E-4 18765:1.0 19462:1.0 33683:1.0 33700:1.0 48872:1.0 65082:1.0 91049:1.0 91067:1.0 114894:1.0 118722:1.0 166365:1.0 187834:1.0 239959:1.0 259545:1.0 280539:1.0 296306:1.0 301134:1.0 332236:1.0 338247:1.0 367361:1.0 
-0.0 0.001473143422923184 21136:1.0 22625:1.0 39108:1.0 39108:1.0 39125:1.0 39125:1.0 48593:1.0 48593:1.0 48593:1.0 48611:1.0 48611:1.0 48611:1.0 53410:1.0 76266:1.0 125966:1.0 145378:1.0 181076:1.0 181076:1.0 181094:1.0 181094:1.0 192427:1.0 217089:1.0 227154:1.0 253850:1.0 266437:1.0 289786:1.0 309491:1.0 324906:1.0 
-0.0 0.0013285391603219889 22253:1.0 22625:1.0 48593:1.0 48593:1.0 48593:1.0 48611:1.0 48611:1.0 48611:1.0 69679:1.0 76266:1.0 132564:1.0 145372:1.0 181076:1.0 181094:1.0 204180:1.0 217088:1.0 237895:1.0 253862:1.0 257567:1.0 289775:1.0 311174:1.0 324899:1.0 
-0.0 0.0024199386209124043 3455:1.0 19459:1.0 53704:1.0 65075:1.0 81564:1.0 81581:1.0 91049:1.0 91049:1.0 91049:1.0 91049:1.0 91049:1.0 91049:1.0 91049:1.0 91067:1.0 91067:1.0 91067:1.0 91067:1.0 91067:1.0 91067:1.0 91067:1.0 102927:1.0 118722:1.0 164898:1.0 187834:1.0 223532:1.0 223532:1.0 223550:1.0 223550:1.0 235363:1.0 259544:1.0 278250:1.0 296320:1.0 309552:1.0 332243:1.0 359787:1.0 367350:1.0 
-0.0 0.0014841843660479226 6879:1.0 22625:1.0 48593:1.0 48611:1.0 72438:1.0 76266:1.0 128990:1.0 145378:1.0 181076:1.0 181076:1.0 181094:1.0 181094:1.0 192907:1.0 217088:1.0 226501:1.0 253862:1.0 265449:1.0 289775:1.0 311445:1.0 324899:1.0 
-0.0 0.0016805303465270444 9617:1.0 19465:1.0 52430:1.0 65086:1.0 114894:1.0 118722:1.0 162209:1.0 187834:1.0 234609:1.0 259545:1.0 273650:1.0 296311:1.0 324386:1.0 332231:1.0 350796:1.0 367364:1.0 
-0.0 0.001564637372440858 4292:1.0 19453:1.0 42437:1.0 42437:1.0 42455:1.0 42455:1.0 52430:1.0 65086:1.0 114894:1.0 118722:1.0 161464:1.0 187834:1.0 226321:1.0 259544:1.0 271796:1.0 296318:1.0 311474:1.0 332231:1.0 348247:1.0 367361:1.0 
-0.0 1.3475308300813302E-4 18915:1.0 22625:1.0 48593:1.0 48593:1.0 48611:1.0 48611:1.0 72438:1.0 76266:1.0 120932:1.0 145378:1.0 181076:1.0 181076:1.0 181076:1.0 181094:1.0 181094:1.0 181094:1.0 200849:1.0 217089:1.0 243763:1.0 253850:1.0 270339:1.0 289786:1.0 305564:1.0 324894:1.0 
-0.0 0.0013817231085150538 6552:1.0 19456:1.0 45769:1.0 65086:1.0 114894:1.0 118722:1.0 152163:1.0 187834:1.0 242095:1.0 259547:1.0 282476:1.0 296317:1.0 302729:1.0 332238:1.0 336394:1.0 367357:1.0 
-0.0 0.0020322845679072903 1718:1.0 22625:1.0 48593:1.0 48593:1.0 48611:1.0 48611:1.0 72438:1.0 76266:1.0 139123:1.0 145372:1.0 181076:1.0 181076:1.0 181076:1.0 181094:1.0 181094:1.0 181094:1.0 189267:1.0 217082:1.0 241166:1.0 253861:1.0 265717:1.0 289787:1.0 320233:1.0 324898:1.0 
-0.0 6.49232273706003E-4 9741:1.0 22625:1.0 48593:1.0 48593:1.0 48611:1.0 48611:1.0 60471:1.0 76266:1.0 112860:1.0 145378:1.0 181076:1.0 181094:1.0 196552:1.0 217088:1.0 237895:1.0 253862:1.0 278813:1.0 289775:1.0 298073:1.0 324897:1.0 
-0.0 0.004844661289467751 2377:1.0 19458:1.0 33683:1.0 33700:1.0 42437:1.0 42437:1.0 42437:1.0 42437:1.0 42455:1.0 42455:1.0 42455:1.0 42455:1.0 54164:1.0 65089:1.0 95866:1.0 118722:1.0 159652:1.0 187828:1.0 223532:1.0 223532:1.0 223550:1.0 223550:1.0 239419:1.0 259544:1.0 271796:1.0 296318:1.0 320563:1.0 332231:1.0 348247:1.0 367361:1.0 
-0.0 6.17375712342956E-4 3402:1.0 19458:1.0 33683:1.0 33700:1.0 42437:1.0 42455:1.0 54164:1.0 65089:1.0 114963:1.0 118722:1.0 173649:1.0 187834:1.0 229412:1.0 259544:1.0 286730:1.0 296315:1.0 300559:1.0 332231:1.0 348835:1.0 367355:1.0 
-0.0 1.0858536066404962E-5 16306:1.0 19453:1.0 33683:1.0 33683:1.0 33700:1.0 33700:1.0 42437:1.0 42437:1.0 42455:1.0 42455:1.0 58229:1.0 65081:1.0 81564:1.0 81581:1.0 91049:1.0 91049:1.0 91049:1.0 91049:1.0 91067:1.0 91067:1.0 91067:1.0 91067:1.0 107938:1.0 118722:1.0 161840:1.0 187834:1.0 223532:1.0 223550:1.0 235363:1.0 259544:1.0 280351:1.0 296318:1.0 300023:1.0 332231:1.0 353676:1.0 367355:1.0 
-0.0 0.0014418589204868687 5337:1.0 19458:1.0 33683:1.0 33700:1.0 42437:1.0 42455:1.0 54164:1.0 65089:1.0 95866:1.0 118722:1.0 184710:1.0 187834:1.0 223532:1.0 223532:1.0 223550:1.0 223550:1.0 243305:1.0 259545:1.0 281091:1.0 296306:1.0 312795:1.0 332242:1.0 359803:1.0 367356:1.0 
-0.0 0.0028454385367389775 1718:1.0 22625:1.0 39108:1.0 39125:1.0 48593:1.0 48611:1.0 72438:1.0 76266:1.0 142425:1.0 145378:1.0 181076:1.0 181094:1.0 184192:1.0 217083:1.0 223688:1.0 253861:1.0 277896:1.0 289781:1.0 301242:1.0 324906:1.0 
-0.0 3.248233434728032E-5 927:1.0 19453:1.0 42437:1.0 42455:1.0 61616:1.0 65089:1.0 114963:1.0 118722:1.0 178737:1.0 187834:1.0 223532:1.0 223532:1.0 223550:1.0 223550:1.0 241548:1.0 259545:1.0 295800:1.0 296306:1.0 308893:1.0 332242:1.0 343698:1.0 367362:1.0 
-0.0 4.79642806776784E-4 17241:1.0 19459:1.0 33683:1.0 33683:1.0 33700:1.0 33700:1.0 42437:1.0 42437:1.0 42455:1.0 42455:1.0 54164:1.0 65089:1.0 114963:1.0 118722:1.0 186714:1.0 187834:1.0 223532:1.0 223550:1.0 238996:1.0 259540:1.0 288167:1.0 296317:1.0 308173:1.0 332243:1.0 340501:1.0 367350:1.0 
-0.0 4.3597084319852195E-4 24873:1.0 27654:1.0 92885:1.0 96766:1.0 132464:1.0 132482:1.0 168033:1.0 168465:1.0 185453:1.0 205249:1.0 229495:1.0 241163:1.0 249461:1.0 276285:1.0 
-0.0 0.0010664396420505915 4537:1.0 19453:1.0 33683:1.0 33700:1.0 42437:1.0 42437:1.0 42455:1.0 42455:1.0 48474:1.0 65084:1.0 81564:1.0 81564:1.0 81581:1.0 81581:1.0 91049:1.0 91049:1.0 91067:1.0 91067:1.0 114894:1.0 118722:1.0 179570:1.0 187828:1.0 223532:1.0 223550:1.0 246520:1.0 259533:1.0 279162:1.0 296320:1.0 327586:1.0 332239:1.0 333760:1.0 367354:1.0 
-0.0 2.269075859307381E-4 15405:1.0 19458:1.0 47266:1.0 65081:1.0 91049:1.0 91049:1.0 91049:1.0 91049:1.0 91049:1.0 91067:1.0 91067:1.0 91067:1.0 91067:1.0 91067:1.0 102927:1.0 118722:1.0 174188:1.0 187834:1.0 223532:1.0 223550:1.0 246636:1.0 259544:1.0 285395:1.0 296318:1.0 307286:1.0 332231:1.0 344380:1.0 367355:1.0 
-0.0 2.7517881128244986E-6 5811:1.0 19458:1.0 33683:1.0 33700:1.0 42437:1.0 42437:1.0 42437:1.0 42455:1.0 42455:1.0 42455:1.0 54164:1.0 65089:1.0 102927:1.0 118722:1.0 158063:1.0 187834:1.0 223532:1.0 223532:1.0 223532:1.0 223550:1.0 223550:1.0 223550:1.0 235363:1.0 259544:1.0 281190:1.0 296312:1.0 301814:1.0 332244:1.0 338780:1.0 367361:1.0 
-0.0 0.003241592485765431 968:1.0 22625:1.0 48593:1.0 48593:1.0 48611:1.0 48611:1.0 72438:1.0 76266:1.0 126263:1.0 145378:1.0 210404:1.0 217081:1.0 234065:1.0 253861:1.0 262932:1.0 289787:1.0 298690:1.0 324894:1.0 
-0.0 1.4977739705427374E-4 4443:1.0 19453:1.0 33683:1.0 33700:1.0 42437:1.0 42437:1.0 42455:1.0 42455:1.0 54164:1.0 65089:1.0 112135:1.0 118722:1.0 171197:1.0 187828:1.0 223532:1.0 223550:1.0 239419:1.0 259544:1.0 271796:1.0 296318:1.0 327393:1.0 332231:1.0 351510:1.0 367355:1.0 
-0.0 0.001801345332715833 2336:1.0 19458:1.0 52430:1.0 65086:1.0 114894:1.0 118722:1.0 172246:1.0 187834:1.0 223532:1.0 223532:1.0 223532:1.0 223550:1.0 223550:1.0 223550:1.0 253437:1.0 259533:1.0 268509:1.0 296309:1.0 309552:1.0 332243:1.0 365767:1.0 367350:1.0 
-0.0 8.083967276466573E-4 9238:1.0 22625:1.0 48593:1.0 48593:1.0 48611:1.0 48611:1.0 72438:1.0 76266:1.0 123894:1.0 145378:1.0 181076:1.0 181076:1.0 181076:1.0 181076:1.0 181094:1.0 181094:1.0 181094:1.0 181094:1.0 183541:1.0 217088:1.0 247179:1.0 253859:1.0 262496:1.0 289778:1.0 291834:1.0 324903:1.0 
-0.0013565798831831183 0.0 7812:1.0 19458:1.0 33683:1.0 33683:1.0 33700:1.0 33700:1.0 42437:1.0 42455:1.0 54164:1.0 65089:1.0 112135:1.0 118722:1.0 141127:1.0 141127:1.0 141144:1.0 141144:1.0 154799:1.0 187828:1.0 223532:1.0 223550:1.0 238281:1.0 259538:1.0 267033:1.0 296320:1.0 
-0.0 0.002110604433305114 10076:1.0 22625:1.0 48593:1.0 48611:1.0 72438:1.0 76266:1.0 113199:1.0 145378:1.0 181076:1.0 181094:1.0 198714:1.0 217091:1.0 219155:1.0 253863:1.0 287976:1.0 289780:1.0 307462:1.0 324908:1.0 
-0.0 0.0032553070240277575 15974:1.0 19458:1.0 33683:1.0 33700:1.0 42437:1.0 42437:1.0 42437:1.0 42455:1.0 42455:1.0 42455:1.0 53563:1.0 65089:1.0 102927:1.0 118722:1.0 186361:1.0 187838:1.0 256189:1.0 259533:1.0 273896:1.0 296311:1.0 314492:1.0 332245:1.0 339112:1.0 367364:1.0 
-0.0 1.2313854309281775E-6 10076:1.0 22625:1.0 48593:1.0 48593:1.0 48611:1.0 48611:1.0 72438:1.0 76266:1.0 141430:1.0 145378:1.0 181076:1.0 181094:1.0 204180:1.0 217088:1.0 249024:1.0 253858:1.0 265717:1.0 289787:1.0 323385:1.0 324894:1.0 
-0.0 0.0025300774573755744 21823:1.0 22625:1.0 48593:1.0 48593:1.0 48611:1.0 48611:1.0 72438:1.0 76266:1.0 139002:1.0 145372:1.0 181076:1.0 181076:1.0 181076:1.0 181094:1.0 181094:1.0 181094:1.0 215758:1.0 217088:1.0 229340:1.0 253862:1.0 256901:1.0 289775:1.0 305791:1.0 324905:1.0 
-0.0 0.0010747974412386929 1050:1.0 19453:1.0 42437:1.0 42437:1.0 42455:1.0 42455:1.0 52430:1.0 65086:1.0 114894:1.0 118722:1.0 163920:1.0 187834:1.0 235750:1.0 259546:1.0 273207:1.0 296318:1.0 329506:1.0 332231:1.0 344403:1.0 367361:1.0 
-0.0 9.630212934708917E-4 15495:1.0 19465:1.0 52430:1.0 65086:1.0 114894:1.0 118722:1.0 178929:1.0 187834:1.0 223532:1.0 223550:1.0 234883:1.0 259545:1.0 276636:1.0 296306:1.0 312795:1.0 332242:1.0 364422:1.0 367356:1.0 
-0.0 0.0021619182220733156 10076:1.0 22625:1.0 48593:1.0 48611:1.0 72438:1.0 76266:1.0 122576:1.0 145378:1.0 181076:1.0 181076:1.0 181076:1.0 181094:1.0 181094:1.0 181094:1.0 212178:1.0 217085:1.0 250194:1.0 253863:1.0 255598:1.0 289779:1.0 305926:1.0 324904:1.0 
-0.0 0.002238093768650929 5912:1.0 19464:1.0 45789:1.0 65085:1.0 114894:1.0 118722:1.0 179833:1.0 187841:1.0 223532:1.0 223532:1.0 223532:1.0 223550:1.0 223550:1.0 223550:1.0 239419:1.0 259544:1.0 262316:1.0 296316:1.0 319903:1.0 332236:1.0 340529:1.0 367353:1.0 
-0.0017202681615273224 9.052793543632905E-4 9210:1.0 19458:1.0 33683:1.0 33700:1.0 42437:1.0 42455:1.0 45730:1.0 65081:1.0 81564:1.0 81581:1.0 112135:1.0 118722:1.0 155721:1.0 187828:1.0 258441:1.0 259536:1.0 287933:1.0 296314:1.0 329468:1.0 332231:1.0 355097:1.0 367361:1.0 
-1.4639465185781823E-4 0.0 2812:1.0 19458:1.0 33683:1.0 33700:1.0 45230:1.0 65075:1.0 81564:1.0 81581:1.0 91049:1.0 91067:1.0 112135:1.0 118722:1.0 184922:1.0 187828:1.0 246636:1.0 259544:1.0 285395:1.0 296318:1.0 313696:1.0 332231:1.0 364648:1.0 367355:1.0 
-0.0 0.002681755619964507 22253:1.0 22625:1.0 48593:1.0 48593:1.0 48611:1.0 48611:1.0 69679:1.0 76266:1.0 125492:1.0 145372:1.0 181076:1.0 181076:1.0 181094:1.0 181094:1.0 198714:1.0 217091:1.0 252551:1.0 253861:1.0 274099:1.0 289787:1.0 313642:1.0 324894:1.0 
-0.0 3.443054023319301E-4 7624:1.0 19458:1.0 33683:1.0 33700:1.0 42437:1.0 42437:1.0 42455:1.0 42455:1.0 44377:1.0 65081:1.0 81564:1.0 81581:1.0 91049:1.0 91067:1.0 112135:1.0 118722:1.0 151751:1.0 187828:1.0 223532:1.0 223532:1.0 223550:1.0 223550:1.0 241170:1.0 259547:1.0 268509:1.0 296309:1.0 314492:1.0 332245:1.0 363815:1.0 367363:1.0 
-0.0 7.867304760298697E-5 5935:1.0 19459:1.0 45545:1.0 65081:1.0 91049:1.0 91049:1.0 91067:1.0 91067:1.0 114894:1.0 118722:1.0 172270:1.0 187834:1.0 223532:1.0 223550:1.0 239959:1.0 259545:1.0 289343:1.0 296306:1.0 312795:1.0 332242:1.0 365181:1.0 367359:1.0 
-0.0 0.0019546946677947595 2357:1.0 22625:1.0 72438:1.0 76266:1.0 138381:1.0 145378:1.0 181076:1.0 181076:1.0 181094:1.0 181094:1.0 215758:1.0 217088:1.0 241927:1.0 253856:1.0 255598:1.0 289779:1.0 308340:1.0 324908:1.0 
-1.8335331220933673E-4 0.0 2026:1.0 19458:1.0 33683:1.0 33683:1.0 33683:1.0 33700:1.0 33700:1.0 33700:1.0 53133:1.0 65081:1.0 114894:1.0 118722:1.0 156604:1.0 187833:1.0 223532:1.0 223532:1.0 223532:1.0 223532:1.0 223532:1.0 223550:1.0 223550:1.0 223550:1.0 223550:1.0 223550:1.0 242095:1.0 259547:1.0 267108:1.0 296314:1.0 328630:1.0 332244:1.0 364665:1.0 367356:1.0 
-0.0 8.180098832298575E-4 20833:1.0 22625:1.0 72438:1.0 76266:1.0 141048:1.0 145377:1.0 181076:1.0 181076:1.0 181076:1.0 181076:1.0 181076:1.0 181076:1.0 181094:1.0 181094:1.0 181094:1.0 181094:1.0 181094:1.0 181094:1.0 198714:1.0 217091:1.0 224232:1.0 253861:1.0 274881:1.0 289775:1.0 316803:1.0 324902:1.0 
-0.0 2.9611817231104147E-4 17107:1.0 19457:1.0 33683:1.0 33700:1.0 42437:1.0 42437:1.0 42437:1.0 42437:1.0 42437:1.0 42437:1.0 42437:1.0 42455:1.0 42455:1.0 42455:1.0 42455:1.0 42455:1.0 42455:1.0 42455:1.0 55434:1.0 65075:1.0 91049:1.0 91067:1.0 112135:1.0 118722:1.0 170466:1.0 187834:1.0 223532:1.0 223532:1.0 223532:1.0 223532:1.0 223532:1.0 223532:1.0 223550:1.0 223550:1.0 223550:1.0 223550:1.0 223550:1.0 223550:1.0 239959:1.0 259545:1.0 276192:1.0 296306:1.0 330960:1.0 332242:1.0 355942:1.0 367360:1.0 
-1.490093862395009E-4 0.0 15493:1.0 19453:1.0 33683:1.0 33700:1.0 42437:1.0 42437:1.0 42437:1.0 42437:1.0 42437:1.0 42455:1.0 42455:1.0 42455:1.0 42455:1.0 42455:1.0 44143:1.0 65081:1.0 91049:1.0 91049:1.0 91067:1.0 91067:1.0 112135:1.0 118722:1.0 162646:1.0 187828:1.0 255286:1.0 259538:1.0 268509:1.0 296309:1.0 327486:1.0 332235:1.0 366746:1.0 367354:1.0 
-0.0 0.00156700616991506 16713:1.0 19458:1.0 42437:1.0 42437:1.0 42437:1.0 42455:1.0 42455:1.0 42455:1.0 57017:1.0 65086:1.0 114894:1.0 118722:1.0 182362:1.0 187834:1.0 223532:1.0 223532:1.0 223550:1.0 223550:1.0 258551:1.0 259544:1.0 277056:1.0 296318:1.0 326099:1.0 332231:1.0 354259:1.0 367355:1.0 
-0.0 6.201668772932972E-4 2677:1.0 22625:1.0 39108:1.0 39125:1.0 48593:1.0 48611:1.0 72438:1.0 76266:1.0 141581:1.0 145378:1.0 181076:1.0 181076:1.0 181094:1.0 181094:1.0 183865:1.0 217088:1.0 230751:1.0 253862:1.0 267018:1.0 289775:1.0 293151:1.0 324907:1.0 
-0.0 0.010488515676762452 17315:1.0 19458:1.0 42437:1.0 42455:1.0 57017:1.0 65086:1.0 114894:1.0 118722:1.0 186361:1.0 187838:1.0 254634:1.0 259541:1.0 293042:1.0 296312:1.0 305388:1.0 332235:1.0 346101:1.0 367350:1.0 
-0.0 2.864146569843473E-4 17315:1.0 19458:1.0 42437:1.0 42455:1.0 64124:1.0 65085:1.0 91049:1.0 91049:1.0 91067:1.0 91067:1.0 114894:1.0 118722:1.0 184452:1.0 187834:1.0 231729:1.0 259537:1.0 274298:1.0 296306:1.0 315389:1.0 332245:1.0 367082:1.0 367353:1.0 
-0.0 2.313241253071114E-5 8924:1.0 19453:1.0 33683:1.0 33700:1.0 52430:1.0 65086:1.0 114894:1.0 118722:1.0 155532:1.0 187834:1.0 223532:1.0 223532:1.0 223532:1.0 223550:1.0 223550:1.0 223550:1.0 257138:1.0 259538:1.0 278250:1.0 296320:1.0 315389:1.0 332245:1.0 341606:1.0 367356:1.0 
-0.0 8.778366683211788E-4 11647:1.0 19458:1.0 42437:1.0 42437:1.0 42455:1.0 42455:1.0 53077:1.0 65085:1.0 114894:1.0 118722:1.0 178258:1.0 187834:1.0 223532:1.0 223550:1.0 236046:1.0 259545:1.0 293269:1.0 296306:1.0 312795:1.0 332242:1.0 356733:1.0 367357:1.0 
-0.0 5.2835101324854E-4 11647:1.0 19458:1.0 42437:1.0 42437:1.0 42455:1.0 42455:1.0 59170:1.0 65081:1.0 81564:1.0 81564:1.0 81581:1.0 81581:1.0 91049:1.0 91049:1.0 91049:1.0 91067:1.0 91067:1.0 91067:1.0 114894:1.0 118722:1.0 159813:1.0 187834:1.0 246636:1.0 259544:1.0 273965:1.0 296306:1.0 308430:1.0 332243:1.0 342143:1.0 367350:1.0 
-0.0 0.0047210114813681595 5158:1.0 22625:1.0 48593:1.0 48611:1.0 72438:1.0 76266:1.0 118633:1.0 145372:1.0 181076:1.0 181076:1.0 181076:1.0 181094:1.0 181094:1.0 181094:1.0 186956:1.0 217088:1.0 248368:1.0 253855:1.0 259509:1.0 289775:1.0 305791:1.0 324905:1.0 
-3.273869316762864E-4 0.0028177002132376058 5158:1.0 22625:1.0 39108:1.0 39108:1.0 39125:1.0 39125:1.0 48593:1.0 48611:1.0 69679:1.0 76266:1.0 135544:1.0 145372:1.0 184779:1.0 217083:1.0 230751:1.0 253862:1.0 288279:1.0 289775:1.0 305791:1.0 324905:1.0 
-0.0 5.184145267880563E-4 11038:1.0 19458:1.0 33683:1.0 33683:1.0 33700:1.0 33700:1.0 42437:1.0 42455:1.0 54164:1.0 65089:1.0 111827:1.0 118722:1.0 165962:1.0 187834:1.0 223532:1.0 223550:1.0 229522:1.0 259546:1.0 276521:1.0 296317:1.0 310937:1.0 332237:1.0 342134:1.0 367354:1.0 
-0.0 0.001992669192900391 10293:1.0 22625:1.0 39108:1.0 39125:1.0 48593:1.0 48593:1.0 48611:1.0 48611:1.0 60471:1.0 76266:1.0 115700:1.0 145378:1.0 204180:1.0 217088:1.0 230751:1.0 253862:1.0 265086:1.0 289782:1.0 305791:1.0 324905:1.0 
-0.0 0.0010816316103401458 8835:1.0 19458:1.0 33683:1.0 33683:1.0 33683:1.0 33700:1.0 33700:1.0 33700:1.0 42437:1.0 42437:1.0 42455:1.0 42455:1.0 48008:1.0 65081:1.0 81564:1.0 81581:1.0 102927:1.0 118722:1.0 159561:1.0 187834:1.0 234609:1.0 259545:1.0 266924:1.0 296306:1.0 312795:1.0 332242:1.0 363967:1.0 367357:1.0 
-0.0 1.8251123006088302E-4 4751:1.0 19458:1.0 33683:1.0 33700:1.0 47542:1.0 65081:1.0 81564:1.0 81581:1.0 91049:1.0 91067:1.0 112135:1.0 118722:1.0 178880:1.0 187828:1.0 223532:1.0 223550:1.0 242095:1.0 259547:1.0 282476:1.0 296317:1.0 325624:1.0 332243:1.0 354007:1.0 367350:1.0 
-0.0 9.691940447853624E-4 7031:1.0 22625:1.0 48593:1.0 48611:1.0 72438:1.0 76266:1.0 126635:1.0 145378:1.0 181076:1.0 181076:1.0 181076:1.0 181094:1.0 181094:1.0 181094:1.0 205981:1.0 217089:1.0 251766:1.0 253850:1.0 270339:1.0 289786:1.0 314828:1.0 324906:1.0 
-0.0 8.250218829794576E-4 21362:1.0 22625:1.0 48593:1.0 48611:1.0 72438:1.0 76266:1.0 98671:1.0 98688:1.0 143905:1.0 145382:1.0 181076:1.0 181094:1.0 207120:1.0 217086:1.0 229239:1.0 253850:1.0 272933:1.0 289789:1.0 314363:1.0 324906:1.0 
-0.0 1.6580605177969344E-4 20191:1.0 22625:1.0 39108:1.0 39125:1.0 48593:1.0 48611:1.0 72438:1.0 76266:1.0 109891:1.0 145378:1.0 181076:1.0 181094:1.0 200849:1.0 217089:1.0 235794:1.0 253864:1.0 280635:1.0 289780:1.0 307462:1.0 324908:1.0 
-0.0 0.004471905705213279 11432:1.0 19453:1.0 33683:1.0 33700:1.0 42437:1.0 42455:1.0 60865:1.0 65080:1.0 114894:1.0 118722:1.0 171750:1.0 187828:1.0 223532:1.0 223550:1.0 258958:1.0 259538:1.0 268509:1.0 296309:1.0 321514:1.0 332243:1.0 337279:1.0 367350:1.0 
-2.4092007891476745E-4 0.002486721571776792 6910:1.0 19458:1.0 42437:1.0 42455:1.0 56266:1.0 65081:1.0 81564:1.0 81564:1.0 81581:1.0 81581:1.0 91049:1.0 91049:1.0 91049:1.0 91049:1.0 91067:1.0 91067:1.0 91067:1.0 91067:1.0 114894:1.0 118722:1.0 160731:1.0 187833:1.0 223532:1.0 223550:1.0 231928:1.0 259533:1.0 291073:1.0 296311:1.0 327486:1.0 332235:1.0 360596:1.0 367356:1.0 
-4.015700559104895E-5 0.0038800580426711826 17914:1.0 22625:1.0 48593:1.0 48611:1.0 72438:1.0 76266:1.0 110960:1.0 145377:1.0 181076:1.0 181094:1.0 181792:1.0 217083:1.0 230751:1.0 253862:1.0 271857:1.0 289775:1.0 305791:1.0 324905:1.0 
-0.0 0.0054121089166578595 4318:1.0 22625:1.0 48593:1.0 48611:1.0 72438:1.0 76266:1.0 116774:1.0 145378:1.0 181076:1.0 181076:1.0 181076:1.0 181094:1.0 181094:1.0 181094:1.0 198714:1.0 217091:1.0 236950:1.0 253850:1.0 272036:1.0 289789:1.0 308340:1.0 324908:1.0 
-0.0 0.0027917140812657535 20908:1.0 22625:1.0 48593:1.0 48611:1.0 72438:1.0 76266:1.0 130046:1.0 145378:1.0 181076:1.0 181094:1.0 198714:1.0 217091:1.0 246085:1.0 253856:1.0 279058:1.0 289787:1.0 322114:1.0 324907:1.0 
-0.0 2.27869453052682E-4 11343:1.0 19458:1.0 33683:1.0 33700:1.0 42437:1.0 42437:1.0 42455:1.0 42455:1.0 48750:1.0 65081:1.0 91049:1.0 91049:1.0 91049:1.0 91049:1.0 91049:1.0 91049:1.0 91067:1.0 91067:1.0 91067:1.0 91067:1.0 91067:1.0 91067:1.0 114894:1.0 118722:1.0 180534:1.0 187834:1.0 223532:1.0 223550:1.0 235363:1.0 259544:1.0 273207:1.0 296318:1.0 306471:1.0 332231:1.0 349918:1.0 367364:1.0 
-0.0 4.227667024358237E-4 22450:1.0 22625:1.0 48593:1.0 48611:1.0 72438:1.0 76266:1.0 145356:1.0 145378:1.0 181076:1.0 181094:1.0 212178:1.0 217085:1.0 229340:1.0 253862:1.0 284788:1.0 289775:1.0 305791:1.0 324905:1.0 
-0.0 0.0019051010766881664 22505:1.0 22625:1.0 48593:1.0 48611:1.0 72438:1.0 76266:1.0 140619:1.0 145378:1.0 181076:1.0 181094:1.0 192427:1.0 217089:1.0 240854:1.0 253850:1.0 277318:1.0 289786:1.0 301242:1.0 324906:1.0 
-0.0 1.1780572597062398E-4 10723:1.0 22625:1.0 48593:1.0 48611:1.0 72438:1.0 76266:1.0 143093:1.0 145378:1.0 181076:1.0 181094:1.0 204180:1.0 217088:1.0 243904:1.0 253855:1.0 265717:1.0 289787:1.0 312348:1.0 324903:1.0 
-0.0 8.908492863362425E-4 9405:1.0 22625:1.0 72438:1.0 76266:1.0 143203:1.0 145372:1.0 181076:1.0 181076:1.0 181076:1.0 181076:1.0 181076:1.0 181094:1.0 181094:1.0 181094:1.0 181094:1.0 181094:1.0 196963:1.0 217088:1.0 236181:1.0 253850:1.0 268354:1.0 289780:1.0 312641:1.0 324905:1.0 
-0.0 0.004843613237577024 10189:1.0 22625:1.0 48593:1.0 48593:1.0 48611:1.0 48611:1.0 72438:1.0 76266:1.0 120048:1.0 145377:1.0 181076:1.0 181094:1.0 187138:1.0 217083:1.0 230751:1.0 253862:1.0 287793:1.0 289775:1.0 298073:1.0 324897:1.0 
-0.0 0.0036144818308838787 7031:1.0 22625:1.0 48593:1.0 48611:1.0 72438:1.0 76266:1.0 140291:1.0 145372:1.0 181076:1.0 181076:1.0 181076:1.0 181076:1.0 181094:1.0 181094:1.0 181094:1.0 181094:1.0 191832:1.0 217082:1.0 236706:1.0 253864:1.0 279058:1.0 289787:1.0 319241:1.0 324894:1.0 
-0.0 8.075750470379226E-4 1692:1.0 19458:1.0 33683:1.0 33683:1.0 33700:1.0 33700:1.0 42437:1.0 42437:1.0 42437:1.0 42455:1.0 42455:1.0 42455:1.0 61387:1.0 65081:1.0 114894:1.0 118722:1.0 159688:1.0 187834:1.0 223532:1.0 223550:1.0 234615:1.0 259533:1.0 266144:1.0 296317:1.0 307401:1.0 332237:1.0 343698:1.0 367362:1.0 
-0.0 4.861819314207299E-5 2493:1.0 19459:1.0 56278:1.0 65081:1.0 91049:1.0 91049:1.0 91049:1.0 91067:1.0 91067:1.0 91067:1.0 114894:1.0 118722:1.0 177673:1.0 187828:1.0 223532:1.0 223532:1.0 223532:1.0 223532:1.0 223532:1.0 223532:1.0 223550:1.0 223550:1.0 223550:1.0 223550:1.0 223550:1.0 223550:1.0 243444:1.0 259538:1.0 267033:1.0 296320:1.0 
-4.487737471546699E-4 0.002668984400134641 16531:1.0 22625:1.0 39108:1.0 39125:1.0 48593:1.0 48593:1.0 48611:1.0 48611:1.0 72438:1.0 76266:1.0 108811:1.0 145378:1.0 189273:1.0 217089:1.0 233886:1.0 253850:1.0 264048:1.0 289780:1.0 295791:1.0 324905:1.0 
-5.307083131400823E-4 0.0 14940:1.0 19453:1.0 62396:1.0 65081:1.0 91049:1.0 91049:1.0 91049:1.0 91067:1.0 91067:1.0 91067:1.0 114894:1.0 118722:1.0 153786:1.0 187833:1.0 223532:1.0 223532:1.0 223532:1.0 223550:1.0 223550:1.0 223550:1.0 229763:1.0 259547:1.0 
-0.0 3.6620474983852365E-5 2842:1.0 19463:1.0 45744:1.0 65085:1.0 114894:1.0 118722:1.0 177078:1.0 187834:1.0 223532:1.0 223550:1.0 256934:1.0 259539:1.0 272534:1.0 296317:1.0 308173:1.0 332243:1.0 355363:1.0 367350:1.0 
-0.0025662933250505077 0.0015633551679317135 4939:1.0 19458:1.0 33683:1.0 33683:1.0 33700:1.0 33700:1.0 42437:1.0 42455:1.0 54164:1.0 65089:1.0 112135:1.0 118722:1.0 141127:1.0 141144:1.0 151206:1.0 151224:1.0 157373:1.0 187834:1.0 236046:1.0 259545:1.0 294292:1.0 296306:1.0 304952:1.0 332234:1.0 363123:1.0 367356:1.0 
-1.6233109298131757E-4 0.007063477331935092 2161:1.0 22625:1.0 48593:1.0 48611:1.0 72438:1.0 76266:1.0 110960:1.0 145377:1.0 181076:1.0 181094:1.0 196575:1.0 217083:1.0 226501:1.0 253862:1.0 256005:1.0 289775:1.0 305791:1.0 324905:1.0 
-0.0 0.0038389034880114835 8304:1.0 19460:1.0 54164:1.0 65089:1.0 95866:1.0 118722:1.0 171206:1.0 187834:1.0 223532:1.0 223532:1.0 223532:1.0 223550:1.0 223550:1.0 223550:1.0 246636:1.0 259544:1.0 264622:1.0 296313:1.0 319774:1.0 332242:1.0 351947:1.0 367362:1.0 
-0.0 0.003180602182234397 1853:1.0 19458:1.0 42437:1.0 42455:1.0 43879:1.0 65080:1.0 81564:1.0 81581:1.0 91049:1.0 91049:1.0 91049:1.0 91049:1.0 91067:1.0 91067:1.0 91067:1.0 91067:1.0 102927:1.0 118722:1.0 153791:1.0 187841:1.0 223532:1.0 223532:1.0 223532:1.0 223532:1.0 223532:1.0 223550:1.0 223550:1.0 223550:1.0 223550:1.0 223550:1.0 258214:1.0 259544:1.0 275259:1.0 296319:1.0 312795:1.0 332242:1.0 345057:1.0 367362:1.0 
-0.0 0.0012145283601197954 968:1.0 22625:1.0 48593:1.0 48611:1.0 72438:1.0 76266:1.0 116413:1.0 145377:1.0 181076:1.0 181076:1.0 181076:1.0 181076:1.0 181094:1.0 181094:1.0 181094:1.0 181094:1.0 181462:1.0 217080:1.0 244681:1.0 253855:1.0 272036:1.0 289789:1.0 308340:1.0 324908:1.0 
-0.0 6.945886073237487E-4 831:1.0 19458:1.0 33683:1.0 33700:1.0 42437:1.0 42455:1.0 54164:1.0 65089:1.0 95866:1.0 118722:1.0 172605:1.0 187834:1.0 254634:1.0 259541:1.0 261762:1.0 296310:1.0 316187:1.0 332241:1.0 360462:1.0 367356:1.0 
-0.0 0.001300430110005788 11402:1.0 19458:1.0 42437:1.0 42437:1.0 42455:1.0 42455:1.0 60487:1.0 65081:1.0 91049:1.0 91049:1.0 91049:1.0 91067:1.0 91067:1.0 91067:1.0 114894:1.0 118722:1.0 160923:1.0 187834:1.0 226296:1.0 259546:1.0 279162:1.0 296320:1.0 327486:1.0 332239:1.0 343698:1.0 367362:1.0 
-0.0 0.0017694196641168168 11402:1.0 19458:1.0 42437:1.0 42437:1.0 42455:1.0 42455:1.0 60487:1.0 65081:1.0 81564:1.0 81564:1.0 81581:1.0 81581:1.0 91049:1.0 91049:1.0 91049:1.0 91067:1.0 91067:1.0 91067:1.0 114894:1.0 118722:1.0 156578:1.0 187832:1.0 223532:1.0 223532:1.0 223550:1.0 223550:1.0 239419:1.0 259544:1.0 280351:1.0 296318:1.0 326842:1.0 332236:1.0 358550:1.0 367350:1.0 
-0.0 8.06933161525869E-4 12208:1.0 22625:1.0 39108:1.0 39125:1.0 48593:1.0 48611:1.0 53410:1.0 76266:1.0 143648:1.0 145378:1.0 181076:1.0 181076:1.0 181094:1.0 181094:1.0 193590:1.0 217081:1.0 224577:1.0 253864:1.0 
-0.0 4.432421975026477E-4 4859:1.0 19458:1.0 42437:1.0 42455:1.0 56940:1.0 65081:1.0 81564:1.0 81581:1.0 91049:1.0 91049:1.0 91049:1.0 91049:1.0 91049:1.0 91067:1.0 91067:1.0 91067:1.0 91067:1.0 91067:1.0 114894:1.0 118722:1.0 159194:1.0 187834:1.0 223532:1.0 223532:1.0 223550:1.0 223550:1.0 242095:1.0 259547:1.0 267108:1.0 296314:1.0 303169:1.0 332242:1.0 360855:1.0 367362:1.0 
-0.0 0.003115271062757535 4150:1.0 19458:1.0 42437:1.0 42437:1.0 42437:1.0 42455:1.0 42455:1.0 42455:1.0 54164:1.0 65089:1.0 95866:1.0 118722:1.0 183383:1.0 187828:1.0 223532:1.0 223532:1.0 223550:1.0 223550:1.0 235274:1.0 259538:1.0 267033:1.0 296320:1.0 
-0.0 1.1922447451127657E-4 5130:1.0 22625:1.0 39108:1.0 39125:1.0 48593:1.0 48593:1.0 48611:1.0 48611:1.0 72438:1.0 76266:1.0 126091:1.0 145378:1.0 181076:1.0 181076:1.0 181076:1.0 181076:1.0 181094:1.0 181094:1.0 181094:1.0 181094:1.0 215758:1.0 217088:1.0 252473:1.0 253863:1.0 270339:1.0 289786:1.0 309491:1.0 324906:1.0 
-0.0 0.001171478937551416 5605:1.0 19453:1.0 42437:1.0 42455:1.0 52296:1.0 65080:1.0 91049:1.0 91067:1.0 112135:1.0 118722:1.0 176295:1.0 187835:1.0 231271:1.0 259536:1.0 264008:1.0 296306:1.0 312795:1.0 332242:1.0 345675:1.0 367357:1.0 
-0.0 0.003813264431440765 14828:1.0 22625:1.0 39108:1.0 39125:1.0 48593:1.0 48611:1.0 72438:1.0 76266:1.0 145090:1.0 145378:1.0 181076:1.0 181094:1.0 189774:1.0 217087:1.0 241166:1.0 253861:1.0 270867:1.0 289787:1.0 295985:1.0 324894:1.0 
-0.0 1.3694265285478779E-4 17048:1.0 19453:1.0 33683:1.0 33700:1.0 42437:1.0 42437:1.0 42437:1.0 42437:1.0 42455:1.0 42455:1.0 42455:1.0 42455:1.0 54164:1.0 65089:1.0 106813:1.0 118722:1.0 177055:1.0 187834:1.0 223532:1.0 223550:1.0 248437:1.0 259545:1.0 265589:1.0 296315:1.0 330960:1.0 332242:1.0 334846:1.0 367359:1.0 
-0.0015954139581435703 0.0 10176:1.0 19453:1.0 42437:1.0 42455:1.0 58396:1.0 65080:1.0 112135:1.0 118722:1.0 167222:1.0 187833:1.0 229763:1.0 259547:1.0 
-0.0 0.0017392811445964857 11378:1.0 19458:1.0 33683:1.0 33700:1.0 42437:1.0 42455:1.0 54164:1.0 65089:1.0 106813:1.0 118722:1.0 184440:1.0 187834:1.0 223532:1.0 223532:1.0 223550:1.0 223550:1.0 224452:1.0 259539:1.0 283622:1.0 296317:1.0 321987:1.0 332243:1.0 354565:1.0 367350:1.0 
-0.0 0.002967614308355209 968:1.0 22625:1.0 48593:1.0 48593:1.0 48611:1.0 48611:1.0 72438:1.0 76266:1.0 129814:1.0 145378:1.0 196963:1.0 217088:1.0 247087:1.0 253857:1.0 270339:1.0 289786:1.0 295800:1.0 324901:1.0 
-0.0 0.0013604497559046786 20908:1.0 22625:1.0 48593:1.0 48611:1.0 72438:1.0 76266:1.0 142407:1.0 145378:1.0 193590:1.0 217089:1.0 227732:1.0 253850:1.0 270339:1.0 289786:1.0 309031:1.0 324906:1.0 
-0.0 0.001921085401868117 20908:1.0 22625:1.0 48593:1.0 48593:1.0 48611:1.0 48611:1.0 72438:1.0 76266:1.0 114217:1.0 145372:1.0 181076:1.0 181076:1.0 181076:1.0 181076:1.0 181094:1.0 181094:1.0 181094:1.0 181094:1.0 198714:1.0 217091:1.0 252551:1.0 253861:1.0 264222:1.0 289787:1.0 318778:1.0 324894:1.0 
-0.0 0.0024107103806767153 968:1.0 22625:1.0 48593:1.0 48593:1.0 48611:1.0 48611:1.0 72438:1.0 76266:1.0 111636:1.0 145378:1.0 181076:1.0 181094:1.0 214900:1.0 217083:1.0 235794:1.0 253864:1.0 258530:1.0 289787:1.0 300048:1.0 324894:1.0 
