svm_type c_svc
kernel_type polynomial
degree 2
gamma 1.0
coef0 1.0
nr_class 3
total_sv 69
rho 0.10340865422831226 -0.8792818027688876 -0.8974775747450874
label 1 2 0
nr_sv 24 44 1
SV
0.0021650456077022167 8.901036704764846E-5 6:1.0 310:1.0 499:1.0 499:1.0 512:1.0 512:1.0 685:1.0 685:1.0 699:1.0 699:1.0 1032:1.0 1093:1.0 1866:1.0 2092:1.0 2946:1.0 3370:1.0 4506:1.0 4712:1.0 4961:1.0 5436:1.0 5741:1.0 6140:1.0 6507:1.0 6838:1.0 
0.002658283008111582 1.5647745183929065E-4 256:1.0 314:1.0 499:1.0 499:1.0 512:1.0 512:1.0 685:1.0 699:1.0 1032:1.0 1097:1.0 1585:1.0 2092:1.0 2946:1.0 3370:1.0 4656:1.0 4712:1.0 4947:1.0 5436:1.0 5895:1.0 6135:1.0 6796:1.0 6828:1.0 
0.003229212767521923 1.6311762318195057E-4 55:1.0 391:1.0 623:1.0 636:1.0 827:1.0 841:1.0 1231:1.0 1392:1.0 2161:1.0 2671:1.0 3917:1.0 4008:1.0 4137:1.0 4735:1.0 4960:1.0 5445:1.0 5538:1.0 6126:1.0 
0.005270697800860526 5.104003322907241E-4 194:1.0 400:1.0 861:1.0 1392:1.0 2549:1.0 2667:1.0 3531:1.0 4018:1.0 4139:1.0 4726:1.0 5248:1.0 5438:1.0 5888:1.0 6135:1.0 
9.311163881508622E-4 1.1032498488467875E-4 142:1.0 322:1.0 1077:1.0 1091:1.0 1323:1.0 1336:1.0 1527:1.0 1541:1.0 1967:1.0 2092:1.0 2861:1.0 3371:1.0 4682:1.0 4708:1.0 5028:1.0 5435:1.0 5674:1.0 6145:1.0 6275:1.0 6826:1.0 
0.003018741973687653 1.8955485029728084E-4 261:1.0 316:1.0 942:1.0 1091:1.0 1323:1.0 1323:1.0 1336:1.0 1336:1.0 1527:1.0 1541:1.0 1862:1.0 2092:1.0 2982:1.0 3373:1.0 4050:1.0 4719:1.0 4978:1.0 5429:1.0 5775:1.0 6147:1.0 6507:1.0 6838:1.0 
0.0025112350685596663 2.3396795240577444E-4 142:1.0 322:1.0 866:1.0 1091:1.0 1323:1.0 1336:1.0 1527:1.0 1541:1.0 1846:1.0 2092:1.0 2872:1.0 3370:1.0 4030:1.0 4716:1.0 5053:1.0 5430:1.0 5887:1.0 6144:1.0 6282:1.0 6826:1.0 
0.003465176910042487 0.0011422969000637183 158:1.0 322:1.0 914:1.0 1102:1.0 1612:1.0 2092:1.0 3099:1.0 3370:1.0 4245:1.0 4708:1.0 5320:1.0 5432:1.0 5523:1.0 6140:1.0 6646:1.0 6834:1.0 
0.0025185677161332835 8.595678455114027E-4 158:1.0 322:1.0 914:1.0 1102:1.0 1612:1.0 2092:1.0 2419:1.0 2432:1.0 3249:1.0 3367:1.0 4075:1.0 4713:1.0 5235:1.0 5434:1.0 5660:1.0 6145:1.0 6570:1.0 6826:1.0 
0.003566566367040273 3.355967117846976E-4 261:1.0 316:1.0 738:1.0 1096:1.0 1931:1.0 2092:1.0 2861:1.0 3371:1.0 4433:1.0 4708:1.0 5028:1.0 5435:1.0 5674:1.0 6145:1.0 6770:1.0 6831:1.0 
0.0021505180185321065 1.0389032304919863E-4 231:1.0 391:1.0 623:1.0 636:1.0 827:1.0 827:1.0 841:1.0 841:1.0 1231:1.0 1392:1.0 2435:1.0 2671:1.0 3342:1.0 4008:1.0 4328:1.0 4735:1.0 5075:1.0 5447:1.0 6003:1.0 6129:1.0 
0.003098133825921863 6.148412201075948E-5 231:1.0 391:1.0 623:1.0 636:1.0 827:1.0 827:1.0 841:1.0 841:1.0 1231:1.0 1392:1.0 1982:1.0 2661:1.0 3295:1.0 3309:1.0 3600:1.0 4017:1.0 4363:1.0 4738:1.0 5307:1.0 5438:1.0 5543:1.0 6126:1.0 
0.0016162418824450567 3.05715015147544E-5 231:1.0 391:1.0 623:1.0 636:1.0 827:1.0 827:1.0 841:1.0 841:1.0 1231:1.0 1392:1.0 1982:1.0 2661:1.0 3114:1.0 3128:1.0 3295:1.0 3309:1.0 3531:1.0 4018:1.0 4161:1.0 4726:1.0 5330:1.0 5437:1.0 6006:1.0 6130:1.0 
9.621340349728256E-4 1.3937753806654342E-5 261:1.0 316:1.0 788:1.0 1091:1.0 1323:1.0 1323:1.0 1336:1.0 1336:1.0 1527:1.0 1541:1.0 1931:1.0 2092:1.0 2956:1.0 3371:1.0 4408:1.0 4708:1.0 5028:1.0 5435:1.0 5664:1.0 6145:1.0 6780:1.0 6826:1.0 
0.001130381709687695 1.8318053714729126E-5 261:1.0 316:1.0 1034:1.0 1091:1.0 1323:1.0 1336:1.0 1527:1.0 1541:1.0 1931:1.0 2092:1.0 2876:1.0 3371:1.0 4370:1.0 4708:1.0 5028:1.0 5435:1.0 5660:1.0 6145:1.0 6521:1.0 6826:1.0 
0.004044204925806508 3.4070479854803737E-4 13:1.0 393:1.0 623:1.0 636:1.0 1231:1.0 1392:1.0 2054:1.0 2669:1.0 3900:1.0 4014:1.0 4055:1.0 4728:1.0 5031:1.0 5439:1.0 5827:1.0 6136:1.0 
0.0029202932635198475 2.3301467712294116E-4 8:1.0 312:1.0 499:1.0 512:1.0 987:1.0 1099:1.0 1624:1.0 2092:1.0 3249:1.0 3367:1.0 4021:1.0 4710:1.0 5019:1.0 5430:1.0 5823:1.0 6145:1.0 6723:1.0 6826:1.0 
0.0021540375886308217 2.483288379032337E-4 74:1.0 395:1.0 623:1.0 636:1.0 827:1.0 841:1.0 860:1.0 1392:1.0 2166:1.0 2671:1.0 3640:1.0 4008:1.0 4391:1.0 4738:1.0 5330:1.0 5437:1.0 5946:1.0 6134:1.0 
0.002853235651536111 1.4344531172227396E-4 74:1.0 395:1.0 623:1.0 636:1.0 827:1.0 841:1.0 860:1.0 1392:1.0 2287:1.0 2661:1.0 3295:1.0 3309:1.0 3663:1.0 4020:1.0 4620:1.0 4728:1.0 5246:1.0 5443:1.0 5616:1.0 6126:1.0 
0.0037040684537151115 1.2532218032741376E-4 229:1.0 391:1.0 623:1.0 623:1.0 623:1.0 636:1.0 636:1.0 636:1.0 827:1.0 841:1.0 1076:1.0 1392:1.0 2301:1.0 2669:1.0 3600:1.0 4017:1.0 4113:1.0 4737:1.0 5040:1.0 5444:1.0 6021:1.0 6133:1.0 
0.001700699622142069 9.09336200464976E-5 179:1.0 310:1.0 499:1.0 499:1.0 499:1.0 512:1.0 512:1.0 512:1.0 685:1.0 699:1.0 871:1.0 1099:1.0 1809:1.0 2092:1.0 2946:1.0 3370:1.0 4080:1.0 4719:1.0 5028:1.0 5435:1.0 6027:1.0 6142:1.0 6215:1.0 6826:1.0 
0.0030225402739036456 9.666658307281456E-5 236:1.0 391:1.0 623:1.0 623:1.0 636:1.0 636:1.0 827:1.0 827:1.0 841:1.0 841:1.0 883:1.0 1392:1.0 2294:1.0 2669:1.0 3685:1.0 4018:1.0 4531:1.0 4726:1.0 4861:1.0 5444:1.0 5472:1.0 6137:1.0 
0.0018038978091887026 9.533134490819135E-5 185:1.0 310:1.0 499:1.0 499:1.0 512:1.0 512:1.0 685:1.0 685:1.0 699:1.0 699:1.0 730:1.0 1099:1.0 1804:1.0 2092:1.0 3032:1.0 3371:1.0 4507:1.0 4708:1.0 4846:1.0 5435:1.0 5463:1.0 6146:1.0 6444:1.0 6835:1.0 
0.0018157108491248218 1.1548207405519026E-4 238:1.0 311:1.0 499:1.0 512:1.0 685:1.0 699:1.0 803:1.0 1094:1.0 1527:1.0 1527:1.0 1541:1.0 1541:1.0 1862:1.0 2092:1.0 3032:1.0 3371:1.0 4531:1.0 4708:1.0 4846:1.0 5435:1.0 5539:1.0 6146:1.0 6559:1.0 6833:1.0 
-6.72399674444148E-4 1.2214693311974443E-4 6:1.0 310:1.0 499:1.0 499:1.0 512:1.0 512:1.0 685:1.0 685:1.0 699:1.0 699:1.0 1032:1.0 1093:1.0 1866:1.0 2092:1.0 3155:1.0 3365:1.0 3995:1.0 4009:1.0 4231:1.0 4718:1.0 5029:1.0 5431:1.0 5803:1.0 6147:1.0 6237:1.0 6831:1.0 
-8.884133781712209E-4 4.313606807115297E-5 261:1.0 316:1.0 732:1.0 1095:1.0 1323:1.0 1336:1.0 1527:1.0 1541:1.0 1591:1.0 2092:1.0 3224:1.0 3365:1.0 4227:1.0 4717:1.0 5112:1.0 5436:1.0 5926:1.0 6135:1.0 6686:1.0 6829:1.0 
-0.0019179727170234994 9.255825762747445E-5 261:1.0 316:1.0 775:1.0 1095:1.0 1323:1.0 1323:1.0 1336:1.0 1336:1.0 1527:1.0 1527:1.0 1541:1.0 1541:1.0 1931:1.0 2092:1.0 2763:1.0 3364:1.0 4120:1.0 4716:1.0 4958:1.0 5429:1.0 5670:1.0 6144:1.0 6682:1.0 6828:1.0 
-6.741262625318756E-4 7.416832291851797E-6 251:1.0 314:1.0 499:1.0 499:1.0 512:1.0 512:1.0 685:1.0 685:1.0 685:1.0 699:1.0 699:1.0 699:1.0 764:1.0 1094:1.0 1527:1.0 1527:1.0 1527:1.0 1541:1.0 1541:1.0 1541:1.0 1630:1.0 2092:1.0 2873:1.0 3364:1.0 4227:1.0 4717:1.0 5273:1.0 5428:1.0 5569:1.0 6147:1.0 
-9.055283050239762E-4 8.24498236456554E-5 256:1.0 314:1.0 499:1.0 499:1.0 512:1.0 512:1.0 685:1.0 699:1.0 1032:1.0 1097:1.0 1585:1.0 2092:1.0 3308:1.0 3365:1.0 3995:1.0 4009:1.0 4217:1.0 4718:1.0 5184:1.0 5426:1.0 6105:1.0 6137:1.0 6748:1.0 6837:1.0 
-0.002630831394184599 6.114816048880096E-5 55:1.0 391:1.0 623:1.0 636:1.0 827:1.0 841:1.0 1231:1.0 1392:1.0 2567:1.0 2661:1.0 3295:1.0 3309:1.0 3405:1.0 4017:1.0 4247:1.0 4736:1.0 4831:1.0 5435:1.0 5596:1.0 6127:1.0 
-9.266621947062487E-4 1.3761586419788028E-4 194:1.0 400:1.0 861:1.0 1392:1.0 2471:1.0 2665:1.0 3295:1.0 3295:1.0 3295:1.0 3309:1.0 3309:1.0 3309:1.0 3752:1.0 4017:1.0 4247:1.0 4736:1.0 5079:1.0 5442:1.0 6100:1.0 6135:1.0 
-2.67507684603947E-4 0.0 268:1.0 310:1.0 499:1.0 499:1.0 512:1.0 512:1.0 685:1.0 685:1.0 685:1.0 685:1.0 685:1.0 685:1.0 685:1.0 699:1.0 699:1.0 699:1.0 699:1.0 699:1.0 699:1.0 699:1.0 706:1.0 1093:1.0 1907:1.0 2092:1.0 3002:1.0 3365:1.0 4487:1.0 4718:1.0 5156:1.0 5426:1.0 6057:1.0 6138:1.0 6259:1.0 6835:1.0 
-8.930213641140448E-4 2.4322270640043416E-4 142:1.0 322:1.0 1077:1.0 1091:1.0 1323:1.0 1336:1.0 1527:1.0 1541:1.0 1967:1.0 2092:1.0 3334:1.0 3361:1.0 3995:1.0 4009:1.0 4300:1.0 4717:1.0 4961:1.0 5436:1.0 5570:1.0 6135:1.0 6296:1.0 6827:1.0 
-0.002144637500538634 3.394512032763012E-4 158:1.0 322:1.0 1032:1.0 1093:1.0 1776:1.0 2092:1.0 2957:1.0 3365:1.0 4540:1.0 4717:1.0 5322:1.0 5426:1.0 5674:1.0 6145:1.0 6775:1.0 6831:1.0 
-0.0013141245434700871 8.425596312493744E-5 261:1.0 316:1.0 942:1.0 1091:1.0 1323:1.0 1323:1.0 1336:1.0 1336:1.0 1527:1.0 1541:1.0 1862:1.0 2092:1.0 2894:1.0 3364:1.0 3995:1.0 3995:1.0 4009:1.0 4009:1.0 4335:1.0 4720:1.0 5091:1.0 5438:1.0 5591:1.0 6136:1.0 6724:1.0 6832:1.0 
-0.0021476334044821447 2.697210382680574E-4 175:1.0 318:1.0 822:1.0 1100:1.0 1556:1.0 2092:1.0 2972:1.0 3365:1.0 4452:1.0 4717:1.0 4862:1.0 5426:1.0 6030:1.0 6137:1.0 6340:1.0 6830:1.0 
-9.227029194173611E-5 1.6027531736182508E-5 142:1.0 322:1.0 866:1.0 1091:1.0 1323:1.0 1336:1.0 1527:1.0 1541:1.0 1846:1.0 2092:1.0 2972:1.0 3365:1.0 3995:1.0 3995:1.0 4009:1.0 4009:1.0 4452:1.0 4717:1.0 4862:1.0 5426:1.0 6030:1.0 6137:1.0 6340:1.0 6830:1.0 
-0.0016407411422750934 2.5217294726000203E-5 256:1.0 391:1.0 623:1.0 623:1.0 623:1.0 636:1.0 636:1.0 636:1.0 827:1.0 827:1.0 841:1.0 841:1.0 1231:1.0 1392:1.0 2162:1.0 2664:1.0 3454:1.0 4012:1.0 4257:1.0 4735:1.0 5303:1.0 5435:1.0 5678:1.0 6136:1.0 
-0.0016939104617524027 4.478619425703545E-5 261:1.0 316:1.0 1069:1.0 1091:1.0 1323:1.0 1336:1.0 1527:1.0 1541:1.0 1689:1.0 2092:1.0 3070:1.0 3365:1.0 4114:1.0 4717:1.0 4995:1.0 5426:1.0 5775:1.0 6147:1.0 6727:1.0 6829:1.0 
-0.0016060357609645783 1.9542219732517375E-5 261:1.0 316:1.0 738:1.0 1096:1.0 1931:1.0 2092:1.0 3080:1.0 3361:1.0 3995:1.0 4009:1.0 4300:1.0 4717:1.0 4961:1.0 5436:1.0 6078:1.0 6140:1.0 6577:1.0 6831:1.0 
-6.620738236410582E-4 7.594113992800098E-4 158:1.0 322:1.0 914:1.0 1102:1.0 1612:1.0 2092:1.0 2419:1.0 2432:1.0 3080:1.0 3361:1.0 3995:1.0 3995:1.0 3995:1.0 3995:1.0 4009:1.0 4009:1.0 4009:1.0 4009:1.0 4300:1.0 4717:1.0 4961:1.0 5436:1.0 6078:1.0 6140:1.0 6577:1.0 6831:1.0 
-0.002075425005003779 1.9283616445606993E-4 261:1.0 312:1.0 852:1.0 1091:1.0 1527:1.0 1541:1.0 1776:1.0 2092:1.0 2974:1.0 3365:1.0 4147:1.0 4709:1.0 5320:1.0 5428:1.0 6047:1.0 6139:1.0 6708:1.0 6829:1.0 
-0.0016908834983845593 6.192115378768982E-5 231:1.0 391:1.0 623:1.0 636:1.0 827:1.0 827:1.0 841:1.0 841:1.0 1231:1.0 1392:1.0 2071:1.0 2661:1.0 3295:1.0 3295:1.0 3309:1.0 3309:1.0 3900:1.0 4010:1.0 4600:1.0 4730:1.0 4979:1.0 5440:1.0 5567:1.0 6135:1.0 
-3.054831782505329E-4 5.185345239424963E-5 261:1.0 316:1.0 788:1.0 1091:1.0 1323:1.0 1323:1.0 1336:1.0 1336:1.0 1527:1.0 1541:1.0 1931:1.0 2092:1.0 3055:1.0 3361:1.0 3995:1.0 4009:1.0 4300:1.0 4717:1.0 4951:1.0 5436:1.0 6088:1.0 6135:1.0 6444:1.0 6835:1.0 
-0.0012187013111851033 1.1427564357221154E-4 248:1.0 310:1.0 685:1.0 699:1.0 882:1.0 1103:1.0 1776:1.0 2092:1.0 3125:1.0 3365:1.0 4105:1.0 4717:1.0 4947:1.0 5436:1.0 5723:1.0 6135:1.0 6296:1.0 6827:1.0 
-0.001031853064795545 0.0 97:1.0 321:1.0 499:1.0 499:1.0 512:1.0 512:1.0 685:1.0 685:1.0 699:1.0 699:1.0 1032:1.0 1093:1.0 1591:1.0 2092:1.0 2650:1.0 3365:1.0 4158:1.0 4718:1.0 4939:1.0 5426:1.0 5831:1.0 6138:1.0 6274:1.0 6838:1.0 
-0.0022711088623566175 1.224398285339322E-4 363:1.0 391:1.0 623:1.0 623:1.0 636:1.0 636:1.0 827:1.0 841:1.0 1231:1.0 1392:1.0 2162:1.0 2664:1.0 3873:1.0 4016:1.0 4289:1.0 4730:1.0 5187:1.0 5444:1.0 5678:1.0 6136:1.0 
-0.0016458218337457684 1.579905068339036E-4 116:1.0 394:1.0 827:1.0 827:1.0 841:1.0 841:1.0 1278:1.0 1392:1.0 2205:1.0 2665:1.0 3752:1.0 4017:1.0 4261:1.0 4736:1.0 5369:1.0 5435:1.0 5795:1.0 6129:1.0 
-1.8422434026181634E-4 5.052516941447166E-5 261:1.0 316:1.0 1034:1.0 1091:1.0 1323:1.0 1336:1.0 1527:1.0 1541:1.0 1931:1.0 2092:1.0 3017:1.0 3361:1.0 3995:1.0 4009:1.0 4300:1.0 4717:1.0 4947:1.0 5436:1.0 5817:1.0 6135:1.0 6296:1.0 6827:1.0 
-0.0011887056781078205 3.9383716278045493E-4 8:1.0 312:1.0 499:1.0 512:1.0 987:1.0 1099:1.0 1624:1.0 2092:1.0 2937:1.0 3365:1.0 3995:1.0 3995:1.0 4009:1.0 4009:1.0 4385:1.0 4718:1.0 5319:1.0 5426:1.0 5740:1.0 6144:1.0 6364:1.0 6836:1.0 
-0.0016791742020284283 9.896111932911694E-5 13:1.0 393:1.0 623:1.0 636:1.0 1231:1.0 1392:1.0 2237:1.0 2665:1.0 3295:1.0 3295:1.0 3295:1.0 3309:1.0 3309:1.0 3309:1.0 3685:1.0 4018:1.0 4619:1.0 4726:1.0 5040:1.0 5444:1.0 5664:1.0 6136:1.0 
-0.0030914803855184663 6.525182787131611E-4 158:1.0 322:1.0 1032:1.0 1093:1.0 1931:1.0 2092:1.0 2812:1.0 3361:1.0 4172:1.0 4711:1.0 4837:1.0 5435:1.0 5595:1.0 6139:1.0 6588:1.0 6835:1.0 
-0.0014466977370709928 5.404734186739456E-5 74:1.0 395:1.0 623:1.0 636:1.0 827:1.0 841:1.0 860:1.0 1392:1.0 2112:1.0 2661:1.0 3295:1.0 3295:1.0 3295:1.0 3295:1.0 3309:1.0 3309:1.0 3309:1.0 3309:1.0 3472:1.0 4011:1.0 4137:1.0 4735:1.0 4895:1.0 5439:1.0 5888:1.0 6135:1.0 
-0.002693093854546418 7.82940461413414E-5 379:1.0 391:1.0 623:1.0 636:1.0 827:1.0 827:1.0 841:1.0 841:1.0 1207:1.0 1392:1.0 2319:1.0 2665:1.0 3752:1.0 4017:1.0 4690:1.0 4730:1.0 4960:1.0 5445:1.0 5787:1.0 6126:1.0 
-0.0012053899017331839 2.6949301425345427E-5 12:1.0 314:1.0 499:1.0 499:1.0 499:1.0 512:1.0 512:1.0 512:1.0 685:1.0 699:1.0 787:1.0 1098:1.0 1934:1.0 2092:1.0 3013:1.0 3365:1.0 4515:1.0 4717:1.0 4947:1.0 5436:1.0 5662:1.0 6138:1.0 6784:1.0 6826:1.0 
-5.266751442897299E-4 0.0 159:1.0 314:1.0 499:1.0 499:1.0 512:1.0 512:1.0 685:1.0 685:1.0 699:1.0 699:1.0 729:1.0 1091:1.0 1527:1.0 1541:1.0 1934:1.0 2092:1.0 2879:1.0 3365:1.0 4227:1.0 4717:1.0 5038:1.0 5436:1.0 6038:1.0 6135:1.0 6274:1.0 6838:1.0 
-9.499346879352961E-4 0.0 160:1.0 310:1.0 499:1.0 512:1.0 685:1.0 699:1.0 706:1.0 1093:1.0 1907:1.0 2092:1.0 3281:1.0 3365:1.0 4681:1.0 4717:1.0 4961:1.0 5436:1.0 5855:1.0 6135:1.0 6444:1.0 6835:1.0 
-0.002542629221871941 1.0345211440198765E-4 148:1.0 396:1.0 623:1.0 623:1.0 623:1.0 636:1.0 636:1.0 636:1.0 827:1.0 841:1.0 1076:1.0 1392:1.0 2329:1.0 2665:1.0 3521:1.0 4018:1.0 4399:1.0 4726:1.0 5275:1.0 5444:1.0 5669:1.0 6133:1.0 
-8.103876511971291E-4 1.2988529293450523E-4 179:1.0 310:1.0 499:1.0 499:1.0 499:1.0 512:1.0 512:1.0 512:1.0 685:1.0 699:1.0 871:1.0 1099:1.0 1809:1.0 2092:1.0 2700:1.0 3361:1.0 3995:1.0 3995:1.0 3995:1.0 4009:1.0 4009:1.0 4009:1.0 4363:1.0 4720:1.0 5420:1.0 5427:1.0 5508:1.0 6143:1.0 6254:1.0 6830:1.0 
-7.719470502515121E-4 3.604138298964576E-5 229:1.0 391:1.0 623:1.0 623:1.0 623:1.0 636:1.0 636:1.0 636:1.0 827:1.0 841:1.0 1076:1.0 1392:1.0 2000:1.0 2661:1.0 3295:1.0 3295:1.0 3295:1.0 3295:1.0 3309:1.0 3309:1.0 3309:1.0 3309:1.0 3663:1.0 4020:1.0 4720:1.0 4727:1.0 4808:1.0 5443:1.0 5554:1.0 6130:1.0 
-9.91151723572757E-4 3.285998904162399E-5 29:1.0 391:1.0 623:1.0 623:1.0 636:1.0 636:1.0 827:1.0 827:1.0 827:1.0 827:1.0 827:1.0 827:1.0 841:1.0 841:1.0 841:1.0 841:1.0 841:1.0 841:1.0 883:1.0 1392:1.0 2042:1.0 2665:1.0 3787:1.0 4018:1.0 4664:1.0 4737:1.0 5033:1.0 5446:1.0 5744:1.0 6135:1.0 
-9.680112995815759E-4 1.3746197793058992E-5 36:1.0 314:1.0 499:1.0 512:1.0 685:1.0 699:1.0 1032:1.0 1097:1.0 1776:1.0 2092:1.0 3157:1.0 3365:1.0 4227:1.0 4717:1.0 5211:1.0 5436:1.0 5932:1.0 6135:1.0 6444:1.0 6835:1.0 
-0.0021390711968315187 1.5052546160434715E-4 218:1.0 310:1.0 685:1.0 699:1.0 706:1.0 1093:1.0 1776:1.0 2092:1.0 3289:1.0 3365:1.0 4560:1.0 4719:1.0 5028:1.0 5435:1.0 6030:1.0 6141:1.0 6436:1.0 6831:1.0 
-0.004556933208199539 3.976448276318169E-4 157:1.0 396:1.0 1231:1.0 1392:1.0 2256:1.0 2663:1.0 3600:1.0 4017:1.0 4188:1.0 4736:1.0 5233:1.0 5438:1.0 5721:1.0 6126:1.0 
-9.813414482148116E-4 9.780055760447178E-5 185:1.0 310:1.0 499:1.0 499:1.0 512:1.0 512:1.0 685:1.0 685:1.0 699:1.0 699:1.0 730:1.0 1099:1.0 1804:1.0 2092:1.0 3156:1.0 3361:1.0 3995:1.0 4009:1.0 4114:1.0 4717:1.0 4747:1.0 5437:1.0 5740:1.0 6144:1.0 6197:1.0 6833:1.0 
-0.001593621624589559 0.0 236:1.0 391:1.0 623:1.0 623:1.0 636:1.0 636:1.0 827:1.0 827:1.0 841:1.0 841:1.0 883:1.0 1392:1.0 2456:1.0 2661:1.0 3295:1.0 3295:1.0 3309:1.0 3309:1.0 3414:1.0 4017:1.0 4047:1.0 4737:1.0 5040:1.0 5444:1.0 5497:1.0 6133:1.0 
-0.0010150817517271162 1.4594118313014228E-4 238:1.0 311:1.0 499:1.0 512:1.0 685:1.0 699:1.0 803:1.0 1094:1.0 1527:1.0 1527:1.0 1541:1.0 1541:1.0 1862:1.0 2092:1.0 3180:1.0 3361:1.0 3995:1.0 4009:1.0 4114:1.0 4717:1.0 4824:1.0 5437:1.0 5857:1.0 6142:1.0 6210:1.0 6826:1.0 
-0.0016580227518168465 1.4931909173650793E-4 35:1.0 391:1.0 827:1.0 827:1.0 841:1.0 841:1.0 1382:1.0 1392:1.0 2027:1.0 2665:1.0 3981:1.0 4017:1.0 4247:1.0 4736:1.0 5084:1.0 5440:1.0 5608:1.0 6131:1.0 
-0.005507746201109855 -0.005661772758361486 158:1.0 322:1.0 914:1.0 1102:1.0 1612:1.0 2092:1.0 2890:1.0 3361:1.0 3995:1.0 4009:1.0 4600:1.0 4714:1.0 4808:1.0 5431:1.0 5946:1.0 6143:1.0 6364:1.0 6836:1.0 
