svm_type c_svc
kernel_type polynomial
degree 2
gamma 1.0
coef0 1.0
nr_class 3
total_sv 240
rho -0.05154748733280111 -0.5179012528923291 -0.42197144981350376
label 1 2 0
nr_sv 108 113 19
SV
4.0646681280390867E-4 6.798677407143151E-5 45:1.0 393:1.0 623:1.0 636:1.0 827:1.0 827:1.0 841:1.0 841:1.0 1122:1.0 1385:1.0 2484:1.0 2668:1.0 3466:1.0 4010:1.0 4027:1.0 4027:1.0 4031:1.0 4031:1.0 4039:1.0 4039:1.0 4044:1.0 4044:1.0 4266:1.0 4729:1.0 5110:1.0 5436:1.0 5769:1.0 6133:1.0 
0.0 1.374233380288123E-4 81:1.0 312:1.0 499:1.0 499:1.0 499:1.0 512:1.0 512:1.0 512:1.0 685:1.0 685:1.0 685:1.0 685:1.0 699:1.0 699:1.0 699:1.0 699:1.0 916:1.0 1101:1.0 1323:1.0 1323:1.0 1323:1.0 1336:1.0 1336:1.0 1336:1.0 1527:1.0 1527:1.0 1541:1.0 1541:1.0 1820:1.0 2085:1.0 3054:1.0 3368:1.0 4183:1.0 4710:1.0 4739:1.0 4739:1.0 4744:1.0 4744:1.0 5035:1.0 5438:1.0 
3.543211939291861E-4 1.9312538770791923E-4 428:1.0 543:1.0 1788:1.0 1826:1.0 2798:1.0 3168:1.0 3185:1.0 3185:1.0 3185:1.0 3185:1.0 3189:1.0 3189:1.0 3189:1.0 3189:1.0 3197:1.0 3197:1.0 3202:1.0 3202:1.0 3554:1.0 3885:1.0 3957:1.0 4595:1.0 4612:1.0 4616:1.0 4623:1.0 4628:1.0 5253:1.0 5285:1.0 
3.860417211174853E-5 1.1838273059184984E-4 295:1.0 320:1.0 499:1.0 499:1.0 499:1.0 499:1.0 499:1.0 512:1.0 512:1.0 512:1.0 512:1.0 512:1.0 685:1.0 685:1.0 685:1.0 685:1.0 685:1.0 685:1.0 699:1.0 699:1.0 699:1.0 699:1.0 699:1.0 699:1.0 722:1.0 1100:1.0 1820:1.0 2085:1.0 3184:1.0 3368:1.0 4700:1.0 4718:1.0 4727:1.0 4727:1.0 4731:1.0 4731:1.0 4739:1.0 4739:1.0 4744:1.0 4744:1.0 4777:1.0 5435:1.0 5606:1.0 6145:1.0 6154:1.0 6158:1.0 6532:1.0 6833:1.0 
0.001408753955969003 6.884140179818214E-4 290:1.0 543:1.0 1788:1.0 1826:1.0 2646:1.0 3168:1.0 3197:1.0 3197:1.0 3202:1.0 3202:1.0 3554:1.0 3885:1.0 4426:1.0 4600:1.0 4706:1.0 5286:1.0 5313:1.0 5313:1.0 5318:1.0 5318:1.0 
5.581984059236177E-4 1.5458640361719204E-4 101:1.0 393:1.0 827:1.0 827:1.0 827:1.0 827:1.0 841:1.0 841:1.0 841:1.0 841:1.0 1122:1.0 1385:1.0 2484:1.0 2668:1.0 3393:1.0 4010:1.0 4039:1.0 4039:1.0 4044:1.0 4044:1.0 4417:1.0 4738:1.0 5213:1.0 5442:1.0 5465:1.0 5470:1.0 5686:1.0 6130:1.0 
5.446078838921683E-4 1.2374686195258555E-4 95:1.0 314:1.0 708:1.0 1095:1.0 1527:1.0 1527:1.0 1541:1.0 1541:1.0 1822:1.0 2085:1.0 3330:1.0 3368:1.0 4029:1.0 4712:1.0 4739:1.0 4739:1.0 4744:1.0 4744:1.0 5035:1.0 5438:1.0 5913:1.0 6142:1.0 6188:1.0 6830:1.0 6845:1.0 6845:1.0 6849:1.0 6849:1.0 6855:1.0 6860:1.0 
3.98661523321588E-4 1.312857131875784E-4 169:1.0 322:1.0 856:1.0 1094:1.0 1323:1.0 1336:1.0 1527:1.0 1527:1.0 1541:1.0 1541:1.0 1630:1.0 2085:1.0 3330:1.0 3368:1.0 4256:1.0 4712:1.0 4727:1.0 4731:1.0 4739:1.0 4739:1.0 4744:1.0 4744:1.0 5096:1.0 5427:1.0 5792:1.0 6139:1.0 6165:1.0 6170:1.0 6267:1.0 6838:1.0 
8.159136475724256E-5 0.0 49:1.0 322:1.0 1055:1.0 1093:1.0 1323:1.0 1323:1.0 1323:1.0 1323:1.0 1336:1.0 1336:1.0 1336:1.0 1336:1.0 1527:1.0 1527:1.0 1541:1.0 1541:1.0 1822:1.0 2085:1.0 3330:1.0 3368:1.0 4226:1.0 4712:1.0 4727:1.0 4727:1.0 4727:1.0 4731:1.0 4731:1.0 4731:1.0 4739:1.0 4739:1.0 4744:1.0 4744:1.0 5250:1.0 5430:1.0 5810:1.0 6136:1.0 6358:1.0 6830:1.0 6855:1.0 6860:1.0 
1.3895852869692918E-4 0.0 49:1.0 322:1.0 760:1.0 1101:1.0 1323:1.0 1323:1.0 1336:1.0 1336:1.0 1527:1.0 1527:1.0 1541:1.0 1541:1.0 1630:1.0 2085:1.0 3330:1.0 3368:1.0 4023:1.0 4710:1.0 4727:1.0 4727:1.0 4731:1.0 4731:1.0 4739:1.0 4739:1.0 4744:1.0 4744:1.0 5096:1.0 5427:1.0 5677:1.0 6142:1.0 6332:1.0 6828:1.0 6855:1.0 6855:1.0 6860:1.0 6860:1.0 
0.002465889248366162 0.001444479101364323 320:1.0 543:1.0 1725:1.0 1824:1.0 2501:1.0 3175:1.0 3854:1.0 3891:1.0 4493:1.0 4595:1.0 4612:1.0 4612:1.0 4612:1.0 4616:1.0 4616:1.0 4616:1.0 4623:1.0 4628:1.0 5102:1.0 5287:1.0 
1.1997701744564635E-4 0.0 15:1.0 319:1.0 1030:1.0 1093:1.0 1323:1.0 1323:1.0 1323:1.0 1323:1.0 1323:1.0 1336:1.0 1336:1.0 1336:1.0 1336:1.0 1336:1.0 1527:1.0 1527:1.0 1541:1.0 1541:1.0 1678:1.0 2085:1.0 3330:1.0 3368:1.0 4165:1.0 4712:1.0 4727:1.0 4731:1.0 4739:1.0 4739:1.0 4744:1.0 4744:1.0 4848:1.0 5430:1.0 5520:1.0 6141:1.0 6690:1.0 6836:1.0 6845:1.0 6845:1.0 6849:1.0 6849:1.0 6855:1.0 6855:1.0 6855:1.0 6855:1.0 6855:1.0 6860:1.0 6860:1.0 6860:1.0 6860:1.0 6860:1.0 
6.187679964394938E-4 3.3979987238343785E-4 191:1.0 314:1.0 1053:1.0 1101:1.0 1678:1.0 2085:1.0 3039:1.0 3373:1.0 4535:1.0 4715:1.0 5216:1.0 5429:1.0 5730:1.0 6137:1.0 6154:1.0 6154:1.0 6154:1.0 6158:1.0 6158:1.0 6158:1.0 6165:1.0 6165:1.0 6165:1.0 6165:1.0 6165:1.0 6165:1.0 6165:1.0 6170:1.0 6170:1.0 6170:1.0 6170:1.0 6170:1.0 6170:1.0 6170:1.0 6529:1.0 6838:1.0 
3.936520757540459E-4 6.926840176697524E-5 85:1.0 312:1.0 499:1.0 512:1.0 685:1.0 685:1.0 699:1.0 699:1.0 1032:1.0 1094:1.0 1323:1.0 1336:1.0 2050:1.0 2085:1.0 3330:1.0 3368:1.0 4462:1.0 4710:1.0 4727:1.0 4731:1.0 4739:1.0 4739:1.0 4744:1.0 4744:1.0 5017:1.0 5429:1.0 5749:1.0 6147:1.0 
9.088969330423392E-4 6.95403426898901E-4 488:1.0 543:1.0 1377:1.0 1826:1.0 3152:1.0 3168:1.0 3197:1.0 3197:1.0 3202:1.0 3202:1.0 3263:1.0 3890:1.0 4414:1.0 4603:1.0 4612:1.0 4612:1.0 4616:1.0 4616:1.0 4623:1.0 4623:1.0 4628:1.0 4628:1.0 4965:1.0 5285:1.0 
2.755422646099283E-4 5.318618621463543E-5 286:1.0 401:1.0 623:1.0 623:1.0 636:1.0 636:1.0 827:1.0 827:1.0 827:1.0 827:1.0 841:1.0 841:1.0 841:1.0 841:1.0 1120:1.0 1385:1.0 2630:1.0 2668:1.0 3973:1.0 4011:1.0 4134:1.0 4728:1.0 4745:1.0 4745:1.0 4745:1.0 4749:1.0 4749:1.0 4749:1.0 4756:1.0 4756:1.0 4756:1.0 4761:1.0 4761:1.0 4761:1.0 5110:1.0 5436:1.0 5963:1.0 6133:1.0 
0.0 8.075046079494426E-5 228:1.0 320:1.0 499:1.0 499:1.0 512:1.0 512:1.0 685:1.0 685:1.0 685:1.0 685:1.0 699:1.0 699:1.0 699:1.0 699:1.0 756:1.0 1093:1.0 1323:1.0 1323:1.0 1323:1.0 1323:1.0 1323:1.0 1336:1.0 1336:1.0 1336:1.0 1336:1.0 1336:1.0 1527:1.0 1527:1.0 1527:1.0 1527:1.0 1527:1.0 1527:1.0 1541:1.0 1541:1.0 1541:1.0 1541:1.0 1541:1.0 1541:1.0 1820:1.0 2085:1.0 2975:1.0 3368:1.0 4368:1.0 4711:1.0 5373:1.0 5428:1.0 5445:1.0 5445:1.0 5449:1.0 5449:1.0 5456:1.0 5456:1.0 5456:1.0 5461:1.0 5461:1.0 5461:1.0 5810:1.0 6136:1.0 6608:1.0 6833:1.0 
1.760601094195214E-4 1.2257278382982967E-4 130:1.0 312:1.0 499:1.0 512:1.0 685:1.0 685:1.0 685:1.0 685:1.0 699:1.0 699:1.0 699:1.0 699:1.0 950:1.0 1094:1.0 1323:1.0 1323:1.0 1336:1.0 1336:1.0 1630:1.0 2085:1.0 3184:1.0 3368:1.0 4365:1.0 4712:1.0 4739:1.0 4739:1.0 4744:1.0 4744:1.0 4923:1.0 5427:1.0 6005:1.0 6142:1.0 6211:1.0 6828:1.0 6855:1.0 6855:1.0 6860:1.0 6860:1.0 
8.804920034306085E-5 0.0 130:1.0 312:1.0 499:1.0 512:1.0 685:1.0 685:1.0 685:1.0 685:1.0 699:1.0 699:1.0 699:1.0 699:1.0 950:1.0 1094:1.0 1323:1.0 1323:1.0 1323:1.0 1336:1.0 1336:1.0 1336:1.0 1678:1.0 2085:1.0 3224:1.0 3368:1.0 4055:1.0 4710:1.0 4739:1.0 4739:1.0 4744:1.0 4744:1.0 5035:1.0 5438:1.0 
0.0 4.506283912953839E-5 64:1.0 312:1.0 499:1.0 499:1.0 499:1.0 499:1.0 499:1.0 512:1.0 512:1.0 512:1.0 512:1.0 512:1.0 685:1.0 685:1.0 699:1.0 699:1.0 854:1.0 1094:1.0 1323:1.0 1336:1.0 1527:1.0 1527:1.0 1541:1.0 1541:1.0 1678:1.0 2085:1.0 2836:1.0 3368:1.0 4520:1.0 4710:1.0 4739:1.0 4739:1.0 4744:1.0 4744:1.0 5035:1.0 5438:1.0 
1.458607782332053E-4 4.337991975534441E-5 20:1.0 312:1.0 499:1.0 499:1.0 499:1.0 512:1.0 512:1.0 512:1.0 685:1.0 685:1.0 699:1.0 699:1.0 765:1.0 1103:1.0 1678:1.0 2085:1.0 3184:1.0 3368:1.0 4043:1.0 4714:1.0 4739:1.0 4739:1.0 4744:1.0 4744:1.0 4805:1.0 5432:1.0 5925:1.0 6145:1.0 6154:1.0 6154:1.0 6154:1.0 6158:1.0 6158:1.0 6158:1.0 6165:1.0 6165:1.0 6165:1.0 6170:1.0 6170:1.0 6170:1.0 6796:1.0 6833:1.0 
0.001126678789674177 5.361084277372339E-4 110:1.0 401:1.0 623:1.0 623:1.0 623:1.0 623:1.0 636:1.0 636:1.0 636:1.0 636:1.0 827:1.0 827:1.0 841:1.0 841:1.0 978:1.0 1385:1.0 1984:1.0 2670:1.0 3534:1.0 4015:1.0 4185:1.0 4728:1.0 4745:1.0 4745:1.0 4749:1.0 4749:1.0 4756:1.0 4761:1.0 4800:1.0 5438:1.0 5809:1.0 6127:1.0 
1.1238211870524207E-4 0.0 15:1.0 319:1.0 781:1.0 1093:1.0 1323:1.0 1323:1.0 1323:1.0 1336:1.0 1336:1.0 1336:1.0 1527:1.0 1527:1.0 1541:1.0 1541:1.0 1822:1.0 2085:1.0 2975:1.0 3368:1.0 4122:1.0 4710:1.0 4727:1.0 4731:1.0 4739:1.0 4739:1.0 4744:1.0 4744:1.0 4923:1.0 5427:1.0 5479:1.0 6137:1.0 6154:1.0 6158:1.0 6165:1.0 6170:1.0 6640:1.0 6829:1.0 
1.958220161932747E-4 1.4882382486494162E-4 302:1.0 312:1.0 499:1.0 499:1.0 512:1.0 512:1.0 685:1.0 685:1.0 699:1.0 699:1.0 749:1.0 1096:1.0 1820:1.0 2085:1.0 3313:1.0 3366:1.0 4298:1.0 4718:1.0 4727:1.0 4727:1.0 4731:1.0 4731:1.0 4739:1.0 4739:1.0 4739:1.0 4739:1.0 4739:1.0 4739:1.0 4744:1.0 4744:1.0 4744:1.0 4744:1.0 4744:1.0 4744:1.0 4923:1.0 5427:1.0 5884:1.0 6137:1.0 6154:1.0 6158:1.0 6165:1.0 6170:1.0 6201:1.0 6832:1.0 
4.003309927994794E-4 1.9902812618197754E-4 188:1.0 312:1.0 499:1.0 512:1.0 685:1.0 685:1.0 699:1.0 699:1.0 905:1.0 1101:1.0 1323:1.0 1323:1.0 1323:1.0 1336:1.0 1336:1.0 1336:1.0 1527:1.0 1527:1.0 1541:1.0 1541:1.0 2049:1.0 2085:1.0 2862:1.0 3368:1.0 4482:1.0 4711:1.0 5144:1.0 5428:1.0 5456:1.0 5456:1.0 5456:1.0 5461:1.0 5461:1.0 5461:1.0 5830:1.0 6147:1.0 6448:1.0 6838:1.0 
3.3007585172793795E-4 3.90854194060424E-4 177:1.0 543:1.0 1642:1.0 1826:1.0 2607:1.0 3168:1.0 3185:1.0 3185:1.0 3185:1.0 3189:1.0 3189:1.0 3189:1.0 3197:1.0 3197:1.0 3202:1.0 3202:1.0 3423:1.0 3887:1.0 4268:1.0 4594:1.0 4946:1.0 5288:1.0 5303:1.0 5307:1.0 5313:1.0 5318:1.0 
1.4725121788165945E-4 8.45380654651422E-5 133:1.0 320:1.0 499:1.0 499:1.0 499:1.0 499:1.0 499:1.0 499:1.0 499:1.0 512:1.0 512:1.0 512:1.0 512:1.0 512:1.0 512:1.0 512:1.0 826:1.0 1101:1.0 1323:1.0 1323:1.0 1336:1.0 1336:1.0 2057:1.0 2085:1.0 2863:1.0 3368:1.0 4197:1.0 4710:1.0 4739:1.0 4739:1.0 4744:1.0 4744:1.0 5396:1.0 5433:1.0 5608:1.0 6137:1.0 6154:1.0 6158:1.0 6165:1.0 6170:1.0 6799:1.0 6827:1.0 
4.833995186657302E-4 1.5504946986753137E-4 87:1.0 393:1.0 623:1.0 623:1.0 636:1.0 636:1.0 827:1.0 827:1.0 841:1.0 841:1.0 1122:1.0 1385:1.0 2484:1.0 2668:1.0 3907:1.0 4012:1.0 4039:1.0 4039:1.0 4044:1.0 4044:1.0 4147:1.0 4738:1.0 5302:1.0 5439:1.0 5454:1.0 5454:1.0 5458:1.0 5458:1.0 5465:1.0 5470:1.0 5792:1.0 6130:1.0 
4.45723632555828E-4 1.8644759182873425E-4 175:1.0 401:1.0 623:1.0 623:1.0 623:1.0 623:1.0 636:1.0 636:1.0 636:1.0 636:1.0 827:1.0 827:1.0 841:1.0 841:1.0 978:1.0 1385:1.0 1984:1.0 2670:1.0 3371:1.0 4014:1.0 4715:1.0 4736:1.0 4745:1.0 4745:1.0 4749:1.0 4749:1.0 4756:1.0 4756:1.0 4756:1.0 4761:1.0 4761:1.0 4761:1.0 5110:1.0 5436:1.0 5903:1.0 6136:1.0 6145:1.0 6149:1.0 6155:1.0 6160:1.0 
0.0018720496708981356 6.335560650676245E-4 488:1.0 543:1.0 1580:1.0 1826:1.0 3127:1.0 3168:1.0 3185:1.0 3189:1.0 3197:1.0 3197:1.0 3202:1.0 3202:1.0 3305:1.0 3896:1.0 4306:1.0 4598:1.0 4824:1.0 5291:1.0 
9.876845543299413E-4 3.0250089275839166E-4 176:1.0 315:1.0 855:1.0 1093:1.0 1323:1.0 1336:1.0 1527:1.0 1527:1.0 1541:1.0 1541:1.0 1822:1.0 2085:1.0 3039:1.0 3373:1.0 4566:1.0 4711:1.0 4905:1.0 5428:1.0 5445:1.0 5449:1.0 5456:1.0 5456:1.0 5456:1.0 5461:1.0 5461:1.0 5461:1.0 5830:1.0 6147:1.0 6796:1.0 6833:1.0 
1.0377453336200045E-4 4.6974301535016047E-5 259:1.0 312:1.0 499:1.0 499:1.0 499:1.0 512:1.0 512:1.0 512:1.0 685:1.0 685:1.0 699:1.0 699:1.0 834:1.0 1101:1.0 1323:1.0 1323:1.0 1323:1.0 1336:1.0 1336:1.0 1336:1.0 1527:1.0 1527:1.0 1541:1.0 1541:1.0 2057:1.0 2085:1.0 2876:1.0 3368:1.0 4131:1.0 4711:1.0 4946:1.0 5428:1.0 5445:1.0 5449:1.0 5456:1.0 5456:1.0 5456:1.0 5461:1.0 5461:1.0 5461:1.0 6075:1.0 6138:1.0 6154:1.0 6154:1.0 6158:1.0 6158:1.0 6498:1.0 6837:1.0 
1.8910949791271615E-4 0.0 310:1.0 401:1.0 623:1.0 623:1.0 636:1.0 636:1.0 827:1.0 827:1.0 841:1.0 841:1.0 1357:1.0 1385:1.0 2176:1.0 2668:1.0 3923:1.0 4010:1.0 4027:1.0 4031:1.0 4039:1.0 4039:1.0 4044:1.0 4044:1.0 4417:1.0 4738:1.0 5017:1.0 5437:1.0 5454:1.0 5458:1.0 5465:1.0 5470:1.0 5829:1.0 6138:1.0 
0.0 8.684402559080618E-5 114:1.0 313:1.0 499:1.0 499:1.0 512:1.0 512:1.0 685:1.0 685:1.0 685:1.0 685:1.0 699:1.0 699:1.0 699:1.0 699:1.0 850:1.0 1101:1.0 1323:1.0 1323:1.0 1336:1.0 1336:1.0 1527:1.0 1527:1.0 1541:1.0 1541:1.0 1678:1.0 2085:1.0 3330:1.0 3368:1.0 4011:1.0 4710:1.0 4727:1.0 4731:1.0 4739:1.0 4739:1.0 4744:1.0 4744:1.0 5318:1.0 5429:1.0 5808:1.0 6136:1.0 6154:1.0 6154:1.0 6158:1.0 6158:1.0 6219:1.0 6828:1.0 
3.345196956014605E-4 0.0 75:1.0 320:1.0 499:1.0 512:1.0 981:1.0 1093:1.0 1323:1.0 1336:1.0 1527:1.0 1527:1.0 1541:1.0 1541:1.0 1678:1.0 2085:1.0 3184:1.0 3368:1.0 4240:1.0 4710:1.0 4739:1.0 4739:1.0 4744:1.0 4744:1.0 5035:1.0 5438:1.0 
3.6649044883416327E-4 0.0 291:1.0 314:1.0 499:1.0 499:1.0 499:1.0 499:1.0 499:1.0 512:1.0 512:1.0 512:1.0 512:1.0 512:1.0 685:1.0 685:1.0 699:1.0 699:1.0 1059:1.0 1097:1.0 1323:1.0 1323:1.0 1336:1.0 1336:1.0 1527:1.0 1527:1.0 1541:1.0 1541:1.0 1822:1.0 2085:1.0 2876:1.0 3368:1.0 3814:1.0 3828:1.0 4401:1.0 4716:1.0 5423:1.0 5428:1.0 5445:1.0 5445:1.0 5449:1.0 5449:1.0 5456:1.0 5456:1.0 5461:1.0 5461:1.0 5518:1.0 6135:1.0 6637:1.0 6829:1.0 6855:1.0 6860:1.0 
6.393800186205138E-5 6.60511328461201E-5 300:1.0 320:1.0 499:1.0 499:1.0 499:1.0 499:1.0 512:1.0 512:1.0 512:1.0 512:1.0 685:1.0 685:1.0 699:1.0 699:1.0 959:1.0 1101:1.0 1323:1.0 1323:1.0 1323:1.0 1336:1.0 1336:1.0 1336:1.0 1527:1.0 1527:1.0 1541:1.0 1541:1.0 1820:1.0 2085:1.0 3217:1.0 3369:1.0 4398:1.0 4710:1.0 4727:1.0 4731:1.0 4739:1.0 4739:1.0 4744:1.0 4744:1.0 4803:1.0 5426:1.0 6025:1.0 6135:1.0 6154:1.0 6158:1.0 6509:1.0 6827:1.0 
1.3001654015575264E-4 5.274368331844666E-5 260:1.0 310:1.0 499:1.0 512:1.0 944:1.0 1093:1.0 1323:1.0 1336:1.0 1527:1.0 1527:1.0 1541:1.0 1541:1.0 1822:1.0 2085:1.0 3184:1.0 3368:1.0 4542:1.0 4710:1.0 4739:1.0 4739:1.0 4744:1.0 4744:1.0 5391:1.0 5426:1.0 5445:1.0 5445:1.0 5449:1.0 5449:1.0 5810:1.0 6136:1.0 6663:1.0 6833:1.0 
3.6975996866968575E-5 0.0 79:1.0 393:1.0 623:1.0 623:1.0 636:1.0 636:1.0 827:1.0 827:1.0 841:1.0 841:1.0 1122:1.0 1385:1.0 2484:1.0 2668:1.0 3902:1.0 4010:1.0 4039:1.0 4039:1.0 4044:1.0 4044:1.0 4147:1.0 4738:1.0 4829:1.0 5439:1.0 5454:1.0 5454:1.0 5458:1.0 5458:1.0 5465:1.0 5470:1.0 5647:1.0 6130:1.0 
1.1711911689371576E-4 0.0 12:1.0 312:1.0 499:1.0 512:1.0 685:1.0 685:1.0 699:1.0 699:1.0 929:1.0 1093:1.0 1323:1.0 1336:1.0 1527:1.0 1527:1.0 1541:1.0 1541:1.0 1822:1.0 2085:1.0 2919:1.0 3368:1.0 4602:1.0 4710:1.0 4739:1.0 4739:1.0 4744:1.0 4744:1.0 4875:1.0 5426:1.0 5638:1.0 6136:1.0 6417:1.0 6833:1.0 
3.184400639783254E-4 0.0 269:1.0 320:1.0 499:1.0 499:1.0 499:1.0 512:1.0 512:1.0 512:1.0 879:1.0 1093:1.0 1323:1.0 1336:1.0 1527:1.0 1527:1.0 1541:1.0 1541:1.0 1822:1.0 2085:1.0 3184:1.0 3368:1.0 4262:1.0 4716:1.0 4739:1.0 4739:1.0 4744:1.0 4744:1.0 5035:1.0 5438:1.0 
0.0015599508296282399 6.179396731420686E-4 241:1.0 397:1.0 623:1.0 636:1.0 1122:1.0 1385:1.0 2176:1.0 2668:1.0 3993:1.0 4010:1.0 4039:1.0 4039:1.0 4044:1.0 4044:1.0 4435:1.0 4731:1.0 5001:1.0 5440:1.0 5501:1.0 6135:1.0 
0.0 4.527821129857211E-5 149:1.0 312:1.0 499:1.0 499:1.0 499:1.0 512:1.0 512:1.0 512:1.0 685:1.0 685:1.0 699:1.0 699:1.0 962:1.0 1101:1.0 1323:1.0 1323:1.0 1336:1.0 1336:1.0 1527:1.0 1527:1.0 1527:1.0 1527:1.0 1541:1.0 1541:1.0 1541:1.0 1541:1.0 1820:1.0 2085:1.0 3184:1.0 3368:1.0 4365:1.0 4712:1.0 4739:1.0 4739:1.0 4744:1.0 4744:1.0 5094:1.0 5427:1.0 5732:1.0 6145:1.0 6154:1.0 6158:1.0 6165:1.0 6170:1.0 6794:1.0 6828:1.0 6845:1.0 6845:1.0 6849:1.0 6849:1.0 
7.630727426730208E-5 0.0 293:1.0 312:1.0 499:1.0 499:1.0 499:1.0 512:1.0 512:1.0 512:1.0 904:1.0 1093:1.0 1323:1.0 1336:1.0 1527:1.0 1527:1.0 1527:1.0 1527:1.0 1541:1.0 1541:1.0 1541:1.0 1541:1.0 1822:1.0 2085:1.0 2834:1.0 3369:1.0 4681:1.0 4710:1.0 4727:1.0 4727:1.0 4731:1.0 4731:1.0 4739:1.0 4739:1.0 4744:1.0 4744:1.0 5096:1.0 5427:1.0 5741:1.0 6137:1.0 6165:1.0 6170:1.0 6478:1.0 6838:1.0 
2.5287995013431006E-4 2.4123258307967644E-4 21:1.0 401:1.0 623:1.0 623:1.0 623:1.0 636:1.0 636:1.0 636:1.0 827:1.0 827:1.0 841:1.0 841:1.0 1120:1.0 1385:1.0 2484:1.0 2668:1.0 3902:1.0 4010:1.0 4039:1.0 4039:1.0 4044:1.0 4044:1.0 4659:1.0 4731:1.0 5210:1.0 5442:1.0 5587:1.0 6128:1.0 6155:1.0 6160:1.0 
2.9087040318000008E-5 0.0 223:1.0 312:1.0 499:1.0 499:1.0 499:1.0 512:1.0 512:1.0 512:1.0 685:1.0 685:1.0 685:1.0 685:1.0 685:1.0 685:1.0 685:1.0 685:1.0 685:1.0 685:1.0 699:1.0 699:1.0 699:1.0 699:1.0 699:1.0 699:1.0 699:1.0 699:1.0 699:1.0 699:1.0 754:1.0 1101:1.0 1323:1.0 1336:1.0 1527:1.0 1527:1.0 1541:1.0 1541:1.0 1678:1.0 2085:1.0 3122:1.0 3368:1.0 4413:1.0 4710:1.0 4739:1.0 4739:1.0 4744:1.0 4744:1.0 5035:1.0 5438:1.0 
2.0862543541162176E-4 2.776030490675554E-4 36:1.0 320:1.0 499:1.0 499:1.0 512:1.0 512:1.0 685:1.0 685:1.0 685:1.0 685:1.0 699:1.0 699:1.0 699:1.0 699:1.0 768:1.0 1093:1.0 1323:1.0 1323:1.0 1323:1.0 1336:1.0 1336:1.0 1336:1.0 1822:1.0 2085:1.0 2707:1.0 3367:1.0 4257:1.0 4716:1.0 4739:1.0 4744:1.0 5400:1.0 5428:1.0 5445:1.0 5449:1.0 5456:1.0 5456:1.0 5461:1.0 5461:1.0 5810:1.0 6136:1.0 6819:1.0 6828:1.0 6855:1.0 6860:1.0 
6.160720764760257E-4 0.0 36:1.0 320:1.0 499:1.0 499:1.0 512:1.0 512:1.0 685:1.0 685:1.0 685:1.0 685:1.0 699:1.0 699:1.0 699:1.0 699:1.0 768:1.0 1093:1.0 1323:1.0 1323:1.0 1323:1.0 1336:1.0 1336:1.0 1336:1.0 1822:1.0 2085:1.0 2899:1.0 3369:1.0 3995:1.0 3995:1.0 4009:1.0 4009:1.0 4681:1.0 4710:1.0 4727:1.0 4731:1.0 4739:1.0 4739:1.0 4744:1.0 4744:1.0 5096:1.0 5427:1.0 6128:1.0 6137:1.0 6165:1.0 6170:1.0 6663:1.0 6833:1.0 
4.73821251316006E-5 1.3488189185981668E-4 251:1.0 320:1.0 499:1.0 499:1.0 512:1.0 512:1.0 685:1.0 685:1.0 699:1.0 699:1.0 969:1.0 1093:1.0 1323:1.0 1323:1.0 1323:1.0 1323:1.0 1336:1.0 1336:1.0 1336:1.0 1336:1.0 1527:1.0 1527:1.0 1541:1.0 1541:1.0 1820:1.0 2085:1.0 2864:1.0 3368:1.0 4234:1.0 4715:1.0 4739:1.0 4744:1.0 4945:1.0 5428:1.0 5456:1.0 5456:1.0 5461:1.0 5461:1.0 5562:1.0 6147:1.0 6591:1.0 6827:1.0 
5.574886134845431E-4 0.0 251:1.0 320:1.0 499:1.0 499:1.0 512:1.0 512:1.0 685:1.0 685:1.0 699:1.0 699:1.0 969:1.0 1093:1.0 1323:1.0 1323:1.0 1323:1.0 1323:1.0 1336:1.0 1336:1.0 1336:1.0 1336:1.0 1527:1.0 1527:1.0 1541:1.0 1541:1.0 1820:1.0 2085:1.0 2876:1.0 3368:1.0 3995:1.0 3995:1.0 4009:1.0 4009:1.0 4216:1.0 4710:1.0 4739:1.0 4739:1.0 4744:1.0 4744:1.0 4847:1.0 5438:1.0 5893:1.0 6136:1.0 6608:1.0 6833:1.0 
4.9831121276500294E-5 1.016287133578329E-4 211:1.0 312:1.0 499:1.0 499:1.0 499:1.0 499:1.0 499:1.0 512:1.0 512:1.0 512:1.0 512:1.0 512:1.0 685:1.0 685:1.0 699:1.0 699:1.0 765:1.0 1103:1.0 1887:1.0 2085:1.0 3122:1.0 3368:1.0 4149:1.0 4710:1.0 4727:1.0 4727:1.0 4727:1.0 4727:1.0 4727:1.0 4727:1.0 4727:1.0 4727:1.0 4731:1.0 4731:1.0 4731:1.0 4731:1.0 4731:1.0 4731:1.0 4731:1.0 4731:1.0 4739:1.0 4739:1.0 4739:1.0 4744:1.0 4744:1.0 4744:1.0 4965:1.0 5429:1.0 5799:1.0 6146:1.0 6239:1.0 6828:1.0 
1.1886169848947606E-4 0.0 240:1.0 320:1.0 499:1.0 499:1.0 499:1.0 499:1.0 499:1.0 512:1.0 512:1.0 512:1.0 512:1.0 512:1.0 685:1.0 685:1.0 699:1.0 699:1.0 729:1.0 1093:1.0 1323:1.0 1336:1.0 1527:1.0 1527:1.0 1541:1.0 1541:1.0 1822:1.0 2085:1.0 3089:1.0 3369:1.0 4398:1.0 4710:1.0 4739:1.0 4739:1.0 4744:1.0 4744:1.0 5094:1.0 5427:1.0 5445:1.0 5445:1.0 5449:1.0 5449:1.0 5994:1.0 6137:1.0 6509:1.0 6827:1.0 
0.0 2.8637025740838687E-5 240:1.0 320:1.0 499:1.0 499:1.0 499:1.0 499:1.0 499:1.0 499:1.0 499:1.0 499:1.0 512:1.0 512:1.0 512:1.0 512:1.0 512:1.0 512:1.0 512:1.0 512:1.0 685:1.0 685:1.0 699:1.0 699:1.0 720:1.0 1101:1.0 1323:1.0 1323:1.0 1323:1.0 1336:1.0 1336:1.0 1336:1.0 1527:1.0 1527:1.0 1527:1.0 1527:1.0 1541:1.0 1541:1.0 1541:1.0 1541:1.0 2049:1.0 2085:1.0 3184:1.0 3368:1.0 4274:1.0 4711:1.0 4980:1.0 5428:1.0 5445:1.0 5449:1.0 5456:1.0 5456:1.0 5456:1.0 5461:1.0 5461:1.0 5461:1.0 5810:1.0 6136:1.0 6663:1.0 6833:1.0 
1.454764734234233E-4 0.0 13:1.0 320:1.0 499:1.0 499:1.0 499:1.0 512:1.0 512:1.0 512:1.0 685:1.0 685:1.0 685:1.0 685:1.0 699:1.0 699:1.0 699:1.0 699:1.0 837:1.0 1093:1.0 1323:1.0 1336:1.0 1527:1.0 1527:1.0 1527:1.0 1527:1.0 1527:1.0 1527:1.0 1541:1.0 1541:1.0 1541:1.0 1541:1.0 1541:1.0 1541:1.0 1822:1.0 2085:1.0 3184:1.0 3368:1.0 4405:1.0 4711:1.0 5264:1.0 5428:1.0 5456:1.0 5456:1.0 5456:1.0 5461:1.0 5461:1.0 5461:1.0 5799:1.0 6146:1.0 6544:1.0 6832:1.0 
0.0 5.100116563680188E-4 13:1.0 320:1.0 499:1.0 499:1.0 499:1.0 499:1.0 499:1.0 512:1.0 512:1.0 512:1.0 512:1.0 512:1.0 685:1.0 685:1.0 685:1.0 685:1.0 699:1.0 699:1.0 699:1.0 699:1.0 1037:1.0 1101:1.0 1323:1.0 1336:1.0 1527:1.0 1527:1.0 1527:1.0 1527:1.0 1541:1.0 1541:1.0 1541:1.0 1541:1.0 1820:1.0 2085:1.0 3078:1.0 3368:1.0 4272:1.0 4710:1.0 4739:1.0 4739:1.0 4744:1.0 4744:1.0 5035:1.0 5438:1.0 
8.376473794547068E-4 1.9196555745050134E-4 78:1.0 393:1.0 623:1.0 636:1.0 827:1.0 827:1.0 841:1.0 841:1.0 1122:1.0 1385:1.0 2176:1.0 2668:1.0 3114:1.0 3128:1.0 3708:1.0 4015:1.0 4723:1.0 4728:1.0 4745:1.0 4749:1.0 4756:1.0 4756:1.0 4761:1.0 4761:1.0 5191:1.0 5438:1.0 5526:1.0 6132:1.0 
8.891452220855054E-5 0.0 78:1.0 393:1.0 623:1.0 636:1.0 827:1.0 827:1.0 841:1.0 841:1.0 1122:1.0 1385:1.0 2176:1.0 2668:1.0 3114:1.0 3114:1.0 3128:1.0 3128:1.0 4005:1.0 4010:1.0 4027:1.0 4031:1.0 4039:1.0 4039:1.0 4044:1.0 4044:1.0 4478:1.0 4729:1.0 4820:1.0 5441:1.0 6068:1.0 6131:1.0 
8.251873974731837E-5 0.0 39:1.0 401:1.0 623:1.0 623:1.0 636:1.0 636:1.0 827:1.0 827:1.0 827:1.0 827:1.0 827:1.0 827:1.0 841:1.0 841:1.0 841:1.0 841:1.0 841:1.0 841:1.0 930:1.0 1385:1.0 2630:1.0 2668:1.0 3454:1.0 4010:1.0 4027:1.0 4031:1.0 4039:1.0 4039:1.0 4044:1.0 4044:1.0 4396:1.0 4727:1.0 5268:1.0 5442:1.0 5724:1.0 6128:1.0 6155:1.0 6155:1.0 6160:1.0 6160:1.0 
1.7957646614985014E-4 2.0766612660621367E-4 162:1.0 401:1.0 623:1.0 623:1.0 623:1.0 623:1.0 623:1.0 623:1.0 623:1.0 623:1.0 623:1.0 623:1.0 636:1.0 636:1.0 636:1.0 636:1.0 636:1.0 636:1.0 636:1.0 636:1.0 636:1.0 636:1.0 827:1.0 827:1.0 827:1.0 827:1.0 841:1.0 841:1.0 841:1.0 841:1.0 1120:1.0 1385:1.0 2176:1.0 2668:1.0 3566:1.0 4011:1.0 4254:1.0 4734:1.0 4756:1.0 4756:1.0 4756:1.0 4761:1.0 4761:1.0 4761:1.0 5099:1.0 5446:1.0 6062:1.0 6136:1.0 6145:1.0 6145:1.0 6149:1.0 6149:1.0 
1.3516260557838402E-4 0.0 158:1.0 320:1.0 499:1.0 499:1.0 499:1.0 499:1.0 499:1.0 512:1.0 512:1.0 512:1.0 512:1.0 512:1.0 1028:1.0 1091:1.0 1323:1.0 1336:1.0 1822:1.0 2085:1.0 3184:1.0 3368:1.0 4064:1.0 4710:1.0 4727:1.0 4731:1.0 4739:1.0 4739:1.0 4744:1.0 4744:1.0 5096:1.0 5427:1.0 5968:1.0 6142:1.0 6670:1.0 6828:1.0 6855:1.0 6855:1.0 6860:1.0 6860:1.0 
3.460628353528566E-4 2.394459226673906E-4 260:1.0 310:1.0 499:1.0 512:1.0 734:1.0 1093:1.0 1323:1.0 1336:1.0 1527:1.0 1527:1.0 1527:1.0 1527:1.0 1541:1.0 1541:1.0 1541:1.0 1541:1.0 1822:1.0 2085:1.0 3184:1.0 3368:1.0 4542:1.0 4710:1.0 4739:1.0 4739:1.0 4744:1.0 4744:1.0 5035:1.0 5438:1.0 
9.383443700345186E-4 2.4660553614508644E-4 82:1.0 393:1.0 623:1.0 623:1.0 623:1.0 623:1.0 636:1.0 636:1.0 636:1.0 636:1.0 827:1.0 827:1.0 841:1.0 841:1.0 978:1.0 1385:1.0 2176:1.0 2668:1.0 3114:1.0 3114:1.0 3128:1.0 3128:1.0 3673:1.0 4011:1.0 4638:1.0 4734:1.0 5324:1.0 5437:1.0 5465:1.0 5465:1.0 5470:1.0 5470:1.0 5642:1.0 6127:1.0 
1.8638650816676683E-4 1.3496138281628378E-4 82:1.0 393:1.0 623:1.0 623:1.0 623:1.0 623:1.0 636:1.0 636:1.0 636:1.0 636:1.0 827:1.0 827:1.0 841:1.0 841:1.0 978:1.0 1385:1.0 2176:1.0 2668:1.0 3114:1.0 3114:1.0 3114:1.0 3128:1.0 3128:1.0 3128:1.0 3918:1.0 4016:1.0 4614:1.0 4728:1.0 4756:1.0 4756:1.0 4761:1.0 4761:1.0 4938:1.0 5436:1.0 5935:1.0 6133:1.0 6145:1.0 6149:1.0 
4.297423195374037E-4 3.748084975728741E-4 82:1.0 393:1.0 623:1.0 623:1.0 623:1.0 623:1.0 623:1.0 636:1.0 636:1.0 636:1.0 636:1.0 636:1.0 827:1.0 827:1.0 841:1.0 841:1.0 978:1.0 1385:1.0 2452:1.0 2668:1.0 3114:1.0 3128:1.0 3701:1.0 4016:1.0 4723:1.0 4728:1.0 4756:1.0 4756:1.0 4761:1.0 4761:1.0 5071:1.0 5440:1.0 5687:1.0 6131:1.0 
4.7277197699238297E-4 1.571167411935362E-4 141:1.0 315:1.0 828:1.0 1096:1.0 1822:1.0 2085:1.0 3032:1.0 3361:1.0 3814:1.0 3828:1.0 4372:1.0 4709:1.0 5048:1.0 5434:1.0 5974:1.0 6137:1.0 6154:1.0 6154:1.0 6154:1.0 6154:1.0 6158:1.0 6158:1.0 6158:1.0 6158:1.0 6165:1.0 6165:1.0 6165:1.0 6165:1.0 6165:1.0 6165:1.0 6170:1.0 6170:1.0 6170:1.0 6170:1.0 6170:1.0 6170:1.0 6267:1.0 6838:1.0 
4.988237914577297E-4 1.583136474788906E-4 141:1.0 315:1.0 828:1.0 1096:1.0 1822:1.0 2085:1.0 3032:1.0 3361:1.0 3814:1.0 3814:1.0 3828:1.0 3828:1.0 4322:1.0 4716:1.0 5263:1.0 5428:1.0 5445:1.0 5445:1.0 5445:1.0 5445:1.0 5449:1.0 5449:1.0 5449:1.0 5449:1.0 5456:1.0 5456:1.0 5456:1.0 5456:1.0 5456:1.0 5456:1.0 5461:1.0 5461:1.0 5461:1.0 5461:1.0 5461:1.0 5461:1.0 5562:1.0 6147:1.0 6810:1.0 6837:1.0 
2.64113406077959E-4 5.356159072243108E-5 166:1.0 312:1.0 499:1.0 499:1.0 499:1.0 499:1.0 512:1.0 512:1.0 512:1.0 512:1.0 685:1.0 685:1.0 685:1.0 685:1.0 699:1.0 699:1.0 699:1.0 699:1.0 1085:1.0 1093:1.0 1323:1.0 1336:1.0 1527:1.0 1527:1.0 1527:1.0 1527:1.0 1541:1.0 1541:1.0 1541:1.0 1541:1.0 2057:1.0 2085:1.0 3330:1.0 3368:1.0 4232:1.0 4711:1.0 5252:1.0 5430:1.0 5456:1.0 5456:1.0 5456:1.0 5461:1.0 5461:1.0 5461:1.0 5492:1.0 6141:1.0 6452:1.0 6836:1.0 6845:1.0 6849:1.0 6855:1.0 6860:1.0 
4.478125346407107E-5 6.582128431352617E-4 272:1.0 310:1.0 499:1.0 512:1.0 864:1.0 1101:1.0 1323:1.0 1336:1.0 1527:1.0 1527:1.0 1527:1.0 1527:1.0 1541:1.0 1541:1.0 1541:1.0 1541:1.0 1820:1.0 2085:1.0 2419:1.0 2419:1.0 2419:1.0 2419:1.0 2432:1.0 2432:1.0 2432:1.0 2432:1.0 2862:1.0 3368:1.0 4316:1.0 4710:1.0 4727:1.0 4731:1.0 4739:1.0 4739:1.0 4744:1.0 4744:1.0 5096:1.0 5427:1.0 5972:1.0 6143:1.0 6800:1.0 6828:1.0 6845:1.0 6849:1.0 6855:1.0 6855:1.0 6860:1.0 6860:1.0 
5.928996182485363E-4 2.730809398512371E-4 87:1.0 320:1.0 499:1.0 499:1.0 512:1.0 512:1.0 685:1.0 685:1.0 685:1.0 685:1.0 685:1.0 685:1.0 699:1.0 699:1.0 699:1.0 699:1.0 699:1.0 699:1.0 1045:1.0 1091:1.0 1323:1.0 1336:1.0 1822:1.0 2085:1.0 2684:1.0 3370:1.0 4342:1.0 4712:1.0 4805:1.0 5432:1.0 6001:1.0 6145:1.0 6154:1.0 6158:1.0 6165:1.0 6165:1.0 6165:1.0 6165:1.0 6170:1.0 6170:1.0 6170:1.0 6170:1.0 6663:1.0 6833:1.0 
1.5443217875977746E-4 0.0 76:1.0 401:1.0 623:1.0 623:1.0 623:1.0 623:1.0 636:1.0 636:1.0 636:1.0 636:1.0 827:1.0 827:1.0 841:1.0 841:1.0 1350:1.0 1385:1.0 2484:1.0 2668:1.0 3891:1.0 4010:1.0 4027:1.0 4031:1.0 4039:1.0 4039:1.0 4044:1.0 4044:1.0 4695:1.0 4727:1.0 5081:1.0 5439:1.0 5465:1.0 5470:1.0 5748:1.0 6138:1.0 
5.3938393411932965E-5 6.739053189833808E-4 132:1.0 543:1.0 877:1.0 877:1.0 877:1.0 877:1.0 890:1.0 890:1.0 890:1.0 890:1.0 1320:1.0 1826:1.0 3041:1.0 3168:1.0 3185:1.0 3185:1.0 3189:1.0 3189:1.0 3197:1.0 3197:1.0 3202:1.0 3202:1.0 3554:1.0 3885:1.0 4258:1.0 4595:1.0 4623:1.0 4628:1.0 4725:1.0 5296:1.0 
4.8193788690121625E-4 1.8512060228792818E-4 261:1.0 320:1.0 499:1.0 512:1.0 884:1.0 1101:1.0 1323:1.0 1323:1.0 1323:1.0 1336:1.0 1336:1.0 1336:1.0 1678:1.0 2085:1.0 3078:1.0 3368:1.0 4465:1.0 4711:1.0 5206:1.0 5428:1.0 5445:1.0 5449:1.0 5456:1.0 5456:1.0 5456:1.0 5461:1.0 5461:1.0 5461:1.0 5514:1.0 6137:1.0 6154:1.0 6154:1.0 6158:1.0 6158:1.0 6507:1.0 6827:1.0 
1.640445634170791E-4 8.272835481668497E-5 1:1.0 543:1.0 1580:1.0 1826:1.0 2686:1.0 3168:1.0 3185:1.0 3189:1.0 3197:1.0 3197:1.0 3202:1.0 3202:1.0 3305:1.0 3896:1.0 4426:1.0 4600:1.0 4758:1.0 5286:1.0 5303:1.0 5303:1.0 5303:1.0 5307:1.0 5307:1.0 5307:1.0 5313:1.0 5318:1.0 
1.621491210667452E-4 4.178877273171886E-5 277:1.0 312:1.0 685:1.0 685:1.0 685:1.0 685:1.0 699:1.0 699:1.0 699:1.0 699:1.0 746:1.0 1101:1.0 1678:1.0 2085:1.0 3210:1.0 3364:1.0 4436:1.0 4710:1.0 4727:1.0 4727:1.0 4731:1.0 4731:1.0 4739:1.0 4739:1.0 4739:1.0 4739:1.0 4739:1.0 4739:1.0 4744:1.0 4744:1.0 4744:1.0 4744:1.0 4744:1.0 4744:1.0 5388:1.0 5427:1.0 5662:1.0 6145:1.0 6154:1.0 6158:1.0 6165:1.0 6170:1.0 6469:1.0 6833:1.0 
5.187423291970955E-4 1.436523444427519E-4 236:1.0 397:1.0 623:1.0 623:1.0 623:1.0 636:1.0 636:1.0 636:1.0 827:1.0 827:1.0 827:1.0 827:1.0 841:1.0 841:1.0 841:1.0 841:1.0 1122:1.0 1385:1.0 2275:1.0 2668:1.0 3880:1.0 4011:1.0 4645:1.0 4728:1.0 4745:1.0 4749:1.0 4756:1.0 4756:1.0 4756:1.0 4761:1.0 4761:1.0 4761:1.0 5110:1.0 5436:1.0 5963:1.0 6133:1.0 
0.0 4.823140313781984E-5 182:1.0 316:1.0 499:1.0 499:1.0 499:1.0 499:1.0 512:1.0 512:1.0 512:1.0 512:1.0 685:1.0 685:1.0 685:1.0 685:1.0 699:1.0 699:1.0 699:1.0 699:1.0 755:1.0 1094:1.0 1323:1.0 1336:1.0 1820:1.0 2085:1.0 3330:1.0 3368:1.0 4260:1.0 4710:1.0 4727:1.0 4731:1.0 4739:1.0 4739:1.0 4744:1.0 4744:1.0 5096:1.0 5427:1.0 6072:1.0 6137:1.0 6165:1.0 6170:1.0 6448:1.0 6838:1.0 
6.813808864993922E-4 4.7059456209085223E-4 254:1.0 401:1.0 623:1.0 623:1.0 623:1.0 623:1.0 623:1.0 623:1.0 636:1.0 636:1.0 636:1.0 636:1.0 636:1.0 636:1.0 978:1.0 1385:1.0 1998:1.0 2669:1.0 3603:1.0 4010:1.0 4039:1.0 4039:1.0 4044:1.0 4044:1.0 4385:1.0 4737:1.0 5044:1.0 5445:1.0 5454:1.0 5454:1.0 5458:1.0 5458:1.0 5807:1.0 6127:1.0 
7.738270660389726E-4 3.630389088078475E-4 197:1.0 320:1.0 499:1.0 499:1.0 499:1.0 499:1.0 499:1.0 499:1.0 499:1.0 499:1.0 512:1.0 512:1.0 512:1.0 512:1.0 512:1.0 512:1.0 512:1.0 512:1.0 865:1.0 1101:1.0 1323:1.0 1323:1.0 1336:1.0 1336:1.0 1820:1.0 2085:1.0 3032:1.0 3361:1.0 3814:1.0 3828:1.0 4372:1.0 4709:1.0 5184:1.0 5434:1.0 6069:1.0 6137:1.0 6165:1.0 6165:1.0 6165:1.0 6170:1.0 6170:1.0 6170:1.0 6788:1.0 6827:1.0 
1.4649581463077144E-4 0.0 197:1.0 320:1.0 499:1.0 499:1.0 499:1.0 499:1.0 499:1.0 499:1.0 499:1.0 499:1.0 512:1.0 512:1.0 512:1.0 512:1.0 512:1.0 512:1.0 512:1.0 512:1.0 865:1.0 1101:1.0 1323:1.0 1323:1.0 1336:1.0 1336:1.0 1820:1.0 2085:1.0 3032:1.0 3361:1.0 3814:1.0 3814:1.0 3828:1.0 3828:1.0 4461:1.0 4716:1.0 5360:1.0 5428:1.0 5456:1.0 5456:1.0 5456:1.0 5461:1.0 5461:1.0 5461:1.0 6097:1.0 6136:1.0 6796:1.0 6833:1.0 
3.9194992616153575E-4 1.8729095573922496E-4 235:1.0 314:1.0 499:1.0 512:1.0 924:1.0 1094:1.0 1323:1.0 1323:1.0 1323:1.0 1323:1.0 1336:1.0 1336:1.0 1336:1.0 1336:1.0 1527:1.0 1527:1.0 1541:1.0 1541:1.0 1678:1.0 2085:1.0 2851:1.0 3369:1.0 4303:1.0 4710:1.0 4739:1.0 4739:1.0 4744:1.0 4744:1.0 5085:1.0 5437:1.0 6104:1.0 6136:1.0 6304:1.0 6834:1.0 
6.146645776218365E-5 0.0 235:1.0 314:1.0 499:1.0 512:1.0 924:1.0 1094:1.0 1323:1.0 1323:1.0 1323:1.0 1323:1.0 1323:1.0 1323:1.0 1336:1.0 1336:1.0 1336:1.0 1336:1.0 1336:1.0 1336:1.0 1527:1.0 1527:1.0 1541:1.0 1541:1.0 2057:1.0 2085:1.0 2793:1.0 3369:1.0 4398:1.0 4710:1.0 4739:1.0 4739:1.0 4744:1.0 4744:1.0 4847:1.0 5438:1.0 6084:1.0 6145:1.0 6154:1.0 6154:1.0 6154:1.0 6158:1.0 6158:1.0 6158:1.0 6165:1.0 6170:1.0 6342:1.0 6827:1.0 
4.401693944877106E-5 0.0 358:1.0 401:1.0 623:1.0 623:1.0 623:1.0 636:1.0 636:1.0 636:1.0 827:1.0 827:1.0 841:1.0 841:1.0 978:1.0 1385:1.0 2484:1.0 2668:1.0 3656:1.0 4010:1.0 4027:1.0 4031:1.0 4039:1.0 4039:1.0 4044:1.0 4044:1.0 4396:1.0 4727:1.0 5405:1.0 5442:1.0 5704:1.0 6128:1.0 6145:1.0 6145:1.0 6145:1.0 6149:1.0 6149:1.0 6149:1.0 6155:1.0 6155:1.0 6160:1.0 6160:1.0 
1.4195869387519924E-4 0.0 285:1.0 320:1.0 499:1.0 499:1.0 499:1.0 499:1.0 512:1.0 512:1.0 512:1.0 512:1.0 685:1.0 685:1.0 699:1.0 699:1.0 765:1.0 1103:1.0 2057:1.0 2085:1.0 3078:1.0 3368:1.0 4306:1.0 4711:1.0 4778:1.0 5428:1.0 5445:1.0 5449:1.0 5456:1.0 5456:1.0 5456:1.0 5456:1.0 5461:1.0 5461:1.0 5461:1.0 5461:1.0 5638:1.0 6136:1.0 6663:1.0 6833:1.0 
0.0 8.324224573056994E-5 38:1.0 320:1.0 499:1.0 499:1.0 499:1.0 499:1.0 499:1.0 499:1.0 512:1.0 512:1.0 512:1.0 512:1.0 512:1.0 512:1.0 685:1.0 685:1.0 699:1.0 699:1.0 765:1.0 1103:1.0 1963:1.0 2085:1.0 2975:1.0 3368:1.0 4648:1.0 4710:1.0 4727:1.0 4727:1.0 4731:1.0 4731:1.0 4739:1.0 4739:1.0 4739:1.0 4744:1.0 4744:1.0 4744:1.0 5317:1.0 5429:1.0 5810:1.0 6136:1.0 6796:1.0 6833:1.0 
0.001281451338048542 5.579882482343757E-4 243:1.0 543:1.0 877:1.0 877:1.0 877:1.0 877:1.0 890:1.0 890:1.0 890:1.0 890:1.0 1474:1.0 1820:1.0 2272:1.0 2272:1.0 2272:1.0 2286:1.0 2286:1.0 2286:1.0 2661:1.0 3173:1.0 3662:1.0 3886:1.0 4268:1.0 4594:1.0 5254:1.0 5291:1.0 
4.268565861314409E-5 0.0 243:1.0 543:1.0 877:1.0 877:1.0 877:1.0 877:1.0 890:1.0 890:1.0 890:1.0 890:1.0 1474:1.0 1820:1.0 2272:1.0 2272:1.0 2272:1.0 2272:1.0 2286:1.0 2286:1.0 2286:1.0 2286:1.0 2940:1.0 3168:1.0 3554:1.0 3885:1.0 4563:1.0 4600:1.0 5097:1.0 5286:1.0 5303:1.0 5307:1.0 5313:1.0 5313:1.0 5318:1.0 5318:1.0 
9.761375264809248E-5 7.620576565683014E-4 243:1.0 543:1.0 877:1.0 877:1.0 877:1.0 877:1.0 890:1.0 890:1.0 890:1.0 890:1.0 1474:1.0 1820:1.0 2272:1.0 2272:1.0 2272:1.0 2272:1.0 2272:1.0 2286:1.0 2286:1.0 2286:1.0 2286:1.0 2286:1.0 2830:1.0 3167:1.0 3854:1.0 3891:1.0 4401:1.0 4595:1.0 4612:1.0 4616:1.0 4623:1.0 4623:1.0 4628:1.0 4628:1.0 4967:1.0 5285:1.0 
3.555603844829152E-4 3.4004238647731167E-4 243:1.0 543:1.0 877:1.0 877:1.0 877:1.0 877:1.0 890:1.0 890:1.0 890:1.0 890:1.0 1474:1.0 1820:1.0 2272:1.0 2272:1.0 2272:1.0 2272:1.0 2272:1.0 2272:1.0 2286:1.0 2286:1.0 2286:1.0 2286:1.0 2286:1.0 2286:1.0 3135:1.0 3173:1.0 3689:1.0 3886:1.0 3903:1.0 3907:1.0 3914:1.0 3914:1.0 3919:1.0 3919:1.0 4268:1.0 4594:1.0 4837:1.0 5291:1.0 
1.4965867902070685E-4 0.0012721252792078106 182:1.0 392:1.0 623:1.0 623:1.0 623:1.0 623:1.0 636:1.0 636:1.0 636:1.0 636:1.0 1120:1.0 1385:1.0 1719:1.0 1719:1.0 1719:1.0 1719:1.0 1719:1.0 1719:1.0 1732:1.0 1732:1.0 1732:1.0 1732:1.0 1732:1.0 1732:1.0 2630:1.0 2668:1.0 3809:1.0 4010:1.0 4027:1.0 4031:1.0 4039:1.0 4039:1.0 4044:1.0 4044:1.0 4396:1.0 4727:1.0 4977:1.0 5442:1.0 5603:1.0 6128:1.0 6155:1.0 6155:1.0 6160:1.0 6160:1.0 
0.0019911512764691315 6.571719614178061E-4 243:1.0 543:1.0 877:1.0 877:1.0 877:1.0 877:1.0 890:1.0 890:1.0 890:1.0 890:1.0 1614:1.0 1821:1.0 2272:1.0 2286:1.0 2453:1.0 2453:1.0 2453:1.0 2453:1.0 2467:1.0 2467:1.0 2467:1.0 2467:1.0 2830:1.0 3167:1.0 3420:1.0 3891:1.0 4056:1.0 4595:1.0 4623:1.0 4623:1.0 4628:1.0 4628:1.0 4684:1.0 5290:1.0 
0.001126761523508025 4.5073578115503135E-4 243:1.0 543:1.0 877:1.0 877:1.0 877:1.0 877:1.0 890:1.0 890:1.0 890:1.0 890:1.0 1614:1.0 1821:1.0 2272:1.0 2272:1.0 2286:1.0 2286:1.0 2453:1.0 2453:1.0 2453:1.0 2453:1.0 2467:1.0 2467:1.0 2467:1.0 2467:1.0 2529:1.0 3172:1.0 3645:1.0 3894:1.0 3903:1.0 3903:1.0 3907:1.0 3907:1.0 3914:1.0 3914:1.0 3914:1.0 3919:1.0 3919:1.0 3919:1.0 4122:1.0 4600:1.0 5042:1.0 5286:1.0 5303:1.0 5307:1.0 5313:1.0 5318:1.0 
8.889770329359107E-5 0.0 189:1.0 312:1.0 499:1.0 512:1.0 685:1.0 685:1.0 699:1.0 699:1.0 1025:1.0 1101:1.0 1323:1.0 1336:1.0 1527:1.0 1527:1.0 1527:1.0 1527:1.0 1541:1.0 1541:1.0 1541:1.0 1541:1.0 2062:1.0 2085:1.0 3184:1.0 3368:1.0 4341:1.0 4716:1.0 4727:1.0 4727:1.0 4731:1.0 4731:1.0 4739:1.0 4739:1.0 4744:1.0 4744:1.0 5085:1.0 5437:1.0 5968:1.0 6142:1.0 6245:1.0 6834:1.0 6845:1.0 6849:1.0 6855:1.0 6860:1.0 
0.0 8.197867775094745E-5 275:1.0 312:1.0 499:1.0 512:1.0 685:1.0 685:1.0 699:1.0 699:1.0 793:1.0 1093:1.0 1323:1.0 1323:1.0 1323:1.0 1323:1.0 1323:1.0 1336:1.0 1336:1.0 1336:1.0 1336:1.0 1336:1.0 1527:1.0 1527:1.0 1527:1.0 1527:1.0 1541:1.0 1541:1.0 1541:1.0 1541:1.0 1820:1.0 2085:1.0 3184:1.0 3368:1.0 4542:1.0 4710:1.0 4739:1.0 4739:1.0 4744:1.0 4744:1.0 5035:1.0 5438:1.0 
7.769775642952558E-4 2.1739714480282593E-4 362:1.0 393:1.0 623:1.0 636:1.0 827:1.0 827:1.0 827:1.0 827:1.0 827:1.0 827:1.0 827:1.0 827:1.0 841:1.0 841:1.0 841:1.0 841:1.0 841:1.0 841:1.0 841:1.0 841:1.0 1357:1.0 1385:1.0 2341:1.0 2661:1.0 3114:1.0 3128:1.0 3672:1.0 4009:1.0 4160:1.0 4734:1.0 4918:1.0 5437:1.0 5454:1.0 5458:1.0 5465:1.0 5465:1.0 5465:1.0 5470:1.0 5470:1.0 5470:1.0 5577:1.0 6127:1.0 
1.183091693835793E-4 0.0 362:1.0 393:1.0 623:1.0 636:1.0 827:1.0 827:1.0 827:1.0 827:1.0 827:1.0 827:1.0 827:1.0 827:1.0 841:1.0 841:1.0 841:1.0 841:1.0 841:1.0 841:1.0 841:1.0 841:1.0 1357:1.0 1385:1.0 2341:1.0 2661:1.0 3114:1.0 3114:1.0 3128:1.0 3128:1.0 3427:1.0 4016:1.0 4203:1.0 4728:1.0 4745:1.0 4749:1.0 4756:1.0 4756:1.0 4756:1.0 4761:1.0 4761:1.0 4761:1.0 4872:1.0 5436:1.0 5883:1.0 6128:1.0 6155:1.0 6160:1.0 
2.614109369918489E-4 2.049930529187063E-4 272:1.0 321:1.0 499:1.0 499:1.0 499:1.0 499:1.0 512:1.0 512:1.0 512:1.0 512:1.0 685:1.0 685:1.0 699:1.0 699:1.0 930:1.0 1093:1.0 1323:1.0 1336:1.0 1527:1.0 1527:1.0 1527:1.0 1527:1.0 1527:1.0 1527:1.0 1541:1.0 1541:1.0 1541:1.0 1541:1.0 1541:1.0 1541:1.0 2057:1.0 2085:1.0 3181:1.0 3361:1.0 4601:1.0 4716:1.0 4903:1.0 5428:1.0 5445:1.0 5445:1.0 5449:1.0 5449:1.0 5456:1.0 5456:1.0 5456:1.0 5461:1.0 5461:1.0 5461:1.0 5572:1.0 6136:1.0 6568:1.0 6828:1.0 6855:1.0 6860:1.0 
7.589006198789033E-4 3.35539503033535E-4 252:1.0 543:1.0 1642:1.0 1826:1.0 2562:1.0 3174:1.0 3185:1.0 3185:1.0 3189:1.0 3189:1.0 3197:1.0 3197:1.0 3202:1.0 3202:1.0 3543:1.0 3895:1.0 4426:1.0 4600:1.0 5126:1.0 5292:1.0 5303:1.0 5307:1.0 5313:1.0 5318:1.0 
1.2008588803011567E-4 0.0 273:1.0 401:1.0 623:1.0 623:1.0 623:1.0 623:1.0 623:1.0 623:1.0 636:1.0 636:1.0 636:1.0 636:1.0 636:1.0 636:1.0 827:1.0 827:1.0 827:1.0 827:1.0 841:1.0 841:1.0 841:1.0 841:1.0 978:1.0 1385:1.0 2484:1.0 2668:1.0 3888:1.0 4012:1.0 4027:1.0 4027:1.0 4027:1.0 4027:1.0 4031:1.0 4031:1.0 4031:1.0 4031:1.0 4039:1.0 4039:1.0 4044:1.0 4044:1.0 4119:1.0 4730:1.0 5211:1.0 5439:1.0 5651:1.0 6127:1.0 
0.0 2.2986846276884314E-5 216:1.0 320:1.0 499:1.0 499:1.0 499:1.0 499:1.0 499:1.0 499:1.0 512:1.0 512:1.0 512:1.0 512:1.0 512:1.0 512:1.0 685:1.0 685:1.0 685:1.0 685:1.0 699:1.0 699:1.0 699:1.0 699:1.0 1023:1.0 1095:1.0 1323:1.0 1323:1.0 1323:1.0 1323:1.0 1323:1.0 1323:1.0 1323:1.0 1336:1.0 1336:1.0 1336:1.0 1336:1.0 1336:1.0 1336:1.0 1336:1.0 1527:1.0 1527:1.0 1527:1.0 1527:1.0 1541:1.0 1541:1.0 1541:1.0 1541:1.0 1678:1.0 2085:1.0 3184:1.0 3368:1.0 4043:1.0 4714:1.0 4739:1.0 4739:1.0 4744:1.0 4744:1.0 4805:1.0 5432:1.0 5989:1.0 6145:1.0 6154:1.0 6158:1.0 6165:1.0 6165:1.0 6170:1.0 6170:1.0 6343:1.0 6833:1.0 
1.8070566323814504E-4 0.0 245:1.0 320:1.0 499:1.0 512:1.0 685:1.0 685:1.0 685:1.0 685:1.0 699:1.0 699:1.0 699:1.0 699:1.0 868:1.0 1093:1.0 1323:1.0 1336:1.0 1527:1.0 1527:1.0 1541:1.0 1541:1.0 2062:1.0 2085:1.0 2876:1.0 3368:1.0 4043:1.0 4714:1.0 4739:1.0 4739:1.0 4744:1.0 4744:1.0 5256:1.0 5436:1.0 5445:1.0 5449:1.0 5456:1.0 5461:1.0 5677:1.0 6142:1.0 6682:1.0 6828:1.0 6845:1.0 6845:1.0 6845:1.0 6849:1.0 6849:1.0 6849:1.0 6855:1.0 6860:1.0 
1.6008427159586625E-4 0.0 243:1.0 312:1.0 499:1.0 499:1.0 499:1.0 499:1.0 499:1.0 512:1.0 512:1.0 512:1.0 512:1.0 512:1.0 685:1.0 685:1.0 699:1.0 699:1.0 893:1.0 1093:1.0 1323:1.0 1336:1.0 1527:1.0 1527:1.0 1541:1.0 1541:1.0 1822:1.0 2085:1.0 3130:1.0 3364:1.0 4212:1.0 4710:1.0 4727:1.0 4731:1.0 4739:1.0 4739:1.0 4744:1.0 4744:1.0 5388:1.0 5427:1.0 6105:1.0 6142:1.0 6216:1.0 6828:1.0 6845:1.0 6849:1.0 6855:1.0 6855:1.0 6860:1.0 6860:1.0 
7.213315212297719E-4 1.7666518900152055E-4 309:1.0 394:1.0 623:1.0 623:1.0 636:1.0 636:1.0 978:1.0 1385:1.0 2420:1.0 2664:1.0 3823:1.0 4010:1.0 4027:1.0 4031:1.0 4039:1.0 4039:1.0 4044:1.0 4044:1.0 4688:1.0 4727:1.0 5070:1.0 5442:1.0 5926:1.0 6128:1.0 6145:1.0 6145:1.0 6149:1.0 6149:1.0 6155:1.0 6155:1.0 6160:1.0 6160:1.0 
1.1742675377606945E-4 0.0 242:1.0 313:1.0 499:1.0 499:1.0 512:1.0 512:1.0 989:1.0 1093:1.0 1323:1.0 1336:1.0 1527:1.0 1527:1.0 1527:1.0 1527:1.0 1541:1.0 1541:1.0 1541:1.0 1541:1.0 2050:1.0 2085:1.0 2975:1.0 3368:1.0 4495:1.0 4710:1.0 4727:1.0 4727:1.0 4731:1.0 4731:1.0 4739:1.0 4739:1.0 4744:1.0 4744:1.0 4780:1.0 5429:1.0 5810:1.0 6136:1.0 6663:1.0 6833:1.0 
1.5896690286016545E-4 0.0 178:1.0 401:1.0 623:1.0 623:1.0 623:1.0 623:1.0 636:1.0 636:1.0 636:1.0 636:1.0 827:1.0 827:1.0 827:1.0 827:1.0 841:1.0 841:1.0 841:1.0 841:1.0 930:1.0 1385:1.0 2484:1.0 2668:1.0 3872:1.0 4012:1.0 4027:1.0 4027:1.0 4027:1.0 4031:1.0 4031:1.0 4031:1.0 4039:1.0 4039:1.0 4044:1.0 4044:1.0 4115:1.0 4730:1.0 5110:1.0 5436:1.0 5561:1.0 6130:1.0 6155:1.0 6160:1.0 
3.826229884618022E-4 1.3131123451938243E-4 178:1.0 401:1.0 623:1.0 623:1.0 623:1.0 623:1.0 623:1.0 636:1.0 636:1.0 636:1.0 636:1.0 636:1.0 827:1.0 827:1.0 827:1.0 827:1.0 841:1.0 841:1.0 841:1.0 841:1.0 858:1.0 1385:1.0 2378:1.0 2668:1.0 3693:1.0 4020:1.0 4703:1.0 4728:1.0 4745:1.0 4745:1.0 4749:1.0 4749:1.0 4756:1.0 4756:1.0 4756:1.0 4761:1.0 4761:1.0 4761:1.0 5108:1.0 5436:1.0 6096:1.0 6133:1.0 
0.0 5.980071256785898E-4 139:1.0 320:1.0 499:1.0 499:1.0 499:1.0 499:1.0 499:1.0 499:1.0 512:1.0 512:1.0 512:1.0 512:1.0 512:1.0 512:1.0 685:1.0 685:1.0 685:1.0 685:1.0 699:1.0 699:1.0 699:1.0 699:1.0 765:1.0 1103:1.0 1820:1.0 2085:1.0 2419:1.0 2419:1.0 2419:1.0 2419:1.0 2419:1.0 2419:1.0 2432:1.0 2432:1.0 2432:1.0 2432:1.0 2432:1.0 2432:1.0 3184:1.0 3368:1.0 4274:1.0 4711:1.0 4902:1.0 5428:1.0 5445:1.0 5449:1.0 5456:1.0 5456:1.0 5461:1.0 5461:1.0 5562:1.0 6147:1.0 6820:1.0 6830:1.0 6845:1.0 6845:1.0 6849:1.0 6849:1.0 6855:1.0 6860:1.0 
7.252371051591403E-4 4.225484155247259E-4 139:1.0 320:1.0 499:1.0 499:1.0 499:1.0 499:1.0 499:1.0 499:1.0 512:1.0 512:1.0 512:1.0 512:1.0 512:1.0 512:1.0 685:1.0 685:1.0 685:1.0 685:1.0 699:1.0 699:1.0 699:1.0 699:1.0 765:1.0 1103:1.0 1820:1.0 2085:1.0 2419:1.0 2419:1.0 2419:1.0 2419:1.0 2419:1.0 2419:1.0 2432:1.0 2432:1.0 2432:1.0 2432:1.0 2432:1.0 2432:1.0 2811:1.0 3363:1.0 3814:1.0 3828:1.0 3995:1.0 3995:1.0 3995:1.0 3995:1.0 4009:1.0 4009:1.0 4009:1.0 4009:1.0 4114:1.0 4720:1.0 5420:1.0 5430:1.0 5445:1.0 5445:1.0 5449:1.0 5449:1.0 5456:1.0 5461:1.0 5875:1.0 6139:1.0 6267:1.0 6838:1.0 
2.3391517938227744E-4 1.4849488111979834E-4 139:1.0 320:1.0 499:1.0 499:1.0 499:1.0 499:1.0 499:1.0 499:1.0 512:1.0 512:1.0 512:1.0 512:1.0 512:1.0 512:1.0 685:1.0 685:1.0 685:1.0 685:1.0 699:1.0 699:1.0 699:1.0 699:1.0 765:1.0 1103:1.0 1820:1.0 2085:1.0 2419:1.0 2419:1.0 2419:1.0 2419:1.0 2419:1.0 2419:1.0 2432:1.0 2432:1.0 2432:1.0 2432:1.0 2432:1.0 2432:1.0 2811:1.0 3363:1.0 3814:1.0 3814:1.0 3828:1.0 3828:1.0 3995:1.0 3995:1.0 3995:1.0 3995:1.0 4009:1.0 4009:1.0 4009:1.0 4009:1.0 4677:1.0 4714:1.0 5251:1.0 5436:1.0 5445:1.0 5449:1.0 5456:1.0 5456:1.0 5456:1.0 5456:1.0 5461:1.0 5461:1.0 5461:1.0 5461:1.0 5810:1.0 6136:1.0 6529:1.0 6838:1.0 
-2.6847853418909785E-4 0.0 45:1.0 393:1.0 623:1.0 636:1.0 827:1.0 827:1.0 841:1.0 841:1.0 1122:1.0 1385:1.0 2107:1.0 2663:1.0 3114:1.0 3114:1.0 3128:1.0 3128:1.0 3295:1.0 3295:1.0 3295:1.0 3309:1.0 3309:1.0 3309:1.0 3538:1.0 4011:1.0 4396:1.0 4727:1.0 5070:1.0 5442:1.0 5972:1.0 6130:1.0 6155:1.0 6155:1.0 6160:1.0 6160:1.0 
-3.6748808427852997E-4 1.533791332238832E-4 210:1.0 320:1.0 499:1.0 499:1.0 512:1.0 512:1.0 685:1.0 685:1.0 685:1.0 685:1.0 699:1.0 699:1.0 699:1.0 699:1.0 814:1.0 1094:1.0 1323:1.0 1336:1.0 1822:1.0 2085:1.0 2901:1.0 3371:1.0 3814:1.0 3814:1.0 3828:1.0 3828:1.0 3995:1.0 4009:1.0 4574:1.0 4715:1.0 5061:1.0 5428:1.0 5445:1.0 5449:1.0 5456:1.0 5461:1.0 5810:1.0 6136:1.0 6469:1.0 6833:1.0 
-4.926321187430909E-4 1.9627588119000816E-4 15:1.0 316:1.0 714:1.0 1096:1.0 1822:1.0 2085:1.0 2979:1.0 3371:1.0 3814:1.0 3828:1.0 3995:1.0 3995:1.0 3995:1.0 4009:1.0 4009:1.0 4009:1.0 4677:1.0 4715:1.0 5404:1.0 5430:1.0 5456:1.0 5461:1.0 5562:1.0 6147:1.0 6262:1.0 6830:1.0 6845:1.0 6849:1.0 
-4.863794286775439E-4 9.733601647403328E-5 220:1.0 320:1.0 499:1.0 499:1.0 512:1.0 512:1.0 685:1.0 685:1.0 685:1.0 685:1.0 699:1.0 699:1.0 699:1.0 699:1.0 722:1.0 1100:1.0 2050:1.0 2085:1.0 2737:1.0 3371:1.0 3814:1.0 3828:1.0 3995:1.0 4009:1.0 4677:1.0 4714:1.0 5047:1.0 5431:1.0 6107:1.0 6145:1.0 6154:1.0 6154:1.0 6154:1.0 6158:1.0 6158:1.0 6158:1.0 6165:1.0 6165:1.0 6165:1.0 6170:1.0 6170:1.0 6170:1.0 6507:1.0 6827:1.0 
-0.0 5.985387188494679E-5 295:1.0 320:1.0 499:1.0 499:1.0 499:1.0 499:1.0 499:1.0 512:1.0 512:1.0 512:1.0 512:1.0 512:1.0 685:1.0 685:1.0 685:1.0 685:1.0 685:1.0 685:1.0 699:1.0 699:1.0 699:1.0 699:1.0 699:1.0 699:1.0 722:1.0 1100:1.0 1820:1.0 2085:1.0 3352:1.0 3371:1.0 3814:1.0 3814:1.0 3828:1.0 3828:1.0 3995:1.0 3995:1.0 3995:1.0 4009:1.0 4009:1.0 4009:1.0 4043:1.0 4717:1.0 4891:1.0 5436:1.0 5445:1.0 5449:1.0 5833:1.0 6142:1.0 6462:1.0 6828:1.0 6855:1.0 6860:1.0 
-4.4358035012064987E-4 2.0853296653863612E-4 253:1.0 313:1.0 499:1.0 512:1.0 685:1.0 685:1.0 685:1.0 685:1.0 685:1.0 685:1.0 699:1.0 699:1.0 699:1.0 699:1.0 699:1.0 699:1.0 940:1.0 1094:1.0 1323:1.0 1336:1.0 1527:1.0 1527:1.0 1541:1.0 1541:1.0 1820:1.0 2085:1.0 2864:1.0 3367:1.0 3995:1.0 4009:1.0 4309:1.0 4720:1.0 
-5.521624564548026E-4 1.9886597475841003E-4 15:1.0 319:1.0 1087:1.0 1096:1.0 1822:1.0 2085:1.0 2881:1.0 3371:1.0 3814:1.0 3814:1.0 3828:1.0 3828:1.0 3995:1.0 3995:1.0 3995:1.0 4009:1.0 4009:1.0 4009:1.0 4535:1.0 4715:1.0 4900:1.0 5428:1.0 5456:1.0 5461:1.0 5723:1.0 6141:1.0 6495:1.0 6826:1.0 
-6.115665439056998E-4 1.580676401431375E-4 330:1.0 393:1.0 623:1.0 636:1.0 827:1.0 827:1.0 841:1.0 841:1.0 978:1.0 1385:1.0 1969:1.0 2663:1.0 3114:1.0 3128:1.0 3295:1.0 3309:1.0 3810:1.0 4011:1.0 4435:1.0 4731:1.0 5268:1.0 5442:1.0 5729:1.0 6128:1.0 6145:1.0 6145:1.0 6149:1.0 6149:1.0 6155:1.0 6155:1.0 6155:1.0 6160:1.0 6160:1.0 6160:1.0 
-6.097514380653324E-5 1.0497414984381954E-4 3:1.0 312:1.0 499:1.0 499:1.0 499:1.0 499:1.0 499:1.0 499:1.0 512:1.0 512:1.0 512:1.0 512:1.0 512:1.0 512:1.0 846:1.0 1093:1.0 1323:1.0 1336:1.0 1527:1.0 1527:1.0 1541:1.0 1541:1.0 1822:1.0 2085:1.0 3285:1.0 3365:1.0 3995:1.0 4009:1.0 4361:1.0 4719:1.0 5257:1.0 5433:1.0 5595:1.0 6137:1.0 6154:1.0 6154:1.0 6158:1.0 6158:1.0 6165:1.0 6170:1.0 6509:1.0 6827:1.0 
-2.6185469944201294E-5 2.066828904872726E-5 3:1.0 312:1.0 499:1.0 499:1.0 499:1.0 499:1.0 499:1.0 499:1.0 499:1.0 499:1.0 499:1.0 512:1.0 512:1.0 512:1.0 512:1.0 512:1.0 512:1.0 512:1.0 512:1.0 512:1.0 1060:1.0 1101:1.0 1323:1.0 1336:1.0 1527:1.0 1527:1.0 1527:1.0 1527:1.0 1541:1.0 1541:1.0 1541:1.0 1541:1.0 1630:1.0 2085:1.0 2664:1.0 3371:1.0 3814:1.0 3828:1.0 3995:1.0 4009:1.0 4677:1.0 4715:1.0 5117:1.0 5438:1.0 5906:1.0 6137:1.0 6154:1.0 6154:1.0 6154:1.0 6154:1.0 6154:1.0 6158:1.0 6158:1.0 6158:1.0 6158:1.0 6158:1.0 6165:1.0 6165:1.0 6170:1.0 6170:1.0 6770:1.0 6829:1.0 
-0.001846034559376487 0.0010610016548357813 290:1.0 543:1.0 1288:1.0 1821:1.0 2453:1.0 2453:1.0 2453:1.0 2467:1.0 2467:1.0 2467:1.0 2830:1.0 3167:1.0 3715:1.0 3891:1.0 4000:1.0 4595:1.0 4623:1.0 4623:1.0 4628:1.0 4628:1.0 4987:1.0 5296:1.0 
-4.293484809340815E-4 1.5454762248233127E-4 101:1.0 393:1.0 827:1.0 827:1.0 827:1.0 827:1.0 841:1.0 841:1.0 841:1.0 841:1.0 1122:1.0 1385:1.0 2034:1.0 2663:1.0 3295:1.0 3295:1.0 3295:1.0 3309:1.0 3309:1.0 3309:1.0 3693:1.0 4020:1.0 4500:1.0 4733:1.0 4756:1.0 4761:1.0 4984:1.0 5439:1.0 5577:1.0 6127:1.0 
-0.0010066840587704014 5.553014832851907E-4 203:1.0 317:1.0 685:1.0 685:1.0 699:1.0 699:1.0 827:1.0 1095:1.0 1630:1.0 2085:1.0 2658:1.0 3365:1.0 3995:1.0 4009:1.0 4372:1.0 4709:1.0 5396:1.0 5433:1.0 5479:1.0 6139:1.0 6165:1.0 6165:1.0 6170:1.0 6170:1.0 6448:1.0 6838:1.0 
-2.887147154374472E-4 6.600551848287434E-5 95:1.0 314:1.0 708:1.0 1095:1.0 1527:1.0 1527:1.0 1541:1.0 1541:1.0 1822:1.0 2085:1.0 2669:1.0 3365:1.0 3995:1.0 3995:1.0 3995:1.0 4009:1.0 4009:1.0 4009:1.0 4309:1.0 4720:1.0 5200:1.0 5433:1.0 5479:1.0 6139:1.0 6154:1.0 6154:1.0 6158:1.0 6158:1.0 6165:1.0 6170:1.0 6640:1.0 6830:1.0 
-5.055457555724193E-4 1.5271283630798605E-4 131:1.0 322:1.0 713:1.0 1095:1.0 1323:1.0 1323:1.0 1323:1.0 1336:1.0 1336:1.0 1336:1.0 1527:1.0 1527:1.0 1541:1.0 1541:1.0 1678:1.0 2085:1.0 3285:1.0 3365:1.0 3995:1.0 4009:1.0 4393:1.0 4720:1.0 4847:1.0 5438:1.0 5726:1.0 6138:1.0 6154:1.0 6158:1.0 6165:1.0 6170:1.0 6277:1.0 6827:1.0 
-5.833416727268445E-5 0.0 169:1.0 322:1.0 856:1.0 1094:1.0 1323:1.0 1336:1.0 1527:1.0 1527:1.0 1541:1.0 1541:1.0 1630:1.0 2085:1.0 2898:1.0 3365:1.0 3814:1.0 3828:1.0 3995:1.0 3995:1.0 3995:1.0 4009:1.0 4009:1.0 4009:1.0 4372:1.0 4709:1.0 5078:1.0 5430:1.0 5456:1.0 5461:1.0 5562:1.0 6147:1.0 6663:1.0 6833:1.0 
-7.827719588373491E-5 0.0 15:1.0 319:1.0 1030:1.0 1093:1.0 1323:1.0 1323:1.0 1323:1.0 1323:1.0 1323:1.0 1336:1.0 1336:1.0 1336:1.0 1336:1.0 1336:1.0 1527:1.0 1527:1.0 1541:1.0 1541:1.0 1678:1.0 2085:1.0 2806:1.0 3365:1.0 3814:1.0 3828:1.0 3995:1.0 3995:1.0 3995:1.0 4009:1.0 4009:1.0 4009:1.0 4115:1.0 4712:1.0 4805:1.0 5432:1.0 5995:1.0 6145:1.0 6154:1.0 6154:1.0 6158:1.0 6158:1.0 6165:1.0 6165:1.0 6165:1.0 6165:1.0 6165:1.0 6170:1.0 6170:1.0 6170:1.0 6170:1.0 6170:1.0 6342:1.0 6827:1.0 
-1.407104961510383E-4 5.9117067159653384E-5 320:1.0 543:1.0 1671:1.0 1829:1.0 2272:1.0 2272:1.0 2286:1.0 2286:1.0 2453:1.0 2453:1.0 2453:1.0 2453:1.0 2453:1.0 2453:1.0 2453:1.0 2453:1.0 2453:1.0 2467:1.0 2467:1.0 2467:1.0 2467:1.0 2467:1.0 2467:1.0 2467:1.0 2467:1.0 2467:1.0 2651:1.0 3167:1.0 3715:1.0 3891:1.0 4298:1.0 4601:1.0 4612:1.0 4612:1.0 4616:1.0 4616:1.0 4623:1.0 4623:1.0 4628:1.0 4628:1.0 4735:1.0 5285:1.0 
-1.1886169848947606E-4 0.0 313:1.0 401:1.0 623:1.0 623:1.0 636:1.0 636:1.0 827:1.0 827:1.0 827:1.0 827:1.0 827:1.0 827:1.0 827:1.0 827:1.0 827:1.0 827:1.0 841:1.0 841:1.0 841:1.0 841:1.0 841:1.0 841:1.0 841:1.0 841:1.0 841:1.0 841:1.0 978:1.0 1385:1.0 2349:1.0 2669:1.0 3114:1.0 3114:1.0 3128:1.0 3128:1.0 3295:1.0 3295:1.0 3295:1.0 3309:1.0 3309:1.0 3309:1.0 3424:1.0 4009:1.0 4576:1.0 4734:1.0 4756:1.0 4761:1.0 5110:1.0 5436:1.0 5963:1.0 6133:1.0 
-1.991702659103248E-4 1.1060422787994999E-4 191:1.0 314:1.0 1053:1.0 1101:1.0 1678:1.0 2085:1.0 2934:1.0 3363:1.0 3814:1.0 3814:1.0 3814:1.0 3828:1.0 3828:1.0 3828:1.0 3995:1.0 3995:1.0 3995:1.0 3995:1.0 3995:1.0 3995:1.0 3995:1.0 3995:1.0 3995:1.0 3995:1.0 4009:1.0 4009:1.0 4009:1.0 4009:1.0 4009:1.0 4009:1.0 4009:1.0 4009:1.0 4009:1.0 4009:1.0 4393:1.0 4720:1.0 5085:1.0 5437:1.0 5520:1.0 6141:1.0 6768:1.0 6831:1.0 
-3.6671363106133845E-4 0.0 85:1.0 312:1.0 499:1.0 512:1.0 685:1.0 685:1.0 699:1.0 699:1.0 1032:1.0 1094:1.0 1323:1.0 1336:1.0 2050:1.0 2085:1.0 3109:1.0 3363:1.0 3814:1.0 3828:1.0 3995:1.0 3995:1.0 3995:1.0 4009:1.0 4009:1.0 4009:1.0 4291:1.0 4711:1.0 5035:1.0 5438:1.0 
-0.0012217299204262061 6.974325943304165E-4 488:1.0 543:1.0 1805:1.0 1821:1.0 2453:1.0 2453:1.0 2453:1.0 2467:1.0 2467:1.0 2467:1.0 2529:1.0 3172:1.0 3702:1.0 3894:1.0 3903:1.0 3903:1.0 3907:1.0 3907:1.0 3914:1.0 3914:1.0 3919:1.0 3919:1.0 4266:1.0 4594:1.0 5254:1.0 5291:1.0 
-5.258940596713475E-5 0.0 295:1.0 393:1.0 623:1.0 636:1.0 827:1.0 827:1.0 841:1.0 841:1.0 1122:1.0 1385:1.0 1959:1.0 2663:1.0 3114:1.0 3128:1.0 3295:1.0 3295:1.0 3295:1.0 3309:1.0 3309:1.0 3309:1.0 3491:1.0 4011:1.0 4701:1.0 4736:1.0 4745:1.0 4745:1.0 4745:1.0 4745:1.0 4745:1.0 4749:1.0 4749:1.0 4749:1.0 4749:1.0 4749:1.0 4756:1.0 4761:1.0 4792:1.0 5444:1.0 5829:1.0 6138:1.0 
-1.7091890164670637E-4 0.0 130:1.0 312:1.0 499:1.0 512:1.0 685:1.0 685:1.0 685:1.0 685:1.0 699:1.0 699:1.0 699:1.0 699:1.0 950:1.0 1094:1.0 1323:1.0 1323:1.0 1323:1.0 1336:1.0 1336:1.0 1336:1.0 1678:1.0 2085:1.0 2696:1.0 3363:1.0 3995:1.0 3995:1.0 3995:1.0 4009:1.0 4009:1.0 4009:1.0 4309:1.0 4720:1.0 
-6.441518506628667E-4 1.8076622072908799E-4 146:1.0 393:1.0 623:1.0 623:1.0 623:1.0 623:1.0 636:1.0 636:1.0 636:1.0 636:1.0 827:1.0 827:1.0 841:1.0 841:1.0 978:1.0 1385:1.0 2400:1.0 2665:1.0 3295:1.0 3309:1.0 3414:1.0 4020:1.0 4384:1.0 4730:1.0 4745:1.0 4745:1.0 4749:1.0 4749:1.0 4756:1.0 4761:1.0 5373:1.0 5439:1.0 5567:1.0 6138:1.0 
-5.765601397992574E-4 8.801656003103875E-5 15:1.0 319:1.0 1030:1.0 1093:1.0 1323:1.0 1336:1.0 1527:1.0 1527:1.0 1541:1.0 1541:1.0 1678:1.0 2085:1.0 2669:1.0 3363:1.0 3814:1.0 3828:1.0 3995:1.0 4009:1.0 4510:1.0 4711:1.0 4751:1.0 5436:1.0 5445:1.0 5449:1.0 5456:1.0 5456:1.0 5461:1.0 5461:1.0 5808:1.0 6136:1.0 6796:1.0 6833:1.0 
-6.55901441135456E-5 0.0 225:1.0 320:1.0 499:1.0 512:1.0 786:1.0 1093:1.0 1323:1.0 1323:1.0 1323:1.0 1336:1.0 1336:1.0 1336:1.0 1527:1.0 1527:1.0 1541:1.0 1541:1.0 2062:1.0 2085:1.0 3100:1.0 3365:1.0 3814:1.0 3814:1.0 3828:1.0 3828:1.0 3995:1.0 4009:1.0 4361:1.0 4719:1.0 5307:1.0 5430:1.0 5445:1.0 5449:1.0 5728:1.0 6139:1.0 6342:1.0 6827:1.0 
-3.834847770876244E-4 1.0887346609663115E-4 61:1.0 401:1.0 623:1.0 623:1.0 623:1.0 636:1.0 636:1.0 636:1.0 827:1.0 827:1.0 841:1.0 841:1.0 1122:1.0 1385:1.0 2369:1.0 2663:1.0 3114:1.0 3128:1.0 3295:1.0 3309:1.0 3957:1.0 4011:1.0 4249:1.0 4733:1.0 4798:1.0 5437:1.0 5454:1.0 5454:1.0 5458:1.0 5458:1.0 5465:1.0 5470:1.0 5809:1.0 6127:1.0 
-1.2672546700241732E-4 0.0 101:1.0 314:1.0 499:1.0 512:1.0 685:1.0 685:1.0 685:1.0 685:1.0 699:1.0 699:1.0 699:1.0 699:1.0 809:1.0 1095:1.0 1323:1.0 1323:1.0 1323:1.0 1336:1.0 1336:1.0 1336:1.0 1527:1.0 1527:1.0 1541:1.0 1541:1.0 1822:1.0 2085:1.0 3285:1.0 3365:1.0 3995:1.0 4009:1.0 4114:1.0 4720:1.0 4923:1.0 5427:1.0 5968:1.0 6142:1.0 6201:1.0 6832:1.0 6855:1.0 6855:1.0 6860:1.0 6860:1.0 
-3.6406880177071E-4 9.092914483688536E-5 20:1.0 312:1.0 499:1.0 499:1.0 499:1.0 512:1.0 512:1.0 512:1.0 685:1.0 685:1.0 699:1.0 699:1.0 765:1.0 1103:1.0 1678:1.0 2085:1.0 2684:1.0 3367:1.0 3995:1.0 3995:1.0 3995:1.0 4009:1.0 4009:1.0 4009:1.0 4071:1.0 4714:1.0 5213:1.0 5436:1.0 5445:1.0 5445:1.0 5445:1.0 5449:1.0 5449:1.0 5449:1.0 5456:1.0 5456:1.0 5456:1.0 5461:1.0 5461:1.0 5461:1.0 6105:1.0 6142:1.0 6177:1.0 6828:1.0 6845:1.0 6849:1.0 6855:1.0 6860:1.0 
-3.4886478147275624E-4 1.0437835636208503E-4 98:1.0 320:1.0 499:1.0 512:1.0 820:1.0 1101:1.0 1323:1.0 1323:1.0 1323:1.0 1336:1.0 1336:1.0 1336:1.0 2050:1.0 2085:1.0 3198:1.0 3371:1.0 3814:1.0 3828:1.0 3995:1.0 4009:1.0 4677:1.0 4715:1.0 4861:1.0 5428:1.0 5445:1.0 5445:1.0 5449:1.0 5449:1.0 5456:1.0 5461:1.0 6057:1.0 6138:1.0 6509:1.0 6827:1.0 
-2.6796864824418017E-4 0.0 241:1.0 320:1.0 499:1.0 512:1.0 685:1.0 685:1.0 699:1.0 699:1.0 773:1.0 1093:1.0 1323:1.0 1323:1.0 1323:1.0 1336:1.0 1336:1.0 1336:1.0 1527:1.0 1527:1.0 1541:1.0 1541:1.0 1822:1.0 2085:1.0 2676:1.0 3363:1.0 3814:1.0 3828:1.0 3995:1.0 4009:1.0 4551:1.0 4711:1.0 5035:1.0 5438:1.0 
-3.571885478730393E-4 1.546657528760894E-4 193:1.0 320:1.0 499:1.0 499:1.0 499:1.0 499:1.0 499:1.0 499:1.0 512:1.0 512:1.0 512:1.0 512:1.0 512:1.0 512:1.0 685:1.0 685:1.0 699:1.0 699:1.0 859:1.0 1101:1.0 1323:1.0 1323:1.0 1336:1.0 1336:1.0 1822:1.0 2085:1.0 2818:1.0 3363:1.0 3995:1.0 4009:1.0 4043:1.0 4717:1.0 5056:1.0 5433:1.0 6054:1.0 6137:1.0 6165:1.0 6170:1.0 6226:1.0 6832:1.0 
-0.0 2.356557970796262E-4 72:1.0 312:1.0 499:1.0 512:1.0 685:1.0 685:1.0 699:1.0 699:1.0 915:1.0 1101:1.0 1323:1.0 1323:1.0 1323:1.0 1336:1.0 1336:1.0 1336:1.0 1527:1.0 1527:1.0 1527:1.0 1527:1.0 1527:1.0 1527:1.0 1541:1.0 1541:1.0 1541:1.0 1541:1.0 1541:1.0 1541:1.0 1558:1.0 2085:1.0 3222:1.0 3363:1.0 3995:1.0 4009:1.0 4677:1.0 4715:1.0 4984:1.0 5430:1.0 5445:1.0 5449:1.0 5456:1.0 5461:1.0 5810:1.0 6136:1.0 6491:1.0 6830:1.0 6855:1.0 6860:1.0 
-7.17275292268455E-5 0.0 110:1.0 401:1.0 623:1.0 623:1.0 623:1.0 623:1.0 636:1.0 636:1.0 636:1.0 636:1.0 827:1.0 827:1.0 841:1.0 841:1.0 978:1.0 1385:1.0 2128:1.0 2664:1.0 3114:1.0 3114:1.0 3114:1.0 3114:1.0 3128:1.0 3128:1.0 3128:1.0 3128:1.0 3295:1.0 3295:1.0 3295:1.0 3295:1.0 3295:1.0 3295:1.0 3295:1.0 3295:1.0 3295:1.0 3295:1.0 3295:1.0 3309:1.0 3309:1.0 3309:1.0 3309:1.0 3309:1.0 3309:1.0 3309:1.0 3309:1.0 3309:1.0 3309:1.0 3309:1.0 3693:1.0 4020:1.0 4147:1.0 4738:1.0 5099:1.0 5446:1.0 5501:1.0 6135:1.0 
-3.165254716225376E-4 8.953182755721121E-5 177:1.0 543:1.0 1248:1.0 1821:1.0 2272:1.0 2272:1.0 2272:1.0 2286:1.0 2286:1.0 2286:1.0 2453:1.0 2453:1.0 2453:1.0 2467:1.0 2467:1.0 2467:1.0 2695:1.0 3169:1.0 3554:1.0 3885:1.0 4247:1.0 4597:1.0 4612:1.0 4616:1.0 4623:1.0 4628:1.0 4967:1.0 5285:1.0 
-9.857507437684616E-5 0.0 79:1.0 393:1.0 623:1.0 623:1.0 623:1.0 623:1.0 636:1.0 636:1.0 636:1.0 636:1.0 827:1.0 827:1.0 827:1.0 827:1.0 841:1.0 841:1.0 841:1.0 841:1.0 1122:1.0 1385:1.0 2297:1.0 2665:1.0 3114:1.0 3128:1.0 3295:1.0 3309:1.0 3672:1.0 4009:1.0 4696:1.0 4733:1.0 5246:1.0 5439:1.0 5465:1.0 5465:1.0 5470:1.0 5470:1.0 5567:1.0 6138:1.0 
-1.7609577558443264E-4 0.0 133:1.0 320:1.0 499:1.0 499:1.0 499:1.0 499:1.0 499:1.0 512:1.0 512:1.0 512:1.0 512:1.0 512:1.0 713:1.0 1093:1.0 1323:1.0 1336:1.0 1527:1.0 1527:1.0 1541:1.0 1541:1.0 1822:1.0 2085:1.0 3033:1.0 3363:1.0 3995:1.0 4009:1.0 4028:1.0 4719:1.0 4967:1.0 5436:1.0 5445:1.0 5445:1.0 5449:1.0 5449:1.0 6104:1.0 6136:1.0 6367:1.0 6833:1.0 
-2.932385225446445E-4 1.0669475305023593E-4 133:1.0 320:1.0 499:1.0 499:1.0 499:1.0 499:1.0 499:1.0 499:1.0 499:1.0 512:1.0 512:1.0 512:1.0 512:1.0 512:1.0 512:1.0 512:1.0 826:1.0 1101:1.0 1323:1.0 1323:1.0 1336:1.0 1336:1.0 2057:1.0 2085:1.0 2840:1.0 3363:1.0 3995:1.0 3995:1.0 3995:1.0 4009:1.0 4009:1.0 4009:1.0 4677:1.0 4715:1.0 4893:1.0 5428:1.0 5445:1.0 5449:1.0 5456:1.0 5461:1.0 6108:1.0 6136:1.0 6379:1.0 6833:1.0 
-3.8480761589728026E-4 3.796827888767945E-4 277:1.0 401:1.0 623:1.0 623:1.0 623:1.0 623:1.0 623:1.0 636:1.0 636:1.0 636:1.0 636:1.0 636:1.0 827:1.0 827:1.0 841:1.0 841:1.0 1120:1.0 1385:1.0 2568:1.0 2665:1.0 3295:1.0 3309:1.0 3343:1.0 4017:1.0 4262:1.0 4733:1.0 5399:1.0 5437:1.0 5454:1.0 5458:1.0 5465:1.0 5470:1.0 5525:1.0 6129:1.0 
-0.001759571719012959 8.626361602960429E-4 31:1.0 310:1.0 715:1.0 1096:1.0 1323:1.0 1336:1.0 1678:1.0 2085:1.0 3012:1.0 3363:1.0 3995:1.0 4009:1.0 4043:1.0 4717:1.0 5177:1.0 5430:1.0 5848:1.0 6140:1.0 6663:1.0 6833:1.0 
-0.0014374254086492234 5.371889497390709E-4 488:1.0 543:1.0 1780:1.0 1821:1.0 2272:1.0 2286:1.0 2453:1.0 2453:1.0 2453:1.0 2467:1.0 2467:1.0 2467:1.0 2572:1.0 3178:1.0 3593:1.0 3889:1.0 4122:1.0 4600:1.0 4884:1.0 5286:1.0 5303:1.0 5307:1.0 5313:1.0 5318:1.0 
-4.478125346407107E-5 0.0 252:1.0 320:1.0 499:1.0 499:1.0 499:1.0 512:1.0 512:1.0 512:1.0 685:1.0 685:1.0 699:1.0 699:1.0 947:1.0 1093:1.0 1323:1.0 1323:1.0 1323:1.0 1323:1.0 1323:1.0 1323:1.0 1323:1.0 1336:1.0 1336:1.0 1336:1.0 1336:1.0 1336:1.0 1336:1.0 1336:1.0 1527:1.0 1527:1.0 1527:1.0 1527:1.0 1541:1.0 1541:1.0 1541:1.0 1541:1.0 2057:1.0 2085:1.0 2876:1.0 3368:1.0 3814:1.0 3814:1.0 3828:1.0 3828:1.0 3995:1.0 4009:1.0 4372:1.0 4709:1.0 5286:1.0 5430:1.0 5445:1.0 5445:1.0 5445:1.0 5449:1.0 5449:1.0 5449:1.0 5562:1.0 6147:1.0 6688:1.0 6830:1.0 6845:1.0 6845:1.0 6845:1.0 6849:1.0 6849:1.0 6849:1.0 6855:1.0 6860:1.0 
-3.111412579643951E-4 1.758333493824922E-4 15:1.0 319:1.0 1027:1.0 1093:1.0 1323:1.0 1323:1.0 1336:1.0 1336:1.0 1527:1.0 1527:1.0 1541:1.0 1541:1.0 1822:1.0 2085:1.0 2819:1.0 3365:1.0 3995:1.0 4009:1.0 4124:1.0 4709:1.0 4979:1.0 5436:1.0 5445:1.0 5445:1.0 5449:1.0 5449:1.0 5456:1.0 5461:1.0 5520:1.0 6141:1.0 6795:1.0 6827:1.0 
-2.662391115342812E-4 0.0 15:1.0 319:1.0 1027:1.0 1093:1.0 1323:1.0 1323:1.0 1323:1.0 1336:1.0 1336:1.0 1336:1.0 1527:1.0 1527:1.0 1541:1.0 1541:1.0 1630:1.0 2085:1.0 2893:1.0 3371:1.0 3814:1.0 3814:1.0 3828:1.0 3828:1.0 3995:1.0 4009:1.0 4071:1.0 4714:1.0 5395:1.0 5427:1.0 5677:1.0 6142:1.0 6284:1.0 6829:1.0 
-1.8493663662645605E-4 9.786681137188965E-5 15:1.0 319:1.0 700:1.0 1093:1.0 1323:1.0 1323:1.0 1323:1.0 1323:1.0 1336:1.0 1336:1.0 1336:1.0 1336:1.0 1527:1.0 1527:1.0 1541:1.0 1541:1.0 1822:1.0 2085:1.0 2940:1.0 3363:1.0 3995:1.0 4009:1.0 4114:1.0 4720:1.0 5238:1.0 5428:1.0 5445:1.0 5445:1.0 5449:1.0 5449:1.0 5456:1.0 5461:1.0 5810:1.0 6136:1.0 6379:1.0 6833:1.0 
-1.1524478171066989E-4 1.367073028801589E-4 27:1.0 320:1.0 499:1.0 499:1.0 499:1.0 499:1.0 499:1.0 512:1.0 512:1.0 512:1.0 512:1.0 512:1.0 685:1.0 685:1.0 685:1.0 685:1.0 699:1.0 699:1.0 699:1.0 699:1.0 783:1.0 1101:1.0 1323:1.0 1336:1.0 2050:1.0 2085:1.0 3027:1.0 3371:1.0 3814:1.0 3828:1.0 3995:1.0 4009:1.0 4535:1.0 4715:1.0 5211:1.0 5428:1.0 5445:1.0 5445:1.0 5445:1.0 5449:1.0 5449:1.0 5449:1.0 5456:1.0 5461:1.0 5830:1.0 6147:1.0 6212:1.0 6829:1.0 6845:1.0 6849:1.0 6855:1.0 6860:1.0 
-2.4336685343133538E-4 0.0015549565505280588 212:1.0 312:1.0 499:1.0 499:1.0 499:1.0 499:1.0 499:1.0 512:1.0 512:1.0 512:1.0 512:1.0 512:1.0 685:1.0 685:1.0 699:1.0 699:1.0 883:1.0 1101:1.0 1323:1.0 1336:1.0 1527:1.0 1527:1.0 1527:1.0 1527:1.0 1541:1.0 1541:1.0 1541:1.0 1541:1.0 1820:1.0 2085:1.0 2419:1.0 2419:1.0 2419:1.0 2419:1.0 2432:1.0 2432:1.0 2432:1.0 2432:1.0 2713:1.0 3363:1.0 3995:1.0 4009:1.0 4309:1.0 4720:1.0 
-8.404346930510255E-5 0.0 310:1.0 401:1.0 623:1.0 623:1.0 636:1.0 636:1.0 827:1.0 827:1.0 841:1.0 841:1.0 1357:1.0 1385:1.0 2574:1.0 2663:1.0 3114:1.0 3128:1.0 3295:1.0 3295:1.0 3295:1.0 3309:1.0 3309:1.0 3309:1.0 3693:1.0 4020:1.0 4303:1.0 4728:1.0 4745:1.0 4749:1.0 4756:1.0 4761:1.0 5130:1.0 5447:1.0 5567:1.0 6138:1.0 
-4.864166546236521E-4 0.0 244:1.0 320:1.0 499:1.0 499:1.0 499:1.0 499:1.0 512:1.0 512:1.0 512:1.0 512:1.0 685:1.0 685:1.0 699:1.0 699:1.0 787:1.0 1093:1.0 1323:1.0 1336:1.0 1527:1.0 1527:1.0 1541:1.0 1541:1.0 1822:1.0 2085:1.0 3257:1.0 3365:1.0 3995:1.0 3995:1.0 3995:1.0 4009:1.0 4009:1.0 4009:1.0 4497:1.0 4718:1.0 4727:1.0 4727:1.0 4731:1.0 4731:1.0 4739:1.0 4739:1.0 4744:1.0 4744:1.0 4777:1.0 5435:1.0 6131:1.0 6138:1.0 6172:1.0 6828:1.0 6855:1.0 6860:1.0 
-0.0015090615138579095 8.902593504930094E-4 132:1.0 543:1.0 1681:1.0 1821:1.0 2272:1.0 2272:1.0 2286:1.0 2286:1.0 2453:1.0 2467:1.0 2830:1.0 3167:1.0 3537:1.0 3888:1.0 3914:1.0 3919:1.0 4020:1.0 4605:1.0 5005:1.0 5289:1.0 
-4.34906350780944E-4 8.347176952843952E-5 316:1.0 393:1.0 623:1.0 623:1.0 636:1.0 636:1.0 827:1.0 827:1.0 841:1.0 841:1.0 1122:1.0 1385:1.0 2301:1.0 2665:1.0 3295:1.0 3309:1.0 3414:1.0 4020:1.0 4435:1.0 4731:1.0 5020:1.0 5438:1.0 5454:1.0 5454:1.0 5458:1.0 5458:1.0 5465:1.0 5465:1.0 5470:1.0 5470:1.0 5569:1.0 6131:1.0 
-4.73821251316006E-5 2.463488099891992E-4 114:1.0 313:1.0 499:1.0 499:1.0 512:1.0 512:1.0 685:1.0 685:1.0 685:1.0 685:1.0 699:1.0 699:1.0 699:1.0 699:1.0 850:1.0 1101:1.0 1323:1.0 1323:1.0 1323:1.0 1336:1.0 1336:1.0 1336:1.0 1527:1.0 1527:1.0 1541:1.0 1541:1.0 1820:1.0 2085:1.0 2419:1.0 2419:1.0 2419:1.0 2419:1.0 2432:1.0 2432:1.0 2432:1.0 2432:1.0 2914:1.0 3371:1.0 3814:1.0 3814:1.0 3814:1.0 3814:1.0 3814:1.0 3828:1.0 3828:1.0 3828:1.0 3828:1.0 3828:1.0 3995:1.0 4009:1.0 4069:1.0 4708:1.0 5246:1.0 5428:1.0 5456:1.0 5461:1.0 5562:1.0 6147:1.0 6605:1.0 6836:1.0 6845:1.0 6849:1.0 
-3.0152878005294744E-4 8.538099719145879E-5 201:1.0 320:1.0 499:1.0 512:1.0 953:1.0 1093:1.0 1323:1.0 1336:1.0 1527:1.0 1527:1.0 1541:1.0 1541:1.0 1822:1.0 2085:1.0 2963:1.0 3363:1.0 3995:1.0 4009:1.0 4361:1.0 4719:1.0 4916:1.0 5436:1.0 5445:1.0 5449:1.0 6105:1.0 6142:1.0 6645:1.0 6828:1.0 6845:1.0 6849:1.0 6855:1.0 6860:1.0 
-4.603488727294812E-5 0.0 104:1.0 401:1.0 623:1.0 623:1.0 623:1.0 623:1.0 636:1.0 636:1.0 636:1.0 636:1.0 827:1.0 827:1.0 841:1.0 841:1.0 1122:1.0 1385:1.0 2089:1.0 2669:1.0 3114:1.0 3114:1.0 3128:1.0 3128:1.0 3295:1.0 3295:1.0 3295:1.0 3309:1.0 3309:1.0 3309:1.0 3424:1.0 4009:1.0 4576:1.0 4734:1.0 4756:1.0 4761:1.0 5110:1.0 5436:1.0 5769:1.0 6133:1.0 
-2.6214015193201505E-4 0.0 99:1.0 320:1.0 499:1.0 499:1.0 499:1.0 499:1.0 499:1.0 499:1.0 499:1.0 499:1.0 499:1.0 512:1.0 512:1.0 512:1.0 512:1.0 512:1.0 512:1.0 512:1.0 512:1.0 512:1.0 1036:1.0 1101:1.0 1323:1.0 1323:1.0 1323:1.0 1336:1.0 1336:1.0 1336:1.0 1678:1.0 2085:1.0 2972:1.0 3363:1.0 3814:1.0 3828:1.0 3995:1.0 4009:1.0 4372:1.0 4709:1.0 5257:1.0 5433:1.0 5705:1.0 6143:1.0 6165:1.0 6165:1.0 6170:1.0 6170:1.0 6448:1.0 6838:1.0 
-7.890350682924943E-5 0.0 269:1.0 320:1.0 499:1.0 499:1.0 499:1.0 512:1.0 512:1.0 512:1.0 879:1.0 1093:1.0 1323:1.0 1336:1.0 1527:1.0 1527:1.0 1541:1.0 1541:1.0 1822:1.0 2085:1.0 2905:1.0 3369:1.0 3995:1.0 3995:1.0 3995:1.0 4009:1.0 4009:1.0 4009:1.0 4309:1.0 4720:1.0 
-0.0015092067674598365 6.347706283530598E-4 241:1.0 397:1.0 623:1.0 636:1.0 1122:1.0 1385:1.0 2646:1.0 2663:1.0 3295:1.0 3295:1.0 3295:1.0 3309:1.0 3309:1.0 3309:1.0 3711:1.0 4013:1.0 4286:1.0 4731:1.0 4792:1.0 5444:1.0 5526:1.0 6132:1.0 
-1.9196404138015539E-4 3.8722400741236364E-5 149:1.0 312:1.0 499:1.0 499:1.0 499:1.0 512:1.0 512:1.0 512:1.0 685:1.0 685:1.0 699:1.0 699:1.0 962:1.0 1101:1.0 1323:1.0 1323:1.0 1323:1.0 1336:1.0 1336:1.0 1336:1.0 1527:1.0 1527:1.0 1527:1.0 1527:1.0 1541:1.0 1541:1.0 1541:1.0 1541:1.0 1820:1.0 2085:1.0 2936:1.0 3371:1.0 3814:1.0 3828:1.0 3995:1.0 4009:1.0 4675:1.0 4710:1.0 4727:1.0 4727:1.0 4731:1.0 4731:1.0 5104:1.0 5429:1.0 5572:1.0 6136:1.0 6366:1.0 6833:1.0 
-2.125608226423905E-4 0.0 108:1.0 393:1.0 623:1.0 636:1.0 827:1.0 827:1.0 827:1.0 827:1.0 841:1.0 841:1.0 841:1.0 841:1.0 1122:1.0 1385:1.0 2552:1.0 2663:1.0 3295:1.0 3295:1.0 3295:1.0 3309:1.0 3309:1.0 3309:1.0 3947:1.0 4013:1.0 4244:1.0 4736:1.0 4745:1.0 4745:1.0 4745:1.0 4749:1.0 4749:1.0 4749:1.0 4756:1.0 4756:1.0 4761:1.0 4761:1.0 4938:1.0 5436:1.0 6050:1.0 6136:1.0 6145:1.0 6149:1.0 6155:1.0 6160:1.0 
-9.849037134233725E-4 1.9586442025698472E-4 117:1.0 401:1.0 623:1.0 623:1.0 623:1.0 636:1.0 636:1.0 636:1.0 827:1.0 827:1.0 827:1.0 827:1.0 841:1.0 841:1.0 841:1.0 841:1.0 978:1.0 1385:1.0 2581:1.0 2671:1.0 3114:1.0 3128:1.0 3295:1.0 3309:1.0 3835:1.0 4015:1.0 4373:1.0 4728:1.0 4745:1.0 4749:1.0 4756:1.0 4761:1.0 5110:1.0 5436:1.0 6096:1.0 6133:1.0 
-4.9334642417104084E-5 5.288711970176149E-5 36:1.0 320:1.0 499:1.0 499:1.0 512:1.0 512:1.0 685:1.0 685:1.0 685:1.0 685:1.0 699:1.0 699:1.0 699:1.0 699:1.0 768:1.0 1093:1.0 1323:1.0 1323:1.0 1336:1.0 1336:1.0 1820:1.0 2085:1.0 3252:1.0 3363:1.0 3995:1.0 3995:1.0 3995:1.0 4009:1.0 4009:1.0 4009:1.0 4372:1.0 4709:1.0 4800:1.0 5432:1.0 5700:1.0 6143:1.0 6165:1.0 6170:1.0 6800:1.0 6828:1.0 6845:1.0 6849:1.0 6855:1.0 6855:1.0 6860:1.0 6860:1.0 
-2.233625050337354E-4 1.9858605781616228E-4 51:1.0 312:1.0 499:1.0 499:1.0 499:1.0 512:1.0 512:1.0 512:1.0 1075:1.0 1093:1.0 1323:1.0 1336:1.0 1527:1.0 1527:1.0 1527:1.0 1527:1.0 1541:1.0 1541:1.0 1541:1.0 1541:1.0 1822:1.0 2085:1.0 3354:1.0 3363:1.0 3995:1.0 4009:1.0 4535:1.0 4715:1.0 5264:1.0 5428:1.0 5445:1.0 5449:1.0 5456:1.0 5461:1.0 5585:1.0 6137:1.0 6448:1.0 6838:1.0 
-2.9087040318000008E-5 0.0 211:1.0 312:1.0 499:1.0 499:1.0 499:1.0 499:1.0 499:1.0 512:1.0 512:1.0 512:1.0 512:1.0 512:1.0 685:1.0 685:1.0 699:1.0 699:1.0 765:1.0 1103:1.0 1887:1.0 2085:1.0 2790:1.0 3363:1.0 3814:1.0 3814:1.0 3814:1.0 3814:1.0 3814:1.0 3814:1.0 3814:1.0 3814:1.0 3828:1.0 3828:1.0 3828:1.0 3828:1.0 3828:1.0 3828:1.0 3828:1.0 3828:1.0 3995:1.0 3995:1.0 3995:1.0 3995:1.0 4009:1.0 4009:1.0 4009:1.0 4009:1.0 4237:1.0 4711:1.0 5085:1.0 5437:1.0 5533:1.0 6137:1.0 6542:1.0 6830:1.0 6845:1.0 6849:1.0 
-1.4195869387519924E-4 7.12562021865959E-4 302:1.0 401:1.0 623:1.0 623:1.0 623:1.0 623:1.0 623:1.0 623:1.0 636:1.0 636:1.0 636:1.0 636:1.0 636:1.0 636:1.0 827:1.0 827:1.0 841:1.0 841:1.0 1120:1.0 1385:1.0 1719:1.0 1719:1.0 1719:1.0 1719:1.0 1732:1.0 1732:1.0 1732:1.0 1732:1.0 2539:1.0 2663:1.0 3295:1.0 3309:1.0 3414:1.0 4020:1.0 4045:1.0 4734:1.0 4889:1.0 5440:1.0 5497:1.0 6136:1.0 6145:1.0 6145:1.0 6145:1.0 6149:1.0 6149:1.0 6149:1.0 6155:1.0 6155:1.0 6160:1.0 6160:1.0 
-3.5670390364120276E-4 1.2885054598147532E-4 293:1.0 395:1.0 623:1.0 623:1.0 623:1.0 623:1.0 636:1.0 636:1.0 636:1.0 636:1.0 827:1.0 827:1.0 841:1.0 841:1.0 1122:1.0 1385:1.0 2224:1.0 2665:1.0 3295:1.0 3309:1.0 3414:1.0 4020:1.0 4175:1.0 4726:1.0 4831:1.0 5438:1.0 5454:1.0 5454:1.0 5458:1.0 5458:1.0 5465:1.0 5465:1.0 5470:1.0 5470:1.0 5577:1.0 6127:1.0 
-3.734970748298382E-4 2.8875297034175224E-4 162:1.0 401:1.0 623:1.0 623:1.0 623:1.0 623:1.0 623:1.0 623:1.0 623:1.0 623:1.0 636:1.0 636:1.0 636:1.0 636:1.0 636:1.0 636:1.0 636:1.0 636:1.0 827:1.0 827:1.0 827:1.0 827:1.0 841:1.0 841:1.0 841:1.0 841:1.0 1187:1.0 1385:1.0 2079:1.0 2669:1.0 3295:1.0 3309:1.0 3493:1.0 4009:1.0 4575:1.0 4728:1.0 4756:1.0 4761:1.0 5108:1.0 5436:1.0 5679:1.0 6133:1.0 
-5.435175585548116E-4 3.118324115433899E-4 278:1.0 320:1.0 499:1.0 499:1.0 499:1.0 512:1.0 512:1.0 512:1.0 903:1.0 1101:1.0 1323:1.0 1323:1.0 1323:1.0 1323:1.0 1336:1.0 1336:1.0 1336:1.0 1336:1.0 1820:1.0 2085:1.0 2907:1.0 3369:1.0 3995:1.0 4009:1.0 4596:1.0 4708:1.0 4727:1.0 4731:1.0 5096:1.0 5427:1.0 5968:1.0 6142:1.0 6219:1.0 6828:1.0 6845:1.0 6849:1.0 6855:1.0 6855:1.0 6860:1.0 6860:1.0 
-2.0822767074245874E-4 0.0 174:1.0 314:1.0 499:1.0 499:1.0 499:1.0 499:1.0 499:1.0 512:1.0 512:1.0 512:1.0 512:1.0 512:1.0 685:1.0 685:1.0 699:1.0 699:1.0 887:1.0 1103:1.0 1822:1.0 2085:1.0 2933:1.0 3365:1.0 3814:1.0 3828:1.0 3995:1.0 3995:1.0 4009:1.0 4009:1.0 4095:1.0 4720:1.0 4989:1.0 5436:1.0 5445:1.0 5445:1.0 5449:1.0 5449:1.0 5456:1.0 5456:1.0 5461:1.0 5461:1.0 5868:1.0 6142:1.0 6306:1.0 6828:1.0 6845:1.0 6845:1.0 6849:1.0 6849:1.0 6855:1.0 6860:1.0 
-4.1383968430651005E-4 1.7208932303217964E-4 82:1.0 393:1.0 623:1.0 623:1.0 623:1.0 636:1.0 636:1.0 636:1.0 827:1.0 827:1.0 841:1.0 841:1.0 1122:1.0 1385:1.0 1995:1.0 2663:1.0 3295:1.0 3309:1.0 3493:1.0 4009:1.0 4262:1.0 4733:1.0 4745:1.0 4745:1.0 4749:1.0 4749:1.0 5111:1.0 5438:1.0 6040:1.0 6134:1.0 
-9.304419609725974E-5 0.0 141:1.0 315:1.0 828:1.0 1096:1.0 1822:1.0 2085:1.0 3190:1.0 3363:1.0 3814:1.0 3814:1.0 3814:1.0 3814:1.0 3828:1.0 3828:1.0 3828:1.0 3828:1.0 3995:1.0 3995:1.0 3995:1.0 3995:1.0 3995:1.0 3995:1.0 3995:1.0 3995:1.0 4009:1.0 4009:1.0 4009:1.0 4009:1.0 4009:1.0 4009:1.0 4009:1.0 4009:1.0 4114:1.0 4720:1.0 5410:1.0 5437:1.0 5569:1.0 6140:1.0 6192:1.0 6836:1.0 6845:1.0 6849:1.0 6855:1.0 6860:1.0 
-4.7651786379471674E-5 0.0 187:1.0 320:1.0 499:1.0 499:1.0 512:1.0 512:1.0 685:1.0 685:1.0 685:1.0 685:1.0 699:1.0 699:1.0 699:1.0 699:1.0 812:1.0 1093:1.0 1323:1.0 1323:1.0 1323:1.0 1323:1.0 1336:1.0 1336:1.0 1336:1.0 1336:1.0 1527:1.0 1527:1.0 1541:1.0 1541:1.0 1822:1.0 2085:1.0 3020:1.0 3363:1.0 3995:1.0 4009:1.0 4372:1.0 4709:1.0 4767:1.0 5434:1.0 5871:1.0 6137:1.0 6154:1.0 6154:1.0 6158:1.0 6158:1.0 6165:1.0 6165:1.0 6170:1.0 6170:1.0 6373:1.0 6829:1.0 
-0.0 4.4010313433261855E-5 113:1.0 312:1.0 499:1.0 499:1.0 512:1.0 512:1.0 685:1.0 685:1.0 685:1.0 685:1.0 699:1.0 699:1.0 699:1.0 699:1.0 1024:1.0 1093:1.0 1323:1.0 1336:1.0 1527:1.0 1527:1.0 1527:1.0 1527:1.0 1541:1.0 1541:1.0 1541:1.0 1541:1.0 2057:1.0 2085:1.0 2987:1.0 3365:1.0 3995:1.0 4009:1.0 4372:1.0 4709:1.0 5257:1.0 5433:1.0 5955:1.0 6143:1.0 6154:1.0 6154:1.0 6158:1.0 6158:1.0 6165:1.0 6165:1.0 6170:1.0 6170:1.0 6277:1.0 6827:1.0 
-0.0 1.270229219898579E-4 226:1.0 318:1.0 499:1.0 499:1.0 499:1.0 512:1.0 512:1.0 512:1.0 685:1.0 685:1.0 685:1.0 685:1.0 699:1.0 699:1.0 699:1.0 699:1.0 795:1.0 1093:1.0 1323:1.0 1323:1.0 1336:1.0 1336:1.0 1527:1.0 1527:1.0 1527:1.0 1527:1.0 1541:1.0 1541:1.0 1541:1.0 1541:1.0 1678:1.0 2085:1.0 2727:1.0 3363:1.0 3995:1.0 4009:1.0 4372:1.0 4709:1.0 5252:1.0 5430:1.0 5456:1.0 5461:1.0 5749:1.0 6147:1.0 
-0.0016848833978943252 7.477334095284491E-4 123:1.0 543:1.0 1360:1.0 1829:1.0 2272:1.0 2272:1.0 2272:1.0 2286:1.0 2286:1.0 2286:1.0 2453:1.0 2467:1.0 2529:1.0 3172:1.0 3552:1.0 3885:1.0 4395:1.0 4595:1.0 4623:1.0 4628:1.0 4725:1.0 5296:1.0 
-0.0 4.685919201564393E-4 272:1.0 310:1.0 499:1.0 512:1.0 864:1.0 1101:1.0 1323:1.0 1336:1.0 1527:1.0 1527:1.0 1527:1.0 1527:1.0 1541:1.0 1541:1.0 1541:1.0 1541:1.0 1820:1.0 2085:1.0 2419:1.0 2419:1.0 2419:1.0 2419:1.0 2432:1.0 2432:1.0 2432:1.0 2432:1.0 2960:1.0 3363:1.0 3814:1.0 3828:1.0 3995:1.0 3995:1.0 3995:1.0 4009:1.0 4009:1.0 4009:1.0 4372:1.0 4709:1.0 5261:1.0 5434:1.0 6109:1.0 6137:1.0 6154:1.0 6158:1.0 6165:1.0 6165:1.0 6170:1.0 6170:1.0 6509:1.0 6827:1.0 
-1.1931697834115979E-4 0.0 287:1.0 316:1.0 499:1.0 512:1.0 685:1.0 685:1.0 699:1.0 699:1.0 1003:1.0 1093:1.0 1323:1.0 1336:1.0 1527:1.0 1527:1.0 1527:1.0 1527:1.0 1527:1.0 1527:1.0 1541:1.0 1541:1.0 1541:1.0 1541:1.0 1541:1.0 1541:1.0 1822:1.0 2085:1.0 3178:1.0 3365:1.0 3995:1.0 4009:1.0 4309:1.0 4720:1.0 
-0.0 6.29573880763505E-5 76:1.0 401:1.0 623:1.0 623:1.0 623:1.0 623:1.0 636:1.0 636:1.0 636:1.0 636:1.0 827:1.0 827:1.0 841:1.0 841:1.0 1350:1.0 1385:1.0 2541:1.0 2663:1.0 3114:1.0 3128:1.0 3295:1.0 3295:1.0 3295:1.0 3309:1.0 3309:1.0 3309:1.0 3976:1.0 4009:1.0 4367:1.0 4730:1.0 4756:1.0 4761:1.0 5049:1.0 5447:1.0 
-9.011685455227063E-4 2.9380462452379384E-4 132:1.0 543:1.0 877:1.0 877:1.0 877:1.0 877:1.0 890:1.0 890:1.0 890:1.0 890:1.0 1691:1.0 1821:1.0 2272:1.0 2272:1.0 2286:1.0 2286:1.0 2453:1.0 2453:1.0 2453:1.0 2467:1.0 2467:1.0 2467:1.0 2830:1.0 3167:1.0 3544:1.0 3886:1.0 3914:1.0 3919:1.0 4020:1.0 4605:1.0 5121:1.0 5291:1.0 
-1.0909704845129596E-4 0.0 322:1.0 393:1.0 623:1.0 623:1.0 636:1.0 636:1.0 827:1.0 827:1.0 827:1.0 827:1.0 841:1.0 841:1.0 841:1.0 841:1.0 1122:1.0 1385:1.0 2308:1.0 2663:1.0 3295:1.0 3309:1.0 3414:1.0 4020:1.0 4557:1.0 4733:1.0 4833:1.0 5437:1.0 5454:1.0 5454:1.0 5458:1.0 5458:1.0 5465:1.0 5470:1.0 5809:1.0 6127:1.0 
-1.5141796815972144E-4 0.0 254:1.0 312:1.0 499:1.0 499:1.0 499:1.0 499:1.0 512:1.0 512:1.0 512:1.0 512:1.0 685:1.0 685:1.0 685:1.0 685:1.0 699:1.0 699:1.0 699:1.0 699:1.0 745:1.0 1093:1.0 1323:1.0 1323:1.0 1336:1.0 1336:1.0 1527:1.0 1527:1.0 1541:1.0 1541:1.0 1822:1.0 2085:1.0 2987:1.0 3365:1.0 3995:1.0 4009:1.0 4114:1.0 4720:1.0 5074:1.0 5430:1.0 5445:1.0 5445:1.0 5449:1.0 5449:1.0 5456:1.0 5461:1.0 6089:1.0 6139:1.0 6267:1.0 6838:1.0 
-1.7631895686432672E-4 0.0 143:1.0 320:1.0 499:1.0 499:1.0 512:1.0 512:1.0 800:1.0 1093:1.0 1323:1.0 1336:1.0 1527:1.0 1527:1.0 1541:1.0 1541:1.0 1822:1.0 2085:1.0 3178:1.0 3365:1.0 3814:1.0 3814:1.0 3828:1.0 3828:1.0 3995:1.0 4009:1.0 4361:1.0 4719:1.0 5067:1.0 5430:1.0 5638:1.0 6136:1.0 6567:1.0 6833:1.0 
-1.3895852869692918E-4 0.0 261:1.0 320:1.0 499:1.0 512:1.0 884:1.0 1101:1.0 1323:1.0 1323:1.0 1323:1.0 1336:1.0 1336:1.0 1336:1.0 1678:1.0 2085:1.0 3131:1.0 3363:1.0 3814:1.0 3828:1.0 3995:1.0 3995:1.0 3995:1.0 3995:1.0 3995:1.0 4009:1.0 4009:1.0 4009:1.0 4009:1.0 4009:1.0 4065:1.0 4710:1.0 4727:1.0 4727:1.0 4731:1.0 4731:1.0 5094:1.0 5427:1.0 5822:1.0 6137:1.0 6154:1.0 6158:1.0 6165:1.0 6170:1.0 6316:1.0 6829:1.0 
-1.1005229566606865E-4 9.066985721285835E-5 206:1.0 312:1.0 499:1.0 512:1.0 685:1.0 685:1.0 685:1.0 685:1.0 685:1.0 685:1.0 699:1.0 699:1.0 699:1.0 699:1.0 699:1.0 699:1.0 736:1.0 1093:1.0 1323:1.0 1323:1.0 1336:1.0 1336:1.0 1820:1.0 2085:1.0 3031:1.0 3363:1.0 3814:1.0 3828:1.0 3995:1.0 4009:1.0 4164:1.0 4711:1.0 4923:1.0 5427:1.0 5968:1.0 6142:1.0 6493:1.0 6828:1.0 6845:1.0 6849:1.0 6855:1.0 6855:1.0 6860:1.0 6860:1.0 
-9.240856391352476E-4 3.79097783094124E-4 1:1.0 543:1.0 1328:1.0 1821:1.0 2272:1.0 2286:1.0 2453:1.0 2453:1.0 2453:1.0 2467:1.0 2467:1.0 2467:1.0 2572:1.0 3178:1.0 3715:1.0 3891:1.0 4053:1.0 4595:1.0 4612:1.0 4612:1.0 4612:1.0 4616:1.0 4616:1.0 4616:1.0 4623:1.0 4628:1.0 5015:1.0 5287:1.0 
-1.4734611677058644E-4 0.0 92:1.0 312:1.0 499:1.0 499:1.0 512:1.0 512:1.0 685:1.0 685:1.0 685:1.0 685:1.0 699:1.0 699:1.0 699:1.0 699:1.0 779:1.0 1093:1.0 1323:1.0 1323:1.0 1323:1.0 1323:1.0 1336:1.0 1336:1.0 1336:1.0 1336:1.0 1527:1.0 1527:1.0 1541:1.0 1541:1.0 1822:1.0 2085:1.0 3178:1.0 3365:1.0 3995:1.0 4009:1.0 4114:1.0 4720:1.0 5063:1.0 5430:1.0 5445:1.0 5445:1.0 5449:1.0 5449:1.0 5456:1.0 5461:1.0 5927:1.0 6139:1.0 6267:1.0 6838:1.0 
-0.0 1.1069395920405529E-4 182:1.0 316:1.0 499:1.0 499:1.0 499:1.0 499:1.0 512:1.0 512:1.0 512:1.0 512:1.0 685:1.0 685:1.0 685:1.0 685:1.0 699:1.0 699:1.0 699:1.0 699:1.0 755:1.0 1094:1.0 1323:1.0 1336:1.0 1820:1.0 2085:1.0 2903:1.0 3363:1.0 3814:1.0 3828:1.0 3995:1.0 3995:1.0 3995:1.0 4009:1.0 4009:1.0 4009:1.0 4372:1.0 4709:1.0 5363:1.0 5428:1.0 5456:1.0 5461:1.0 5749:1.0 6147:1.0 
-6.203550671433195E-4 8.361621660547843E-5 41:1.0 313:1.0 499:1.0 512:1.0 843:1.0 1093:1.0 1323:1.0 1336:1.0 1527:1.0 1527:1.0 1527:1.0 1527:1.0 1541:1.0 1541:1.0 1541:1.0 1541:1.0 1822:1.0 2085:1.0 3295:1.0 3363:1.0 3995:1.0 4009:1.0 4309:1.0 4720:1.0 
-7.264684190561143E-4 4.15192506288001E-4 254:1.0 401:1.0 623:1.0 623:1.0 623:1.0 623:1.0 623:1.0 636:1.0 636:1.0 636:1.0 636:1.0 636:1.0 1357:1.0 1385:1.0 2129:1.0 2663:1.0 3295:1.0 3309:1.0 3493:1.0 4009:1.0 4091:1.0 4734:1.0 5043:1.0 5437:1.0 5465:1.0 5465:1.0 5470:1.0 5470:1.0 5798:1.0 6137:1.0 
-2.575378767246061E-4 1.2751881347685605E-4 254:1.0 401:1.0 623:1.0 623:1.0 623:1.0 623:1.0 623:1.0 623:1.0 636:1.0 636:1.0 636:1.0 636:1.0 636:1.0 636:1.0 978:1.0 1385:1.0 2247:1.0 2663:1.0 3295:1.0 3295:1.0 3295:1.0 3309:1.0 3309:1.0 3309:1.0 3661:1.0 4019:1.0 4330:1.0 4736:1.0 4745:1.0 4745:1.0 4749:1.0 4749:1.0 5108:1.0 5436:1.0 5822:1.0 6126:1.0 6145:1.0 6149:1.0 
-1.9719084910418852E-4 0.0 197:1.0 320:1.0 499:1.0 499:1.0 499:1.0 499:1.0 499:1.0 499:1.0 499:1.0 499:1.0 512:1.0 512:1.0 512:1.0 512:1.0 512:1.0 512:1.0 512:1.0 512:1.0 865:1.0 1101:1.0 1323:1.0 1323:1.0 1336:1.0 1336:1.0 1820:1.0 2085:1.0 3292:1.0 3363:1.0 3995:1.0 3995:1.0 3995:1.0 3995:1.0 3995:1.0 4009:1.0 4009:1.0 4009:1.0 4009:1.0 4009:1.0 4668:1.0 4709:1.0 5396:1.0 5433:1.0 5703:1.0 6137:1.0 6154:1.0 6158:1.0 6165:1.0 6165:1.0 6170:1.0 6170:1.0 6509:1.0 6827:1.0 
-2.18603468448132E-5 0.0 341:1.0 393:1.0 623:1.0 623:1.0 636:1.0 636:1.0 827:1.0 827:1.0 841:1.0 841:1.0 1122:1.0 1385:1.0 2377:1.0 2663:1.0 3295:1.0 3309:1.0 3493:1.0 4009:1.0 4261:1.0 4730:1.0 4756:1.0 4761:1.0 4841:1.0 5445:1.0 5454:1.0 5454:1.0 5454:1.0 5454:1.0 5458:1.0 5458:1.0 5458:1.0 5458:1.0 5465:1.0 5470:1.0 5831:1.0 6126:1.0 6145:1.0 6145:1.0 6149:1.0 6149:1.0 
-6.166416709026171E-4 1.4118869080477543E-4 341:1.0 393:1.0 623:1.0 623:1.0 623:1.0 636:1.0 636:1.0 636:1.0 827:1.0 827:1.0 841:1.0 841:1.0 978:1.0 1385:1.0 2175:1.0 2665:1.0 3295:1.0 3309:1.0 3392:1.0 4018:1.0 4027:1.0 4027:1.0 4027:1.0 4027:1.0 4031:1.0 4031:1.0 4031:1.0 4031:1.0 4039:1.0 4044:1.0 4419:1.0 4726:1.0 4745:1.0 4745:1.0 4749:1.0 4749:1.0 5110:1.0 5436:1.0 5963:1.0 6133:1.0 
-3.743024702144342E-4 1.8838959611446895E-4 38:1.0 320:1.0 499:1.0 499:1.0 499:1.0 499:1.0 512:1.0 512:1.0 512:1.0 512:1.0 685:1.0 685:1.0 699:1.0 699:1.0 750:1.0 1099:1.0 1323:1.0 1336:1.0 1527:1.0 1527:1.0 1541:1.0 1541:1.0 1630:1.0 2085:1.0 3203:1.0 3369:1.0 3995:1.0 4009:1.0 4193:1.0 4709:1.0 5309:1.0 5428:1.0 5456:1.0 5461:1.0 5562:1.0 6147:1.0 6674:1.0 6827:1.0 
-1.3934362291278385E-4 0.0 51:1.0 401:1.0 623:1.0 623:1.0 623:1.0 623:1.0 623:1.0 636:1.0 636:1.0 636:1.0 636:1.0 636:1.0 827:1.0 827:1.0 841:1.0 841:1.0 978:1.0 1385:1.0 2539:1.0 2663:1.0 3295:1.0 3309:1.0 3414:1.0 4020:1.0 4569:1.0 4727:1.0 5070:1.0 5442:1.0 6069:1.0 6128:1.0 6145:1.0 6145:1.0 6149:1.0 6149:1.0 6155:1.0 6155:1.0 6155:1.0 6160:1.0 6160:1.0 6160:1.0 
-0.0 8.733138995490391E-4 182:1.0 392:1.0 623:1.0 623:1.0 623:1.0 623:1.0 636:1.0 636:1.0 636:1.0 636:1.0 1120:1.0 1385:1.0 1719:1.0 1719:1.0 1719:1.0 1719:1.0 1719:1.0 1719:1.0 1732:1.0 1732:1.0 1732:1.0 1732:1.0 1732:1.0 1732:1.0 2456:1.0 2663:1.0 3114:1.0 3128:1.0 3295:1.0 3295:1.0 3295:1.0 3309:1.0 3309:1.0 3309:1.0 3672:1.0 4009:1.0 4262:1.0 4733:1.0 4898:1.0 5437:1.0 5465:1.0 5465:1.0 5470:1.0 5470:1.0 5526:1.0 6132:1.0 
-0.0013458916734398585 4.150062445289652E-4 243:1.0 543:1.0 877:1.0 877:1.0 877:1.0 877:1.0 890:1.0 890:1.0 890:1.0 890:1.0 1569:1.0 1829:1.0 2272:1.0 2272:1.0 2286:1.0 2286:1.0 2453:1.0 2453:1.0 2453:1.0 2453:1.0 2453:1.0 2467:1.0 2467:1.0 2467:1.0 2467:1.0 2467:1.0 2678:1.0 3173:1.0 3631:1.0 3886:1.0 3903:1.0 3907:1.0 3914:1.0 3919:1.0 3950:1.0 4599:1.0 4684:1.0 5290:1.0 
-1.5191286787657915E-4 0.0 146:1.0 318:1.0 499:1.0 499:1.0 499:1.0 512:1.0 512:1.0 512:1.0 685:1.0 685:1.0 685:1.0 685:1.0 699:1.0 699:1.0 699:1.0 699:1.0 750:1.0 1099:1.0 1323:1.0 1336:1.0 1527:1.0 1527:1.0 1541:1.0 1541:1.0 1630:1.0 2085:1.0 3203:1.0 3369:1.0 3995:1.0 4009:1.0 4309:1.0 4720:1.0 
-8.159136475724256E-5 0.0 275:1.0 312:1.0 499:1.0 512:1.0 685:1.0 685:1.0 699:1.0 699:1.0 793:1.0 1093:1.0 1323:1.0 1323:1.0 1323:1.0 1336:1.0 1336:1.0 1336:1.0 1527:1.0 1527:1.0 1527:1.0 1527:1.0 1541:1.0 1541:1.0 1541:1.0 1541:1.0 1822:1.0 2085:1.0 3077:1.0 3363:1.0 3995:1.0 4009:1.0 4124:1.0 4709:1.0 5172:1.0 5428:1.0 5456:1.0 5461:1.0 5808:1.0 6136:1.0 6663:1.0 6833:1.0 
-4.81932265179956E-4 1.4679625107070064E-4 17:1.0 393:1.0 623:1.0 623:1.0 636:1.0 636:1.0 827:1.0 827:1.0 827:1.0 827:1.0 841:1.0 841:1.0 841:1.0 841:1.0 1122:1.0 1385:1.0 2377:1.0 2663:1.0 3295:1.0 3309:1.0 3493:1.0 4009:1.0 4439:1.0 4730:1.0 4756:1.0 4761:1.0 4869:1.0 5440:1.0 5840:1.0 6131:1.0 
-4.423194460256647E-5 0.0 17:1.0 393:1.0 623:1.0 623:1.0 623:1.0 636:1.0 636:1.0 636:1.0 827:1.0 827:1.0 827:1.0 827:1.0 841:1.0 841:1.0 841:1.0 841:1.0 978:1.0 1385:1.0 2361:1.0 2665:1.0 3295:1.0 3309:1.0 3421:1.0 4013:1.0 4428:1.0 4731:1.0 4977:1.0 5442:1.0 6082:1.0 6128:1.0 6145:1.0 6149:1.0 6155:1.0 6155:1.0 6155:1.0 6155:1.0 6160:1.0 6160:1.0 6160:1.0 6160:1.0 
-1.6008427159586625E-4 0.0 362:1.0 393:1.0 623:1.0 636:1.0 827:1.0 827:1.0 827:1.0 827:1.0 827:1.0 827:1.0 827:1.0 827:1.0 841:1.0 841:1.0 841:1.0 841:1.0 841:1.0 841:1.0 841:1.0 841:1.0 1357:1.0 1385:1.0 2112:1.0 2663:1.0 3114:1.0 3128:1.0 3295:1.0 3295:1.0 3295:1.0 3295:1.0 3295:1.0 3309:1.0 3309:1.0 3309:1.0 3309:1.0 3309:1.0 3424:1.0 4009:1.0 4472:1.0 4728:1.0 4756:1.0 4761:1.0 5356:1.0 5446:1.0 5454:1.0 5454:1.0 5454:1.0 5458:1.0 5458:1.0 5458:1.0 5465:1.0 5470:1.0 5501:1.0 6135:1.0 
-1.8082195213977236E-4 3.6438174903347006E-5 288:1.0 312:1.0 499:1.0 512:1.0 685:1.0 685:1.0 685:1.0 685:1.0 685:1.0 685:1.0 685:1.0 685:1.0 699:1.0 699:1.0 699:1.0 699:1.0 699:1.0 699:1.0 699:1.0 699:1.0 793:1.0 1093:1.0 1323:1.0 1336:1.0 1527:1.0 1527:1.0 1527:1.0 1527:1.0 1527:1.0 1527:1.0 1541:1.0 1541:1.0 1541:1.0 1541:1.0 1541:1.0 1541:1.0 1630:1.0 2085:1.0 3095:1.0 3363:1.0 3995:1.0 4009:1.0 4627:1.0 4719:1.0 4727:1.0 4727:1.0 4727:1.0 4731:1.0 4731:1.0 4731:1.0 4739:1.0 4744:1.0 4777:1.0 5435:1.0 5677:1.0 6142:1.0 6224:1.0 6826:1.0 
-5.041838318307624E-4 2.5855981725293324E-4 252:1.0 543:1.0 1203:1.0 1827:1.0 2272:1.0 2272:1.0 2286:1.0 2286:1.0 2453:1.0 2453:1.0 2453:1.0 2467:1.0 2467:1.0 2467:1.0 2819:1.0 3177:1.0 3715:1.0 3891:1.0 4431:1.0 4601:1.0 4612:1.0 4616:1.0 4623:1.0 4628:1.0 4967:1.0 5285:1.0 
-1.4145771153324449E-4 8.44094081361238E-5 44:1.0 318:1.0 499:1.0 499:1.0 499:1.0 512:1.0 512:1.0 512:1.0 685:1.0 685:1.0 685:1.0 685:1.0 699:1.0 699:1.0 699:1.0 699:1.0 1000:1.0 1099:1.0 1323:1.0 1336:1.0 1527:1.0 1527:1.0 1541:1.0 1541:1.0 1822:1.0 2085:1.0 3155:1.0 3363:1.0 3995:1.0 4009:1.0 4071:1.0 4714:1.0 5220:1.0 5436:1.0 5445:1.0 5445:1.0 5445:1.0 5445:1.0 5449:1.0 5449:1.0 5449:1.0 5449:1.0 5456:1.0 5456:1.0 5461:1.0 5461:1.0 5638:1.0 6136:1.0 6302:1.0 6830:1.0 6855:1.0 6860:1.0 
-3.6649044883416327E-4 1.3548093206000095E-4 273:1.0 401:1.0 623:1.0 623:1.0 623:1.0 623:1.0 636:1.0 636:1.0 636:1.0 636:1.0 827:1.0 827:1.0 827:1.0 827:1.0 841:1.0 841:1.0 841:1.0 841:1.0 978:1.0 1385:1.0 2091:1.0 2665:1.0 3295:1.0 3309:1.0 3695:1.0 4008:1.0 4027:1.0 4031:1.0 4396:1.0 4727:1.0 5000:1.0 5443:1.0 5636:1.0 6128:1.0 6145:1.0 6149:1.0 6155:1.0 6155:1.0 6160:1.0 6160:1.0 
-0.0 6.973970633061065E-5 216:1.0 320:1.0 499:1.0 499:1.0 499:1.0 499:1.0 499:1.0 499:1.0 512:1.0 512:1.0 512:1.0 512:1.0 512:1.0 512:1.0 685:1.0 685:1.0 685:1.0 685:1.0 699:1.0 699:1.0 699:1.0 699:1.0 1023:1.0 1095:1.0 1323:1.0 1323:1.0 1323:1.0 1323:1.0 1323:1.0 1323:1.0 1336:1.0 1336:1.0 1336:1.0 1336:1.0 1336:1.0 1336:1.0 1527:1.0 1527:1.0 1527:1.0 1527:1.0 1541:1.0 1541:1.0 1541:1.0 1541:1.0 1686:1.0 2085:1.0 3077:1.0 3363:1.0 3995:1.0 4009:1.0 4193:1.0 4709:1.0 5257:1.0 5433:1.0 5492:1.0 6141:1.0 6165:1.0 6165:1.0 6170:1.0 6170:1.0 6226:1.0 6832:1.0 
-2.2345702171980592E-4 0.0 245:1.0 320:1.0 499:1.0 512:1.0 685:1.0 685:1.0 685:1.0 685:1.0 699:1.0 699:1.0 699:1.0 699:1.0 868:1.0 1093:1.0 1323:1.0 1336:1.0 1527:1.0 1527:1.0 1541:1.0 1541:1.0 2062:1.0 2085:1.0 2684:1.0 3367:1.0 3995:1.0 3995:1.0 3995:1.0 4009:1.0 4009:1.0 4009:1.0 4534:1.0 4718:1.0 4727:1.0 4731:1.0 4739:1.0 4744:1.0 4962:1.0 5433:1.0 5987:1.0 6137:1.0 6154:1.0 6154:1.0 6154:1.0 6158:1.0 6158:1.0 6158:1.0 6165:1.0 6170:1.0 6509:1.0 6827:1.0 
-0.0 1.3233283929345145E-4 18:1.0 312:1.0 499:1.0 512:1.0 685:1.0 685:1.0 685:1.0 685:1.0 699:1.0 699:1.0 699:1.0 699:1.0 789:1.0 1101:1.0 1323:1.0 1323:1.0 1323:1.0 1336:1.0 1336:1.0 1336:1.0 1527:1.0 1527:1.0 1541:1.0 1541:1.0 1678:1.0 2085:1.0 3066:1.0 3363:1.0 3995:1.0 4009:1.0 4535:1.0 4715:1.0 5383:1.0 5428:1.0 5445:1.0 5445:1.0 5449:1.0 5449:1.0 5456:1.0 5461:1.0 5629:1.0 6138:1.0 6509:1.0 6827:1.0 
-5.624524470756549E-5 0.0 67:1.0 320:1.0 499:1.0 499:1.0 499:1.0 499:1.0 512:1.0 512:1.0 512:1.0 512:1.0 685:1.0 685:1.0 699:1.0 699:1.0 1061:1.0 1093:1.0 1323:1.0 1323:1.0 1323:1.0 1336:1.0 1336:1.0 1336:1.0 1527:1.0 1527:1.0 1541:1.0 1541:1.0 1822:1.0 2085:1.0 2781:1.0 3365:1.0 3995:1.0 4009:1.0 4677:1.0 4715:1.0 5126:1.0 5429:1.0 5969:1.0 6137:1.0 6165:1.0 6165:1.0 6170:1.0 6170:1.0 6267:1.0 6838:1.0 
-3.936520757540459E-4 1.0989932169309482E-4 47:1.0 401:1.0 623:1.0 623:1.0 623:1.0 623:1.0 636:1.0 636:1.0 636:1.0 636:1.0 827:1.0 827:1.0 841:1.0 841:1.0 1059:1.0 1385:1.0 1986:1.0 2671:1.0 3114:1.0 3114:1.0 3114:1.0 3128:1.0 3128:1.0 3128:1.0 3295:1.0 3309:1.0 3678:1.0 4008:1.0 4027:1.0 4031:1.0 4147:1.0 4738:1.0 5178:1.0 5437:1.0 5454:1.0 5458:1.0 5465:1.0 5470:1.0 5567:1.0 6138:1.0 
-1.560878969794432E-4 0.0 309:1.0 394:1.0 623:1.0 623:1.0 636:1.0 636:1.0 978:1.0 1385:1.0 2470:1.0 2663:1.0 3114:1.0 3128:1.0 3295:1.0 3295:1.0 3295:1.0 3309:1.0 3309:1.0 3309:1.0 3968:1.0 4009:1.0 4356:1.0 4733:1.0 5229:1.0 5437:1.0 5454:1.0 5454:1.0 5458:1.0 5458:1.0 5465:1.0 5465:1.0 5470:1.0 5470:1.0 5504:1.0 6129:1.0 
-3.054198290713573E-4 2.1014313854458917E-4 139:1.0 320:1.0 499:1.0 499:1.0 499:1.0 499:1.0 499:1.0 499:1.0 512:1.0 512:1.0 512:1.0 512:1.0 512:1.0 512:1.0 685:1.0 685:1.0 685:1.0 685:1.0 699:1.0 699:1.0 699:1.0 699:1.0 765:1.0 1103:1.0 1820:1.0 2085:1.0 2419:1.0 2419:1.0 2419:1.0 2419:1.0 2419:1.0 2419:1.0 2432:1.0 2432:1.0 2432:1.0 2432:1.0 2432:1.0 2432:1.0 3176:1.0 3371:1.0 3814:1.0 3828:1.0 3995:1.0 3995:1.0 3995:1.0 3995:1.0 3995:1.0 3995:1.0 4009:1.0 4009:1.0 4009:1.0 4009:1.0 4009:1.0 4009:1.0 4372:1.0 4709:1.0 5117:1.0 5438:1.0 5635:1.0 6137:1.0 6154:1.0 6154:1.0 6158:1.0 6158:1.0 6165:1.0 6165:1.0 6170:1.0 6170:1.0 6258:1.0 6829:1.0 6845:1.0 6845:1.0 6849:1.0 6849:1.0 
-8.911819501983494E-4 -7.925359841634793E-4 114:1.0 313:1.0 499:1.0 499:1.0 512:1.0 512:1.0 685:1.0 685:1.0 685:1.0 685:1.0 699:1.0 699:1.0 699:1.0 699:1.0 870:1.0 1101:1.0 1323:1.0 1323:1.0 1323:1.0 1323:1.0 1336:1.0 1336:1.0 1336:1.0 1336:1.0 1820:1.0 2085:1.0 2419:1.0 2432:1.0 2956:1.0 3363:1.0 4677:1.0 4715:1.0 4764:1.0 5428:1.0 5445:1.0 5449:1.0 5456:1.0 5461:1.0 5810:1.0 6136:1.0 6523:1.0 6828:1.0 6855:1.0 6860:1.0 
-4.307202295692154E-4 -0.0011104379731189228 212:1.0 312:1.0 499:1.0 499:1.0 499:1.0 499:1.0 499:1.0 512:1.0 512:1.0 512:1.0 512:1.0 512:1.0 685:1.0 685:1.0 699:1.0 699:1.0 883:1.0 1101:1.0 1323:1.0 1336:1.0 1527:1.0 1527:1.0 1527:1.0 1527:1.0 1541:1.0 1541:1.0 1541:1.0 1541:1.0 1820:1.0 2085:1.0 2419:1.0 2419:1.0 2432:1.0 2432:1.0 2974:1.0 3363:1.0 4372:1.0 4709:1.0 4806:1.0 5428:1.0 5456:1.0 5461:1.0 5749:1.0 6147:1.0 
-6.866401011180303E-4 -8.446135399801746E-4 212:1.0 312:1.0 499:1.0 499:1.0 499:1.0 499:1.0 499:1.0 512:1.0 512:1.0 512:1.0 512:1.0 512:1.0 685:1.0 685:1.0 699:1.0 699:1.0 883:1.0 1101:1.0 1323:1.0 1336:1.0 1527:1.0 1527:1.0 1527:1.0 1527:1.0 1541:1.0 1541:1.0 1541:1.0 1541:1.0 1820:1.0 2085:1.0 2419:1.0 2419:1.0 2419:1.0 2432:1.0 2432:1.0 2432:1.0 3018:1.0 3362:1.0 4072:1.0 4710:1.0 4739:1.0 4744:1.0 5035:1.0 5438:1.0 
-2.555723168013192E-4 -2.7941861967577123E-4 114:1.0 313:1.0 499:1.0 499:1.0 512:1.0 512:1.0 685:1.0 685:1.0 685:1.0 685:1.0 699:1.0 699:1.0 699:1.0 699:1.0 850:1.0 1101:1.0 1323:1.0 1323:1.0 1323:1.0 1336:1.0 1336:1.0 1336:1.0 1527:1.0 1527:1.0 1541:1.0 1541:1.0 1820:1.0 2085:1.0 2419:1.0 2419:1.0 2432:1.0 2432:1.0 2705:1.0 3363:1.0 4372:1.0 4709:1.0 4998:1.0 5436:1.0 5445:1.0 5445:1.0 5445:1.0 5445:1.0 5445:1.0 5449:1.0 5449:1.0 5449:1.0 5449:1.0 5449:1.0 5456:1.0 5461:1.0 5518:1.0 6135:1.0 6652:1.0 6828:1.0 6855:1.0 6860:1.0 
-2.5264995897361625E-4 -2.1449882285312372E-4 114:1.0 313:1.0 499:1.0 499:1.0 512:1.0 512:1.0 685:1.0 685:1.0 685:1.0 685:1.0 699:1.0 699:1.0 699:1.0 699:1.0 850:1.0 1101:1.0 1323:1.0 1323:1.0 1323:1.0 1336:1.0 1336:1.0 1336:1.0 1527:1.0 1527:1.0 1541:1.0 1541:1.0 1820:1.0 2085:1.0 2419:1.0 2419:1.0 2419:1.0 2432:1.0 2432:1.0 2432:1.0 3018:1.0 3362:1.0 4270:1.0 4718:1.0 4727:1.0 4727:1.0 4727:1.0 4727:1.0 4727:1.0 4731:1.0 4731:1.0 4731:1.0 4731:1.0 4731:1.0 4739:1.0 4744:1.0 4803:1.0 5426:1.0 5957:1.0 6137:1.0 6165:1.0 6170:1.0 6267:1.0 6838:1.0 
-9.490341353894581E-4 -0.0012015035316438516 302:1.0 401:1.0 623:1.0 623:1.0 623:1.0 623:1.0 623:1.0 623:1.0 636:1.0 636:1.0 636:1.0 636:1.0 636:1.0 636:1.0 827:1.0 827:1.0 841:1.0 841:1.0 1120:1.0 1385:1.0 1719:1.0 1719:1.0 1732:1.0 1732:1.0 2512:1.0 2663:1.0 3672:1.0 4009:1.0 4609:1.0 4728:1.0 4756:1.0 4761:1.0 4862:1.0 5447:1.0 5471:1.0 6134:1.0 
-7.875866188486532E-4 -7.579128482132773E-4 302:1.0 401:1.0 623:1.0 623:1.0 623:1.0 623:1.0 623:1.0 623:1.0 636:1.0 636:1.0 636:1.0 636:1.0 636:1.0 636:1.0 827:1.0 827:1.0 841:1.0 841:1.0 1120:1.0 1385:1.0 1719:1.0 1719:1.0 1719:1.0 1732:1.0 1732:1.0 1732:1.0 2318:1.0 2662:1.0 3889:1.0 4010:1.0 4039:1.0 4044:1.0 4147:1.0 4738:1.0 4762:1.0 5443:1.0 5594:1.0 6131:1.0 
-9.166440601854934E-4 -0.0010481630499694047 272:1.0 310:1.0 499:1.0 512:1.0 864:1.0 1101:1.0 1323:1.0 1336:1.0 1527:1.0 1527:1.0 1527:1.0 1527:1.0 1541:1.0 1541:1.0 1541:1.0 1541:1.0 1820:1.0 2085:1.0 2419:1.0 2419:1.0 2432:1.0 2432:1.0 3184:1.0 3368:1.0 4068:1.0 4708:1.0 4949:1.0 5433:1.0 5756:1.0 6137:1.0 6154:1.0 6158:1.0 6165:1.0 6165:1.0 6170:1.0 6170:1.0 6509:1.0 6827:1.0 
-8.330148618501794E-4 -6.687187081927685E-4 272:1.0 310:1.0 499:1.0 512:1.0 864:1.0 1101:1.0 1323:1.0 1336:1.0 1527:1.0 1527:1.0 1527:1.0 1527:1.0 1541:1.0 1541:1.0 1541:1.0 1541:1.0 1820:1.0 2085:1.0 2419:1.0 2419:1.0 2419:1.0 2432:1.0 2432:1.0 2432:1.0 2709:1.0 3361:1.0 4220:1.0 4715:1.0 5042:1.0 5428:1.0 5445:1.0 5449:1.0 5456:1.0 5456:1.0 5461:1.0 5461:1.0 5810:1.0 6136:1.0 6667:1.0 6834:1.0 
-0.002822008623354204 -0.0021805509380393604 132:1.0 543:1.0 877:1.0 877:1.0 890:1.0 890:1.0 1364:1.0 1821:1.0 2830:1.0 3167:1.0 3407:1.0 3891:1.0 4471:1.0 4595:1.0 4612:1.0 4612:1.0 4616:1.0 4616:1.0 4623:1.0 4623:1.0 4628:1.0 4628:1.0 4967:1.0 5285:1.0 
-0.0017927123755587461 -0.001412231010784967 132:1.0 543:1.0 877:1.0 877:1.0 877:1.0 890:1.0 890:1.0 890:1.0 1476:1.0 1820:1.0 2678:1.0 3173:1.0 3761:1.0 3886:1.0 3903:1.0 3903:1.0 3907:1.0 3907:1.0 3914:1.0 3914:1.0 3919:1.0 3919:1.0 4268:1.0 4594:1.0 4957:1.0 5286:1.0 5313:1.0 5318:1.0 
-0.002483509658831692 -0.0023144601635520026 243:1.0 543:1.0 877:1.0 877:1.0 890:1.0 890:1.0 1779:1.0 1821:1.0 2572:1.0 3178:1.0 3552:1.0 3885:1.0 3903:1.0 3903:1.0 3903:1.0 3907:1.0 3907:1.0 3907:1.0 4106:1.0 4600:1.0 5072:1.0 5286:1.0 
-0.002411443270303075 -0.0017398253600521285 243:1.0 543:1.0 877:1.0 877:1.0 877:1.0 890:1.0 890:1.0 890:1.0 1213:1.0 1831:1.0 2828:1.0 3167:1.0 3185:1.0 3185:1.0 3185:1.0 3189:1.0 3189:1.0 3189:1.0 3391:1.0 3891:1.0 4374:1.0 4595:1.0 4967:1.0 5285:1.0 
-0.0016494933751394062 -9.538387376821895E-4 182:1.0 392:1.0 623:1.0 623:1.0 623:1.0 623:1.0 636:1.0 636:1.0 636:1.0 636:1.0 1120:1.0 1385:1.0 1719:1.0 1719:1.0 1719:1.0 1732:1.0 1732:1.0 1732:1.0 2145:1.0 2668:1.0 3782:1.0 4010:1.0 4396:1.0 4727:1.0 5405:1.0 5442:1.0 5939:1.0 6128:1.0 6145:1.0 6149:1.0 6155:1.0 6155:1.0 6160:1.0 6160:1.0 
-7.09163514379492E-4 -0.0012896533774459566 182:1.0 392:1.0 623:1.0 623:1.0 623:1.0 623:1.0 636:1.0 636:1.0 636:1.0 636:1.0 1120:1.0 1385:1.0 1719:1.0 1719:1.0 1719:1.0 1719:1.0 1732:1.0 1732:1.0 1732:1.0 1732:1.0 2429:1.0 2663:1.0 3672:1.0 4009:1.0 4696:1.0 4733:1.0 5243:1.0 5437:1.0 5454:1.0 5458:1.0 5465:1.0 5465:1.0 5470:1.0 5470:1.0 5809:1.0 6127:1.0 
-8.635975944407985E-4 -6.506206184000085E-4 182:1.0 392:1.0 623:1.0 623:1.0 623:1.0 623:1.0 636:1.0 636:1.0 636:1.0 636:1.0 1120:1.0 1385:1.0 1719:1.0 1719:1.0 1719:1.0 1719:1.0 1719:1.0 1732:1.0 1732:1.0 1732:1.0 1732:1.0 1732:1.0 2318:1.0 2662:1.0 3977:1.0 4015:1.0 4531:1.0 4728:1.0 4745:1.0 4749:1.0 4756:1.0 4756:1.0 4761:1.0 4761:1.0 5110:1.0 5436:1.0 5679:1.0 6133:1.0 
-8.917701586299156E-4 -4.146396890602883E-4 139:1.0 320:1.0 499:1.0 499:1.0 499:1.0 499:1.0 499:1.0 499:1.0 512:1.0 512:1.0 512:1.0 512:1.0 512:1.0 512:1.0 685:1.0 685:1.0 685:1.0 685:1.0 699:1.0 699:1.0 699:1.0 699:1.0 765:1.0 1103:1.0 1820:1.0 2085:1.0 2419:1.0 2419:1.0 2419:1.0 2432:1.0 2432:1.0 2432:1.0 3184:1.0 3368:1.0 4438:1.0 4710:1.0 4777:1.0 5435:1.0 5968:1.0 6142:1.0 6416:1.0 6829:1.0 
-5.412382460939353E-4 -4.802272848226035E-4 139:1.0 320:1.0 499:1.0 499:1.0 499:1.0 499:1.0 499:1.0 499:1.0 512:1.0 512:1.0 512:1.0 512:1.0 512:1.0 512:1.0 685:1.0 685:1.0 685:1.0 685:1.0 699:1.0 699:1.0 699:1.0 699:1.0 765:1.0 1103:1.0 1820:1.0 2085:1.0 2419:1.0 2419:1.0 2419:1.0 2419:1.0 2432:1.0 2432:1.0 2432:1.0 2432:1.0 3084:1.0 3363:1.0 4043:1.0 4717:1.0 5257:1.0 5433:1.0 5715:1.0 6138:1.0 6321:1.0 6828:1.0 6845:1.0 6849:1.0 6855:1.0 6855:1.0 6860:1.0 6860:1.0 
-5.429814127443481E-4 -3.981970226205987E-4 139:1.0 320:1.0 499:1.0 499:1.0 499:1.0 499:1.0 499:1.0 499:1.0 512:1.0 512:1.0 512:1.0 512:1.0 512:1.0 512:1.0 685:1.0 685:1.0 685:1.0 685:1.0 699:1.0 699:1.0 699:1.0 699:1.0 765:1.0 1103:1.0 1820:1.0 2085:1.0 2419:1.0 2419:1.0 2419:1.0 2419:1.0 2419:1.0 2432:1.0 2432:1.0 2432:1.0 2432:1.0 2432:1.0 2684:1.0 3370:1.0 4535:1.0 4715:1.0 5001:1.0 5429:1.0 5617:1.0 6137:1.0 6154:1.0 6158:1.0 6165:1.0 6165:1.0 6170:1.0 6170:1.0 6267:1.0 6838:1.0 
