svm_type c_svc
kernel_type polynomial
degree 2
gamma 1.0
coef0 1.0
nr_class 3
total_sv 84
rho 0.8863251137536539 0.9702970061911643 0.5173232937329748
label 0 2 1
nr_sv 2 27 55
SV
0.0024304666748795486 0.0023981683963254174 35:1.0 314:1.0 499:1.0 512:1.0 685:1.0 699:1.0 786:1.0 1091:1.0 1323:1.0 1336:1.0 1527:1.0 1527:1.0 1541:1.0 1541:1.0 1954:1.0 2090:1.0 3282:1.0 3361:1.0 4030:1.0 4708:1.0 5006:1.0 5430:1.0 5660:1.0 6145:1.0 6700:1.0 6826:1.0 
0.00211925606381614 0.0018035680737398183 35:1.0 314:1.0 499:1.0 512:1.0 685:1.0 699:1.0 786:1.0 1091:1.0 1323:1.0 1336:1.0 1527:1.0 1527:1.0 1541:1.0 1541:1.0 1954:1.0 2090:1.0 2419:1.0 2432:1.0 2669:1.0 3361:1.0 4277:1.0 4712:1.0 4947:1.0 5436:1.0 6004:1.0 6135:1.0 6374:1.0 6835:1.0 
-0.0014831138299476192 0.0013452326480075181 35:1.0 314:1.0 499:1.0 512:1.0 685:1.0 699:1.0 786:1.0 1091:1.0 1323:1.0 1336:1.0 1527:1.0 1527:1.0 1541:1.0 1541:1.0 1954:1.0 2090:1.0 2419:1.0 2419:1.0 2432:1.0 2432:1.0 2923:1.0 3365:1.0 4217:1.0 4718:1.0 5294:1.0 5426:1.0 5670:1.0 6144:1.0 6378:1.0 6836:1.0 
-1.360509819075741E-4 0.0022252336488469675 9:1.0 314:1.0 685:1.0 685:1.0 699:1.0 699:1.0 1019:1.0 1095:1.0 1323:1.0 1323:1.0 1336:1.0 1336:1.0 1527:1.0 1527:1.0 1527:1.0 1541:1.0 1541:1.0 1541:1.0 2003:1.0 2090:1.0 2763:1.0 3364:1.0 3995:1.0 3995:1.0 4009:1.0 4009:1.0 4120:1.0 4716:1.0 4958:1.0 5429:1.0 5670:1.0 6144:1.0 6682:1.0 6828:1.0 
-4.0029825871247185E-4 0.0061221474457038225 283:1.0 395:1.0 1303:1.0 1390:1.0 2539:1.0 2665:1.0 3517:1.0 4018:1.0 4662:1.0 4726:1.0 5353:1.0 5438:1.0 5596:1.0 6127:1.0 
-0.0 0.0013458959398081087 224:1.0 314:1.0 1026:1.0 1095:1.0 1323:1.0 1323:1.0 1336:1.0 1336:1.0 1527:1.0 1541:1.0 2003:1.0 2090:1.0 3308:1.0 3365:1.0 3995:1.0 3995:1.0 4009:1.0 4009:1.0 4217:1.0 4718:1.0 5184:1.0 5426:1.0 6105:1.0 6137:1.0 6748:1.0 6837:1.0 
-1.2866851463680894E-4 0.003159195603102374 151:1.0 319:1.0 716:1.0 1099:1.0 2003:1.0 2090:1.0 3171:1.0 3365:1.0 3995:1.0 3995:1.0 4009:1.0 4009:1.0 4452:1.0 4717:1.0 4947:1.0 5436:1.0 5779:1.0 6142:1.0 6800:1.0 6835:1.0 
-3.366026739600728E-5 0.0010667136023183614 14:1.0 395:1.0 827:1.0 827:1.0 841:1.0 841:1.0 1303:1.0 1390:1.0 2567:1.0 2661:1.0 3295:1.0 3295:1.0 3295:1.0 3295:1.0 3295:1.0 3295:1.0 3309:1.0 3309:1.0 3309:1.0 3309:1.0 3309:1.0 3309:1.0 3635:1.0 4020:1.0 4177:1.0 4727:1.0 4771:1.0 5437:1.0 5922:1.0 6134:1.0 
-0.0 1.2058178519411908E-5 378:1.0 395:1.0 827:1.0 841:1.0 1303:1.0 1390:1.0 2634:1.0 2661:1.0 3295:1.0 3295:1.0 3295:1.0 3295:1.0 3309:1.0 3309:1.0 3309:1.0 3309:1.0 3600:1.0 4017:1.0 4261:1.0 4736:1.0 4870:1.0 5435:1.0 5596:1.0 6127:1.0 
-9.526079397319811E-5 0.0033342131878292365 378:1.0 395:1.0 827:1.0 841:1.0 1303:1.0 1390:1.0 2104:1.0 2665:1.0 3295:1.0 3309:1.0 3527:1.0 4017:1.0 4261:1.0 4736:1.0 5381:1.0 5435:1.0 5583:1.0 6129:1.0 
-2.2532178592818663E-4 0.0015742917381509534 205:1.0 314:1.0 499:1.0 499:1.0 512:1.0 512:1.0 685:1.0 699:1.0 824:1.0 1095:1.0 1323:1.0 1336:1.0 2003:1.0 2090:1.0 2955:1.0 3365:1.0 3995:1.0 3995:1.0 4009:1.0 4009:1.0 4055:1.0 4719:1.0 5176:1.0 5435:1.0 5674:1.0 6145:1.0 6447:1.0 6827:1.0 
-7.591289266505231E-5 0.0013398525183450426 267:1.0 314:1.0 499:1.0 512:1.0 685:1.0 699:1.0 950:1.0 1100:1.0 2003:1.0 2090:1.0 2894:1.0 3364:1.0 3995:1.0 3995:1.0 3995:1.0 3995:1.0 4009:1.0 4009:1.0 4009:1.0 4009:1.0 4335:1.0 4720:1.0 5091:1.0 5438:1.0 5591:1.0 6136:1.0 6724:1.0 6832:1.0 
-8.522925812314769E-5 2.5323512816468E-4 267:1.0 314:1.0 499:1.0 512:1.0 685:1.0 699:1.0 834:1.0 1094:1.0 1323:1.0 1323:1.0 1323:1.0 1336:1.0 1336:1.0 1336:1.0 1527:1.0 1527:1.0 1527:1.0 1527:1.0 1527:1.0 1527:1.0 1541:1.0 1541:1.0 1541:1.0 1541:1.0 1541:1.0 1541:1.0 2003:1.0 2090:1.0 2972:1.0 3365:1.0 3995:1.0 3995:1.0 3995:1.0 3995:1.0 3995:1.0 4009:1.0 4009:1.0 4009:1.0 4009:1.0 4009:1.0 4452:1.0 4717:1.0 4862:1.0 5426:1.0 6030:1.0 6137:1.0 6340:1.0 6830:1.0 
-2.8126956887230844E-5 0.0010483966479829681 14:1.0 395:1.0 623:1.0 623:1.0 636:1.0 636:1.0 827:1.0 841:1.0 1303:1.0 1390:1.0 2370:1.0 2665:1.0 3295:1.0 3295:1.0 3309:1.0 3309:1.0 3414:1.0 4017:1.0 4295:1.0 4726:1.0 5075:1.0 5447:1.0 6027:1.0 6129:1.0 
-4.420365971926313E-4 0.003721031781984198 133:1.0 314:1.0 499:1.0 512:1.0 685:1.0 699:1.0 950:1.0 1100:1.0 2003:1.0 2090:1.0 2703:1.0 3365:1.0 3995:1.0 4009:1.0 4300:1.0 4717:1.0 4828:1.0 5430:1.0 5823:1.0 6145:1.0 6759:1.0 6826:1.0 
-2.0366312161246197E-4 0.0023975867769084037 167:1.0 321:1.0 751:1.0 1099:1.0 1323:1.0 1336:1.0 2003:1.0 2090:1.0 3080:1.0 3361:1.0 3995:1.0 3995:1.0 3995:1.0 4009:1.0 4009:1.0 4009:1.0 4300:1.0 4717:1.0 4961:1.0 5436:1.0 6078:1.0 6140:1.0 6577:1.0 6831:1.0 
-1.604373736303327E-4 0.0033998519390615583 328:1.0 395:1.0 1303:1.0 1390:1.0 2355:1.0 2661:1.0 3295:1.0 3295:1.0 3295:1.0 3309:1.0 3309:1.0 3309:1.0 3600:1.0 4017:1.0 4251:1.0 4736:1.0 5388:1.0 5435:1.0 5744:1.0 6135:1.0 
-1.5682851165485355E-4 0.004541637971795234 73:1.0 395:1.0 827:1.0 841:1.0 1303:1.0 1390:1.0 2188:1.0 2665:1.0 3295:1.0 3309:1.0 3562:1.0 4008:1.0 4363:1.0 4738:1.0 5206:1.0 5438:1.0 5779:1.0 6138:1.0 
-3.6581739806033784E-5 0.0028490320223690745 34:1.0 395:1.0 827:1.0 827:1.0 841:1.0 841:1.0 1303:1.0 1390:1.0 2300:1.0 2665:1.0 3295:1.0 3309:1.0 3517:1.0 4018:1.0 4549:1.0 4726:1.0 5040:1.0 5444:1.0 6036:1.0 6126:1.0 
-1.7800473529335496E-4 0.003307422397060389 50:1.0 395:1.0 623:1.0 636:1.0 827:1.0 841:1.0 1303:1.0 1390:1.0 2374:1.0 2665:1.0 3527:1.0 4017:1.0 4460:1.0 4733:1.0 4967:1.0 5435:1.0 5511:1.0 6137:1.0 
-0.0 0.0010813079827176441 34:1.0 395:1.0 827:1.0 841:1.0 1303:1.0 1390:1.0 2317:1.0 2661:1.0 3295:1.0 3295:1.0 3295:1.0 3309:1.0 3309:1.0 3309:1.0 3600:1.0 4017:1.0 4247:1.0 4736:1.0 5117:1.0 5435:1.0 5596:1.0 6127:1.0 
-0.0 0.0034325779267524547 227:1.0 318:1.0 759:1.0 1099:1.0 2003:1.0 2090:1.0 2937:1.0 3365:1.0 3995:1.0 4009:1.0 4385:1.0 4718:1.0 5319:1.0 5426:1.0 5740:1.0 6144:1.0 6364:1.0 6836:1.0 
-1.5992228308295147E-5 0.0021413413262663856 50:1.0 395:1.0 623:1.0 636:1.0 827:1.0 841:1.0 1303:1.0 1390:1.0 2457:1.0 2665:1.0 3295:1.0 3309:1.0 3527:1.0 4017:1.0 4511:1.0 4736:1.0 5232:1.0 5435:1.0 5744:1.0 6135:1.0 
-7.67805183215719E-5 0.0031359304173517745 143:1.0 395:1.0 827:1.0 827:1.0 841:1.0 841:1.0 1303:1.0 1390:1.0 1999:1.0 2665:1.0 3295:1.0 3309:1.0 3787:1.0 4018:1.0 4272:1.0 4726:1.0 5040:1.0 5444:1.0 5871:1.0 6126:1.0 
-1.5622902920972136E-4 0.0025662243686593606 29:1.0 314:1.0 499:1.0 512:1.0 685:1.0 685:1.0 699:1.0 699:1.0 1001:1.0 1102:1.0 2003:1.0 2090:1.0 3093:1.0 3365:1.0 3995:1.0 4009:1.0 4227:1.0 4717:1.0 4947:1.0 5436:1.0 5733:1.0 6146:1.0 6623:1.0 6836:1.0 
-0.0 0.0014964448308162222 245:1.0 321:1.0 860:1.0 1100:1.0 2003:1.0 2090:1.0 2934:1.0 3365:1.0 3995:1.0 3995:1.0 4009:1.0 4009:1.0 4217:1.0 4718:1.0 4936:1.0 5426:1.0 5740:1.0 6144:1.0 6239:1.0 6831:1.0 
-7.494940799647632E-5 0.0028458781343375164 34:1.0 395:1.0 827:1.0 827:1.0 841:1.0 841:1.0 1303:1.0 1390:1.0 2050:1.0 2664:1.0 3295:1.0 3295:1.0 3309:1.0 3309:1.0 3900:1.0 4014:1.0 4377:1.0 4736:1.0 5196:1.0 5435:1.0 5612:1.0 6130:1.0 
-3.3799280002682876E-4 0.0024755283832626645 24:1.0 314:1.0 685:1.0 685:1.0 699:1.0 699:1.0 756:1.0 1094:1.0 1527:1.0 1527:1.0 1527:1.0 1541:1.0 1541:1.0 1541:1.0 2003:1.0 2090:1.0 2807:1.0 3365:1.0 3995:1.0 4009:1.0 4487:1.0 4718:1.0 4871:1.0 5429:1.0 5882:1.0 6135:1.0 6374:1.0 6835:1.0 
-1.858313546582933E-5 0.001330954734960759 14:1.0 395:1.0 827:1.0 827:1.0 841:1.0 841:1.0 1303:1.0 1390:1.0 2114:1.0 2661:1.0 3295:1.0 3295:1.0 3295:1.0 3295:1.0 3295:1.0 3309:1.0 3309:1.0 3309:1.0 3309:1.0 3309:1.0 3405:1.0 4017:1.0 4437:1.0 4730:1.0 4902:1.0 5445:1.0 5867:1.0 6126:1.0 
-4.1531701526151005E-5 -7.195879291627007E-4 14:1.0 395:1.0 827:1.0 827:1.0 841:1.0 841:1.0 1303:1.0 1390:1.0 2047:1.0 2670:1.0 3363:1.0 4012:1.0 4261:1.0 4728:1.0 4820:1.0 5443:1.0 6004:1.0 6130:1.0 
-1.9348874997367983E-5 -0.002326153023138428 14:1.0 395:1.0 827:1.0 827:1.0 841:1.0 841:1.0 1303:1.0 1390:1.0 2004:1.0 2665:1.0 3295:1.0 3309:1.0 3531:1.0 4010:1.0 4105:1.0 4734:1.0 5308:1.0 5439:1.0 5674:1.0 6135:1.0 
-0.0 -0.0015925656702573383 14:1.0 395:1.0 827:1.0 827:1.0 841:1.0 841:1.0 1303:1.0 1390:1.0 2004:1.0 2665:1.0 3114:1.0 3128:1.0 3295:1.0 3309:1.0 3372:1.0 4016:1.0 4598:1.0 4730:1.0 4970:1.0 5444:1.0 5827:1.0 6136:1.0 
-1.4990506084252924E-4 -3.4595848103271225E-4 9:1.0 314:1.0 685:1.0 685:1.0 699:1.0 699:1.0 1019:1.0 1095:1.0 1323:1.0 1323:1.0 1336:1.0 1336:1.0 1527:1.0 1527:1.0 1527:1.0 1541:1.0 1541:1.0 1541:1.0 2003:1.0 2090:1.0 2872:1.0 3370:1.0 4217:1.0 4718:1.0 4866:1.0 5430:1.0 6030:1.0 6141:1.0 6512:1.0 6830:1.0 
-1.266419265568483E-4 -0.0016712202475929483 9:1.0 314:1.0 685:1.0 685:1.0 699:1.0 699:1.0 1019:1.0 1095:1.0 1323:1.0 1323:1.0 1336:1.0 1336:1.0 1527:1.0 1527:1.0 1527:1.0 1541:1.0 1541:1.0 1541:1.0 2003:1.0 2090:1.0 2778:1.0 3365:1.0 3995:1.0 3995:1.0 4009:1.0 4009:1.0 4600:1.0 4714:1.0 5096:1.0 5430:1.0 5839:1.0 6145:1.0 6759:1.0 6826:1.0 
-6.837871536059104E-5 -7.399345838520291E-4 9:1.0 314:1.0 685:1.0 685:1.0 699:1.0 699:1.0 1019:1.0 1095:1.0 1323:1.0 1323:1.0 1336:1.0 1336:1.0 1527:1.0 1527:1.0 1527:1.0 1541:1.0 1541:1.0 1541:1.0 2003:1.0 2090:1.0 2778:1.0 3365:1.0 3814:1.0 3828:1.0 3995:1.0 3995:1.0 4009:1.0 4009:1.0 4368:1.0 4712:1.0 5128:1.0 5436:1.0 6065:1.0 6135:1.0 6646:1.0 6834:1.0 
-0.0 -8.270107507649666E-4 9:1.0 314:1.0 685:1.0 685:1.0 699:1.0 699:1.0 1019:1.0 1095:1.0 1323:1.0 1323:1.0 1336:1.0 1336:1.0 1527:1.0 1527:1.0 1527:1.0 1541:1.0 1541:1.0 1541:1.0 2003:1.0 2090:1.0 2778:1.0 3365:1.0 3814:1.0 3814:1.0 3828:1.0 3828:1.0 3995:1.0 3995:1.0 4009:1.0 4009:1.0 4511:1.0 4716:1.0 4853:1.0 5429:1.0 5567:1.0 6143:1.0 6375:1.0 6829:1.0 
-4.254681053677007E-4 -0.0013352781979386733 224:1.0 314:1.0 1026:1.0 1095:1.0 1323:1.0 1323:1.0 1336:1.0 1336:1.0 1527:1.0 1541:1.0 2003:1.0 2090:1.0 2703:1.0 3369:1.0 4300:1.0 4717:1.0 5374:1.0 5430:1.0 5660:1.0 6145:1.0 6596:1.0 6826:1.0 
-5.267028276546775E-5 -0.0012797900515159047 151:1.0 319:1.0 716:1.0 1099:1.0 2003:1.0 2090:1.0 2876:1.0 3371:1.0 4107:1.0 4708:1.0 5237:1.0 5429:1.0 5887:1.0 6144:1.0 6621:1.0 6826:1.0 
-0.0 -0.0011260936877114335 151:1.0 319:1.0 716:1.0 1099:1.0 2003:1.0 2090:1.0 2749:1.0 3361:1.0 3995:1.0 4009:1.0 4513:1.0 4711:1.0 5176:1.0 5435:1.0 5920:1.0 6135:1.0 6588:1.0 6835:1.0 
-0.0 -0.0016131360531957514 151:1.0 319:1.0 716:1.0 1099:1.0 2003:1.0 2090:1.0 2749:1.0 3361:1.0 3814:1.0 3828:1.0 3995:1.0 4009:1.0 4452:1.0 4717:1.0 5209:1.0 5426:1.0 5887:1.0 6144:1.0 6378:1.0 6836:1.0 
-0.0 -0.001544899977802473 151:1.0 319:1.0 716:1.0 1099:1.0 2003:1.0 2090:1.0 2749:1.0 3361:1.0 3814:1.0 3814:1.0 3828:1.0 3828:1.0 3995:1.0 4009:1.0 4452:1.0 4717:1.0 4961:1.0 5436:1.0 6078:1.0 6140:1.0 6577:1.0 6831:1.0 
-1.8332316092097155E-5 -4.051380480245456E-4 14:1.0 395:1.0 827:1.0 827:1.0 841:1.0 841:1.0 1303:1.0 1390:1.0 2016:1.0 2666:1.0 3786:1.0 4012:1.0 4476:1.0 4735:1.0 5075:1.0 5447:1.0 5664:1.0 6136:1.0 
-4.6155670769566E-5 -0.0032379937932970346 378:1.0 395:1.0 827:1.0 841:1.0 1303:1.0 1390:1.0 2282:1.0 2673:1.0 3517:1.0 4018:1.0 4700:1.0 4726:1.0 4886:1.0 5435:1.0 5990:1.0 6134:1.0 
-1.799560904281413E-5 -0.001228641225948891 378:1.0 395:1.0 827:1.0 841:1.0 1303:1.0 1390:1.0 2176:1.0 2671:1.0 3407:1.0 4008:1.0 4476:1.0 4735:1.0 5220:1.0 5435:1.0 5620:1.0 6129:1.0 
-1.3983975624698222E-5 -0.002890804486380094 378:1.0 395:1.0 827:1.0 841:1.0 1303:1.0 1390:1.0 2049:1.0 2661:1.0 3295:1.0 3309:1.0 3752:1.0 4017:1.0 4509:1.0 4726:1.0 4915:1.0 5438:1.0 5609:1.0 6130:1.0 
-2.571464509794177E-4 -6.840442555205821E-4 205:1.0 314:1.0 499:1.0 499:1.0 512:1.0 512:1.0 685:1.0 699:1.0 824:1.0 1095:1.0 1323:1.0 1336:1.0 2003:1.0 2090:1.0 2802:1.0 3371:1.0 4276:1.0 4708:1.0 4755:1.0 5428:1.0 5749:1.0 6139:1.0 6211:1.0 6837:1.0 
-3.17411088869475E-4 -0.0011338899661224781 205:1.0 314:1.0 499:1.0 499:1.0 512:1.0 512:1.0 685:1.0 699:1.0 824:1.0 1095:1.0 1323:1.0 1336:1.0 2003:1.0 2090:1.0 2922:1.0 3361:1.0 3995:1.0 4009:1.0 4021:1.0 4710:1.0 5037:1.0 5430:1.0 5503:1.0 6146:1.0 6588:1.0 6835:1.0 
-1.4863266200436379E-4 -0.0013275087904265662 267:1.0 314:1.0 499:1.0 512:1.0 685:1.0 699:1.0 950:1.0 1100:1.0 2003:1.0 2090:1.0 3032:1.0 3371:1.0 4437:1.0 4708:1.0 5003:1.0 5429:1.0 5740:1.0 6144:1.0 6307:1.0 6836:1.0 
-2.0184398249483535E-4 -0.0012429690708475108 267:1.0 314:1.0 499:1.0 512:1.0 685:1.0 699:1.0 950:1.0 1100:1.0 2003:1.0 2090:1.0 3084:1.0 3361:1.0 3995:1.0 4009:1.0 4274:1.0 4711:1.0 5028:1.0 5435:1.0 5602:1.0 6145:1.0 6693:1.0 6826:1.0 
-1.6524837983116652E-4 -0.0011241202229609261 267:1.0 314:1.0 499:1.0 512:1.0 685:1.0 699:1.0 950:1.0 1100:1.0 2003:1.0 2090:1.0 3084:1.0 3361:1.0 3814:1.0 3828:1.0 3995:1.0 4009:1.0 4300:1.0 4717:1.0 4888:1.0 5436:1.0 5996:1.0 6135:1.0 6588:1.0 6835:1.0 
-0.0 -2.760546966848703E-4 267:1.0 314:1.0 499:1.0 512:1.0 685:1.0 699:1.0 950:1.0 1100:1.0 2003:1.0 2090:1.0 3084:1.0 3361:1.0 3814:1.0 3814:1.0 3828:1.0 3828:1.0 3995:1.0 4009:1.0 4424:1.0 4716:1.0 5063:1.0 5438:1.0 5498:1.0 6146:1.0 6395:1.0 6829:1.0 
-2.3778469807456506E-4 -6.06293830793033E-4 267:1.0 314:1.0 499:1.0 512:1.0 685:1.0 699:1.0 834:1.0 1094:1.0 1323:1.0 1323:1.0 1323:1.0 1336:1.0 1336:1.0 1336:1.0 1527:1.0 1527:1.0 1527:1.0 1527:1.0 1527:1.0 1527:1.0 1541:1.0 1541:1.0 1541:1.0 1541:1.0 1541:1.0 1541:1.0 2003:1.0 2090:1.0 2982:1.0 3373:1.0 4217:1.0 4718:1.0 5036:1.0 5426:1.0 5889:1.0 6138:1.0 6542:1.0 6834:1.0 
-7.814518683281372E-6 -6.181864068317973E-4 14:1.0 395:1.0 623:1.0 623:1.0 636:1.0 636:1.0 827:1.0 841:1.0 1303:1.0 1390:1.0 2332:1.0 2671:1.0 3967:1.0 4008:1.0 4672:1.0 4729:1.0 4940:1.0 5443:1.0 5861:1.0 6130:1.0 
-1.0078278805597103E-5 -5.541527397909961E-4 14:1.0 395:1.0 623:1.0 623:1.0 636:1.0 636:1.0 827:1.0 841:1.0 1303:1.0 1390:1.0 2619:1.0 2661:1.0 3295:1.0 3309:1.0 3954:1.0 4011:1.0 4227:1.0 4734:1.0 5160:1.0 5439:1.0 5567:1.0 6135:1.0 
-0.0 -2.2615274418691E-4 14:1.0 395:1.0 623:1.0 623:1.0 636:1.0 636:1.0 827:1.0 841:1.0 1303:1.0 1390:1.0 2619:1.0 2661:1.0 3114:1.0 3128:1.0 3295:1.0 3309:1.0 3497:1.0 4016:1.0 4449:1.0 4730:1.0 4861:1.0 5444:1.0 5712:1.0 6126:1.0 
-1.50235394482358E-4 -0.0012895829364090524 133:1.0 314:1.0 499:1.0 512:1.0 685:1.0 699:1.0 950:1.0 1100:1.0 2003:1.0 2090:1.0 2660:1.0 3363:1.0 4062:1.0 4712:1.0 5028:1.0 5435:1.0 5543:1.0 6139:1.0 6527:1.0 6836:1.0 
-2.9220392387047686E-4 -0.0017965682981365475 167:1.0 321:1.0 751:1.0 1099:1.0 1323:1.0 1336:1.0 2003:1.0 2090:1.0 2716:1.0 3366:1.0 4511:1.0 4716:1.0 4947:1.0 5436:1.0 5869:1.0 6135:1.0 6444:1.0 6835:1.0 
-9.532625651761637E-5 -0.0014188495943378823 328:1.0 395:1.0 1303:1.0 1390:1.0 2161:1.0 2671:1.0 3466:1.0 4008:1.0 4328:1.0 4735:1.0 4979:1.0 5440:1.0 6100:1.0 6135:1.0 
-4.70228044546188E-5 -0.002729912873313465 328:1.0 395:1.0 1303:1.0 1390:1.0 2110:1.0 2661:1.0 3295:1.0 3309:1.0 3600:1.0 4017:1.0 4266:1.0 4731:1.0 5409:1.0 5444:1.0 5988:1.0 6130:1.0 
-3.688493066235037E-5 -8.397401397477724E-4 328:1.0 395:1.0 1303:1.0 1390:1.0 2110:1.0 2661:1.0 3114:1.0 3128:1.0 3295:1.0 3309:1.0 3981:1.0 4017:1.0 4579:1.0 4730:1.0 4771:1.0 5437:1.0 5567:1.0 6135:1.0 
-2.5347432344252897E-5 -6.136749803654756E-4 328:1.0 395:1.0 1303:1.0 1390:1.0 2110:1.0 2661:1.0 3114:1.0 3114:1.0 3128:1.0 3128:1.0 3295:1.0 3309:1.0 3811:1.0 4016:1.0 4338:1.0 4736:1.0 5146:1.0 5435:1.0 5744:1.0 6135:1.0 
-3.0254577276364117E-5 -0.0016465721725016534 73:1.0 395:1.0 827:1.0 841:1.0 1303:1.0 1390:1.0 2176:1.0 2671:1.0 3941:1.0 4008:1.0 4379:1.0 4729:1.0 5040:1.0 5444:1.0 5526:1.0 6126:1.0 
-0.0 -0.0015179485524528622 73:1.0 395:1.0 827:1.0 841:1.0 1303:1.0 1390:1.0 2592:1.0 2661:1.0 3295:1.0 3309:1.0 3651:1.0 4011:1.0 4328:1.0 4735:1.0 4819:1.0 5435:1.0 5807:1.0 6138:1.0 
-0.0 -0.0013647754798787562 73:1.0 395:1.0 827:1.0 841:1.0 1303:1.0 1390:1.0 2592:1.0 2661:1.0 3114:1.0 3128:1.0 3295:1.0 3309:1.0 3600:1.0 4017:1.0 4104:1.0 4726:1.0 5103:1.0 5447:1.0 5709:1.0 6126:1.0 
-3.084587459289357E-6 -3.531470929574711E-4 73:1.0 395:1.0 827:1.0 841:1.0 1303:1.0 1390:1.0 2592:1.0 2661:1.0 3114:1.0 3114:1.0 3128:1.0 3128:1.0 3295:1.0 3309:1.0 3663:1.0 4020:1.0 4292:1.0 4726:1.0 5040:1.0 5444:1.0 5827:1.0 6136:1.0 
-8.624500332188564E-7 -0.0 73:1.0 395:1.0 827:1.0 841:1.0 1303:1.0 1390:1.0 2592:1.0 2661:1.0 3114:1.0 3114:1.0 3114:1.0 3128:1.0 3128:1.0 3128:1.0 3295:1.0 3309:1.0 3543:1.0 4012:1.0 4291:1.0 4726:1.0 5075:1.0 5447:1.0 5907:1.0 6129:1.0 
-1.4787324616677969E-5 -0.0014010768382512187 34:1.0 395:1.0 827:1.0 827:1.0 841:1.0 841:1.0 1303:1.0 1390:1.0 2652:1.0 2664:1.0 3941:1.0 4008:1.0 4381:1.0 4730:1.0 4960:1.0 5445:1.0 5960:1.0 6126:1.0 
-0.0 -0.0016668169184366167 34:1.0 395:1.0 827:1.0 827:1.0 841:1.0 841:1.0 1303:1.0 1390:1.0 2592:1.0 2661:1.0 3295:1.0 3309:1.0 3653:1.0 4012:1.0 4247:1.0 4736:1.0 5260:1.0 5435:1.0 5744:1.0 6135:1.0 
-2.622426684273103E-5 -8.013915011072614E-4 34:1.0 395:1.0 827:1.0 841:1.0 1303:1.0 1390:1.0 2161:1.0 2671:1.0 3906:1.0 4008:1.0 4518:1.0 4729:1.0 5246:1.0 5443:1.0 5678:1.0 6136:1.0 
-1.5927349020811223E-5 -0.0012169703073863945 34:1.0 395:1.0 827:1.0 841:1.0 1303:1.0 1390:1.0 2555:1.0 2661:1.0 3295:1.0 3309:1.0 3794:1.0 4011:1.0 4535:1.0 4734:1.0 4974:1.0 5445:1.0 5814:1.0 6126:1.0 
-0.0 -0.0010530406998623455 34:1.0 395:1.0 827:1.0 841:1.0 1303:1.0 1390:1.0 2555:1.0 2661:1.0 3114:1.0 3128:1.0 3295:1.0 3309:1.0 3811:1.0 4016:1.0 4261:1.0 4736:1.0 5110:1.0 5435:1.0 5744:1.0 6135:1.0 
-1.2766026719658146E-4 -0.0017170319506364616 227:1.0 318:1.0 759:1.0 1099:1.0 2003:1.0 2090:1.0 2660:1.0 3363:1.0 4291:1.0 4712:1.0 5112:1.0 5436:1.0 6029:1.0 6135:1.0 6444:1.0 6835:1.0 
-4.80628345618667E-5 -0.0015435779613619343 50:1.0 395:1.0 623:1.0 636:1.0 827:1.0 841:1.0 1303:1.0 1390:1.0 2260:1.0 2669:1.0 3808:1.0 4012:1.0 4257:1.0 4735:1.0 5222:1.0 5445:1.0 5933:1.0 6126:1.0 
-7.419921584730968E-6 -6.726248746362432E-4 143:1.0 395:1.0 827:1.0 827:1.0 841:1.0 841:1.0 1303:1.0 1390:1.0 2332:1.0 2671:1.0 3571:1.0 4008:1.0 4091:1.0 4730:1.0 5222:1.0 5445:1.0 5689:1.0 6126:1.0 
-0.0 -0.0020446448161952823 143:1.0 395:1.0 827:1.0 827:1.0 841:1.0 841:1.0 1303:1.0 1390:1.0 2216:1.0 2661:1.0 3295:1.0 3309:1.0 3358:1.0 4012:1.0 4511:1.0 4736:1.0 4985:1.0 5435:1.0 5744:1.0 6135:1.0 
-3.8097477786145654E-5 -6.781935860455693E-4 29:1.0 314:1.0 499:1.0 512:1.0 685:1.0 685:1.0 699:1.0 699:1.0 1001:1.0 1102:1.0 2003:1.0 2090:1.0 3032:1.0 3371:1.0 4404:1.0 4708:1.0 5003:1.0 5429:1.0 5596:1.0 6138:1.0 6582:1.0 6830:1.0 
-1.0295684506091927E-4 -0.0012101019826654372 29:1.0 314:1.0 499:1.0 512:1.0 685:1.0 685:1.0 699:1.0 699:1.0 1001:1.0 1102:1.0 2003:1.0 2090:1.0 3051:1.0 3361:1.0 3995:1.0 4009:1.0 4274:1.0 4711:1.0 4882:1.0 5429:1.0 5881:1.0 6139:1.0 6374:1.0 6835:1.0 
-0.0 -8.627172764352665E-4 29:1.0 314:1.0 499:1.0 512:1.0 685:1.0 685:1.0 699:1.0 699:1.0 1001:1.0 1102:1.0 2003:1.0 2090:1.0 3051:1.0 3361:1.0 3814:1.0 3828:1.0 3995:1.0 4009:1.0 4152:1.0 4711:1.0 5170:1.0 5430:1.0 5670:1.0 6144:1.0 6364:1.0 6836:1.0 
-1.1624346181850373E-4 -0.0 29:1.0 314:1.0 499:1.0 512:1.0 685:1.0 685:1.0 699:1.0 699:1.0 1001:1.0 1102:1.0 2003:1.0 2090:1.0 3051:1.0 3361:1.0 3814:1.0 3814:1.0 3828:1.0 3828:1.0 3995:1.0 4009:1.0 4446:1.0 4712:1.0 4957:1.0 5435:1.0 5660:1.0 6145:1.0 6437:1.0 6837:1.0 
-1.348496152572094E-4 -0.001659925233518375 245:1.0 321:1.0 860:1.0 1100:1.0 2003:1.0 2090:1.0 2938:1.0 3366:1.0 4021:1.0 4710:1.0 5016:1.0 5430:1.0 5660:1.0 6145:1.0 6353:1.0 6826:1.0 
-1.9653570613996398E-5 -2.853184876319017E-4 34:1.0 395:1.0 827:1.0 827:1.0 841:1.0 841:1.0 1303:1.0 1390:1.0 2282:1.0 2673:1.0 3634:1.0 4012:1.0 4140:1.0 4729:1.0 5330:1.0 5441:1.0 5793:1.0 6136:1.0 
-2.8714215280181867E-4 -5.664020377583141E-4 24:1.0 314:1.0 685:1.0 685:1.0 699:1.0 699:1.0 756:1.0 1094:1.0 1527:1.0 1527:1.0 1527:1.0 1541:1.0 1541:1.0 1541:1.0 2003:1.0 2090:1.0 2996:1.0 3371:1.0 4461:1.0 4708:1.0 4893:1.0 5430:1.0 5922:1.0 6145:1.0 6290:1.0 6829:1.0 
-2.5351760321293715E-4 -0.0010998064894689789 24:1.0 314:1.0 685:1.0 685:1.0 699:1.0 699:1.0 756:1.0 1094:1.0 1527:1.0 1527:1.0 1527:1.0 1541:1.0 1541:1.0 1541:1.0 2003:1.0 2090:1.0 3108:1.0 3361:1.0 3995:1.0 4009:1.0 4163:1.0 4712:1.0 5211:1.0 5436:1.0 5585:1.0 6138:1.0 6583:1.0 6826:1.0 
-1.599123901227332E-6 -8.212252678029499E-4 14:1.0 395:1.0 827:1.0 827:1.0 841:1.0 841:1.0 1303:1.0 1390:1.0 2282:1.0 2673:1.0 3531:1.0 4018:1.0 4684:1.0 4729:1.0 4963:1.0 5435:1.0 5839:1.0 6130:1.0 
