svm_type c_svc
kernel_type polynomial
degree 2
gamma 1.0
coef0 1.0
nr_class 3
total_sv 156
rho -0.3833433036165516 -0.5386800965324479 -0.21386728564272633
label 0 1 2
nr_sv 69 50 37
SV
2.943069154646965E-4 3.8168001493841267E-4 18670:1.0 22624:1.0 48593:1.0 48593:1.0 48593:1.0 48611:1.0 48611:1.0 48611:1.0 59154:1.0 76260:1.0 108750:1.0 108768:1.0 116227:1.0 145374:1.0 196847:1.0 217091:1.0 236706:1.0 253864:1.0 274734:1.0 289783:1.0 323524:1.0 324904:1.0 
8.179842998932735E-4 7.199047995271441E-4 18670:1.0 22624:1.0 48593:1.0 48593:1.0 48593:1.0 48611:1.0 48611:1.0 48611:1.0 59154:1.0 76260:1.0 98671:1.0 98688:1.0 108750:1.0 108768:1.0 124796:1.0 145386:1.0 199639:1.0 217091:1.0 238549:1.0 253858:1.0 288385:1.0 289785:1.0 309550:1.0 324894:1.0 
0.0017622564935958855 0.0016423600605866568 124:1.0 27648:1.0 60138:1.0 60138:1.0 60156:1.0 60156:1.0 67685:1.0 96768:1.0 162088:1.0 168467:1.0 180974:1.0 205252:1.0 223559:1.0 241177:1.0 
6.498670060615145E-4 0.0017960506975153276 124:1.0 27648:1.0 50059:1.0 50076:1.0 60138:1.0 60138:1.0 60156:1.0 60156:1.0 90273:1.0 96762:1.0 143792:1.0 168479:1.0 187319:1.0 205252:1.0 
4.100490996001954E-4 0.0 124:1.0 27648:1.0 50059:1.0 50059:1.0 50059:1.0 50076:1.0 50076:1.0 50076:1.0 60138:1.0 60138:1.0 60156:1.0 60156:1.0 78218:1.0 96774:1.0 
0.002450412602368289 7.602970926255186E-4 3333:1.0 27648:1.0 79019:1.0 96774:1.0 162857:1.0 168477:1.0 203046:1.0 205243:1.0 231406:1.0 241173:1.0 269552:1.0 276294:1.0 
6.96574742150252E-4 6.680122087941592E-4 14121:1.0 22625:1.0 48593:1.0 48611:1.0 73401:1.0 76260:1.0 108750:1.0 108750:1.0 108768:1.0 108768:1.0 120273:1.0 145386:1.0 198852:1.0 217091:1.0 241166:1.0 253861:1.0 262932:1.0 289787:1.0 323388:1.0 324894:1.0 
0.0010710987551678045 0.0012030452891007926 14121:1.0 22625:1.0 48593:1.0 48611:1.0 73401:1.0 76260:1.0 98671:1.0 98688:1.0 108750:1.0 108750:1.0 108768:1.0 108768:1.0 126830:1.0 145386:1.0 204180:1.0 217088:1.0 226501:1.0 253862:1.0 288247:1.0 289775:1.0 312641:1.0 324905:1.0 
0.0024478776742123086 0.0019787872430941074 11201:1.0 22633:1.0 64420:1.0 76260:1.0 127631:1.0 145386:1.0 213364:1.0 217090:1.0 246982:1.0 253862:1.0 257967:1.0 289775:1.0 307594:1.0 324908:1.0 
1.662670657467843E-4 9.04258243431134E-5 19180:1.0 19458:1.0 33683:1.0 33683:1.0 33700:1.0 33700:1.0 42437:1.0 42437:1.0 42455:1.0 42455:1.0 43358:1.0 65085:1.0 81564:1.0 81564:1.0 81581:1.0 81581:1.0 91049:1.0 91049:1.0 91049:1.0 91049:1.0 91049:1.0 91049:1.0 91067:1.0 91067:1.0 91067:1.0 91067:1.0 91067:1.0 91067:1.0 117664:1.0 118716:1.0 151206:1.0 151224:1.0 179447:1.0 187832:1.0 248505:1.0 259547:1.0 
0.0022189796069542527 0.0015953353748217282 2630:1.0 22622:1.0 63495:1.0 76260:1.0 127631:1.0 145386:1.0 186121:1.0 217081:1.0 239333:1.0 253860:1.0 286646:1.0 289775:1.0 305791:1.0 324905:1.0 
0.005243440754987102 0.011003626262492988 23296:1.0 27648:1.0 84011:1.0 96762:1.0 138695:1.0 168479:1.0 
0.003209634533375481 0.0035988970296888813 23296:1.0 27648:1.0 50059:1.0 50076:1.0 66479:1.0 96774:1.0 
0.0022099291531365185 0.001978913853871227 18553:1.0 22633:1.0 56087:1.0 76260:1.0 127631:1.0 145386:1.0 207763:1.0 217081:1.0 226053:1.0 253853:1.0 288518:1.0 289781:1.0 306310:1.0 324906:1.0 
0.0013427095840922018 6.685190676904669E-4 8656:1.0 27648:1.0 79019:1.0 96774:1.0 156622:1.0 168472:1.0 185453:1.0 205249:1.0 218484:1.0 241175:1.0 258091:1.0 276289:1.0 
0.009783207309783193 0.006637486158362854 8656:1.0 27648:1.0 79019:1.0 96774:1.0 136990:1.0 168472:1.0 175965:1.0 205252:1.0 
0.0010166467561798205 6.718737336242979E-4 8656:1.0 27648:1.0 79019:1.0 96774:1.0 156622:1.0 168472:1.0 185453:1.0 205249:1.0 217105:1.0 241175:1.0 258612:1.0 276289:1.0 
0.027446996897711403 0.014741641978494558 10234:1.0 27648:1.0 71661:1.0 96774:1.0 
0.002283159843615814 9.81177092611213E-4 16471:1.0 19466:1.0 53563:1.0 65089:1.0 108239:1.0 118716:1.0 170087:1.0 187842:1.0 237550:1.0 259537:1.0 279162:1.0 296320:1.0 327486:1.0 332235:1.0 362447:1.0 367363:1.0 
0.0023763093820454444 0.0015505605174462955 11201:1.0 22633:1.0 58676:1.0 76260:1.0 108750:1.0 108768:1.0 120273:1.0 145386:1.0 203983:1.0 217085:1.0 230574:1.0 253863:1.0 255598:1.0 289779:1.0 305926:1.0 324904:1.0 
1.7263207056938E-4 9.160329350159237E-4 7420:1.0 19453:1.0 33683:1.0 33683:1.0 33683:1.0 33700:1.0 33700:1.0 33700:1.0 42437:1.0 42437:1.0 42455:1.0 42455:1.0 62102:1.0 65075:1.0 91049:1.0 91067:1.0 117064:1.0 118716:1.0 151206:1.0 151224:1.0 170087:1.0 187842:1.0 234005:1.0 259533:1.0 279162:1.0 296320:1.0 300189:1.0 332242:1.0 347128:1.0 367350:1.0 
0.0019275804273722382 0.001282076298675794 11201:1.0 22633:1.0 56087:1.0 76260:1.0 127631:1.0 145386:1.0 201512:1.0 217085:1.0 249024:1.0 253858:1.0 286174:1.0 289788:1.0 323524:1.0 324904:1.0 
6.190088675128741E-4 3.1516331609378106E-4 9627:1.0 19466:1.0 50590:1.0 65080:1.0 91049:1.0 91049:1.0 91049:1.0 91049:1.0 91049:1.0 91067:1.0 91067:1.0 91067:1.0 91067:1.0 91067:1.0 114105:1.0 118716:1.0 151206:1.0 151206:1.0 151224:1.0 151224:1.0 176606:1.0 187842:1.0 242095:1.0 259547:1.0 276086:1.0 296314:1.0 320853:1.0 332241:1.0 348247:1.0 367361:1.0 
3.6728587558598774E-4 8.914415501491812E-4 4185:1.0 19458:1.0 33683:1.0 33700:1.0 42437:1.0 42437:1.0 42455:1.0 42455:1.0 61959:1.0 65083:1.0 105042:1.0 118716:1.0 151206:1.0 151206:1.0 151224:1.0 151224:1.0 162729:1.0 187842:1.0 242095:1.0 259547:1.0 292857:1.0 296312:1.0 327486:1.0 332239:1.0 340164:1.0 367360:1.0 
5.260936070300665E-4 8.582241809210714E-4 4185:1.0 19458:1.0 33683:1.0 33700:1.0 42437:1.0 42437:1.0 42455:1.0 42455:1.0 61959:1.0 65083:1.0 105042:1.0 118716:1.0 141127:1.0 141144:1.0 151206:1.0 151206:1.0 151224:1.0 151224:1.0 170087:1.0 187842:1.0 256029:1.0 259539:1.0 291480:1.0 296314:1.0 304578:1.0 332241:1.0 344462:1.0 367357:1.0 
2.0174114323720304E-5 0.0 11039:1.0 19458:1.0 42437:1.0 42437:1.0 42455:1.0 42455:1.0 60647:1.0 65075:1.0 81564:1.0 81581:1.0 91049:1.0 91049:1.0 91067:1.0 91067:1.0 108786:1.0 118716:1.0 151206:1.0 151224:1.0 170087:1.0 187842:1.0 241308:1.0 259547:1.0 288619:1.0 296312:1.0 323050:1.0 332244:1.0 339112:1.0 367364:1.0 
0.0011538077291727167 5.735591425646198E-4 11039:1.0 19458:1.0 42437:1.0 42437:1.0 42455:1.0 42455:1.0 60647:1.0 65075:1.0 81564:1.0 81581:1.0 91049:1.0 91049:1.0 91067:1.0 91067:1.0 108786:1.0 118716:1.0 141127:1.0 141144:1.0 151206:1.0 151224:1.0 169286:1.0 187842:1.0 251718:1.0 259539:1.0 286966:1.0 296319:1.0 303510:1.0 332245:1.0 
0.003354018688239612 0.0014279151708816037 9627:1.0 19466:1.0 53657:1.0 65089:1.0 104043:1.0 118716:1.0 170087:1.0 187842:1.0 249590:1.0 259537:1.0 286379:1.0 296316:1.0 321514:1.0 332243:1.0 342903:1.0 367350:1.0 
0.007945789316118343 0.0018753949312373447 21439:1.0 27648:1.0 79019:1.0 96774:1.0 153459:1.0 168467:1.0 175965:1.0 205252:1.0 
0.001419961078590685 0.007666339077150662 21439:1.0 27648:1.0 50059:1.0 50076:1.0 81479:1.0 96762:1.0 138695:1.0 168479:1.0 
0.001041992107068357 0.0 21439:1.0 27648:1.0 50059:1.0 50059:1.0 50076:1.0 50076:1.0 66479:1.0 96774:1.0 
0.0015093718689593155 0.0013806045003501347 14599:1.0 22623:1.0 48593:1.0 48593:1.0 48593:1.0 48611:1.0 48611:1.0 48611:1.0 71908:1.0 76260:1.0 108750:1.0 108768:1.0 138126:1.0 145374:1.0 187307:1.0 217091:1.0 
0.0011173722947006605 0.0010271332900548152 6643:1.0 19458:1.0 33683:1.0 33683:1.0 33683:1.0 33683:1.0 33700:1.0 33700:1.0 33700:1.0 33700:1.0 42437:1.0 42455:1.0 63010:1.0 65075:1.0 91049:1.0 91049:1.0 91049:1.0 91067:1.0 91067:1.0 91067:1.0 117064:1.0 118716:1.0 151206:1.0 151224:1.0 167252:1.0 187842:1.0 236046:1.0 259545:1.0 290500:1.0 296306:1.0 312795:1.0 332242:1.0 343073:1.0 367350:1.0 
0.002284377753117509 0.0014193918560193922 16772:1.0 19460:1.0 53563:1.0 65089:1.0 91365:1.0 118716:1.0 170087:1.0 187842:1.0 251606:1.0 259537:1.0 286320:1.0 296316:1.0 331782:1.0 332237:1.0 345057:1.0 367362:1.0 
2.6641379893915936E-4 2.177701422434432E-4 2814:1.0 19456:1.0 33683:1.0 33700:1.0 42437:1.0 42455:1.0 51468:1.0 65081:1.0 81564:1.0 81581:1.0 91049:1.0 91049:1.0 91067:1.0 91067:1.0 101302:1.0 118716:1.0 151206:1.0 151206:1.0 151224:1.0 151224:1.0 169147:1.0 187842:1.0 229763:1.0 259547:1.0 
0.0032944911759462763 0.002336416605459716 15808:1.0 27648:1.0 50059:1.0 50076:1.0 60138:1.0 60138:1.0 60156:1.0 60156:1.0 71836:1.0 96762:1.0 161304:1.0 168479:1.0 175965:1.0 205252:1.0 
3.02305990804755E-4 8.112670262078836E-4 188:1.0 22628:1.0 48593:1.0 48611:1.0 63495:1.0 76260:1.0 108750:1.0 108768:1.0 127631:1.0 145386:1.0 203492:1.0 217083:1.0 249024:1.0 253858:1.0 289071:1.0 289781:1.0 312641:1.0 324905:1.0 
6.655507572951966E-4 0.0010324911360033448 188:1.0 22628:1.0 48593:1.0 48611:1.0 63495:1.0 76260:1.0 108750:1.0 108768:1.0 127631:1.0 145386:1.0 182737:1.0 217083:1.0 249024:1.0 253858:1.0 280018:1.0 289785:1.0 295685:1.0 324899:1.0 
0.0024884955209022353 0.0015718702760589382 11107:1.0 22633:1.0 56087:1.0 76260:1.0 127631:1.0 145386:1.0 183985:1.0 217087:1.0 236136:1.0 253860:1.0 284457:1.0 289788:1.0 302991:1.0 324899:1.0 
3.309484170916308E-4 2.7931021327651413E-4 16437:1.0 19458:1.0 33683:1.0 33683:1.0 33683:1.0 33683:1.0 33683:1.0 33700:1.0 33700:1.0 33700:1.0 33700:1.0 33700:1.0 42437:1.0 42437:1.0 42437:1.0 42437:1.0 42437:1.0 42437:1.0 42455:1.0 42455:1.0 42455:1.0 42455:1.0 42455:1.0 42455:1.0 55079:1.0 65081:1.0 81564:1.0 81581:1.0 91049:1.0 91067:1.0 114364:1.0 118716:1.0 151206:1.0 151224:1.0 181618:1.0 187833:1.0 247404:1.0 259535:1.0 272042:1.0 296320:1.0 315389:1.0 332245:1.0 344885:1.0 367363:1.0 
4.05726688946036E-4 4.256459989566298E-4 16437:1.0 19458:1.0 33683:1.0 33683:1.0 33683:1.0 33683:1.0 33683:1.0 33700:1.0 33700:1.0 33700:1.0 33700:1.0 33700:1.0 42437:1.0 42437:1.0 42437:1.0 42437:1.0 42437:1.0 42437:1.0 42455:1.0 42455:1.0 42455:1.0 42455:1.0 42455:1.0 42455:1.0 55079:1.0 65081:1.0 81564:1.0 81581:1.0 91049:1.0 91067:1.0 114364:1.0 118716:1.0 141127:1.0 141144:1.0 151206:1.0 151224:1.0 175482:1.0 187830:1.0 234860:1.0 259547:1.0 279162:1.0 296320:1.0 309380:1.0 332244:1.0 365980:1.0 367360:1.0 
7.672051409272688E-5 3.4905985477581684E-4 16437:1.0 19458:1.0 33683:1.0 33683:1.0 33683:1.0 33683:1.0 33683:1.0 33700:1.0 33700:1.0 33700:1.0 33700:1.0 33700:1.0 42437:1.0 42437:1.0 42437:1.0 42437:1.0 42437:1.0 42437:1.0 42455:1.0 42455:1.0 42455:1.0 42455:1.0 42455:1.0 42455:1.0 55079:1.0 65081:1.0 81564:1.0 81581:1.0 91049:1.0 91067:1.0 114364:1.0 118716:1.0 141127:1.0 141127:1.0 141144:1.0 141144:1.0 151206:1.0 151224:1.0 162729:1.0 187842:1.0 242095:1.0 259547:1.0 273030:1.0 296319:1.0 330841:1.0 332241:1.0 362145:1.0 367354:1.0 
5.713524977841795E-4 4.083846058245995E-4 16437:1.0 19458:1.0 33683:1.0 33683:1.0 33683:1.0 33683:1.0 33683:1.0 33700:1.0 33700:1.0 33700:1.0 33700:1.0 33700:1.0 42437:1.0 42437:1.0 42437:1.0 42437:1.0 42437:1.0 42437:1.0 42455:1.0 42455:1.0 42455:1.0 42455:1.0 42455:1.0 42455:1.0 55079:1.0 65081:1.0 81564:1.0 81581:1.0 91049:1.0 91067:1.0 114364:1.0 118716:1.0 141127:1.0 141127:1.0 141127:1.0 141144:1.0 141144:1.0 141144:1.0 151206:1.0 151224:1.0 170087:1.0 187842:1.0 235865:1.0 259546:1.0 294888:1.0 296316:1.0 326935:1.0 332235:1.0 339112:1.0 367364:1.0 
7.877228699272709E-4 3.2893383187390565E-4 2379:1.0 19453:1.0 33683:1.0 33683:1.0 33683:1.0 33683:1.0 33683:1.0 33683:1.0 33700:1.0 33700:1.0 33700:1.0 33700:1.0 33700:1.0 33700:1.0 42437:1.0 42455:1.0 53563:1.0 65089:1.0 99761:1.0 118716:1.0 170087:1.0 187842:1.0 250556:1.0 259537:1.0 281615:1.0 296316:1.0 308893:1.0 332242:1.0 362141:1.0 367356:1.0 
0.00909967378085299 0.017113216930592784 26596:1.0 27648:1.0 88379:1.0 96764:1.0 138695:1.0 168479:1.0 
0.0017152792504334907 0.0012519881889215816 26596:1.0 27648:1.0 50059:1.0 50076:1.0 66479:1.0 96774:1.0 
0.0037479989139596655 0.0012603708566010859 7475:1.0 27648:1.0 79019:1.0 96774:1.0 167146:1.0 168476:1.0 180728:1.0 205250:1.0 221134:1.0 241163:1.0 257179:1.0 276293:1.0 
0.004704829414239739 0.0027655215958735336 7475:1.0 27648:1.0 50059:1.0 50076:1.0 95419:1.0 96771:1.0 143541:1.0 168477:1.0 184850:1.0 205238:1.0 221727:1.0 241174:1.0 260879:1.0 276294:1.0 
0.0074597924972850645 0.004757782192612758 7475:1.0 27648:1.0 50059:1.0 50059:1.0 50076:1.0 50076:1.0 75675:1.0 96760:1.0 124770:1.0 124788:1.0 132464:1.0 132482:1.0 138695:1.0 168479:1.0 
0.004353854142625089 0.0018888666932272847 7475:1.0 27648:1.0 80775:1.0 96770:1.0 124770:1.0 124770:1.0 124770:1.0 124770:1.0 124770:1.0 124770:1.0 124788:1.0 124788:1.0 124788:1.0 124788:1.0 124788:1.0 124788:1.0 132464:1.0 132482:1.0 138695:1.0 168479:1.0 
0.017684102243666934 0.004174233682240304 7475:1.0 27648:1.0 50059:1.0 50076:1.0 66479:1.0 96774:1.0 
0.002464233527128619 6.48864659026642E-4 3664:1.0 27648:1.0 79019:1.0 96774:1.0 145415:1.0 168469:1.0 192011:1.0 205242:1.0 217481:1.0 241169:1.0 249162:1.0 276290:1.0 
0.002921037845739637 6.392441840677716E-4 21602:1.0 27648:1.0 79019:1.0 96774:1.0 145415:1.0 168469:1.0 196403:1.0 205242:1.0 228821:1.0 241173:1.0 275347:1.0 276288:1.0 
0.005538306345334411 0.0026864683425072942 20495:1.0 27648:1.0 76302:1.0 96771:1.0 135426:1.0 168469:1.0 195311:1.0 205248:1.0 229178:1.0 241168:1.0 248044:1.0 276296:1.0 
0.006566558627697504 0.0027861068213148707 20495:1.0 27648:1.0 50059:1.0 50076:1.0 63154:1.0 96764:1.0 158375:1.0 168475:1.0 193035:1.0 205243:1.0 212442:1.0 241177:1.0 
0.004211657156965059 0.007735875768604931 20495:1.0 27648:1.0 50059:1.0 50059:1.0 50076:1.0 50076:1.0 84135:1.0 96765:1.0 132464:1.0 132482:1.0 138695:1.0 168479:1.0 
8.560642921866759E-4 0.0 20495:1.0 27648:1.0 50059:1.0 50059:1.0 50059:1.0 50076:1.0 50076:1.0 50076:1.0 66479:1.0 96774:1.0 
0.007940830198901416 0.001881311249571868 1262:1.0 27648:1.0 79019:1.0 96774:1.0 134129:1.0 168467:1.0 175965:1.0 205252:1.0 
0.0014169101963565772 0.007655827672641838 1262:1.0 27648:1.0 50059:1.0 50076:1.0 61832:1.0 96762:1.0 138695:1.0 168479:1.0 
0.0010611478079961202 0.0 1262:1.0 27648:1.0 50059:1.0 50059:1.0 50076:1.0 50076:1.0 66479:1.0 96774:1.0 
0.0022642554824243706 6.723832927871937E-4 23989:1.0 27648:1.0 79019:1.0 96774:1.0 161482:1.0 168477:1.0 170178:1.0 205247:1.0 211522:1.0 241163:1.0 273008:1.0 276292:1.0 
0.0020076398236826914 2.4727309355671354E-4 7475:1.0 27648:1.0 79019:1.0 96774:1.0 152900:1.0 168473:1.0 170178:1.0 205247:1.0 233914:1.0 241163:1.0 275738:1.0 276287:1.0 
0.003722184993340191 0.0017005571860740551 9627:1.0 19466:1.0 53657:1.0 65089:1.0 104462:1.0 118716:1.0 170087:1.0 187842:1.0 241348:1.0 259547:1.0 292650:1.0 296319:1.0 319239:1.0 332235:1.0 342134:1.0 367354:1.0 
0.003125684053519914 2.524976720521464E-4 7475:1.0 27648:1.0 79019:1.0 96774:1.0 158375:1.0 168475:1.0 194327:1.0 205250:1.0 208663:1.0 241168:1.0 260386:1.0 276282:1.0 
0.0012495088195893025 7.746583891687366E-4 11497:1.0 19467:1.0 53682:1.0 65089:1.0 101292:1.0 118716:1.0 170087:1.0 187842:1.0 245871:1.0 259535:1.0 279162:1.0 296320:1.0 304645:1.0 332239:1.0 358811:1.0 367354:1.0 
0.0032084328901679153 0.0016983258291960225 11497:1.0 19467:1.0 53682:1.0 65089:1.0 101292:1.0 118716:1.0 141127:1.0 141144:1.0 173921:1.0 187830:1.0 242095:1.0 259547:1.0 268192:1.0 296314:1.0 323549:1.0 332235:1.0 363286:1.0 367356:1.0 
0.003349052808441137 0.0010954968258600334 11497:1.0 19467:1.0 53682:1.0 65089:1.0 101292:1.0 118716:1.0 141127:1.0 141127:1.0 141144:1.0 141144:1.0 170087:1.0 187842:1.0 230948:1.0 259541:1.0 287471:1.0 296310:1.0 328095:1.0 332237:1.0 360820:1.0 367350:1.0 
0.001273167816631642 0.0 17610:1.0 19453:1.0 42437:1.0 42455:1.0 54866:1.0 65081:1.0 81564:1.0 81564:1.0 81581:1.0 81581:1.0 91049:1.0 91049:1.0 91049:1.0 91049:1.0 91067:1.0 91067:1.0 91067:1.0 91067:1.0 106786:1.0 118716:1.0 186487:1.0 187839:1.0 234883:1.0 259545:1.0 289399:1.0 296306:1.0 314492:1.0 332245:1.0 339112:1.0 367364:1.0 
0.0021971253471726637 0.001152254904370265 17610:1.0 19453:1.0 42437:1.0 42455:1.0 54866:1.0 65081:1.0 81564:1.0 81564:1.0 81581:1.0 81581:1.0 91049:1.0 91049:1.0 91049:1.0 91049:1.0 91067:1.0 91067:1.0 91067:1.0 91067:1.0 106786:1.0 118716:1.0 141127:1.0 141144:1.0 180686:1.0 187828:1.0 223532:1.0 223550:1.0 241170:1.0 259547:1.0 267033:1.0 296320:1.0 
-0.004595709835011104 0.0026686632939773506 3333:1.0 27648:1.0 50059:1.0 50076:1.0 91058:1.0 96772:1.0 166235:1.0 168470:1.0 195311:1.0 205248:1.0 234313:1.0 241175:1.0 266831:1.0 276286:1.0 
-0.004168316903403691 0.0034440558338153945 3333:1.0 27648:1.0 50059:1.0 50076:1.0 94491:1.0 96765:1.0 132464:1.0 132482:1.0 158375:1.0 168475:1.0 198266:1.0 205250:1.0 231549:1.0 241167:1.0 248044:1.0 276296:1.0 
-0.0037895395304506363 0.0029710645343194544 11201:1.0 22633:1.0 64420:1.0 76260:1.0 98671:1.0 98688:1.0 141592:1.0 145385:1.0 210094:1.0 217089:1.0 221443:1.0 253850:1.0 272171:1.0 289789:1.0 314657:1.0 324898:1.0 
-0.004204054211957235 0.0034818704138299 2630:1.0 22622:1.0 63495:1.0 76260:1.0 98671:1.0 98688:1.0 113887:1.0 145376:1.0 202314:1.0 217087:1.0 250672:1.0 253850:1.0 270339:1.0 289786:1.0 298503:1.0 324906:1.0 
-0.004237516506549151 0.003132490162761559 10075:1.0 19466:1.0 46369:1.0 65083:1.0 93378:1.0 118716:1.0 167105:1.0 187841:1.0 246098:1.0 259538:1.0 291480:1.0 296314:1.0 322544:1.0 332244:1.0 339112:1.0 367364:1.0 
-0.002873867552109108 0.002095466660079861 16471:1.0 19466:1.0 53563:1.0 65089:1.0 108239:1.0 118716:1.0 141127:1.0 141144:1.0 165463:1.0 187832:1.0 242095:1.0 259547:1.0 291480:1.0 296310:1.0 327242:1.0 332244:1.0 363144:1.0 367356:1.0 
-0.003488378911923141 0.0024256556751938614 11201:1.0 22633:1.0 58676:1.0 76260:1.0 98671:1.0 98688:1.0 108750:1.0 108768:1.0 132047:1.0 145380:1.0 193409:1.0 217090:1.0 219032:1.0 253854:1.0 270477:1.0 289785:1.0 301947:1.0 324905:1.0 
-0.0035730184286692224 0.003174070311041189 11201:1.0 22633:1.0 56087:1.0 76260:1.0 98671:1.0 98688:1.0 129525:1.0 145380:1.0 212178:1.0 217085:1.0 250194:1.0 253863:1.0 288385:1.0 289785:1.0 299986:1.0 324898:1.0 
-0.0020234851916586085 0.0016555250335690487 9627:1.0 19466:1.0 53657:1.0 65089:1.0 104043:1.0 118716:1.0 141127:1.0 141144:1.0 177713:1.0 187832:1.0 249443:1.0 259543:1.0 285395:1.0 296318:1.0 307366:1.0 332231:1.0 356337:1.0 367355:1.0 
-0.0046400273992966284 0.0027635774671604697 9627:1.0 19466:1.0 53657:1.0 65089:1.0 94401:1.0 118716:1.0 169286:1.0 187842:1.0 241308:1.0 259547:1.0 282782:1.0 296312:1.0 315389:1.0 332245:1.0 347796:1.0 367355:1.0 
-6.986999993034388E-4 6.819780709268984E-4 6643:1.0 19458:1.0 33683:1.0 33683:1.0 33683:1.0 33683:1.0 33700:1.0 33700:1.0 33700:1.0 33700:1.0 42437:1.0 42455:1.0 63010:1.0 65075:1.0 91049:1.0 91049:1.0 91049:1.0 91067:1.0 91067:1.0 91067:1.0 117064:1.0 118716:1.0 141127:1.0 141144:1.0 151206:1.0 151224:1.0 163937:1.0 187840:1.0 253632:1.0 259533:1.0 276521:1.0 296317:1.0 307539:1.0 332231:1.0 347562:1.0 367356:1.0 
-0.0010311914510768665 0.0014056594125395087 6643:1.0 19458:1.0 33683:1.0 33683:1.0 33683:1.0 33683:1.0 33700:1.0 33700:1.0 33700:1.0 33700:1.0 42437:1.0 42455:1.0 63010:1.0 65075:1.0 91049:1.0 91049:1.0 91049:1.0 91067:1.0 91067:1.0 91067:1.0 117064:1.0 118716:1.0 141127:1.0 141144:1.0 151206:1.0 151224:1.0 181826:1.0 187828:1.0 223532:1.0 223550:1.0 239419:1.0 259544:1.0 271151:1.0 296306:1.0 312100:1.0 332237:1.0 338780:1.0 367361:1.0 
-5.031409074208415E-4 8.199840040969397E-4 6643:1.0 19458:1.0 33683:1.0 33683:1.0 33683:1.0 33683:1.0 33700:1.0 33700:1.0 33700:1.0 33700:1.0 42437:1.0 42455:1.0 63010:1.0 65075:1.0 91049:1.0 91049:1.0 91049:1.0 91067:1.0 91067:1.0 91067:1.0 117064:1.0 118716:1.0 141127:1.0 141144:1.0 151206:1.0 151224:1.0 181826:1.0 187828:1.0 215838:1.0 215856:1.0 223532:1.0 223550:1.0 238700:1.0 259539:1.0 266688:1.0 296317:1.0 309909:1.0 332231:1.0 348247:1.0 367361:1.0 
-0.0022241098777071584 0.0018931199816201389 11820:1.0 22625:1.0 39108:1.0 39108:1.0 39108:1.0 39108:1.0 39125:1.0 39125:1.0 39125:1.0 39125:1.0 48593:1.0 48611:1.0 50922:1.0 76260:1.0 140387:1.0 145380:1.0 212733:1.0 217087:1.0 221664:1.0 253856:1.0 282925:1.0 289787:1.0 299678:1.0 324906:1.0 
-0.0031457099948536587 0.0019890129297216504 16772:1.0 19460:1.0 53563:1.0 65089:1.0 91365:1.0 118716:1.0 141127:1.0 141144:1.0 179767:1.0 187832:1.0 249383:1.0 259543:1.0 295849:1.0 296312:1.0 309552:1.0 332243:1.0 365876:1.0 367350:1.0 
-0.004171270458990062 0.0026080005059789216 9125:1.0 19462:1.0 55849:1.0 65090:1.0 112670:1.0 118716:1.0 160813:1.0 187840:1.0 254634:1.0 259537:1.0 261488:1.0 296310:1.0 315116:1.0 332237:1.0 350796:1.0 367364:1.0 
-0.004055687105268414 0.0032813255556603466 11107:1.0 22633:1.0 56087:1.0 76260:1.0 98671:1.0 98688:1.0 111712:1.0 145382:1.0 199062:1.0 217087:1.0 248441:1.0 253863:1.0 267495:1.0 289780:1.0 316803:1.0 324902:1.0 
-0.012363832674823631 0.005859461000831702 15808:1.0 27648:1.0 71661:1.0 96774:1.0 151027:1.0 168479:1.0 201582:1.0 205251:1.0 233256:1.0 241173:1.0 267863:1.0 276286:1.0 
-0.0010798487007178648 0.0010582451151608652 16437:1.0 19458:1.0 33683:1.0 33683:1.0 33683:1.0 33683:1.0 33683:1.0 33700:1.0 33700:1.0 33700:1.0 33700:1.0 33700:1.0 42437:1.0 42437:1.0 42437:1.0 42437:1.0 42437:1.0 42437:1.0 42455:1.0 42455:1.0 42455:1.0 42455:1.0 42455:1.0 42455:1.0 55079:1.0 65081:1.0 81564:1.0 81581:1.0 91049:1.0 91067:1.0 114364:1.0 118716:1.0 141127:1.0 141127:1.0 141127:1.0 141127:1.0 141144:1.0 141144:1.0 141144:1.0 141144:1.0 151206:1.0 151224:1.0 163755:1.0 187841:1.0 258090:1.0 259543:1.0 290919:1.0 296310:1.0 303510:1.0 332245:1.0 
-9.349110604949716E-4 6.643148919784794E-4 2379:1.0 19453:1.0 33683:1.0 33683:1.0 33683:1.0 33683:1.0 33683:1.0 33683:1.0 33700:1.0 33700:1.0 33700:1.0 33700:1.0 33700:1.0 33700:1.0 42437:1.0 42455:1.0 53563:1.0 65089:1.0 99761:1.0 118716:1.0 141127:1.0 141144:1.0 178698:1.0 187832:1.0 244593:1.0 259543:1.0 272534:1.0 296317:1.0 326931:1.0 332237:1.0 349918:1.0 367364:1.0 
-0.0038723965501597296 0.0010071160846577614 7475:1.0 27648:1.0 50059:1.0 50059:1.0 50076:1.0 50076:1.0 71405:1.0 96772:1.0 147738:1.0 168465:1.0 185453:1.0 205249:1.0 225487:1.0 241175:1.0 262974:1.0 276282:1.0 
-0.004328458487328854 0.00256855541015791 7475:1.0 27648:1.0 50059:1.0 50059:1.0 50076:1.0 50076:1.0 75675:1.0 96760:1.0 132464:1.0 132482:1.0 148351:1.0 168476:1.0 189283:1.0 205250:1.0 227629:1.0 241163:1.0 264600:1.0 276287:1.0 
-0.007895770311652594 0.004487199463745284 24506:1.0 27648:1.0 86645:1.0 96764:1.0 133230:1.0 168471:1.0 185453:1.0 205249:1.0 217011:1.0 241163:1.0 253335:1.0 276293:1.0 
-0.01058483697306413 0.0033120970994788153 7475:1.0 27648:1.0 91232:1.0 96774:1.0 152762:1.0 168475:1.0 185069:1.0 205242:1.0 213884:1.0 241166:1.0 259728:1.0 276296:1.0 
-0.004351862715759738 0.002971543245059307 7475:1.0 27648:1.0 80775:1.0 96770:1.0 132464:1.0 132482:1.0 147962:1.0 168469:1.0 177441:1.0 205241:1.0 224321:1.0 241177:1.0 272147:1.0 276293:1.0 
-0.002648207191216986 0.0015609219175413752 7475:1.0 27648:1.0 80775:1.0 96770:1.0 124770:1.0 124788:1.0 132464:1.0 132482:1.0 140203:1.0 168468:1.0 188094:1.0 205252:1.0 236955:1.0 241174:1.0 244193:1.0 276282:1.0 
-9.30096299952763E-4 8.305818102906879E-4 7475:1.0 27648:1.0 80775:1.0 96770:1.0 124770:1.0 124770:1.0 124788:1.0 124788:1.0 132464:1.0 132482:1.0 151027:1.0 168479:1.0 200960:1.0 205249:1.0 208526:1.0 241163:1.0 259728:1.0 276296:1.0 
-0.0015975616579372992 9.076520548423506E-4 7475:1.0 27648:1.0 80775:1.0 96770:1.0 124770:1.0 124770:1.0 124770:1.0 124788:1.0 124788:1.0 124788:1.0 132464:1.0 132482:1.0 151027:1.0 168479:1.0 177441:1.0 205241:1.0 236955:1.0 241174:1.0 270294:1.0 276282:1.0 
-0.0013081141981875614 0.0 7475:1.0 27648:1.0 80775:1.0 96770:1.0 124770:1.0 124770:1.0 124770:1.0 124770:1.0 124788:1.0 124788:1.0 124788:1.0 124788:1.0 132464:1.0 132482:1.0 140203:1.0 168468:1.0 200960:1.0 205249:1.0 235073:1.0 241163:1.0 261930:1.0 276285:1.0 
-0.0020140361386911452 4.4165990555455886E-4 7475:1.0 27648:1.0 80775:1.0 96770:1.0 124770:1.0 124770:1.0 124770:1.0 124770:1.0 124770:1.0 124788:1.0 124788:1.0 124788:1.0 124788:1.0 124788:1.0 132464:1.0 132482:1.0 164116:1.0 168476:1.0 199042:1.0 205238:1.0 226564:1.0 241166:1.0 242551:1.0 276282:1.0 
-0.006013346330663235 0.0030744515259948364 3664:1.0 27648:1.0 50059:1.0 50076:1.0 73311:1.0 96764:1.0 155013:1.0 168469:1.0 181118:1.0 205244:1.0 213577:1.0 241171:1.0 264661:1.0 276292:1.0 
-0.005981235098734353 0.002961200752450256 21602:1.0 27648:1.0 50059:1.0 50076:1.0 73311:1.0 96764:1.0 159488:1.0 168469:1.0 192672:1.0 205248:1.0 240211:1.0 241169:1.0 259205:1.0 276294:1.0 
-0.009021750864082221 0.003845711671290848 20495:1.0 27648:1.0 50059:1.0 50059:1.0 50076:1.0 50076:1.0 86497:1.0 96770:1.0 156058:1.0 168470:1.0 175965:1.0 205252:1.0 
-0.004084916341172589 0.002800752430302532 23989:1.0 27648:1.0 50059:1.0 50076:1.0 89657:1.0 96772:1.0 132803:1.0 168474:1.0 175032:1.0 205238:1.0 237829:1.0 241173:1.0 252504:1.0 276282:1.0 
-0.0024494016255895423 0.0010563246357673253 23989:1.0 27648:1.0 50059:1.0 50076:1.0 89657:1.0 96772:1.0 124770:1.0 124788:1.0 137743:1.0 168465:1.0 201852:1.0 205248:1.0 216977:1.0 241163:1.0 259728:1.0 276296:1.0 
-0.0036219654083964685 0.0037093449562518774 23989:1.0 27648:1.0 50059:1.0 50076:1.0 65511:1.0 96760:1.0 132464:1.0 132482:1.0 165027:1.0 168475:1.0 180599:1.0 205238:1.0 224321:1.0 241177:1.0 276014:1.0 276285:1.0 
-0.005763635257563826 0.002198437746178021 7475:1.0 27648:1.0 50059:1.0 50076:1.0 80913:1.0 96768:1.0 132803:1.0 168474:1.0 197863:1.0 205238:1.0 240608:1.0 241168:1.0 253335:1.0 276293:1.0 
-0.0017419569794240256 0.0028398625505943265 7475:1.0 27648:1.0 50059:1.0 50076:1.0 89135:1.0 96760:1.0 132464:1.0 132464:1.0 132482:1.0 132482:1.0 167890:1.0 168470:1.0 181466:1.0 205249:1.0 218484:1.0 241175:1.0 265369:1.0 276294:1.0 
-0.0027967724108014934 0.004212941601043081 7475:1.0 27648:1.0 50059:1.0 50076:1.0 89135:1.0 96760:1.0 124770:1.0 124788:1.0 132464:1.0 132464:1.0 132482:1.0 132482:1.0 151027:1.0 168479:1.0 192313:1.0 205248:1.0 217825:1.0 241174:1.0 262785:1.0 276288:1.0 
-4.323273532150093E-4 0.0 7475:1.0 27648:1.0 50059:1.0 50076:1.0 89135:1.0 96760:1.0 124770:1.0 124770:1.0 124788:1.0 124788:1.0 132464:1.0 132464:1.0 132482:1.0 132482:1.0 155322:1.0 168475:1.0 181466:1.0 205249:1.0 227438:1.0 241169:1.0 264029:1.0 276293:1.0 
-0.004983576064117471 0.0019944782966043848 9627:1.0 19466:1.0 53657:1.0 65089:1.0 98543:1.0 118716:1.0 170087:1.0 187842:1.0 245468:1.0 259541:1.0 261488:1.0 296310:1.0 320730:1.0 332237:1.0 339112:1.0 367364:1.0 
-0.003317491290762689 0.0014933939377515285 9627:1.0 19466:1.0 53657:1.0 65089:1.0 104462:1.0 118716:1.0 141127:1.0 141144:1.0 169326:1.0 187842:1.0 255820:1.0 259546:1.0 283079:1.0 296310:1.0 306584:1.0 332235:1.0 340372:1.0 367356:1.0 
-0.005191300404468688 0.002323387642551127 7475:1.0 27648:1.0 50059:1.0 50076:1.0 86497:1.0 96770:1.0 157369:1.0 168477:1.0 172124:1.0 205243:1.0 224985:1.0 241163:1.0 248044:1.0 276296:1.0 
-0.03360713608952615 0.012574656212115828 17171:1.0 27648:1.0 79019:1.0 96774:1.0 164752:1.0 168478:1.0 175965:1.0 205252:1.0 
-0.002521923761068989 7.197061940330841E-4 11497:1.0 19467:1.0 53682:1.0 65089:1.0 101292:1.0 118716:1.0 141127:1.0 141127:1.0 141127:1.0 141144:1.0 141144:1.0 141144:1.0 158753:1.0 187836:1.0 250556:1.0 259537:1.0 292101:1.0 296312:1.0 325587:1.0 332231:1.0 336396:1.0 367350:1.0 
-7.441633383931821E-4 0.002530421023732808 11497:1.0 19467:1.0 53682:1.0 65089:1.0 101292:1.0 118716:1.0 141127:1.0 141127:1.0 141127:1.0 141144:1.0 141144:1.0 141144:1.0 183476:1.0 187834:1.0 223532:1.0 223532:1.0 223550:1.0 223550:1.0 252659:1.0 259533:1.0 264230:1.0 296306:1.0 315389:1.0 332245:1.0 343698:1.0 367362:1.0 
-7.606094339162103E-4 0.0017395258406627157 11497:1.0 19467:1.0 53682:1.0 65089:1.0 101292:1.0 118716:1.0 141127:1.0 141127:1.0 141127:1.0 141144:1.0 141144:1.0 141144:1.0 183476:1.0 187834:1.0 215838:1.0 215856:1.0 223532:1.0 223532:1.0 223550:1.0 223550:1.0 226905:1.0 259533:1.0 279162:1.0 296320:1.0 308173:1.0 332243:1.0 359642:1.0 367350:1.0 
-5.236819829843792E-4 0.0010607161404118178 11497:1.0 19467:1.0 53682:1.0 65089:1.0 101292:1.0 118716:1.0 141127:1.0 141127:1.0 141127:1.0 141144:1.0 141144:1.0 141144:1.0 183476:1.0 187834:1.0 215838:1.0 215838:1.0 215856:1.0 215856:1.0 223532:1.0 223532:1.0 223550:1.0 223550:1.0 242095:1.0 259547:1.0 271796:1.0 296318:1.0 324386:1.0 332231:1.0 362689:1.0 367354:1.0 
-4.977771620000986E-4 4.19904050919582E-4 11497:1.0 19467:1.0 53682:1.0 65089:1.0 101292:1.0 118716:1.0 141127:1.0 141127:1.0 141127:1.0 141144:1.0 141144:1.0 141144:1.0 183476:1.0 187834:1.0 215838:1.0 215838:1.0 215838:1.0 215856:1.0 215856:1.0 215856:1.0 223532:1.0 223532:1.0 223550:1.0 223550:1.0 234609:1.0 259545:1.0 288323:1.0 296306:1.0 327486:1.0 332235:1.0 363809:1.0 367356:1.0 
-0.003297606360055138 7.6838046450319E-4 17610:1.0 19453:1.0 42437:1.0 42455:1.0 54866:1.0 65081:1.0 81564:1.0 81564:1.0 81581:1.0 81581:1.0 91049:1.0 91049:1.0 91049:1.0 91049:1.0 91067:1.0 91067:1.0 91067:1.0 91067:1.0 106786:1.0 118716:1.0 141127:1.0 141144:1.0 162752:1.0 187840:1.0 252511:1.0 259533:1.0 278250:1.0 296320:1.0 303510:1.0 332245:1.0 
-0.0031711675837014664 -2.2267169270686828E-5 3333:1.0 27648:1.0 50059:1.0 50076:1.0 86645:1.0 96764:1.0 132464:1.0 132464:1.0 132464:1.0 132482:1.0 132482:1.0 132482:1.0 138695:1.0 168479:1.0 
-0.0022325849812972125 -0.0020964972023010853 11201:1.0 22633:1.0 64420:1.0 76260:1.0 98671:1.0 98688:1.0 111836:1.0 145372:1.0 181076:1.0 181076:1.0 181094:1.0 181094:1.0 198852:1.0 217091:1.0 243247:1.0 253854:1.0 262156:1.0 289781:1.0 307594:1.0 324908:1.0 
-0.0023041253614700836 -0.0021296146945862585 2630:1.0 22622:1.0 63495:1.0 76260:1.0 98671:1.0 98688:1.0 142087:1.0 145372:1.0 181076:1.0 181076:1.0 181094:1.0 181094:1.0 196963:1.0 217088:1.0 226501:1.0 253862:1.0 285030:1.0 289779:1.0 324290:1.0 324898:1.0 
-0.004707271155587266 -0.004519316521076358 10075:1.0 19466:1.0 46369:1.0 65083:1.0 93378:1.0 118716:1.0 174152:1.0 187833:1.0 223532:1.0 223550:1.0 254634:1.0 259541:1.0 286450:1.0 296319:1.0 303510:1.0 332245:1.0 
-0.004890771877836454 -0.0048023214409740325 18553:1.0 22633:1.0 56087:1.0 76260:1.0 98671:1.0 98688:1.0 135900:1.0 145376:1.0 188815:1.0 217080:1.0 252565:1.0 253856:1.0 270867:1.0 289787:1.0 306296:1.0 324894:1.0 
-0.00256789240160853 -0.003192896543599604 8656:1.0 27648:1.0 50059:1.0 50076:1.0 84707:1.0 96767:1.0 148351:1.0 168476:1.0 182139:1.0 205250:1.0 222657:1.0 241170:1.0 248044:1.0 276296:1.0 
-0.028011455440552807 -0.01226396910943454 8656:1.0 27648:1.0 50059:1.0 50076:1.0 64747:1.0 96767:1.0 138695:1.0 168479:1.0 
-0.0027614055194896017 -0.0031928965435996056 8656:1.0 27648:1.0 50059:1.0 50076:1.0 84707:1.0 96767:1.0 148351:1.0 168476:1.0 180728:1.0 205250:1.0 223184:1.0 241170:1.0 248044:1.0 276296:1.0 
-5.181377957199737E-4 -0.0011399915275354965 16471:1.0 19466:1.0 53563:1.0 65089:1.0 108239:1.0 118716:1.0 141127:1.0 141144:1.0 165463:1.0 187832:1.0 223532:1.0 223532:1.0 223532:1.0 223532:1.0 223532:1.0 223550:1.0 223550:1.0 223550:1.0 223550:1.0 223550:1.0 242095:1.0 259547:1.0 267023:1.0 296311:1.0 315389:1.0 332245:1.0 362689:1.0 367354:1.0 
-5.362037069546396E-4 -5.065895395517065E-4 11201:1.0 22633:1.0 58676:1.0 76260:1.0 98671:1.0 98688:1.0 108750:1.0 108768:1.0 122376:1.0 145378:1.0 181076:1.0 181076:1.0 181076:1.0 181076:1.0 181076:1.0 181076:1.0 181094:1.0 181094:1.0 181094:1.0 181094:1.0 181094:1.0 181094:1.0 198852:1.0 217091:1.0 230751:1.0 253862:1.0 270339:1.0 289786:1.0 320855:1.0 324901:1.0 
-0.0019396059682900558 -0.0017447035793498708 7420:1.0 19453:1.0 33683:1.0 33683:1.0 33683:1.0 33700:1.0 33700:1.0 33700:1.0 42437:1.0 42437:1.0 42455:1.0 42455:1.0 62102:1.0 65075:1.0 91049:1.0 91067:1.0 117064:1.0 118716:1.0 141127:1.0 141144:1.0 151206:1.0 151224:1.0 161854:1.0 187828:1.0 242095:1.0 259547:1.0 263662:1.0 296317:1.0 311660:1.0 332231:1.0 348247:1.0 367361:1.0 
-0.0014400250435497007 -0.0014798107351394643 11201:1.0 22633:1.0 56087:1.0 76260:1.0 98671:1.0 98688:1.0 143905:1.0 145382:1.0 181076:1.0 181076:1.0 181076:1.0 181094:1.0 181094:1.0 181094:1.0 190839:1.0 217081:1.0 236706:1.0 253864:1.0 285030:1.0 289783:1.0 314361:1.0 324900:1.0 
-0.001880674912941224 -0.0011507639558003043 4185:1.0 19458:1.0 33683:1.0 33700:1.0 42437:1.0 42437:1.0 42455:1.0 42455:1.0 61959:1.0 65083:1.0 105042:1.0 118716:1.0 141127:1.0 141127:1.0 141144:1.0 141144:1.0 151206:1.0 151206:1.0 151224:1.0 151224:1.0 184261:1.0 187834:1.0 254634:1.0 259541:1.0 268125:1.0 296316:1.0 308952:1.0 332238:1.0 340529:1.0 367353:1.0 
-0.0014008231300718912 -0.001632067949054548 9627:1.0 19466:1.0 53657:1.0 65089:1.0 104043:1.0 118716:1.0 141127:1.0 141144:1.0 161624:1.0 187828:1.0 223532:1.0 223532:1.0 223532:1.0 223550:1.0 223550:1.0 223550:1.0 247939:1.0 259538:1.0 267033:1.0 296320:1.0 
-0.0014767356969007804 -0.0016664158745884415 9627:1.0 19466:1.0 53657:1.0 65089:1.0 94401:1.0 118716:1.0 173828:1.0 187834:1.0 223532:1.0 223532:1.0 223550:1.0 223550:1.0 242095:1.0 259547:1.0 276054:1.0 296311:1.0 312399:1.0 332242:1.0 343698:1.0 367362:1.0 
-0.0012856611645378664 -0.0019002195046015137 6643:1.0 19458:1.0 33683:1.0 33683:1.0 33683:1.0 33683:1.0 33700:1.0 33700:1.0 33700:1.0 33700:1.0 42437:1.0 42455:1.0 63010:1.0 65075:1.0 91049:1.0 91049:1.0 91049:1.0 91067:1.0 91067:1.0 91067:1.0 117064:1.0 118716:1.0 141127:1.0 141144:1.0 151206:1.0 151224:1.0 166634:1.0 187834:1.0 223532:1.0 223550:1.0 229412:1.0 259544:1.0 273576:1.0 296306:1.0 312795:1.0 332242:1.0 338998:1.0 367350:1.0 
-0.0013774523652609436 -0.0014308130970960805 11820:1.0 22625:1.0 39108:1.0 39108:1.0 39108:1.0 39108:1.0 39125:1.0 39125:1.0 39125:1.0 39125:1.0 48593:1.0 48611:1.0 50922:1.0 76260:1.0 112069:1.0 145378:1.0 181076:1.0 181076:1.0 181094:1.0 181094:1.0 209989:1.0 217089:1.0 227723:1.0 253862:1.0 279264:1.0 289780:1.0 307462:1.0 324908:1.0 
-0.0016700192620608177 -0.00193586634088254 16772:1.0 19460:1.0 53563:1.0 65089:1.0 91365:1.0 118716:1.0 141127:1.0 141144:1.0 187356:1.0 187834:1.0 223532:1.0 223532:1.0 223550:1.0 223550:1.0 236046:1.0 259545:1.0 294781:1.0 296306:1.0 303169:1.0 332242:1.0 345057:1.0 367362:1.0 
-0.0015264454886483895 -0.0014392320392219934 9125:1.0 19462:1.0 55849:1.0 65090:1.0 112670:1.0 118716:1.0 169805:1.0 187834:1.0 223532:1.0 223532:1.0 223532:1.0 223550:1.0 223550:1.0 223550:1.0 242095:1.0 259547:1.0 272534:1.0 296317:1.0 309552:1.0 332243:1.0 334048:1.0 367350:1.0 
-0.002572810176908651 -0.0023356919021490165 188:1.0 22628:1.0 48593:1.0 48611:1.0 63495:1.0 76260:1.0 98671:1.0 98688:1.0 108750:1.0 108768:1.0 131545:1.0 145378:1.0 212178:1.0 217085:1.0 253132:1.0 253856:1.0 277318:1.0 289786:1.0 309031:1.0 324906:1.0 
-0.0026463821285099293 -0.0019495060328345963 188:1.0 22628:1.0 48593:1.0 48611:1.0 63495:1.0 76260:1.0 98671:1.0 98688:1.0 108750:1.0 108768:1.0 110440:1.0 145378:1.0 212178:1.0 217085:1.0 243923:1.0 253860:1.0 260066:1.0 289780:1.0 296656:1.0 324908:1.0 
-0.001510838287576376 -0.0017894722954916382 11107:1.0 22633:1.0 56087:1.0 76260:1.0 98671:1.0 98688:1.0 121906:1.0 145377:1.0 181076:1.0 181076:1.0 181076:1.0 181094:1.0 181094:1.0 181094:1.0 208565:1.0 217085:1.0 237160:1.0 253863:1.0 272933:1.0 289789:1.0 324626:1.0 324897:1.0 
-0.0011974666127325454 -0.0017485449119960066 15808:1.0 27648:1.0 87758:1.0 96764:1.0 132464:1.0 132464:1.0 132464:1.0 132464:1.0 132482:1.0 132482:1.0 132482:1.0 132482:1.0 151027:1.0 168479:1.0 189799:1.0 205248:1.0 233502:1.0 241175:1.0 255132:1.0 276286:1.0 
-0.0011488102636605271 -0.0010936204931700545 16437:1.0 19458:1.0 33683:1.0 33683:1.0 33683:1.0 33683:1.0 33683:1.0 33700:1.0 33700:1.0 33700:1.0 33700:1.0 33700:1.0 42437:1.0 42437:1.0 42437:1.0 42437:1.0 42437:1.0 42437:1.0 42455:1.0 42455:1.0 42455:1.0 42455:1.0 42455:1.0 42455:1.0 55079:1.0 65081:1.0 81564:1.0 81581:1.0 91049:1.0 91067:1.0 114364:1.0 118716:1.0 141127:1.0 141127:1.0 141127:1.0 141127:1.0 141144:1.0 141144:1.0 141144:1.0 141144:1.0 151206:1.0 151224:1.0 186361:1.0 187838:1.0 223532:1.0 223550:1.0 254060:1.0 259537:1.0 267033:1.0 296320:1.0 
-2.2654546955174374E-4 -2.9750713553321185E-4 2379:1.0 19453:1.0 33683:1.0 33683:1.0 33683:1.0 33683:1.0 33683:1.0 33683:1.0 33700:1.0 33700:1.0 33700:1.0 33700:1.0 33700:1.0 33700:1.0 42437:1.0 42455:1.0 53563:1.0 65089:1.0 99761:1.0 118716:1.0 141127:1.0 141144:1.0 182258:1.0 187834:1.0 223532:1.0 223532:1.0 223532:1.0 223550:1.0 223550:1.0 223550:1.0 241170:1.0 259547:1.0 279162:1.0 296320:1.0 298323:1.0 332235:1.0 333598:1.0 367356:1.0 
-0.01066091275592562 -0.00783300130589812 24506:1.0 27648:1.0 73241:1.0 96767:1.0 161304:1.0 168479:1.0 187182:1.0 205252:1.0 212442:1.0 241177:1.0 
-0.005330254875060977 -0.004891237029403734 24506:1.0 27648:1.0 60916:1.0 96766:1.0 132464:1.0 132482:1.0 148351:1.0 168476:1.0 180633:1.0 205238:1.0 217825:1.0 241174:1.0 260879:1.0 276294:1.0 
-0.019673084603998234 -0.014678261926275337 12555:1.0 27648:1.0 62522:1.0 96773:1.0 143792:1.0 168479:1.0 175965:1.0 205252:1.0 
-0.002277486336810853 -0.003648745150553478 3664:1.0 27648:1.0 50059:1.0 50076:1.0 71810:1.0 96766:1.0 132464:1.0 132464:1.0 132482:1.0 132482:1.0 139880:1.0 168473:1.0 193204:1.0 205248:1.0 217825:1.0 241174:1.0 275944:1.0 276288:1.0 
-0.0011200852239575082 -0.0023414880168684347 21602:1.0 27648:1.0 50059:1.0 50076:1.0 95756:1.0 96766:1.0 132464:1.0 132464:1.0 132464:1.0 132482:1.0 132482:1.0 132482:1.0 150480:1.0 168477:1.0 178996:1.0 205238:1.0 224321:1.0 241177:1.0 276014:1.0 276285:1.0 
-0.0020426027704815676 -0.003828173660688171 23989:1.0 27648:1.0 50059:1.0 50076:1.0 71273:1.0 96760:1.0 132464:1.0 132464:1.0 132482:1.0 132482:1.0 151027:1.0 168479:1.0 204960:1.0 205241:1.0 225018:1.0 241175:1.0 262095:1.0 276282:1.0 
-8.831737652336737E-4 -0.0020792231508700537 7475:1.0 27648:1.0 50059:1.0 50076:1.0 82296:1.0 96766:1.0 132464:1.0 132464:1.0 132464:1.0 132482:1.0 132482:1.0 132482:1.0 155568:1.0 168476:1.0 180997:1.0 205250:1.0 228807:1.0 241163:1.0 252630:1.0 276294:1.0 
-0.0025930647890334635 -0.00214285566726988 9627:1.0 19466:1.0 53657:1.0 65089:1.0 98543:1.0 118716:1.0 175711:1.0 187834:1.0 223532:1.0 223532:1.0 223532:1.0 223550:1.0 223550:1.0 223550:1.0 229763:1.0 259547:1.0 
-6.0400015924546E-5 -5.030615317323241E-4 9627:1.0 19466:1.0 53657:1.0 65089:1.0 104462:1.0 118716:1.0 141127:1.0 141144:1.0 158914:1.0 187834:1.0 223532:1.0 223532:1.0 223532:1.0 223532:1.0 223550:1.0 223550:1.0 223550:1.0 223550:1.0 234860:1.0 259547:1.0 
-0.0037873104789553453 -0.00324498241296432 7475:1.0 27648:1.0 50059:1.0 50076:1.0 79707:1.0 96760:1.0 132464:1.0 132464:1.0 132464:1.0 132482:1.0 132482:1.0 132482:1.0 138695:1.0 168479:1.0 
-0.019932267546933526 -0.011602551389299155 17171:1.0 27648:1.0 92980:1.0 96773:1.0 132464:1.0 132482:1.0 138695:1.0 168479:1.0 
-0.0015401913125597778 -0.004230288138089096 11497:1.0 19467:1.0 53682:1.0 65089:1.0 101292:1.0 118716:1.0 141127:1.0 141127:1.0 141127:1.0 141144:1.0 141144:1.0 141144:1.0 172566:1.0 187834:1.0 223532:1.0 223532:1.0 223550:1.0 223550:1.0 233527:1.0 259533:1.0 272042:1.0 296320:1.0 317955:1.0 332246:1.0 
