svm_type c_svc
kernel_type polynomial
degree 2
gamma 1.0
coef0 1.0
nr_class 2
total_sv 16
rho 0.6578088508058001
label 1 0
nr_sv 9 7
SV
0.0018353978400734714 20:1.0 33:1.0 43:1.0 43:1.0 47:1.0 47:1.0 61:1.0 61:1.0 61:1.0 61:1.0 67:1.0 67:1.0 67:1.0 67:1.0 77:1.0 105:1.0 129:1.0 134:1.0 171:1.0 188:1.0 213:1.0 243:1.0 246:1.0 246:1.0 247:1.0 247:1.0 248:1.0 249:1.0 278:1.0 289:1.0 311:1.0 332:1.0 341:1.0 342:1.0 343:1.0 344:1.0 
2.7628877840201805E-4 8:1.0 13:1.0 19:1.0 19:1.0 23:1.0 23:1.0 35:1.0 35:1.0 35:1.0 35:1.0 41:1.0 41:1.0 41:1.0 41:1.0 46:1.0 59:1.0 68:1.0 72:1.0 103:1.0 126:1.0 136:1.0 136:1.0 140:1.0 140:1.0 154:1.0 154:1.0 160:1.0 160:1.0 189:1.0 201:1.0 261:1.0 284:1.0 291:1.0 292:1.0 293:1.0 294:1.0 312:1.0 329:1.0 356:1.0 382:1.0 417:1.0 425:1.0 436:1.0 436:1.0 437:1.0 437:1.0 
0.0013763006271711059 8:1.0 13:1.0 19:1.0 19:1.0 23:1.0 23:1.0 35:1.0 35:1.0 35:1.0 35:1.0 41:1.0 41:1.0 41:1.0 41:1.0 46:1.0 59:1.0 68:1.0 72:1.0 103:1.0 126:1.0 136:1.0 136:1.0 140:1.0 140:1.0 154:1.0 154:1.0 160:1.0 160:1.0 176:1.0 199:1.0 222:1.0 227:1.0 241:1.0 241:1.0 246:1.0 246:1.0 264:1.0 281:1.0 308:1.0 334:1.0 370:1.0 380:1.0 389:1.0 389:1.0 390:1.0 390:1.0 421:1.0 424:1.0 
5.939801391181685E-4 8:1.0 13:1.0 19:1.0 19:1.0 23:1.0 23:1.0 35:1.0 35:1.0 35:1.0 35:1.0 41:1.0 41:1.0 41:1.0 41:1.0 46:1.0 59:1.0 68:1.0 72:1.0 103:1.0 126:1.0 136:1.0 136:1.0 136:1.0 140:1.0 140:1.0 140:1.0 154:1.0 154:1.0 160:1.0 160:1.0 169:1.0 199:1.0 222:1.0 222:1.0 227:1.0 227:1.0 241:1.0 241:1.0 241:1.0 241:1.0 246:1.0 246:1.0 246:1.0 246:1.0 248:1.0 285:1.0 298:1.0 336:1.0 339:1.0 340:1.0 341:1.0 342:1.0 375:1.0 382:1.0 405:1.0 425:1.0 436:1.0 437:1.0 
7.184434790657067E-4 5:1.0 13:1.0 19:1.0 19:1.0 19:1.0 23:1.0 23:1.0 23:1.0 35:1.0 35:1.0 41:1.0 41:1.0 47:1.0 60:1.0 68:1.0 68:1.0 72:1.0 72:1.0 86:1.0 86:1.0 86:1.0 86:1.0 92:1.0 92:1.0 92:1.0 92:1.0 97:1.0 126:1.0 136:1.0 140:1.0 154:1.0 154:1.0 160:1.0 160:1.0 194:1.0 201:1.0 262:1.0 284:1.0 293:1.0 294:1.0 295:1.0 335:1.0 339:1.0 339:1.0 340:1.0 340:1.0 362:1.0 380:1.0 420:1.0 425:1.0 
0.001134906068281608 8:1.0 13:1.0 19:1.0 19:1.0 23:1.0 23:1.0 35:1.0 35:1.0 35:1.0 35:1.0 41:1.0 41:1.0 41:1.0 41:1.0 46:1.0 59:1.0 68:1.0 72:1.0 103:1.0 126:1.0 136:1.0 136:1.0 136:1.0 140:1.0 140:1.0 140:1.0 154:1.0 154:1.0 160:1.0 160:1.0 169:1.0 199:1.0 222:1.0 222:1.0 222:1.0 227:1.0 227:1.0 227:1.0 241:1.0 241:1.0 241:1.0 241:1.0 246:1.0 246:1.0 246:1.0 246:1.0 247:1.0 287:1.0 291:1.0 291:1.0 292:1.0 292:1.0 314:1.0 332:1.0 373:1.0 380:1.0 410:1.0 431:1.0 434:1.0 434:1.0 435:1.0 435:1.0 436:1.0 437:1.0 
2.623327184246268E-4 5:1.0 13:1.0 19:1.0 19:1.0 19:1.0 23:1.0 23:1.0 23:1.0 35:1.0 35:1.0 41:1.0 41:1.0 47:1.0 60:1.0 68:1.0 68:1.0 68:1.0 72:1.0 72:1.0 72:1.0 86:1.0 86:1.0 86:1.0 86:1.0 92:1.0 92:1.0 92:1.0 92:1.0 110:1.0 126:1.0 136:1.0 136:1.0 140:1.0 140:1.0 154:1.0 154:1.0 160:1.0 160:1.0 187:1.0 201:1.0 253:1.0 284:1.0 291:1.0 292:1.0 293:1.0 294:1.0 311:1.0 329:1.0 375:1.0 382:1.0 419:1.0 425:1.0 434:1.0 435:1.0 436:1.0 436:1.0 437:1.0 437:1.0 
0.0015352075964595463 5:1.0 13:1.0 19:1.0 19:1.0 19:1.0 23:1.0 23:1.0 23:1.0 35:1.0 35:1.0 41:1.0 41:1.0 47:1.0 60:1.0 68:1.0 68:1.0 68:1.0 72:1.0 72:1.0 72:1.0 86:1.0 86:1.0 86:1.0 86:1.0 92:1.0 92:1.0 92:1.0 92:1.0 110:1.0 126:1.0 136:1.0 136:1.0 140:1.0 140:1.0 154:1.0 154:1.0 160:1.0 160:1.0 168:1.0 199:1.0 222:1.0 227:1.0 241:1.0 241:1.0 246:1.0 246:1.0 263:1.0 281:1.0 327:1.0 334:1.0 372:1.0 380:1.0 387:1.0 388:1.0 389:1.0 389:1.0 390:1.0 390:1.0 406:1.0 424:1.0 
7.453972196563423E-4 5:1.0 13:1.0 19:1.0 19:1.0 19:1.0 23:1.0 23:1.0 23:1.0 35:1.0 35:1.0 41:1.0 41:1.0 47:1.0 60:1.0 68:1.0 68:1.0 68:1.0 72:1.0 72:1.0 72:1.0 86:1.0 86:1.0 86:1.0 86:1.0 92:1.0 92:1.0 92:1.0 92:1.0 110:1.0 126:1.0 136:1.0 136:1.0 136:1.0 140:1.0 140:1.0 140:1.0 154:1.0 154:1.0 160:1.0 160:1.0 178:1.0 196:1.0 268:1.0 286:1.0 300:1.0 332:1.0 341:1.0 341:1.0 342:1.0 342:1.0 355:1.0 385:1.0 
-0.0012266956937347034 8:1.0 13:1.0 19:1.0 19:1.0 23:1.0 23:1.0 35:1.0 35:1.0 35:1.0 35:1.0 41:1.0 41:1.0 41:1.0 41:1.0 46:1.0 59:1.0 68:1.0 72:1.0 103:1.0 126:1.0 136:1.0 136:1.0 140:1.0 140:1.0 154:1.0 154:1.0 160:1.0 160:1.0 176:1.0 199:1.0 222:1.0 222:1.0 227:1.0 227:1.0 241:1.0 241:1.0 246:1.0 246:1.0 278:1.0 281:1.0 318:1.0 334:1.0 350:1.0 380:1.0 387:1.0 387:1.0 388:1.0 388:1.0 389:1.0 389:1.0 390:1.0 390:1.0 392:1.0 428:1.0 
-0.0010780077258558142 5:1.0 13:1.0 19:1.0 19:1.0 19:1.0 23:1.0 23:1.0 23:1.0 35:1.0 35:1.0 41:1.0 41:1.0 47:1.0 60:1.0 68:1.0 68:1.0 72:1.0 72:1.0 86:1.0 86:1.0 86:1.0 86:1.0 92:1.0 92:1.0 92:1.0 92:1.0 97:1.0 126:1.0 136:1.0 140:1.0 154:1.0 154:1.0 160:1.0 160:1.0 177:1.0 199:1.0 241:1.0 241:1.0 246:1.0 246:1.0 247:1.0 287:1.0 291:1.0 291:1.0 292:1.0 292:1.0 314:1.0 332:1.0 373:1.0 380:1.0 410:1.0 431:1.0 434:1.0 434:1.0 435:1.0 435:1.0 436:1.0 437:1.0 
-0.0012656857062348338 5:1.0 13:1.0 19:1.0 19:1.0 19:1.0 23:1.0 23:1.0 23:1.0 35:1.0 35:1.0 41:1.0 41:1.0 47:1.0 60:1.0 68:1.0 68:1.0 68:1.0 72:1.0 72:1.0 72:1.0 86:1.0 86:1.0 86:1.0 86:1.0 92:1.0 92:1.0 92:1.0 92:1.0 110:1.0 126:1.0 136:1.0 136:1.0 140:1.0 140:1.0 154:1.0 154:1.0 160:1.0 160:1.0 168:1.0 199:1.0 222:1.0 222:1.0 227:1.0 227:1.0 241:1.0 241:1.0 246:1.0 246:1.0 263:1.0 281:1.0 316:1.0 334:1.0 348:1.0 380:1.0 389:1.0 389:1.0 390:1.0 390:1.0 402:1.0 432:1.0 
-7.644847799434006E-4 5:1.0 13:1.0 19:1.0 19:1.0 19:1.0 23:1.0 23:1.0 23:1.0 35:1.0 35:1.0 41:1.0 41:1.0 47:1.0 60:1.0 68:1.0 68:1.0 68:1.0 72:1.0 72:1.0 72:1.0 86:1.0 86:1.0 86:1.0 86:1.0 92:1.0 92:1.0 92:1.0 92:1.0 110:1.0 126:1.0 136:1.0 136:1.0 136:1.0 140:1.0 140:1.0 140:1.0 154:1.0 154:1.0 160:1.0 160:1.0 167:1.0 199:1.0 241:1.0 241:1.0 241:1.0 241:1.0 246:1.0 246:1.0 246:1.0 246:1.0 259:1.0 289:1.0 
-0.0013992498791234951 8:1.0 13:1.0 19:1.0 19:1.0 23:1.0 23:1.0 35:1.0 35:1.0 35:1.0 35:1.0 41:1.0 41:1.0 41:1.0 41:1.0 46:1.0 59:1.0 68:1.0 72:1.0 103:1.0 126:1.0 136:1.0 136:1.0 136:1.0 140:1.0 140:1.0 140:1.0 154:1.0 154:1.0 160:1.0 160:1.0 169:1.0 199:1.0 222:1.0 222:1.0 222:1.0 222:1.0 227:1.0 227:1.0 227:1.0 227:1.0 241:1.0 241:1.0 241:1.0 241:1.0 246:1.0 246:1.0 246:1.0 246:1.0 259:1.0 289:1.0 
-0.0014244237426286415 20:1.0 33:1.0 43:1.0 43:1.0 47:1.0 47:1.0 61:1.0 61:1.0 61:1.0 61:1.0 67:1.0 67:1.0 67:1.0 67:1.0 77:1.0 105:1.0 129:1.0 129:1.0 134:1.0 134:1.0 166:1.0 196:1.0 
-0.0013197069391317057 20:1.0 33:1.0 43:1.0 43:1.0 43:1.0 47:1.0 47:1.0 47:1.0 61:1.0 61:1.0 61:1.0 61:1.0 67:1.0 67:1.0 67:1.0 67:1.0 81:1.0 111:1.0 
