svm_type c_svc
kernel_type polynomial
degree 2
gamma 1.0
coef0 1.0
nr_class 3
total_sv 79
rho 0.05570980701719556 -0.062448009984687 -0.12985957730915018
label 2 1 0
nr_sv 24 35 20
SV
0.0010668562980681614 8.613337783706475E-4 173:1.0 316:1.0 499:1.0 512:1.0 685:1.0 685:1.0 699:1.0 699:1.0 722:1.0 1097:1.0 1799:1.0 2084:1.0 2937:1.0 3371:1.0 3814:1.0 3828:1.0 3995:1.0 3995:1.0 4009:1.0 4009:1.0 4133:1.0 4710:1.0 5085:1.0 5437:1.0 5492:1.0 6144:1.0 6507:1.0 6827:1.0 
0.0011382952172724384 5.610590741931205E-4 94:1.0 320:1.0 499:1.0 499:1.0 499:1.0 512:1.0 512:1.0 512:1.0 685:1.0 685:1.0 685:1.0 685:1.0 685:1.0 685:1.0 699:1.0 699:1.0 699:1.0 699:1.0 699:1.0 699:1.0 853:1.0 1097:1.0 1809:1.0 2084:1.0 3110:1.0 3366:1.0 3995:1.0 3995:1.0 3995:1.0 3995:1.0 4009:1.0 4009:1.0 4009:1.0 4009:1.0 4309:1.0 4720:1.0 
0.0011353446329820567 6.479021091068435E-4 524:1.0 542:1.0 1561:1.0 1829:1.0 2272:1.0 2272:1.0 2272:1.0 2272:1.0 2286:1.0 2286:1.0 2286:1.0 2286:1.0 2453:1.0 2467:1.0 3135:1.0 3173:1.0 3660:1.0 3886:1.0 3903:1.0 3903:1.0 3907:1.0 3907:1.0 3914:1.0 3919:1.0 4148:1.0 4596:1.0 4967:1.0 5285:1.0 
4.6617727542606696E-4 5.14762645585258E-4 170:1.0 315:1.0 918:1.0 1103:1.0 1880:1.0 2084:1.0 2828:1.0 3364:1.0 3814:1.0 3814:1.0 3814:1.0 3814:1.0 3828:1.0 3828:1.0 3828:1.0 3828:1.0 3995:1.0 3995:1.0 3995:1.0 3995:1.0 3995:1.0 3995:1.0 4009:1.0 4009:1.0 4009:1.0 4009:1.0 4009:1.0 4009:1.0 4393:1.0 4720:1.0 4847:1.0 5438:1.0 5799:1.0 6146:1.0 6201:1.0 6835:1.0 
4.145169169255852E-5 0.0 305:1.0 320:1.0 499:1.0 499:1.0 499:1.0 512:1.0 512:1.0 512:1.0 685:1.0 685:1.0 685:1.0 685:1.0 685:1.0 685:1.0 699:1.0 699:1.0 699:1.0 699:1.0 699:1.0 699:1.0 765:1.0 1103:1.0 1596:1.0 2084:1.0 3349:1.0 3363:1.0 3814:1.0 3814:1.0 3828:1.0 3828:1.0 3995:1.0 3995:1.0 3995:1.0 3995:1.0 3995:1.0 3995:1.0 3995:1.0 3995:1.0 3995:1.0 3995:1.0 3995:1.0 3995:1.0 4009:1.0 4009:1.0 4009:1.0 4009:1.0 4009:1.0 4009:1.0 4009:1.0 4009:1.0 4009:1.0 4009:1.0 4009:1.0 4009:1.0 4372:1.0 4709:1.0 5396:1.0 5433:1.0 5612:1.0 6139:1.0 6154:1.0 6158:1.0 6165:1.0 6165:1.0 6170:1.0 6170:1.0 6268:1.0 6830:1.0 
2.3755646190489968E-4 1.7474783452351399E-4 306:1.0 312:1.0 499:1.0 499:1.0 499:1.0 512:1.0 512:1.0 512:1.0 685:1.0 685:1.0 685:1.0 685:1.0 685:1.0 685:1.0 685:1.0 685:1.0 685:1.0 685:1.0 685:1.0 685:1.0 685:1.0 685:1.0 699:1.0 699:1.0 699:1.0 699:1.0 699:1.0 699:1.0 699:1.0 699:1.0 699:1.0 699:1.0 699:1.0 699:1.0 699:1.0 699:1.0 722:1.0 1097:1.0 1589:1.0 2084:1.0 3171:1.0 3363:1.0 3995:1.0 4009:1.0 4331:1.0 4713:1.0 4976:1.0 5436:1.0 5445:1.0 5445:1.0 5449:1.0 5449:1.0 5456:1.0 5456:1.0 5456:1.0 5461:1.0 5461:1.0 5461:1.0 5799:1.0 6146:1.0 6201:1.0 6832:1.0 
9.81395442372653E-4 7.44386423112214E-4 157:1.0 321:1.0 722:1.0 1097:1.0 1689:1.0 2084:1.0 2796:1.0 3364:1.0 3995:1.0 4009:1.0 4026:1.0 4710:1.0 4739:1.0 4744:1.0 5117:1.0 5438:1.0 5771:1.0 6140:1.0 6726:1.0 6836:1.0 6845:1.0 6849:1.0 6855:1.0 6855:1.0 6855:1.0 6855:1.0 6855:1.0 6860:1.0 6860:1.0 6860:1.0 6860:1.0 6860:1.0 
0.0014183844214442248 0.001174356403487899 125:1.0 542:1.0 877:1.0 877:1.0 890:1.0 890:1.0 1664:1.0 1829:1.0 2272:1.0 2272:1.0 2286:1.0 2286:1.0 2453:1.0 2467:1.0 3134:1.0 3167:1.0 3420:1.0 3891:1.0 4510:1.0 4595:1.0 4612:1.0 4616:1.0 4623:1.0 4623:1.0 4628:1.0 4628:1.0 4987:1.0 5296:1.0 
7.405679071688209E-4 7.335756405867056E-4 115:1.0 320:1.0 499:1.0 499:1.0 499:1.0 512:1.0 512:1.0 512:1.0 685:1.0 685:1.0 699:1.0 699:1.0 848:1.0 1101:1.0 1323:1.0 1323:1.0 1323:1.0 1323:1.0 1323:1.0 1336:1.0 1336:1.0 1336:1.0 1336:1.0 1336:1.0 1527:1.0 1527:1.0 1541:1.0 1541:1.0 1589:1.0 2084:1.0 3171:1.0 3363:1.0 3995:1.0 4009:1.0 4114:1.0 4720:1.0 5194:1.0 5436:1.0 5445:1.0 5449:1.0 6105:1.0 6142:1.0 6600:1.0 6828:1.0 6845:1.0 6849:1.0 6855:1.0 6860:1.0 
4.990581704994364E-4 3.459346835643083E-4 287:1.0 316:1.0 499:1.0 499:1.0 512:1.0 512:1.0 685:1.0 685:1.0 699:1.0 699:1.0 1089:1.0 1093:1.0 1323:1.0 1323:1.0 1336:1.0 1336:1.0 1527:1.0 1527:1.0 1527:1.0 1527:1.0 1541:1.0 1541:1.0 1541:1.0 1541:1.0 1589:1.0 2084:1.0 3154:1.0 3364:1.0 3995:1.0 4009:1.0 4372:1.0 4709:1.0 5396:1.0 5433:1.0 5934:1.0 6139:1.0 6154:1.0 6158:1.0 6165:1.0 6165:1.0 6170:1.0 6170:1.0 6732:1.0 6830:1.0 
9.648488822971521E-4 0.0011086834015841707 300:1.0 320:1.0 499:1.0 499:1.0 499:1.0 499:1.0 512:1.0 512:1.0 512:1.0 512:1.0 685:1.0 685:1.0 699:1.0 699:1.0 959:1.0 1101:1.0 1323:1.0 1323:1.0 1323:1.0 1323:1.0 1323:1.0 1336:1.0 1336:1.0 1336:1.0 1336:1.0 1336:1.0 1527:1.0 1527:1.0 1541:1.0 1541:1.0 2054:1.0 2084:1.0 2419:1.0 2419:1.0 2419:1.0 2419:1.0 2432:1.0 2432:1.0 2432:1.0 2432:1.0 2678:1.0 3363:1.0 3814:1.0 3828:1.0 3995:1.0 4009:1.0 4372:1.0 4709:1.0 5224:1.0 5428:1.0 5445:1.0 5449:1.0 5456:1.0 5461:1.0 5810:1.0 6136:1.0 6796:1.0 6833:1.0 
1.5968349979176687E-4 0.0 58:1.0 312:1.0 499:1.0 499:1.0 499:1.0 499:1.0 499:1.0 512:1.0 512:1.0 512:1.0 512:1.0 512:1.0 685:1.0 685:1.0 685:1.0 685:1.0 685:1.0 685:1.0 685:1.0 685:1.0 699:1.0 699:1.0 699:1.0 699:1.0 699:1.0 699:1.0 699:1.0 699:1.0 899:1.0 1091:1.0 1843:1.0 2084:1.0 2794:1.0 3363:1.0 3814:1.0 3828:1.0 3995:1.0 3995:1.0 3995:1.0 3995:1.0 4009:1.0 4009:1.0 4009:1.0 4009:1.0 4372:1.0 4709:1.0 4962:1.0 5433:1.0 5697:1.0 6137:1.0 6165:1.0 6165:1.0 6170:1.0 6170:1.0 6448:1.0 6838:1.0 
4.729238684106618E-4 1.2236013168722684E-4 215:1.0 320:1.0 499:1.0 499:1.0 512:1.0 512:1.0 685:1.0 685:1.0 699:1.0 699:1.0 778:1.0 1093:1.0 1323:1.0 1323:1.0 1323:1.0 1323:1.0 1323:1.0 1336:1.0 1336:1.0 1336:1.0 1336:1.0 1336:1.0 1527:1.0 1527:1.0 1527:1.0 1527:1.0 1527:1.0 1527:1.0 1527:1.0 1527:1.0 1541:1.0 1541:1.0 1541:1.0 1541:1.0 1541:1.0 1541:1.0 1541:1.0 1541:1.0 1809:1.0 2084:1.0 2794:1.0 3363:1.0 3814:1.0 3828:1.0 3995:1.0 3995:1.0 3995:1.0 3995:1.0 3995:1.0 4009:1.0 4009:1.0 4009:1.0 4009:1.0 4009:1.0 4372:1.0 4709:1.0 4962:1.0 5433:1.0 5697:1.0 6137:1.0 6165:1.0 6165:1.0 6170:1.0 6170:1.0 6448:1.0 6838:1.0 
3.8032115955468216E-4 1.8375477950797326E-4 234:1.0 314:1.0 499:1.0 499:1.0 499:1.0 499:1.0 499:1.0 512:1.0 512:1.0 512:1.0 512:1.0 512:1.0 685:1.0 685:1.0 699:1.0 699:1.0 765:1.0 1103:1.0 1639:1.0 2084:1.0 2723:1.0 3364:1.0 3814:1.0 3814:1.0 3828:1.0 3828:1.0 3995:1.0 3995:1.0 4009:1.0 4009:1.0 4124:1.0 4709:1.0 5257:1.0 5433:1.0 5466:1.0 6139:1.0 6154:1.0 6154:1.0 6158:1.0 6158:1.0 6165:1.0 6165:1.0 6170:1.0 6170:1.0 6285:1.0 6830:1.0 
7.422540535386964E-4 5.143976466584148E-4 98:1.0 542:1.0 1362:1.0 1829:1.0 2272:1.0 2272:1.0 2286:1.0 2286:1.0 2453:1.0 2453:1.0 2453:1.0 2467:1.0 2467:1.0 2467:1.0 2890:1.0 3173:1.0 3344:1.0 3886:1.0 3903:1.0 3903:1.0 3907:1.0 3907:1.0 3914:1.0 3919:1.0 4137:1.0 4596:1.0 4967:1.0 5285:1.0 
2.246600368230257E-4 3.304148399489031E-4 97:1.0 315:1.0 908:1.0 1092:1.0 1830:1.0 2084:1.0 2419:1.0 2419:1.0 2432:1.0 2432:1.0 3190:1.0 3363:1.0 3814:1.0 3814:1.0 3814:1.0 3814:1.0 3828:1.0 3828:1.0 3828:1.0 3828:1.0 3995:1.0 3995:1.0 3995:1.0 3995:1.0 3995:1.0 3995:1.0 3995:1.0 4009:1.0 4009:1.0 4009:1.0 4009:1.0 4009:1.0 4009:1.0 4009:1.0 4114:1.0 4720:1.0 5410:1.0 5437:1.0 5569:1.0 6140:1.0 6192:1.0 6836:1.0 6845:1.0 6849:1.0 6855:1.0 6860:1.0 
8.522050811148379E-4 7.937412346779033E-4 217:1.0 393:1.0 827:1.0 827:1.0 841:1.0 841:1.0 1157:1.0 1384:1.0 2213:1.0 2671:1.0 3114:1.0 3114:1.0 3128:1.0 3128:1.0 3295:1.0 3295:1.0 3309:1.0 3309:1.0 3343:1.0 4017:1.0 4262:1.0 4733:1.0 5276:1.0 5437:1.0 5465:1.0 5470:1.0 5880:1.0 6136:1.0 6145:1.0 6145:1.0 6149:1.0 6149:1.0 6155:1.0 6155:1.0 6160:1.0 6160:1.0 
7.731520453999466E-4 6.728390294735736E-4 128:1.0 320:1.0 499:1.0 499:1.0 512:1.0 512:1.0 906:1.0 1092:1.0 1830:1.0 2084:1.0 2419:1.0 2419:1.0 2432:1.0 2432:1.0 3292:1.0 3363:1.0 3995:1.0 3995:1.0 3995:1.0 3995:1.0 4009:1.0 4009:1.0 4009:1.0 4009:1.0 4668:1.0 4709:1.0 5396:1.0 5433:1.0 5703:1.0 6137:1.0 6154:1.0 6158:1.0 6165:1.0 6165:1.0 6170:1.0 6170:1.0 6509:1.0 6827:1.0 
6.656934993092402E-4 0.0011075959536204366 51:1.0 401:1.0 623:1.0 623:1.0 623:1.0 623:1.0 636:1.0 636:1.0 636:1.0 636:1.0 827:1.0 827:1.0 841:1.0 841:1.0 1138:1.0 1384:1.0 1719:1.0 1719:1.0 1719:1.0 1719:1.0 1732:1.0 1732:1.0 1732:1.0 1732:1.0 2031:1.0 2669:1.0 3114:1.0 3128:1.0 3295:1.0 3309:1.0 3424:1.0 4009:1.0 4576:1.0 4734:1.0 4756:1.0 4761:1.0 4938:1.0 5436:1.0 6012:1.0 6128:1.0 6155:1.0 6160:1.0 
8.925284696073357E-4 5.707084725701097E-4 387:1.0 542:1.0 877:1.0 877:1.0 890:1.0 890:1.0 1730:1.0 1829:1.0 2272:1.0 2272:1.0 2286:1.0 2286:1.0 2453:1.0 2453:1.0 2453:1.0 2467:1.0 2467:1.0 2467:1.0 2678:1.0 3173:1.0 3814:1.0 3886:1.0 3903:1.0 3907:1.0 3914:1.0 3919:1.0 4268:1.0 4594:1.0 4651:1.0 5292:1.0 
2.951128886340541E-5 7.986391788349885E-5 288:1.0 312:1.0 499:1.0 512:1.0 685:1.0 685:1.0 685:1.0 685:1.0 685:1.0 685:1.0 685:1.0 685:1.0 699:1.0 699:1.0 699:1.0 699:1.0 699:1.0 699:1.0 699:1.0 699:1.0 1069:1.0 1092:1.0 1838:1.0 2084:1.0 2419:1.0 2419:1.0 2432:1.0 2432:1.0 2812:1.0 3363:1.0 3814:1.0 3828:1.0 3995:1.0 3995:1.0 3995:1.0 3995:1.0 4009:1.0 4009:1.0 4009:1.0 4009:1.0 4124:1.0 4709:1.0 5172:1.0 5428:1.0 5456:1.0 5461:1.0 6056:1.0 6146:1.0 6154:1.0 6154:1.0 6154:1.0 6158:1.0 6158:1.0 6158:1.0 6165:1.0 6170:1.0 6201:1.0 6835:1.0 
3.6615972016943685E-4 2.70884272177019E-4 272:1.0 321:1.0 499:1.0 499:1.0 499:1.0 499:1.0 512:1.0 512:1.0 512:1.0 512:1.0 685:1.0 685:1.0 699:1.0 699:1.0 824:1.0 1098:1.0 1589:1.0 2084:1.0 2885:1.0 3364:1.0 3995:1.0 3995:1.0 4009:1.0 4009:1.0 4399:1.0 4713:1.0 4962:1.0 5433:1.0 5855:1.0 6137:1.0 6154:1.0 6158:1.0 6165:1.0 6165:1.0 6165:1.0 6170:1.0 6170:1.0 6170:1.0 6795:1.0 6827:1.0 
3.006167691799459E-4 3.41872667916254E-4 178:1.0 312:1.0 499:1.0 512:1.0 685:1.0 685:1.0 685:1.0 685:1.0 685:1.0 685:1.0 699:1.0 699:1.0 699:1.0 699:1.0 699:1.0 699:1.0 1069:1.0 1092:1.0 1950:1.0 2084:1.0 2812:1.0 3363:1.0 3814:1.0 3814:1.0 3828:1.0 3828:1.0 3995:1.0 3995:1.0 3995:1.0 3995:1.0 4009:1.0 4009:1.0 4009:1.0 4009:1.0 4124:1.0 4709:1.0 5157:1.0 5428:1.0 5456:1.0 5461:1.0 5808:1.0 6136:1.0 6663:1.0 6833:1.0 
8.299946921154536E-4 8.714912088220835E-4 273:1.0 401:1.0 623:1.0 623:1.0 623:1.0 623:1.0 623:1.0 636:1.0 636:1.0 636:1.0 636:1.0 636:1.0 827:1.0 827:1.0 827:1.0 827:1.0 841:1.0 841:1.0 841:1.0 841:1.0 1138:1.0 1384:1.0 1719:1.0 1719:1.0 1732:1.0 1732:1.0 2127:1.0 2663:1.0 3114:1.0 3128:1.0 3295:1.0 3295:1.0 3295:1.0 3309:1.0 3309:1.0 3309:1.0 3672:1.0 4009:1.0 4439:1.0 4730:1.0 4745:1.0 4745:1.0 4749:1.0 4749:1.0 4756:1.0 4761:1.0 5099:1.0 5446:1.0 5875:1.0 6130:1.0 
-7.489288587706488E-4 1.9494090732049264E-4 94:1.0 320:1.0 499:1.0 499:1.0 499:1.0 512:1.0 512:1.0 512:1.0 685:1.0 685:1.0 685:1.0 685:1.0 685:1.0 685:1.0 699:1.0 699:1.0 699:1.0 699:1.0 699:1.0 699:1.0 853:1.0 1097:1.0 1809:1.0 2084:1.0 2845:1.0 3367:1.0 4463:1.0 4713:1.0 4739:1.0 4739:1.0 4739:1.0 4744:1.0 4744:1.0 4744:1.0 5035:1.0 5438:1.0 
-1.1681598747443042E-4 6.03107947551668E-4 122:1.0 320:1.0 499:1.0 499:1.0 499:1.0 512:1.0 512:1.0 512:1.0 775:1.0 1101:1.0 1323:1.0 1323:1.0 1336:1.0 1336:1.0 1527:1.0 1527:1.0 1527:1.0 1527:1.0 1527:1.0 1527:1.0 1541:1.0 1541:1.0 1541:1.0 1541:1.0 1541:1.0 1541:1.0 1589:1.0 2084:1.0 2419:1.0 2419:1.0 2419:1.0 2432:1.0 2432:1.0 2432:1.0 3330:1.0 3368:1.0 4325:1.0 4719:1.0 4727:1.0 4731:1.0 4739:1.0 4744:1.0 5106:1.0 5430:1.0 5445:1.0 5449:1.0 5546:1.0 6139:1.0 6795:1.0 6827:1.0 
-2.37898485868271E-4 7.842419429035189E-4 122:1.0 320:1.0 499:1.0 499:1.0 499:1.0 512:1.0 512:1.0 512:1.0 775:1.0 1101:1.0 1323:1.0 1323:1.0 1336:1.0 1336:1.0 1527:1.0 1527:1.0 1527:1.0 1527:1.0 1527:1.0 1527:1.0 1541:1.0 1541:1.0 1541:1.0 1541:1.0 1541:1.0 1541:1.0 1589:1.0 2084:1.0 2419:1.0 2419:1.0 2419:1.0 2432:1.0 2432:1.0 2432:1.0 2970:1.0 3372:1.0 3814:1.0 3828:1.0 3995:1.0 3995:1.0 4009:1.0 4009:1.0 4382:1.0 4712:1.0 4727:1.0 4731:1.0 4831:1.0 5430:1.0 6104:1.0 6136:1.0 6812:1.0 6828:1.0 6845:1.0 6849:1.0 6855:1.0 6860:1.0 
-7.295936877857235E-4 3.639457627469446E-4 305:1.0 320:1.0 499:1.0 499:1.0 499:1.0 512:1.0 512:1.0 512:1.0 685:1.0 685:1.0 685:1.0 685:1.0 685:1.0 685:1.0 699:1.0 699:1.0 699:1.0 699:1.0 699:1.0 699:1.0 765:1.0 1103:1.0 1596:1.0 2084:1.0 2673:1.0 3366:1.0 3814:1.0 3828:1.0 4193:1.0 4709:1.0 5090:1.0 5428:1.0 5456:1.0 5461:1.0 5492:1.0 6144:1.0 6588:1.0 6830:1.0 
-5.360057416033375E-4 6.139449220915911E-4 305:1.0 320:1.0 499:1.0 499:1.0 499:1.0 512:1.0 512:1.0 512:1.0 685:1.0 685:1.0 685:1.0 685:1.0 685:1.0 685:1.0 699:1.0 699:1.0 699:1.0 699:1.0 699:1.0 699:1.0 765:1.0 1103:1.0 1596:1.0 2084:1.0 2673:1.0 3366:1.0 3814:1.0 3814:1.0 3828:1.0 3828:1.0 4043:1.0 4717:1.0 5177:1.0 5430:1.0 5848:1.0 6140:1.0 6663:1.0 6833:1.0 
-0.0 5.697537916012857E-5 215:1.0 320:1.0 499:1.0 499:1.0 512:1.0 512:1.0 685:1.0 685:1.0 685:1.0 685:1.0 699:1.0 699:1.0 699:1.0 699:1.0 860:1.0 1101:1.0 1323:1.0 1336:1.0 1527:1.0 1527:1.0 1527:1.0 1527:1.0 1541:1.0 1541:1.0 1541:1.0 1541:1.0 1923:1.0 2084:1.0 2419:1.0 2419:1.0 2419:1.0 2419:1.0 2432:1.0 2432:1.0 2432:1.0 2432:1.0 2634:1.0 2634:1.0 2634:1.0 2634:1.0 2648:1.0 2648:1.0 2648:1.0 2648:1.0 3330:1.0 3368:1.0 4560:1.0 4710:1.0 4727:1.0 4731:1.0 4739:1.0 4744:1.0 5096:1.0 5427:1.0 5968:1.0 6142:1.0 6743:1.0 6828:1.0 6845:1.0 6845:1.0 6849:1.0 6849:1.0 6855:1.0 6855:1.0 6860:1.0 6860:1.0 
-2.614119309388475E-4 4.868660137372068E-4 215:1.0 320:1.0 499:1.0 499:1.0 512:1.0 512:1.0 685:1.0 685:1.0 685:1.0 685:1.0 699:1.0 699:1.0 699:1.0 699:1.0 860:1.0 1101:1.0 1323:1.0 1336:1.0 1527:1.0 1527:1.0 1527:1.0 1527:1.0 1541:1.0 1541:1.0 1541:1.0 1541:1.0 1923:1.0 2084:1.0 2419:1.0 2419:1.0 2419:1.0 2419:1.0 2432:1.0 2432:1.0 2432:1.0 2432:1.0 2634:1.0 2634:1.0 2634:1.0 2634:1.0 2648:1.0 2648:1.0 2648:1.0 2648:1.0 3209:1.0 3363:1.0 3814:1.0 3828:1.0 3995:1.0 3995:1.0 4009:1.0 4009:1.0 4372:1.0 4709:1.0 5257:1.0 5433:1.0 6051:1.0 6137:1.0 6154:1.0 6154:1.0 6158:1.0 6158:1.0 6165:1.0 6165:1.0 6170:1.0 6170:1.0 6708:1.0 6829:1.0 
-0.0 4.530887955398865E-4 215:1.0 320:1.0 499:1.0 499:1.0 512:1.0 512:1.0 685:1.0 685:1.0 685:1.0 685:1.0 699:1.0 699:1.0 699:1.0 699:1.0 860:1.0 1101:1.0 1323:1.0 1336:1.0 1527:1.0 1527:1.0 1527:1.0 1527:1.0 1541:1.0 1541:1.0 1541:1.0 1541:1.0 1923:1.0 2084:1.0 2419:1.0 2419:1.0 2419:1.0 2419:1.0 2419:1.0 2432:1.0 2432:1.0 2432:1.0 2432:1.0 2432:1.0 2634:1.0 2634:1.0 2634:1.0 2634:1.0 2648:1.0 2648:1.0 2648:1.0 2648:1.0 2684:1.0 3367:1.0 4321:1.0 4713:1.0 4963:1.0 5436:1.0 5445:1.0 5449:1.0 5456:1.0 5456:1.0 5461:1.0 5461:1.0 5770:1.0 6142:1.0 6228:1.0 6828:1.0 6845:1.0 6849:1.0 6855:1.0 6860:1.0 
-2.8665678675502966E-4 0.001103575116296683 215:1.0 320:1.0 499:1.0 499:1.0 512:1.0 512:1.0 685:1.0 685:1.0 685:1.0 685:1.0 699:1.0 699:1.0 699:1.0 699:1.0 860:1.0 1101:1.0 1323:1.0 1336:1.0 1527:1.0 1527:1.0 1527:1.0 1527:1.0 1541:1.0 1541:1.0 1541:1.0 1541:1.0 1923:1.0 2084:1.0 2419:1.0 2419:1.0 2419:1.0 2419:1.0 2419:1.0 2432:1.0 2432:1.0 2432:1.0 2432:1.0 2432:1.0 2634:1.0 2634:1.0 2634:1.0 2634:1.0 2648:1.0 2648:1.0 2648:1.0 2648:1.0 2877:1.0 3371:1.0 3814:1.0 3828:1.0 3995:1.0 3995:1.0 3995:1.0 3995:1.0 4009:1.0 4009:1.0 4009:1.0 4009:1.0 4330:1.0 4715:1.0 4807:1.0 5428:1.0 5445:1.0 5449:1.0 5456:1.0 5461:1.0 5502:1.0 6138:1.0 6448:1.0 6838:1.0 
-1.1114960727785658E-4 9.202891350029754E-4 300:1.0 320:1.0 499:1.0 499:1.0 499:1.0 499:1.0 512:1.0 512:1.0 512:1.0 512:1.0 685:1.0 685:1.0 699:1.0 699:1.0 959:1.0 1101:1.0 1323:1.0 1323:1.0 1323:1.0 1323:1.0 1336:1.0 1336:1.0 1336:1.0 1336:1.0 1527:1.0 1527:1.0 1541:1.0 1541:1.0 2002:1.0 2084:1.0 2419:1.0 2432:1.0 3018:1.0 3362:1.0 4451:1.0 4710:1.0 4727:1.0 4731:1.0 4739:1.0 4744:1.0 5096:1.0 5427:1.0 5968:1.0 6142:1.0 6670:1.0 6828:1.0 6855:1.0 6855:1.0 6860:1.0 6860:1.0 
-4.7321367211745273E-4 3.1623761688341276E-4 300:1.0 320:1.0 499:1.0 499:1.0 499:1.0 499:1.0 512:1.0 512:1.0 512:1.0 512:1.0 685:1.0 685:1.0 699:1.0 699:1.0 959:1.0 1101:1.0 1323:1.0 1323:1.0 1323:1.0 1323:1.0 1336:1.0 1336:1.0 1336:1.0 1336:1.0 1527:1.0 1527:1.0 1541:1.0 1541:1.0 2002:1.0 2084:1.0 2419:1.0 2432:1.0 3097:1.0 3363:1.0 3814:1.0 3828:1.0 3995:1.0 3995:1.0 4009:1.0 4009:1.0 4372:1.0 4709:1.0 5257:1.0 5433:1.0 5975:1.0 6137:1.0 6165:1.0 6165:1.0 6170:1.0 6170:1.0 6791:1.0 6826:1.0 6845:1.0 6845:1.0 6849:1.0 6849:1.0 
-5.32655295217184E-4 5.514000271648029E-4 215:1.0 320:1.0 499:1.0 499:1.0 512:1.0 512:1.0 685:1.0 685:1.0 699:1.0 699:1.0 778:1.0 1093:1.0 1323:1.0 1323:1.0 1323:1.0 1323:1.0 1323:1.0 1336:1.0 1336:1.0 1336:1.0 1336:1.0 1336:1.0 1527:1.0 1527:1.0 1527:1.0 1527:1.0 1527:1.0 1527:1.0 1527:1.0 1527:1.0 1541:1.0 1541:1.0 1541:1.0 1541:1.0 1541:1.0 1541:1.0 1541:1.0 1541:1.0 1809:1.0 2084:1.0 3046:1.0 3361:1.0 4677:1.0 4715:1.0 4886:1.0 5428:1.0 5445:1.0 5449:1.0 5456:1.0 5456:1.0 5456:1.0 5461:1.0 5461:1.0 5461:1.0 5810:1.0 6136:1.0 6379:1.0 6833:1.0 
-1.3577657166837637E-4 0.0 58:1.0 312:1.0 499:1.0 499:1.0 499:1.0 499:1.0 499:1.0 512:1.0 512:1.0 512:1.0 512:1.0 512:1.0 685:1.0 685:1.0 685:1.0 685:1.0 685:1.0 685:1.0 685:1.0 685:1.0 699:1.0 699:1.0 699:1.0 699:1.0 699:1.0 699:1.0 699:1.0 699:1.0 899:1.0 1091:1.0 1843:1.0 2084:1.0 3330:1.0 3368:1.0 4154:1.0 4710:1.0 4727:1.0 4731:1.0 4739:1.0 4739:1.0 4739:1.0 4744:1.0 4744:1.0 4744:1.0 5096:1.0 5427:1.0 5677:1.0 6142:1.0 6398:1.0 6828:1.0 6855:1.0 6855:1.0 6860:1.0 6860:1.0 
-4.1758008440216307E-4 0.0016856220418795468 278:1.0 320:1.0 499:1.0 499:1.0 499:1.0 512:1.0 512:1.0 512:1.0 903:1.0 1101:1.0 1323:1.0 1323:1.0 1323:1.0 1323:1.0 1323:1.0 1336:1.0 1336:1.0 1336:1.0 1336:1.0 1336:1.0 2002:1.0 2084:1.0 2419:1.0 2432:1.0 3018:1.0 3362:1.0 4535:1.0 4715:1.0 4798:1.0 5428:1.0 5445:1.0 5449:1.0 5456:1.0 5456:1.0 5461:1.0 5461:1.0 5810:1.0 6136:1.0 6663:1.0 6833:1.0 
-7.941270841140193E-4 6.822097431598116E-4 278:1.0 320:1.0 499:1.0 499:1.0 499:1.0 512:1.0 512:1.0 512:1.0 903:1.0 1101:1.0 1323:1.0 1323:1.0 1323:1.0 1323:1.0 1323:1.0 1336:1.0 1336:1.0 1336:1.0 1336:1.0 1336:1.0 2002:1.0 2084:1.0 2419:1.0 2432:1.0 2705:1.0 3363:1.0 3814:1.0 3828:1.0 3995:1.0 3995:1.0 3995:1.0 3995:1.0 4009:1.0 4009:1.0 4009:1.0 4009:1.0 4372:1.0 4709:1.0 5257:1.0 5433:1.0 5975:1.0 6137:1.0 6165:1.0 6165:1.0 6170:1.0 6170:1.0 6448:1.0 6838:1.0 
-0.0011454627921532155 0.0012185011937604889 98:1.0 542:1.0 1642:1.0 1826:1.0 2867:1.0 3170:1.0 3185:1.0 3185:1.0 3185:1.0 3185:1.0 3185:1.0 3185:1.0 3189:1.0 3189:1.0 3189:1.0 3189:1.0 3189:1.0 3189:1.0 3197:1.0 3202:1.0 3293:1.0 3888:1.0 4327:1.0 4597:1.0 4936:1.0 5296:1.0 
-5.591412346730365E-4 4.736801203284963E-4 98:1.0 542:1.0 1513:1.0 1823:1.0 2272:1.0 2272:1.0 2272:1.0 2272:1.0 2272:1.0 2272:1.0 2286:1.0 2286:1.0 2286:1.0 2286:1.0 2286:1.0 2286:1.0 2453:1.0 2453:1.0 2467:1.0 2467:1.0 2559:1.0 3170:1.0 3614:1.0 3888:1.0 4237:1.0 4605:1.0 5167:1.0 5288:1.0 5303:1.0 5307:1.0 5313:1.0 5318:1.0 
-4.4248898472524004E-4 2.748817046042889E-4 98:1.0 542:1.0 1513:1.0 1823:1.0 2272:1.0 2272:1.0 2272:1.0 2272:1.0 2272:1.0 2272:1.0 2272:1.0 2286:1.0 2286:1.0 2286:1.0 2286:1.0 2286:1.0 2286:1.0 2286:1.0 2453:1.0 2453:1.0 2467:1.0 2467:1.0 2891:1.0 3170:1.0 3523:1.0 3896:1.0 4474:1.0 4597:1.0 4612:1.0 4616:1.0 4623:1.0 4628:1.0 4708:1.0 5296:1.0 
-3.458361310816391E-4 9.26118930011963E-5 98:1.0 542:1.0 1513:1.0 1823:1.0 2272:1.0 2272:1.0 2272:1.0 2272:1.0 2272:1.0 2272:1.0 2272:1.0 2272:1.0 2286:1.0 2286:1.0 2286:1.0 2286:1.0 2286:1.0 2286:1.0 2286:1.0 2286:1.0 2453:1.0 2453:1.0 2467:1.0 2467:1.0 2797:1.0 3178:1.0 3764:1.0 3888:1.0 3903:1.0 3907:1.0 3914:1.0 3919:1.0 4002:1.0 4605:1.0 4725:1.0 5296:1.0 
-4.6544489655503255E-4 2.453168178851701E-4 98:1.0 542:1.0 1513:1.0 1823:1.0 2272:1.0 2272:1.0 2272:1.0 2272:1.0 2272:1.0 2272:1.0 2272:1.0 2272:1.0 2272:1.0 2286:1.0 2286:1.0 2286:1.0 2286:1.0 2286:1.0 2286:1.0 2286:1.0 2286:1.0 2286:1.0 2453:1.0 2453:1.0 2467:1.0 2467:1.0 2572:1.0 3178:1.0 3699:1.0 3887:1.0 3903:1.0 3907:1.0 3914:1.0 3919:1.0 4030:1.0 4594:1.0 5121:1.0 5291:1.0 
-1.2025834648612648E-4 7.238412066331386E-5 98:1.0 542:1.0 1513:1.0 1823:1.0 2272:1.0 2272:1.0 2272:1.0 2272:1.0 2272:1.0 2272:1.0 2272:1.0 2272:1.0 2272:1.0 2272:1.0 2286:1.0 2286:1.0 2286:1.0 2286:1.0 2286:1.0 2286:1.0 2286:1.0 2286:1.0 2286:1.0 2286:1.0 2453:1.0 2453:1.0 2467:1.0 2467:1.0 2819:1.0 3177:1.0 3715:1.0 3891:1.0 4304:1.0 4597:1.0 4612:1.0 4612:1.0 4612:1.0 4616:1.0 4616:1.0 4616:1.0 4623:1.0 4628:1.0 4967:1.0 5285:1.0 
-5.406873078693469E-5 0.0 98:1.0 542:1.0 1513:1.0 1823:1.0 2272:1.0 2272:1.0 2272:1.0 2272:1.0 2272:1.0 2272:1.0 2272:1.0 2272:1.0 2272:1.0 2272:1.0 2272:1.0 2286:1.0 2286:1.0 2286:1.0 2286:1.0 2286:1.0 2286:1.0 2286:1.0 2286:1.0 2286:1.0 2286:1.0 2286:1.0 2453:1.0 2453:1.0 2467:1.0 2467:1.0 2993:1.0 3173:1.0 3591:1.0 3888:1.0 3903:1.0 3903:1.0 3903:1.0 3907:1.0 3907:1.0 3907:1.0 3914:1.0 3919:1.0 4268:1.0 4594:1.0 4943:1.0 5288:1.0 5303:1.0 5303:1.0 5307:1.0 5307:1.0 5313:1.0 5318:1.0 
-4.259184390365641E-4 4.29060066279733E-4 97:1.0 315:1.0 908:1.0 1092:1.0 1830:1.0 2084:1.0 2419:1.0 2419:1.0 2432:1.0 2432:1.0 2966:1.0 3369:1.0 4541:1.0 4710:1.0 4727:1.0 4727:1.0 4727:1.0 4727:1.0 4731:1.0 4731:1.0 4731:1.0 4731:1.0 4739:1.0 4739:1.0 4739:1.0 4739:1.0 4739:1.0 4739:1.0 4744:1.0 4744:1.0 4744:1.0 4744:1.0 4744:1.0 4744:1.0 4847:1.0 5438:1.0 6119:1.0 6146:1.0 6274:1.0 6831:1.0 
-6.909920318836234E-4 0.001122947470586987 30:1.0 401:1.0 623:1.0 623:1.0 623:1.0 623:1.0 636:1.0 636:1.0 636:1.0 636:1.0 827:1.0 827:1.0 827:1.0 827:1.0 841:1.0 841:1.0 841:1.0 841:1.0 1321:1.0 1384:1.0 1719:1.0 1732:1.0 1984:1.0 2670:1.0 3534:1.0 4015:1.0 4450:1.0 4728:1.0 4745:1.0 4745:1.0 4749:1.0 4749:1.0 4756:1.0 4761:1.0 4800:1.0 5438:1.0 5825:1.0 6129:1.0 
-5.679101181966688E-4 0.0013022073867735772 30:1.0 401:1.0 623:1.0 623:1.0 623:1.0 623:1.0 636:1.0 636:1.0 636:1.0 636:1.0 827:1.0 827:1.0 827:1.0 827:1.0 841:1.0 841:1.0 841:1.0 841:1.0 1321:1.0 1384:1.0 1719:1.0 1732:1.0 2246:1.0 2671:1.0 3114:1.0 3128:1.0 3295:1.0 3295:1.0 3295:1.0 3295:1.0 3309:1.0 3309:1.0 3309:1.0 3309:1.0 3670:1.0 4009:1.0 4027:1.0 4027:1.0 4031:1.0 4031:1.0 4557:1.0 4733:1.0 4817:1.0 5435:1.0 5666:1.0 6133:1.0 
-4.854625447344742E-4 6.963625667324189E-4 115:1.0 401:1.0 623:1.0 623:1.0 636:1.0 636:1.0 827:1.0 827:1.0 827:1.0 827:1.0 827:1.0 827:1.0 841:1.0 841:1.0 841:1.0 841:1.0 841:1.0 841:1.0 1323:1.0 1384:1.0 1719:1.0 1732:1.0 2318:1.0 2662:1.0 3343:1.0 4017:1.0 4367:1.0 4730:1.0 4820:1.0 5441:1.0 5996:1.0 6136:1.0 6145:1.0 6149:1.0 6155:1.0 6155:1.0 6155:1.0 6155:1.0 6160:1.0 6160:1.0 6160:1.0 6160:1.0 
-2.4321013054269167E-4 7.358944427626779E-4 115:1.0 401:1.0 623:1.0 623:1.0 636:1.0 636:1.0 827:1.0 827:1.0 827:1.0 827:1.0 827:1.0 827:1.0 841:1.0 841:1.0 841:1.0 841:1.0 841:1.0 841:1.0 1323:1.0 1384:1.0 1719:1.0 1732:1.0 2519:1.0 2671:1.0 3114:1.0 3128:1.0 3295:1.0 3295:1.0 3295:1.0 3295:1.0 3295:1.0 3295:1.0 3295:1.0 3295:1.0 3309:1.0 3309:1.0 3309:1.0 3309:1.0 3309:1.0 3309:1.0 3309:1.0 3309:1.0 3835:1.0 4015:1.0 4491:1.0 4728:1.0 4745:1.0 4749:1.0 4756:1.0 4761:1.0 5110:1.0 5436:1.0 5860:1.0 6130:1.0 6145:1.0 6145:1.0 6145:1.0 6145:1.0 6149:1.0 6149:1.0 6149:1.0 6149:1.0 6155:1.0 6160:1.0 
-5.940011363700862E-4 5.663792817554446E-4 128:1.0 320:1.0 499:1.0 499:1.0 512:1.0 512:1.0 906:1.0 1092:1.0 1830:1.0 2084:1.0 2419:1.0 2419:1.0 2432:1.0 2432:1.0 3108:1.0 3369:1.0 4640:1.0 4710:1.0 4739:1.0 4739:1.0 4739:1.0 4744:1.0 4744:1.0 4744:1.0 5388:1.0 5427:1.0 6105:1.0 6142:1.0 6404:1.0 6828:1.0 6845:1.0 6849:1.0 6855:1.0 6855:1.0 6860:1.0 6860:1.0 
-0.001122438325959106 0.001189957028293749 387:1.0 542:1.0 877:1.0 877:1.0 890:1.0 890:1.0 1334:1.0 1826:1.0 2479:1.0 3168:1.0 3197:1.0 3202:1.0 3799:1.0 3894:1.0 3903:1.0 3903:1.0 3907:1.0 3907:1.0 3914:1.0 3914:1.0 3919:1.0 3919:1.0 4122:1.0 4600:1.0 5215:1.0 5286:1.0 5303:1.0 5307:1.0 5313:1.0 5318:1.0 
-0.001025790934972543 9.574171837231606E-4 387:1.0 542:1.0 877:1.0 877:1.0 890:1.0 890:1.0 1119:1.0 1821:1.0 2453:1.0 2453:1.0 2467:1.0 2467:1.0 3079:1.0 3176:1.0 3185:1.0 3185:1.0 3189:1.0 3189:1.0 3197:1.0 3197:1.0 3202:1.0 3202:1.0 3407:1.0 3891:1.0 4523:1.0 4595:1.0 4612:1.0 4616:1.0 4623:1.0 4628:1.0 4967:1.0 5285:1.0 
-0.0 1.4133813504302239E-4 288:1.0 312:1.0 499:1.0 512:1.0 685:1.0 685:1.0 685:1.0 685:1.0 685:1.0 685:1.0 685:1.0 685:1.0 699:1.0 699:1.0 699:1.0 699:1.0 699:1.0 699:1.0 699:1.0 699:1.0 1069:1.0 1092:1.0 1838:1.0 2084:1.0 2419:1.0 2419:1.0 2432:1.0 2432:1.0 2768:1.0 3369:1.0 4171:1.0 4710:1.0 4727:1.0 4731:1.0 4739:1.0 4739:1.0 4739:1.0 4744:1.0 4744:1.0 4744:1.0 4857:1.0 5427:1.0 5885:1.0 6137:1.0 6165:1.0 6170:1.0 6748:1.0 6837:1.0 6845:1.0 6845:1.0 6845:1.0 6849:1.0 6849:1.0 6849:1.0 6855:1.0 6860:1.0 
-3.4959168542081115E-4 1.9420566053049936E-4 178:1.0 312:1.0 499:1.0 512:1.0 685:1.0 685:1.0 685:1.0 685:1.0 685:1.0 685:1.0 699:1.0 699:1.0 699:1.0 699:1.0 699:1.0 699:1.0 1069:1.0 1092:1.0 1950:1.0 2084:1.0 3251:1.0 3369:1.0 4171:1.0 4710:1.0 4727:1.0 4727:1.0 4731:1.0 4731:1.0 4739:1.0 4739:1.0 4739:1.0 4744:1.0 4744:1.0 4744:1.0 4857:1.0 5427:1.0 5870:1.0 6137:1.0 6165:1.0 6170:1.0 6507:1.0 6827:1.0 
-4.4009151123708894E-4 7.919363917635512E-4 273:1.0 401:1.0 623:1.0 623:1.0 623:1.0 623:1.0 623:1.0 636:1.0 636:1.0 636:1.0 636:1.0 636:1.0 827:1.0 827:1.0 827:1.0 827:1.0 841:1.0 841:1.0 841:1.0 841:1.0 1138:1.0 1384:1.0 1719:1.0 1719:1.0 1732:1.0 1732:1.0 2199:1.0 2669:1.0 3485:1.0 4010:1.0 4027:1.0 4031:1.0 4039:1.0 4039:1.0 4044:1.0 4044:1.0 4396:1.0 4727:1.0 5152:1.0 5439:1.0 5454:1.0 5454:1.0 5458:1.0 5458:1.0 5465:1.0 5470:1.0 5798:1.0 6137:1.0 
-1.1702898390417847E-4 3.090975384999798E-4 34:1.0 320:1.0 499:1.0 499:1.0 499:1.0 499:1.0 512:1.0 512:1.0 512:1.0 512:1.0 685:1.0 685:1.0 699:1.0 699:1.0 724:1.0 1101:1.0 1323:1.0 1323:1.0 1323:1.0 1336:1.0 1336:1.0 1336:1.0 1527:1.0 1527:1.0 1541:1.0 1541:1.0 1823:1.0 2084:1.0 2419:1.0 2432:1.0 2755:1.0 3373:1.0 4442:1.0 4710:1.0 4727:1.0 4731:1.0 4739:1.0 4744:1.0 4847:1.0 5438:1.0 6105:1.0 6142:1.0 6756:1.0 6828:1.0 6855:1.0 6860:1.0 
-8.026898322945028E-4 9.276983185998965E-4 34:1.0 320:1.0 499:1.0 499:1.0 499:1.0 499:1.0 512:1.0 512:1.0 512:1.0 512:1.0 685:1.0 685:1.0 699:1.0 699:1.0 724:1.0 1101:1.0 1323:1.0 1323:1.0 1323:1.0 1336:1.0 1336:1.0 1336:1.0 1527:1.0 1527:1.0 1541:1.0 1541:1.0 1823:1.0 2084:1.0 2419:1.0 2432:1.0 3088:1.0 3363:1.0 3814:1.0 3828:1.0 3995:1.0 3995:1.0 4009:1.0 4009:1.0 4114:1.0 4720:1.0 5396:1.0 5433:1.0 6064:1.0 6137:1.0 6165:1.0 6170:1.0 6507:1.0 6827:1.0 
-2.2403270692728308E-4 -8.753254129776746E-4 122:1.0 320:1.0 499:1.0 499:1.0 499:1.0 512:1.0 512:1.0 512:1.0 775:1.0 1101:1.0 1323:1.0 1323:1.0 1336:1.0 1336:1.0 1527:1.0 1527:1.0 1527:1.0 1527:1.0 1527:1.0 1527:1.0 1541:1.0 1541:1.0 1541:1.0 1541:1.0 1541:1.0 1541:1.0 1589:1.0 2084:1.0 2419:1.0 2419:1.0 2432:1.0 2432:1.0 2835:1.0 3362:1.0 4677:1.0 4715:1.0 5051:1.0 5437:1.0 5445:1.0 5449:1.0 5456:1.0 5461:1.0 5820:1.0 6139:1.0 6154:1.0 6158:1.0 6252:1.0 6830:1.0 
-1.9518434689351635E-4 -5.99646900076217E-4 122:1.0 320:1.0 499:1.0 499:1.0 499:1.0 512:1.0 512:1.0 512:1.0 775:1.0 1101:1.0 1323:1.0 1323:1.0 1336:1.0 1336:1.0 1527:1.0 1527:1.0 1527:1.0 1527:1.0 1527:1.0 1527:1.0 1541:1.0 1541:1.0 1541:1.0 1541:1.0 1541:1.0 1541:1.0 1589:1.0 2084:1.0 2419:1.0 2419:1.0 2419:1.0 2432:1.0 2432:1.0 2432:1.0 2970:1.0 3372:1.0 3814:1.0 3814:1.0 3828:1.0 3828:1.0 3995:1.0 3995:1.0 4009:1.0 4009:1.0 4676:1.0 4709:1.0 5412:1.0 5428:1.0 5445:1.0 5449:1.0 5456:1.0 5461:1.0 5810:1.0 6136:1.0 6319:1.0 6828:1.0 6855:1.0 6860:1.0 
-0.0015109171153887982 -0.0020714527340198814 125:1.0 542:1.0 877:1.0 890:1.0 1476:1.0 1820:1.0 3015:1.0 3176:1.0 3185:1.0 3185:1.0 3189:1.0 3189:1.0 3197:1.0 3202:1.0 3853:1.0 3885:1.0 4135:1.0 4600:1.0 5202:1.0 5286:1.0 5303:1.0 5307:1.0 5313:1.0 5313:1.0 5318:1.0 5318:1.0 
-0.0 -8.853386621354091E-4 215:1.0 320:1.0 499:1.0 499:1.0 512:1.0 512:1.0 685:1.0 685:1.0 685:1.0 685:1.0 699:1.0 699:1.0 699:1.0 699:1.0 860:1.0 1101:1.0 1323:1.0 1336:1.0 1527:1.0 1527:1.0 1527:1.0 1527:1.0 1541:1.0 1541:1.0 1541:1.0 1541:1.0 1923:1.0 2084:1.0 2419:1.0 2419:1.0 2419:1.0 2432:1.0 2432:1.0 2432:1.0 2634:1.0 2634:1.0 2634:1.0 2634:1.0 2648:1.0 2648:1.0 2648:1.0 2648:1.0 2665:1.0 3370:1.0 4677:1.0 4715:1.0 5281:1.0 5428:1.0 5445:1.0 5449:1.0 5456:1.0 5461:1.0 5810:1.0 6136:1.0 6663:1.0 6833:1.0 
-2.436971296175691E-4 -4.1558796816961526E-4 215:1.0 320:1.0 499:1.0 499:1.0 512:1.0 512:1.0 685:1.0 685:1.0 685:1.0 685:1.0 699:1.0 699:1.0 699:1.0 699:1.0 860:1.0 1101:1.0 1323:1.0 1336:1.0 1527:1.0 1527:1.0 1527:1.0 1527:1.0 1541:1.0 1541:1.0 1541:1.0 1541:1.0 1923:1.0 2084:1.0 2419:1.0 2419:1.0 2419:1.0 2419:1.0 2432:1.0 2432:1.0 2432:1.0 2432:1.0 2634:1.0 2634:1.0 2634:1.0 2634:1.0 2648:1.0 2648:1.0 2648:1.0 2648:1.0 3209:1.0 3363:1.0 3814:1.0 3814:1.0 3828:1.0 3828:1.0 3995:1.0 3995:1.0 4009:1.0 4009:1.0 4043:1.0 4714:1.0 5047:1.0 5431:1.0 5678:1.0 6145:1.0 6154:1.0 6158:1.0 6165:1.0 6165:1.0 6170:1.0 6170:1.0 6469:1.0 6833:1.0 
-2.75764790357595E-4 -0.001022695007707935 215:1.0 320:1.0 499:1.0 499:1.0 512:1.0 512:1.0 685:1.0 685:1.0 685:1.0 685:1.0 699:1.0 699:1.0 699:1.0 699:1.0 860:1.0 1101:1.0 1323:1.0 1336:1.0 1527:1.0 1527:1.0 1527:1.0 1527:1.0 1541:1.0 1541:1.0 1541:1.0 1541:1.0 1923:1.0 2084:1.0 2419:1.0 2419:1.0 2419:1.0 2419:1.0 2419:1.0 2432:1.0 2432:1.0 2432:1.0 2432:1.0 2432:1.0 2634:1.0 2634:1.0 2634:1.0 2634:1.0 2648:1.0 2648:1.0 2648:1.0 2648:1.0 2877:1.0 3371:1.0 3814:1.0 3814:1.0 3828:1.0 3828:1.0 3995:1.0 3995:1.0 3995:1.0 3995:1.0 4009:1.0 4009:1.0 4009:1.0 4009:1.0 4309:1.0 4720:1.0 
-2.552022876224412E-4 -6.579916830212766E-4 300:1.0 320:1.0 499:1.0 499:1.0 499:1.0 499:1.0 512:1.0 512:1.0 512:1.0 512:1.0 685:1.0 685:1.0 699:1.0 699:1.0 959:1.0 1101:1.0 1323:1.0 1323:1.0 1323:1.0 1323:1.0 1336:1.0 1336:1.0 1336:1.0 1336:1.0 1527:1.0 1527:1.0 1541:1.0 1541:1.0 2002:1.0 2084:1.0 2419:1.0 2432:1.0 3097:1.0 3363:1.0 3814:1.0 3814:1.0 3828:1.0 3828:1.0 3995:1.0 3995:1.0 4009:1.0 4009:1.0 4672:1.0 4708:1.0 4727:1.0 4727:1.0 4731:1.0 4731:1.0 5096:1.0 5427:1.0 5968:1.0 6142:1.0 6196:1.0 6828:1.0 6845:1.0 6849:1.0 6855:1.0 6860:1.0 
-4.989261412805338E-4 -8.010696418794974E-4 300:1.0 320:1.0 499:1.0 499:1.0 499:1.0 499:1.0 512:1.0 512:1.0 512:1.0 512:1.0 685:1.0 685:1.0 699:1.0 699:1.0 959:1.0 1101:1.0 1323:1.0 1323:1.0 1323:1.0 1323:1.0 1323:1.0 1336:1.0 1336:1.0 1336:1.0 1336:1.0 1336:1.0 1527:1.0 1527:1.0 1541:1.0 1541:1.0 2054:1.0 2084:1.0 2419:1.0 2419:1.0 2432:1.0 2432:1.0 3018:1.0 3362:1.0 4535:1.0 4715:1.0 4772:1.0 5428:1.0 5445:1.0 5449:1.0 5456:1.0 5461:1.0 5810:1.0 6136:1.0 6633:1.0 6828:1.0 6845:1.0 6849:1.0 6855:1.0 6860:1.0 
-4.890457402519609E-4 -9.400026954379924E-4 300:1.0 320:1.0 499:1.0 499:1.0 499:1.0 499:1.0 512:1.0 512:1.0 512:1.0 512:1.0 685:1.0 685:1.0 699:1.0 699:1.0 959:1.0 1101:1.0 1323:1.0 1323:1.0 1323:1.0 1323:1.0 1323:1.0 1336:1.0 1336:1.0 1336:1.0 1336:1.0 1336:1.0 1527:1.0 1527:1.0 1541:1.0 1541:1.0 2054:1.0 2084:1.0 2419:1.0 2419:1.0 2419:1.0 2432:1.0 2432:1.0 2432:1.0 3184:1.0 3368:1.0 4038:1.0 4710:1.0 4727:1.0 4731:1.0 4739:1.0 4744:1.0 5096:1.0 5427:1.0 5936:1.0 6137:1.0 6154:1.0 6158:1.0 6165:1.0 6170:1.0 6509:1.0 6827:1.0 
-0.001025486809890164 -0.0015608717215454537 278:1.0 320:1.0 499:1.0 499:1.0 499:1.0 512:1.0 512:1.0 512:1.0 903:1.0 1101:1.0 1323:1.0 1323:1.0 1323:1.0 1323:1.0 1323:1.0 1336:1.0 1336:1.0 1336:1.0 1336:1.0 1336:1.0 2002:1.0 2084:1.0 2419:1.0 2432:1.0 2705:1.0 3363:1.0 3814:1.0 3814:1.0 3828:1.0 3828:1.0 3995:1.0 3995:1.0 3995:1.0 3995:1.0 4009:1.0 4009:1.0 4009:1.0 4009:1.0 4309:1.0 4720:1.0 
-4.69167250926415E-4 -5.615945016666646E-4 97:1.0 315:1.0 908:1.0 1092:1.0 1830:1.0 2084:1.0 2419:1.0 2432:1.0 3018:1.0 3362:1.0 4322:1.0 4716:1.0 5263:1.0 5428:1.0 5445:1.0 5445:1.0 5445:1.0 5445:1.0 5449:1.0 5449:1.0 5449:1.0 5449:1.0 5456:1.0 5456:1.0 5456:1.0 5456:1.0 5456:1.0 5456:1.0 5461:1.0 5461:1.0 5461:1.0 5461:1.0 5461:1.0 5461:1.0 5562:1.0 6147:1.0 6810:1.0 6837:1.0 
-9.218520115521217E-4 -0.001644120098075354 30:1.0 401:1.0 623:1.0 623:1.0 623:1.0 623:1.0 636:1.0 636:1.0 636:1.0 636:1.0 827:1.0 827:1.0 827:1.0 827:1.0 841:1.0 841:1.0 841:1.0 841:1.0 1321:1.0 1384:1.0 1719:1.0 1732:1.0 2246:1.0 2671:1.0 3114:1.0 3114:1.0 3128:1.0 3128:1.0 3295:1.0 3295:1.0 3295:1.0 3295:1.0 3309:1.0 3309:1.0 3309:1.0 3309:1.0 3609:1.0 4020:1.0 
-3.3072797209363254E-4 -9.871141444297046E-4 115:1.0 401:1.0 623:1.0 623:1.0 636:1.0 636:1.0 827:1.0 827:1.0 827:1.0 827:1.0 827:1.0 827:1.0 841:1.0 841:1.0 841:1.0 841:1.0 841:1.0 841:1.0 1323:1.0 1384:1.0 1719:1.0 1732:1.0 2519:1.0 2671:1.0 3114:1.0 3114:1.0 3128:1.0 3128:1.0 3295:1.0 3295:1.0 3295:1.0 3295:1.0 3295:1.0 3295:1.0 3295:1.0 3295:1.0 3309:1.0 3309:1.0 3309:1.0 3309:1.0 3309:1.0 3309:1.0 3309:1.0 3309:1.0 3609:1.0 4020:1.0 
-0.0010443502706805683 -0.0015492622360897446 128:1.0 320:1.0 499:1.0 499:1.0 512:1.0 512:1.0 906:1.0 1092:1.0 1830:1.0 2084:1.0 2419:1.0 2432:1.0 3018:1.0 3362:1.0 4461:1.0 4716:1.0 5360:1.0 5428:1.0 5456:1.0 5456:1.0 5456:1.0 5461:1.0 5461:1.0 5461:1.0 6097:1.0 6136:1.0 6796:1.0 6833:1.0 
-0.00104620195809845 -8.57893653124966E-4 51:1.0 401:1.0 623:1.0 623:1.0 623:1.0 623:1.0 636:1.0 636:1.0 636:1.0 636:1.0 827:1.0 827:1.0 841:1.0 841:1.0 1138:1.0 1384:1.0 1719:1.0 1719:1.0 1732:1.0 1732:1.0 2318:1.0 2662:1.0 3835:1.0 4015:1.0 4124:1.0 4734:1.0 4745:1.0 4749:1.0 4756:1.0 4761:1.0 4872:1.0 5436:1.0 5981:1.0 6134:1.0 6155:1.0 6160:1.0 
-7.122257019270689E-4 -8.780774992557539E-4 51:1.0 401:1.0 623:1.0 623:1.0 623:1.0 623:1.0 636:1.0 636:1.0 636:1.0 636:1.0 827:1.0 827:1.0 841:1.0 841:1.0 1138:1.0 1384:1.0 1719:1.0 1719:1.0 1719:1.0 1732:1.0 1732:1.0 1732:1.0 2484:1.0 2668:1.0 3390:1.0 4016:1.0 4027:1.0 4031:1.0 4039:1.0 4044:1.0 4157:1.0 4727:1.0 5286:1.0 5443:1.0 5465:1.0 5470:1.0 5642:1.0 6127:1.0 
-0.0019927868648688105 -0.0020711248482387108 387:1.0 542:1.0 877:1.0 890:1.0 1213:1.0 1831:1.0 2692:1.0 3173:1.0 3214:1.0 3886:1.0 3914:1.0 3919:1.0 4508:1.0 4603:1.0 4612:1.0 4612:1.0 4616:1.0 4616:1.0 4623:1.0 4623:1.0 4628:1.0 4628:1.0 4824:1.0 5291:1.0 
-5.155559651879354E-4 -6.009486373059594E-4 288:1.0 312:1.0 499:1.0 512:1.0 685:1.0 685:1.0 685:1.0 685:1.0 685:1.0 685:1.0 685:1.0 685:1.0 699:1.0 699:1.0 699:1.0 699:1.0 699:1.0 699:1.0 699:1.0 699:1.0 1069:1.0 1092:1.0 1838:1.0 2084:1.0 2419:1.0 2432:1.0 3018:1.0 3362:1.0 4127:1.0 4716:1.0 4903:1.0 5428:1.0 5445:1.0 5449:1.0 5456:1.0 5456:1.0 5456:1.0 5461:1.0 5461:1.0 5461:1.0 5572:1.0 6136:1.0 6583:1.0 6828:1.0 6855:1.0 6860:1.0 
-4.522177200288073E-4 -9.508746249634332E-4 273:1.0 401:1.0 623:1.0 623:1.0 623:1.0 623:1.0 623:1.0 636:1.0 636:1.0 636:1.0 636:1.0 636:1.0 827:1.0 827:1.0 827:1.0 827:1.0 841:1.0 841:1.0 841:1.0 841:1.0 1138:1.0 1384:1.0 1719:1.0 1732:1.0 2318:1.0 2662:1.0 3557:1.0 4016:1.0 4217:1.0 4728:1.0 4745:1.0 4749:1.0 4756:1.0 4756:1.0 4761:1.0 4761:1.0 5110:1.0 5436:1.0 5851:1.0 6130:1.0 6145:1.0 6145:1.0 6149:1.0 6149:1.0 6155:1.0 6160:1.0 
-5.233233654644062E-4 -6.273300029050778E-4 34:1.0 320:1.0 499:1.0 499:1.0 499:1.0 499:1.0 512:1.0 512:1.0 512:1.0 512:1.0 685:1.0 685:1.0 699:1.0 699:1.0 724:1.0 1101:1.0 1323:1.0 1323:1.0 1323:1.0 1336:1.0 1336:1.0 1336:1.0 1527:1.0 1527:1.0 1541:1.0 1541:1.0 1823:1.0 2084:1.0 2419:1.0 2432:1.0 3088:1.0 3363:1.0 3814:1.0 3814:1.0 3828:1.0 3828:1.0 3995:1.0 3995:1.0 4009:1.0 4009:1.0 4677:1.0 4715:1.0 5355:1.0 5428:1.0 5456:1.0 5461:1.0 5808:1.0 6136:1.0 6379:1.0 6833:1.0 
