svm_type c_svc
kernel_type polynomial
degree 2
gamma 1.0
coef0 1.0
nr_class 3
total_sv 60
rho -0.38814034112189466 -0.7268667747323384 -0.5019052522881241
label 1 2 0
nr_sv 23 36 1
SV
2.6940381083204526E-4 2.9308053344608713E-5 145:1.0 312:1.0 499:1.0 499:1.0 499:1.0 499:1.0 499:1.0 499:1.0 512:1.0 512:1.0 512:1.0 512:1.0 512:1.0 512:1.0 685:1.0 685:1.0 685:1.0 685:1.0 699:1.0 699:1.0 699:1.0 699:1.0 722:1.0 1097:1.0 1561:1.0 2089:1.0 3018:1.0 3362:1.0 4334:1.0 4718:1.0 4727:1.0 4731:1.0 4739:1.0 4739:1.0 4739:1.0 4744:1.0 4744:1.0 4744:1.0 5396:1.0 5433:1.0 6113:1.0 6139:1.0 6165:1.0 6170:1.0 6267:1.0 6838:1.0 
2.72738580057667E-4 7.741678965295803E-5 148:1.0 320:1.0 499:1.0 499:1.0 499:1.0 499:1.0 499:1.0 512:1.0 512:1.0 512:1.0 512:1.0 512:1.0 685:1.0 685:1.0 699:1.0 699:1.0 722:1.0 1100:1.0 2076:1.0 2089:1.0 3018:1.0 3362:1.0 4239:1.0 4718:1.0 4727:1.0 4727:1.0 4731:1.0 4731:1.0 4739:1.0 4739:1.0 4739:1.0 4744:1.0 4744:1.0 4744:1.0 5257:1.0 5433:1.0 5615:1.0 6137:1.0 6165:1.0 6170:1.0 6422:1.0 6832:1.0 
1.1407425396616841E-4 4.738417942114283E-5 330:1.0 393:1.0 623:1.0 623:1.0 636:1.0 636:1.0 827:1.0 827:1.0 841:1.0 841:1.0 1152:1.0 1389:1.0 2484:1.0 2668:1.0 3590:1.0 4010:1.0 4027:1.0 4027:1.0 4031:1.0 4031:1.0 4039:1.0 4039:1.0 4039:1.0 4044:1.0 4044:1.0 4044:1.0 4688:1.0 4727:1.0 5268:1.0 5442:1.0 5920:1.0 6128:1.0 6145:1.0 6145:1.0 6149:1.0 6149:1.0 6155:1.0 6155:1.0 6160:1.0 6160:1.0 
0.0012013109801801462 5.195035081843885E-4 231:1.0 392:1.0 1312:1.0 1389:1.0 1984:1.0 2670:1.0 3977:1.0 4015:1.0 4626:1.0 4728:1.0 4745:1.0 4745:1.0 4745:1.0 4749:1.0 4749:1.0 4749:1.0 4756:1.0 4761:1.0 5248:1.0 5438:1.0 5642:1.0 6127:1.0 
2.8476123351281674E-4 8.461424952285951E-5 15:1.0 319:1.0 781:1.0 1093:1.0 1323:1.0 1323:1.0 1323:1.0 1323:1.0 1336:1.0 1336:1.0 1336:1.0 1336:1.0 1527:1.0 1527:1.0 1541:1.0 1541:1.0 1842:1.0 2089:1.0 3039:1.0 3373:1.0 4447:1.0 4708:1.0 4918:1.0 5429:1.0 5445:1.0 5445:1.0 5445:1.0 5445:1.0 5449:1.0 5449:1.0 5449:1.0 5449:1.0 5456:1.0 5456:1.0 5456:1.0 5456:1.0 5456:1.0 5456:1.0 5461:1.0 5461:1.0 5461:1.0 5461:1.0 5461:1.0 5461:1.0 5830:1.0 6147:1.0 6267:1.0 6838:1.0 
2.4187789481018405E-4 6.148160678374398E-5 169:1.0 322:1.0 1081:1.0 1093:1.0 1323:1.0 1323:1.0 1336:1.0 1336:1.0 1527:1.0 1527:1.0 1541:1.0 1541:1.0 1605:1.0 2089:1.0 3016:1.0 3362:1.0 4661:1.0 4713:1.0 5024:1.0 5436:1.0 5445:1.0 5445:1.0 5449:1.0 5449:1.0 5456:1.0 5456:1.0 5456:1.0 5456:1.0 5456:1.0 5456:1.0 5461:1.0 5461:1.0 5461:1.0 5461:1.0 5461:1.0 5461:1.0 5638:1.0 6136:1.0 6582:1.0 6828:1.0 6845:1.0 6849:1.0 6855:1.0 6860:1.0 
0.0012627489918026946 0.0011112382791286749 49:1.0 322:1.0 742:1.0 1091:1.0 1563:1.0 2089:1.0 2419:1.0 2432:1.0 2835:1.0 3362:1.0 4366:1.0 4710:1.0 4739:1.0 4744:1.0 4777:1.0 5435:1.0 5890:1.0 6139:1.0 6547:1.0 6831:1.0 
3.3706469344245454E-4 2.932850584809088E-4 49:1.0 322:1.0 742:1.0 1091:1.0 1563:1.0 2089:1.0 2419:1.0 2419:1.0 2432:1.0 2432:1.0 2684:1.0 3370:1.0 4454:1.0 4712:1.0 5135:1.0 5431:1.0 5968:1.0 6142:1.0 6814:1.0 6828:1.0 6845:1.0 6845:1.0 6849:1.0 6849:1.0 6855:1.0 6855:1.0 6855:1.0 6855:1.0 6855:1.0 6855:1.0 6855:1.0 6860:1.0 6860:1.0 6860:1.0 6860:1.0 6860:1.0 6860:1.0 6860:1.0 
1.9830003449647016E-4 8.515998288194875E-5 15:1.0 319:1.0 946:1.0 1095:1.0 1852:1.0 2089:1.0 3184:1.0 3368:1.0 4696:1.0 4710:1.0 4727:1.0 4727:1.0 4731:1.0 4731:1.0 4739:1.0 4739:1.0 4739:1.0 4739:1.0 4739:1.0 4739:1.0 4739:1.0 4744:1.0 4744:1.0 4744:1.0 4744:1.0 4744:1.0 4744:1.0 4744:1.0 5096:1.0 5427:1.0 6105:1.0 6142:1.0 6317:1.0 6830:1.0 6845:1.0 6849:1.0 6855:1.0 6855:1.0 6860:1.0 6860:1.0 
5.744208728292244E-4 1.845370416667991E-4 366:1.0 393:1.0 623:1.0 623:1.0 636:1.0 636:1.0 827:1.0 827:1.0 827:1.0 827:1.0 841:1.0 841:1.0 841:1.0 841:1.0 1152:1.0 1389:1.0 2162:1.0 2668:1.0 3587:1.0 4010:1.0 4027:1.0 4031:1.0 4039:1.0 4044:1.0 4396:1.0 4727:1.0 5130:1.0 5447:1.0 5992:1.0 6129:1.0 
0.001062548489015475 7.09666939609455E-5 366:1.0 393:1.0 623:1.0 623:1.0 636:1.0 636:1.0 827:1.0 827:1.0 827:1.0 827:1.0 841:1.0 841:1.0 841:1.0 841:1.0 1152:1.0 1389:1.0 2231:1.0 2663:1.0 3114:1.0 3128:1.0 3295:1.0 3295:1.0 3309:1.0 3309:1.0 3672:1.0 4009:1.0 4417:1.0 4738:1.0 5297:1.0 5438:1.0 5624:1.0 6128:1.0 6145:1.0 6149:1.0 6155:1.0 6155:1.0 6155:1.0 6160:1.0 6160:1.0 6160:1.0 
5.188300676707747E-4 0.0 366:1.0 393:1.0 623:1.0 623:1.0 636:1.0 636:1.0 827:1.0 827:1.0 827:1.0 827:1.0 841:1.0 841:1.0 841:1.0 841:1.0 1152:1.0 1389:1.0 2231:1.0 2663:1.0 3114:1.0 3114:1.0 3128:1.0 3128:1.0 3295:1.0 3295:1.0 3309:1.0 3309:1.0 3977:1.0 4015:1.0 4296:1.0 4728:1.0 4745:1.0 4745:1.0 4749:1.0 4749:1.0 4756:1.0 4756:1.0 4756:1.0 4756:1.0 4761:1.0 4761:1.0 4761:1.0 4761:1.0 4792:1.0 5441:1.0 6002:1.0 6136:1.0 6145:1.0 6145:1.0 6149:1.0 6149:1.0 6155:1.0 6160:1.0 
1.5867452037252792E-4 0.0 15:1.0 319:1.0 1027:1.0 1093:1.0 1323:1.0 1323:1.0 1323:1.0 1323:1.0 1336:1.0 1336:1.0 1336:1.0 1336:1.0 1527:1.0 1527:1.0 1541:1.0 1541:1.0 1852:1.0 2089:1.0 3078:1.0 3368:1.0 4525:1.0 4710:1.0 4727:1.0 4731:1.0 4739:1.0 4739:1.0 4739:1.0 4739:1.0 4744:1.0 4744:1.0 4744:1.0 4744:1.0 5096:1.0 5427:1.0 5910:1.0 6142:1.0 6733:1.0 6828:1.0 6845:1.0 6849:1.0 6855:1.0 6855:1.0 6860:1.0 6860:1.0 
1.0754356011025464E-4 4.598730987253194E-5 15:1.0 319:1.0 907:1.0 1093:1.0 1323:1.0 1323:1.0 1336:1.0 1336:1.0 1527:1.0 1527:1.0 1541:1.0 1541:1.0 1852:1.0 2089:1.0 3330:1.0 3368:1.0 4144:1.0 4710:1.0 4727:1.0 4727:1.0 4727:1.0 4731:1.0 4731:1.0 4731:1.0 4739:1.0 4739:1.0 4739:1.0 4739:1.0 4744:1.0 4744:1.0 4744:1.0 4744:1.0 5096:1.0 5427:1.0 5968:1.0 6142:1.0 6724:1.0 6828:1.0 6855:1.0 6855:1.0 6860:1.0 6860:1.0 
7.159081453194237E-4 2.0439884800301983E-4 241:1.0 397:1.0 623:1.0 623:1.0 636:1.0 636:1.0 1152:1.0 1389:1.0 2200:1.0 2666:1.0 3343:1.0 4017:1.0 4105:1.0 4732:1.0 4905:1.0 5445:1.0 5454:1.0 5454:1.0 5458:1.0 5458:1.0 5465:1.0 5465:1.0 5465:1.0 5465:1.0 5465:1.0 5470:1.0 5470:1.0 5470:1.0 5470:1.0 5470:1.0 5679:1.0 6133:1.0 
3.324827187127149E-4 1.0054189546921794E-4 186:1.0 316:1.0 499:1.0 499:1.0 512:1.0 512:1.0 928:1.0 1096:1.0 1727:1.0 2089:1.0 2684:1.0 3370:1.0 4071:1.0 4714:1.0 4890:1.0 5436:1.0 5445:1.0 5445:1.0 5449:1.0 5449:1.0 5456:1.0 5456:1.0 5456:1.0 5456:1.0 5456:1.0 5461:1.0 5461:1.0 5461:1.0 5461:1.0 5461:1.0 5677:1.0 6142:1.0 6483:1.0 6828:1.0 6845:1.0 6845:1.0 6849:1.0 6849:1.0 6855:1.0 6860:1.0 
5.903290473276219E-4 1.4223099093841487E-4 21:1.0 401:1.0 623:1.0 623:1.0 623:1.0 623:1.0 636:1.0 636:1.0 636:1.0 636:1.0 827:1.0 827:1.0 841:1.0 841:1.0 1329:1.0 1389:1.0 2422:1.0 2668:1.0 3434:1.0 4010:1.0 4039:1.0 4044:1.0 4147:1.0 4738:1.0 4792:1.0 5441:1.0 5847:1.0 6131:1.0 
3.1071107495196274E-4 7.60223137092654E-5 21:1.0 401:1.0 623:1.0 623:1.0 623:1.0 623:1.0 636:1.0 636:1.0 636:1.0 636:1.0 827:1.0 827:1.0 841:1.0 841:1.0 1329:1.0 1389:1.0 2075:1.0 2663:1.0 3295:1.0 3295:1.0 3309:1.0 3309:1.0 3414:1.0 4020:1.0 4077:1.0 4732:1.0 5148:1.0 5440:1.0 5943:1.0 6128:1.0 6145:1.0 6145:1.0 6149:1.0 6149:1.0 6155:1.0 6155:1.0 6155:1.0 6155:1.0 6155:1.0 6160:1.0 6160:1.0 6160:1.0 6160:1.0 6160:1.0 
9.77564438359112E-4 1.703240659781669E-4 82:1.0 393:1.0 623:1.0 623:1.0 623:1.0 623:1.0 623:1.0 623:1.0 636:1.0 636:1.0 636:1.0 636:1.0 636:1.0 636:1.0 827:1.0 827:1.0 841:1.0 841:1.0 1084:1.0 1389:1.0 2184:1.0 2666:1.0 3672:1.0 4009:1.0 4410:1.0 4726:1.0 4745:1.0 4749:1.0 5110:1.0 5436:1.0 5761:1.0 6134:1.0 
1.950120576764651E-4 0.0 62:1.0 312:1.0 499:1.0 499:1.0 499:1.0 499:1.0 499:1.0 499:1.0 512:1.0 512:1.0 512:1.0 512:1.0 512:1.0 512:1.0 685:1.0 685:1.0 699:1.0 699:1.0 881:1.0 1096:1.0 1712:1.0 2089:1.0 3018:1.0 3362:1.0 4386:1.0 4708:1.0 4727:1.0 4731:1.0 5096:1.0 5427:1.0 5762:1.0 6143:1.0 6669:1.0 6828:1.0 6845:1.0 6845:1.0 6845:1.0 6845:1.0 6849:1.0 6849:1.0 6849:1.0 6849:1.0 6855:1.0 6855:1.0 6855:1.0 6855:1.0 6855:1.0 6855:1.0 6860:1.0 6860:1.0 6860:1.0 6860:1.0 6860:1.0 6860:1.0 
3.077487553584034E-4 2.675355561522474E-5 17:1.0 393:1.0 623:1.0 623:1.0 623:1.0 623:1.0 636:1.0 636:1.0 636:1.0 636:1.0 827:1.0 827:1.0 827:1.0 827:1.0 841:1.0 841:1.0 841:1.0 841:1.0 928:1.0 1389:1.0 2350:1.0 2666:1.0 3534:1.0 4015:1.0 4682:1.0 4728:1.0 4745:1.0 4749:1.0 4756:1.0 4756:1.0 4756:1.0 4756:1.0 4761:1.0 4761:1.0 4761:1.0 4761:1.0 5404:1.0 5436:1.0 5831:1.0 6126:1.0 6145:1.0 6149:1.0 
2.0119278436103296E-4 6.0132732281538494E-5 11:1.0 312:1.0 499:1.0 499:1.0 499:1.0 499:1.0 512:1.0 512:1.0 512:1.0 512:1.0 685:1.0 685:1.0 685:1.0 685:1.0 699:1.0 699:1.0 699:1.0 699:1.0 771:1.0 1096:1.0 1846:1.0 2089:1.0 2876:1.0 3368:1.0 4662:1.0 4710:1.0 4727:1.0 4731:1.0 4739:1.0 4739:1.0 4739:1.0 4739:1.0 4744:1.0 4744:1.0 4744:1.0 4744:1.0 5395:1.0 5427:1.0 5832:1.0 6135:1.0 6154:1.0 6158:1.0 6509:1.0 6827:1.0 
2.522316787707281E-4 5.7968741839623955E-5 272:1.0 321:1.0 499:1.0 499:1.0 499:1.0 499:1.0 512:1.0 512:1.0 512:1.0 512:1.0 685:1.0 685:1.0 699:1.0 699:1.0 831:1.0 1094:1.0 1527:1.0 1527:1.0 1527:1.0 1527:1.0 1541:1.0 1541:1.0 1541:1.0 1541:1.0 1842:1.0 2089:1.0 2876:1.0 3368:1.0 4419:1.0 4710:1.0 4727:1.0 4731:1.0 4739:1.0 4739:1.0 4739:1.0 4744:1.0 4744:1.0 4744:1.0 5395:1.0 5427:1.0 5965:1.0 6135:1.0 6723:1.0 6834:1.0 
-3.886056613862613E-4 1.3922380757636516E-4 15:1.0 319:1.0 1088:1.0 1101:1.0 1323:1.0 1323:1.0 1323:1.0 1323:1.0 1336:1.0 1336:1.0 1336:1.0 1336:1.0 1527:1.0 1527:1.0 1527:1.0 1527:1.0 1541:1.0 1541:1.0 1541:1.0 1541:1.0 1852:1.0 2089:1.0 3231:1.0 3364:1.0 3814:1.0 3828:1.0 3995:1.0 3995:1.0 3995:1.0 4009:1.0 4009:1.0 4009:1.0 4364:1.0 4713:1.0 5168:1.0 5429:1.0 5445:1.0 5449:1.0 5456:1.0 5461:1.0 5808:1.0 6136:1.0 6368:1.0 6832:1.0 6855:1.0 6860:1.0 
-2.1675213617700995E-4 5.59113432342805E-5 295:1.0 320:1.0 499:1.0 499:1.0 499:1.0 499:1.0 499:1.0 512:1.0 512:1.0 512:1.0 512:1.0 512:1.0 685:1.0 685:1.0 685:1.0 685:1.0 685:1.0 685:1.0 699:1.0 699:1.0 699:1.0 699:1.0 699:1.0 699:1.0 1020:1.0 1094:1.0 1323:1.0 1336:1.0 1527:1.0 1527:1.0 1527:1.0 1527:1.0 1527:1.0 1527:1.0 1541:1.0 1541:1.0 1541:1.0 1541:1.0 1541:1.0 1541:1.0 1814:1.0 2089:1.0 3091:1.0 3364:1.0 3814:1.0 3828:1.0 3995:1.0 4009:1.0 4370:1.0 4709:1.0 4951:1.0 5432:1.0 5456:1.0 5461:1.0 5749:1.0 6147:1.0 
-2.3028843901775232E-4 0.0 330:1.0 393:1.0 623:1.0 623:1.0 636:1.0 636:1.0 827:1.0 827:1.0 841:1.0 841:1.0 1152:1.0 1389:1.0 2234:1.0 2663:1.0 3114:1.0 3114:1.0 3128:1.0 3128:1.0 3295:1.0 3295:1.0 3295:1.0 3295:1.0 3309:1.0 3309:1.0 3309:1.0 3309:1.0 3968:1.0 4009:1.0 4557:1.0 4733:1.0 5223:1.0 5437:1.0 5454:1.0 5454:1.0 5458:1.0 5458:1.0 5465:1.0 5465:1.0 5470:1.0 5470:1.0 5798:1.0 6137:1.0 
-1.976820224921103E-4 1.3339575864502863E-4 231:1.0 392:1.0 1312:1.0 1389:1.0 2513:1.0 2671:1.0 3114:1.0 3114:1.0 3128:1.0 3128:1.0 3295:1.0 3295:1.0 3295:1.0 3295:1.0 3295:1.0 3295:1.0 3295:1.0 3295:1.0 3309:1.0 3309:1.0 3309:1.0 3309:1.0 3309:1.0 3309:1.0 3309:1.0 3309:1.0 3493:1.0 4009:1.0 4557:1.0 4733:1.0 5140:1.0 5443:1.0 5454:1.0 5454:1.0 5458:1.0 5458:1.0 5465:1.0 5465:1.0 5470:1.0 5470:1.0 5577:1.0 6127:1.0 
-2.773767748345498E-5 0.0 120:1.0 312:1.0 499:1.0 499:1.0 499:1.0 499:1.0 499:1.0 512:1.0 512:1.0 512:1.0 512:1.0 512:1.0 685:1.0 685:1.0 685:1.0 685:1.0 685:1.0 685:1.0 685:1.0 685:1.0 685:1.0 685:1.0 685:1.0 685:1.0 685:1.0 685:1.0 699:1.0 699:1.0 699:1.0 699:1.0 699:1.0 699:1.0 699:1.0 699:1.0 699:1.0 699:1.0 699:1.0 699:1.0 699:1.0 699:1.0 738:1.0 1097:1.0 2036:1.0 2089:1.0 3264:1.0 3371:1.0 3814:1.0 3828:1.0 3995:1.0 3995:1.0 4009:1.0 4009:1.0 4220:1.0 4715:1.0 4936:1.0 5428:1.0 5445:1.0 5449:1.0 5456:1.0 5461:1.0 6037:1.0 6138:1.0 6154:1.0 6158:1.0 6788:1.0 6827:1.0 
-4.2873007129804743E-4 2.645983849457037E-4 49:1.0 322:1.0 722:1.0 1097:1.0 1784:1.0 2089:1.0 3038:1.0 3371:1.0 3814:1.0 3814:1.0 3814:1.0 3828:1.0 3828:1.0 3828:1.0 3995:1.0 3995:1.0 3995:1.0 4009:1.0 4009:1.0 4009:1.0 4025:1.0 4709:1.0 5294:1.0 5428:1.0 5456:1.0 5461:1.0 6105:1.0 6142:1.0 6400:1.0 6830:1.0 6845:1.0 6849:1.0 6855:1.0 6860:1.0 
-1.1407425396616841E-4 3.0458732719941926E-5 15:1.0 319:1.0 781:1.0 1093:1.0 1323:1.0 1323:1.0 1323:1.0 1323:1.0 1336:1.0 1336:1.0 1336:1.0 1336:1.0 1527:1.0 1527:1.0 1541:1.0 1541:1.0 1842:1.0 2089:1.0 2828:1.0 3364:1.0 3814:1.0 3814:1.0 3814:1.0 3814:1.0 3828:1.0 3828:1.0 3828:1.0 3828:1.0 3995:1.0 3995:1.0 3995:1.0 3995:1.0 3995:1.0 3995:1.0 3995:1.0 3995:1.0 4009:1.0 4009:1.0 4009:1.0 4009:1.0 4009:1.0 4009:1.0 4009:1.0 4009:1.0 4393:1.0 4720:1.0 4847:1.0 5438:1.0 5799:1.0 6146:1.0 6201:1.0 6835:1.0 
-1.5079134838089973E-4 3.9083034499047585E-5 37:1.0 315:1.0 906:1.0 1092:1.0 2045:1.0 2089:1.0 2942:1.0 3371:1.0 3814:1.0 3814:1.0 3828:1.0 3828:1.0 3995:1.0 3995:1.0 3995:1.0 3995:1.0 3995:1.0 3995:1.0 4009:1.0 4009:1.0 4009:1.0 4009:1.0 4009:1.0 4009:1.0 4193:1.0 4709:1.0 5171:1.0 5428:1.0 5445:1.0 5449:1.0 5456:1.0 5461:1.0 5492:1.0 6141:1.0 6506:1.0 6836:1.0 6845:1.0 6845:1.0 6849:1.0 6849:1.0 6855:1.0 6860:1.0 
-2.1138996276351055E-4 0.0 79:1.0 393:1.0 623:1.0 623:1.0 623:1.0 623:1.0 623:1.0 623:1.0 636:1.0 636:1.0 636:1.0 636:1.0 636:1.0 636:1.0 827:1.0 827:1.0 827:1.0 827:1.0 841:1.0 841:1.0 841:1.0 841:1.0 1152:1.0 1389:1.0 2223:1.0 2664:1.0 3114:1.0 3114:1.0 3128:1.0 3128:1.0 3295:1.0 3295:1.0 3309:1.0 3309:1.0 3611:1.0 4018:1.0 4027:1.0 4027:1.0 4027:1.0 4027:1.0 4031:1.0 4031:1.0 4031:1.0 4031:1.0 4394:1.0 4727:1.0 4745:1.0 4749:1.0 5052:1.0 5437:1.0 6096:1.0 6133:1.0 
-1.732434927823965E-4 0.0 15:1.0 319:1.0 1067:1.0 1093:1.0 1323:1.0 1323:1.0 1336:1.0 1336:1.0 1527:1.0 1527:1.0 1541:1.0 1541:1.0 1618:1.0 2089:1.0 3341:1.0 3371:1.0 3814:1.0 3814:1.0 3828:1.0 3828:1.0 3995:1.0 3995:1.0 3995:1.0 4009:1.0 4009:1.0 4009:1.0 4676:1.0 4709:1.0 4794:1.0 5428:1.0 5445:1.0 5445:1.0 5445:1.0 5449:1.0 5449:1.0 5449:1.0 5456:1.0 5461:1.0 5830:1.0 6147:1.0 6758:1.0 6829:1.0 6845:1.0 6849:1.0 6855:1.0 6860:1.0 
-3.4099537169101145E-5 0.0 15:1.0 319:1.0 946:1.0 1095:1.0 1852:1.0 2089:1.0 3349:1.0 3363:1.0 3814:1.0 3814:1.0 3828:1.0 3828:1.0 3995:1.0 3995:1.0 3995:1.0 3995:1.0 3995:1.0 3995:1.0 3995:1.0 3995:1.0 4009:1.0 4009:1.0 4009:1.0 4009:1.0 4009:1.0 4009:1.0 4009:1.0 4009:1.0 4372:1.0 4709:1.0 5396:1.0 5433:1.0 5612:1.0 6139:1.0 6154:1.0 6158:1.0 6165:1.0 6165:1.0 6170:1.0 6170:1.0 6268:1.0 6830:1.0 
-1.4957946569476687E-4 2.4122093664661148E-4 49:1.0 322:1.0 742:1.0 1091:1.0 1563:1.0 2089:1.0 2419:1.0 2419:1.0 2432:1.0 2432:1.0 3349:1.0 3363:1.0 3814:1.0 3814:1.0 3828:1.0 3828:1.0 3995:1.0 3995:1.0 3995:1.0 3995:1.0 3995:1.0 3995:1.0 3995:1.0 3995:1.0 3995:1.0 3995:1.0 3995:1.0 4009:1.0 4009:1.0 4009:1.0 4009:1.0 4009:1.0 4009:1.0 4009:1.0 4009:1.0 4009:1.0 4009:1.0 4009:1.0 4372:1.0 4709:1.0 5396:1.0 5433:1.0 5612:1.0 6139:1.0 6154:1.0 6158:1.0 6165:1.0 6165:1.0 6170:1.0 6170:1.0 6268:1.0 6830:1.0 
-4.8036502058757246E-4 1.8883527904662044E-4 15:1.0 316:1.0 988:1.0 1093:1.0 1527:1.0 1527:1.0 1541:1.0 1541:1.0 1784:1.0 2089:1.0 2890:1.0 3371:1.0 3814:1.0 3814:1.0 3828:1.0 3828:1.0 3995:1.0 3995:1.0 3995:1.0 4009:1.0 4009:1.0 4009:1.0 4361:1.0 4719:1.0 4777:1.0 5432:1.0 5864:1.0 6145:1.0 6154:1.0 6158:1.0 6165:1.0 6170:1.0 6627:1.0 6829:1.0 
-2.020958360066949E-4 0.0 366:1.0 393:1.0 623:1.0 623:1.0 636:1.0 636:1.0 827:1.0 827:1.0 827:1.0 827:1.0 841:1.0 841:1.0 841:1.0 841:1.0 1152:1.0 1389:1.0 2212:1.0 2663:1.0 3114:1.0 3114:1.0 3128:1.0 3128:1.0 3295:1.0 3295:1.0 3295:1.0 3295:1.0 3295:1.0 3295:1.0 3309:1.0 3309:1.0 3309:1.0 3309:1.0 3309:1.0 3309:1.0 3343:1.0 4014:1.0 4597:1.0 4736:1.0 4745:1.0 4745:1.0 4749:1.0 4749:1.0 4756:1.0 4761:1.0 4924:1.0 5439:1.0 6095:1.0 6127:1.0 
-5.647884847964509E-5 0.0 15:1.0 319:1.0 1027:1.0 1093:1.0 1323:1.0 1323:1.0 1323:1.0 1323:1.0 1336:1.0 1336:1.0 1336:1.0 1336:1.0 1527:1.0 1527:1.0 1541:1.0 1541:1.0 1852:1.0 2089:1.0 3172:1.0 3363:1.0 3814:1.0 3828:1.0 3995:1.0 3995:1.0 3995:1.0 3995:1.0 3995:1.0 4009:1.0 4009:1.0 4009:1.0 4009:1.0 4009:1.0 4372:1.0 4709:1.0 5197:1.0 5433:1.0 6040:1.0 6137:1.0 6154:1.0 6158:1.0 6165:1.0 6165:1.0 6170:1.0 6170:1.0 6509:1.0 6827:1.0 
-1.5015941640677549E-4 2.8051119492137945E-5 8:1.0 312:1.0 685:1.0 685:1.0 699:1.0 699:1.0 918:1.0 1103:1.0 1784:1.0 2089:1.0 3254:1.0 3371:1.0 3814:1.0 3828:1.0 3995:1.0 3995:1.0 3995:1.0 3995:1.0 3995:1.0 4009:1.0 4009:1.0 4009:1.0 4009:1.0 4009:1.0 4668:1.0 4709:1.0 5257:1.0 5433:1.0 5957:1.0 6137:1.0 6154:1.0 6154:1.0 6158:1.0 6158:1.0 6165:1.0 6165:1.0 6170:1.0 6170:1.0 6498:1.0 6837:1.0 
-3.077487553584034E-4 1.1586891356618328E-4 217:1.0 310:1.0 499:1.0 499:1.0 499:1.0 499:1.0 499:1.0 512:1.0 512:1.0 512:1.0 512:1.0 512:1.0 685:1.0 685:1.0 685:1.0 685:1.0 699:1.0 699:1.0 699:1.0 699:1.0 722:1.0 1097:1.0 1775:1.0 2089:1.0 2877:1.0 3371:1.0 3814:1.0 3828:1.0 3995:1.0 3995:1.0 4009:1.0 4009:1.0 4330:1.0 4715:1.0 4807:1.0 5428:1.0 5445:1.0 5449:1.0 5456:1.0 5461:1.0 5502:1.0 6138:1.0 6448:1.0 6838:1.0 
-6.582373910187047E-4 1.1985484821937025E-4 316:1.0 393:1.0 623:1.0 623:1.0 623:1.0 623:1.0 636:1.0 636:1.0 636:1.0 636:1.0 827:1.0 827:1.0 841:1.0 841:1.0 1152:1.0 1389:1.0 2223:1.0 2664:1.0 3114:1.0 3114:1.0 3128:1.0 3128:1.0 3295:1.0 3295:1.0 3309:1.0 3309:1.0 3416:1.0 4013:1.0 4305:1.0 4736:1.0 4745:1.0 4745:1.0 4749:1.0 4749:1.0 4756:1.0 4761:1.0 4938:1.0 5436:1.0 6096:1.0 6133:1.0 
-6.833671635252631E-4 1.7004739583107478E-4 152:1.0 394:1.0 623:1.0 623:1.0 636:1.0 636:1.0 827:1.0 827:1.0 827:1.0 827:1.0 841:1.0 841:1.0 841:1.0 841:1.0 924:1.0 1389:1.0 2222:1.0 2671:1.0 3114:1.0 3114:1.0 3128:1.0 3128:1.0 3295:1.0 3309:1.0 3493:1.0 4009:1.0 4696:1.0 4733:1.0 4763:1.0 5437:1.0 5454:1.0 5458:1.0 5465:1.0 5465:1.0 5470:1.0 5470:1.0 6020:1.0 6129:1.0 
-1.7853973645647338E-4 7.606742916977638E-5 186:1.0 316:1.0 499:1.0 499:1.0 512:1.0 512:1.0 928:1.0 1096:1.0 1727:1.0 2089:1.0 2799:1.0 3371:1.0 3814:1.0 3814:1.0 3828:1.0 3828:1.0 3995:1.0 3995:1.0 3995:1.0 3995:1.0 3995:1.0 3995:1.0 3995:1.0 4009:1.0 4009:1.0 4009:1.0 4009:1.0 4009:1.0 4009:1.0 4009:1.0 4234:1.0 4715:1.0 5070:1.0 5428:1.0 5445:1.0 5445:1.0 5449:1.0 5449:1.0 5456:1.0 5461:1.0 5810:1.0 6136:1.0 6663:1.0 6833:1.0 
-2.6156348814396115E-4 1.0911068033620934E-4 241:1.0 397:1.0 623:1.0 623:1.0 636:1.0 636:1.0 1152:1.0 1389:1.0 2099:1.0 2671:1.0 3114:1.0 3114:1.0 3128:1.0 3128:1.0 3295:1.0 3295:1.0 3295:1.0 3295:1.0 3295:1.0 3295:1.0 3295:1.0 3295:1.0 3309:1.0 3309:1.0 3309:1.0 3309:1.0 3309:1.0 3309:1.0 3309:1.0 3309:1.0 3534:1.0 4015:1.0 4370:1.0 4728:1.0 4745:1.0 4745:1.0 4749:1.0 4749:1.0 4756:1.0 4761:1.0 5110:1.0 5436:1.0 5963:1.0 6133:1.0 
-4.397933183388165E-4 2.659254145535472E-4 49:1.0 322:1.0 722:1.0 1097:1.0 1852:1.0 2089:1.0 3160:1.0 3363:1.0 3814:1.0 3814:1.0 3828:1.0 3828:1.0 3995:1.0 3995:1.0 3995:1.0 3995:1.0 3995:1.0 4009:1.0 4009:1.0 4009:1.0 4009:1.0 4009:1.0 4510:1.0 4711:1.0 5388:1.0 5427:1.0 5543:1.0 6145:1.0 6154:1.0 6158:1.0 6165:1.0 6170:1.0 6342:1.0 6827:1.0 
-7.01942554570847E-5 0.0 21:1.0 401:1.0 623:1.0 623:1.0 623:1.0 623:1.0 636:1.0 636:1.0 636:1.0 636:1.0 827:1.0 827:1.0 841:1.0 841:1.0 1329:1.0 1389:1.0 2460:1.0 2663:1.0 3114:1.0 3114:1.0 3128:1.0 3128:1.0 3295:1.0 3295:1.0 3295:1.0 3295:1.0 3295:1.0 3295:1.0 3295:1.0 3295:1.0 3295:1.0 3309:1.0 3309:1.0 3309:1.0 3309:1.0 3309:1.0 3309:1.0 3309:1.0 3309:1.0 3309:1.0 3810:1.0 4011:1.0 4688:1.0 4727:1.0 4843:1.0 5445:1.0 5454:1.0 5458:1.0 5465:1.0 5470:1.0 5642:1.0 6127:1.0 
-4.930955057345755E-4 0.0 108:1.0 393:1.0 623:1.0 623:1.0 636:1.0 636:1.0 827:1.0 827:1.0 827:1.0 827:1.0 841:1.0 841:1.0 841:1.0 841:1.0 1336:1.0 1389:1.0 2157:1.0 2671:1.0 3114:1.0 3114:1.0 3114:1.0 3128:1.0 3128:1.0 3128:1.0 3295:1.0 3295:1.0 3309:1.0 3309:1.0 3493:1.0 4009:1.0 4649:1.0 4736:1.0 4745:1.0 4749:1.0 4756:1.0 4761:1.0 5268:1.0 5442:1.0 5786:1.0 6128:1.0 6145:1.0 6149:1.0 6155:1.0 6160:1.0 
-2.0558122641854614E-4 5.3814680640911515E-5 240:1.0 320:1.0 499:1.0 499:1.0 499:1.0 499:1.0 499:1.0 499:1.0 499:1.0 499:1.0 512:1.0 512:1.0 512:1.0 512:1.0 512:1.0 512:1.0 512:1.0 512:1.0 685:1.0 685:1.0 699:1.0 699:1.0 701:1.0 1099:1.0 1638:1.0 2089:1.0 2679:1.0 3371:1.0 3814:1.0 3814:1.0 3814:1.0 3828:1.0 3828:1.0 3828:1.0 3995:1.0 3995:1.0 4009:1.0 4009:1.0 4665:1.0 4709:1.0 5257:1.0 5433:1.0 5715:1.0 6138:1.0 6396:1.0 6828:1.0 6845:1.0 6849:1.0 6855:1.0 6855:1.0 6855:1.0 6860:1.0 6860:1.0 6860:1.0 
-9.600465655264978E-5 0.0 13:1.0 320:1.0 499:1.0 499:1.0 499:1.0 499:1.0 499:1.0 512:1.0 512:1.0 512:1.0 512:1.0 512:1.0 685:1.0 685:1.0 685:1.0 685:1.0 699:1.0 699:1.0 699:1.0 699:1.0 1001:1.0 1093:1.0 1527:1.0 1527:1.0 1541:1.0 1541:1.0 1638:1.0 2089:1.0 3265:1.0 3371:1.0 3814:1.0 3828:1.0 3995:1.0 3995:1.0 4009:1.0 4009:1.0 4370:1.0 4709:1.0 5155:1.0 5433:1.0 5714:1.0 6137:1.0 6165:1.0 6165:1.0 6170:1.0 6170:1.0 6448:1.0 6838:1.0 
-2.6940381083204526E-4 5.7914156793905504E-5 293:1.0 395:1.0 623:1.0 623:1.0 623:1.0 623:1.0 623:1.0 623:1.0 636:1.0 636:1.0 636:1.0 636:1.0 636:1.0 636:1.0 827:1.0 827:1.0 841:1.0 841:1.0 1084:1.0 1389:1.0 2244:1.0 2671:1.0 3114:1.0 3114:1.0 3114:1.0 3114:1.0 3114:1.0 3114:1.0 3114:1.0 3128:1.0 3128:1.0 3128:1.0 3128:1.0 3128:1.0 3128:1.0 3128:1.0 3295:1.0 3295:1.0 3309:1.0 3309:1.0 3775:1.0 4015:1.0 4088:1.0 4728:1.0 4756:1.0 4761:1.0 5193:1.0 5436:1.0 5591:1.0 6134:1.0 6155:1.0 6160:1.0 
-5.129152455243793E-5 0.0 82:1.0 393:1.0 623:1.0 623:1.0 623:1.0 623:1.0 623:1.0 623:1.0 636:1.0 636:1.0 636:1.0 636:1.0 636:1.0 636:1.0 827:1.0 827:1.0 841:1.0 841:1.0 1084:1.0 1389:1.0 2490:1.0 2663:1.0 3114:1.0 3114:1.0 3114:1.0 3114:1.0 3128:1.0 3128:1.0 3128:1.0 3128:1.0 3295:1.0 3295:1.0 3295:1.0 3295:1.0 3295:1.0 3295:1.0 3295:1.0 3295:1.0 3295:1.0 3295:1.0 3309:1.0 3309:1.0 3309:1.0 3309:1.0 3309:1.0 3309:1.0 3309:1.0 3309:1.0 3309:1.0 3309:1.0 3414:1.0 4020:1.0 4710:1.0 4737:1.0 4869:1.0 5440:1.0 5492:1.0 6136:1.0 6145:1.0 6149:1.0 6155:1.0 6160:1.0 
-3.2241902036874375E-4 7.233839316241121E-5 301:1.0 393:1.0 623:1.0 623:1.0 623:1.0 623:1.0 623:1.0 623:1.0 636:1.0 636:1.0 636:1.0 636:1.0 636:1.0 636:1.0 827:1.0 827:1.0 827:1.0 827:1.0 827:1.0 827:1.0 827:1.0 827:1.0 827:1.0 827:1.0 827:1.0 827:1.0 841:1.0 841:1.0 841:1.0 841:1.0 841:1.0 841:1.0 841:1.0 841:1.0 841:1.0 841:1.0 841:1.0 841:1.0 928:1.0 1389:1.0 1973:1.0 2671:1.0 3114:1.0 3128:1.0 3295:1.0 3309:1.0 3520:1.0 4015:1.0 4027:1.0 4027:1.0 4027:1.0 4031:1.0 4031:1.0 4031:1.0 4065:1.0 4726:1.0 4817:1.0 5435:1.0 5809:1.0 6127:1.0 
-2.760038702330698E-4 8.611323391264357E-5 300:1.0 320:1.0 499:1.0 499:1.0 499:1.0 499:1.0 512:1.0 512:1.0 512:1.0 512:1.0 685:1.0 685:1.0 699:1.0 699:1.0 722:1.0 1100:1.0 1784:1.0 2089:1.0 2943:1.0 3371:1.0 3814:1.0 3828:1.0 3995:1.0 3995:1.0 4009:1.0 4009:1.0 4370:1.0 4709:1.0 4949:1.0 5433:1.0 5827:1.0 6137:1.0 6154:1.0 6154:1.0 6154:1.0 6158:1.0 6158:1.0 6158:1.0 6165:1.0 6165:1.0 6170:1.0 6170:1.0 6509:1.0 6827:1.0 
-6.775067750677507E-4 2.6378084152860675E-4 166:1.0 312:1.0 685:1.0 685:1.0 699:1.0 699:1.0 738:1.0 1097:1.0 1784:1.0 2089:1.0 2855:1.0 3371:1.0 3814:1.0 3814:1.0 3828:1.0 3828:1.0 3995:1.0 3995:1.0 3995:1.0 4009:1.0 4009:1.0 4009:1.0 4630:1.0 4708:1.0 4727:1.0 4731:1.0 5096:1.0 5427:1.0 5492:1.0 6144:1.0 6480:1.0 6830:1.0 
-0.0013704635673344795 3.591727519192179E-4 190:1.0 395:1.0 1152:1.0 1389:1.0 2378:1.0 2667:1.0 3114:1.0 3114:1.0 3114:1.0 3128:1.0 3128:1.0 3128:1.0 3295:1.0 3295:1.0 3309:1.0 3309:1.0 3672:1.0 4009:1.0 4356:1.0 4733:1.0 5310:1.0 5438:1.0 6046:1.0 6128:1.0 6145:1.0 6149:1.0 6155:1.0 6155:1.0 6155:1.0 6160:1.0 6160:1.0 6160:1.0 
-1.5867452037252792E-4 6.383623663608414E-5 11:1.0 312:1.0 499:1.0 499:1.0 499:1.0 499:1.0 512:1.0 512:1.0 512:1.0 512:1.0 685:1.0 685:1.0 685:1.0 685:1.0 699:1.0 699:1.0 699:1.0 699:1.0 771:1.0 1096:1.0 1846:1.0 2089:1.0 3314:1.0 3363:1.0 3814:1.0 3828:1.0 3995:1.0 3995:1.0 3995:1.0 3995:1.0 3995:1.0 4009:1.0 4009:1.0 4009:1.0 4009:1.0 4009:1.0 4676:1.0 4709:1.0 5119:1.0 5426:1.0 5445:1.0 5449:1.0 5810:1.0 6136:1.0 6280:1.0 6834:1.0 
-5.064270423539385E-4 4.900003331533279E-5 17:1.0 393:1.0 623:1.0 623:1.0 623:1.0 623:1.0 636:1.0 636:1.0 636:1.0 636:1.0 827:1.0 827:1.0 827:1.0 827:1.0 841:1.0 841:1.0 841:1.0 841:1.0 928:1.0 1389:1.0 2614:1.0 2663:1.0 3114:1.0 3128:1.0 3295:1.0 3295:1.0 3295:1.0 3295:1.0 3295:1.0 3295:1.0 3309:1.0 3309:1.0 3309:1.0 3309:1.0 3309:1.0 3309:1.0 3976:1.0 4009:1.0 4419:1.0 4726:1.0 4745:1.0 4749:1.0 5110:1.0 5436:1.0 5580:1.0 6134:1.0 
-1.2110653032825268E-4 2.1161789137260982E-5 272:1.0 321:1.0 499:1.0 499:1.0 499:1.0 499:1.0 512:1.0 512:1.0 512:1.0 512:1.0 685:1.0 685:1.0 699:1.0 699:1.0 831:1.0 1094:1.0 1527:1.0 1527:1.0 1527:1.0 1527:1.0 1541:1.0 1541:1.0 1541:1.0 1541:1.0 1842:1.0 2089:1.0 3065:1.0 3363:1.0 3814:1.0 3828:1.0 3995:1.0 3995:1.0 3995:1.0 3995:1.0 4009:1.0 4009:1.0 4009:1.0 4009:1.0 4676:1.0 4709:1.0 5254:1.0 5426:1.0 6030:1.0 6143:1.0 6322:1.0 6828:1.0 6845:1.0 6845:1.0 6849:1.0 6849:1.0 6855:1.0 6855:1.0 6855:1.0 6860:1.0 6860:1.0 6860:1.0 
-1.279833353964766E-4 9.751306652593058E-5 26:1.0 393:1.0 827:1.0 827:1.0 827:1.0 827:1.0 841:1.0 841:1.0 841:1.0 841:1.0 1262:1.0 1389:1.0 2269:1.0 2671:1.0 3114:1.0 3114:1.0 3114:1.0 3114:1.0 3128:1.0 3128:1.0 3128:1.0 3128:1.0 3295:1.0 3295:1.0 3309:1.0 3309:1.0 3424:1.0 4009:1.0 4557:1.0 4733:1.0 5303:1.0 5439:1.0 5454:1.0 5454:1.0 5454:1.0 5458:1.0 5458:1.0 5458:1.0 5465:1.0 5465:1.0 5470:1.0 5470:1.0 5536:1.0 6130:1.0 
-0.003449255896735983 -0.0031022982620542033 49:1.0 322:1.0 742:1.0 1091:1.0 1563:1.0 2089:1.0 2419:1.0 2432:1.0 3012:1.0 3363:1.0 3995:1.0 3995:1.0 4009:1.0 4009:1.0 4043:1.0 4717:1.0 5177:1.0 5430:1.0 5848:1.0 6140:1.0 6663:1.0 6833:1.0 
