svm_type c_svc
kernel_type polynomial
degree 2
gamma 1.0
coef0 1.0
nr_class 3
total_sv 7
rho 0.01051960190383316 -0.5990089323626109 -0.7019402609552612
label 1 0 2
nr_sv 3 3 1
SV
5.157561639547099E-4 1.1580243350672683E-4 4129:1.0 19465:1.0 33683:1.0 33683:1.0 33683:1.0 33700:1.0 33700:1.0 33700:1.0 57894:1.0 65078:1.0 81564:1.0 81564:1.0 81564:1.0 81581:1.0 81581:1.0 81581:1.0 91049:1.0 91049:1.0 91067:1.0 91067:1.0 116780:1.0 118724:1.0 141127:1.0 141144:1.0 151206:1.0 151206:1.0 151206:1.0 151206:1.0 151224:1.0 151224:1.0 151224:1.0 151224:1.0 156914:1.0 187830:1.0 251724:1.0 259544:1.0 259553:1.0 259554:1.0 277462:1.0 294933:1.0 321313:1.0 329689:1.0 351838:1.0 363842:1.0 363847:1.0 363848:1.0 363849:1.0 363849:1.0 363850:1.0 363850:1.0 
5.396286281553651E-4 2.3759635677995076E-4 2727:1.0 19467:1.0 64033:1.0 65087:1.0 104699:1.0 118724:1.0 141127:1.0 141127:1.0 141144:1.0 141144:1.0 151206:1.0 151206:1.0 151206:1.0 151206:1.0 151206:1.0 151206:1.0 151206:1.0 151206:1.0 151224:1.0 151224:1.0 151224:1.0 151224:1.0 151224:1.0 151224:1.0 151224:1.0 151224:1.0 156914:1.0 187830:1.0 251724:1.0 259544:1.0 259553:1.0 259554:1.0 271162:1.0 294935:1.0 309081:1.0 329686:1.0 331619:1.0 363833:1.0 363847:1.0 363848:1.0 363849:1.0 363849:1.0 363849:1.0 363849:1.0 363850:1.0 363850:1.0 363850:1.0 363850:1.0 
4.7668676847162936E-4 2.2326211718056848E-4 2727:1.0 19467:1.0 64033:1.0 65087:1.0 104699:1.0 118724:1.0 141127:1.0 141127:1.0 141127:1.0 141127:1.0 141144:1.0 141144:1.0 141144:1.0 141144:1.0 151206:1.0 151206:1.0 151206:1.0 151206:1.0 151206:1.0 151206:1.0 151206:1.0 151206:1.0 151224:1.0 151224:1.0 151224:1.0 151224:1.0 151224:1.0 151224:1.0 151224:1.0 151224:1.0 166125:1.0 187834:1.0 225578:1.0 259537:1.0 259551:1.0 259552:1.0 259553:1.0 259553:1.0 259553:1.0 259553:1.0 259554:1.0 259554:1.0 259554:1.0 259554:1.0 292902:1.0 294933:1.0 321823:1.0 329687:1.0 329698:1.0 329698:1.0 329699:1.0 329699:1.0 329700:1.0 329701:1.0 346125:1.0 363843:1.0 
-5.041931356259672E-4 1.04054791748828E-4 4129:1.0 19465:1.0 33683:1.0 33683:1.0 33683:1.0 33700:1.0 33700:1.0 33700:1.0 57894:1.0 65078:1.0 81564:1.0 81564:1.0 81564:1.0 81581:1.0 81581:1.0 81581:1.0 91049:1.0 91049:1.0 91067:1.0 91067:1.0 116780:1.0 118724:1.0 141127:1.0 141144:1.0 151206:1.0 151206:1.0 151206:1.0 151206:1.0 151224:1.0 151224:1.0 151224:1.0 151224:1.0 179892:1.0 187839:1.0 223532:1.0 223532:1.0 223550:1.0 223550:1.0 241746:1.0 259535:1.0 286419:1.0 294940:1.0 317498:1.0 329693:1.0 329698:1.0 329699:1.0 329700:1.0 329700:1.0 329701:1.0 329701:1.0 355595:1.0 363838:1.0 
-4.8824979680037205E-4 3.0633728539597113E-4 2727:1.0 19467:1.0 64033:1.0 65087:1.0 104699:1.0 118724:1.0 141127:1.0 141127:1.0 141144:1.0 141144:1.0 151206:1.0 151206:1.0 151206:1.0 151206:1.0 151206:1.0 151206:1.0 151206:1.0 151206:1.0 151224:1.0 151224:1.0 151224:1.0 151224:1.0 151224:1.0 151224:1.0 151224:1.0 151224:1.0 179892:1.0 187839:1.0 223532:1.0 223532:1.0 223550:1.0 223550:1.0 235351:1.0 259537:1.0 273966:1.0 294937:1.0 296904:1.0 329684:1.0 329698:1.0 329699:1.0 329700:1.0 329700:1.0 329700:1.0 329700:1.0 329701:1.0 329701:1.0 329701:1.0 329701:1.0 361881:1.0 363831:1.0 
-5.396286281553651E-4 2.7751158714357874E-4 2727:1.0 19467:1.0 64033:1.0 65087:1.0 104699:1.0 118724:1.0 141127:1.0 141127:1.0 141127:1.0 141144:1.0 141144:1.0 141144:1.0 151206:1.0 151206:1.0 151206:1.0 151206:1.0 151206:1.0 151206:1.0 151206:1.0 151206:1.0 151224:1.0 151224:1.0 151224:1.0 151224:1.0 151224:1.0 151224:1.0 151224:1.0 151224:1.0 163228:1.0 187832:1.0 238199:1.0 259539:1.0 261549:1.0 294935:1.0 294949:1.0 294950:1.0 294951:1.0 294951:1.0 294951:1.0 294951:1.0 294952:1.0 294952:1.0 294952:1.0 294952:1.0 327693:1.0 329682:1.0 356102:1.0 363836:1.0 363847:1.0 363847:1.0 363848:1.0 363848:1.0 363849:1.0 363850:1.0 
-5.76660907467246E-4 -6.879036642883779E-4 2727:1.0 19467:1.0 64033:1.0 65087:1.0 104699:1.0 118724:1.0 141127:1.0 141127:1.0 141127:1.0 141127:1.0 141144:1.0 141144:1.0 141144:1.0 141144:1.0 151206:1.0 151206:1.0 151206:1.0 151206:1.0 151206:1.0 151206:1.0 151206:1.0 151206:1.0 151224:1.0 151224:1.0 151224:1.0 151224:1.0 151224:1.0 151224:1.0 151224:1.0 151224:1.0 153279:1.0 187832:1.0 215838:1.0 215856:1.0 223532:1.0 223532:1.0 223532:1.0 223532:1.0 223532:1.0 223550:1.0 223550:1.0 223550:1.0 223550:1.0 223550:1.0 257469:1.0 259535:1.0 286934:1.0 294938:1.0 294949:1.0 294949:1.0 294950:1.0 294950:1.0 294951:1.0 294952:1.0 311687:1.0 329694:1.0 361881:1.0 363831:1.0 
