svm_type c_svc
kernel_type polynomial
degree 2
gamma 1.0
coef0 1.0
nr_class 3
total_sv 12060
rho -0.2974265391205798 -0.9842979803289877 -0.8620115771785146
label 1 2 0
nr_sv 5502 6470 88
SV
4.319979698510787E-4 0.0 18837:1.0 19459:1.0 42437:1.0 42455:1.0 58114:1.0 65082:1.0 91049:1.0 91049:1.0 91067:1.0 91067:1.0 95805:1.0 118728:1.0 187503:1.0 187840:1.0 248427:1.0 259540:1.0 269622:1.0 296313:1.0 319774:1.0 332242:1.0 338802:1.0 367357:1.0 
0.003852652874256052 0.0 18837:1.0 19459:1.0 42437:1.0 42455:1.0 58114:1.0 65082:1.0 91049:1.0 91049:1.0 91067:1.0 91067:1.0 95805:1.0 118728:1.0 176528:1.0 187835:1.0 223532:1.0 223550:1.0 232406:1.0 259540:1.0 283622:1.0 296317:1.0 303193:1.0 332238:1.0 349918:1.0 367364:1.0 
0.0 8.92781069318503E-4 18837:1.0 19459:1.0 42437:1.0 42455:1.0 58114:1.0 65082:1.0 91049:1.0 91049:1.0 91067:1.0 91067:1.0 95805:1.0 118728:1.0 176528:1.0 187835:1.0 215838:1.0 215838:1.0 215856:1.0 215856:1.0 223532:1.0 223550:1.0 241170:1.0 259547:1.0 279162:1.0 296320:1.0 312285:1.0 332236:1.0 366099:1.0 367361:1.0 
0.00886657676350523 5.317722925297516E-5 3293:1.0 19466:1.0 58114:1.0 65082:1.0 81564:1.0 81564:1.0 81581:1.0 81581:1.0 91049:1.0 91067:1.0 104636:1.0 118728:1.0 166834:1.0 187833:1.0 223532:1.0 223550:1.0 258214:1.0 259544:1.0 273207:1.0 296318:1.0 330092:1.0 332238:1.0 348247:1.0 367361:1.0 
0.008382501717048052 0.0 9540:1.0 19466:1.0 52084:1.0 65080:1.0 81564:1.0 81581:1.0 91049:1.0 91067:1.0 105362:1.0 118728:1.0 186275:1.0 187828:1.0 223532:1.0 223550:1.0 244331:1.0 259538:1.0 276521:1.0 296317:1.0 309552:1.0 332243:1.0 348590:1.0 367357:1.0 
0.011357186051111258 0.0 9540:1.0 19466:1.0 52084:1.0 65080:1.0 81564:1.0 81581:1.0 91049:1.0 91067:1.0 105362:1.0 118728:1.0 176993:1.0 187834:1.0 223532:1.0 223550:1.0 258214:1.0 259544:1.0 273207:1.0 296318:1.0 312625:1.0 332231:1.0 348247:1.0 367361:1.0 
8.022057243544111E-4 0.0 9540:1.0 19466:1.0 52084:1.0 65080:1.0 81564:1.0 81581:1.0 91049:1.0 91067:1.0 105362:1.0 118728:1.0 176993:1.0 187834:1.0 215838:1.0 215856:1.0 223532:1.0 223550:1.0 229763:1.0 259547:1.0 
0.0028259505052672306 0.0 16540:1.0 22625:1.0 39108:1.0 39125:1.0 48593:1.0 48593:1.0 48593:1.0 48593:1.0 48593:1.0 48611:1.0 48611:1.0 48611:1.0 48611:1.0 48611:1.0 62906:1.0 76272:1.0 122605:1.0 145372:1.0 192907:1.0 217088:1.0 229340:1.0 253862:1.0 262649:1.0 289784:1.0 323643:1.0 324905:1.0 
0.002144983167781895 0.0 13463:1.0 19458:1.0 57017:1.0 65086:1.0 104636:1.0 118728:1.0 162473:1.0 187840:1.0 225847:1.0 259538:1.0 292135:1.0 296306:1.0 314492:1.0 332245:1.0 340529:1.0 367353:1.0 
0.0016399166356645047 0.0 18775:1.0 19458:1.0 42437:1.0 42455:1.0 61959:1.0 65083:1.0 104636:1.0 118728:1.0 186506:1.0 187828:1.0 223532:1.0 223550:1.0 230862:1.0 259533:1.0 289117:1.0 296316:1.0 308173:1.0 332243:1.0 366118:1.0 367350:1.0 
3.612687488308843E-4 0.0 11924:1.0 19453:1.0 33683:1.0 33683:1.0 33700:1.0 33700:1.0 42437:1.0 42455:1.0 55855:1.0 65085:1.0 104636:1.0 118728:1.0 153791:1.0 187841:1.0 236902:1.0 259538:1.0 278250:1.0 296320:1.0 315389:1.0 332245:1.0 340529:1.0 367353:1.0 
0.002197393045780513 0.0 7139:1.0 19457:1.0 33683:1.0 33683:1.0 33683:1.0 33700:1.0 33700:1.0 33700:1.0 42437:1.0 42437:1.0 42437:1.0 42437:1.0 42437:1.0 42437:1.0 42455:1.0 42455:1.0 42455:1.0 42455:1.0 42455:1.0 42455:1.0 61959:1.0 65083:1.0 104636:1.0 118728:1.0 167769:1.0 187828:1.0 223532:1.0 223550:1.0 246668:1.0 259538:1.0 281035:1.0 296316:1.0 308893:1.0 332242:1.0 334549:1.0 367360:1.0 
0.0011599707150112765 0.0 9139:1.0 19458:1.0 33683:1.0 33700:1.0 42437:1.0 42455:1.0 44377:1.0 65081:1.0 81564:1.0 81581:1.0 91049:1.0 91049:1.0 91049:1.0 91067:1.0 91067:1.0 91067:1.0 105362:1.0 118728:1.0 171342:1.0 187841:1.0 228543:1.0 259543:1.0 283622:1.0 296317:1.0 310295:1.0 332231:1.0 362689:1.0 367358:1.0 
7.416213832843241E-4 0.0 1050:1.0 19453:1.0 42437:1.0 42455:1.0 52430:1.0 65086:1.0 104636:1.0 118728:1.0 181138:1.0 187833:1.0 228082:1.0 259533:1.0 278250:1.0 296320:1.0 309552:1.0 332243:1.0 339655:1.0 367350:1.0 
6.35378226328389E-4 0.0 7300:1.0 19459:1.0 33683:1.0 33683:1.0 33683:1.0 33683:1.0 33683:1.0 33700:1.0 33700:1.0 33700:1.0 33700:1.0 33700:1.0 42437:1.0 42455:1.0 51002:1.0 65082:1.0 81564:1.0 81564:1.0 81581:1.0 81581:1.0 91049:1.0 91067:1.0 113730:1.0 118728:1.0 167370:1.0 187839:1.0 237795:1.0 259540:1.0 276406:1.0 296320:1.0 319981:1.0 332237:1.0 348766:1.0 367362:1.0 
6.824596035391951E-4 0.0 7074:1.0 19453:1.0 33683:1.0 33700:1.0 42437:1.0 42455:1.0 49782:1.0 65075:1.0 81564:1.0 81581:1.0 91049:1.0 91049:1.0 91067:1.0 91067:1.0 113730:1.0 118728:1.0 175107:1.0 187837:1.0 240599:1.0 259533:1.0 276406:1.0 296320:1.0 304952:1.0 332234:1.0 356819:1.0 367362:1.0 
0.0013786313050627047 0.0 189:1.0 19453:1.0 33683:1.0 33700:1.0 42437:1.0 42455:1.0 49782:1.0 65075:1.0 81564:1.0 81581:1.0 91049:1.0 91049:1.0 91067:1.0 91067:1.0 113730:1.0 118728:1.0 176725:1.0 187832:1.0 242063:1.0 259542:1.0 277683:1.0 296306:1.0 312684:1.0 332245:1.0 366099:1.0 367361:1.0 
5.016079754714023E-4 0.0 189:1.0 19453:1.0 33683:1.0 33700:1.0 42437:1.0 42455:1.0 49782:1.0 65075:1.0 81564:1.0 81581:1.0 91049:1.0 91049:1.0 91067:1.0 91067:1.0 113730:1.0 118728:1.0 170053:1.0 187837:1.0 223532:1.0 223550:1.0 240599:1.0 259533:1.0 276406:1.0 296320:1.0 330960:1.0 332242:1.0 357869:1.0 367362:1.0 
0.007539326031436016 0.0 1853:1.0 19458:1.0 42437:1.0 42437:1.0 42455:1.0 42455:1.0 61959:1.0 65083:1.0 104636:1.0 118728:1.0 169115:1.0 187834:1.0 229071:1.0 259538:1.0 291480:1.0 296314:1.0 314856:1.0 332243:1.0 355447:1.0 367350:1.0 
5.179143609107723E-4 0.0 831:1.0 19458:1.0 42437:1.0 42437:1.0 42455:1.0 42455:1.0 61959:1.0 65083:1.0 104636:1.0 118728:1.0 162593:1.0 187828:1.0 223532:1.0 223532:1.0 223550:1.0 223550:1.0 243836:1.0 259539:1.0 283622:1.0 296317:1.0 323050:1.0 332236:1.0 341309:1.0 367350:1.0 
0.005320186786409963 0.0 2756:1.0 22625:1.0 39108:1.0 39108:1.0 39125:1.0 39125:1.0 48593:1.0 48593:1.0 48611:1.0 48611:1.0 62906:1.0 76272:1.0 120782:1.0 145383:1.0 192153:1.0 217089:1.0 247736:1.0 253850:1.0 285030:1.0 289783:1.0 301242:1.0 324906:1.0 
0.002123705631347881 0.0 11465:1.0 19453:1.0 42437:1.0 42455:1.0 49162:1.0 65082:1.0 81564:1.0 81564:1.0 81581:1.0 81581:1.0 91049:1.0 91049:1.0 91067:1.0 91067:1.0 105362:1.0 118728:1.0 181483:1.0 187833:1.0 252680:1.0 259533:1.0 295719:1.0 296311:1.0 316401:1.0 332236:1.0 350796:1.0 367364:1.0 
3.163722771094818E-5 0.0 9514:1.0 19458:1.0 42437:1.0 42455:1.0 47129:1.0 65081:1.0 81564:1.0 81581:1.0 91049:1.0 91049:1.0 91049:1.0 91049:1.0 91049:1.0 91067:1.0 91067:1.0 91067:1.0 91067:1.0 91067:1.0 105362:1.0 118728:1.0 163238:1.0 187839:1.0 230892:1.0 259533:1.0 276521:1.0 296317:1.0 323541:1.0 332231:1.0 349510:1.0 367355:1.0 
0.0010372356481329853 0.0 17015:1.0 19453:1.0 33683:1.0 33700:1.0 42437:1.0 42437:1.0 42455:1.0 42455:1.0 51002:1.0 65082:1.0 81564:1.0 81564:1.0 81581:1.0 81581:1.0 91049:1.0 91049:1.0 91067:1.0 91067:1.0 105362:1.0 118728:1.0 175272:1.0 187828:1.0 223532:1.0 223550:1.0 240160:1.0 259543:1.0 278866:1.0 296316:1.0 299754:1.0 332244:1.0 359214:1.0 367356:1.0 
0.00626820205272101 0.0 11827:1.0 22619:1.0 48593:1.0 48593:1.0 48611:1.0 48611:1.0 62906:1.0 76272:1.0 143070:1.0 145376:1.0 181076:1.0 181094:1.0 193590:1.0 217089:1.0 234045:1.0 253850:1.0 270339:1.0 289786:1.0 295608:1.0 324901:1.0 
0.0029759937171232446 0.0 16007:1.0 19458:1.0 33683:1.0 33683:1.0 33700:1.0 33700:1.0 42437:1.0 42455:1.0 43955:1.0 65088:1.0 81564:1.0 81581:1.0 105362:1.0 118728:1.0 163238:1.0 187839:1.0 234883:1.0 259545:1.0 294143:1.0 296306:1.0 315389:1.0 332245:1.0 349918:1.0 367364:1.0 
7.232292544007662E-4 0.0 4419:1.0 19458:1.0 33683:1.0 33700:1.0 42437:1.0 42437:1.0 42455:1.0 42455:1.0 57017:1.0 65086:1.0 104636:1.0 118728:1.0 163937:1.0 187840:1.0 257961:1.0 259538:1.0 271914:1.0 296306:1.0 312795:1.0 332242:1.0 343698:1.0 367362:1.0 
0.008957700590395008 0.0 2630:1.0 22622:1.0 62906:1.0 76272:1.0 144031:1.0 145383:1.0 184024:1.0 217089:1.0 250040:1.0 253850:1.0 272933:1.0 289789:1.0 292960:1.0 324907:1.0 
0.0012979928488274768 0.0 253:1.0 22625:1.0 39108:1.0 39125:1.0 48593:1.0 48611:1.0 62180:1.0 76272:1.0 136203:1.0 145384:1.0 198971:1.0 217084:1.0 234065:1.0 253861:1.0 270204:1.0 289782:1.0 308686:1.0 324900:1.0 
3.717283134235768E-4 0.0 8466:1.0 19459:1.0 42437:1.0 42455:1.0 54376:1.0 65081:1.0 81564:1.0 81564:1.0 81564:1.0 81581:1.0 81581:1.0 81581:1.0 104636:1.0 118728:1.0 161028:1.0 187828:1.0 223532:1.0 223550:1.0 228420:1.0 259539:1.0 266688:1.0 296317:1.0 309552:1.0 332243:1.0 366132:1.0 367350:1.0 
0.0016352134697191342 0.0 19351:1.0 19458:1.0 61959:1.0 65083:1.0 104636:1.0 118728:1.0 178659:1.0 187840:1.0 248739:1.0 259540:1.0 276657:1.0 296312:1.0 326935:1.0 332243:1.0 346462:1.0 367363:1.0 
5.669818488101704E-4 0.0 19351:1.0 19458:1.0 61959:1.0 65083:1.0 104636:1.0 118728:1.0 176841:1.0 187835:1.0 223532:1.0 223550:1.0 239555:1.0 259539:1.0 290919:1.0 296318:1.0 310985:1.0 332244:1.0 339801:1.0 367350:1.0 
5.306892574075793E-4 0.0 253:1.0 22625:1.0 39108:1.0 39125:1.0 48593:1.0 48611:1.0 62180:1.0 76272:1.0 136203:1.0 145384:1.0 198971:1.0 217084:1.0 233926:1.0 253857:1.0 255031:1.0 255047:1.0 273283:1.0 289781:1.0 290533:1.0 290533:1.0 290533:1.0 290533:1.0 290548:1.0 290548:1.0 290548:1.0 290548:1.0 298073:1.0 324897:1.0 
0.0019039947094125643 0.0 253:1.0 22625:1.0 39108:1.0 39125:1.0 48593:1.0 48593:1.0 48611:1.0 48611:1.0 62180:1.0 76272:1.0 112054:1.0 145379:1.0 186968:1.0 217083:1.0 226501:1.0 253862:1.0 265449:1.0 289775:1.0 296324:1.0 324905:1.0 
0.0014000805589463145 0.0 217:1.0 19458:1.0 33683:1.0 33700:1.0 42437:1.0 42437:1.0 42455:1.0 42455:1.0 46120:1.0 65081:1.0 81564:1.0 81564:1.0 81564:1.0 81581:1.0 81581:1.0 81581:1.0 91049:1.0 91049:1.0 91067:1.0 91067:1.0 104636:1.0 118728:1.0 187503:1.0 187840:1.0 256720:1.0 259540:1.0 268509:1.0 296309:1.0 303193:1.0 332238:1.0 358381:1.0 367356:1.0 
0.0020567174270822207 2.550416471269308E-5 217:1.0 19458:1.0 33683:1.0 33700:1.0 42437:1.0 42437:1.0 42455:1.0 42455:1.0 46120:1.0 65081:1.0 81564:1.0 81564:1.0 81564:1.0 81581:1.0 81581:1.0 81581:1.0 91049:1.0 91049:1.0 91067:1.0 91067:1.0 104636:1.0 118728:1.0 184963:1.0 187835:1.0 223532:1.0 223550:1.0 231271:1.0 259536:1.0 266713:1.0 296313:1.0 323110:1.0 332237:1.0 363047:1.0 367356:1.0 
9.6570413358175E-4 0.0 19351:1.0 19458:1.0 33683:1.0 33683:1.0 33700:1.0 33700:1.0 42437:1.0 42455:1.0 47586:1.0 65081:1.0 81564:1.0 81564:1.0 81581:1.0 81581:1.0 105362:1.0 118728:1.0 171981:1.0 187836:1.0 241170:1.0 259547:1.0 288308:1.0 296312:1.0 325652:1.0 332236:1.0 362689:1.0 367358:1.0 
2.6819706637671225E-4 0.0 15031:1.0 19458:1.0 33683:1.0 33683:1.0 33683:1.0 33700:1.0 33700:1.0 33700:1.0 42437:1.0 42437:1.0 42437:1.0 42455:1.0 42455:1.0 42455:1.0 56739:1.0 65081:1.0 91049:1.0 91049:1.0 91049:1.0 91067:1.0 91067:1.0 91067:1.0 104636:1.0 118728:1.0 167916:1.0 187840:1.0 258116:1.0 259533:1.0 266144:1.0 296317:1.0 298597:1.0 332231:1.0 350796:1.0 367364:1.0 
9.78005919330876E-4 0.0 1385:1.0 19459:1.0 42437:1.0 42437:1.0 42455:1.0 42455:1.0 64961:1.0 65081:1.0 81564:1.0 81581:1.0 104636:1.0 118728:1.0 161028:1.0 187828:1.0 223532:1.0 223550:1.0 252140:1.0 259539:1.0 295010:1.0 296317:1.0 316555:1.0 332243:1.0 348989:1.0 367350:1.0 
0.0022480921060287393 0.0 19351:1.0 19458:1.0 33683:1.0 33700:1.0 60408:1.0 65081:1.0 81564:1.0 81564:1.0 81564:1.0 81581:1.0 81581:1.0 81581:1.0 91049:1.0 91049:1.0 91067:1.0 91067:1.0 104636:1.0 118728:1.0 176449:1.0 187835:1.0 231271:1.0 259536:1.0 292878:1.0 296313:1.0 319981:1.0 332237:1.0 335996:1.0 367362:1.0 
0.0012611521275631957 0.0 19351:1.0 19458:1.0 33683:1.0 33700:1.0 60408:1.0 65081:1.0 81564:1.0 81564:1.0 81564:1.0 81564:1.0 81564:1.0 81581:1.0 81581:1.0 81581:1.0 81581:1.0 81581:1.0 91049:1.0 91049:1.0 91067:1.0 91067:1.0 104636:1.0 118728:1.0 163517:1.0 187828:1.0 223532:1.0 223550:1.0 231012:1.0 259538:1.0 267658:1.0 296312:1.0 330606:1.0 332243:1.0 340959:1.0 367362:1.0 
8.873942586114026E-5 0.0 19351:1.0 19458:1.0 33683:1.0 33700:1.0 60408:1.0 65081:1.0 81564:1.0 81564:1.0 81564:1.0 81564:1.0 81564:1.0 81564:1.0 81564:1.0 81581:1.0 81581:1.0 81581:1.0 81581:1.0 81581:1.0 81581:1.0 81581:1.0 91049:1.0 91049:1.0 91067:1.0 91067:1.0 104636:1.0 118728:1.0 176841:1.0 187835:1.0 223532:1.0 223550:1.0 235907:1.0 259542:1.0 293025:1.0 296312:1.0 305388:1.0 332243:1.0 348420:1.0 367350:1.0 
0.0027086568258967852 0.0 1351:1.0 22625:1.0 39108:1.0 39108:1.0 39125:1.0 39125:1.0 48593:1.0 48593:1.0 48611:1.0 48611:1.0 62906:1.0 76272:1.0 129525:1.0 145380:1.0 198714:1.0 217091:1.0 229340:1.0 253862:1.0 267025:1.0 289775:1.0 291304:1.0 324898:1.0 
3.7947289959516713E-4 0.0 10075:1.0 19466:1.0 55349:1.0 65083:1.0 104636:1.0 118728:1.0 163862:1.0 187828:1.0 223532:1.0 223550:1.0 224117:1.0 259537:1.0 292857:1.0 296316:1.0 303345:1.0 332237:1.0 346288:1.0 367362:1.0 
6.021119068432655E-4 0.0 9568:1.0 19458:1.0 33683:1.0 33683:1.0 33700:1.0 33700:1.0 57017:1.0 65086:1.0 104636:1.0 118728:1.0 162473:1.0 187840:1.0 229665:1.0 259540:1.0 279162:1.0 296320:1.0 300277:1.0 332235:1.0 357050:1.0 367350:1.0 
0.0 1.5885254334701917E-5 3759:1.0 19453:1.0 33683:1.0 33683:1.0 33700:1.0 33700:1.0 42437:1.0 42455:1.0 64472:1.0 65075:1.0 81564:1.0 81581:1.0 91049:1.0 91049:1.0 91067:1.0 91067:1.0 113730:1.0 118728:1.0 177703:1.0 187839:1.0 234609:1.0 259545:1.0 265930:1.0 296310:1.0 298054:1.0 332235:1.0 351073:1.0 367356:1.0 
0.008300335505944206 5.887362113049567E-4 9425:1.0 19453:1.0 42437:1.0 42437:1.0 42455:1.0 42455:1.0 44242:1.0 65086:1.0 104636:1.0 118728:1.0 166411:1.0 187835:1.0 230991:1.0 259540:1.0 283622:1.0 296317:1.0 308173:1.0 332243:1.0 361110:1.0 367357:1.0 
7.469740247267291E-4 4.297015338850558E-4 9425:1.0 19453:1.0 42437:1.0 42437:1.0 42455:1.0 42455:1.0 44242:1.0 65086:1.0 104636:1.0 118728:1.0 166411:1.0 187835:1.0 215838:1.0 215856:1.0 246636:1.0 259544:1.0 271796:1.0 296318:1.0 325883:1.0 332238:1.0 344219:1.0 367357:1.0 
0.0 0.0013655421320864758 9425:1.0 19453:1.0 42437:1.0 42437:1.0 42455:1.0 42455:1.0 44242:1.0 65086:1.0 104636:1.0 118728:1.0 166411:1.0 187835:1.0 215838:1.0 215838:1.0 215856:1.0 215856:1.0 235169:1.0 259540:1.0 276521:1.0 296317:1.0 325102:1.0 332238:1.0 349918:1.0 367364:1.0 
0.0013163129526467287 0.0011395167039631373 9425:1.0 19453:1.0 42437:1.0 42437:1.0 42455:1.0 42455:1.0 44242:1.0 65086:1.0 104636:1.0 118728:1.0 166411:1.0 187835:1.0 215838:1.0 215838:1.0 215838:1.0 215856:1.0 215856:1.0 215856:1.0 239419:1.0 259544:1.0 289052:1.0 296313:1.0 314492:1.0 332245:1.0 350796:1.0 367364:1.0 
0.005816713627228273 0.0 11303:1.0 19453:1.0 42760:1.0 65075:1.0 81564:1.0 81564:1.0 81581:1.0 81581:1.0 105362:1.0 118728:1.0 186487:1.0 187839:1.0 248080:1.0 259533:1.0 268509:1.0 296309:1.0 328630:1.0 332244:1.0 366099:1.0 367361:1.0 
4.412486191599431E-4 0.0 18351:1.0 19453:1.0 42437:1.0 42455:1.0 60735:1.0 65075:1.0 81564:1.0 81564:1.0 81564:1.0 81581:1.0 81581:1.0 81581:1.0 91049:1.0 91049:1.0 91067:1.0 91067:1.0 105362:1.0 118728:1.0 179169:1.0 187836:1.0 231854:1.0 259533:1.0 276521:1.0 296317:1.0 327486:1.0 332239:1.0 345057:1.0 367362:1.0 
0.006197417029805121 0.0 831:1.0 19458:1.0 42437:1.0 42455:1.0 61959:1.0 65083:1.0 104636:1.0 118728:1.0 161089:1.0 187828:1.0 223532:1.0 223550:1.0 239419:1.0 259544:1.0 271796:1.0 296318:1.0 318400:1.0 332238:1.0 350796:1.0 367364:1.0 
7.887740262066842E-4 0.0 9540:1.0 19466:1.0 48527:1.0 65075:1.0 81564:1.0 81581:1.0 91049:1.0 91067:1.0 105362:1.0 118728:1.0 162473:1.0 187840:1.0 239790:1.0 259533:1.0 261919:1.0 296313:1.0 298023:1.0 332238:1.0 353103:1.0 367357:1.0 
9.221660464894318E-4 0.0 12468:1.0 19453:1.0 42437:1.0 42455:1.0 59893:1.0 65082:1.0 81564:1.0 81581:1.0 105362:1.0 118728:1.0 167370:1.0 187839:1.0 251090:1.0 259540:1.0 279162:1.0 296320:1.0 325597:1.0 332238:1.0 346303:1.0 367357:1.0 
3.2429951039202157E-4 0.0 14998:1.0 19459:1.0 33683:1.0 33683:1.0 33683:1.0 33683:1.0 33683:1.0 33683:1.0 33683:1.0 33700:1.0 33700:1.0 33700:1.0 33700:1.0 33700:1.0 33700:1.0 33700:1.0 48635:1.0 65082:1.0 81564:1.0 81581:1.0 105362:1.0 118728:1.0 167370:1.0 187839:1.0 246643:1.0 259540:1.0 279162:1.0 296320:1.0 327486:1.0 332235:1.0 357760:1.0 367360:1.0 
7.727121117720168E-4 0.0 12406:1.0 19453:1.0 42437:1.0 42455:1.0 57546:1.0 65075:1.0 81564:1.0 81581:1.0 91049:1.0 91049:1.0 91067:1.0 91067:1.0 105362:1.0 118728:1.0 174707:1.0 187839:1.0 224102:1.0 259533:1.0 266099:1.0 296310:1.0 299882:1.0 332236:1.0 366099:1.0 367361:1.0 
0.0013379299948088987 0.0 2775:1.0 22625:1.0 48593:1.0 48593:1.0 48593:1.0 48611:1.0 48611:1.0 48611:1.0 62906:1.0 76272:1.0 124649:1.0 145385:1.0 182646:1.0 217083:1.0 236706:1.0 253864:1.0 288150:1.0 289787:1.0 309031:1.0 324906:1.0 
0.006105461899293853 5.110437109644872E-5 2377:1.0 19458:1.0 42437:1.0 42437:1.0 42437:1.0 42455:1.0 42455:1.0 42455:1.0 45047:1.0 65075:1.0 91049:1.0 91049:1.0 91067:1.0 91067:1.0 114487:1.0 118728:1.0 154775:1.0 187834:1.0 236046:1.0 259545:1.0 279117:1.0 296313:1.0 315389:1.0 332245:1.0 339848:1.0 367356:1.0 
3.7317689137980137E-4 4.7704137023897835E-4 2377:1.0 19458:1.0 42437:1.0 42437:1.0 42437:1.0 42455:1.0 42455:1.0 42455:1.0 45047:1.0 65075:1.0 91049:1.0 91049:1.0 91067:1.0 91067:1.0 114487:1.0 118728:1.0 154775:1.0 187834:1.0 215838:1.0 215856:1.0 242095:1.0 259547:1.0 267796:1.0 296312:1.0 308893:1.0 332242:1.0 343698:1.0 367362:1.0 
0.007625812144650867 0.0 16471:1.0 19466:1.0 44665:1.0 65081:1.0 81564:1.0 81581:1.0 105362:1.0 118728:1.0 158342:1.0 187834:1.0 235363:1.0 259544:1.0 271796:1.0 296318:1.0 320563:1.0 332231:1.0 366798:1.0 367355:1.0 
4.4116924129243736E-4 0.0 16471:1.0 19466:1.0 44665:1.0 65081:1.0 81564:1.0 81581:1.0 105362:1.0 118728:1.0 158342:1.0 187834:1.0 215838:1.0 215856:1.0 242095:1.0 259547:1.0 273207:1.0 296318:1.0 318894:1.0 332231:1.0 348247:1.0 367361:1.0 
0.001301475292169522 0.0 14720:1.0 19457:1.0 33683:1.0 33700:1.0 42437:1.0 42437:1.0 42455:1.0 42455:1.0 52151:1.0 65082:1.0 91049:1.0 91067:1.0 105362:1.0 118728:1.0 154414:1.0 187833:1.0 240623:1.0 259533:1.0 276521:1.0 296317:1.0 308173:1.0 332243:1.0 362586:1.0 367350:1.0 
1.3825589028001022E-4 0.0 16705:1.0 19461:1.0 42437:1.0 42437:1.0 42455:1.0 42455:1.0 42822:1.0 65075:1.0 81564:1.0 81581:1.0 113730:1.0 118728:1.0 171967:1.0 187837:1.0 240691:1.0 259533:1.0 276406:1.0 296320:1.0 315389:1.0 332245:1.0 355097:1.0 367361:1.0 
0.0019267990327417567 0.0 13678:1.0 22625:1.0 48593:1.0 48611:1.0 62906:1.0 76272:1.0 132251:1.0 145383:1.0 215968:1.0 217077:1.0 234065:1.0 253861:1.0 284928:1.0 289780:1.0 298690:1.0 324894:1.0 
1.713429597412835E-4 0.0 8757:1.0 19458:1.0 42437:1.0 42455:1.0 61959:1.0 65083:1.0 104636:1.0 118728:1.0 177565:1.0 187838:1.0 249673:1.0 259538:1.0 283112:1.0 296312:1.0 306584:1.0 332235:1.0 349918:1.0 367364:1.0 
3.9517201526958616E-4 0.0 6492:1.0 19465:1.0 33683:1.0 33700:1.0 42437:1.0 42455:1.0 59006:1.0 65082:1.0 81564:1.0 81564:1.0 81581:1.0 81581:1.0 105362:1.0 118728:1.0 165014:1.0 187832:1.0 224117:1.0 259537:1.0 264444:1.0 296316:1.0 310020:1.0 332237:1.0 359488:1.0 367361:1.0 
0.0012660438220000987 0.0 12638:1.0 22625:1.0 48593:1.0 48593:1.0 48593:1.0 48593:1.0 48593:1.0 48611:1.0 48611:1.0 48611:1.0 48611:1.0 48611:1.0 62906:1.0 76272:1.0 118357:1.0 145384:1.0 212178:1.0 217081:1.0 241166:1.0 253861:1.0 286024:1.0 289775:1.0 294948:1.0 324900:1.0 
0.0014286295923540521 0.0 20369:1.0 22625:1.0 39108:1.0 39108:1.0 39125:1.0 39125:1.0 48593:1.0 48611:1.0 62906:1.0 76272:1.0 109888:1.0 145372:1.0 192907:1.0 217088:1.0 249024:1.0 253858:1.0 279101:1.0 289788:1.0 301242:1.0 324906:1.0 
9.33939708390992E-4 0.0 831:1.0 19458:1.0 42437:1.0 42455:1.0 46509:1.0 65082:1.0 105362:1.0 118728:1.0 155637:1.0 187832:1.0 223532:1.0 223550:1.0 236046:1.0 259545:1.0 263040:1.0 296306:1.0 312795:1.0 332242:1.0 356861:1.0 367363:1.0 
0.0 1.7495270974193265E-4 7193:1.0 19458:1.0 42437:1.0 42437:1.0 42437:1.0 42455:1.0 42455:1.0 42455:1.0 49829:1.0 65086:1.0 104636:1.0 118728:1.0 163937:1.0 187840:1.0 251567:1.0 259533:1.0 276521:1.0 296317:1.0 321514:1.0 332243:1.0 344825:1.0 367350:1.0 
2.06547117869107E-4 0.0 5515:1.0 19458:1.0 42437:1.0 42437:1.0 42455:1.0 42455:1.0 62511:1.0 65075:1.0 81564:1.0 81581:1.0 91049:1.0 91049:1.0 91067:1.0 91067:1.0 105362:1.0 118728:1.0 169804:1.0 187832:1.0 241170:1.0 259547:1.0 267795:1.0 296306:1.0 314492:1.0 332245:1.0 357990:1.0 367360:1.0 
0.007214067050635648 0.0 5515:1.0 19458:1.0 42437:1.0 42437:1.0 42455:1.0 42455:1.0 62511:1.0 65075:1.0 81564:1.0 81581:1.0 91049:1.0 91049:1.0 91067:1.0 91067:1.0 105362:1.0 118728:1.0 158340:1.0 187828:1.0 223532:1.0 223532:1.0 223550:1.0 223550:1.0 241170:1.0 259547:1.0 286618:1.0 296316:1.0 316555:1.0 332243:1.0 361458:1.0 367350:1.0 
4.72672969887636E-4 0.0 10801:1.0 19458:1.0 42437:1.0 42437:1.0 42437:1.0 42455:1.0 42455:1.0 42455:1.0 49191:1.0 65075:1.0 81564:1.0 81564:1.0 81581:1.0 81581:1.0 91049:1.0 91049:1.0 91067:1.0 91067:1.0 105362:1.0 118728:1.0 182843:1.0 187832:1.0 223532:1.0 223532:1.0 223550:1.0 223550:1.0 252593:1.0 259546:1.0 278250:1.0 296320:1.0 298054:1.0 332235:1.0 335687:1.0 367356:1.0 
0.002720505507850315 0.0 16772:1.0 19456:1.0 42437:1.0 42437:1.0 42455:1.0 42455:1.0 60689:1.0 65088:1.0 104636:1.0 118728:1.0 151800:1.0 187832:1.0 226156:1.0 259539:1.0 268957:1.0 296318:1.0 326165:1.0 332231:1.0 349918:1.0 367364:1.0 
0.003175257214674335 0.0 831:1.0 19458:1.0 61959:1.0 65083:1.0 104636:1.0 118728:1.0 171311:1.0 187840:1.0 223532:1.0 223550:1.0 247742:1.0 259533:1.0 268509:1.0 296309:1.0 325039:1.0 332231:1.0 349918:1.0 367364:1.0 
0.0014123051018560741 0.0 14123:1.0 19458:1.0 42437:1.0 42437:1.0 42455:1.0 42455:1.0 52776:1.0 65087:1.0 104636:1.0 118728:1.0 173079:1.0 187833:1.0 237796:1.0 259533:1.0 276521:1.0 296317:1.0 320026:1.0 332237:1.0 340959:1.0 367362:1.0 
0.001269487445311191 0.0 9732:1.0 22625:1.0 39108:1.0 39125:1.0 48593:1.0 48593:1.0 48593:1.0 48611:1.0 48611:1.0 48611:1.0 62906:1.0 76272:1.0 118357:1.0 145384:1.0 212178:1.0 217081:1.0 225394:1.0 253856:1.0 266437:1.0 289786:1.0 309491:1.0 324906:1.0 
1.7299924067288143E-4 0.0 11701:1.0 19459:1.0 33683:1.0 33683:1.0 33683:1.0 33683:1.0 33683:1.0 33683:1.0 33700:1.0 33700:1.0 33700:1.0 33700:1.0 33700:1.0 33700:1.0 42437:1.0 42437:1.0 42437:1.0 42455:1.0 42455:1.0 42455:1.0 47305:1.0 65082:1.0 81564:1.0 81564:1.0 81564:1.0 81564:1.0 81564:1.0 81581:1.0 81581:1.0 81581:1.0 81581:1.0 81581:1.0 105362:1.0 118728:1.0 167370:1.0 187839:1.0 248816:1.0 259540:1.0 279162:1.0 296320:1.0 304952:1.0 332234:1.0 354656:1.0 367357:1.0 
0.0016944655134390955 0.0 3379:1.0 19453:1.0 33683:1.0 33683:1.0 33700:1.0 33700:1.0 42437:1.0 42455:1.0 59660:1.0 65081:1.0 81564:1.0 81581:1.0 91049:1.0 91049:1.0 91067:1.0 91067:1.0 105362:1.0 118728:1.0 174707:1.0 187839:1.0 255664:1.0 259533:1.0 295007:1.0 296317:1.0 307401:1.0 332237:1.0 351487:1.0 367362:1.0 
2.883356916278596E-4 0.0 15412:1.0 19458:1.0 33683:1.0 33700:1.0 42437:1.0 42455:1.0 50972:1.0 65082:1.0 81564:1.0 81581:1.0 91049:1.0 91067:1.0 105362:1.0 118728:1.0 162520:1.0 187833:1.0 249724:1.0 259533:1.0 276521:1.0 296317:1.0 331814:1.0 332238:1.0 350796:1.0 367364:1.0 
0.002583708504736242 0.0 13444:1.0 22626:1.0 62906:1.0 76272:1.0 113181:1.0 145376:1.0 203292:1.0 217090:1.0 253620:1.0 253856:1.0 265717:1.0 289787:1.0 319075:1.0 324894:1.0 
0.0016805996743039062 0.0 1688:1.0 19458:1.0 57409:1.0 65081:1.0 81564:1.0 81564:1.0 81581:1.0 81581:1.0 91049:1.0 91067:1.0 105362:1.0 118728:1.0 184048:1.0 187844:1.0 234230:1.0 259546:1.0 263340:1.0 296317:1.0 315508:1.0 332238:1.0 340529:1.0 367353:1.0 
0.002590362615826292 0.0 8865:1.0 19453:1.0 33683:1.0 33683:1.0 33683:1.0 33683:1.0 33683:1.0 33683:1.0 33700:1.0 33700:1.0 33700:1.0 33700:1.0 33700:1.0 33700:1.0 42437:1.0 42455:1.0 56282:1.0 65075:1.0 81564:1.0 81581:1.0 91049:1.0 91067:1.0 105362:1.0 118728:1.0 187683:1.0 187833:1.0 245871:1.0 259540:1.0 275919:1.0 296313:1.0 315389:1.0 332245:1.0 355862:1.0 367356:1.0 
2.862351404824951E-4 0.0 2224:1.0 22619:1.0 48593:1.0 48611:1.0 62906:1.0 76272:1.0 140491:1.0 145376:1.0 200849:1.0 217089:1.0 240035:1.0 253850:1.0 256961:1.0 289780:1.0 324679:1.0 324900:1.0 
0.006080242544696605 0.0 9791:1.0 19462:1.0 42437:1.0 42437:1.0 42455:1.0 42455:1.0 43536:1.0 65075:1.0 91049:1.0 91067:1.0 114487:1.0 118728:1.0 178737:1.0 187834:1.0 223532:1.0 223532:1.0 223532:1.0 223550:1.0 223550:1.0 223550:1.0 241548:1.0 259545:1.0 295800:1.0 296306:1.0 308893:1.0 332242:1.0 343698:1.0 367362:1.0 
4.135184111272477E-4 0.0 9791:1.0 19462:1.0 42437:1.0 42437:1.0 42455:1.0 42455:1.0 43536:1.0 65075:1.0 91049:1.0 91067:1.0 114487:1.0 118728:1.0 178737:1.0 187834:1.0 215838:1.0 215856:1.0 223532:1.0 223532:1.0 223532:1.0 223550:1.0 223550:1.0 223550:1.0 235363:1.0 259544:1.0 271796:1.0 296318:1.0 305997:1.0 332238:1.0 348247:1.0 367361:1.0 
0.0017381614363396927 0.0 19370:1.0 19453:1.0 42437:1.0 42455:1.0 48546:1.0 65075:1.0 91049:1.0 91049:1.0 91067:1.0 91067:1.0 105362:1.0 118728:1.0 153115:1.0 187841:1.0 236046:1.0 259545:1.0 288014:1.0 296306:1.0 312795:1.0 332242:1.0 347663:1.0 367357:1.0 
0.0 6.307066153656162E-5 19666:1.0 22619:1.0 48593:1.0 48593:1.0 48593:1.0 48593:1.0 48611:1.0 48611:1.0 48611:1.0 48611:1.0 62906:1.0 76272:1.0 140387:1.0 145376:1.0 211244:1.0 217083:1.0 246207:1.0 253855:1.0 266437:1.0 289786:1.0 301242:1.0 324906:1.0 
0.003980406001683909 0.0 17350:1.0 19458:1.0 42437:1.0 42437:1.0 42455:1.0 42455:1.0 64794:1.0 65075:1.0 81564:1.0 81564:1.0 81581:1.0 81581:1.0 105362:1.0 118728:1.0 155879:1.0 187832:1.0 223532:1.0 223550:1.0 234609:1.0 259545:1.0 271842:1.0 296311:1.0 322749:1.0 332231:1.0 336745:1.0 367355:1.0 
0.0025560991554467805 0.0 17672:1.0 22624:1.0 39108:1.0 39125:1.0 48593:1.0 48593:1.0 48593:1.0 48611:1.0 48611:1.0 48611:1.0 62906:1.0 76272:1.0 128057:1.0 145372:1.0 212178:1.0 217085:1.0 235048:1.0 253863:1.0 270339:1.0 289786:1.0 303806:1.0 324900:1.0 
5.803221407474932E-4 0.0 15964:1.0 19458:1.0 42437:1.0 42437:1.0 42437:1.0 42455:1.0 42455:1.0 42455:1.0 43958:1.0 65075:1.0 81564:1.0 81581:1.0 91049:1.0 91067:1.0 105362:1.0 118728:1.0 153716:1.0 187839:1.0 257270:1.0 259537:1.0 266688:1.0 296317:1.0 308173:1.0 332243:1.0 364677:1.0 367350:1.0 
0.0 5.304935274037163E-4 4765:1.0 19458:1.0 42437:1.0 42437:1.0 42455:1.0 42455:1.0 60053:1.0 65075:1.0 91049:1.0 91067:1.0 105362:1.0 118728:1.0 179411:1.0 187839:1.0 235450:1.0 259542:1.0 277683:1.0 296306:1.0 308893:1.0 332242:1.0 337438:1.0 367359:1.0 
0.0021166642367164627 0.0 9510:1.0 19453:1.0 33683:1.0 33700:1.0 42437:1.0 42437:1.0 42455:1.0 42455:1.0 61513:1.0 65081:1.0 81564:1.0 81581:1.0 91049:1.0 91049:1.0 91067:1.0 91067:1.0 105362:1.0 118728:1.0 174707:1.0 187839:1.0 258938:1.0 259533:1.0 291480:1.0 296314:1.0 305388:1.0 332243:1.0 356054:1.0 367355:1.0 
0.0031741949286421376 0.0 4928:1.0 19458:1.0 42437:1.0 42455:1.0 61959:1.0 65083:1.0 104636:1.0 118728:1.0 186200:1.0 187828:1.0 223532:1.0 223550:1.0 229624:1.0 259538:1.0 276521:1.0 296317:1.0 308173:1.0 332243:1.0 344858:1.0 367350:1.0 
0.001162633543462449 0.0 5595:1.0 22632:1.0 62906:1.0 76272:1.0 132251:1.0 145383:1.0 202199:1.0 217077:1.0 234065:1.0 253861:1.0 260539:1.0 289782:1.0 308340:1.0 324908:1.0 
7.818881212682138E-4 0.0 16772:1.0 19460:1.0 59944:1.0 65075:1.0 81564:1.0 81581:1.0 91049:1.0 91067:1.0 104636:1.0 118728:1.0 184048:1.0 187841:1.0 244229:1.0 259539:1.0 290309:1.0 296306:1.0 304952:1.0 332234:1.0 345057:1.0 367362:1.0 
1.6849434356698288E-4 0.0 8644:1.0 19458:1.0 42437:1.0 42455:1.0 45189:1.0 65081:1.0 91049:1.0 91049:1.0 91067:1.0 91067:1.0 104636:1.0 118728:1.0 151929:1.0 187841:1.0 257669:1.0 259538:1.0 278250:1.0 296320:1.0 327486:1.0 332239:1.0 340959:1.0 367362:1.0 
2.8300019059839004E-4 0.0 16772:1.0 19460:1.0 64045:1.0 65075:1.0 81564:1.0 81564:1.0 81564:1.0 81581:1.0 81581:1.0 81581:1.0 91049:1.0 91067:1.0 104636:1.0 118728:1.0 151800:1.0 187832:1.0 228759:1.0 259543:1.0 293042:1.0 296312:1.0 310641:1.0 332244:1.0 348247:1.0 367361:1.0 
0.0030524707725321032 0.0 17914:1.0 22625:1.0 39108:1.0 39108:1.0 39108:1.0 39125:1.0 39125:1.0 39125:1.0 48593:1.0 48593:1.0 48611:1.0 48611:1.0 62906:1.0 76272:1.0 120782:1.0 145383:1.0 192153:1.0 217089:1.0 226531:1.0 253856:1.0 260713:1.0 289786:1.0 301242:1.0 324906:1.0 
7.471766759544476E-4 0.0 15405:1.0 19458:1.0 33683:1.0 33683:1.0 33683:1.0 33700:1.0 33700:1.0 33700:1.0 42437:1.0 42437:1.0 42455:1.0 42455:1.0 47550:1.0 65081:1.0 81564:1.0 81581:1.0 91049:1.0 91049:1.0 91049:1.0 91067:1.0 91067:1.0 91067:1.0 105362:1.0 118728:1.0 163238:1.0 187839:1.0 234609:1.0 259545:1.0 278431:1.0 296315:1.0 330960:1.0 332242:1.0 334846:1.0 367359:1.0 
2.036450733603236E-4 2.171080517264699E-4 16772:1.0 19460:1.0 64444:1.0 65088:1.0 104636:1.0 118728:1.0 178859:1.0 187838:1.0 237126:1.0 259539:1.0 291480:1.0 296314:1.0 328630:1.0 332244:1.0 333760:1.0 367354:1.0 
0.006850229377810665 2.1481060881341576E-4 16772:1.0 19460:1.0 53037:1.0 65075:1.0 91049:1.0 91067:1.0 104636:1.0 118728:1.0 187546:1.0 187834:1.0 251671:1.0 259546:1.0 276521:1.0 296317:1.0 298867:1.0 332241:1.0 355226:1.0 367355:1.0 
0.0015054120779672234 0.0 12229:1.0 19458:1.0 42437:1.0 42437:1.0 42455:1.0 42455:1.0 43197:1.0 65081:1.0 91049:1.0 91049:1.0 91049:1.0 91067:1.0 91067:1.0 91067:1.0 104636:1.0 118728:1.0 180754:1.0 187832:1.0 246576:1.0 259539:1.0 285880:1.0 296318:1.0 309645:1.0 332231:1.0 349918:1.0 367364:1.0 
0.0024014310800303884 0.0 6841:1.0 19458:1.0 42437:1.0 42455:1.0 57762:1.0 65075:1.0 105362:1.0 118728:1.0 153115:1.0 187841:1.0 248186:1.0 259533:1.0 268509:1.0 296309:1.0 305275:1.0 332231:1.0 349918:1.0 367364:1.0 
0.0023099695664581662 0.0 18618:1.0 19453:1.0 42437:1.0 42455:1.0 43494:1.0 65075:1.0 81564:1.0 81581:1.0 91049:1.0 91049:1.0 91067:1.0 91067:1.0 105362:1.0 118728:1.0 178563:1.0 187833:1.0 233679:1.0 259533:1.0 276521:1.0 296317:1.0 331921:1.0 332238:1.0 357723:1.0 367359:1.0 
0.0 1.4345145042316974E-4 19560:1.0 22625:1.0 39108:1.0 39108:1.0 39125:1.0 39125:1.0 48593:1.0 48611:1.0 62906:1.0 76272:1.0 131055:1.0 145383:1.0 211035:1.0 217084:1.0 224577:1.0 253864:1.0 
9.066073555988093E-4 0.0 5656:1.0 19458:1.0 33683:1.0 33683:1.0 33700:1.0 33700:1.0 42437:1.0 42437:1.0 42455:1.0 42455:1.0 49068:1.0 65081:1.0 81564:1.0 81564:1.0 81581:1.0 81581:1.0 91049:1.0 91049:1.0 91049:1.0 91067:1.0 91067:1.0 91067:1.0 105362:1.0 118728:1.0 165061:1.0 187828:1.0 235363:1.0 259544:1.0 271796:1.0 296318:1.0 301435:1.0 332240:1.0 348247:1.0 367361:1.0 
7.268815602435906E-4 0.0 3342:1.0 19458:1.0 33683:1.0 33683:1.0 33700:1.0 33700:1.0 42437:1.0 42437:1.0 42437:1.0 42455:1.0 42455:1.0 42455:1.0 49068:1.0 65081:1.0 81564:1.0 81581:1.0 91049:1.0 91049:1.0 91049:1.0 91067:1.0 91067:1.0 91067:1.0 105362:1.0 118728:1.0 165061:1.0 187828:1.0 235363:1.0 259544:1.0 271796:1.0 296318:1.0 319550:1.0 332240:1.0 366099:1.0 367361:1.0 
5.979311211629021E-4 0.0 20202:1.0 22628:1.0 39108:1.0 39108:1.0 39125:1.0 39125:1.0 48593:1.0 48593:1.0 48593:1.0 48611:1.0 48611:1.0 48611:1.0 62906:1.0 76272:1.0 124914:1.0 145383:1.0 200731:1.0 217089:1.0 233372:1.0 253850:1.0 272933:1.0 289789:1.0 309491:1.0 324906:1.0 
0.0018502253818480298 0.0 13175:1.0 22625:1.0 39108:1.0 39125:1.0 48593:1.0 48593:1.0 48611:1.0 48611:1.0 62906:1.0 76272:1.0 140387:1.0 145376:1.0 181076:1.0 181076:1.0 181094:1.0 181094:1.0 214315:1.0 217086:1.0 244162:1.0 253860:1.0 266437:1.0 289786:1.0 318985:1.0 324894:1.0 
0.0010121866671064048 0.0 2057:1.0 19453:1.0 42437:1.0 42455:1.0 58310:1.0 65075:1.0 81564:1.0 81581:1.0 91049:1.0 91049:1.0 91067:1.0 91067:1.0 105362:1.0 118728:1.0 162473:1.0 187840:1.0 239789:1.0 259540:1.0 276521:1.0 296317:1.0 311684:1.0 332231:1.0 336040:1.0 367355:1.0 
7.652086521659096E-4 0.0 9094:1.0 22619:1.0 39108:1.0 39108:1.0 39125:1.0 39125:1.0 48593:1.0 48593:1.0 48611:1.0 48611:1.0 62906:1.0 76272:1.0 124914:1.0 145383:1.0 195322:1.0 217086:1.0 241884:1.0 253850:1.0 272933:1.0 289789:1.0 308235:1.0 324900:1.0 
8.182900282946672E-4 0.0 8363:1.0 19453:1.0 33683:1.0 33683:1.0 33683:1.0 33700:1.0 33700:1.0 33700:1.0 42437:1.0 42437:1.0 42437:1.0 42455:1.0 42455:1.0 42455:1.0 60633:1.0 65075:1.0 81564:1.0 81564:1.0 81581:1.0 81581:1.0 91049:1.0 91049:1.0 91067:1.0 91067:1.0 105362:1.0 118728:1.0 153791:1.0 187841:1.0 251518:1.0 259538:1.0 295007:1.0 296317:1.0 316555:1.0 332243:1.0 356098:1.0 367350:1.0 
0.001254946090698185 0.0 10176:1.0 19453:1.0 42437:1.0 42437:1.0 42455:1.0 42455:1.0 49579:1.0 65081:1.0 81564:1.0 81581:1.0 91049:1.0 91067:1.0 104636:1.0 118728:1.0 163238:1.0 187839:1.0 243796:1.0 259533:1.0 276521:1.0 296317:1.0 316649:1.0 332240:1.0 348247:1.0 367361:1.0 
4.739533356473307E-4 0.0 12761:1.0 19458:1.0 42437:1.0 42437:1.0 42455:1.0 42455:1.0 54283:1.0 65075:1.0 81564:1.0 81581:1.0 91049:1.0 91049:1.0 91067:1.0 91067:1.0 105362:1.0 118728:1.0 165704:1.0 187832:1.0 223532:1.0 223532:1.0 223550:1.0 223550:1.0 224117:1.0 259537:1.0 285703:1.0 296310:1.0 304043:1.0 332237:1.0 348766:1.0 367362:1.0 
4.571566638692103E-4 0.0 9568:1.0 19458:1.0 33683:1.0 33683:1.0 33700:1.0 33700:1.0 46260:1.0 65082:1.0 91049:1.0 91049:1.0 91067:1.0 91067:1.0 105362:1.0 118728:1.0 154139:1.0 187832:1.0 248683:1.0 259533:1.0 281774:1.0 296317:1.0 332124:1.0 332231:1.0 349918:1.0 367364:1.0 
0.007271347392693229 0.0 9568:1.0 19458:1.0 33683:1.0 33683:1.0 33700:1.0 33700:1.0 46260:1.0 65082:1.0 91049:1.0 91049:1.0 91067:1.0 91067:1.0 105362:1.0 118728:1.0 176785:1.0 187828:1.0 223532:1.0 223550:1.0 244755:1.0 259544:1.0 296197:1.0 296306:1.0 314492:1.0 332245:1.0 344403:1.0 367361:1.0 
2.683789441037129E-4 0.0 10309:1.0 19458:1.0 33683:1.0 33683:1.0 33700:1.0 33700:1.0 64472:1.0 65075:1.0 81564:1.0 81581:1.0 91049:1.0 91067:1.0 113730:1.0 118728:1.0 156405:1.0 187832:1.0 223532:1.0 223532:1.0 223550:1.0 223550:1.0 224117:1.0 259537:1.0 279448:1.0 296312:1.0 320629:1.0 332241:1.0 348456:1.0 367356:1.0 
0.002362440657352713 0.0 21033:1.0 22625:1.0 39108:1.0 39108:1.0 39125:1.0 39125:1.0 48593:1.0 48611:1.0 62906:1.0 76272:1.0 113949:1.0 145376:1.0 181076:1.0 181076:1.0 181094:1.0 181094:1.0 193590:1.0 217089:1.0 246887:1.0 253850:1.0 289643:1.0 289785:1.0 321254:1.0 324900:1.0 
0.009491317523643008 0.0 9175:1.0 19458:1.0 61959:1.0 65083:1.0 104636:1.0 118728:1.0 180348:1.0 187834:1.0 223532:1.0 223532:1.0 223550:1.0 223550:1.0 242771:1.0 259533:1.0 264047:1.0 296311:1.0 319774:1.0 332242:1.0 342504:1.0 367350:1.0 
2.3394300696431716E-4 0.0 9175:1.0 19458:1.0 61959:1.0 65083:1.0 104636:1.0 118728:1.0 180348:1.0 187834:1.0 215838:1.0 215856:1.0 223532:1.0 223532:1.0 223550:1.0 223550:1.0 246636:1.0 259544:1.0 270561:1.0 296306:1.0 319774:1.0 332242:1.0 351947:1.0 367362:1.0 
0.007803031218101419 3.481444073644242E-4 13568:1.0 27660:1.0 95000:1.0 96765:1.0 138344:1.0 168476:1.0 189283:1.0 205250:1.0 232457:1.0 241168:1.0 249461:1.0 276285:1.0 
5.023680043799004E-4 0.0 13568:1.0 27660:1.0 95000:1.0 96765:1.0 124770:1.0 124770:1.0 124788:1.0 124788:1.0 140203:1.0 168468:1.0 180314:1.0 205243:1.0 212101:1.0 241174:1.0 260879:1.0 276294:1.0 
3.867047164474783E-4 0.0 17315:1.0 19458:1.0 33683:1.0 33683:1.0 33700:1.0 33700:1.0 42437:1.0 42437:1.0 42455:1.0 42455:1.0 42503:1.0 65081:1.0 104636:1.0 118728:1.0 159543:1.0 187840:1.0 250864:1.0 259533:1.0 268509:1.0 296309:1.0 327558:1.0 332231:1.0 349918:1.0 367364:1.0 
1.7190189840514628E-4 0.0 12839:1.0 22625:1.0 39108:1.0 39108:1.0 39125:1.0 39125:1.0 48593:1.0 48611:1.0 62906:1.0 76272:1.0 136274:1.0 145380:1.0 200356:1.0 217089:1.0 239220:1.0 253850:1.0 269013:1.0 289781:1.0 296424:1.0 324907:1.0 
7.162254448187246E-4 0.0 13583:1.0 19453:1.0 33683:1.0 33700:1.0 42437:1.0 42437:1.0 42455:1.0 42455:1.0 49226:1.0 65075:1.0 91049:1.0 91049:1.0 91067:1.0 91067:1.0 105362:1.0 118728:1.0 165061:1.0 187828:1.0 223532:1.0 223532:1.0 223550:1.0 223550:1.0 239376:1.0 259539:1.0 272096:1.0 296316:1.0 315389:1.0 332245:1.0 340529:1.0 367353:1.0 
6.103620545324154E-5 0.0 15719:1.0 19453:1.0 42437:1.0 42437:1.0 42455:1.0 42455:1.0 63010:1.0 65075:1.0 81564:1.0 81564:1.0 81581:1.0 81581:1.0 91049:1.0 91067:1.0 105362:1.0 118728:1.0 154139:1.0 187832:1.0 239931:1.0 259533:1.0 272534:1.0 296317:1.0 308173:1.0 332243:1.0 355363:1.0 367350:1.0 
0.007497669231595235 0.0 15719:1.0 19453:1.0 42437:1.0 42437:1.0 42455:1.0 42455:1.0 63010:1.0 65075:1.0 81564:1.0 81564:1.0 81581:1.0 81581:1.0 91049:1.0 91067:1.0 105362:1.0 118728:1.0 167887:1.0 187828:1.0 223532:1.0 223550:1.0 235363:1.0 259544:1.0 271796:1.0 296318:1.0 320042:1.0 332231:1.0 350396:1.0 367355:1.0 
0.007947819292825373 0.0 6015:1.0 19458:1.0 42437:1.0 42455:1.0 61959:1.0 65083:1.0 105362:1.0 118728:1.0 168385:1.0 187841:1.0 239419:1.0 259544:1.0 271796:1.0 296318:1.0 314492:1.0 332245:1.0 359455:1.0 367355:1.0 
0.0 1.9269804769026628E-5 6015:1.0 19458:1.0 42437:1.0 42455:1.0 61959:1.0 65083:1.0 105362:1.0 118728:1.0 168385:1.0 187841:1.0 215838:1.0 215838:1.0 215856:1.0 215856:1.0 241170:1.0 259547:1.0 288133:1.0 296311:1.0 313353:1.0 332231:1.0 350684:1.0 367355:1.0 
0.0027208143820164833 0.0 10075:1.0 19466:1.0 53080:1.0 65088:1.0 81564:1.0 81564:1.0 81581:1.0 81581:1.0 104636:1.0 118728:1.0 179376:1.0 187833:1.0 239991:1.0 259533:1.0 279050:1.0 296311:1.0 314492:1.0 332245:1.0 348247:1.0 367361:1.0 
0.0 1.1819469204798075E-5 3505:1.0 19453:1.0 33683:1.0 33700:1.0 42437:1.0 42437:1.0 42455:1.0 42455:1.0 55852:1.0 65075:1.0 81564:1.0 81564:1.0 81581:1.0 81581:1.0 91049:1.0 91067:1.0 105362:1.0 118728:1.0 179169:1.0 187839:1.0 234609:1.0 259545:1.0 292615:1.0 296313:1.0 331178:1.0 332234:1.0 359557:1.0 367357:1.0 
0.010712876233770074 0.0 18641:1.0 19462:1.0 42437:1.0 42437:1.0 42455:1.0 42455:1.0 49295:1.0 65075:1.0 91049:1.0 91067:1.0 105362:1.0 118728:1.0 151290:1.0 187837:1.0 223532:1.0 223550:1.0 258214:1.0 259544:1.0 262620:1.0 296315:1.0 312795:1.0 332242:1.0 351947:1.0 367362:1.0 
0.005251265957864564 0.0 15493:1.0 19453:1.0 42437:1.0 42455:1.0 58764:1.0 65085:1.0 104636:1.0 118728:1.0 180197:1.0 187841:1.0 226296:1.0 259546:1.0 268495:1.0 296311:1.0 314492:1.0 332245:1.0 350796:1.0 367364:1.0 
5.1769311630079406E-5 0.0 10075:1.0 19466:1.0 43955:1.0 65088:1.0 81564:1.0 81581:1.0 104636:1.0 118728:1.0 154168:1.0 187838:1.0 241773:1.0 259539:1.0 261488:1.0 296310:1.0 330960:1.0 332242:1.0 340959:1.0 367362:1.0 
2.8189925297946617E-6 0.0 4095:1.0 19457:1.0 33683:1.0 33700:1.0 42437:1.0 42437:1.0 42437:1.0 42437:1.0 42437:1.0 42437:1.0 42437:1.0 42455:1.0 42455:1.0 42455:1.0 42455:1.0 42455:1.0 42455:1.0 42455:1.0 53945:1.0 65081:1.0 81564:1.0 81564:1.0 81564:1.0 81581:1.0 81581:1.0 81581:1.0 91049:1.0 91049:1.0 91049:1.0 91049:1.0 91067:1.0 91067:1.0 91067:1.0 91067:1.0 105362:1.0 118728:1.0 160813:1.0 187840:1.0 254634:1.0 259537:1.0 286743:1.0 296312:1.0 308893:1.0 332242:1.0 343698:1.0 367362:1.0 
9.735037069422973E-4 0.0 16008:1.0 22625:1.0 39108:1.0 39108:1.0 39125:1.0 39125:1.0 48593:1.0 48611:1.0 62906:1.0 76272:1.0 118357:1.0 145384:1.0 212178:1.0 217081:1.0 228857:1.0 253856:1.0 265717:1.0 289787:1.0 305120:1.0 324894:1.0 
1.3736254597067961E-5 0.0 5196:1.0 19453:1.0 33683:1.0 33700:1.0 42437:1.0 42437:1.0 42455:1.0 42455:1.0 52294:1.0 65082:1.0 81564:1.0 81581:1.0 91049:1.0 91067:1.0 105362:1.0 118728:1.0 163238:1.0 187839:1.0 227885:1.0 259537:1.0 278798:1.0 296312:1.0 326318:1.0 332240:1.0 341307:1.0 367350:1.0 
0.0031453307207995156 0.0 831:1.0 19458:1.0 42437:1.0 42455:1.0 61959:1.0 65083:1.0 104636:1.0 118728:1.0 172547:1.0 187828:1.0 223532:1.0 223550:1.0 242095:1.0 259547:1.0 281246:1.0 296306:1.0 320314:1.0 332231:1.0 352905:1.0 367355:1.0 
0.005131545910969587 0.0 17973:1.0 19458:1.0 42437:1.0 42455:1.0 55669:1.0 65081:1.0 81564:1.0 81581:1.0 91049:1.0 91049:1.0 91067:1.0 91067:1.0 105362:1.0 118728:1.0 178730:1.0 187831:1.0 254634:1.0 259541:1.0 278250:1.0 296320:1.0 311978:1.0 332243:1.0 349971:1.0 367350:1.0 
0.0 3.48768383088082E-4 17973:1.0 19458:1.0 42437:1.0 42455:1.0 55669:1.0 65081:1.0 81564:1.0 81581:1.0 91049:1.0 91049:1.0 91067:1.0 91067:1.0 105362:1.0 118728:1.0 178730:1.0 187831:1.0 215838:1.0 215856:1.0 241170:1.0 259547:1.0 275686:1.0 296318:1.0 314547:1.0 332231:1.0 366746:1.0 367354:1.0 
0.0012139018600808489 0.0 10075:1.0 19466:1.0 59460:1.0 65078:1.0 81564:1.0 81581:1.0 104636:1.0 118728:1.0 169204:1.0 187828:1.0 223532:1.0 223550:1.0 258890:1.0 259537:1.0 273941:1.0 296316:1.0 307200:1.0 332237:1.0 362689:1.0 367358:1.0 
0.012901336065611805 0.0 9685:1.0 19453:1.0 42437:1.0 42437:1.0 42455:1.0 42455:1.0 44827:1.0 65082:1.0 81564:1.0 81581:1.0 91049:1.0 91067:1.0 105362:1.0 118728:1.0 154047:1.0 187839:1.0 252445:1.0 259537:1.0 279162:1.0 296320:1.0 312795:1.0 332242:1.0 343698:1.0 367362:1.0 
0.0013975771785158895 0.0 13568:1.0 27660:1.0 71112:1.0 96760:1.0 132464:1.0 132482:1.0 148351:1.0 168476:1.0 187553:1.0 205250:1.0 236723:1.0 241163:1.0 258982:1.0 276296:1.0 
0.0 4.0839766628074993E-4 13568:1.0 27660:1.0 71112:1.0 96760:1.0 124770:1.0 124788:1.0 132464:1.0 132482:1.0 150240:1.0 168479:1.0 202845:1.0 205244:1.0 217105:1.0 241175:1.0 247914:1.0 276282:1.0 
0.0015955475970154925 0.0 16772:1.0 19460:1.0 52704:1.0 65082:1.0 81564:1.0 81581:1.0 105362:1.0 118728:1.0 182983:1.0 187833:1.0 233246:1.0 259533:1.0 276521:1.0 296317:1.0 305161:1.0 332238:1.0 350796:1.0 367364:1.0 
2.4509683182262157E-4 0.0 7935:1.0 22625:1.0 39108:1.0 39108:1.0 39125:1.0 39125:1.0 48593:1.0 48611:1.0 62906:1.0 76272:1.0 118357:1.0 145384:1.0 212178:1.0 217081:1.0 232435:1.0 253856:1.0 279058:1.0 289787:1.0 294823:1.0 324894:1.0 
0.001434983930966728 0.0 276:1.0 22626:1.0 62906:1.0 76272:1.0 140387:1.0 145376:1.0 204180:1.0 217088:1.0 242906:1.0 253850:1.0 281202:1.0 289781:1.0 299682:1.0 324901:1.0 
1.1005724411933668E-4 0.0 5925:1.0 19457:1.0 42437:1.0 42437:1.0 42455:1.0 42455:1.0 46204:1.0 65081:1.0 81564:1.0 81564:1.0 81564:1.0 81581:1.0 81581:1.0 81581:1.0 105362:1.0 118728:1.0 182843:1.0 187832:1.0 223532:1.0 223532:1.0 223550:1.0 223550:1.0 231824:1.0 259539:1.0 267986:1.0 296311:1.0 327486:1.0 332239:1.0 351947:1.0 367362:1.0 
0.0013919494362926734 0.0 2906:1.0 22626:1.0 62906:1.0 76272:1.0 113181:1.0 145376:1.0 216108:1.0 217090:1.0 245928:1.0 253856:1.0 266437:1.0 289786:1.0 302601:1.0 324906:1.0 
0.0022709987918956127 0.0 1229:1.0 19458:1.0 42437:1.0 42455:1.0 52430:1.0 65086:1.0 104636:1.0 118728:1.0 162637:1.0 187841:1.0 228040:1.0 259538:1.0 278250:1.0 296320:1.0 303510:1.0 332245:1.0 
0.0028322979929185205 7.298010210797797E-4 13328:1.0 22619:1.0 39108:1.0 39108:1.0 39125:1.0 39125:1.0 48593:1.0 48611:1.0 62180:1.0 76272:1.0 129994:1.0 145375:1.0 194896:1.0 217089:1.0 253158:1.0 253857:1.0 275176:1.0 289778:1.0 309491:1.0 324906:1.0 
0.003701526712697565 0.0 13328:1.0 22619:1.0 39108:1.0 39108:1.0 39125:1.0 39125:1.0 48593:1.0 48611:1.0 62180:1.0 76272:1.0 144653:1.0 145379:1.0 181076:1.0 181076:1.0 181094:1.0 181094:1.0 201974:1.0 217080:1.0 237895:1.0 253862:1.0 289220:1.0 289780:1.0 294145:1.0 324904:1.0 
0.0015279190201337406 0.0 14289:1.0 19453:1.0 33683:1.0 33683:1.0 33700:1.0 33700:1.0 42437:1.0 42455:1.0 58764:1.0 65085:1.0 104636:1.0 118728:1.0 158112:1.0 187841:1.0 238385:1.0 259538:1.0 279162:1.0 296320:1.0 331959:1.0 332234:1.0 338780:1.0 367361:1.0 
0.010065025911453447 0.0030262775392236943 13568:1.0 27660:1.0 50059:1.0 50076:1.0 93618:1.0 96766:1.0 143541:1.0 168477:1.0 193150:1.0 205238:1.0 226830:1.0 241168:1.0 259728:1.0 276296:1.0 
0.0 0.0022984870755587716 13568:1.0 27660:1.0 50059:1.0 50059:1.0 50059:1.0 50059:1.0 50076:1.0 50076:1.0 50076:1.0 50076:1.0 71405:1.0 96772:1.0 156174:1.0 168465:1.0 200412:1.0 205242:1.0 230667:1.0 241169:1.0 251066:1.0 276286:1.0 
0.0 0.0011016757070118146 13568:1.0 27660:1.0 50059:1.0 50059:1.0 50059:1.0 50059:1.0 50076:1.0 50076:1.0 50076:1.0 50076:1.0 84251:1.0 96760:1.0 132464:1.0 132482:1.0 163566:1.0 168469:1.0 194554:1.0 205244:1.0 215516:1.0 241167:1.0 273344:1.0 276288:1.0 
0.0 0.002672692495341573 13568:1.0 27660:1.0 50059:1.0 50059:1.0 50059:1.0 50059:1.0 50076:1.0 50076:1.0 50076:1.0 50076:1.0 84251:1.0 96760:1.0 124770:1.0 124788:1.0 132464:1.0 132482:1.0 141904:1.0 168469:1.0 202198:1.0 205244:1.0 221727:1.0 241174:1.0 253989:1.0 276294:1.0 
0.003217954078975058 0.0018128373387862574 13568:1.0 27660:1.0 50059:1.0 50059:1.0 50059:1.0 50059:1.0 50076:1.0 50076:1.0 50076:1.0 50076:1.0 93618:1.0 96766:1.0 132464:1.0 132464:1.0 132482:1.0 132482:1.0 148351:1.0 168476:1.0 182139:1.0 205250:1.0 238178:1.0 241163:1.0 244751:1.0 276295:1.0 
7.31535291010848E-4 0.0 1022:1.0 19465:1.0 33683:1.0 33700:1.0 42437:1.0 42455:1.0 59824:1.0 65075:1.0 105362:1.0 118728:1.0 182947:1.0 187832:1.0 239959:1.0 259545:1.0 268737:1.0 296306:1.0 312795:1.0 332242:1.0 356809:1.0 367350:1.0 
0.0029959531537769924 0.0 8519:1.0 19458:1.0 42437:1.0 42437:1.0 42437:1.0 42455:1.0 42455:1.0 42455:1.0 46094:1.0 65075:1.0 91049:1.0 91067:1.0 105362:1.0 118728:1.0 171499:1.0 187837:1.0 223532:1.0 223550:1.0 249685:1.0 259543:1.0 276521:1.0 296317:1.0 321149:1.0 332231:1.0 356345:1.0 367355:1.0 
0.004727184606246683 1.9801558640944568E-5 13156:1.0 19453:1.0 33683:1.0 33683:1.0 33700:1.0 33700:1.0 42437:1.0 42437:1.0 42437:1.0 42437:1.0 42437:1.0 42455:1.0 42455:1.0 42455:1.0 42455:1.0 42455:1.0 50753:1.0 65081:1.0 81564:1.0 81581:1.0 91049:1.0 91049:1.0 91067:1.0 91067:1.0 105362:1.0 118728:1.0 178730:1.0 187831:1.0 254634:1.0 259541:1.0 283622:1.0 296317:1.0 316555:1.0 332243:1.0 337243:1.0 367355:1.0 
0.0 2.330094780683632E-5 13156:1.0 19453:1.0 33683:1.0 33683:1.0 33700:1.0 33700:1.0 42437:1.0 42437:1.0 42437:1.0 42437:1.0 42437:1.0 42455:1.0 42455:1.0 42455:1.0 42455:1.0 42455:1.0 50753:1.0 65081:1.0 81564:1.0 81581:1.0 91049:1.0 91049:1.0 91067:1.0 91067:1.0 105362:1.0 118728:1.0 178730:1.0 187831:1.0 215838:1.0 215856:1.0 246636:1.0 259544:1.0 280351:1.0 296318:1.0 301608:1.0 332236:1.0 339953:1.0 367359:1.0 
6.106037437214828E-4 0.0 6612:1.0 22625:1.0 39108:1.0 39108:1.0 39125:1.0 39125:1.0 48593:1.0 48593:1.0 48611:1.0 48611:1.0 62906:1.0 76272:1.0 140387:1.0 145376:1.0 181076:1.0 181076:1.0 181094:1.0 181094:1.0 193590:1.0 217089:1.0 231284:1.0 253850:1.0 270339:1.0 289786:1.0 307832:1.0 324894:1.0 
0.006077677918655696 0.0 5768:1.0 22625:1.0 39108:1.0 39108:1.0 39125:1.0 39125:1.0 48593:1.0 48611:1.0 62906:1.0 76272:1.0 122045:1.0 145385:1.0 208565:1.0 217085:1.0 223688:1.0 253861:1.0 260889:1.0 289781:1.0 302601:1.0 324906:1.0 
0.005391439335828113 0.0 5768:1.0 22625:1.0 39108:1.0 39108:1.0 39125:1.0 39125:1.0 48593:1.0 48611:1.0 62906:1.0 76272:1.0 136713:1.0 145380:1.0 181076:1.0 181094:1.0 186400:1.0 217088:1.0 224411:1.0 253856:1.0 267096:1.0 289787:1.0 322939:1.0 324894:1.0 
5.056238705485924E-4 0.0 10633:1.0 19453:1.0 33683:1.0 33700:1.0 42437:1.0 42455:1.0 58764:1.0 65085:1.0 104636:1.0 118728:1.0 153791:1.0 187841:1.0 231062:1.0 259538:1.0 261293:1.0 296309:1.0 323220:1.0 332236:1.0 349918:1.0 367364:1.0 
0.002517839239177881 0.0 15504:1.0 19458:1.0 33683:1.0 33683:1.0 33683:1.0 33683:1.0 33700:1.0 33700:1.0 33700:1.0 33700:1.0 42437:1.0 42437:1.0 42437:1.0 42455:1.0 42455:1.0 42455:1.0 61959:1.0 65083:1.0 104636:1.0 118728:1.0 152335:1.0 187834:1.0 246636:1.0 259544:1.0 271796:1.0 296318:1.0 299731:1.0 332236:1.0 363319:1.0 367350:1.0 
8.785972157639291E-4 0.0 9301:1.0 19453:1.0 42437:1.0 42437:1.0 42455:1.0 42455:1.0 62294:1.0 65081:1.0 81564:1.0 81564:1.0 81581:1.0 81581:1.0 91049:1.0 91049:1.0 91049:1.0 91049:1.0 91067:1.0 91067:1.0 91067:1.0 91067:1.0 105362:1.0 118728:1.0 165061:1.0 187828:1.0 235363:1.0 259544:1.0 280351:1.0 296318:1.0 310663:1.0 332240:1.0 349366:1.0 367350:1.0 
2.113185096552911E-4 0.0 12434:1.0 19458:1.0 33683:1.0 33700:1.0 42437:1.0 42437:1.0 42437:1.0 42437:1.0 42437:1.0 42455:1.0 42455:1.0 42455:1.0 42455:1.0 42455:1.0 47314:1.0 65081:1.0 91049:1.0 91049:1.0 91049:1.0 91067:1.0 91067:1.0 91067:1.0 105362:1.0 118728:1.0 157627:1.0 187836:1.0 229412:1.0 259544:1.0 289583:1.0 296318:1.0 328005:1.0 332231:1.0 344319:1.0 367355:1.0 
0.0014444327524006316 0.0 16483:1.0 19453:1.0 42437:1.0 42455:1.0 57389:1.0 65082:1.0 81564:1.0 81564:1.0 81581:1.0 81581:1.0 91049:1.0 91049:1.0 91067:1.0 91067:1.0 105362:1.0 118728:1.0 184231:1.0 187828:1.0 223532:1.0 223550:1.0 243621:1.0 259539:1.0 286514:1.0 296317:1.0 313323:1.0 332243:1.0 333785:1.0 367350:1.0 
1.451565499486638E-4 0.0 11995:1.0 19458:1.0 49343:1.0 65080:1.0 91049:1.0 91049:1.0 91067:1.0 91067:1.0 105362:1.0 118728:1.0 155637:1.0 187832:1.0 241591:1.0 259546:1.0 262240:1.0 296312:1.0 304952:1.0 332234:1.0 350526:1.0 367354:1.0 
0.0 7.040234592021406E-5 8403:1.0 22619:1.0 39108:1.0 39108:1.0 39125:1.0 39125:1.0 48593:1.0 48593:1.0 48593:1.0 48611:1.0 48611:1.0 48611:1.0 62180:1.0 76272:1.0 112855:1.0 145372:1.0 181076:1.0 181094:1.0 196407:1.0 217083:1.0 234065:1.0 253861:1.0 262932:1.0 289787:1.0 293363:1.0 324907:1.0 
2.556624495579987E-4 0.0 9118:1.0 22625:1.0 39108:1.0 39108:1.0 39125:1.0 39125:1.0 48593:1.0 48611:1.0 62906:1.0 76272:1.0 140387:1.0 145376:1.0 181076:1.0 181076:1.0 181094:1.0 181094:1.0 193590:1.0 217089:1.0 251755:1.0 253850:1.0 270339:1.0 289786:1.0 313799:1.0 324894:1.0 
0.0032322739659341624 0.0 19834:1.0 22619:1.0 39108:1.0 39125:1.0 48593:1.0 48593:1.0 48593:1.0 48593:1.0 48611:1.0 48611:1.0 48611:1.0 48611:1.0 62906:1.0 76272:1.0 129525:1.0 145380:1.0 204180:1.0 217088:1.0 229340:1.0 253862:1.0 260599:1.0 289775:1.0 305791:1.0 324905:1.0 
5.03625901872512E-4 0.0 1921:1.0 22625:1.0 48593:1.0 48593:1.0 48611:1.0 48611:1.0 62180:1.0 76272:1.0 124914:1.0 145383:1.0 205981:1.0 217089:1.0 252598:1.0 253850:1.0 266888:1.0 289788:1.0 301530:1.0 324899:1.0 
0.0020830796048610504 0.0 13568:1.0 27660:1.0 64516:1.0 96760:1.0 132464:1.0 132482:1.0 148351:1.0 168476:1.0 182139:1.0 205250:1.0 233182:1.0 241163:1.0 243199:1.0 276287:1.0 
0.008071722432545184 0.0 16772:1.0 19460:1.0 44141:1.0 65075:1.0 91049:1.0 91067:1.0 104636:1.0 118728:1.0 180574:1.0 187834:1.0 246636:1.0 259544:1.0 266189:1.0 296306:1.0 314492:1.0 332245:1.0 366099:1.0 367361:1.0 
0.005218428141671024 0.0 1505:1.0 22626:1.0 39108:1.0 39108:1.0 39125:1.0 39125:1.0 62906:1.0 76272:1.0 144031:1.0 145383:1.0 192427:1.0 217089:1.0 245659:1.0 253850:1.0 272933:1.0 289789:1.0 292198:1.0 324900:1.0 
5.664285256705141E-4 0.0 8551:1.0 19463:1.0 61959:1.0 65083:1.0 104636:1.0 118728:1.0 154799:1.0 187828:1.0 223532:1.0 223550:1.0 242385:1.0 259539:1.0 277056:1.0 296318:1.0 309999:1.0 332231:1.0 359022:1.0 367355:1.0 
5.892050732879057E-4 0.0 6653:1.0 19464:1.0 33683:1.0 33700:1.0 45111:1.0 65081:1.0 104636:1.0 118728:1.0 163238:1.0 187839:1.0 249806:1.0 259533:1.0 276521:1.0 296317:1.0 308173:1.0 332243:1.0 342395:1.0 367350:1.0 
0.0012337627690403215 0.0 16731:1.0 22625:1.0 39108:1.0 39108:1.0 39125:1.0 39125:1.0 48593:1.0 48611:1.0 62906:1.0 76272:1.0 120782:1.0 145383:1.0 192153:1.0 217089:1.0 242015:1.0 253856:1.0 280697:1.0 289780:1.0 309491:1.0 324906:1.0 
0.001097757501936539 0.0 797:1.0 19453:1.0 42437:1.0 42455:1.0 58939:1.0 65075:1.0 91049:1.0 91049:1.0 91049:1.0 91067:1.0 91067:1.0 91067:1.0 105362:1.0 118728:1.0 184906:1.0 187828:1.0 223532:1.0 223550:1.0 240160:1.0 259543:1.0 264652:1.0 296312:1.0 319774:1.0 332242:1.0 334477:1.0 367350:1.0 
0.011062955338667711 0.0 11402:1.0 19458:1.0 42437:1.0 42455:1.0 61959:1.0 65083:1.0 104636:1.0 118728:1.0 159828:1.0 187834:1.0 223532:1.0 223532:1.0 223550:1.0 223550:1.0 242095:1.0 259547:1.0 283622:1.0 296317:1.0 300164:1.0 332244:1.0 352925:1.0 367350:1.0 
3.205161079753219E-4 0.0 16584:1.0 19458:1.0 62415:1.0 65081:1.0 81564:1.0 81581:1.0 91049:1.0 91049:1.0 91067:1.0 91067:1.0 105362:1.0 118728:1.0 186487:1.0 187839:1.0 232972:1.0 259545:1.0 291480:1.0 296310:1.0 298054:1.0 332235:1.0 349273:1.0 367356:1.0 
2.62669936058133E-5 0.0 16584:1.0 19458:1.0 62415:1.0 65081:1.0 81564:1.0 81581:1.0 91049:1.0 91049:1.0 91067:1.0 91067:1.0 105362:1.0 118728:1.0 182843:1.0 187832:1.0 223532:1.0 223532:1.0 223550:1.0 223550:1.0 224117:1.0 259537:1.0 277585:1.0 296312:1.0 305578:1.0 332231:1.0 338247:1.0 367361:1.0 
1.622022330510701E-5 0.0 6518:1.0 22626:1.0 62906:1.0 76272:1.0 124914:1.0 145383:1.0 185282:1.0 217086:1.0 238321:1.0 253850:1.0 272933:1.0 289789:1.0 302821:1.0 324900:1.0 
0.0011862528246687292 0.0 731:1.0 19453:1.0 42437:1.0 42437:1.0 42455:1.0 42455:1.0 52077:1.0 65082:1.0 91049:1.0 91067:1.0 105362:1.0 118728:1.0 168260:1.0 187837:1.0 254059:1.0 259533:1.0 272534:1.0 296317:1.0 308173:1.0 332243:1.0 341713:1.0 367350:1.0 
1.5663879082182098E-5 0.0 16953:1.0 19458:1.0 33683:1.0 33700:1.0 42437:1.0 42437:1.0 42437:1.0 42455:1.0 42455:1.0 42455:1.0 47876:1.0 65081:1.0 81564:1.0 81581:1.0 91049:1.0 91049:1.0 91067:1.0 91067:1.0 105362:1.0 118728:1.0 153590:1.0 187841:1.0 254634:1.0 259541:1.0 284241:1.0 296312:1.0 300164:1.0 332244:1.0 361441:1.0 367350:1.0 
0.0028399038683113134 0.0 10249:1.0 19458:1.0 42437:1.0 42437:1.0 42455:1.0 42455:1.0 49560:1.0 65082:1.0 105362:1.0 118728:1.0 160006:1.0 187828:1.0 223532:1.0 223550:1.0 223654:1.0 259539:1.0 265314:1.0 296306:1.0 319774:1.0 332242:1.0 366102:1.0 367350:1.0 
5.432321260959738E-4 0.0 13568:1.0 27660:1.0 91058:1.0 96764:1.0 132464:1.0 132482:1.0 167733:1.0 168471:1.0 185941:1.0 205238:1.0 213577:1.0 241171:1.0 263376:1.0 276288:1.0 
0.0012788091710519947 0.0 8123:1.0 22625:1.0 48593:1.0 48593:1.0 48593:1.0 48611:1.0 48611:1.0 48611:1.0 72031:1.0 76272:1.0 130091:1.0 145372:1.0 190976:1.0 217084:1.0 225669:1.0 253860:1.0 276362:1.0 289788:1.0 293363:1.0 324907:1.0 
1.1675479677368384E-4 0.0 13568:1.0 27660:1.0 95237:1.0 96770:1.0 157694:1.0 168471:1.0 200412:1.0 205246:1.0 237562:1.0 241176:1.0 242953:1.0 276286:1.0 
0.0023688060862956037 0.0 6643:1.0 19458:1.0 42437:1.0 42455:1.0 63333:1.0 65075:1.0 81564:1.0 81581:1.0 91049:1.0 91049:1.0 91067:1.0 91067:1.0 105362:1.0 118728:1.0 156703:1.0 187841:1.0 239959:1.0 259545:1.0 281358:1.0 296306:1.0 325204:1.0 332244:1.0 348247:1.0 367361:1.0 
0.004640044370195683 0.0015959466572420802 6643:1.0 19458:1.0 33683:1.0 33700:1.0 42437:1.0 42455:1.0 49829:1.0 65086:1.0 104636:1.0 118728:1.0 151206:1.0 151224:1.0 162868:1.0 187835:1.0 249295:1.0 259538:1.0 278250:1.0 296320:1.0 312795:1.0 332242:1.0 345057:1.0 367362:1.0 
0.0 0.0014989374080689986 6643:1.0 19458:1.0 33683:1.0 33700:1.0 42437:1.0 42455:1.0 49829:1.0 65086:1.0 104636:1.0 118728:1.0 141127:1.0 141127:1.0 141144:1.0 141144:1.0 151206:1.0 151224:1.0 167370:1.0 187839:1.0 236046:1.0 259545:1.0 281699:1.0 296306:1.0 301179:1.0 332236:1.0 366494:1.0 367357:1.0 
8.714931257684192E-4 9.774270227581134E-4 6643:1.0 19458:1.0 33683:1.0 33700:1.0 42437:1.0 42455:1.0 49829:1.0 65086:1.0 104636:1.0 118728:1.0 141127:1.0 141127:1.0 141144:1.0 141144:1.0 151206:1.0 151224:1.0 172700:1.0 187828:1.0 223532:1.0 223532:1.0 223550:1.0 223550:1.0 227351:1.0 259538:1.0 295416:1.0 296313:1.0 315389:1.0 332245:1.0 355097:1.0 367361:1.0 
0.0 0.0012076395091223896 6643:1.0 19458:1.0 33683:1.0 33700:1.0 42437:1.0 42455:1.0 49829:1.0 65086:1.0 104636:1.0 118728:1.0 141127:1.0 141127:1.0 141144:1.0 141144:1.0 151206:1.0 151224:1.0 172700:1.0 187828:1.0 215838:1.0 215856:1.0 223532:1.0 223532:1.0 223550:1.0 223550:1.0 258627:1.0 259540:1.0 279162:1.0 296320:1.0 319774:1.0 332242:1.0 343698:1.0 367362:1.0 
0.0 0.002159632530248014 6643:1.0 19458:1.0 33683:1.0 33700:1.0 42437:1.0 42455:1.0 49829:1.0 65086:1.0 104636:1.0 118728:1.0 141127:1.0 141127:1.0 141127:1.0 141144:1.0 141144:1.0 141144:1.0 151206:1.0 151224:1.0 170087:1.0 187842:1.0 246636:1.0 259544:1.0 271796:1.0 296318:1.0 327486:1.0 332235:1.0 367220:1.0 367360:1.0 
0.001801906770798007 7.107342736550291E-4 6643:1.0 19458:1.0 33683:1.0 33700:1.0 42437:1.0 42455:1.0 49829:1.0 65086:1.0 104636:1.0 118728:1.0 141127:1.0 141127:1.0 141127:1.0 141144:1.0 141144:1.0 141144:1.0 151206:1.0 151224:1.0 167586:1.0 187834:1.0 223532:1.0 223532:1.0 223532:1.0 223550:1.0 223550:1.0 223550:1.0 249580:1.0 259544:1.0 261246:1.0 296315:1.0 309469:1.0 332231:1.0 366099:1.0 367361:1.0 
0.0 0.0013338619988124995 6643:1.0 19458:1.0 33683:1.0 33700:1.0 42437:1.0 42455:1.0 49829:1.0 65086:1.0 104636:1.0 118728:1.0 141127:1.0 141127:1.0 141127:1.0 141144:1.0 141144:1.0 141144:1.0 151206:1.0 151224:1.0 167586:1.0 187834:1.0 215838:1.0 215856:1.0 223532:1.0 223532:1.0 223532:1.0 223550:1.0 223550:1.0 223550:1.0 258214:1.0 259544:1.0 271796:1.0 296318:1.0 297665:1.0 332231:1.0 334003:1.0 367357:1.0 
0.01896467395868292 0.0 13568:1.0 27660:1.0 68818:1.0 96766:1.0 132464:1.0 132482:1.0 154578:1.0 168478:1.0 192011:1.0 205242:1.0 207473:1.0 241169:1.0 249461:1.0 276285:1.0 
0.0011226526401914337 0.0 12350:1.0 19458:1.0 42437:1.0 42437:1.0 42455:1.0 42455:1.0 44147:1.0 65075:1.0 81564:1.0 81564:1.0 81564:1.0 81581:1.0 81581:1.0 81581:1.0 91049:1.0 91049:1.0 91049:1.0 91067:1.0 91067:1.0 91067:1.0 105362:1.0 118728:1.0 174707:1.0 187839:1.0 254708:1.0 259533:1.0 272534:1.0 296317:1.0 308173:1.0 332243:1.0 339808:1.0 367357:1.0 
0.0011276354206261102 0.0 15390:1.0 19457:1.0 56821:1.0 65075:1.0 81564:1.0 81581:1.0 91049:1.0 91049:1.0 91049:1.0 91067:1.0 91067:1.0 91067:1.0 105362:1.0 118728:1.0 162752:1.0 187840:1.0 249668:1.0 259538:1.0 272452:1.0 296306:1.0 304952:1.0 332234:1.0 352796:1.0 367355:1.0 
0.0027810417355440984 0.0 7502:1.0 19458:1.0 52571:1.0 65081:1.0 81564:1.0 81564:1.0 81564:1.0 81581:1.0 81581:1.0 81581:1.0 91049:1.0 91049:1.0 91049:1.0 91049:1.0 91067:1.0 91067:1.0 91067:1.0 91067:1.0 104636:1.0 118728:1.0 154161:1.0 187834:1.0 223532:1.0 223532:1.0 223532:1.0 223550:1.0 223550:1.0 223550:1.0 256456:1.0 259539:1.0 280351:1.0 296318:1.0 316369:1.0 332231:1.0 350796:1.0 367364:1.0 
0.0035282976879292007 0.0 9365:1.0 19458:1.0 42437:1.0 42437:1.0 42455:1.0 42455:1.0 44141:1.0 65075:1.0 81564:1.0 81581:1.0 105362:1.0 118728:1.0 179169:1.0 187839:1.0 241170:1.0 259547:1.0 277056:1.0 296318:1.0 321972:1.0 332231:1.0 338780:1.0 367361:1.0 
9.691438049327434E-5 0.0 20964:1.0 22625:1.0 62906:1.0 76272:1.0 125925:1.0 145383:1.0 201385:1.0 217083:1.0 227723:1.0 253854:1.0 279058:1.0 289787:1.0 320921:1.0 324894:1.0 
9.710933955488807E-4 0.0 9502:1.0 19458:1.0 42437:1.0 42455:1.0 52776:1.0 65087:1.0 104636:1.0 118728:1.0 181138:1.0 187833:1.0 246841:1.0 259533:1.0 278250:1.0 296320:1.0 303169:1.0 332242:1.0 365717:1.0 367357:1.0 
0.0024057624557844866 0.0 16772:1.0 19460:1.0 61143:1.0 65075:1.0 81564:1.0 81581:1.0 91049:1.0 91049:1.0 91067:1.0 91067:1.0 104636:1.0 118728:1.0 157760:1.0 187835:1.0 253653:1.0 259543:1.0 296234:1.0 296312:1.0 300631:1.0 332236:1.0 350796:1.0 367364:1.0 
0.0031505249665640155 0.0 14842:1.0 19460:1.0 42831:1.0 65081:1.0 81564:1.0 81564:1.0 81564:1.0 81564:1.0 81581:1.0 81581:1.0 81581:1.0 81581:1.0 105683:1.0 118728:1.0 159194:1.0 187834:1.0 243305:1.0 259545:1.0 266335:1.0 296306:1.0 302632:1.0 332242:1.0 338950:1.0 367360:1.0 
2.0004460189847377E-4 0.0 14842:1.0 19460:1.0 42831:1.0 65081:1.0 81564:1.0 81564:1.0 81564:1.0 81564:1.0 81581:1.0 81581:1.0 81581:1.0 81581:1.0 105683:1.0 118728:1.0 159194:1.0 187834:1.0 215838:1.0 215856:1.0 242525:1.0 259547:1.0 273207:1.0 296318:1.0 322812:1.0 332231:1.0 348247:1.0 367361:1.0 
1.1167117295827758E-4 0.0 14211:1.0 19453:1.0 42437:1.0 42437:1.0 42437:1.0 42437:1.0 42437:1.0 42437:1.0 42437:1.0 42455:1.0 42455:1.0 42455:1.0 42455:1.0 42455:1.0 42455:1.0 42455:1.0 51550:1.0 65075:1.0 81564:1.0 81564:1.0 81581:1.0 81581:1.0 91049:1.0 91049:1.0 91067:1.0 91067:1.0 113730:1.0 118728:1.0 156895:1.0 187837:1.0 232102:1.0 259533:1.0 276521:1.0 296317:1.0 313936:1.0 332231:1.0 348247:1.0 367361:1.0 
9.26682099561536E-5 0.0 12507:1.0 19462:1.0 33683:1.0 33700:1.0 42437:1.0 42437:1.0 42455:1.0 42455:1.0 56358:1.0 65081:1.0 81564:1.0 81564:1.0 81581:1.0 81581:1.0 91049:1.0 91049:1.0 91067:1.0 91067:1.0 105362:1.0 118728:1.0 183476:1.0 187838:1.0 226771:1.0 259542:1.0 283072:1.0 296306:1.0 303510:1.0 332245:1.0 
0.001270408195342767 0.0 4362:1.0 22625:1.0 39108:1.0 39108:1.0 39125:1.0 39125:1.0 48593:1.0 48593:1.0 48611:1.0 48611:1.0 62906:1.0 76272:1.0 120782:1.0 145383:1.0 205858:1.0 217082:1.0 219058:1.0 253850:1.0 270339:1.0 289786:1.0 302601:1.0 324906:1.0 
0.0013697831239226793 0.0 13003:1.0 19453:1.0 33683:1.0 33700:1.0 42437:1.0 42437:1.0 42455:1.0 42455:1.0 61959:1.0 65083:1.0 104636:1.0 118728:1.0 170021:1.0 187835:1.0 249443:1.0 259543:1.0 285395:1.0 296318:1.0 318467:1.0 332231:1.0 341774:1.0 367355:1.0 
0.003096250201586563 0.0 6778:1.0 22619:1.0 39108:1.0 39125:1.0 48593:1.0 48611:1.0 71274:1.0 76272:1.0 120017:1.0 145384:1.0 210093:1.0 217084:1.0 252177:1.0 253857:1.0 272933:1.0 289789:1.0 294724:1.0 324899:1.0 
0.002573316778039776 0.0 10984:1.0 19458:1.0 33683:1.0 33683:1.0 33683:1.0 33700:1.0 33700:1.0 33700:1.0 42437:1.0 42437:1.0 42455:1.0 42455:1.0 58539:1.0 65081:1.0 81564:1.0 81581:1.0 91049:1.0 91067:1.0 105362:1.0 118728:1.0 174707:1.0 187839:1.0 250719:1.0 259533:1.0 279162:1.0 296320:1.0 309552:1.0 332243:1.0 355467:1.0 367350:1.0 
1.4737640364081785E-4 0.0 3340:1.0 19458:1.0 42437:1.0 42437:1.0 42455:1.0 42455:1.0 62763:1.0 65075:1.0 91049:1.0 91049:1.0 91067:1.0 91067:1.0 105362:1.0 118728:1.0 158892:1.0 187828:1.0 223532:1.0 223550:1.0 227756:1.0 259539:1.0 266688:1.0 296317:1.0 316555:1.0 332243:1.0 363329:1.0 367359:1.0 
0.01649793491709306 1.4275385308994343E-4 3920:1.0 22625:1.0 39108:1.0 39125:1.0 48593:1.0 48611:1.0 62906:1.0 76272:1.0 136274:1.0 145375:1.0 212178:1.0 217085:1.0 230751:1.0 253862:1.0 289706:1.0 289775:1.0 309652:1.0 324900:1.0 
0.0 2.9282877230582267E-4 6282:1.0 19453:1.0 33683:1.0 33683:1.0 33700:1.0 33700:1.0 42437:1.0 42455:1.0 61420:1.0 65075:1.0 81564:1.0 81581:1.0 104636:1.0 118728:1.0 154047:1.0 187839:1.0 236046:1.0 259545:1.0 289131:1.0 296306:1.0 324008:1.0 332236:1.0 340529:1.0 367353:1.0 
2.4104312126249695E-4 0.0 12055:1.0 22625:1.0 39108:1.0 39125:1.0 48593:1.0 48611:1.0 62180:1.0 76272:1.0 120782:1.0 145383:1.0 192153:1.0 217089:1.0 233370:1.0 253850:1.0 270339:1.0 289786:1.0 314363:1.0 324906:1.0 
0.003575127618582081 0.0 13568:1.0 27660:1.0 90827:1.0 96760:1.0 132464:1.0 132482:1.0 168392:1.0 168470:1.0 181466:1.0 205249:1.0 214078:1.0 241168:1.0 274511:1.0 276282:1.0 
0.0014198980094682417 0.0 1584:1.0 22625:1.0 39108:1.0 39125:1.0 48593:1.0 48593:1.0 48593:1.0 48611:1.0 48611:1.0 48611:1.0 62906:1.0 76272:1.0 140387:1.0 145376:1.0 181076:1.0 181076:1.0 181094:1.0 181094:1.0 181661:1.0 217081:1.0 236664:1.0 253856:1.0 289201:1.0 289788:1.0 301947:1.0 324905:1.0 
0.001190678903613427 0.0 7862:1.0 22625:1.0 39108:1.0 39125:1.0 48593:1.0 48593:1.0 48611:1.0 48611:1.0 62906:1.0 76272:1.0 124914:1.0 145383:1.0 206345:1.0 217077:1.0 224232:1.0 253861:1.0 265717:1.0 289787:1.0 309818:1.0 324894:1.0 
2.1738354278075697E-4 0.0 16772:1.0 19460:1.0 59813:1.0 65075:1.0 81564:1.0 81581:1.0 91049:1.0 91049:1.0 91067:1.0 91067:1.0 105362:1.0 118728:1.0 162473:1.0 187840:1.0 245748:1.0 259546:1.0 293271:1.0 296306:1.0 332107:1.0 332238:1.0 348527:1.0 367357:1.0 
3.1615374187800955E-4 0.0 1626:1.0 19458:1.0 42437:1.0 42455:1.0 48759:1.0 65075:1.0 81564:1.0 81581:1.0 91049:1.0 91067:1.0 105362:1.0 118728:1.0 174707:1.0 187839:1.0 234609:1.0 259545:1.0 291480:1.0 296310:1.0 328630:1.0 332247:1.0 339698:1.0 367350:1.0 
9.451548122226672E-4 1.3117626965271245E-4 16772:1.0 19460:1.0 52621:1.0 65082:1.0 104636:1.0 118728:1.0 168119:1.0 187838:1.0 241795:1.0 259543:1.0 285395:1.0 296318:1.0 299731:1.0 332236:1.0 342395:1.0 367350:1.0 
2.355920778847965E-4 0.0 15475:1.0 19462:1.0 61959:1.0 65083:1.0 104636:1.0 118728:1.0 180770:1.0 187835:1.0 249443:1.0 259543:1.0 287933:1.0 296314:1.0 308173:1.0 332243:1.0 350632:1.0 367357:1.0 
0.002577561603181282 2.6547197598896823E-6 7842:1.0 19458:1.0 33683:1.0 33683:1.0 33683:1.0 33700:1.0 33700:1.0 33700:1.0 42437:1.0 42437:1.0 42455:1.0 42455:1.0 54048:1.0 65082:1.0 81564:1.0 81564:1.0 81581:1.0 81581:1.0 91049:1.0 91049:1.0 91049:1.0 91049:1.0 91049:1.0 91049:1.0 91049:1.0 91049:1.0 91067:1.0 91067:1.0 91067:1.0 91067:1.0 91067:1.0 91067:1.0 91067:1.0 91067:1.0 105362:1.0 118728:1.0 178730:1.0 187831:1.0 254634:1.0 259541:1.0 287595:1.0 296310:1.0 298054:1.0 332235:1.0 357853:1.0 367356:1.0 
2.6653220403963343E-4 0.0 7144:1.0 22626:1.0 62906:1.0 76272:1.0 124914:1.0 145383:1.0 197482:1.0 217086:1.0 238321:1.0 253850:1.0 272933:1.0 289789:1.0 308354:1.0 324900:1.0 
0.005783618920548693 0.0 4626:1.0 19459:1.0 33683:1.0 33683:1.0 33700:1.0 33700:1.0 52113:1.0 65082:1.0 91049:1.0 91067:1.0 104636:1.0 118728:1.0 184016:1.0 187828:1.0 223532:1.0 223532:1.0 223532:1.0 223550:1.0 223550:1.0 223550:1.0 242095:1.0 259547:1.0 296028:1.0 296309:1.0 328630:1.0 332244:1.0 347828:1.0 367358:1.0 
0.0 5.199388662186684E-5 4626:1.0 19459:1.0 33683:1.0 33683:1.0 33700:1.0 33700:1.0 52113:1.0 65082:1.0 91049:1.0 91067:1.0 104636:1.0 118728:1.0 184016:1.0 187828:1.0 215838:1.0 215838:1.0 215838:1.0 215838:1.0 215838:1.0 215856:1.0 215856:1.0 215856:1.0 215856:1.0 215856:1.0 223532:1.0 223532:1.0 223532:1.0 223550:1.0 223550:1.0 223550:1.0 229763:1.0 259547:1.0 
6.123881343569942E-4 0.0 10076:1.0 19458:1.0 33683:1.0 33683:1.0 33683:1.0 33683:1.0 33683:1.0 33700:1.0 33700:1.0 33700:1.0 33700:1.0 33700:1.0 42437:1.0 42455:1.0 50063:1.0 65078:1.0 81564:1.0 81581:1.0 91049:1.0 91049:1.0 91067:1.0 91067:1.0 105362:1.0 118728:1.0 163238:1.0 187839:1.0 236046:1.0 259545:1.0 285275:1.0 296306:1.0 312795:1.0 332242:1.0 348766:1.0 367362:1.0 
0.002043741082818944 0.0 12740:1.0 22619:1.0 39108:1.0 39108:1.0 39125:1.0 39125:1.0 48593:1.0 48593:1.0 48611:1.0 48611:1.0 62287:1.0 76272:1.0 130342:1.0 145385:1.0 208802:1.0 217088:1.0 233076:1.0 253850:1.0 272933:1.0 289789:1.0 301973:1.0 324904:1.0 
0.0 4.506636780305689E-4 12740:1.0 22619:1.0 39108:1.0 39108:1.0 39125:1.0 39125:1.0 48593:1.0 48593:1.0 48611:1.0 48611:1.0 62287:1.0 76272:1.0 130342:1.0 145385:1.0 173382:1.0 173382:1.0 173400:1.0 173400:1.0 199639:1.0 217091:1.0 230104:1.0 253860:1.0 266437:1.0 289786:1.0 301312:1.0 324900:1.0 
0.0013146312470705662 6.038812671860052E-4 13675:1.0 27660:1.0 91496:1.0 96773:1.0 164116:1.0 168476:1.0 198430:1.0 205244:1.0 206986:1.0 241167:1.0 254714:1.0 276282:1.0 
0.00156500038195974 0.0 13473:1.0 22619:1.0 39108:1.0 39125:1.0 48593:1.0 48611:1.0 71274:1.0 76272:1.0 126830:1.0 145386:1.0 216757:1.0 217089:1.0 225451:1.0 253857:1.0 267839:1.0 289781:1.0 320233:1.0 324902:1.0 
9.955348614849066E-5 0.0 11565:1.0 19453:1.0 33683:1.0 33700:1.0 42437:1.0 42455:1.0 61009:1.0 65089:1.0 104743:1.0 118728:1.0 158459:1.0 187835:1.0 223532:1.0 223550:1.0 236817:1.0 259539:1.0 291480:1.0 296314:1.0 308173:1.0 332243:1.0 336918:1.0 367350:1.0 
0.004063100024342394 0.0 21173:1.0 22619:1.0 39108:1.0 39125:1.0 48593:1.0 48593:1.0 48593:1.0 48593:1.0 48611:1.0 48611:1.0 48611:1.0 48611:1.0 72031:1.0 76272:1.0 116277:1.0 145372:1.0 181076:1.0 181094:1.0 196963:1.0 217088:1.0 229340:1.0 253862:1.0 258822:1.0 289775:1.0 291304:1.0 324898:1.0 
9.6239245563938E-4 0.0 15254:1.0 22625:1.0 39108:1.0 39108:1.0 39108:1.0 39108:1.0 39125:1.0 39125:1.0 39125:1.0 39125:1.0 48593:1.0 48593:1.0 48593:1.0 48611:1.0 48611:1.0 48611:1.0 71274:1.0 76272:1.0 126830:1.0 145386:1.0 190158:1.0 217084:1.0 226053:1.0 253853:1.0 256642:1.0 289782:1.0 319640:1.0 324900:1.0 
0.0027363709381579603 0.0 13100:1.0 19458:1.0 33683:1.0 33683:1.0 33683:1.0 33683:1.0 33700:1.0 33700:1.0 33700:1.0 33700:1.0 42437:1.0 42437:1.0 42437:1.0 42455:1.0 42455:1.0 42455:1.0 61009:1.0 65089:1.0 104743:1.0 118728:1.0 160450:1.0 187835:1.0 231271:1.0 259536:1.0 262549:1.0 296313:1.0 326884:1.0 332237:1.0 348247:1.0 367361:1.0 
8.830437689901169E-4 0.0 2152:1.0 19457:1.0 33683:1.0 33683:1.0 33683:1.0 33683:1.0 33700:1.0 33700:1.0 33700:1.0 33700:1.0 42437:1.0 42437:1.0 42437:1.0 42455:1.0 42455:1.0 42455:1.0 45479:1.0 65081:1.0 81564:1.0 81581:1.0 105362:1.0 118728:1.0 171981:1.0 187836:1.0 235865:1.0 259546:1.0 285393:1.0 296312:1.0 310641:1.0 332244:1.0 348247:1.0 367361:1.0 
0.007591270700243619 0.0 14178:1.0 27660:1.0 91058:1.0 96764:1.0 132464:1.0 132482:1.0 161849:1.0 168471:1.0 194393:1.0 205252:1.0 
2.675900776471204E-4 0.0 21200:1.0 22624:1.0 48593:1.0 48593:1.0 48611:1.0 48611:1.0 62906:1.0 76272:1.0 111335:1.0 145385:1.0 214917:1.0 217082:1.0 236706:1.0 253864:1.0 262496:1.0 289778:1.0 301494:1.0 324906:1.0 
0.0013841509494195985 0.0 3822:1.0 19458:1.0 33683:1.0 33700:1.0 42437:1.0 42455:1.0 61959:1.0 65083:1.0 105362:1.0 118728:1.0 166953:1.0 187839:1.0 256807:1.0 259545:1.0 289604:1.0 296306:1.0 315389:1.0 332245:1.0 352584:1.0 367356:1.0 
0.002828782726819509 0.0 4499:1.0 19453:1.0 42437:1.0 42437:1.0 42455:1.0 42455:1.0 53103:1.0 65080:1.0 105362:1.0 118728:1.0 178226:1.0 187839:1.0 246636:1.0 259544:1.0 272065:1.0 296318:1.0 317502:1.0 332236:1.0 346719:1.0 367350:1.0 
1.1232760136090176E-4 0.0 19609:1.0 22625:1.0 39108:1.0 39108:1.0 39125:1.0 39125:1.0 48593:1.0 48593:1.0 48611:1.0 48611:1.0 62906:1.0 76272:1.0 134082:1.0 145384:1.0 216482:1.0 217077:1.0 224792:1.0 253855:1.0 270339:1.0 289786:1.0 304565:1.0 324899:1.0 
4.050023997738234E-4 0.0 14683:1.0 22619:1.0 39108:1.0 39125:1.0 48593:1.0 48593:1.0 48593:1.0 48611:1.0 48611:1.0 48611:1.0 62906:1.0 76272:1.0 120017:1.0 145384:1.0 209249:1.0 217082:1.0 220884:1.0 253861:1.0 268264:1.0 289779:1.0 312641:1.0 324905:1.0 
0.0010412834393831352 5.084233698734856E-4 21162:1.0 22619:1.0 48593:1.0 48593:1.0 48593:1.0 48611:1.0 48611:1.0 48611:1.0 72031:1.0 76272:1.0 122558:1.0 145376:1.0 216434:1.0 217081:1.0 224153:1.0 253856:1.0 266437:1.0 289786:1.0 314828:1.0 324906:1.0 
0.0070675704351422725 0.0 21162:1.0 22619:1.0 48593:1.0 48593:1.0 48593:1.0 48611:1.0 48611:1.0 48611:1.0 72031:1.0 76272:1.0 114652:1.0 145378:1.0 181076:1.0 181076:1.0 181094:1.0 181094:1.0 192907:1.0 217088:1.0 243424:1.0 253862:1.0 258086:1.0 289775:1.0 321359:1.0 324907:1.0 
0.002605397856264297 0.0 7586:1.0 19458:1.0 33683:1.0 33683:1.0 33683:1.0 33700:1.0 33700:1.0 33700:1.0 42437:1.0 42437:1.0 42455:1.0 42455:1.0 49005:1.0 65075:1.0 81564:1.0 81581:1.0 91049:1.0 91049:1.0 91049:1.0 91049:1.0 91067:1.0 91067:1.0 91067:1.0 91067:1.0 113730:1.0 118728:1.0 186471:1.0 187835:1.0 224398:1.0 259537:1.0 271190:1.0 296312:1.0 315834:1.0 332244:1.0 345057:1.0 367362:1.0 
0.001669212049878553 0.0 10663:1.0 19453:1.0 33683:1.0 33700:1.0 42437:1.0 42437:1.0 42455:1.0 42455:1.0 53657:1.0 65089:1.0 104743:1.0 118728:1.0 159153:1.0 187838:1.0 226070:1.0 259546:1.0 261999:1.0 296311:1.0 327486:1.0 332239:1.0 338247:1.0 367361:1.0 
2.120177131046277E-5 0.0 16732:1.0 19458:1.0 33683:1.0 33683:1.0 33683:1.0 33683:1.0 33683:1.0 33683:1.0 33700:1.0 33700:1.0 33700:1.0 33700:1.0 33700:1.0 33700:1.0 42437:1.0 42437:1.0 42437:1.0 42437:1.0 42455:1.0 42455:1.0 42455:1.0 42455:1.0 58777:1.0 65081:1.0 91049:1.0 91067:1.0 105362:1.0 118728:1.0 186487:1.0 187839:1.0 232972:1.0 259545:1.0 274043:1.0 296311:1.0 315389:1.0 332245:1.0 344403:1.0 367361:1.0 
4.175957857684161E-4 0.0 14392:1.0 19458:1.0 42437:1.0 42455:1.0 45616:1.0 65081:1.0 81564:1.0 81581:1.0 105362:1.0 118728:1.0 179169:1.0 187836:1.0 247282:1.0 259533:1.0 276521:1.0 296317:1.0 314285:1.0 332231:1.0 339112:1.0 367364:1.0 
0.006818884687660665 0.0 14178:1.0 27660:1.0 91058:1.0 96764:1.0 132464:1.0 132482:1.0 151871:1.0 168471:1.0 194393:1.0 205252:1.0 
0.010394209784478033 0.0 14178:1.0 27660:1.0 91058:1.0 96764:1.0 132464:1.0 132482:1.0 165899:1.0 168471:1.0 194393:1.0 205252:1.0 
0.009972731923859281 0.0 6461:1.0 19458:1.0 42437:1.0 42455:1.0 57074:1.0 65075:1.0 91049:1.0 91067:1.0 114487:1.0 118728:1.0 182461:1.0 187834:1.0 223532:1.0 223550:1.0 234609:1.0 259545:1.0 262614:1.0 296306:1.0 315389:1.0 332245:1.0 340692:1.0 367356:1.0 
0.0 2.507711659859201E-4 6461:1.0 19458:1.0 42437:1.0 42455:1.0 57074:1.0 65075:1.0 91049:1.0 91067:1.0 114487:1.0 118728:1.0 182461:1.0 187834:1.0 215838:1.0 215856:1.0 223532:1.0 223550:1.0 242095:1.0 259547:1.0 268679:1.0 296312:1.0 308173:1.0 332243:1.0 333411:1.0 367350:1.0 
0.0014827751170343045 0.0012194127036313045 13675:1.0 27660:1.0 78258:1.0 96774:1.0 132658:1.0 168467:1.0 177124:1.0 205246:1.0 235000:1.0 241165:1.0 252862:1.0 276296:1.0 
0.0 9.674125009632997E-5 17659:1.0 19458:1.0 33683:1.0 33700:1.0 60188:1.0 65082:1.0 81564:1.0 81581:1.0 105362:1.0 118728:1.0 179411:1.0 187839:1.0 234883:1.0 259545:1.0 288159:1.0 296311:1.0 325327:1.0 332231:1.0 350796:1.0 367364:1.0 
0.0023003676682396873 0.0 11494:1.0 22625:1.0 39108:1.0 39125:1.0 48593:1.0 48593:1.0 48593:1.0 48593:1.0 48593:1.0 48593:1.0 48611:1.0 48611:1.0 48611:1.0 48611:1.0 48611:1.0 48611:1.0 62790:1.0 76272:1.0 139670:1.0 145376:1.0 181076:1.0 181094:1.0 216108:1.0 217090:1.0 250194:1.0 253863:1.0 281244:1.0 289785:1.0 305791:1.0 324905:1.0 
0.0010296859274124372 0.0 13568:1.0 27660:1.0 74099:1.0 96773:1.0 165543:1.0 168478:1.0 201549:1.0 205244:1.0 214320:1.0 241175:1.0 250709:1.0 276282:1.0 
0.006887630434152645 0.0 8551:1.0 19463:1.0 50952:1.0 65079:1.0 104743:1.0 118728:1.0 155714:1.0 187841:1.0 242095:1.0 259547:1.0 272534:1.0 296317:1.0 308173:1.0 332243:1.0 347998:1.0 367363:1.0 
0.0012745466791897917 2.637985228342589E-4 2122:1.0 19453:1.0 42437:1.0 42455:1.0 64340:1.0 65080:1.0 113730:1.0 118728:1.0 159081:1.0 187831:1.0 227123:1.0 259543:1.0 278866:1.0 296316:1.0 312421:1.0 332235:1.0 348138:1.0 367364:1.0 
5.620088888817567E-4 0.0 2122:1.0 19453:1.0 33683:1.0 33683:1.0 33700:1.0 33700:1.0 42437:1.0 42455:1.0 60523:1.0 65075:1.0 81564:1.0 81564:1.0 81581:1.0 81581:1.0 91049:1.0 91067:1.0 113730:1.0 118728:1.0 184048:1.0 187841:1.0 244770:1.0 259543:1.0 278488:1.0 296311:1.0 312684:1.0 332245:1.0 360880:1.0 367360:1.0 
0.001017181337360004 0.0 9417:1.0 22625:1.0 48593:1.0 48593:1.0 48611:1.0 48611:1.0 62790:1.0 76272:1.0 138298:1.0 145376:1.0 197704:1.0 217087:1.0 224017:1.0 253860:1.0 286560:1.0 289781:1.0 291304:1.0 324898:1.0 
0.007078161570665877 0.0 14425:1.0 19453:1.0 33683:1.0 33700:1.0 42437:1.0 42455:1.0 61616:1.0 65089:1.0 104743:1.0 118728:1.0 161386:1.0 187834:1.0 223532:1.0 223532:1.0 223550:1.0 223550:1.0 229412:1.0 259544:1.0 289229:1.0 296306:1.0 312795:1.0 332242:1.0 344716:1.0 367356:1.0 
3.032626839588155E-4 0.0 18044:1.0 19453:1.0 42437:1.0 42455:1.0 61959:1.0 65079:1.0 91049:1.0 91049:1.0 91067:1.0 91067:1.0 105362:1.0 118728:1.0 163238:1.0 187839:1.0 243796:1.0 259533:1.0 276521:1.0 296317:1.0 308969:1.0 332231:1.0 335844:1.0 367361:1.0 
1.9181072186222927E-4 0.0 18044:1.0 19453:1.0 42437:1.0 42455:1.0 61022:1.0 65081:1.0 81564:1.0 81581:1.0 91049:1.0 91049:1.0 91049:1.0 91049:1.0 91067:1.0 91067:1.0 91067:1.0 91067:1.0 113730:1.0 118728:1.0 160813:1.0 187840:1.0 254634:1.0 259537:1.0 282750:1.0 296319:1.0 322474:1.0 332241:1.0 337999:1.0 367355:1.0 
8.049374263224059E-5 0.0 13929:1.0 19458:1.0 33683:1.0 33683:1.0 33700:1.0 33700:1.0 64739:1.0 65081:1.0 105362:1.0 118728:1.0 158753:1.0 187836:1.0 235363:1.0 259544:1.0 271796:1.0 296318:1.0 327244:1.0 332231:1.0 363809:1.0 367356:1.0 
8.507702725690565E-4 0.0 16772:1.0 22623:1.0 48593:1.0 48611:1.0 62906:1.0 76272:1.0 120782:1.0 145383:1.0 192153:1.0 217089:1.0 237772:1.0 253855:1.0 270623:1.0 289775:1.0 320233:1.0 324898:1.0 
0.0034594752813926944 0.0 12397:1.0 22624:1.0 48593:1.0 48593:1.0 48593:1.0 48593:1.0 48593:1.0 48611:1.0 48611:1.0 48611:1.0 48611:1.0 48611:1.0 62906:1.0 76272:1.0 144031:1.0 145383:1.0 183840:1.0 217090:1.0 249024:1.0 253858:1.0 275808:1.0 289785:1.0 296075:1.0 324906:1.0 
0.0044622382558824805 0.0 11659:1.0 19462:1.0 33683:1.0 33700:1.0 42437:1.0 42437:1.0 42455:1.0 42455:1.0 51376:1.0 65075:1.0 81564:1.0 81581:1.0 91049:1.0 91049:1.0 91067:1.0 91067:1.0 105362:1.0 118728:1.0 160632:1.0 187828:1.0 223532:1.0 223550:1.0 249557:1.0 259545:1.0 281222:1.0 296306:1.0 298054:1.0 332235:1.0 351652:1.0 367356:1.0 
0.0052194490459536 0.0 13370:1.0 19458:1.0 33683:1.0 33700:1.0 45385:1.0 65081:1.0 81564:1.0 81581:1.0 105362:1.0 118728:1.0 176843:1.0 187833:1.0 223532:1.0 223532:1.0 223550:1.0 223550:1.0 253095:1.0 259547:1.0 292028:1.0 296317:1.0 320755:1.0 332237:1.0 351947:1.0 367362:1.0 
0.0016460547592856017 0.0 13370:1.0 19458:1.0 33683:1.0 33700:1.0 45385:1.0 65081:1.0 81564:1.0 81581:1.0 105362:1.0 118728:1.0 176843:1.0 187833:1.0 215838:1.0 215856:1.0 223532:1.0 223532:1.0 223550:1.0 223550:1.0 231271:1.0 259536:1.0 283622:1.0 296317:1.0 305388:1.0 332243:1.0 335819:1.0 367363:1.0 
2.164106452031897E-4 0.0 13370:1.0 19458:1.0 33683:1.0 33700:1.0 45385:1.0 65081:1.0 81564:1.0 81581:1.0 105362:1.0 118728:1.0 176843:1.0 187833:1.0 215838:1.0 215856:1.0 223532:1.0 223532:1.0 223550:1.0 223550:1.0 231271:1.0 259536:1.0 287971:1.0 296311:1.0 297487:1.0 297487:1.0 297487:1.0 297503:1.0 297503:1.0 297503:1.0 303510:1.0 332245:1.0 
0.0024619696144556917 0.0013402006538179672 13675:1.0 27660:1.0 66548:1.0 96770:1.0 144295:1.0 168476:1.0 176072:1.0 205244:1.0 236418:1.0 241171:1.0 267846:1.0 276294:1.0 
0.0016593657451874021 0.0 17120:1.0 22625:1.0 39108:1.0 39108:1.0 39125:1.0 39125:1.0 72031:1.0 76272:1.0 135109:1.0 145382:1.0 213487:1.0 217082:1.0 253242:1.0 253862:1.0 268095:1.0 289775:1.0 320233:1.0 324898:1.0 
7.829708161356593E-4 0.0 13745:1.0 22619:1.0 48593:1.0 48611:1.0 62906:1.0 76272:1.0 131055:1.0 145383:1.0 192153:1.0 217089:1.0 245260:1.0 253850:1.0 272933:1.0 289789:1.0 321359:1.0 324907:1.0 
1.7711836485819513E-6 0.0 2925:1.0 19453:1.0 33683:1.0 33683:1.0 33683:1.0 33700:1.0 33700:1.0 33700:1.0 42437:1.0 42437:1.0 42437:1.0 42437:1.0 42437:1.0 42437:1.0 42455:1.0 42455:1.0 42455:1.0 42455:1.0 42455:1.0 42455:1.0 50544:1.0 65079:1.0 105362:1.0 118728:1.0 182843:1.0 187832:1.0 254382:1.0 259546:1.0 283740:1.0 296316:1.0 315095:1.0 332241:1.0 348283:1.0 367350:1.0 
0.0025023138122025946 0.0 15455:1.0 22619:1.0 39108:1.0 39125:1.0 48593:1.0 48611:1.0 62906:1.0 76272:1.0 131055:1.0 145383:1.0 185663:1.0 217081:1.0 224577:1.0 253864:1.0 
0.007314226122622403 0.0 13704:1.0 27660:1.0 90070:1.0 96765:1.0 140193:1.0 168465:1.0 180974:1.0 205252:1.0 224321:1.0 241177:1.0 259018:1.0 276296:1.0 
7.534878556177446E-4 0.0 4791:1.0 22619:1.0 39108:1.0 39108:1.0 39108:1.0 39108:1.0 39125:1.0 39125:1.0 39125:1.0 39125:1.0 48593:1.0 48593:1.0 48611:1.0 48611:1.0 62316:1.0 76272:1.0 130117:1.0 145372:1.0 181076:1.0 181076:1.0 181094:1.0 181094:1.0 208258:1.0 217087:1.0 241050:1.0 253856:1.0 270339:1.0 289786:1.0 306310:1.0 324906:1.0 
2.8530607293310684E-5 0.0 9948:1.0 19458:1.0 42437:1.0 42455:1.0 45111:1.0 65081:1.0 81564:1.0 81581:1.0 91049:1.0 91049:1.0 91049:1.0 91049:1.0 91067:1.0 91067:1.0 91067:1.0 91067:1.0 105362:1.0 118728:1.0 174707:1.0 187839:1.0 253239:1.0 259533:1.0 272534:1.0 296317:1.0 309552:1.0 332243:1.0 366153:1.0 367350:1.0 
0.0 1.0841208269082791E-5 5775:1.0 22625:1.0 39108:1.0 39108:1.0 39108:1.0 39108:1.0 39108:1.0 39125:1.0 39125:1.0 39125:1.0 39125:1.0 39125:1.0 48593:1.0 48611:1.0 72031:1.0 76272:1.0 124837:1.0 145376:1.0 216434:1.0 217081:1.0 232496:1.0 253856:1.0 289201:1.0 289788:1.0 316803:1.0 324902:1.0 
4.446708946210482E-4 0.0 13665:1.0 22619:1.0 48593:1.0 48611:1.0 71274:1.0 76272:1.0 121481:1.0 145384:1.0 183840:1.0 217090:1.0 239913:1.0 253855:1.0 285030:1.0 289779:1.0 321560:1.0 324904:1.0 
1.4278053057182165E-5 0.0 8840:1.0 22619:1.0 39108:1.0 39125:1.0 48593:1.0 48611:1.0 72031:1.0 76272:1.0 120782:1.0 145383:1.0 190516:1.0 217089:1.0 244510:1.0 253850:1.0 280018:1.0 289785:1.0 323643:1.0 324905:1.0 
0.0031256935409134184 0.0 2271:1.0 22625:1.0 39108:1.0 39108:1.0 39108:1.0 39125:1.0 39125:1.0 39125:1.0 48593:1.0 48593:1.0 48611:1.0 48611:1.0 72031:1.0 76272:1.0 123678:1.0 145372:1.0 181076:1.0 181094:1.0 188815:1.0 217080:1.0 237415:1.0 253862:1.0 284906:1.0 289775:1.0 308340:1.0 324908:1.0 
0.0013325425808293299 0.0 14717:1.0 19457:1.0 56489:1.0 65081:1.0 81564:1.0 81564:1.0 81581:1.0 81581:1.0 91049:1.0 91067:1.0 105362:1.0 118728:1.0 154265:1.0 187833:1.0 245829:1.0 259533:1.0 276521:1.0 296317:1.0 308430:1.0 332243:1.0 349417:1.0 367355:1.0 
0.002111574528552402 0.0 3519:1.0 19458:1.0 42437:1.0 42437:1.0 42455:1.0 42455:1.0 44425:1.0 65075:1.0 91049:1.0 91067:1.0 105362:1.0 118728:1.0 172597:1.0 187833:1.0 243215:1.0 259533:1.0 276521:1.0 296317:1.0 326381:1.0 332231:1.0 340529:1.0 367353:1.0 
0.0020832134005764028 0.0 7701:1.0 19458:1.0 42437:1.0 42455:1.0 45007:1.0 65075:1.0 91049:1.0 91049:1.0 91067:1.0 91067:1.0 114487:1.0 118728:1.0 184328:1.0 187838:1.0 235927:1.0 259533:1.0 292028:1.0 296317:1.0 312394:1.0 332231:1.0 350796:1.0 367364:1.0 
0.002079993535640097 0.0 15839:1.0 22625:1.0 48593:1.0 48611:1.0 62906:1.0 76272:1.0 141592:1.0 145385:1.0 181626:1.0 217083:1.0 247009:1.0 253854:1.0 272933:1.0 289789:1.0 302601:1.0 324906:1.0 
0.004446600353551738 0.0 13932:1.0 22625:1.0 62906:1.0 76272:1.0 131679:1.0 145376:1.0 203492:1.0 217083:1.0 236706:1.0 253864:1.0 271043:1.0 289781:1.0 301242:1.0 324906:1.0 
1.6045264431798888E-4 0.0 8554:1.0 19458:1.0 33683:1.0 33700:1.0 42437:1.0 42437:1.0 42455:1.0 42455:1.0 42990:1.0 65081:1.0 81564:1.0 81581:1.0 91049:1.0 91049:1.0 91067:1.0 91067:1.0 105362:1.0 118728:1.0 157627:1.0 187836:1.0 239343:1.0 259537:1.0 283622:1.0 296317:1.0 308430:1.0 332243:1.0 353764:1.0 367350:1.0 
0.0040117185204034626 0.0 3792:1.0 22619:1.0 39108:1.0 39125:1.0 48593:1.0 48593:1.0 48593:1.0 48593:1.0 48611:1.0 48611:1.0 48611:1.0 48611:1.0 72031:1.0 76272:1.0 116076:1.0 145372:1.0 181076:1.0 181094:1.0 212178:1.0 217081:1.0 219032:1.0 253854:1.0 276745:1.0 289781:1.0 295791:1.0 324905:1.0 
0.0012990013082333583 0.0 2254:1.0 19455:1.0 44147:1.0 65075:1.0 81564:1.0 81581:1.0 91049:1.0 91067:1.0 105362:1.0 118728:1.0 174135:1.0 187832:1.0 225330:1.0 259539:1.0 279162:1.0 296320:1.0 322474:1.0 332241:1.0 335819:1.0 367363:1.0 
0.0 8.997367838153421E-4 13675:1.0 27660:1.0 68085:1.0 96770:1.0 139717:1.0 168470:1.0 204630:1.0 205250:1.0 218806:1.0 241163:1.0 272992:1.0 276287:1.0 
0.002915111260805757 0.0 4581:1.0 19455:1.0 52430:1.0 65086:1.0 81564:1.0 81581:1.0 105362:1.0 118728:1.0 183476:1.0 187838:1.0 248437:1.0 259545:1.0 267748:1.0 296306:1.0 315389:1.0 332245:1.0 343698:1.0 367362:1.0 
7.23283751325994E-4 0.0023161546653608384 13675:1.0 27660:1.0 67749:1.0 96764:1.0 141904:1.0 168469:1.0 203534:1.0 205244:1.0 230511:1.0 241177:1.0 
0.003501019845103362 0.0 6474:1.0 19453:1.0 33683:1.0 33700:1.0 42437:1.0 42455:1.0 54007:1.0 65081:1.0 81564:1.0 81581:1.0 91049:1.0 91067:1.0 105362:1.0 118728:1.0 151548:1.0 187837:1.0 251976:1.0 259533:1.0 278373:1.0 296319:1.0 303510:1.0 332245:1.0 
0.0 2.739575832031279E-5 13675:1.0 27660:1.0 62040:1.0 96771:1.0 162857:1.0 168469:1.0 194393:1.0 205252:1.0 
0.009302155176461734 0.0 21304:1.0 22625:1.0 39108:1.0 39125:1.0 62906:1.0 76272:1.0 135156:1.0 145372:1.0 181076:1.0 181094:1.0 183840:1.0 217090:1.0 236760:1.0 253855:1.0 272933:1.0 289789:1.0 322259:1.0 324905:1.0 
0.006402450272221566 5.798260500922305E-4 13675:1.0 27660:1.0 77445:1.0 96760:1.0 132464:1.0 132482:1.0 138601:1.0 168471:1.0 194393:1.0 205252:1.0 
0.005121567079698719 0.0 13675:1.0 27660:1.0 83396:1.0 96760:1.0 132464:1.0 132482:1.0 152894:1.0 168471:1.0 182139:1.0 205250:1.0 240042:1.0 241163:1.0 265815:1.0 276296:1.0 
0.00965955313456992 0.0 13675:1.0 27660:1.0 67788:1.0 96766:1.0 159520:1.0 168465:1.0 195311:1.0 205248:1.0 220731:1.0 241168:1.0 265815:1.0 276296:1.0 
5.187890972465528E-4 9.616385662757869E-4 13675:1.0 27660:1.0 67788:1.0 96766:1.0 124770:1.0 124788:1.0 158375:1.0 168475:1.0 184436:1.0 205243:1.0 230511:1.0 241177:1.0 
0.010016467241243256 0.0011900923551352116 13675:1.0 27660:1.0 91215:1.0 96760:1.0 132464:1.0 132482:1.0 154290:1.0 168471:1.0 175591:1.0 205238:1.0 230511:1.0 241177:1.0 
0.0037424317804017272 0.0013411587206321747 13675:1.0 27660:1.0 88105:1.0 96760:1.0 132464:1.0 132482:1.0 148351:1.0 168476:1.0 194584:1.0 205238:1.0 231406:1.0 241173:1.0 261065:1.0 276287:1.0 
0.004291209175544636 0.0 6442:1.0 19458:1.0 33683:1.0 33700:1.0 42437:1.0 42437:1.0 42455:1.0 42455:1.0 61616:1.0 65089:1.0 104743:1.0 118728:1.0 170284:1.0 187834:1.0 224117:1.0 259537:1.0 270179:1.0 296310:1.0 325381:1.0 332235:1.0 341157:1.0 367356:1.0 
0.00426386032884786 0.0 12036:1.0 22619:1.0 48593:1.0 48593:1.0 48611:1.0 48611:1.0 62906:1.0 76272:1.0 125952:1.0 145382:1.0 212178:1.0 217085:1.0 229340:1.0 253862:1.0 265144:1.0 289775:1.0 315670:1.0 324899:1.0 
0.002403229628821305 0.0 2630:1.0 22622:1.0 62287:1.0 76272:1.0 139670:1.0 145376:1.0 188545:1.0 217083:1.0 224295:1.0 253857:1.0 279123:1.0 289789:1.0 
0.0 2.847494378094351E-4 18426:1.0 22625:1.0 39108:1.0 39108:1.0 39125:1.0 39125:1.0 48593:1.0 48593:1.0 48593:1.0 48611:1.0 48611:1.0 48611:1.0 71274:1.0 76272:1.0 110715:1.0 145384:1.0 206657:1.0 217077:1.0 242768:1.0 253856:1.0 266437:1.0 289786:1.0 295753:1.0 324900:1.0 
0.002396573950920379 0.0 18426:1.0 22625:1.0 39108:1.0 39108:1.0 39125:1.0 39125:1.0 48593:1.0 48593:1.0 48593:1.0 48611:1.0 48611:1.0 48611:1.0 71274:1.0 76272:1.0 134768:1.0 145372:1.0 181076:1.0 181094:1.0 205808:1.0 217083:1.0 230078:1.0 253861:1.0 260136:1.0 289781:1.0 298503:1.0 324906:1.0 
0.005968330712181756 0.0 1520:1.0 19465:1.0 49029:1.0 65075:1.0 81564:1.0 81564:1.0 81581:1.0 81581:1.0 91049:1.0 91049:1.0 91067:1.0 91067:1.0 105362:1.0 118728:1.0 167086:1.0 187828:1.0 223532:1.0 223550:1.0 246997:1.0 259538:1.0 266144:1.0 296317:1.0 327486:1.0 332239:1.0 352398:1.0 367357:1.0 
8.252590334724488E-4 0.0 1520:1.0 19465:1.0 49029:1.0 65075:1.0 81564:1.0 81564:1.0 81581:1.0 81581:1.0 91049:1.0 91049:1.0 91067:1.0 91067:1.0 105362:1.0 118728:1.0 167086:1.0 187828:1.0 215838:1.0 215856:1.0 223532:1.0 223550:1.0 229763:1.0 259547:1.0 
0.006615453605615899 0.0 17013:1.0 22623:1.0 48593:1.0 48593:1.0 48611:1.0 48611:1.0 62906:1.0 76272:1.0 139320:1.0 145372:1.0 192907:1.0 217088:1.0 234120:1.0 253857:1.0 265026:1.0 289782:1.0 296656:1.0 324908:1.0 
0.0010140306829097279 0.0 17013:1.0 22623:1.0 48593:1.0 48593:1.0 48611:1.0 48611:1.0 62906:1.0 76272:1.0 139320:1.0 145372:1.0 173382:1.0 173400:1.0 197018:1.0 217084:1.0 228637:1.0 253857:1.0 261054:1.0 289789:1.0 
0.004316669407303851 0.0 9386:1.0 22625:1.0 39108:1.0 39108:1.0 39125:1.0 39125:1.0 48593:1.0 48611:1.0 62906:1.0 76272:1.0 133102:1.0 145382:1.0 212178:1.0 217085:1.0 250194:1.0 253863:1.0 280018:1.0 289785:1.0 312641:1.0 324905:1.0 
0.0 2.5022692046256726E-4 13675:1.0 27660:1.0 81510:1.0 96764:1.0 139933:1.0 168471:1.0 175683:1.0 205245:1.0 230511:1.0 241177:1.0 
0.004181600202738806 2.0251311728332796E-4 14121:1.0 22625:1.0 48593:1.0 48611:1.0 62287:1.0 76272:1.0 126870:1.0 145386:1.0 213407:1.0 217079:1.0 229586:1.0 253864:1.0 272171:1.0 289789:1.0 312641:1.0 324905:1.0 
0.001022146687894543 0.0 16772:1.0 19456:1.0 42437:1.0 42455:1.0 64480:1.0 65075:1.0 81564:1.0 81581:1.0 91049:1.0 91067:1.0 104743:1.0 118728:1.0 154022:1.0 187841:1.0 252239:1.0 259538:1.0 278387:1.0 296320:1.0 313392:1.0 332237:1.0 366099:1.0 367361:1.0 
9.704033140937075E-4 0.0 13740:1.0 19453:1.0 42437:1.0 42437:1.0 42437:1.0 42455:1.0 42455:1.0 42455:1.0 54169:1.0 65081:1.0 81564:1.0 81564:1.0 81581:1.0 81581:1.0 91049:1.0 91049:1.0 91067:1.0 91067:1.0 105362:1.0 118728:1.0 183476:1.0 187838:1.0 232757:1.0 259533:1.0 267033:1.0 296320:1.0 
5.555180198251027E-4 0.0 14052:1.0 19453:1.0 33683:1.0 33700:1.0 42437:1.0 42437:1.0 42437:1.0 42455:1.0 42455:1.0 42455:1.0 53319:1.0 65075:1.0 91049:1.0 91049:1.0 91067:1.0 91067:1.0 113730:1.0 118728:1.0 186487:1.0 187839:1.0 237876:1.0 259533:1.0 266688:1.0 296317:1.0 297940:1.0 332231:1.0 340529:1.0 367353:1.0 
0.0012418429286209546 0.0 4637:1.0 22625:1.0 39108:1.0 39125:1.0 48593:1.0 48593:1.0 48611:1.0 48611:1.0 62906:1.0 76272:1.0 118357:1.0 145384:1.0 212178:1.0 217081:1.0 250194:1.0 253863:1.0 260084:1.0 289785:1.0 294937:1.0 324900:1.0 
0.0020172335031015684 0.0 2630:1.0 22622:1.0 62287:1.0 76272:1.0 132251:1.0 145383:1.0 199884:1.0 217081:1.0 234065:1.0 253861:1.0 259463:1.0 289779:1.0 314427:1.0 324908:1.0 
4.3072751235031213E-4 0.0 5617:1.0 19453:1.0 33683:1.0 33700:1.0 49746:1.0 65081:1.0 81564:1.0 81581:1.0 91049:1.0 91067:1.0 105362:1.0 118728:1.0 186602:1.0 187838:1.0 224117:1.0 259537:1.0 272534:1.0 296317:1.0 317444:1.0 332231:1.0 362689:1.0 367358:1.0 
1.3662012534837047E-4 0.0 6015:1.0 19458:1.0 42437:1.0 42437:1.0 42455:1.0 42455:1.0 64861:1.0 65081:1.0 81564:1.0 81581:1.0 91049:1.0 91049:1.0 91049:1.0 91049:1.0 91067:1.0 91067:1.0 91067:1.0 91067:1.0 105362:1.0 118728:1.0 174707:1.0 187839:1.0 258127:1.0 259533:1.0 271807:1.0 296306:1.0 303510:1.0 332245:1.0 
0.0033061198923013363 0.0 10634:1.0 22625:1.0 48593:1.0 48593:1.0 48593:1.0 48611:1.0 48611:1.0 48611:1.0 62906:1.0 76272:1.0 113733:1.0 145381:1.0 201283:1.0 217077:1.0 246700:1.0 253863:1.0 270339:1.0 289786:1.0 320233:1.0 324902:1.0 
9.059457309375309E-4 0.0 5657:1.0 19463:1.0 42437:1.0 42455:1.0 52742:1.0 65082:1.0 91049:1.0 91067:1.0 104743:1.0 118728:1.0 170087:1.0 187842:1.0 239419:1.0 259544:1.0 284434:1.0 296313:1.0 303418:1.0 332238:1.0 350796:1.0 367364:1.0 
0.0033227133593684214 0.0 8829:1.0 19459:1.0 42437:1.0 42455:1.0 53657:1.0 65089:1.0 105362:1.0 118728:1.0 167370:1.0 187839:1.0 247461:1.0 259540:1.0 266940:1.0 296313:1.0 315389:1.0 332245:1.0 356819:1.0 367362:1.0 
0.006402608958827408 0.0 5657:1.0 19463:1.0 42437:1.0 42455:1.0 52742:1.0 65082:1.0 91049:1.0 91067:1.0 104743:1.0 118728:1.0 175541:1.0 187835:1.0 223532:1.0 223532:1.0 223550:1.0 223550:1.0 229668:1.0 259540:1.0 279162:1.0 296320:1.0 321514:1.0 332243:1.0 348283:1.0 367350:1.0 
0.003525550794071216 0.0 1525:1.0 19458:1.0 33683:1.0 33700:1.0 42437:1.0 42437:1.0 42437:1.0 42437:1.0 42437:1.0 42455:1.0 42455:1.0 42455:1.0 42455:1.0 42455:1.0 44841:1.0 65075:1.0 81564:1.0 81581:1.0 91049:1.0 91049:1.0 91067:1.0 91067:1.0 114487:1.0 118728:1.0 152915:1.0 187828:1.0 223532:1.0 223550:1.0 239419:1.0 259544:1.0 288226:1.0 296306:1.0 315707:1.0 332237:1.0 343698:1.0 367362:1.0 
0.0010567532977597434 0.0 4581:1.0 19455:1.0 48351:1.0 65079:1.0 81564:1.0 81581:1.0 91049:1.0 91049:1.0 91049:1.0 91067:1.0 91067:1.0 91067:1.0 104743:1.0 118728:1.0 182126:1.0 187832:1.0 242096:1.0 259539:1.0 266688:1.0 296317:1.0 309552:1.0 332243:1.0 335996:1.0 367354:1.0 
0.004224984848420405 0.0 13675:1.0 27660:1.0 62040:1.0 96771:1.0 162857:1.0 168469:1.0 192554:1.0 205249:1.0 214320:1.0 241175:1.0 251575:1.0 276282:1.0 
0.007053222130735971 0.0 13675:1.0 27660:1.0 91058:1.0 96764:1.0 132464:1.0 132482:1.0 155568:1.0 168476:1.0 177889:1.0 205250:1.0 216033:1.0 241163:1.0 250491:1.0 276292:1.0 
9.113659022902963E-4 0.0 1755:1.0 19453:1.0 42437:1.0 42455:1.0 42485:1.0 65075:1.0 81564:1.0 81581:1.0 91049:1.0 91049:1.0 91067:1.0 91067:1.0 105362:1.0 118728:1.0 177680:1.0 187840:1.0 239959:1.0 259537:1.0 276521:1.0 296317:1.0 305388:1.0 332243:1.0 346700:1.0 367354:1.0 
0.0011815498105085022 0.0 1755:1.0 19453:1.0 42437:1.0 42455:1.0 42485:1.0 65075:1.0 81564:1.0 81581:1.0 91049:1.0 91049:1.0 91067:1.0 91067:1.0 105362:1.0 118728:1.0 167916:1.0 187832:1.0 223532:1.0 223550:1.0 239419:1.0 259544:1.0 268957:1.0 296318:1.0 311224:1.0 332235:1.0 366834:1.0 367356:1.0 
0.0030059144950566725 0.0 1014:1.0 19463:1.0 47058:1.0 65083:1.0 105362:1.0 118728:1.0 163238:1.0 187839:1.0 256848:1.0 259533:1.0 276521:1.0 296317:1.0 308173:1.0 332243:1.0 341484:1.0 367355:1.0 
0.003883821853409595 0.0 15107:1.0 22632:1.0 48593:1.0 48593:1.0 48593:1.0 48611:1.0 48611:1.0 48611:1.0 62906:1.0 76272:1.0 139670:1.0 145384:1.0 201245:1.0 217077:1.0 224577:1.0 253864:1.0 
0.0022912746467051736 0.0 187:1.0 19458:1.0 58990:1.0 65081:1.0 81564:1.0 81581:1.0 91049:1.0 91049:1.0 91049:1.0 91049:1.0 91049:1.0 91067:1.0 91067:1.0 91067:1.0 91067:1.0 91067:1.0 105362:1.0 118728:1.0 187224:1.0 187841:1.0 246636:1.0 259544:1.0 292252:1.0 296313:1.0 324001:1.0 332239:1.0 355097:1.0 367361:1.0 
0.002418672643468264 0.0 7285:1.0 19453:1.0 33683:1.0 33683:1.0 33700:1.0 33700:1.0 42437:1.0 42437:1.0 42455:1.0 42455:1.0 61959:1.0 65079:1.0 105362:1.0 118728:1.0 186487:1.0 187839:1.0 240492:1.0 259533:1.0 278387:1.0 296320:1.0 319109:1.0 332237:1.0 350050:1.0 367364:1.0 
0.005297797669186803 0.0 13675:1.0 27660:1.0 92335:1.0 96760:1.0 132464:1.0 132482:1.0 153346:1.0 168475:1.0 185453:1.0 205249:1.0 226996:1.0 241169:1.0 251066:1.0 276286:1.0 
4.423734367548795E-5 0.0 14178:1.0 27660:1.0 82674:1.0 96764:1.0 139880:1.0 168473:1.0 201582:1.0 205251:1.0 206986:1.0 241167:1.0 269258:1.0 276292:1.0 
0.0019591441814458153 0.0 4345:1.0 19458:1.0 33683:1.0 33700:1.0 42437:1.0 42455:1.0 59709:1.0 65083:1.0 104636:1.0 118728:1.0 162473:1.0 187840:1.0 223763:1.0 259533:1.0 278250:1.0 296320:1.0 327486:1.0 332235:1.0 358223:1.0 367356:1.0 
4.399230139071508E-4 0.0 12908:1.0 22625:1.0 39108:1.0 39108:1.0 39108:1.0 39125:1.0 39125:1.0 39125:1.0 48593:1.0 48611:1.0 62906:1.0 76272:1.0 136274:1.0 145380:1.0 216124:1.0 217083:1.0 226501:1.0 253862:1.0 264120:1.0 289775:1.0 292059:1.0 324899:1.0 
0.0010159417681891547 0.0 11976:1.0 19453:1.0 33683:1.0 33683:1.0 33683:1.0 33683:1.0 33700:1.0 33700:1.0 33700:1.0 33700:1.0 42437:1.0 42455:1.0 56406:1.0 65075:1.0 105362:1.0 118728:1.0 163937:1.0 187840:1.0 252956:1.0 259538:1.0 282666:1.0 296306:1.0 315389:1.0 332245:1.0 355097:1.0 367361:1.0 
0.0026667428488624276 0.0 11976:1.0 19453:1.0 33683:1.0 33683:1.0 33683:1.0 33683:1.0 33700:1.0 33700:1.0 33700:1.0 33700:1.0 65000:1.0 65081:1.0 81564:1.0 81581:1.0 91049:1.0 91067:1.0 105362:1.0 118728:1.0 157189:1.0 187839:1.0 258513:1.0 259533:1.0 279162:1.0 296320:1.0 319774:1.0 332242:1.0 340959:1.0 367362:1.0 
0.002514665101944389 0.0 7859:1.0 22623:1.0 62906:1.0 76272:1.0 136713:1.0 145380:1.0 200849:1.0 217089:1.0 233932:1.0 253862:1.0 289032:1.0 289775:1.0 305791:1.0 324905:1.0 
0.0031783172537361197 0.0 7373:1.0 22630:1.0 39108:1.0 39108:1.0 39125:1.0 39125:1.0 72031:1.0 76272:1.0 135109:1.0 145382:1.0 201746:1.0 217082:1.0 226053:1.0 253853:1.0 263324:1.0 289780:1.0 316803:1.0 324902:1.0 
0.0015393507840411255 0.0 9375:1.0 22625:1.0 39108:1.0 39125:1.0 48593:1.0 48593:1.0 48593:1.0 48611:1.0 48611:1.0 48611:1.0 62906:1.0 76272:1.0 128057:1.0 145372:1.0 212178:1.0 217085:1.0 229340:1.0 253862:1.0 270339:1.0 289786:1.0 306583:1.0 324901:1.0 
7.913355933362711E-4 0.0 18691:1.0 19458:1.0 42437:1.0 42437:1.0 42437:1.0 42437:1.0 42455:1.0 42455:1.0 42455:1.0 42455:1.0 61616:1.0 65089:1.0 104743:1.0 118728:1.0 153371:1.0 187832:1.0 234230:1.0 259546:1.0 264134:1.0 296312:1.0 316849:1.0 332231:1.0 340529:1.0 367353:1.0 
0.001279818914676529 0.0 4581:1.0 19455:1.0 56406:1.0 65075:1.0 91049:1.0 91067:1.0 105362:1.0 118728:1.0 182843:1.0 187832:1.0 239419:1.0 259544:1.0 270459:1.0 296306:1.0 307806:1.0 332244:1.0 349854:1.0 367356:1.0 
8.926373441892994E-4 0.0 11647:1.0 19458:1.0 42437:1.0 42437:1.0 42455:1.0 42455:1.0 61616:1.0 65089:1.0 104743:1.0 118728:1.0 159153:1.0 187838:1.0 254634:1.0 259541:1.0 293302:1.0 296319:1.0 328630:1.0 332244:1.0 365980:1.0 367360:1.0 
0.005027164930915833 0.0 13884:1.0 22625:1.0 39108:1.0 39125:1.0 48593:1.0 48611:1.0 62906:1.0 76272:1.0 144031:1.0 145383:1.0 188492:1.0 217085:1.0 243892:1.0 253863:1.0 255622:1.0 289782:1.0 290846:1.0 324900:1.0 
0.0024468597845644195 0.0 13675:1.0 27660:1.0 77393:1.0 96773:1.0 158375:1.0 168475:1.0 196072:1.0 205242:1.0 223559:1.0 241177:1.0 270066:1.0 276288:1.0 
5.399761528035273E-4 0.0 13675:1.0 27660:1.0 91912:1.0 96772:1.0 158421:1.0 168465:1.0 182139:1.0 205250:1.0 239024:1.0 241170:1.0 263279:1.0 276289:1.0 
0.004793078242727971 3.524899605737739E-5 13675:1.0 27660:1.0 86544:1.0 96760:1.0 132464:1.0 132482:1.0 144978:1.0 168477:1.0 203065:1.0 205245:1.0 227940:1.0 241170:1.0 253916:1.0 276288:1.0 
0.00918497859114452 0.0 13675:1.0 27660:1.0 62734:1.0 96766:1.0 156418:1.0 168478:1.0 188094:1.0 205252:1.0 234239:1.0 241169:1.0 251066:1.0 276286:1.0 
0.005241986907502325 0.001238179627611836 13675:1.0 27660:1.0 81012:1.0 96762:1.0 151027:1.0 168479:1.0 201582:1.0 205251:1.0 234417:1.0 241175:1.0 245007:1.0 276282:1.0 
0.0 2.5231498862838154E-4 13675:1.0 27660:1.0 81012:1.0 96762:1.0 124770:1.0 124788:1.0 164752:1.0 168478:1.0 198370:1.0 205250:1.0 209355:1.0 241163:1.0 258982:1.0 276296:1.0 
0.0021212101702135725 1.0324435643458287E-4 13675:1.0 27660:1.0 83435:1.0 96768:1.0 146192:1.0 168469:1.0 204391:1.0 205251:1.0 223559:1.0 241177:1.0 261417:1.0 276288:1.0 
0.0014388523903761845 0.0 16772:1.0 19460:1.0 49382:1.0 65075:1.0 91049:1.0 91049:1.0 91067:1.0 91067:1.0 105362:1.0 118728:1.0 160813:1.0 187840:1.0 254634:1.0 259537:1.0 289657:1.0 296312:1.0 308173:1.0 332243:1.0 344461:1.0 367350:1.0 
0.006245649313801583 0.0 13675:1.0 27660:1.0 62734:1.0 96766:1.0 156418:1.0 168478:1.0 187319:1.0 205252:1.0 230746:1.0 241167:1.0 249130:1.0 276288:1.0 
5.492413646560702E-5 0.0 14633:1.0 19460:1.0 61596:1.0 65079:1.0 91049:1.0 91067:1.0 105362:1.0 118728:1.0 162473:1.0 187840:1.0 245215:1.0 259538:1.0 279162:1.0 296320:1.0 299835:1.0 332237:1.0 359498:1.0 367363:1.0 
0.0 5.102911119475827E-5 22291:1.0 22625:1.0 39108:1.0 39108:1.0 39125:1.0 39125:1.0 48593:1.0 48593:1.0 48611:1.0 48611:1.0 72031:1.0 76272:1.0 126691:1.0 145386:1.0 199499:1.0 217091:1.0 240241:1.0 253854:1.0 271058:1.0 289785:1.0 305791:1.0 324905:1.0 
0.01323859060281693 0.0 13568:1.0 27660:1.0 89616:1.0 96766:1.0 132464:1.0 132482:1.0 151027:1.0 168479:1.0 182789:1.0 205244:1.0 225487:1.0 241175:1.0 256166:1.0 276287:1.0 
8.680158285904531E-4 0.0 13704:1.0 27660:1.0 84129:1.0 96773:1.0 135768:1.0 168470:1.0 188094:1.0 205252:1.0 235845:1.0 241176:1.0 268336:1.0 276287:1.0 
0.0026123666543114974 0.0029886820879736526 13704:1.0 27660:1.0 68931:1.0 96763:1.0 161510:1.0 168469:1.0 188094:1.0 205252:1.0 236518:1.0 241171:1.0 269509:1.0 276288:1.0 
0.0 1.7342541213119373E-4 13675:1.0 27660:1.0 78184:1.0 96764:1.0 155013:1.0 168469:1.0 184554:1.0 205244:1.0 239892:1.0 241174:1.0 242715:1.0 276289:1.0 
0.0012854760449359404 0.0 12455:1.0 19458:1.0 42437:1.0 42437:1.0 42455:1.0 42455:1.0 53268:1.0 65081:1.0 81564:1.0 81581:1.0 91049:1.0 91049:1.0 91067:1.0 91067:1.0 105362:1.0 118728:1.0 179169:1.0 187836:1.0 246636:1.0 259544:1.0 277205:1.0 296306:1.0 312795:1.0 332242:1.0 336095:1.0 367357:1.0 
4.028824371089681E-4 0.0 598:1.0 19457:1.0 42437:1.0 42455:1.0 55415:1.0 65081:1.0 81564:1.0 81564:1.0 81581:1.0 81581:1.0 91049:1.0 91049:1.0 91067:1.0 91067:1.0 105362:1.0 118728:1.0 183402:1.0 187839:1.0 247522:1.0 259543:1.0 284209:1.0 296312:1.0 327242:1.0 332244:1.0 356819:1.0 367362:1.0 
0.0 0.0045128394373991736 13675:1.0 27660:1.0 62040:1.0 96771:1.0 162857:1.0 168469:1.0 194393:1.0 205252:1.0 
0.001447927219977372 0.0 12952:1.0 19453:1.0 33683:1.0 33683:1.0 33700:1.0 33700:1.0 42437:1.0 42455:1.0 44089:1.0 65075:1.0 91049:1.0 91067:1.0 105362:1.0 118728:1.0 178226:1.0 187839:1.0 228955:1.0 259540:1.0 283763:1.0 296313:1.0 315389:1.0 332245:1.0 362689:1.0 367354:1.0 
0.005851722906173105 0.0 18330:1.0 22619:1.0 39108:1.0 39125:1.0 62906:1.0 76272:1.0 115171:1.0 145380:1.0 199639:1.0 217091:1.0 225736:1.0 253858:1.0 277433:1.0 289785:1.0 305791:1.0 324905:1.0 
1.8367461406058815E-4 0.0 10075:1.0 19466:1.0 46369:1.0 65083:1.0 105362:1.0 118728:1.0 158753:1.0 187836:1.0 246757:1.0 259543:1.0 276521:1.0 296317:1.0 298867:1.0 332241:1.0 355588:1.0 367355:1.0 
3.414045647953057E-4 0.0 12579:1.0 19458:1.0 42437:1.0 42437:1.0 42455:1.0 42455:1.0 45734:1.0 65079:1.0 81564:1.0 81581:1.0 105362:1.0 118728:1.0 155897:1.0 187841:1.0 234883:1.0 259545:1.0 264017:1.0 296311:1.0 326554:1.0 332231:1.0 350796:1.0 367364:1.0 
2.862938589202445E-4 0.0 4581:1.0 19455:1.0 59460:1.0 65078:1.0 81564:1.0 81564:1.0 81581:1.0 81581:1.0 104743:1.0 118728:1.0 182126:1.0 187832:1.0 256689:1.0 259539:1.0 283622:1.0 296317:1.0 329801:1.0 332243:1.0 353816:1.0 367350:1.0 
0.0036395930412079975 0.0 22100:1.0 22626:1.0 39108:1.0 39125:1.0 48593:1.0 48593:1.0 48611:1.0 48611:1.0 72031:1.0 76272:1.0 132115:1.0 145372:1.0 181076:1.0 181094:1.0 185373:1.0 217090:1.0 236706:1.0 253864:1.0 277318:1.0 289786:1.0 320233:1.0 324898:1.0 
0.0013698803834638698 0.0 16471:1.0 19466:1.0 56931:1.0 65075:1.0 81564:1.0 81581:1.0 91049:1.0 91067:1.0 105362:1.0 118728:1.0 174707:1.0 187839:1.0 254634:1.0 259537:1.0 287627:1.0 296316:1.0 311591:1.0 332237:1.0 344403:1.0 367361:1.0 
0.0012091926363658246 0.0 4157:1.0 19458:1.0 61959:1.0 65083:1.0 105362:1.0 118728:1.0 158753:1.0 187836:1.0 258890:1.0 259537:1.0 264396:1.0 296312:1.0 312795:1.0 332242:1.0 360810:1.0 367350:1.0 
0.007660488420745464 0.0 16772:1.0 19460:1.0 58769:1.0 65075:1.0 91049:1.0 91067:1.0 105362:1.0 118728:1.0 168385:1.0 187841:1.0 239419:1.0 259544:1.0 264504:1.0 296311:1.0 315389:1.0 332245:1.0 340485:1.0 367360:1.0 
